{
  "obs_dim": 4,
  "action_dim": 2,
  "hidden_dim": 128,
  "activation": "ReLU",
  "metadata": {
    "total_steps": 1010545,
    "total_episodes": 21947,
    "final_performance": 46.04478972069076,
    "training_time_secs": 29.7195175,
    "device": "Cpu",
    "environment": "CartPole-v1",
    "algorithm": "PPO (Proximal Policy Optimization)",
    "timestamp": "2025-11-07T01:26:39.550807+00:00",
    "notes": "Modern RL training: ReLU activation, 128 hidden units, n_steps=256, lr=0.0003->0 (linear decay), no obs normalization (inference compatible). Achieved 46.0 steps/episode in 29.7s (34003 steps/sec)."
  },
  "shared_fc1_weight": [
    [
      0.12064805,
      0.0019114394,
      0.12863603,
      0.0026623586
    ],
    [
      0.12012333,
      -0.069979526,
      0.055773802,
      -0.048844196
    ],
    [
      0.09830813,
      0.23072354,
      -0.14455315,
      -0.1906606
    ],
    [
      0.05460919,
      0.004777715,
      0.028233515,
      0.027071146
    ],
    [
      0.074915335,
      -0.05575193,
      -0.16687872,
      0.06524265
    ],
    [
      -0.43850186,
      -0.39760718,
      -0.24612421,
      -0.12992541
    ],
    [
      0.0842643,
      0.16509916,
      0.14736046,
      0.03190693
    ],
    [
      0.073637545,
      0.02782013,
      0.059196565,
      -0.084998176
    ],
    [
      -0.19151305,
      0.011688809,
      0.056032177,
      0.08946004
    ],
    [
      -0.047440257,
      0.0005696835,
      -0.24652901,
      0.24736674
    ],
    [
      -0.014180955,
      -0.014385667,
      0.014520264,
      0.22215748
    ],
    [
      -0.23874375,
      0.022624388,
      0.15779205,
      0.08489882
    ],
    [
      -0.13564323,
      -0.28449282,
      -0.5527531,
      -0.3543434
    ],
    [
      -0.27721584,
      -0.2299666,
      0.29545796,
      0.21726052
    ],
    [
      0.13815309,
      -0.14090611,
      -0.2878033,
      0.060613282
    ],
    [
      0.06727376,
      0.0107526565,
      0.114494465,
      0.2020783
    ],
    [
      -0.02725099,
      0.14281046,
      0.09998825,
      0.008640626
    ],
    [
      -0.17134519,
      -0.023437899,
      -0.17310987,
      -0.038263645
    ],
    [
      -0.026960157,
      0.075145945,
      0.07839731,
      0.01013088
    ],
    [
      0.1770367,
      0.32471898,
      0.4892085,
      0.33075488
    ],
    [
      -0.048869643,
      -0.14999162,
      0.17741357,
      0.19243628
    ],
    [
      -0.2589549,
      -0.5261215,
      -0.30488816,
      -0.48090386
    ],
    [
      -0.20096146,
      0.21356435,
      0.15772367,
      -0.2708817
    ],
    [
      -0.103376426,
      -0.16370015,
      0.019386893,
      0.02461435
    ],
    [
      -0.21616367,
      0.06730134,
      0.18413243,
      0.40221736
    ],
    [
      0.102782466,
      0.15734375,
      -0.32786423,
      -0.16872767
    ],
    [
      -0.035322607,
      0.1033055,
      0.22793062,
      0.09960316
    ],
    [
      -0.12121822,
      0.0017425707,
      0.15383461,
      -0.14292821
    ],
    [
      -0.05594503,
      -0.069050014,
      0.102838844,
      0.11535846
    ],
    [
      0.05863412,
      0.24500509,
      0.19882502,
      0.2551425
    ],
    [
      -0.09341866,
      0.05717025,
      0.0020039391,
      0.07597843
    ],
    [
      0.297658,
      0.26829556,
      0.046088472,
      0.07516237
    ],
    [
      -0.07233245,
      -0.04776023,
      -0.07303651,
      -0.04130559
    ],
    [
      -0.040560964,
      -0.074739516,
      0.085006654,
      -0.026432399
    ],
    [
      -0.2190992,
      0.11047884,
      0.106915824,
      -0.006655438
    ],
    [
      -0.10831416,
      -0.15413357,
      0.140652,
      -0.0618244
    ],
    [
      0.0793763,
      0.06630423,
      -0.061764732,
      0.11248061
    ],
    [
      0.01576681,
      -0.0652889,
      0.023005603,
      -0.18221287
    ],
    [
      -0.021658171,
      0.05444173,
      0.09381046,
      0.085415274
    ],
    [
      -0.21532291,
      0.18902819,
      -0.019514462,
      0.013605277
    ],
    [
      -0.089712985,
      0.16078793,
      0.008839056,
      -0.01861264
    ],
    [
      -0.04247843,
      -0.021445712,
      0.06361092,
      -0.23875953
    ],
    [
      0.08296282,
      -0.2528338,
      -0.0011136163,
      0.05700923
    ],
    [
      -0.029519247,
      0.19141752,
      0.45854276,
      -0.2797706
    ],
    [
      -0.19120061,
      0.3291946,
      -0.074932456,
      -0.1678355
    ],
    [
      0.02158378,
      -0.07692961,
      -0.12524804,
      -0.27021754
    ],
    [
      0.26543462,
      -0.119631976,
      0.006518795,
      0.092064664
    ],
    [
      -0.16976707,
      0.0590149,
      -0.1423827,
      -0.015790021
    ],
    [
      -0.4196116,
      -0.104442194,
      -0.31687877,
      0.16663605
    ],
    [
      -0.043919586,
      -0.07470795,
      -0.1346113,
      0.14247046
    ],
    [
      0.03287677,
      -0.0027553907,
      0.046039246,
      0.062213425
    ],
    [
      -0.005576901,
      0.019648891,
      0.055826016,
      -0.061572354
    ],
    [
      0.1379763,
      -0.057058115,
      -0.5050814,
      -0.45419335
    ],
    [
      -0.044207867,
      0.06596342,
      -0.018778522,
      0.046257157
    ],
    [
      0.19388631,
      -0.05107587,
      0.1468865,
      0.039750744
    ],
    [
      -0.03732902,
      -0.048751134,
      0.13359098,
      0.10061786
    ],
    [
      0.0332104,
      0.3230019,
      0.35648945,
      0.29521862
    ],
    [
      -0.20155151,
      0.15000704,
      0.30907273,
      -0.19140686
    ],
    [
      -0.06931248,
      0.10347573,
      -0.013681406,
      0.021667266
    ],
    [
      0.13210618,
      0.025909003,
      0.14965296,
      -0.17652573
    ],
    [
      -0.12800935,
      -0.050915137,
      -0.14509006,
      0.0066192127
    ],
    [
      -0.03372536,
      0.06671506,
      -0.047128398,
      0.0050862534
    ],
    [
      0.008237748,
      0.1725475,
      -0.11070378,
      0.04765406
    ],
    [
      -0.12259393,
      -0.0125889145,
      0.015457353,
      0.024102598
    ],
    [
      0.087116815,
      -0.2122207,
      -0.030614017,
      0.22288512
    ],
    [
      -0.15986577,
      0.146888,
      0.024553606,
      0.13792153
    ],
    [
      0.083613224,
      -0.10016896,
      -0.042438067,
      0.23498054
    ],
    [
      -0.20072632,
      -0.21424833,
      0.07123583,
      0.14799857
    ],
    [
      0.1431866,
      -0.011873495,
      -0.029011948,
      0.08087859
    ],
    [
      0.17955618,
      -0.18431449,
      -0.44796568,
      -0.35945773
    ],
    [
      -0.25088823,
      -0.37824118,
      -0.30948004,
      -0.2116331
    ],
    [
      0.28571114,
      0.41430864,
      0.34116334,
      0.19749139
    ],
    [
      -0.38506454,
      0.0024119166,
      0.07539529,
      -0.33215782
    ],
    [
      -0.0992479,
      0.06553273,
      -0.029988742,
      0.14727883
    ],
    [
      0.11426496,
      -0.13764878,
      0.02601545,
      -0.16059709
    ],
    [
      0.15984583,
      0.12060658,
      -0.316942,
      -0.4425749
    ],
    [
      -0.28565988,
      -0.57426333,
      -0.38763213,
      -0.46303627
    ],
    [
      0.011875684,
      0.00994886,
      0.2311087,
      0.11914518
    ],
    [
      -0.14296389,
      -0.13533267,
      0.026258659,
      -0.0753938
    ],
    [
      -0.18522638,
      0.051400993,
      0.12347549,
      0.044019
    ],
    [
      -0.07239454,
      0.0015925656,
      0.009508227,
      0.11231183
    ],
    [
      0.15046334,
      -0.13597651,
      -0.108141355,
      0.15133926
    ],
    [
      -0.04910735,
      -0.537396,
      -0.23643273,
      -0.27708355
    ],
    [
      -0.1967368,
      -0.07229682,
      0.2755566,
      0.10109346
    ],
    [
      -0.0034823164,
      0.10326481,
      0.12620918,
      0.0068440703
    ],
    [
      0.062705286,
      -0.15651335,
      -0.14784744,
      0.04331646
    ],
    [
      -0.14626569,
      0.23616329,
      0.11783841,
      -0.1952543
    ],
    [
      0.23182999,
      0.3577106,
      0.02734351,
      0.3450826
    ],
    [
      0.020300083,
      0.10893452,
      0.5601949,
      0.3768721
    ],
    [
      -0.13441288,
      -0.07802492,
      0.14288612,
      -0.11043199
    ],
    [
      -0.08693337,
      0.026668172,
      -0.06327159,
      0.112727225
    ],
    [
      0.14786296,
      0.16784313,
      0.09990422,
      -0.29994828
    ],
    [
      -0.11695309,
      -0.09730198,
      0.022642415,
      0.23851843
    ],
    [
      0.04312408,
      -0.16587974,
      -0.15635918,
      0.09000205
    ],
    [
      0.025799455,
      -0.03388939,
      0.07305046,
      0.109139845
    ],
    [
      0.01945568,
      -0.108764544,
      0.1509082,
      0.13327536
    ],
    [
      -0.02695165,
      -0.16488592,
      -0.112574525,
      0.009293999
    ],
    [
      -0.0727264,
      0.14999324,
      -0.39394528,
      -0.03507713
    ],
    [
      0.06976404,
      -0.14088996,
      0.107387096,
      0.20250428
    ],
    [
      0.11532896,
      0.0738507,
      0.026424821,
      -0.13874091
    ],
    [
      -0.2015044,
      0.05862518,
      -0.1998442,
      -0.08087863
    ],
    [
      -0.15351959,
      -0.029788338,
      0.08520532,
      0.11731961
    ],
    [
      0.037752114,
      0.056977257,
      -0.03381085,
      -0.12635224
    ],
    [
      -0.12669554,
      0.042051647,
      -0.11389987,
      0.00804055
    ],
    [
      0.008473674,
      0.15140365,
      0.12933129,
      0.036519688
    ],
    [
      -0.13151424,
      0.26445642,
      -0.13016652,
      0.29988438
    ],
    [
      0.049328607,
      0.0061905766,
      -0.027706098,
      0.06392298
    ],
    [
      -0.046390362,
      0.008809872,
      0.16182074,
      -0.07151055
    ],
    [
      -0.1213277,
      -0.0072557074,
      -0.16292128,
      0.25516015
    ],
    [
      -0.11776334,
      0.12571701,
      0.07192574,
      0.046256833
    ],
    [
      -0.02046522,
      0.058493868,
      -0.20736028,
      -0.047188524
    ],
    [
      -0.056985285,
      -0.16549082,
      -0.065174684,
      0.10764083
    ],
    [
      0.104782894,
      -0.1725541,
      -0.0464617,
      0.15170987
    ],
    [
      0.02966043,
      0.023979,
      -0.09506612,
      0.03652404
    ],
    [
      0.4452623,
      0.16297917,
      -0.059149932,
      -0.12062487
    ],
    [
      0.15403162,
      -0.07198546,
      -0.06607672,
      0.046151698
    ],
    [
      -0.09958284,
      -0.10058318,
      0.059275236,
      -0.15936056
    ],
    [
      -0.17672068,
      -0.13015655,
      0.33221123,
      0.3490584
    ],
    [
      -0.16889215,
      0.024038589,
      -0.17076033,
      0.0058928574
    ],
    [
      0.11040769,
      -0.059338946,
      0.23986806,
      0.112946756
    ],
    [
      0.1610621,
      -0.15949342,
      -0.5199702,
      -0.40598056
    ],
    [
      -0.16158377,
      0.034693185,
      -0.035479564,
      0.0016150184
    ],
    [
      -0.23015217,
      0.122064985,
      0.21177287,
      0.05900246
    ],
    [
      0.21011002,
      0.37084946,
      0.23506713,
      0.18232387
    ],
    [
      -0.06884016,
      -0.055637516,
      0.04871831,
      -0.014189691
    ],
    [
      -0.042816974,
      -0.23461494,
      0.063141674,
      -0.06890194
    ],
    [
      -0.117224745,
      -0.06563094,
      0.16787048,
      0.208515
    ],
    [
      -0.1453807,
      0.025815105,
      0.09873188,
      0.21136105
    ]
  ],
  "shared_fc1_bias": [
    -0.48450714,
    0.5935838,
    0.14559014,
    -0.30464464,
    0.44656208,
    -0.2701389,
    -0.09938652,
    0.20957093,
    0.4543046,
    0.25443095,
    0.31147903,
    0.44850174,
    -0.004667613,
    -0.07183754,
    -0.2858813,
    0.28261116,
    0.3144935,
    0.32377267,
    0.36049917,
    -0.03165593,
    0.55310714,
    -0.07759597,
    0.08307912,
    0.53710717,
    -0.084304385,
    -0.2927527,
    0.49812007,
    0.20968002,
    0.26923156,
    -0.014046709,
    0.10749564,
    -0.21371943,
    -0.3170097,
    -0.42928106,
    -0.34662092,
    0.5574726,
    -0.39396998,
    0.23077594,
    -0.1788261,
    -0.27398488,
    0.19914696,
    0.36937198,
    0.50114566,
    0.10074824,
    0.18538815,
    0.47716403,
    0.18507212,
    0.3303417,
    0.0075165094,
    -0.3645572,
    -0.434848,
    0.5194093,
    -0.08122474,
    -0.16139942,
    0.10379828,
    0.39971897,
    -0.017159792,
    0.2348258,
    -0.25310832,
    0.08988903,
    -0.30343637,
    0.13486868,
    0.36661935,
    0.16323361,
    0.5530637,
    0.13705498,
    0.13775113,
    0.51802284,
    0.10448484,
    -0.010869633,
    0.009619834,
    -0.12871453,
    0.4806078,
    0.5473644,
    0.20162171,
    -0.14695024,
    -0.05003133,
    0.18645532,
    0.44935992,
    -0.21112624,
    -0.2793274,
    0.06776679,
    -0.07869901,
    -0.46313372,
    0.31987536,
    0.25915283,
    0.15706083,
    -0.06035126,
    -0.07605184,
    0.5275043,
    0.1739666,
    0.27534798,
    0.54586345,
    0.34176165,
    -0.35864884,
    0.46396145,
    -0.435264,
    0.5636353,
    0.46293148,
    0.19114098,
    0.23592761,
    0.42775416,
    0.5277591,
    0.18601052,
    0.42832512,
    0.30569768,
    -0.22483212,
    0.14549729,
    0.5585432,
    0.345075,
    -0.33678705,
    0.08798565,
    0.12071531,
    -0.34331977,
    -0.2925937,
    -0.32002085,
    0.4996274,
    -0.11140696,
    0.31883353,
    -0.3555886,
    -0.030090407,
    0.46222,
    0.2509941,
    -0.29675913,
    -0.40536827,
    0.4393436,
    0.47340634,
    0.35201526
  ],
  "shared_fc2_weight": [
    [
      0.054470755,
      0.037253767,
      -0.014779697,
      0.034117203,
      0.26422742,
      -0.10721571,
      0.015623318,
      0.08661156,
      0.03078598,
      -0.062536605,
      -0.0065950463,
      0.10838238,
      -0.25252432,
      -0.31624955,
      -0.020328742,
      0.083998494,
      0.173039,
      0.04850885,
      -0.036260016,
      -0.19899862,
      0.044691402,
      -0.4504402,
      0.20756376,
      -0.17433147,
      -0.22848737,
      -0.041559845,
      0.014371665,
      0.0619388,
      -0.008618309,
      -0.27515155,
      0.26289272,
      -0.20849033,
      -0.076647654,
      0.041316275,
      0.14891912,
      -0.115286656,
      0.07001277,
      0.115626775,
      -0.17896795,
      -0.16347498,
      0.31257272,
      0.21091284,
      0.18077806,
      -0.060463537,
      -0.057341147,
      0.033618174,
      0.13033041,
      0.15405257,
      -0.20590608,
      -0.17015913,
      0.06309705,
      0.16933349,
      -0.10335726,
      0.010037132,
      0.052189022,
      -0.11608499,
      -0.2328348,
      0.14269978,
      0.063071854,
      -0.11952001,
      -0.055251922,
      0.35807586,
      0.09670223,
      -0.0052805995,
      0.040954515,
      -0.10894225,
      -0.01404932,
      -0.056068975,
      0.057370216,
      -0.38257447,
      -0.2587994,
      -0.38212562,
      0.3374558,
      0.2453996,
      -0.03585469,
      -0.22548822,
      -0.11665815,
      0.05580057,
      0.16704668,
      -0.14290395,
      0.11207677,
      0.08649283,
      -0.28076157,
      0.1625105,
      0.037480902,
      0.14423922,
      0.30249032,
      -0.18325502,
      -0.42415452,
      0.08100809,
      0.39474845,
      0.24852501,
      0.18132336,
      0.2103859,
      0.014602835,
      0.053045943,
      0.056014188,
      0.27217668,
      -0.05240376,
      0.10753105,
      0.15279438,
      0.14047107,
      -0.05684952,
      0.21624672,
      0.09479335,
      0.24481471,
      -0.12124018,
      0.32462546,
      0.27336252,
      0.13202612,
      0.18267116,
      -0.072496735,
      0.10762025,
      0.12046663,
      0.046542,
      0.31033593,
      0.09032844,
      -0.19838794,
      0.17543454,
      -0.006290904,
      -0.31837684,
      0.23123987,
      -0.23492284,
      -0.1613558,
      0.17198098,
      0.08233806,
      0.2724745,
      -0.03302532
    ],
    [
      -0.08342072,
      0.26934668,
      0.15911402,
      -0.07254643,
      0.13457401,
      -0.02718719,
      -0.017751146,
      -0.09808803,
      0.21174072,
      0.13543846,
      0.07789349,
      0.109302364,
      -0.4112192,
      -0.1486393,
      0.25183,
      0.24296515,
      0.0057177376,
      0.34254262,
      0.044006325,
      -0.17137365,
      0.16938862,
      -0.42040187,
      0.093134955,
      0.034601487,
      -0.2183451,
      -0.4172231,
      0.055264466,
      0.25983286,
      0.08302856,
      -0.13055262,
      0.16401868,
      -0.47797364,
      0.19458178,
      0.068115786,
      0.09797785,
      0.20625918,
      -0.029277086,
      0.1287177,
      -0.17341344,
      -0.03506339,
      0.06498665,
      -0.07391552,
      0.16436946,
      0.17973123,
      0.07816216,
      0.056661423,
      0.24859656,
      0.27231,
      -0.07061727,
      -0.00005287415,
      -0.08221945,
      0.29600412,
      -0.44802544,
      0.07416219,
      0.09243126,
      0.1169662,
      -0.21070121,
      0.26150262,
      -0.16044666,
      0.22250623,
      0.116324514,
      0.08563139,
      -0.009856428,
      -0.068269394,
      -0.010649634,
      0.044789623,
      0.07604978,
      -0.18927763,
      -0.04589369,
      -0.3528409,
      -0.39421776,
      -0.17999542,
      0.24983941,
      -0.06618105,
      0.23028101,
      -0.28422624,
      -0.32883865,
      0.32265317,
      0.06718051,
      0.10981624,
      0.10856842,
      0.14819105,
      -0.32911643,
      -0.035190552,
      0.25863457,
      -0.07879523,
      0.16815832,
      -0.105664395,
      -0.48073813,
      0.17119473,
      0.2565159,
      0.08034538,
      0.105241135,
      0.17514066,
      0.07163681,
      0.17911129,
      0.0037039511,
      0.14144188,
      0.17299637,
      -0.10308192,
      0.029557683,
      0.21993735,
      0.16136077,
      0.12977333,
      0.2912807,
      -0.10956079,
      -0.09931466,
      0.11079395,
      0.25304264,
      -0.035729665,
      -0.09040738,
      0.059883095,
      0.048456043,
      -0.32242483,
      -0.25904837,
      -0.13577104,
      0.25068262,
      -0.4099125,
      0.28820798,
      0.0072338157,
      -0.30361506,
      -0.08784475,
      -0.0671904,
      -0.20396744,
      -0.063316315,
      0.019224247,
      0.10160837,
      0.20178165
    ],
    [
      -0.055987492,
      0.1284561,
      0.06582325,
      -0.23201147,
      0.025920143,
      -0.1812261,
      -0.0843355,
      0.021163408,
      0.15525435,
      0.35534477,
      0.14758503,
      0.2549553,
      -0.56900877,
      -0.070620015,
      -0.07586433,
      0.22006853,
      0.14534414,
      -0.06422712,
      0.27971792,
      -0.12388619,
      -0.07903637,
      -0.042440716,
      0.13871782,
      0.066902414,
      -0.35668564,
      -0.25199658,
      0.3312615,
      0.11675941,
      0.0816574,
      -0.13478966,
      0.030313231,
      -0.0820426,
      -0.18564661,
      0.108456165,
      0.028293816,
      -0.10650166,
      0.09837558,
      0.09637178,
      0.0067981514,
      0.06623635,
      0.17714977,
      0.015568358,
      0.16065194,
      0.13841282,
      -0.18145245,
      0.17182884,
      0.013732424,
      -0.03871248,
      0.08008792,
      -0.031063583,
      0.081850074,
      0.045973055,
      -0.36192143,
      0.09627833,
      -0.11049576,
      -0.03430799,
      -0.56653863,
      0.26514685,
      0.03362205,
      0.16373973,
      -0.10718621,
      0.14991497,
      0.3300855,
      0.027014013,
      0.062987134,
      -0.017074957,
      -0.07571208,
      0.08287303,
      0.025193732,
      -0.19126235,
      -0.15089627,
      -0.12858635,
      0.11465678,
      0.21110292,
      0.14200878,
      -0.17911164,
      -0.53232265,
      0.29094362,
      0.013791806,
      0.02044441,
      -0.12503776,
      0.12676078,
      -0.39707008,
      -0.117476724,
      0.03710966,
      -0.014993158,
      0.07135618,
      -0.18223196,
      -0.2999846,
      0.088594176,
      0.12771828,
      0.011482323,
      0.2740901,
      0.2948083,
      -0.09445637,
      -0.15703304,
      -0.1668854,
      0.09685666,
      0.039965753,
      0.111072,
      0.08056111,
      0.06310663,
      0.18510747,
      0.13015111,
      0.32554492,
      0.33957952,
      0.08072428,
      0.17795941,
      0.35109589,
      0.31423834,
      0.10241284,
      -0.053622033,
      -0.2194325,
      -0.105161674,
      0.0015279056,
      -0.1572002,
      0.0034111575,
      -0.14583753,
      0.14578333,
      0.16908532,
      -0.3375921,
      0.034129243,
      0.17996657,
      -0.035951495,
      0.15335087,
      -0.012187429,
      0.028062828,
      0.07624686
    ],
    [
      -0.037850317,
      0.102826,
      -0.09116268,
      0.037881583,
      -0.0476609,
      -0.50644094,
      -0.2009351,
      0.26970112,
      0.28779855,
      0.10238491,
      0.22602513,
      -0.08619119,
      -0.60805106,
      -0.32472244,
      -0.18688005,
      0.09781353,
      0.18318698,
      0.12419961,
      0.1342306,
      -0.2550057,
      0.04542671,
      -0.2345243,
      0.09360106,
      0.06607074,
      -0.099823035,
      0.101777494,
      0.22619131,
      -0.12213988,
      -0.020935107,
      -0.0835263,
      -0.01872294,
      -0.19900413,
      0.12395668,
      0.14529261,
      0.04303869,
      0.14445141,
      0.061440848,
      0.1823677,
      -0.045099255,
      -0.02171051,
      0.31430346,
      0.054667797,
      0.06212621,
      0.07201926,
      0.16864005,
      -0.09618074,
      0.0041908156,
      0.14019407,
      -0.03865985,
      0.01819437,
      -0.11542837,
      0.19788319,
      -0.42151654,
      0.00890463,
      -0.13840352,
      0.04841806,
      -0.31007624,
      0.34991768,
      -0.10238001,
      0.0021197777,
      -0.033841174,
      -0.14600936,
      0.12768917,
      0.061386198,
      0.25554174,
      0.01702175,
      -0.03457802,
      0.025909398,
      0.046685718,
      -0.30975989,
      -0.076960534,
      -0.5042387,
      0.07251418,
      -0.058404773,
      0.36106315,
      -0.31197363,
      -0.2356007,
      0.02930436,
      0.15688013,
      0.13445824,
      0.2135967,
      0.21811907,
      -0.20877807,
      -0.19414566,
      0.07764494,
      0.18330592,
      0.19897023,
      -0.45834816,
      -0.4742992,
      0.35958496,
      0.06620344,
      0.18170877,
      -0.019067505,
      0.23423909,
      0.0119264815,
      0.085275486,
      0.0129072135,
      0.009746562,
      0.17507751,
      -0.14800335,
      0.19205983,
      -0.1792081,
      -0.015975142,
      0.14428645,
      0.009594248,
      0.073721275,
      -0.0090631,
      0.19165143,
      0.26381746,
      0.18653199,
      -0.035825726,
      -0.15052357,
      0.00093564036,
      -0.041396316,
      -0.09921096,
      0.103078045,
      0.09663863,
      -0.46075106,
      0.13545467,
      -0.06425779,
      -0.23994201,
      0.30668554,
      0.19191803,
      -0.29034865,
      -0.17039561,
      0.18729423,
      0.17471318,
      0.08192202
    ],
    [
      0.022021484,
      -0.0039796825,
      0.15356582,
      -0.002070409,
      0.22591983,
      -0.02740517,
      -0.044522725,
      0.082034364,
      0.20027873,
      0.19845398,
      -0.14455006,
      0.0010110949,
      -0.108768225,
      -0.039904434,
      -0.16817777,
      -0.02212418,
      0.2225704,
      0.21802086,
      0.1163603,
      -0.4242481,
      -0.022557423,
      -0.501076,
      -0.0059739742,
      0.17053767,
      -0.46461073,
      -0.04630093,
      0.18140715,
      0.3797273,
      0.10937491,
      -0.16559826,
      0.27362365,
      -0.2666733,
      0.035941876,
      0.071035735,
      -0.17546487,
      0.16166745,
      -0.23825112,
      0.02616104,
      -0.09743973,
      -0.0840438,
      0.27681577,
      0.147202,
      -0.15048483,
      0.2677386,
      0.09159563,
      0.25032455,
      0.03115499,
      -0.031989302,
      -0.011711054,
      0.09471951,
      -0.0380705,
      0.09128919,
      -0.20080914,
      0.000010390461,
      0.0975072,
      -0.0709903,
      -0.49653956,
      0.15961479,
      -0.010701853,
      0.13910323,
      0.17529349,
      -0.0047995048,
      0.11049427,
      -0.13103761,
      0.008587871,
      0.042525414,
      0.103006855,
      0.25493854,
      0.119335465,
      -0.17603303,
      0.01287331,
      -0.10919785,
      0.08295611,
      -0.093270615,
      0.13918348,
      -0.27210563,
      -0.21740235,
      0.09978356,
      0.15268424,
      -0.03145269,
      -0.2116471,
      0.004820016,
      -0.20548049,
      -0.09635271,
      0.032169737,
      0.21682522,
      0.09484461,
      -0.6299042,
      -0.36872077,
      0.21608537,
      0.20492077,
      0.23196286,
      0.22320084,
      0.10239077,
      0.0017448713,
      0.13251087,
      0.020706186,
      -0.099642135,
      0.23899388,
      0.2860417,
      0.2096612,
      0.17806599,
      0.21233426,
      0.049171913,
      0.12454008,
      0.07388785,
      -0.1801463,
      0.22142142,
      0.1657767,
      0.19111876,
      -0.04789754,
      -0.12039035,
      0.102639556,
      -0.022986693,
      -0.26969615,
      0.13669425,
      0.3154404,
      -0.32712668,
      0.14936909,
      -0.058732,
      -0.14230509,
      0.14455797,
      0.19317004,
      0.097504854,
      0.040390763,
      0.03670306,
      0.32738474,
      0.06242036
    ],
    [
      0.091358855,
      -0.19341989,
      -0.068439566,
      -0.027471239,
      -0.0721426,
      -0.16271722,
      -0.071271434,
      0.15893067,
      -0.19972572,
      0.020875832,
      -0.25355932,
      0.05377795,
      -0.107481934,
      0.16545804,
      -0.09078008,
      -0.036080223,
      0.034543533,
      -0.1280551,
      0.03592799,
      -0.053883526,
      0.0065022227,
      -0.0055603245,
      -0.020133914,
      0.08267759,
      -0.0325766,
      0.02149411,
      -0.11865536,
      -0.20535538,
      0.16017203,
      0.08012234,
      0.09620086,
      -0.24076353,
      0.24420923,
      -0.006574149,
      -0.1245118,
      0.04879539,
      -0.10814724,
      0.09010146,
      0.111557335,
      0.105981596,
      -0.058924764,
      -0.16242164,
      -0.10360652,
      -0.10262641,
      -0.22757939,
      0.11968745,
      -0.005825886,
      0.10659502,
      0.25463736,
      0.006960776,
      0.03704749,
      -0.1825784,
      0.16771305,
      0.018543992,
      -0.17045203,
      -0.10945609,
      0.10253667,
      -0.037449095,
      -0.0044061383,
      0.01802258,
      -0.023774302,
      0.06566231,
      0.11889422,
      0.27178207,
      -0.13221504,
      -0.18543239,
      -0.041823667,
      -0.018481644,
      -0.052611943,
      -0.2547919,
      0.0046564364,
      -0.05174672,
      -0.088398844,
      -0.007575637,
      -0.027458565,
      0.007067192,
      -0.09002373,
      0.16559702,
      -0.05406217,
      -0.047699183,
      -0.09090951,
      0.18502772,
      0.15720062,
      -0.032381367,
      0.08845755,
      -0.17429753,
      0.06418023,
      0.10115091,
      0.039425872,
      -0.15506259,
      -0.23494652,
      0.037075933,
      0.06823682,
      -0.15235923,
      0.12068964,
      0.03685649,
      -0.035823196,
      0.06863415,
      -0.06687973,
      0.0059971316,
      -0.047984596,
      0.18105286,
      0.022855897,
      0.023958609,
      -0.09824683,
      -0.05685219,
      -0.16184382,
      0.0062865554,
      0.17948923,
      0.041325502,
      -0.22480534,
      0.13172553,
      -0.08661341,
      -0.0739124,
      -0.11329983,
      0.0968166,
      0.10358532,
      0.13432369,
      -0.037754178,
      0.09182109,
      0.12959535,
      0.25334895,
      -0.26976666,
      0.045994207,
      -0.41800627,
      -0.058408707,
      0.05584324,
      -0.004895708
    ],
    [
      -0.2655755,
      0.12304533,
      -0.12847893,
      0.04817506,
      0.2172537,
      -0.05708987,
      -0.15914078,
      -0.034109276,
      0.03880741,
      -0.01795693,
      -0.03584948,
      0.0075103687,
      -0.18101159,
      -0.005077697,
      0.009497332,
      -0.30982375,
      0.017146047,
      0.22344157,
      0.13475159,
      -0.15737154,
      0.10514865,
      -0.094331495,
      -0.118425824,
      -0.23183616,
      -0.03198154,
      0.19682676,
      -0.036342505,
      -0.009901926,
      -0.061356157,
      -0.104759224,
      0.13564792,
      -0.06878157,
      -0.021678593,
      0.13097067,
      0.041255504,
      0.070156634,
      0.12838979,
      -0.057049327,
      -0.043046605,
      0.15757383,
      -0.16424045,
      0.042621847,
      -0.058221683,
      0.0007275612,
      -0.13350995,
      -0.037667375,
      -0.08780528,
      -0.07561189,
      0.14414294,
      -0.13184379,
      -0.04070685,
      0.3107728,
      0.023680128,
      -0.05794263,
      0.009298016,
      -0.03946325,
      0.14422524,
      0.00040793922,
      0.0255865,
      0.3718764,
      0.06911457,
      0.15137704,
      -0.14645766,
      -0.087692045,
      -0.04762876,
      0.09697428,
      0.064670935,
      0.086166814,
      -0.014527799,
      -0.017043615,
      -0.10459487,
      -0.07252756,
      -0.107200295,
      -0.058312003,
      -0.14282928,
      0.08624283,
      -0.09941698,
      0.07330088,
      -0.03195538,
      -0.1223849,
      0.069636784,
      0.005373537,
      0.2046381,
      0.049192827,
      -0.08683212,
      0.1596875,
      0.03225028,
      -0.06076624,
      0.011724385,
      0.11767202,
      -0.13625187,
      0.0801023,
      -0.0794023,
      -0.002402451,
      -0.21269849,
      -0.18105142,
      0.0015639095,
      -0.19305627,
      -0.082412794,
      -0.0021611757,
      -0.10459589,
      0.019295968,
      0.17932507,
      0.007966357,
      -0.22772597,
      -0.08056038,
      0.1542866,
      -0.16802846,
      0.04863408,
      0.24783917,
      0.07482379,
      -0.15540081,
      -0.2483456,
      0.10560623,
      -0.14192194,
      0.035379235,
      -0.10891981,
      0.044078648,
      -0.035225805,
      0.20263465,
      -0.14468458,
      -0.14549369,
      -0.31016073,
      -0.003671524,
      0.06482768,
      -0.056530412,
      -0.100689664,
      0.10300109
    ],
    [
      -0.009826085,
      0.08366058,
      0.20078257,
      -0.081282906,
      0.15215394,
      -0.06731309,
      -0.08056214,
      0.19325405,
      0.24506037,
      0.07889678,
      -0.023524426,
      0.24678412,
      -0.5163117,
      -0.14305004,
      0.072085254,
      0.08283325,
      0.0022505026,
      -0.06193572,
      0.0322889,
      -0.40362766,
      0.03864061,
      -0.3208352,
      0.21796365,
      0.040804937,
      -0.16081692,
      0.0989529,
      0.18602438,
      0.21752279,
      0.1604459,
      -0.3050238,
      -0.045701336,
      -0.108784094,
      -0.21712701,
      -0.18375762,
      0.02493672,
      -0.15687989,
      0.059354655,
      0.08382721,
      0.3595806,
      0.11134791,
      -0.015154564,
      0.2156577,
      -0.04680906,
      -0.018205727,
      0.1417638,
      -0.04882307,
      0.44644544,
      0.066496074,
      -0.32154924,
      0.11145632,
      -0.008079918,
      0.22548401,
      -0.32154688,
      0.120966524,
      0.0084725795,
      0.04518392,
      -0.22011244,
      0.040901005,
      0.045731653,
      0.10317724,
      0.0923437,
      -0.12427684,
      0.27870274,
      0.34792465,
      -0.053038545,
      -0.012280587,
      0.11212148,
      0.17767805,
      0.12458216,
      -0.5223893,
      -0.17174394,
      -0.11198469,
      0.1398193,
      0.07778414,
      0.2084513,
      -0.20139891,
      -0.19827054,
      0.14465606,
      0.23678862,
      0.044606388,
      0.10851391,
      0.11936579,
      -0.055075027,
      0.2005944,
      0.33912507,
      0.22680815,
      0.19293265,
      -0.37404606,
      -0.28978604,
      0.2470949,
      0.104738936,
      -0.02770578,
      -0.060124867,
      0.021569561,
      -0.04406297,
      0.20043695,
      0.09998926,
      -0.009601965,
      0.10982922,
      0.09252497,
      0.04076087,
      0.18043807,
      -0.011186658,
      0.034439698,
      0.37231472,
      -0.020908223,
      -0.10390169,
      -0.10040559,
      0.25555342,
      0.27933368,
      -0.070573606,
      0.021284144,
      -0.08522316,
      0.056849897,
      -0.05173865,
      -0.06681769,
      0.19436485,
      -0.455743,
      0.23773514,
      0.03179312,
      -0.30256107,
      0.05757477,
      0.07797965,
      -0.12927543,
      0.13407317,
      -0.04938515,
      0.1883415,
      -0.118045576
    ],
    [
      -0.03269291,
      0.03742916,
      -0.018309137,
      -0.18936802,
      0.05279008,
      0.12207592,
      0.18576328,
      0.20487009,
      -0.06281473,
      0.1862748,
      0.054417413,
      -0.19535348,
      0.080513336,
      -0.050680973,
      -0.061232693,
      -0.2483399,
      0.030607654,
      -0.08428678,
      -0.16304973,
      -0.051451683,
      -0.22206213,
      0.03444275,
      0.05828821,
      0.104337625,
      -0.03240824,
      -0.11825968,
      0.006543643,
      -0.04740036,
      0.050726406,
      -0.07500819,
      0.11397175,
      0.18428233,
      0.2399475,
      -0.047658734,
      0.14692706,
      -0.059786987,
      0.14176229,
      -0.10589128,
      0.037122056,
      -0.008529476,
      -0.003129606,
      0.00060054695,
      -0.04797916,
      0.12019989,
      0.07353343,
      0.06797586,
      -0.06481554,
      0.22041105,
      0.17793122,
      0.30362752,
      0.09733118,
      -0.12471675,
      0.2157761,
      -0.0241775,
      0.025535012,
      0.27899435,
      0.34654528,
      -0.047664255,
      -0.14634933,
      0.15585221,
      0.17636643,
      -0.26093474,
      0.2529481,
      -0.10383413,
      0.111224174,
      -0.08279652,
      -0.11135065,
      0.11223156,
      -0.019041743,
      -0.001562949,
      0.029921968,
      0.08718559,
      0.13425878,
      -0.047684673,
      0.14363103,
      0.16964403,
      0.09636305,
      0.07554279,
      -0.152914,
      -0.12963943,
      0.23195942,
      -0.123092964,
      -0.09705159,
      0.050455123,
      -0.1614934,
      0.20666403,
      0.13466655,
      -0.009419778,
      -0.16012704,
      -0.1716982,
      0.08349988,
      -0.06704636,
      -0.06059015,
      0.058233216,
      0.16105208,
      0.04544097,
      -0.089795716,
      0.017249245,
      0.040853076,
      0.14753293,
      0.18295427,
      -0.013653191,
      0.035786226,
      -0.18460642,
      0.008918127,
      0.031844858,
      0.10263493,
      -0.08267029,
      0.0136621455,
      -0.060076836,
      -0.010475695,
      -0.017694356,
      -0.0773244,
      0.020654583,
      0.23489875,
      0.03736326,
      0.017914925,
      0.29211175,
      0.07450056,
      -0.009484517,
      0.006929692,
      -0.16000159,
      -0.119825505,
      -0.063641764,
      0.023754869,
      0.06854357,
      -0.07571218,
      0.051169597
    ],
    [
      0.058144122,
      0.3022648,
      -0.22533263,
      0.001137212,
      -0.04303013,
      -0.29539,
      -0.18045592,
      0.10263821,
      0.3957189,
      0.07337987,
      0.10105803,
      0.20344271,
      -0.19932497,
      -0.067548186,
      -0.20061879,
      0.14336647,
      -0.045243643,
      0.042155117,
      0.09985449,
      -0.38729787,
      0.4560552,
      -0.56992817,
      0.07007452,
      0.1589009,
      -0.199694,
      0.06351909,
      0.13421023,
      0.12599197,
      0.10154114,
      -0.095453,
      0.2664141,
      -0.23993367,
      0.11207475,
      0.13799426,
      0.09760197,
      0.049434833,
      0.20568654,
      -0.07247154,
      0.30677715,
      0.15234315,
      0.16666022,
      -0.0486802,
      0.07841288,
      0.021827342,
      0.14467184,
      0.058288537,
      -0.16607812,
      -0.08747429,
      -0.09838081,
      0.07696014,
      -0.14070334,
      -0.02738935,
      -0.28609347,
      0.003930959,
      0.0056355144,
      0.06738801,
      -0.44641504,
      0.05394074,
      0.048969705,
      0.07383971,
      -0.015307572,
      0.18777415,
      0.1143066,
      0.038779147,
      0.047684297,
      0.1776538,
      -0.08783418,
      0.22412898,
      0.04004784,
      -0.41742852,
      -0.3680161,
      -0.1131885,
      0.21947335,
      0.15513436,
      0.075690135,
      -0.4119726,
      -0.17648919,
      0.108480595,
      0.08110019,
      0.09471789,
      -0.087729596,
      0.088933885,
      -0.25832245,
      0.012671764,
      0.31681708,
      0.22152077,
      0.13431571,
      -0.22410034,
      -0.34962565,
      0.29645145,
      0.30909097,
      0.058227945,
      0.12635727,
      0.2934996,
      0.077321745,
      -0.005794663,
      0.0072240815,
      0.31257933,
      0.04325076,
      -0.008086985,
      0.040835716,
      0.22990003,
      0.039966896,
      0.11139833,
      0.12388232,
      0.021191996,
      -0.07266225,
      0.0747309,
      0.020354636,
      0.14762758,
      -0.006152299,
      0.3096936,
      0.060470495,
      -0.026698105,
      0.025293672,
      -0.011277958,
      -0.09445243,
      -0.010933079,
      0.16903558,
      0.07710535,
      -0.37771168,
      -0.18649219,
      0.26880258,
      -0.06717764,
      -0.14537676,
      0.23050815,
      0.36488566,
      0.24734068
    ],
    [
      0.13112973,
      -0.052535903,
      -0.03565525,
      0.01243022,
      0.21176788,
      -0.20885208,
      -0.3101932,
      0.17585404,
      0.098493814,
      -0.13205919,
      0.11213409,
      0.33121192,
      -0.30707884,
      -0.47432917,
      -0.088949844,
      0.27627605,
      0.009563329,
      0.07233812,
      0.20925936,
      -0.42617914,
      0.094326675,
      -0.18782535,
      0.011851252,
      0.08810729,
      -0.15148449,
      -0.28247622,
      -0.017004972,
      0.18805604,
      0.36114052,
      -0.11648941,
      0.3562423,
      0.09529498,
      -0.0667712,
      0.23315609,
      0.026785795,
      0.1708782,
      -0.05092821,
      0.1458827,
      0.019926636,
      0.033950053,
      0.047819413,
      0.118297584,
      0.060775474,
      0.25485447,
      0.2636099,
      0.28542066,
      0.20051189,
      0.2844559,
      -0.15584575,
      0.034941185,
      -0.15716618,
      0.15027414,
      -0.34916592,
      -0.15125404,
      0.054528907,
      0.20458713,
      -0.23390335,
      0.06389204,
      -0.25548816,
      0.036700025,
      -0.15892778,
      0.24089952,
      0.17147015,
      0.1983723,
      -0.049605362,
      0.24107176,
      -0.13366227,
      0.074087694,
      0.049857534,
      -0.39867967,
      -0.31178987,
      -0.22242622,
      0.019230083,
      0.29653448,
      -0.016006691,
      -0.30799615,
      -0.23117706,
      0.19331634,
      -0.014018219,
      -0.054077636,
      0.086262204,
      -0.13859646,
      -0.067131504,
      0.02443246,
      0.09872124,
      0.057455104,
      0.13467062,
      -0.42476988,
      -0.40173945,
      0.31549215,
      0.32032755,
      0.10178072,
      0.013432355,
      0.16701618,
      0.260596,
      0.010801734,
      -0.04309814,
      -0.1894019,
      0.10859495,
      -0.010388497,
      0.23407735,
      -0.0021511132,
      0.2748853,
      0.12878257,
      0.057865243,
      0.3053182,
      -0.088759005,
      0.2160418,
      0.3139486,
      0.12404409,
      0.06260426,
      0.18338491,
      -0.0034943267,
      -0.04358197,
      -0.29080147,
      -0.13718536,
      0.06409197,
      -0.2691037,
      0.14591682,
      0.088972814,
      -0.18891558,
      0.20363356,
      0.23630519,
      -0.1555724,
      0.08611588,
      -0.07868276,
      0.04217568,
      0.016783686
    ],
    [
      -0.3214934,
      -0.03839506,
      0.14543763,
      0.096593,
      0.030301567,
      -0.29703507,
      -0.0703407,
      0.32498014,
      0.30509907,
      0.20915888,
      0.11637594,
      0.17957999,
      -0.38802576,
      -0.03718645,
      0.09000933,
      0.22522143,
      -0.06821074,
      0.26045635,
      -0.1312662,
      -0.36020413,
      0.23012489,
      -0.2793507,
      -0.14313637,
      0.057856113,
      -0.12571612,
      -0.1618838,
      0.092725955,
      0.048733868,
      0.14715442,
      -0.19399789,
      0.19341351,
      -0.09952344,
      0.05663223,
      0.23848033,
      -0.08664597,
      0.120558046,
      -0.06583251,
      0.17651056,
      -0.22955982,
      0.035663977,
      -0.055029724,
      0.1261333,
      0.3661484,
      0.10045681,
      0.12958372,
      0.19711916,
      0.13427027,
      0.15198131,
      -0.15495208,
      0.006945093,
      -0.022233289,
      -0.086612225,
      -0.40898994,
      0.1930824,
      0.18707235,
      0.003112953,
      -0.24920073,
      0.11513073,
      -0.01914075,
      -0.072362594,
      0.099896245,
      0.15261555,
      0.28140372,
      -0.0038720549,
      0.12181781,
      0.16221455,
      0.17706998,
      0.2037176,
      0.08783802,
      -0.42827836,
      -0.21564756,
      -0.20759027,
      0.3197107,
      0.24753647,
      0.06686851,
      -0.037538934,
      -0.15044877,
      0.19508666,
      0.1726769,
      0.07707963,
      -0.018674871,
      0.23635134,
      -0.07795254,
      0.1259773,
      0.12112061,
      0.18674782,
      0.2995213,
      -0.45857435,
      -0.1840001,
      0.11052226,
      -0.05120143,
      0.018725988,
      0.11636236,
      0.40124944,
      0.0026464367,
      0.32172114,
      -0.21012598,
      0.11714062,
      -0.08531787,
      0.29126137,
      0.11473611,
      -0.06419234,
      0.0055898237,
      0.15401302,
      0.37723434,
      0.2651246,
      -0.0016535519,
      0.09847534,
      0.19828624,
      0.298909,
      -0.12184642,
      -0.010487911,
      0.17885074,
      -0.11798533,
      -0.31025207,
      0.24179578,
      0.068316616,
      -0.19122066,
      -0.016609605,
      0.03998788,
      -0.48232096,
      0.07492014,
      0.24656773,
      -0.046023384,
      -0.00007637747,
      0.23620658,
      -0.042924818,
      0.24671888
    ],
    [
      -0.09939865,
      -0.1524279,
      0.0400043,
      0.012958316,
      0.121202044,
      -0.22083944,
      -0.058880888,
      0.12479967,
      0.028169487,
      0.17735963,
      0.2931227,
      0.0815498,
      -0.53370667,
      -0.10538362,
      -0.027950907,
      0.1264253,
      0.087194525,
      0.05538575,
      0.095123746,
      -0.4764605,
      -0.21839625,
      -0.4003007,
      0.062380172,
      0.07811506,
      -0.15366276,
      0.104067564,
      0.22389895,
      -0.039703768,
      0.03349117,
      -0.16812775,
      0.08965316,
      0.025339719,
      0.017091451,
      0.10640429,
      -0.21664739,
      0.07375762,
      0.18133913,
      0.08563253,
      0.03383939,
      0.038800184,
      0.13639548,
      -0.19301043,
      0.044997163,
      0.31871063,
      0.13769898,
      0.10253123,
      0.15871042,
      0.121493086,
      0.03444227,
      0.08500558,
      -0.026798025,
      0.17030928,
      -0.40382823,
      0.06306336,
      0.09290255,
      0.21136749,
      -0.14209741,
      0.16962337,
      0.033601265,
      -0.03918741,
      -0.091127925,
      0.08592998,
      0.081825286,
      -0.019827727,
      0.06469307,
      0.09365557,
      0.14794987,
      0.12799919,
      0.15790425,
      -0.507893,
      -0.38093135,
      0.017440964,
      -0.16531,
      0.041253455,
      -0.27264407,
      -0.31085157,
      -0.418387,
      0.011083466,
      0.22780927,
      -0.07198101,
      -0.119707204,
      0.11555355,
      -0.4214034,
      0.13557582,
      0.22554578,
      0.17189488,
      -0.16879039,
      0.03339329,
      -0.19417363,
      0.24868427,
      0.4065016,
      -0.010902148,
      0.3986743,
      0.17588757,
      -0.009763984,
      0.30334735,
      0.05744343,
      -0.0148290135,
      0.1747225,
      -0.17323017,
      0.042525228,
      0.0075276555,
      0.114935026,
      0.2509617,
      0.2166718,
      0.013548329,
      -0.014395165,
      0.060740437,
      0.31734213,
      0.019206367,
      -0.06422086,
      0.037726592,
      0.20709753,
      -0.11389078,
      -0.23459855,
      0.15395929,
      -0.034936525,
      -0.2110248,
      0.07048562,
      -0.10629231,
      -0.6245376,
      0.24599023,
      0.082062304,
      -0.07844263,
      0.08700577,
      0.13185443,
      0.28173727,
      0.28694478
    ],
    [
      0.13077238,
      0.1196211,
      0.015685163,
      0.0014543255,
      0.2548735,
      -0.28844488,
      -0.20513451,
      0.012975604,
      0.050036393,
      0.21232378,
      0.3851703,
      0.077395,
      -0.2523532,
      -0.15864907,
      0.10777606,
      0.08916987,
      -0.02410474,
      0.09384445,
      -0.06883765,
      -0.44315338,
      0.025761068,
      -0.39531204,
      0.31260604,
      0.14090145,
      -0.15513393,
      -0.11076496,
      0.17275825,
      0.14001651,
      0.14652196,
      -0.27512825,
      -0.037386876,
      -0.22765566,
      -0.071701065,
      0.06114769,
      0.16396005,
      0.153989,
      -0.31503296,
      0.13680793,
      -0.008663197,
      0.11046437,
      0.22514124,
      -0.12253252,
      0.21889126,
      -0.11604598,
      -0.13402791,
      -0.11303967,
      0.1577421,
      0.37729737,
      -0.093182996,
      0.13494575,
      -0.07256909,
      0.2116327,
      -0.2919089,
      0.10667285,
      0.122479774,
      0.11838666,
      -0.3962815,
      0.23821396,
      -0.08753644,
      0.19663167,
      0.24453393,
      0.033027917,
      -0.0005432302,
      0.2908977,
      0.1060289,
      0.030019332,
      0.07579265,
      0.22357206,
      0.45383513,
      -0.49200115,
      -0.18403417,
      -0.30178955,
      0.13932234,
      0.1722781,
      -0.023008347,
      -0.18954523,
      -0.39727676,
      0.15587054,
      0.17797998,
      -0.14495276,
      -0.12875459,
      0.013382457,
      0.044728655,
      -0.1767608,
      0.07530018,
      0.043154616,
      -0.06620298,
      -0.36878943,
      -0.2615,
      0.19388323,
      0.117199644,
      0.10013449,
      0.1468809,
      0.27608696,
      -0.00620151,
      0.05508094,
      -0.11538478,
      0.1821743,
      0.036448363,
      0.22599983,
      0.18017212,
      -0.034354992,
      0.14267322,
      0.26972422,
      0.0074704103,
      -0.1458132,
      0.028521217,
      0.3604819,
      0.060294412,
      0.08283031,
      0.06943659,
      0.15929152,
      0.074056566,
      -0.0037283998,
      -0.09452999,
      -0.15837067,
      0.06577565,
      -0.022283208,
      0.106090955,
      -0.17678934,
      -0.24595489,
      0.100266,
      0.13750271,
      -0.026723301,
      0.14845824,
      0.2773295,
      -0.037589937,
      0.047471203
    ],
    [
      -0.33767465,
      0.21717605,
      0.048613455,
      -0.07583347,
      0.2978555,
      -0.28818735,
      -0.081890024,
      -0.17069393,
      0.09057593,
      0.1587533,
      0.25895974,
      0.19204411,
      0.0070316014,
      -0.13046311,
      -0.028581291,
      0.10434088,
      0.13672705,
      0.1781457,
      0.0070336843,
      -0.32431164,
      -0.10894029,
      -0.19632627,
      -0.094752245,
      0.17771146,
      -0.2846222,
      -0.061723508,
      0.13245954,
      0.23250592,
      0.2177959,
      0.0073975595,
      0.00042720258,
      -0.05317152,
      0.036282577,
      0.052829508,
      -0.009556741,
      0.06880775,
      -0.10504249,
      0.2642024,
      0.00674563,
      -0.103458054,
      0.28489938,
      0.24258313,
      0.1405308,
      0.07881945,
      -0.077604204,
      -0.06469783,
      0.22575362,
      -0.120231725,
      0.12094705,
      -0.017816115,
      0.08595091,
      -0.035404477,
      -0.43959245,
      0.008196528,
      -0.25294644,
      0.22475988,
      -0.2605209,
      -0.07640709,
      -0.39441007,
      -0.17885655,
      0.1895972,
      0.08756894,
      0.14846373,
      0.1608802,
      0.12864065,
      0.14519602,
      0.12884225,
      0.20490699,
      0.17810066,
      -0.40784246,
      -0.32433563,
      -0.29575193,
      0.07461225,
      0.19174846,
      0.005681532,
      -0.23111033,
      -0.3109332,
      0.20473751,
      0.058685627,
      0.2445733,
      0.15694293,
      -0.009154794,
      -0.09138423,
      0.084970094,
      0.21097554,
      -0.04604745,
      -0.076058075,
      -0.1275985,
      -0.2516884,
      0.16060145,
      0.23833527,
      0.11334494,
      -0.02475339,
      0.12972032,
      -0.092527755,
      0.046667274,
      -0.068281494,
      0.12112338,
      0.07737702,
      -0.0011612283,
      0.068810456,
      0.3222784,
      0.08899444,
      0.056106918,
      -0.038230527,
      0.20303771,
      -0.014686614,
      0.013088652,
      0.11746372,
      0.28786656,
      -0.07927174,
      0.0047180736,
      0.073407,
      0.09495296,
      -0.0041037244,
      0.20091446,
      0.09111974,
      -0.36812332,
      0.3055061,
      0.03310672,
      -0.34419438,
      0.17223406,
      0.15514268,
      -0.27651027,
      -0.08294139,
      0.124278516,
      0.19616012,
      0.35535094
    ],
    [
      0.07961527,
      -0.03608359,
      -0.013179693,
      0.21893387,
      0.27426776,
      -0.19622593,
      -0.119627036,
      -0.03639218,
      0.0763927,
      0.12127999,
      0.11398815,
      0.04975875,
      -0.28060448,
      0.003642184,
      0.0062415656,
      0.1391818,
      0.02591985,
      -0.0034012918,
      0.16566367,
      -0.29813865,
      0.18944871,
      -0.2081866,
      0.0056648315,
      -0.0743095,
      -0.062336754,
      -0.23287928,
      0.013579516,
      0.17062965,
      0.1401124,
      -0.47607175,
      -0.1786981,
      -0.31298363,
      0.01865432,
      0.12257146,
      0.046515606,
      0.06413084,
      -0.1865878,
      0.017944813,
      0.22209956,
      -0.0050977413,
      0.093978,
      0.047753025,
      -0.13346569,
      -0.05971978,
      0.041526623,
      0.19896841,
      0.06633757,
      0.19291621,
      0.044306677,
      -0.2631511,
      -0.0107334815,
      -0.1111459,
      -0.38829413,
      0.0012891922,
      0.29576647,
      0.019663423,
      -0.43923312,
      0.39857072,
      -0.0156009905,
      0.01815568,
      0.027308179,
      -0.071764834,
      0.21764049,
      0.0527306,
      0.095161885,
      0.09991201,
      -0.06686294,
      0.20524842,
      -0.15509054,
      -0.21860759,
      -0.09275123,
      -0.003315855,
      0.020375721,
      0.008630381,
      -0.027869217,
      -0.29644892,
      -0.18318695,
      -0.030419664,
      -0.21495587,
      0.13903727,
      0.2582204,
      -0.16154079,
      -0.20232947,
      0.116554305,
      0.09881339,
      0.0898072,
      0.14488359,
      -0.1107436,
      -0.30230948,
      0.20904629,
      0.0110845305,
      0.106119126,
      0.27139494,
      0.055987146,
      -0.12059223,
      0.03406575,
      -0.009187964,
      0.02848033,
      0.18476652,
      -0.06166278,
      -0.056202624,
      -0.07359963,
      -0.024280995,
      0.06911676,
      0.04792165,
      0.04358743,
      0.1430768,
      -0.0389444,
      0.23846954,
      0.076224834,
      -0.050135557,
      0.14243965,
      0.3032765,
      0.13802615,
      -0.052728087,
      0.15015212,
      0.09781722,
      -0.23544545,
      0.07570054,
      0.1525422,
      -0.38657492,
      0.11256214,
      0.027824862,
      -0.3649677,
      0.03407782,
      0.1687808,
      -0.07822537,
      0.14720498
    ],
    [
      0.010589358,
      -0.037294745,
      0.13812853,
      0.20232244,
      -0.18479973,
      0.21392986,
      0.05580493,
      -0.2982369,
      0.15591449,
      0.03440022,
      -0.11130424,
      0.041491687,
      -0.15150677,
      0.024205256,
      0.0720913,
      -0.035006873,
      0.16948645,
      -0.13036418,
      0.07619754,
      -0.059848703,
      -0.06918122,
      0.060837127,
      0.0150879575,
      -0.30711344,
      0.15217967,
      0.1155435,
      -0.01855531,
      -0.04614865,
      -0.14669952,
      0.148483,
      0.13797331,
      0.014296579,
      0.30479044,
      -0.1454404,
      0.079042055,
      -0.118662514,
      -0.023550557,
      -0.09084981,
      0.0854813,
      -0.10085232,
      -0.14905182,
      0.14517869,
      0.10345093,
      0.14318001,
      0.17263675,
      0.13490999,
      -0.09734079,
      0.24952498,
      -0.025742466,
      -0.08944857,
      0.012274378,
      -0.21910843,
      0.07657017,
      0.16201165,
      -0.09770863,
      0.12148552,
      -0.037580825,
      -0.0635278,
      -0.086079754,
      -0.044977825,
      0.05048455,
      0.10370155,
      -0.08945603,
      0.07594481,
      0.20032902,
      -0.15631165,
      0.060203534,
      -0.0009076788,
      0.1314288,
      0.013652895,
      -0.13656257,
      0.029146034,
      -0.121756196,
      -0.07576005,
      -0.04916687,
      -0.10615812,
      0.15367691,
      0.12886205,
      -0.006893023,
      0.11182052,
      -0.10263645,
      -0.17109336,
      0.13906945,
      -0.11993348,
      0.016743463,
      -0.14196157,
      -0.031277746,
      -0.17160816,
      0.0015040433,
      -0.097974844,
      -0.12949239,
      -0.1066036,
      -0.11716205,
      0.110539004,
      -0.24039309,
      -0.11245914,
      -0.049094032,
      -0.09998093,
      -0.12997936,
      -0.08196001,
      -0.06890485,
      0.068547614,
      -0.07175475,
      -0.16344845,
      -0.10794877,
      -0.18618852,
      0.05930221,
      0.19047536,
      -0.005098026,
      -0.15770377,
      -0.1213449,
      -0.10065396,
      -0.018600486,
      -0.086400144,
      0.023345906,
      -0.09898981,
      -0.117047496,
      0.11326491,
      -0.17163946,
      0.20104487,
      0.024291854,
      0.14083385,
      0.063456245,
      -0.046863087,
      0.26293078,
      0.047974568,
      0.22435439,
      -0.007153976
    ],
    [
      0.02325239,
      0.30873728,
      -0.0028440857,
      -0.04013794,
      0.049532812,
      -0.15940632,
      0.056987986,
      0.28201538,
      0.058387715,
      0.1904848,
      -0.009014913,
      0.2539107,
      -0.29644778,
      -0.36842853,
      -0.17143083,
      0.2752326,
      0.0771417,
      0.1770034,
      0.13088301,
      -0.36349484,
      0.28244758,
      -0.21529248,
      0.10991147,
      -0.016057735,
      -0.12858047,
      -0.10017134,
      0.38876298,
      0.2808686,
      0.0030492197,
      -0.36259112,
      0.31454733,
      -0.2742734,
      -0.02883548,
      -0.038043536,
      -0.14387146,
      0.14114586,
      -0.033556964,
      -0.045395333,
      -0.20157984,
      0.15806998,
      0.14887707,
      -0.00007343656,
      0.15595342,
      0.078893706,
      -0.0012977006,
      -0.16769871,
      0.1628425,
      0.3755921,
      0.01846857,
      0.12686037,
      0.19118221,
      0.093141876,
      -0.11994821,
      -0.17412972,
      -0.21151401,
      0.013952968,
      -0.12597504,
      0.1543129,
      0.15638101,
      0.06296387,
      0.12095142,
      0.058787063,
      0.059616596,
      0.18085809,
      0.22167218,
      0.43864357,
      0.13510142,
      0.13204944,
      0.18396522,
      -0.42246088,
      0.026688978,
      -0.029575845,
      0.09229477,
      0.2742738,
      0.12747324,
      -0.0959914,
      -0.29123753,
      0.05907105,
      -0.026642233,
      -0.04727534,
      0.0396711,
      -0.0060689524,
      -0.2298654,
      0.07520542,
      0.010689892,
      0.055206683,
      0.10387504,
      -0.08721894,
      -0.071860984,
      0.23851573,
      -0.031965744,
      0.061317816,
      0.24833441,
      0.26678413,
      0.04434978,
      0.07279658,
      0.11960416,
      0.12767664,
      0.0030238263,
      -0.1608827,
      0.052631278,
      0.17145017,
      0.14996481,
      -0.1539986,
      0.080651656,
      0.13206558,
      -0.09896771,
      0.15572366,
      0.21040551,
      -0.085283436,
      -0.07210615,
      -0.10616033,
      0.15187787,
      -0.010042796,
      -0.13022442,
      0.08759076,
      0.024714949,
      -0.43259943,
      0.2665425,
      0.15463486,
      -0.31745797,
      0.18951344,
      0.36202452,
      -0.09658246,
      0.062110588,
      0.09491236,
      0.13436125,
      0.20375028
    ],
    [
      0.05364818,
      0.020863144,
      0.016154028,
      -0.19263394,
      0.19388637,
      -0.28617847,
      -0.21244065,
      0.099639595,
      0.16545725,
      0.082924135,
      0.09938269,
      0.20560473,
      -0.2798733,
      -0.049366172,
      -0.052196346,
      0.030403048,
      0.2745384,
      0.24666215,
      0.124765076,
      -0.4207018,
      -0.016894525,
      -0.0675522,
      -0.0556427,
      0.21781889,
      -0.06965362,
      -0.12877488,
      0.3619179,
      -0.09071799,
      0.052233715,
      -0.15259534,
      0.07540629,
      -0.25896627,
      -0.23876044,
      -0.06902581,
      0.024500953,
      0.23448633,
      0.07209656,
      0.16243747,
      -0.0033717384,
      0.048156746,
      0.16289653,
      0.27719304,
      0.077051625,
      0.18542166,
      -0.043764777,
      0.2588567,
      0.12455347,
      0.20462433,
      -0.1737936,
      0.11550611,
      -0.11404369,
      0.03990436,
      -0.28869188,
      0.18991363,
      0.119508766,
      0.0884091,
      -0.32728693,
      0.099343024,
      0.01715417,
      0.118176214,
      -0.093981184,
      0.12558737,
      -0.21059205,
      0.45297438,
      0.2824063,
      0.0829689,
      0.15015386,
      0.07225725,
      -0.34936538,
      -0.33063757,
      -0.0954453,
      -0.2338867,
      0.39390376,
      0.250643,
      0.2548525,
      -0.32975408,
      -0.12011787,
      -0.049609106,
      0.089533255,
      -0.08543149,
      -0.02792842,
      -0.040322203,
      -0.19679652,
      0.20707455,
      0.120708294,
      0.12535676,
      0.04883396,
      -0.2731188,
      -0.3065749,
      0.1375328,
      0.38089857,
      -0.042210046,
      0.14758477,
      0.1637931,
      -0.0445437,
      -0.02500997,
      0.06979794,
      0.120282955,
      0.120931126,
      0.12808762,
      0.30147034,
      0.3403986,
      0.12818566,
      0.24577361,
      0.0744656,
      -0.20096363,
      -0.037027765,
      0.11288728,
      0.22074951,
      0.062023807,
      -0.09266596,
      -0.24139184,
      0.19538185,
      -0.1358102,
      -0.1481843,
      0.046751134,
      0.042614356,
      -0.17001595,
      0.015981762,
      0.048307143,
      -0.3374684,
      0.011499503,
      0.1432464,
      -0.09324183,
      -0.05187246,
      0.040553026,
      -0.087810054,
      0.3426243
    ],
    [
      -0.026674053,
      0.12542889,
      0.18725465,
      -0.0031920956,
      0.25942442,
      -0.36153468,
      -0.07055909,
      -0.025770115,
      0.22589506,
      0.17404278,
      0.0698636,
      -0.013919433,
      -0.25542325,
      -0.08018868,
      -0.0071981014,
      0.27128223,
      0.048671115,
      0.20543177,
      0.16281502,
      -0.40654254,
      0.2058518,
      -0.47004217,
      0.20098601,
      0.037111603,
      -0.36450243,
      -0.0423596,
      0.2064564,
      0.13702206,
      -0.1293202,
      0.04210615,
      0.14340432,
      -0.066576965,
      -0.15819559,
      -0.039374735,
      0.26806426,
      0.020406013,
      -0.16953641,
      0.22923067,
      0.12546462,
      0.12136517,
      -0.05913336,
      0.030067803,
      0.14572032,
      0.31036887,
      0.15898207,
      0.024706824,
      -0.008627722,
      0.37769678,
      -0.012392529,
      -0.03954898,
      0.009640054,
      0.05309333,
      -0.27120256,
      -0.109992325,
      -0.053818453,
      0.17342854,
      -0.2033394,
      -0.061527297,
      0.15498106,
      -0.13324791,
      -0.17631543,
      0.024744486,
      -0.020834962,
      -0.06388961,
      0.1078144,
      0.12694894,
      -0.068955466,
      0.2348282,
      0.093094565,
      -0.39780256,
      -0.12995093,
      -0.17331322,
      0.18859473,
      -0.11090894,
      0.06608894,
      -0.2956522,
      -0.2828014,
      0.116536625,
      0.10058494,
      0.120531544,
      0.116500326,
      0.05562569,
      -0.2871008,
      -0.041785408,
      0.16888714,
      0.049378105,
      0.22677338,
      -0.09473844,
      -0.15896714,
      0.008671435,
      0.15497354,
      0.0029684533,
      0.17185068,
      -0.0650052,
      0.0063910065,
      0.10706423,
      0.105313934,
      0.23664188,
      -0.02589329,
      0.08937892,
      0.4385924,
      -0.026238868,
      0.23048826,
      0.08369781,
      -0.026699692,
      0.2793337,
      0.16540098,
      0.047275435,
      0.102865934,
      0.423508,
      -0.19131577,
      -0.059487954,
      0.2392833,
      -0.037552565,
      -0.1307843,
      -0.11421957,
      0.009061264,
      -0.33088863,
      -0.033415556,
      -0.09922968,
      -0.2550203,
      0.081078365,
      -0.021113662,
      0.018787635,
      -0.07667695,
      -0.11159804,
      -0.09657294,
      -0.08547755
    ],
    [
      -0.012025193,
      -0.0457367,
      -0.05609685,
      0.1253432,
      0.12030801,
      -0.15341462,
      -0.1129125,
      -0.21587478,
      0.009503876,
      0.048012782,
      0.09578,
      0.12630369,
      -0.3423765,
      -0.43383002,
      0.034884885,
      0.3238579,
      0.11769795,
      0.14003296,
      0.25588942,
      -0.29750356,
      0.23602073,
      -0.5177945,
      -0.11196235,
      0.029713226,
      -0.18361092,
      -0.030206442,
      0.13077432,
      -0.05997302,
      0.047398504,
      -0.25201878,
      0.16074975,
      -0.20644689,
      -0.2432622,
      0.24190274,
      0.01844332,
      0.23331144,
      -0.07072085,
      -0.10066968,
      0.0506278,
      0.07350218,
      0.36989415,
      0.24650848,
      0.20491317,
      0.09789319,
      0.02311561,
      0.12925261,
      0.034952115,
      0.103254765,
      0.1284812,
      0.20560694,
      0.021949561,
      0.07504738,
      -0.2776411,
      0.22296456,
      -0.0033332226,
      0.11714845,
      -0.25905597,
      0.17139253,
      -0.014917844,
      -0.07799447,
      -0.0040352545,
      -0.025559045,
      0.32207152,
      0.1571537,
      0.3300702,
      0.24879296,
      0.038834117,
      0.38347077,
      0.049600326,
      -0.16275556,
      -0.46004778,
      -0.1498188,
      0.08954258,
      0.06992741,
      0.15077436,
      -0.218652,
      -0.47950545,
      0.06710829,
      0.19810852,
      0.009781263,
      -0.026044896,
      0.26577064,
      -0.17848036,
      0.21959019,
      0.12139331,
      0.005520422,
      0.052433,
      -0.52656376,
      -0.31608665,
      0.08088301,
      0.17721476,
      -0.061688762,
      0.20050515,
      -0.082635805,
      0.14344993,
      0.28970385,
      0.24000299,
      0.26119497,
      -0.018449811,
      0.12136575,
      -0.062123884,
      0.12992807,
      0.097084425,
      0.15488565,
      0.1043428,
      0.1776812,
      0.006034701,
      -0.007074467,
      0.062185965,
      -0.06687981,
      0.020690693,
      -0.06762398,
      -0.16028741,
      -0.24950571,
      -0.024027422,
      -0.06861383,
      0.25871006,
      -0.3082145,
      0.06614799,
      0.03279203,
      -0.27216125,
      0.12231837,
      -0.01600948,
      -0.19926327,
      0.06795884,
      0.19994393,
      -0.06284641,
      0.027490865
    ],
    [
      0.030700933,
      0.07194798,
      0.13577338,
      0.2278446,
      0.0067436863,
      0.08060986,
      0.041928247,
      -0.019718204,
      0.05211618,
      -0.071531236,
      -0.080588594,
      -0.102852635,
      0.25787142,
      0.14716516,
      0.24222508,
      0.18272242,
      -0.1477704,
      -0.068807274,
      -0.14485107,
      0.09835123,
      -0.016939089,
      0.4660196,
      -0.18420078,
      0.05707429,
      0.19596311,
      0.28487873,
      0.12190986,
      -0.20274636,
      -0.14207672,
      0.24758433,
      0.10825363,
      -0.013662022,
      -0.06906229,
      0.03762788,
      0.117858104,
      -0.03849436,
      0.08374376,
      0.058019884,
      0.09924371,
      -0.23311457,
      0.12846823,
      0.068107575,
      -0.2239186,
      0.13689007,
      -0.09118695,
      0.030396126,
      0.120963775,
      0.022516344,
      0.19349766,
      -0.014661545,
      0.1393871,
      0.16764042,
      0.21420212,
      -0.16775724,
      0.11922607,
      0.06609288,
      0.25638294,
      -0.021630734,
      0.01524573,
      0.09831622,
      0.030930147,
      0.05476372,
      0.13891454,
      0.07513409,
      0.08663016,
      0.19263956,
      0.41132033,
      -0.19122118,
      0.017186161,
      0.16893803,
      0.19048373,
      0.3106271,
      0.19213948,
      -0.15599501,
      -0.06317933,
      0.101122476,
      -0.000059185015,
      0.117138006,
      -0.11609453,
      -0.016206523,
      0.026367761,
      0.16439784,
      0.016682366,
      0.0801912,
      -0.11118525,
      0.082431324,
      0.23003758,
      0.0399729,
      0.13905463,
      0.10099946,
      0.0819157,
      -0.028169867,
      0.08882363,
      0.050198995,
      0.04066402,
      -0.050905228,
      -0.23046222,
      -0.02691225,
      0.05843647,
      0.057996225,
      0.013756498,
      0.075806655,
      0.016966024,
      0.09734837,
      0.025048856,
      0.045589954,
      0.038761977,
      0.011085351,
      -0.17246786,
      0.01736611,
      -0.059327867,
      0.26491442,
      -0.18878666,
      0.10140944,
      -0.013721699,
      -0.061756104,
      -0.24353279,
      0.17395842,
      0.19284543,
      -0.17074639,
      0.48127225,
      0.13746943,
      0.15278769,
      0.17251042,
      0.056714647,
      0.12715378,
      0.04208535,
      -0.0097359335
    ],
    [
      -0.029108081,
      0.20196013,
      -0.061784673,
      0.2825762,
      0.2344812,
      -0.047014803,
      -0.083988436,
      0.042338926,
      0.1698534,
      0.27630016,
      -0.061967257,
      0.21840033,
      -0.4233345,
      -0.25897262,
      0.021065308,
      0.008153857,
      0.10804656,
      0.26446757,
      0.28495902,
      -0.31350282,
      0.0020833684,
      -0.32768127,
      0.13248101,
      0.2576648,
      -0.3181079,
      -0.06985886,
      0.1686319,
      0.13595606,
      -0.11956285,
      -0.34326115,
      0.20342407,
      -0.26252806,
      0.17916366,
      0.04440575,
      -0.0142515125,
      0.045274217,
      -0.026878433,
      0.05730358,
      0.13612194,
      0.018932754,
      -0.079924345,
      0.15329266,
      0.019567,
      0.14799207,
      0.064991035,
      0.08344308,
      0.05613324,
      0.11480745,
      0.14782415,
      0.21648052,
      -0.10667194,
      0.07746378,
      -0.451642,
      -0.005149635,
      -0.043741636,
      0.030741936,
      -0.41997704,
      -0.18224028,
      -0.10852683,
      0.072577,
      -0.09106787,
      0.36450976,
      0.062985584,
      0.2839471,
      -0.034781042,
      0.06849448,
      0.00061779626,
      0.1849445,
      -0.034674045,
      -0.38302162,
      -0.021708384,
      -0.34217614,
      0.32029516,
      0.1519912,
      0.22325115,
      -0.08419872,
      -0.40237233,
      0.25218982,
      0.29494944,
      0.11417765,
      0.114875555,
      0.022660024,
      -0.145487,
      0.090123,
      0.24851906,
      0.21910866,
      0.13005373,
      -0.11603933,
      -0.5024106,
      0.1340903,
      0.15867709,
      0.2038401,
      0.2426309,
      0.07250383,
      -0.12617312,
      0.17888552,
      -0.09879246,
      0.22590466,
      0.18517767,
      0.22273584,
      0.083581775,
      -0.166741,
      0.20403308,
      0.19639082,
      0.21056302,
      0.16653273,
      -0.11550355,
      0.11403489,
      0.12411399,
      -0.22820382,
      0.12351505,
      0.1331043,
      0.042232294,
      0.08747098,
      -0.056265436,
      0.06964351,
      -0.0129802115,
      -0.41090298,
      -0.037559465,
      -0.31491205,
      -0.4380125,
      0.3526219,
      0.2992926,
      -0.29526758,
      0.13862224,
      0.05681023,
      -0.07368577,
      0.15061331
    ],
    [
      0.034444787,
      0.2578625,
      0.16735572,
      -0.013834659,
      0.14978914,
      -0.27787697,
      -0.00952051,
      0.26057932,
      -0.08151304,
      0.3069544,
      -0.04896061,
      0.14520624,
      -0.34951496,
      -0.19353604,
      0.16264476,
      0.20879768,
      0.16468184,
      0.02788932,
      0.25716257,
      -0.30454287,
      0.10246675,
      -0.42202935,
      0.08711225,
      0.078226514,
      -0.43003112,
      -0.025380526,
      0.055985373,
      0.020406079,
      0.15355514,
      -0.18821163,
      -0.096838914,
      -0.28399456,
      -0.025498308,
      -0.048904598,
      -0.2611897,
      0.08481014,
      -0.16339993,
      -0.056301035,
      0.15023063,
      -0.109379284,
      0.14974344,
      0.07976548,
      -0.07412522,
      0.34990677,
      0.14905815,
      0.0418274,
      -0.009649812,
      0.103183694,
      -0.20765449,
      0.08351675,
      -0.18439044,
      0.1248416,
      -0.45665297,
      -0.16922307,
      0.20424236,
      0.09899416,
      -0.16015929,
      0.15846467,
      -0.0010960281,
      0.17190097,
      0.05939845,
      0.3172071,
      0.063776456,
      0.13038597,
      0.12315966,
      0.15079288,
      -0.08856187,
      0.16556892,
      0.28091502,
      -0.30223745,
      -0.4299956,
      -0.37465867,
      0.38830155,
      0.07480172,
      0.15231599,
      -0.40569153,
      -0.29513538,
      -0.25159678,
      -0.08644193,
      -0.053473935,
      0.18010186,
      0.1247087,
      -0.297003,
      0.0078260405,
      0.09711393,
      -0.15119076,
      0.015343521,
      -0.3854004,
      -0.16415739,
      -0.12188656,
      0.1419932,
      0.07590103,
      -0.0024548452,
      0.35850817,
      0.07782852,
      0.06289297,
      -0.013982583,
      0.16416767,
      -0.08392138,
      -0.006428843,
      -0.033568446,
      0.14113428,
      0.0788454,
      0.31046855,
      0.14698693,
      0.12120743,
      0.002147675,
      0.1168504,
      0.11082651,
      0.22943325,
      -0.03985386,
      -0.06786576,
      -0.088671565,
      0.15912989,
      -0.23122504,
      0.0781671,
      0.20359415,
      -0.22884175,
      0.11277357,
      0.014901802,
      -0.54004544,
      0.19937493,
      0.3632254,
      -0.27163398,
      0.04990275,
      -0.06415112,
      0.066578746,
      0.15931015
    ],
    [
      0.09796873,
      0.31060395,
      0.30144936,
      -0.003545411,
      0.1449275,
      -0.18764596,
      -0.0013154853,
      -0.058040254,
      0.025508577,
      0.10885385,
      -0.11053183,
      0.15427174,
      -0.38721326,
      -0.22285528,
      -0.04927504,
      0.097183116,
      -0.024318974,
      0.29003492,
      0.34450376,
      -0.21280609,
      -0.12882629,
      -0.3967857,
      0.089605235,
      0.0041009625,
      0.049554527,
      -0.27872404,
      0.1628403,
      -0.0033373137,
      0.16960423,
      -0.16457337,
      0.17218462,
      -0.27892593,
      -0.051420923,
      0.12588674,
      0.08797009,
      -0.024914604,
      -0.021494554,
      -0.0583276,
      0.035009246,
      0.096724905,
      0.11431607,
      0.141257,
      -0.09462702,
      0.0078122467,
      0.079886384,
      0.2515463,
      0.053455167,
      -0.07628561,
      -0.085247554,
      -0.07977334,
      -0.10468591,
      -0.015245285,
      -0.39824808,
      0.019230442,
      0.008052538,
      0.3826905,
      -0.15016474,
      0.1827729,
      0.06938801,
      0.18023738,
      -0.07174528,
      -0.12657802,
      0.218115,
      -0.07015052,
      0.08569107,
      0.16315646,
      0.26278114,
      -0.022851178,
      0.0814103,
      -0.5915425,
      -0.037773978,
      -0.179374,
      0.059488174,
      0.3163057,
      0.1893429,
      -0.18596068,
      -0.19340605,
      0.18674843,
      0.23510183,
      -0.04050197,
      -0.041195508,
      0.24124798,
      -0.20659691,
      0.043391492,
      0.21927823,
      0.04061456,
      0.023283945,
      -0.3760139,
      -0.06915679,
      0.0013393668,
      0.12921298,
      0.14829613,
      -0.10536863,
      0.14231789,
      0.027624412,
      0.12581307,
      0.17462783,
      0.13407683,
      0.1306593,
      0.13726504,
      0.24770798,
      0.03546728,
      0.39089102,
      0.30670017,
      -0.00085084134,
      0.19514102,
      -0.020037835,
      0.15817176,
      0.1851668,
      0.1784873,
      0.25977206,
      0.06751547,
      0.30142057,
      0.054246407,
      -0.030259198,
      -0.0796454,
      0.03723305,
      -0.22394812,
      0.19610053,
      0.040455326,
      -0.4725705,
      0.23672044,
      0.18400782,
      -0.1414755,
      -0.087956265,
      0.46671006,
      0.16963516,
      0.23794669
    ],
    [
      -0.016823815,
      -0.056388244,
      -0.15256247,
      -0.12058955,
      0.18929838,
      -0.3316425,
      -0.14150958,
      0.0020273542,
      0.21162684,
      0.17847103,
      0.26233685,
      -0.07313409,
      -0.5396902,
      -0.21070825,
      0.26304772,
      0.112266265,
      -0.1786346,
      0.31837624,
      0.15321924,
      -0.42414132,
      -0.1286698,
      -0.42852703,
      0.27326816,
      0.13239689,
      -0.09817937,
      -0.15005097,
      0.16627964,
      0.03419384,
      -0.06694471,
      -0.2098369,
      0.2049458,
      -0.06567363,
      0.07227761,
      0.06743917,
      -0.029728713,
      -0.06182145,
      -0.14654319,
      -0.07394779,
      0.08560795,
      -0.20261434,
      0.10305562,
      -0.0056115314,
      0.021423794,
      -0.027986132,
      0.17465493,
      0.17651361,
      0.0040455344,
      0.055239074,
      -0.30780423,
      -0.23656546,
      0.12837736,
      0.1550959,
      -0.12996227,
      -0.16618812,
      0.20004278,
      0.18092029,
      -0.49479526,
      -0.05517294,
      0.0046904436,
      0.07716274,
      0.029125735,
      0.17994954,
      0.23718736,
      0.20505713,
      0.2515292,
      0.095660284,
      -0.12144725,
      0.10203501,
      -0.017132748,
      -0.3231003,
      -0.053464234,
      -0.35290244,
      0.052101698,
      0.25876877,
      -0.007707258,
      -0.3895189,
      -0.4429756,
      0.13675092,
      0.18871124,
      0.019010229,
      0.081184015,
      0.14291753,
      -0.11456312,
      0.05662759,
      0.027156752,
      0.19392115,
      0.083378404,
      -0.19216216,
      -0.2722145,
      -0.010811764,
      0.082321174,
      0.07654902,
      0.26626837,
      0.29278964,
      -0.013286265,
      0.24039334,
      0.033651534,
      0.07646046,
      -0.034008563,
      0.0781711,
      -0.07171611,
      0.46194017,
      0.21843481,
      -0.022554304,
      0.11500481,
      0.22296631,
      -0.16216996,
      -0.002601214,
      0.07978523,
      0.1410781,
      0.031198904,
      -0.1902317,
      0.17789637,
      -0.11359278,
      -0.24026546,
      -0.094982915,
      0.13832726,
      -0.38832414,
      0.1935404,
      0.005841861,
      -0.14929233,
      0.034208525,
      0.315979,
      -0.2951801,
      -0.19065581,
      0.1076967,
      0.08960986,
      0.17066091
    ],
    [
      0.13814454,
      -0.06673108,
      -0.02027699,
      0.12767291,
      -0.18587561,
      -0.06144138,
      0.012165657,
      -0.16876207,
      -0.24588895,
      -0.017341597,
      0.01375293,
      -0.04543081,
      -0.03326544,
      0.05100136,
      0.12283364,
      0.049279932,
      -0.055783086,
      0.020546485,
      -0.21881244,
      -0.105752416,
      -0.047700506,
      -0.12849984,
      -0.2023645,
      0.09116533,
      -0.06765291,
      0.03968086,
      0.09932263,
      0.066235274,
      0.16907261,
      -0.14204116,
      -0.071003765,
      -0.25105345,
      -0.12215,
      -0.08139855,
      -0.1690378,
      -0.095964,
      -0.0029577722,
      0.20296398,
      -0.17662707,
      0.024100585,
      -0.3075999,
      -0.14809543,
      0.13937438,
      -0.017146703,
      0.018930504,
      0.0034129561,
      -0.04527963,
      0.08273936,
      -0.11550835,
      0.08544299,
      -0.064160556,
      -0.12547159,
      0.17360857,
      0.13312966,
      -0.14176908,
      0.028580368,
      -0.15026723,
      -0.2033894,
      0.066718996,
      0.18395068,
      -0.17666936,
      -0.044322167,
      0.08536759,
      -0.16102596,
      0.08982676,
      -0.023776941,
      0.19879441,
      0.079216085,
      -0.013245281,
      0.10342129,
      0.046323262,
      -0.116670705,
      -0.081569806,
      -0.017271476,
      0.00012546945,
      -0.056890372,
      0.33120197,
      -0.27628788,
      -0.006968181,
      -0.12984961,
      0.03214116,
      -0.15217963,
      0.050944418,
      -0.07416507,
      -0.039565463,
      -0.11511598,
      0.08071537,
      -0.00044390024,
      -0.13716464,
      -0.024929816,
      0.14479217,
      -0.15523861,
      -0.01937211,
      0.042339284,
      -0.19581708,
      -0.069044866,
      -0.06687474,
      -0.030178972,
      0.12969796,
      -0.065475024,
      -0.12737972,
      -0.040326305,
      0.26153776,
      0.06326748,
      -0.05809606,
      0.2368334,
      -0.066970654,
      0.033003986,
      0.027139235,
      0.0432566,
      -0.03542764,
      0.089966334,
      -0.2636723,
      0.020972358,
      0.103508465,
      0.005385359,
      -0.23299016,
      -0.23436448,
      0.10652265,
      -0.059380148,
      -0.031647723,
      -0.12547994,
      -0.109589644,
      -0.19236319,
      -0.17285533,
      0.080344066,
      0.053232633,
      -0.15451033
    ],
    [
      -0.0067736367,
      0.34230044,
      -0.14802654,
      -0.2236732,
      0.1558359,
      -0.14315073,
      0.10879643,
      0.08240586,
      0.014737128,
      0.0019959256,
      0.37228805,
      -0.033373617,
      -0.20485923,
      -0.1069606,
      0.14919347,
      -0.08603619,
      0.2054002,
      0.09822876,
      0.38422087,
      -0.26825944,
      0.13534243,
      -0.2142106,
      -0.026116842,
      0.07406367,
      -0.08592096,
      0.20047723,
      0.014361034,
      0.13809858,
      0.023419838,
      -0.110626094,
      0.17605194,
      -0.3467375,
      0.077169664,
      0.030217938,
      -0.1771073,
      0.13874087,
      -0.024264282,
      0.17393231,
      -0.15029697,
      0.24666633,
      0.24594665,
      -0.000795439,
      0.04897536,
      0.09847741,
      0.21687157,
      0.2700527,
      0.114768624,
      0.32311133,
      -0.21182805,
      -0.05010051,
      0.14972064,
      -0.052820094,
      -0.17985305,
      0.044517662,
      0.10090447,
      0.10739169,
      -0.19035086,
      0.37199584,
      -0.056854717,
      0.054668073,
      -0.11605876,
      0.047732577,
      0.18833302,
      0.13583711,
      -0.076651484,
      0.12740172,
      0.19840847,
      0.20098592,
      0.01169095,
      -0.32259828,
      -0.2623679,
      -0.0386361,
      0.24266677,
      0.16483971,
      0.10010431,
      -0.2788828,
      -0.44748893,
      0.19858257,
      0.2443846,
      -0.006190045,
      -0.021457689,
      0.015976323,
      -0.1499568,
      -0.051946454,
      0.32578436,
      0.11875692,
      0.03185606,
      -0.20063189,
      -0.5625548,
      0.15713714,
      0.30163145,
      0.20581043,
      0.00084654463,
      0.34569567,
      -0.12591085,
      0.15548906,
      0.03582886,
      0.061004,
      0.0046771457,
      0.23001231,
      0.19660208,
      0.2690312,
      0.026987849,
      0.01008221,
      0.22097833,
      0.31126788,
      0.04872377,
      0.036678337,
      0.035210222,
      0.15959172,
      -0.049294423,
      0.03419654,
      0.02576695,
      0.13928013,
      -0.1507015,
      -0.10960142,
      0.10511409,
      -0.35699287,
      0.05715867,
      0.0013242452,
      -0.498592,
      0.3369941,
      0.26013926,
      -0.1123131,
      -0.09288494,
      0.14696412,
      -0.108688466,
      -0.21891871
    ],
    [
      -0.042256776,
      0.2966981,
      0.05826798,
      0.35508558,
      0.21059506,
      -0.14171273,
      -0.011841341,
      0.20800701,
      -0.06834244,
      0.2530407,
      0.23862012,
      0.022045802,
      -0.4566122,
      -0.31185043,
      -0.22759342,
      0.103651404,
      0.059562597,
      0.18469636,
      0.08624632,
      -0.46599078,
      -0.06835837,
      -0.27347228,
      -0.23214658,
      0.029954337,
      0.042845033,
      -0.26567686,
      0.035680614,
      0.22615434,
      -0.023487888,
      -0.2043674,
      -0.18138027,
      -0.37520292,
      -0.09767032,
      -0.16228454,
      -0.04925712,
      0.07865577,
      -0.03641263,
      -0.054062195,
      0.04541611,
      -0.00948893,
      -0.032581534,
      0.21469772,
      0.1356601,
      0.011313537,
      0.20705278,
      0.16212359,
      0.121016346,
      0.07857664,
      0.07704283,
      0.03191588,
      0.01179118,
      0.014469213,
      -0.2866069,
      0.13486755,
      0.0082589,
      0.050823655,
      -0.4996958,
      0.03386082,
      0.016316662,
      -0.09805532,
      -0.0040870025,
      0.07945685,
      0.1756027,
      -0.007367798,
      0.022359962,
      0.37674138,
      -0.016639896,
      0.04539079,
      0.09532222,
      -0.44420332,
      -0.19996881,
      -0.40581256,
      0.050358117,
      0.2050214,
      -0.07454656,
      -0.31752425,
      -0.462062,
      0.24152493,
      0.06350567,
      -0.07780807,
      0.033508006,
      0.14355248,
      -0.23339662,
      -0.19829252,
      0.24268387,
      0.20320868,
      0.15926774,
      -0.1109146,
      -0.34755942,
      0.22541742,
      0.38875106,
      0.19316472,
      0.10128117,
      0.12879176,
      0.20930476,
      -0.048381373,
      0.2707771,
      0.16636935,
      -0.036220048,
      0.11834556,
      0.18798712,
      0.14867324,
      0.006305134,
      0.1819745,
      0.23027113,
      0.00068252644,
      -0.23532426,
      0.15895922,
      0.18674853,
      0.29525068,
      -0.28272867,
      -0.24058661,
      -0.036184903,
      -0.0015620067,
      -0.3031029,
      -0.044603694,
      0.13695821,
      -0.04763039,
      0.049996957,
      -0.027651986,
      -0.26663336,
      -0.045650136,
      0.23746178,
      -0.24182296,
      0.08148469,
      0.12008623,
      0.092392616,
      -0.022646595
    ],
    [
      -0.05596928,
      0.003979717,
      -0.1440289,
      -0.18656647,
      -0.034317587,
      0.1956392,
      0.05840876,
      0.0094792,
      -0.20611013,
      0.13341312,
      -0.048485115,
      0.115616664,
      -0.04157713,
      0.04389259,
      0.020853736,
      0.43431887,
      -0.026071534,
      0.003260037,
      -0.022648392,
      0.20567676,
      0.045956023,
      0.1940219,
      -0.1670222,
      -0.14855658,
      0.31564844,
      0.1703737,
      -0.009156699,
      0.15614259,
      0.028838778,
      -0.06670596,
      0.24764702,
      0.28427207,
      0.06390498,
      0.04035032,
      -0.07759408,
      0.09314883,
      0.009447763,
      0.15840769,
      0.2791232,
      -0.098853804,
      0.080966756,
      0.04856356,
      0.008923826,
      0.20966886,
      -0.047748767,
      -5.644773e-7,
      -0.053143706,
      -0.056132343,
      0.09421006,
      -0.08382448,
      0.16849881,
      -0.0702667,
      0.07527026,
      -0.021614967,
      0.051446296,
      0.031257745,
      0.115996644,
      -0.0942954,
      -0.06888619,
      0.22198544,
      -0.03335023,
      -0.16662684,
      -0.12762,
      -0.101780616,
      0.13387135,
      -0.17891963,
      0.11226024,
      -0.12295823,
      0.018324906,
      0.2931472,
      0.13375285,
      0.058495004,
      -0.03469219,
      0.17470062,
      0.23301652,
      0.33222982,
      0.29544106,
      -0.008261521,
      -0.10234432,
      -0.15780966,
      -0.051531114,
      0.010762776,
      0.25301313,
      -0.08021466,
      0.14522724,
      0.057338353,
      -0.23952696,
      0.18971607,
      0.13932689,
      0.029640812,
      0.13621514,
      0.20723145,
      -0.07728283,
      0.0482777,
      -0.049386498,
      0.051671345,
      -0.055519946,
      0.24317077,
      0.101261295,
      0.05317703,
      0.08609846,
      0.0041693207,
      0.021794312,
      -0.22544046,
      0.17108558,
      -0.12707213,
      0.11762186,
      0.056793593,
      -0.23118672,
      0.11843162,
      -0.021437528,
      0.14852175,
      0.17803168,
      0.22651197,
      0.0004992642,
      0.20695944,
      0.06314156,
      0.06812615,
      -0.05522157,
      -0.1344642,
      0.44863734,
      -0.009478384,
      -0.11538414,
      0.26954657,
      0.018473357,
      -0.059325308,
      -0.11479427,
      -0.11518397
    ],
    [
      -0.03576098,
      0.18789238,
      0.28417155,
      0.072522655,
      0.040834177,
      -0.15230182,
      -0.16439174,
      0.18074384,
      0.035749562,
      0.10473663,
      -0.009950307,
      -0.055798415,
      -0.43510923,
      -0.19419129,
      -0.041968234,
      0.2009155,
      0.19076844,
      0.26287952,
      0.023134489,
      -0.19473371,
      0.15671718,
      -0.46038505,
      0.30608705,
      0.16759476,
      -0.109005116,
      -0.15748909,
      -0.25761017,
      0.3085558,
      0.21616879,
      -0.29463398,
      -0.0628788,
      -0.093676664,
      0.05953256,
      -0.01734901,
      0.023409562,
      0.24306105,
      0.07122021,
      0.19281012,
      0.028843416,
      -0.14969687,
      0.009554218,
      0.14152478,
      0.050810687,
      0.19082037,
      0.12530144,
      0.20119956,
      0.08561156,
      0.12707618,
      -0.13147585,
      0.013126346,
      0.15980306,
      0.27515158,
      -0.28570896,
      0.18541335,
      -0.017685786,
      -0.106870055,
      -0.28264034,
      0.020719072,
      -0.068153016,
      0.054008473,
      -0.21464664,
      0.028643563,
      0.10034319,
      0.17657055,
      0.4859281,
      0.090855286,
      0.04669207,
      0.13210052,
      -0.04614461,
      -0.31226426,
      -0.42525426,
      -0.030634677,
      0.13745257,
      0.10080365,
      0.08910164,
      -0.31430116,
      -0.51261634,
      0.08574418,
      0.22309618,
      -0.0084878635,
      -0.039236467,
      0.030367145,
      -0.09563031,
      -0.15879342,
      -0.113590166,
      0.13139196,
      0.22971489,
      -0.07732508,
      -0.2030541,
      0.44424722,
      0.18221298,
      0.07743605,
      0.13308148,
      0.18732087,
      -0.000067398825,
      0.25022066,
      -0.0019246663,
      0.13977864,
      -0.03527514,
      0.2609496,
      0.22803354,
      0.24116075,
      0.29409796,
      0.1400293,
      0.060747433,
      0.06066529,
      0.09769129,
      0.01717978,
      0.26986766,
      0.08802186,
      0.04510121,
      0.014768092,
      -0.087080546,
      0.23114602,
      0.1633443,
      0.08341125,
      0.09919372,
      -0.18009408,
      0.18185554,
      0.065663576,
      -0.3370514,
      0.28623492,
      0.35309914,
      0.040209025,
      -0.13029565,
      0.1516287,
      0.07127077,
      0.24138686
    ],
    [
      -0.103718504,
      0.18650351,
      0.25045902,
      -0.1878581,
      0.07048781,
      -0.29636928,
      0.1453281,
      -0.014895154,
      0.025096994,
      -0.11263857,
      -0.016540166,
      0.092969604,
      -0.39892888,
      -0.055123355,
      -0.025543028,
      -0.014633019,
      -0.01505743,
      0.10458887,
      0.026370667,
      -0.5241553,
      0.24571995,
      -0.17837974,
      0.010618703,
      0.2165677,
      -0.10972208,
      -0.07660344,
      0.14647359,
      -0.02517903,
      0.20194185,
      -0.18703707,
      0.025613286,
      -0.24114163,
      0.21011983,
      0.13091537,
      0.13361184,
      0.13317008,
      -0.1279698,
      0.052379668,
      -0.11882228,
      0.16690306,
      0.122307666,
      0.21140677,
      0.23153695,
      0.25107613,
      0.11000399,
      0.027263911,
      0.056704365,
      0.01617679,
      0.08896603,
      -0.10886731,
      -0.13642338,
      0.08318948,
      -0.25540748,
      -0.10315244,
      0.33632568,
      0.26880673,
      -0.4078223,
      0.08519386,
      0.03163139,
      -0.05591259,
      -0.011661201,
      -0.115645915,
      -0.01619707,
      0.25686067,
      0.2096106,
      0.056451026,
      -0.098510906,
      0.24680142,
      0.051162746,
      -0.3153836,
      -0.1966314,
      -0.18808818,
      0.38214162,
      0.26570162,
      -0.048426334,
      -0.28901076,
      -0.5153769,
      0.09230485,
      0.23390849,
      -0.16855901,
      0.15951003,
      0.037470702,
      -0.16053705,
      -0.075045876,
      -0.013409711,
      0.10415079,
      -0.013012795,
      -0.16159175,
      0.007623925,
      0.31802928,
      0.16813801,
      0.25315562,
      0.0052282913,
      0.040345363,
      -0.08363991,
      0.008513369,
      -0.0027654928,
      0.26471505,
      0.24295518,
      0.06356553,
      0.067415744,
      -0.03367378,
      0.1639433,
      0.032996196,
      0.43075067,
      0.27292454,
      -0.07858038,
      0.03498979,
      0.22644238,
      -0.057315875,
      0.10805834,
      -0.042289026,
      -0.08610611,
      -0.07845378,
      -0.21436957,
      0.015173197,
      0.07399548,
      -0.2630839,
      -0.01944911,
      0.03922263,
      -0.22874148,
      0.094522215,
      0.072865464,
      -0.22656648,
      0.026500734,
      -0.002822266,
      0.48409075,
      -0.045801576
    ],
    [
      0.18682876,
      -0.044935968,
      -0.15255225,
      -0.0691285,
      0.0038323035,
      -0.14225005,
      -0.10432166,
      0.027322166,
      -0.22219591,
      0.1842972,
      0.016687298,
      0.16319215,
      -0.062372997,
      -0.17259595,
      -0.067712255,
      -0.04772037,
      -0.10720225,
      0.16108744,
      -0.06044969,
      0.36615917,
      -0.020452954,
      -0.038360693,
      0.21409285,
      -0.078249924,
      -0.010724797,
      0.018358292,
      -0.1087373,
      -0.09910992,
      0.08310922,
      0.14222531,
      -0.028946547,
      -0.27821827,
      0.0741722,
      0.017789952,
      0.20381065,
      -0.10067384,
      0.026748918,
      0.14295092,
      -0.10990247,
      0.14711137,
      -0.10827433,
      0.032821607,
      -0.06484264,
      0.10648259,
      -0.08732689,
      -0.015262994,
      -0.10624934,
      -0.07058565,
      0.01708736,
      0.12963122,
      0.20502174,
      0.0721355,
      -0.121975295,
      0.15274704,
      0.16721748,
      0.21985456,
      -0.21014823,
      0.14894687,
      -0.06653752,
      -0.18213534,
      0.094378226,
      -0.030242966,
      -0.103329234,
      -0.0110987695,
      -0.14174803,
      0.025103597,
      0.12237101,
      0.101507045,
      0.05865211,
      -0.052439645,
      -0.075847656,
      0.04461054,
      -0.038077556,
      0.10144049,
      -0.27966502,
      0.036925267,
      0.037898153,
      -0.18698713,
      0.019626673,
      0.14251944,
      -0.20148037,
      0.009622754,
      -0.0912639,
      0.055008776,
      0.07055064,
      0.085132994,
      0.22263394,
      -0.22904415,
      -0.053795353,
      -0.04460427,
      -0.09770466,
      0.09690871,
      -0.056333352,
      -0.28687117,
      0.0176552,
      0.036995098,
      -0.16108581,
      -0.08484884,
      0.012939588,
      -0.17414826,
      -0.03594741,
      0.15701152,
      0.103048645,
      -0.10884633,
      0.11341224,
      0.03069859,
      0.06074563,
      -0.11607887,
      -0.04462092,
      -0.14620313,
      -0.15132187,
      -0.23023,
      0.08952313,
      0.13373305,
      0.048740935,
      0.10352737,
      -0.25260314,
      0.033190668,
      0.029698027,
      0.021589244,
      0.06281337,
      -0.07562378,
      0.16555725,
      -0.015395421,
      0.06372628,
      -0.22974774,
      -0.0013936085,
      -0.017364785
    ],
    [
      -0.2642419,
      0.18935543,
      0.15256725,
      0.21467942,
      -0.07717617,
      -0.13655551,
      -0.15782012,
      0.28878355,
      0.19422847,
      -0.012753654,
      0.27467772,
      -0.13274968,
      -0.53633386,
      -0.23800345,
      0.09377909,
      0.12166471,
      -0.15251543,
      0.17703651,
      0.2831841,
      -0.14317341,
      0.35031384,
      -0.22480938,
      0.09245923,
      0.008079943,
      -0.30272293,
      0.003924624,
      0.105054,
      0.04307571,
      0.14497629,
      -0.1375079,
      0.2759349,
      -0.17975976,
      -0.19078635,
      -0.28935468,
      -0.049774595,
      0.06611477,
      -0.24730334,
      0.07019895,
      -0.16229454,
      -0.040111203,
      0.16212717,
      0.1483559,
      0.07268334,
      0.07647611,
      -0.14375435,
      0.1462671,
      0.0664643,
      -0.0036576102,
      0.03700588,
      0.15652493,
      0.21188988,
      -0.122066334,
      -0.29339197,
      0.067110725,
      0.065830685,
      0.41879278,
      -0.30042136,
      0.068149745,
      0.035995066,
      0.13300513,
      0.05075459,
      0.12898369,
      -0.082361035,
      0.2671832,
      0.09772408,
      0.03749703,
      -0.21883881,
      0.0638439,
      -0.0014202467,
      -0.2712932,
      -0.124982126,
      -0.22434269,
      0.12048698,
      0.23600407,
      0.080475144,
      -0.40812942,
      -0.3054629,
      -0.041708853,
      0.05823158,
      0.057477012,
      -0.20508377,
      0.045365293,
      -0.32998273,
      0.080346,
      0.13569872,
      0.22777705,
      0.043128196,
      -0.1777219,
      -0.28656265,
      0.2522581,
      0.258357,
      0.086843304,
      -0.015778277,
      0.12710609,
      0.014933725,
      0.25063077,
      -0.03638136,
      0.013903051,
      0.2059192,
      0.27634624,
      0.015059447,
      -0.041335974,
      0.1962386,
      0.03486362,
      -0.0032297631,
      0.13623448,
      -0.06174933,
      0.16926838,
      0.24138771,
      0.21815018,
      -0.1948335,
      0.17676465,
      0.13369706,
      -0.0020841865,
      -0.11522581,
      -0.08641224,
      0.27852407,
      -0.13567209,
      0.37812746,
      -0.049133174,
      -0.45340312,
      0.193047,
      -0.030995334,
      -0.25587344,
      0.1389966,
      0.09319811,
      0.15787667,
      0.16088225
    ],
    [
      0.053734317,
      -0.107020445,
      -0.045089953,
      0.16882639,
      0.24391241,
      -0.10307193,
      -0.12477254,
      -0.059040602,
      0.14848933,
      -0.013483434,
      0.13648796,
      0.18847054,
      -0.4779843,
      -0.37918955,
      -0.11419875,
      -0.063983314,
      0.21566013,
      -0.0030717766,
      0.19167487,
      -0.009295508,
      0.034913562,
      -0.40808457,
      -0.13723545,
      0.13705246,
      -0.088631086,
      0.041684475,
      0.2668738,
      -0.013310368,
      0.26624802,
      -0.28125235,
      0.24676296,
      -0.060294114,
      0.09815945,
      -0.118223585,
      -0.13872728,
      0.10398246,
      -0.06155552,
      0.25713462,
      -0.1296378,
      -0.06643248,
      -0.015079743,
      -0.12459055,
      0.0316992,
      0.15475333,
      -0.06701714,
      0.07449506,
      -0.01468752,
      0.09184438,
      -0.12627587,
      -0.21166569,
      0.036803998,
      0.21607435,
      -0.4230834,
      -0.0900628,
      0.102120884,
      0.2942124,
      -0.32673177,
      0.08254101,
      -0.10982598,
      -0.10248611,
      -0.017036162,
      -0.040016092,
      0.2917686,
      -0.020986585,
      0.014499255,
      0.34958082,
      -0.1156361,
      0.11035299,
      0.054156017,
      -0.44400272,
      -0.1782188,
      -0.12800121,
      0.46035087,
      -0.08291885,
      0.1629769,
      -0.3082812,
      -0.38795662,
      0.08174933,
      0.12912002,
      -0.10128202,
      0.050482836,
      -0.081459336,
      -0.1849024,
      -0.12094683,
      0.27642167,
      0.17229713,
      0.025213862,
      -0.1005261,
      -0.109963566,
      0.22419585,
      -0.11556687,
      -0.2086973,
      0.048333246,
      0.15023553,
      0.02377016,
      -0.02785969,
      -0.111904226,
      0.3466661,
      0.06585399,
      0.3131277,
      0.052234415,
      0.22476786,
      0.03850925,
      0.28711063,
      0.0030697803,
      -0.023394903,
      -0.13140666,
      0.1473675,
      0.24027766,
      0.09149382,
      -0.05555513,
      -0.07131133,
      0.10166856,
      -0.035295304,
      -0.08548162,
      0.10648733,
      0.141069,
      -0.3830424,
      0.23771605,
      0.012014378,
      -0.3517165,
      -0.08877828,
      0.20774142,
      0.0014201457,
      0.11539751,
      0.14003956,
      0.063882455,
      -0.010681026
    ],
    [
      0.04412159,
      0.104411855,
      -0.03254468,
      0.14546633,
      0.25502208,
      -0.2620988,
      -0.007176035,
      0.2860116,
      0.08661735,
      0.22923166,
      0.008938188,
      0.28090072,
      -0.26300246,
      -0.14920215,
      0.22733058,
      0.14889695,
      0.28176108,
      0.083517484,
      0.11675264,
      -0.41348097,
      0.38415286,
      -0.38771197,
      0.12177947,
      0.22313958,
      0.15625736,
      -0.35420722,
      0.25566217,
      0.17197794,
      0.027005378,
      -0.2323764,
      0.07951812,
      -0.15882434,
      -0.11161524,
      0.049729712,
      0.04396566,
      0.07965089,
      0.19363238,
      0.15410227,
      0.043794617,
      0.09944147,
      0.034195017,
      0.17398201,
      0.07150495,
      0.046090573,
      0.105169915,
      0.10953656,
      -0.13014464,
      -0.035787486,
      0.13500838,
      -0.00020981145,
      0.123889476,
      0.29717413,
      -0.25523093,
      0.16807485,
      0.077311516,
      0.20508298,
      -0.1700499,
      0.13289618,
      0.024625419,
      -0.20928024,
      0.14021982,
      0.14063065,
      0.27174214,
      -0.0973127,
      -0.055197965,
      -0.15839322,
      0.12617242,
      0.14391947,
      0.063833654,
      -0.11955992,
      -0.10192655,
      -0.439691,
      0.16310023,
      0.041904017,
      0.20864132,
      -0.44787565,
      -0.46254274,
      0.09562358,
      0.19829854,
      0.014402457,
      -0.06393957,
      -0.12098485,
      -0.0089089805,
      0.0469377,
      -0.015871724,
      0.07045487,
      -0.12132141,
      -0.24559528,
      -0.1251521,
      0.17826751,
      0.27604386,
      -0.047472052,
      0.04122433,
      0.21838798,
      0.03080839,
      0.17484632,
      -0.15625888,
      0.035082217,
      0.11844863,
      0.09342338,
      0.08901214,
      0.109450266,
      0.033717882,
      0.015910225,
      0.03731951,
      0.06276443,
      -0.070046715,
      0.08085409,
      0.15690315,
      0.10541796,
      -0.0048642815,
      -0.062387798,
      0.1759488,
      -0.14490265,
      -0.263872,
      -0.14766559,
      -0.06253979,
      -0.15735103,
      0.42551836,
      -0.02566156,
      -0.54569876,
      0.35329443,
      0.12764847,
      -0.16244836,
      -0.13086353,
      -0.03514577,
      0.14018129,
      -0.03041128
    ],
    [
      0.040882364,
