{
  "obs_dim": 4,
  "action_dim": 2,
  "hidden_dim": 64,
  "activation": "Tanh",
  "metadata": {
    "total_steps": 107640,
    "total_episodes": 3676,
    "final_performance": 29.28182807399347,
    "training_time_secs": 10.354355833,
    "device": "Cpu",
    "environment": "CartPole-v1",
    "algorithm": "PPO (Stable-Baselines3 config)",
    "timestamp": "2025-11-07T01:25:42.141206+00:00",
    "notes": "SB3-matched training: n_steps=32, batch_size=256, n_epochs=20, lr=0.001->0 (linear decay), gamma=0.98, gae_lambda=0.8, ent_coef=0.0, Tanh activation. Achieved 29.3 steps/episode in 10.4s (10396 steps/sec)."
  },
  "shared_fc1_weight": [
    [
      0.08618379,
      0.1409474,
      0.28664684,
      0.041059393
    ],
    [
      -0.1478096,
      0.027262961,
      0.5729911,
      -0.22273609
    ],
    [
      -0.037869245,
      -0.10128359,
      0.5672039,
      -0.07004202
    ],
    [
      0.09358533,
      -0.20820871,
      0.42818448,
      -0.19728623
    ],
    [
      -0.3487004,
      -0.13491125,
      0.35072917,
      -0.10945157
    ],
    [
      0.036794353,
      0.26255584,
      -0.5780686,
      0.18035734
    ],
    [
      -0.20874816,
      -0.033772867,
      0.46705627,
      0.13151057
    ],
    [
      0.022589104,
      -0.014791909,
      -0.32784793,
      0.08636736
    ],
    [
      0.35613093,
      -0.15412456,
      0.059786044,
      -0.14361246
    ],
    [
      0.029506307,
      0.15042433,
      -0.24304932,
      0.20675333
    ],
    [
      0.04881012,
      0.10269325,
      0.25405762,
      0.1973376
    ],
    [
      -0.08526773,
      -0.043961387,
      -0.2376703,
      0.03352829
    ],
    [
      0.3313942,
      -0.052573565,
      -0.46193138,
      0.11099014
    ],
    [
      0.119573675,
      -0.02949609,
      -0.4936651,
      -0.08999732
    ],
    [
      -0.10701012,
      -0.129694,
      0.089082554,
      -0.21700183
    ],
    [
      -0.11023332,
      0.15183146,
      0.3042453,
      0.15554376
    ],
    [
      0.11925808,
      -0.14748454,
      -0.14569181,
      -0.22097196
    ],
    [
      0.18377508,
      -0.36297143,
      -0.42667815,
      -0.207403
    ],
    [
      -0.20621455,
      0.021389384,
      0.46046093,
      0.29744112
    ],
    [
      -0.13369285,
      0.045190074,
      0.15668362,
      -0.055335797
    ],
    [
      0.27178344,
      -0.04330106,
      -0.18021311,
      0.107532844
    ],
    [
      0.14125788,
      -0.0041909674,
      -0.5085965,
      0.2045122
    ],
    [
      -0.19801039,
      0.065844774,
      -0.46594933,
      -0.03171273
    ],
    [
      0.010967641,
      0.21416913,
      -0.22156237,
      0.23878318
    ],
    [
      0.28845483,
      0.081410326,
      -0.3580982,
      0.25704294
    ],
    [
      -0.39086863,
      0.08754266,
      0.56980485,
      0.07720487
    ],
    [
      -0.122138456,
      0.15574698,
      0.7240189,
      0.11644505
    ],
    [
      0.030839788,
      0.18525147,
      0.56154925,
      0.21061389
    ],
    [
      0.52189994,
      0.09079582,
      -0.25023994,
      -0.123583175
    ],
    [
      -0.092447974,
      -0.1854244,
      0.4781516,
      -0.18768083
    ],
    [
      -0.2545449,
      0.07867551,
      -0.6863793,
      0.038161587
    ],
    [
      -0.17624432,
      -0.16654818,
      0.21027777,
      -0.21259864
    ],
    [
      0.16884577,
      -0.110805154,
      -0.23782165,
      0.0084864525
    ],
    [
      -0.11413476,
      0.045104165,
      0.42990184,
      0.120536886
    ],
    [
      0.16083398,
      -0.05722411,
      -0.10430136,
      -0.07170891
    ],
    [
      -0.31996548,
      -0.006720325,
      0.54500633,
      -0.14200501
    ],
    [
      0.15282598,
      -0.03036529,
      -0.20909414,
      0.11360778
    ],
    [
      0.2149089,
      0.080086865,
      0.056906823,
      0.11588528
    ],
    [
      0.08609875,
      -0.10769402,
      0.06878831,
      -0.028262198
    ],
    [
      -0.09401024,
      0.10456505,
      0.5260098,
      0.11542087
    ],
    [
      0.4260528,
      0.023269754,
      -0.5594252,
      -0.040580206
    ],
    [
      0.5112495,
      -0.20345728,
      -0.22544803,
      -0.23033454
    ],
    [
      -0.054750018,
      -0.15548559,
      -0.32264543,
      -0.15145779
    ],
    [
      0.2395923,
      0.08049871,
      -0.104647905,
      0.065468244
    ],
    [
      0.31267685,
      -0.28578556,
      -0.58564925,
      -0.31495827
    ],
    [
      -0.20090611,
      0.14721076,
      0.1664829,
      -0.014578884
    ],
    [
      0.0745271,
      0.01177254,
      -0.09662494,
      0.10642595
    ],
    [
      0.08788476,
      0.0026068427,
      0.52692753,
      0.09069508
    ],
    [
      0.010538334,
      -0.15829915,
      -0.426034,
      -0.33687487
    ],
    [
      0.2512806,
      0.21860787,
      -0.24272779,
      0.24062736
    ],
    [
      0.029319968,
      0.11825875,
      0.5611616,
      0.14935711
    ],
    [
      -0.13518727,
      0.021188598,
      0.6019841,
      0.075210385
    ],
    [
      0.044295836,
      0.07424972,
      -0.36652276,
      -0.11757843
    ],
    [
      -0.55466706,
      -0.07755664,
      0.18094592,
      0.24401951
    ],
    [
      -0.30900458,
      0.14234805,
      0.22430699,
      0.16704978
    ],
    [
      0.2993364,
      0.21691868,
      -0.41597593,
      0.38326526
    ],
    [
      0.0067993198,
      0.14639609,
      0.3169442,
      0.21948306
    ],
    [
      0.1435214,
      0.21780246,
      -0.15809111,
      0.28601936
    ],
    [
      0.13642472,
      0.08345595,
      -0.21468507,
      0.010031392
    ],
    [
      0.03750957,
      -0.18288577,
      0.5174877,
      0.16747135
    ],
    [
      -0.027492374,
      0.16333182,
      0.5844372,
      0.113445014
    ],
    [
      0.0848274,
      0.058691956,
      -0.2685637,
      0.08940125
    ],
    [
      -0.29733166,
      0.012094801,
      0.4768697,
      0.20437334
    ],
    [
      -0.0329216,
      -0.21419783,
      -0.14043495,
      -0.23065142
    ]
  ],
  "shared_fc1_bias": [
    -0.15453675,
    -0.22764562,
    -0.40513209,
    -0.29224798,
    -0.41712743,
    0.09033139,
    -0.22562006,
    0.25302413,
    -0.26373944,
    0.5579088,
    -0.47628817,
    0.24997143,
    0.33802122,
    0.3071836,
    -0.36894402,
    -0.15126711,
    0.10391654,
    0.31956896,
    -0.18891193,
    -0.074800976,
    0.115891024,
    0.30091184,
    0.52911055,
    0.36010852,
    0.2844669,
    -0.39497504,
    -0.061857432,
    -0.31501877,
    0.03703298,
    -0.3996898,
    0.11132956,
    -0.52840114,
    0.3064029,
    -0.062195204,
    0.2079692,
    -0.21076162,
    0.25516778,
    -0.17864151,
    0.31356472,
    -0.26616687,
    0.123654485,
    0.08897327,
    0.2585633,
    0.08465125,
    0.33656168,
    -0.04431146,
    0.5944329,
    -0.2563319,
    0.44111547,
    0.2942639,
    -0.2262848,
    -0.28830656,
    0.042874962,
    -0.40645397,
    -0.36617702,
    0.44239995,
    -0.19923136,
    0.37351167,
    0.09343177,
    -0.34208313,
    -0.046343744,
    0.36831498,
    -0.07390784,
    0.27200133
  ],
  "shared_fc2_weight": [
    [
      -0.68212366,
      -0.15563525,
      0.10043651,
      0.14596717,
      -0.16818227,
      0.026449408,
      -0.9762867,
      0.143921,
      -0.28077826,
      -0.22685248,
      -0.14638247,
      0.022974353,
      0.2395525,
      0.32437482,
      0.3255928,
      -0.8519185,
      1.0634582,
      0.35231164,
      -0.9021793,
      0.247654,
      -0.1714484,
      -0.04765265,
      0.19463174,
      -0.27082443,
      0.06812565,
      -0.04470762,
      -1.1178083,
      -0.47980255,
      0.29488423,
      0.12108277,
      1.0706408,
      -0.026205815,
      0.15672214,
      -0.82849723,
      0.24476027,
      -0.27723554,
      0.10321373,
      0.1646318,
      0.20904002,
      -0.2885324,
      1.2378429,
      0.67192256,
      0.648912,
      0.024333997,
      0.84448344,
      -0.103644684,
      -0.09933831,
      -0.46056286,
      0.4712634,
      -0.24439956,
      -0.93300146,
      -0.674818,
      0.5422511,
      -0.50362796,
      -0.1246269,
      0.14676276,
      -1.34734,
      -0.01733162,
      0.32433468,
      -0.47145122,
      -0.85823417,
      -0.1031591,
      -0.5837442,
      0.27361107
    ],
    [
      0.35342383,
      0.33975908,
      0.31866714,
      -0.021541702,
      0.08022008,
      -0.03135296,
      1.2031082,
      -0.009671066,
      0.03134692,
      -0.12458011,
      -0.13930929,
      -0.009880432,
      -0.37192267,
      -0.47520757,
      0.13008858,
      1.2552001,
      -0.80531853,
      -0.16911393,
      0.8743009,
      0.04606413,
      -0.029323108,
      -0.22340143,
      -0.4674944,
      0.1052989,
      0.015979934,
      -0.031719178,
      0.47133082,
      0.4586734,
      -0.16391703,
      -0.0061265323,
      -1.1576846,
      0.08273824,
      0.07339776,
      0.7577497,
      -0.059546303,
      0.12350456,
      -0.57606345,
      0.26085663,
      0.3625445,
      0.6348246,
      -1.079416,
      -0.6858001,
      -0.06326301,
      -0.18871942,
      -1.172479,
      0.15353648,
      -0.14007889,
      0.40679982,
      -0.7117682,
      0.0090846075,
      0.990994,
      0.6451966,
      -0.5839072,
      0.52578676,
      0.17836107,
      0.032017212,
      1.0475714,
      -0.22426614,
      -0.32192606,
      0.29139414,
      0.7818994,
      -0.13075772,
      0.05762961,
      -0.6540709
    ],
    [
      -0.53453815,
      -0.35601637,
      -0.19008173,
      -0.20640017,
      -0.053554587,
      0.42574087,
      -1.1014457,
      0.4648118,
      -0.22581312,
      0.24423909,
      0.07346073,
      0.6186937,
      0.52287877,
      0.31943208,
      -0.053039286,
      -1.158004,
      0.67713535,
      0.06903793,
      -1.0831459,
      -0.5157899,
      0.1468138,
      0.22264966,
      -0.058588635,
      0.12576343,
      0.1625516,
      -0.36178586,
      -0.49530655,
      -0.48161402,
      0.5007361,
      -0.01136441,
      1.0237492,
      0.124024466,
      0.31342676,
      -0.7765932,
      0.23272397,
      -0.3100507,
      0.3683134,
      0.05444582,
      0.3166651,
      -0.4267811,
      1.1452996,
      0.6733134,
      0.4989444,
      0.24169688,
      1.3003993,
      -0.08515963,
      0.27193022,
      -0.53218997,
      0.3587444,
      0.23696075,
      -0.8734592,
      -0.5134386,
      0.39243987,
      -0.21304418,
      0.0916231,
      0.1882281,
      -1.341625,
      0.16761696,
      0.30520543,
      -0.4315313,
      -0.30610743,
      0.091632105,
      -0.5467312,
      0.37249726
    ],
    [
      0.53280646,
      0.2920333,
      0.27687588,
      0.16819452,
      0.40622538,
      -0.12659091,
      1.1661425,
      -0.10672101,
      0.3190206,
      -0.17040499,
      0.043124124,
      -0.06710476,
      -0.007941219,
      -0.12001671,
      0.17082858,
      1.027251,
      -0.65878856,
      -0.40972283,
      0.6526594,
      0.1622473,
      -0.2920382,
      -0.20043938,
      0.03483055,
      0.07457953,
      0.08308274,
      0.44736448,
      1.2452766,
      0.35798424,
      -0.50249606,
      0.054234628,
      -1.1002163,
      0.054167684,
      -0.199882,
      0.2733662,
      0.21626164,
      -0.0071508037,
      -0.14722276,
      0.18438104,
      0.22111961,
      0.49178562,
      -0.95038545,
      -0.6055698,
      -0.23076291,
      0.012146385,
      -1.0571287,
      0.2649493,
      0.19023976,
      0.259869,
      -0.74506676,
      0.073325954,
      1.1078207,
      0.12433749,
      -0.44002184,
      0.65548694,
      -0.03104254,
      0.05542736,
      1.0956917,
      0.16655935,
      -0.12812333,
      0.7228573,
      0.395485,
      -0.29924008,
      0.6661431,
      -0.44572958
    ],
    [
      0.4224247,
      0.11338134,
      0.05372021,
      0.07344506,
      0.17578146,
      -0.39036214,
      1.4202396,
      -0.18446101,
      -0.024434133,
      0.34475985,
      0.045505784,
      -0.088744625,
      0.050696317,
      -0.46912137,
      0.24466756,
      1.2063247,
      -0.845828,
      -0.65762305,
      0.91881,
      -0.08704813,
      -0.4429706,
      -0.3074575,
      0.16526526,
      -0.31296182,
      -0.06971134,
      0.3071917,
      0.4511312,
      0.21748906,
      -0.1874598,
      0.25415948,
      -0.7968526,
      0.045183036,
      -0.19287358,
      0.806577,
      -0.20608512,
      0.1581237,
      -0.282082,
      0.1097218,
      -0.07354897,
      0.5776368,
      -0.9982956,
      -0.8669201,
      -0.036166333,
      -0.073556855,
      -0.9774271,
      0.3840699,
      -0.42540944,
      -0.021283474,
      -0.27390397,
      -0.32236308,
      0.9161017,
      0.2523978,
      -0.2953399,
      0.8016612,
      0.18990165,
      0.009617441,
      1.420998,
      -0.14322326,
      -0.51496667,
      0.56422746,
      0.48734987,
      -0.13798273,
      0.4724118,
      -0.2053953
    ],
    [
      0.1273003,
      0.43874463,
      0.15902928,
      0.12493165,
      0.15170218,
      -0.7591838,
      1.2449121,
      -0.35860312,
      0.30933312,
      -0.021483222,
      0.036382258,
      0.02100959,
      -0.05074899,
      -0.5593664,
      0.25454408,
      1.1495551,
      -0.6704891,
      -0.032247037,
      0.8196617,
      0.28623924,
      -0.4246695,
      -0.1825504,
      -0.35117057,
      -0.21746455,
      -0.14662594,
      0.27963617,
      0.5904567,
      0.5520471,
      -0.2842443,
      -0.056810465,
      -1.2667495,
      0.033703383,
      0.029383736,
      0.46424338,
      -0.29376194,
      0.39273298,
      -0.4148723,
      -0.07983551,
      -0.17617545,
      0.30084965,
      -0.9828635,
      -0.28464368,
      -0.12169481,
      -0.17560479,
      -1.1879808,
      0.33578956,
      0.08474748,
      0.59575754,
      -0.5163516,
      -0.52092296,
      0.6120303,
      0.21715875,
      -0.07000247,
      0.78430265,
      0.38732508,
      -0.7171384,
      1.4786403,
      -0.1848457,
      -0.34360817,
      0.5541406,
      0.35199943,
      -0.2937401,
      0.32868603,
      -0.35548148
    ],
    [
      -0.56262684,
      0.4844605,
      -0.026333805,
      0.03406192,
      0.048904426,
      0.07067456,
      -1.1555585,
      0.14651331,
      -0.40173876,
      0.17982957,
      -0.2443629,
      -0.1994187,
      0.19887176,
      0.18062422,
      0.098927446,
      -1.3840058,
      0.6812575,
      0.73114485,
      -0.8934221,
      -0.31578,
      -0.07790505,
      -0.12639225,
      0.09857983,
      0.16566044,
      0.05698846,
      0.030803014,
      -0.97572124,
      -0.7771325,
      0.3034816,
      -0.1910671,
      1.1759679,
      -0.028766062,
      -0.03635458,
      -0.43675938,
      0.13932602,
      -0.32325843,
      -0.1527757,
      -0.36722052,
      -0.006032688,
      -0.5561614,
      0.9761489,
      0.6062459,
      0.15408823,
      -0.2762928,
      0.98848677,
      -0.3053824,
      0.28036818,
      -0.6223646,
      0.40977287,
      0.2358373,
      -0.7189616,
      -0.3279661,
      0.54329044,
      -0.52391094,
      -0.049726304,
      0.15014495,
      -1.0743597,
      -0.17947856,
      0.041676953,
      -0.28160474,
      -0.78466177,
      0.08644782,
      -0.5340425,
      0.47680753
    ],
    [
      -0.21428612,
      -0.40699503,
      -0.08272852,
      0.053554937,
      -0.02851515,
      0.29236433,
      -1.1162715,
      0.29497525,
      0.07133157,
      -0.0010920317,
      -0.43442163,
      0.12973277,
      0.3816402,
      0.38430193,
      -0.052537046,
      -1.6069709,
      0.6640433,
      0.187774,
      -0.8083619,
      0.07801578,
      0.3197008,
      0.32380188,
      -0.32138318,
      0.004808398,
      0.4938653,
      -0.31387162,
      -0.7060702,
      -0.5579852,
      0.7779406,
      0.014724733,
      0.92626655,
      0.17018646,
      -0.23217656,
      -0.6125129,
      0.16577312,
      -0.30671903,
      0.106889665,
      -0.12640633,
      -0.070606835,
      -0.35352907,
      1.0616956,
      0.8640763,
      0.37106526,
      0.33768672,
      0.9772217,
      -0.066706665,
      0.15515518,
      -0.36114347,
      0.45409477,
      0.29811046,
      -0.5006072,
      -0.44101757,
      0.5500799,
      -0.45758346,
      -0.28945792,
      0.07228626,
      -1.0338418,
      0.054968663,
      0.21090677,
      -0.846483,
      -0.47288677,
      -0.0019194589,
      -0.20728073,
      0.4212821
    ],
    [
      0.56293416,
      0.422609,
      -0.21032691,
      0.040763456,
      -0.061493397,
      -0.12480506,
      1.0481043,
      -0.2624002,
      -0.22991341,
      -0.077611126,
      0.28863573,
      -0.041834746,
      0.08397182,
      -0.55949104,
      -0.15386917,
      0.9451486,
      -0.8888548,
      -0.5684597,
      0.537588,
      0.31699613,
      -0.20740724,
      -0.36192533,
      -0.35047933,
      0.013631222,
      -0.16728918,
      0.240888,
      0.5932628,
      0.5612938,
      0.051723946,
      -0.044712577,
      -0.7719512,
      -0.2672492,
      0.107199885,
      0.6094672,
      0.014104897,
      0.10737428,
      0.09326714,
      0.23516859,
      -0.045563232,
      0.5904011,
      -0.91042477,
      -0.62706536,
      -0.2845518,
      -0.02606745,
      -1.1272702,
      0.029349051,
      -0.089312285,
      0.5091508,
      -0.81016487,
      0.043437343,
      0.7214379,
      0.4439627,
      -0.40997064,
      0.8565706,
      -0.04638478,
      -0.27864084,
      1.2916554,
      -0.10904924,
      0.13096367,
      0.85555124,
      0.7292953,
      0.13863735,
      0.5419063,
      -0.343374
    ],
    [
      -0.32073253,
      -0.19463316,
      0.053247932,
      -0.34171546,
      -0.17962486,
      0.49947655,
      -0.71337676,
      0.17602599,
      -0.41219625,
      0.28211403,
      -0.21779548,
      0.06595684,
      0.24707831,
      0.44174382,
      -0.19052988,
      -1.0583279,
      0.9141162,
      0.27126548,
      -0.938473,
      0.16487657,
      0.20332271,
      0.23965359,
      0.20961025,
      0.34613085,
      0.41278106,
      -0.2769766,
      -0.6423679,
      -0.796341,
      0.19661792,
      0.10741482,
      0.79898673,
      -0.14377446,
      0.39112338,
      -0.23178895,
      0.34109205,
      -0.35011452,
      0.41272646,
      -0.3252894,
      0.038332805,
      -0.6214207,
      1.1215109,
      0.36953476,
      0.64415896,
      0.5245906,
      1.053567,
      -0.25831616,
      0.29761907,
      -0.17984276,
      0.69320285,
      0.030850174,
      -0.69835615,
      -0.5615378,
      0.34723383,
      -0.5416829,
      -0.23479158,
      0.35053095,
      -0.99034244,
      0.30278015,
      0.41083777,
      -0.57330865,
      -0.5909769,
      0.39946893,
      -0.52404004,
      0.13772257
    ],
    [
      -0.029512698,
      -0.12246297,
      -0.026879992,
      -0.013409133,
      0.43592855,
      -0.3554098,
      1.0915433,
      -0.35059878,
      -0.12132721,
      -0.033047985,
      0.23457697,
      0.10020877,
      -0.64175236,
      -0.19166008,
      -0.046148024,
      1.100877,
      -0.7498767,
      -0.3702356,
      0.6056986,
      0.3748113,
      -0.49011737,
      -0.13623776,
      -0.20230599,
      -0.16674627,
      -0.011954515,
      0.367543,
      0.3323871,
      0.5410443,
      -0.42113245,
      0.10715048,
      -0.94682455,
      0.042365696,
      -0.31148323,
      0.46721354,
      0.15648897,
      0.40752354,
      -0.21413891,
      0.30182734,
      -0.071228124,
      0.55389196,
      -0.7884556,
      -0.6256133,
      -0.53070563,
      -0.3950081,
      -1.1007092,
      0.3526541,
      0.06777777,
      0.49072117,
      -0.52051306,
      -0.15219346,
      0.87445235,
      0.3445349,
      -0.3966396,
      0.89682037,
      -0.0816223,
      -0.15407096,
      1.4963412,
      -0.4651303,
      -0.6339278,
      0.54157615,
      0.3320109,
      0.20653148,
      0.21402255,
      -0.3593225
    ],
    [
      -0.42554384,
      -0.2852801,
      -0.16420062,
      -0.42157727,
      -0.15584219,
      0.35464838,
      -1.4317083,
      0.14245293,
      0.091491416,
      0.28366596,
      -0.097929835,
      0.022500718,
      0.08878069,
      0.25316972,
      0.12502624,
      -0.9777306,
      0.5578251,
      0.6232462,
      -0.88946956,
      -0.43256384,
      -0.014940627,
      -0.21089536,
      -0.08469079,
      -0.11630368,
      0.07739082,
      -0.4277118,
      -0.7246468,
      -0.26711154,
      0.06426585,
      0.10358062,
      0.98744357,
      -0.21625133,
      -0.13758686,
      -0.89798886,
      0.13850994,
      -0.25456253,
      0.12617333,
      -0.46601292,
      -0.10609568,
      -0.19485894,
      0.7795076,
      0.6261301,
      0.29414853,
      0.69359285,
      0.7559418,
      -0.5494041,
      0.10935502,
      -0.4172547,
      0.33251053,
      0.23316295,
      -0.78336847,
      -0.5483808,
      0.2624599,
      -0.6713253,
      -0.4047752,
      0.10667439,
      -1.2889013,
      0.1867765,
      0.17496718,
      -0.675014,
      -0.46856245,
      0.20120157,
      -0.5308954,
      0.44778225
    ],
    [
      0.53751403,
      0.1974739,
      0.17783049,
      -0.16269386,
      0.03736585,
      -0.19168675,
      0.9835334,
      0.11638973,
      0.016535688,
      -0.09697679,
      0.27615017,
      -0.15216799,
      -0.19379763,
      -0.3561529,
      0.10915408,
      1.2655079,
      -0.743545,
      -0.25104997,
      0.9620101,
      0.021679318,
      -0.26520258,
      0.13954721,
      -0.36708373,
      0.11313674,
      -0.24970958,
      0.36985248,
      0.54796594,
      0.5402767,
      -0.09507954,
      -0.15543716,
      -1.2304724,
      0.001644516,
      -0.37129956,
      0.7236705,
      0.023008363,
      0.057918075,
      0.06246945,
      0.3947954,
      -0.29210195,
      0.4278336,
      -1.4589313,
      -0.5185073,
      -0.33864012,
      0.09344947,
      -0.8007728,
      0.34969684,
      -0.13490433,
      0.6337067,
      -0.3318404,
      0.14728633,
      1.2168329,
      -0.04591536,
      -0.4258408,
      0.69675666,
      0.31123596,
      -0.020307306,
      0.9966146,
      -0.2366886,
      0.139807,
      0.6397099,
      0.4487609,
      -0.10420267,
      0.46072775,
      -0.5040695
    ],
    [
      0.09186345,
      0.27446225,
      -0.017714418,
      0.12912695,
      -0.20700423,
      -0.3943746,
      1.2556306,
      0.008838868,
      -0.098071545,
      -0.30010167,
      0.1721786,
      0.0020313857,
      0.15531589,
      -0.15504843,
      -0.21329357,
      0.9632432,
      -0.9690326,
      -0.16340742,
      0.69824624,
      0.13936585,
      -0.08466416,
      -0.38392264,
      -0.16992709,
      0.084342614,
      -0.42184475,
      0.53010446,
      0.72404075,
      0.4158569,
      -0.44555917,
      0.37445703,
      -1.1914897,
      -0.09896576,
      -0.0644717,
      0.6014711,
      -0.08499294,
      0.24600834,
      -0.28745332,
      0.12848015,
      -0.4187812,
      0.48436156,
      -1.1544983,
      -0.32286263,
      -0.14997324,
      -0.3051989,
      -1.233177,
      0.36749217,
      -0.1789911,
      0.25719312,
      -0.30887213,
      -0.06565796,
      0.9083173,
      0.5110555,
      -0.81450224,
      0.55911696,
      0.12459087,
      -0.13782763,
      1.1345862,
      0.021963272,
      -0.5732839,
      0.25585154,
      0.5467485,
      -0.060866106,
      0.6191436,
      -0.54131794
    ],
    [
      -0.21716025,
      -0.43030173,
      -0.36479813,
      -0.19337569,
      0.17732854,
      0.32110387,
      -1.0770316,
      -0.15756607,
      0.31295213,
      0.1750944,
      -0.32629168,
      0.078048475,
      0.1379739,
      0.22559653,
      0.10932631,
      -1.142149,
      0.83508795,
      0.2992922,
      -1.0052094,
      0.046160426,
      0.027510017,
      0.08604484,
      -0.080544636,
      0.17037445,
      -0.18080875,
      -0.030617114,
      -0.86468446,
      -0.638739,
      0.14697209,
      0.19919239,
      1.3936229,
      -0.12247882,
      0.24311224,
      -0.7177867,
      0.056596294,
      -0.4809931,
      0.17772868,
      -0.20823249,
      0.026529558,
      -0.48532528,
      0.75180393,
      0.7828696,
      0.23599133,
      -0.14576535,
      0.98226696,
      -0.52163464,
      0.12969957,
      -0.48260224,
      0.41901094,
      0.17524534,
      -0.9518164,
      -0.31875893,
      0.32052496,
      -0.73900265,
      0.30189016,
      0.27068084,
      -0.8801401,
      -0.028376814,
      0.35375413,
      -0.818399,
      -0.6983795,
      -0.13994333,
      -0.62081975,
      0.15019302
    ],
    [
      -0.48040503,
      -0.23259492,
      -0.23496707,
      -0.14992812,
      0.034007933,
      0.67135006,
      -1.3661524,
      0.21591327,
      0.07610561,
      0.08096484,
      -0.15224956,
      -0.17900084,
      0.25867113,
      0.068406574,
      -0.46111932,
      -1.283225,
      0.6685938,
      0.38030702,
      -0.5161264,
      -0.3176107,
      0.039502215,
      0.13947743,
      0.014882438,
      0.23094706,
      0.51361144,
      -0.2500711,
      -0.77342486,
      -0.50033265,
      0.19660643,
      0.07512368,
      1.067633,
      -0.37902504,
      0.4046067,
      -0.59636253,
      0.19302182,
      -0.36498028,
      0.12743232,
      -0.12964256,
      0.27846748,
      -0.49180245,
      0.91339064,
      0.7064208,
      -0.019485064,
      0.32387695,
      1.2272974,
      0.14902818,
      0.1822358,
      -0.295519,
      0.6005581,
      -0.3213912,
      -0.7343399,
      -0.33339566,
      0.5679961,
      -0.5261646,
      -0.42070422,
      0.4341455,
      -1.2773308,
      0.48126224,
      0.58402604,
      -0.6611325,
      -0.20890644,
      -0.09088082,
      -0.30469832,
      0.34872025
    ],
    [
      0.34437534,
      0.20975856,
      0.09976208,
      -0.009821822,
      0.0038891924,
      -0.09423953,
      0.80516946,
      0.02435265,
      -0.28737423,
      -0.22017924,
      0.09423629,
      -0.32149205,
      -0.32638726,
      -0.18551326,
      -0.22426409,
      0.8732795,
      -0.886472,
      -0.45682856,
      0.76485026,
      0.24003649,
      -0.16256717,
      -0.27123508,
      -0.025442537,
      -0.29427654,
      0.042122915,
      0.24726255,
      0.8911162,
      0.616325,
      -0.5744132,
      0.26595846,
      -1.0667567,
      0.41894734,
      -0.01697876,
      0.8064465,
      -0.21176058,
      0.43147585,
      -0.35728586,
      0.11058557,
      0.1455438,
      0.21011947,
      -1.1952924,
      -0.5223386,
      -0.027141206,
      0.22476096,
      -0.7791379,
      0.10784299,
      0.048741322,
      0.22543797,
      -0.56372684,
      -0.045582958,
      0.7378182,
      0.26456982,
      -0.36475998,
      0.54109883,
      0.4522244,
      0.028478026,
      1.4425021,
      -0.35280016,
      -0.1326471,
      0.680243,
      0.7168865,
      -0.04971834,
      0.66566175,
      -0.3372687
    ],
    [
      -0.22736709,
      -0.1977125,
      -0.014059835,
      0.2502376,
      -0.32960728,
      0.51085794,
      -1.0558058,
      -0.16123843,
      0.07457664,
      0.12637465,
      -0.16702291,
      0.27271017,
      0.15245555,
      0.2788574,
      -0.16892445,
      -1.0420017,
      0.66542405,
      0.50372964,
      -0.8651335,
      -0.31022412,
      -0.033333704,
      0.15458713,
      0.1369704,
      -0.2791927,
      0.07002611,
      -0.16218294,
      -0.8158293,
      -0.61989605,
      0.002936102,
      -0.07380833,
      1.0123475,
      -0.16611956,
      0.1129744,
      -0.38436252,
      0.043386888,
      -0.30202037,
      0.17821911,
      0.1548707,
      0.15577129,
      0.08927524,
      1.0111146,
      0.9747998,
      0.4313644,
      0.16696286,
      1.3128389,
      -0.27813768,
      0.49203765,
      -0.13264991,
      0.7236712,
      0.40008703,
      -0.8549155,
      -0.11733655,
      0.6729013,
      -0.7552164,
      -0.30077428,
      0.04728912,
      -1.1484745,
      0.13853373,
      0.25126407,
      -0.54919446,
      -0.5708525,
      0.11077752,
      -0.31732967,
      0.19788018
    ],
    [
      -0.2278666,
      0.009383712,
      -0.018950699,
      0.1325918,
      -0.037622467,
      0.23991312,
      -1.308154,
      0.30885223,
      0.17724429,
      0.061682682,
      0.04842293,
      0.32253662,
      -0.041981068,
      0.19949019,
      -0.23250948,
      -0.97951376,
      0.9099373,
      0.02231607,
      -0.85032415,
      -0.31052384,
      0.25940755,
      0.09063654,
      -0.09718481,
      0.10446364,
      0.110877,
      -0.13231303,
      -0.7729982,
      -0.56960934,
      0.23155431,
      -0.16594656,
      0.95050204,
      -0.5547197,
      -0.052995067,
      -0.49095696,
      -0.24934739,
      -0.44642904,
      0.21392101,
      -0.10812408,
      0.25365728,
      -0.56717104,
      1.1608859,
      1.0627812,
      0.33190185,
      0.11844207,
      0.9904743,
      -0.5981178,
      -0.11042991,
      -0.40931675,
      0.32075962,
      -0.18125778,
      -0.67788804,
      -0.7572958,
      0.16878773,
      -0.9155184,
      -0.27447897,
      0.028815273,
      -1.0193452,
      -0.2053493,
      -0.020489167,
      -0.6584573,
      -0.6193662,
      0.13532002,
      -0.31614968,
      0.3451498
    ],
    [
      0.4337155,
      0.2655177,
      -0.11976092,
      0.2190936,
      -0.012364193,
      -0.35695007,
      1.1471661,
      0.07644529,
      0.099048436,
      0.093088485,
      0.30014178,
      -0.030636722,
      -0.039115228,
      -0.1534327,
      0.07723928,
      1.1151065,
      -0.7097977,
      -0.44336382,
      0.4782411,
      0.20768867,
      -0.12494285,
      -0.08635065,
      -0.271273,
      -0.1854459,
      0.49516794,
      0.20567317,
      0.42279968,
      0.48098814,
      -0.41446793,
      0.051446594,
      -1.3120153,
      0.23817943,
      0.14259738,
      0.35524207,
      -0.32286003,
      0.06679666,
      0.14002438,
      0.29812413,
      -0.15946093,
      0.34941536,
      -1.4169174,
      -0.80722326,
      -0.2778651,
      -0.1385733,
      -1.1857885,
      0.5441308,
      -0.1727357,
      0.5401378,
      -0.5093756,
      0.11699239,
      0.9128897,
      0.38844293,
      -0.5426109,
      0.10031727,
      0.15772824,
      -0.034851443,
      1.2745128,
      -0.014751606,
      -0.2487888,
      0.9008245,
      0.8378454,
      -0.18968691,
      0.34603733,
      -0.42777577
    ],
    [
      0.73581463,
      0.1545534,
      -0.09101957,
      0.047617383,
      0.09434381,
      -0.49971718,
      1.037944,
      0.04157822,
      -0.15316203,
      0.08298336,
      -0.115982465,
      -0.06821494,
      -0.40150744,
      -0.4139808,
      0.12710933,
      1.1147381,
      -0.49209124,
      -0.38492197,
      0.821253,
      0.4277042,
      -0.2043005,
      -0.23964508,
      -0.09012559,
      0.18033595,
      -0.22771588,
      0.4455747,
      0.4484673,
      0.6323274,
      -0.36990625,
      0.29388416,
      -0.8345523,
      0.14852084,
      -0.3735622,
      0.7692569,
      -0.20533033,
      0.2616451,
      -0.14402732,
      0.19073243,
      -0.11542778,
      0.30107337,
      -1.0588632,
      -0.46864504,
      0.07236682,
      -0.2615101,
      -1.1215963,
      0.07208674,
      -0.06708319,
      0.6216402,
      -0.5511685,
      -0.11243467,
      0.6357719,
      0.5038284,
      -0.20364667,
      0.81390333,
      -0.08971473,
      -0.090612166,
      0.96630913,
      0.24836321,
      -0.59991515,
      0.8175142,
      0.7260431,
      -0.26515275,
      0.33711964,
      -0.049612798
    ],
    [
      0.5294954,
      -0.08546824,
      0.1999216,
      0.16155092,
      -0.17818813,
      -0.2811462,
      0.8819787,
      -0.15053524,
      0.32731158,
      0.2929018,
      0.1107014,
      -0.36050594,
      0.046582393,
      -0.014024848,
      0.18439491,
      0.8696128,
      -0.857701,
      -0.4181193,
      0.64789236,
      0.14653227,
      -0.3051717,
      -0.19824041,
      -0.23367278,
      0.25589693,
      -0.101746514,
      0.36891127,
      0.6384517,
      0.99969536,
      -0.31157658,
      0.0040029977,
      -1.2347987,
      -0.07030972,
      0.05326219,
      0.77233964,
      -0.45734236,
      0.18143173,
      -0.30849227,
      0.38907447,
      0.032005433,
      0.18787572,
      -0.8069875,
      -0.87368494,
      -0.42496863,
      -0.15479194,
      -1.0740905,
      0.24299386,
      0.1687222,
      0.4934462,
      -0.53152525,
      0.10033322,
      0.80919856,
      0.20705466,
      -0.378146,
      0.7714597,
      0.2080449,
      -0.16545644,
      0.84082806,
      -0.10367745,
      -0.2898922,
      0.45492473,
      0.8390146,
      0.20969443,
      0.5957837,
      -0.6336104
    ],
    [
      -0.14875509,
      -0.13686271,
      -0.35736752,
      -0.1805118,
      -0.16653478,
      0.28861117,
      -1.2327089,
      -0.006854691,
      -0.20969087,
      0.119071655,
      -0.2312868,
      0.17604665,
      0.19110286,
      -0.038855314,
      -0.17587528,
      -1.2872548,
      0.5604306,
      0.3538287,
      -0.88280797,
      -0.4892901,
      0.25666502,
      0.7324834,
      0.39732513,
      0.14610997,
      0.03232739,
      -0.13158427,
      -0.6622991,
      -0.5252007,
      0.13781203,
      -0.025383713,
      0.6779492,
      0.044365317,
      0.15888877,
      -0.9207019,
      0.09627985,
      0.00181913,
      0.13871725,
      0.0039815134,
      0.068266205,
      -0.4973176,
      1.0442837,
      0.5770102,
      0.37698418,
      0.042181216,
      0.69438344,
      -0.50314015,
      0.05627091,
      -0.42433065,
      0.5097568,
      0.111556105,
      -0.72293335,
      -0.62782806,
      0.64607376,
      -0.685548,
      -0.3380698,
      0.37024,
      -1.2309297,
      -0.107426085,
      0.37143964,
      -0.81762254,
      -0.39239234,
      -0.06669208,
      -0.28580353,
      0.07878569
    ],
    [
      0.5077415,
      0.53990763,
      0.31956163,
      -0.20475678,
      0.118671924,
      -0.49686596,
      1.3272355,
      -0.14676775,
      0.15784037,
      -0.050535873,
      0.35589632,
      0.03215055,
      0.00024689094,
      -0.25715545,
      0.24396594,
      1.0928638,
      -0.5288208,
      -0.4533558,
      1.0951583,
      0.2820279,
      -0.13186331,
      -0.08743732,
      -0.05566026,
      -0.043626066,
      -0.24696997,
      0.25732237,
      0.31157508,
      0.62057555,
      -0.62936586,
      0.18324323,
      -1.0789533,
      0.23438978,
      0.23645376,
      0.5806079,
      -0.31611788,
      0.22731543,
      -0.1281641,
      0.2627045,
      -0.16547504,
      0.5142656,
      -0.87431586,
      -0.35900867,
      -0.583266,
      0.0846231,
      -0.98410195,
      0.48695177,
      0.025722777,
      0.18812424,
      -0.7522569,
      0.2426534,
      0.9555516,
      0.3931685,
      -0.34813637,
      0.6257733,
      0.0120642,
      -0.0386496,
      1.2336301,
      -0.26018998,
      -0.22607042,
      0.28429046,
      0.75130767,
      0.077506654,
      0.39559674,
      0.03744408
    ],
    [
      -0.18486632,
      -0.4024734,
      0.19510199,
      -0.12978692,
      -0.20175315,
      0.1130438,
      -1.4664137,
      0.18396097,
      -0.1317718,
      -0.32484654,
      0.08404645,
      0.227068,
      0.3593725,
      0.10059741,
      -0.16426283,
      -0.84434086,
      0.74994075,
      0.15782088,
      -0.6732889,
      -0.27371803,
      0.3709886,
      -0.06744709,
      0.16166309,
      0.08885047,
      0.008409116,
      -0.22962579,
      -0.97664535,
      -0.38933957,
      0.43179026,
      0.07135118,
      1.0689286,
      0.010520143,
      -0.0642765,
      -0.96493167,
      -0.10314605,
      -0.5854316,
      -0.13652454,
      -0.28242058,
      0.12599207,
      -0.64502984,
      0.900241,
      0.5186299,
      0.3103512,
      0.009323906,
      0.97237813,
      -0.35273552,
      0.47530875,
      -0.3508638,
      0.48310483,
      0.10105055,
      -0.7859058,
      -0.18381692,
      0.50566715,
      -0.6556469,
      -0.37185088,
      0.15452898,
      -0.9477925,
      0.1322873,
      0.48788854,
      -0.70242447,
      -0.9749864,
      0.09866706,
      -0.40467516,
      0.19458367
    ],
    [
      0.39360055,
      0.28082517,
      -0.27905256,
      -0.11672208,
      0.09294011,
      -0.3585607,
      1.1193212,
      -0.18955053,
      0.003821236,
      -0.30094895,
      0.15288877,
      -0.09443456,
      -0.05627365,
      0.10655992,
      0.13794309,
      1.1457553,
      -0.5522428,
      -0.30948737,
      0.88147324,
      0.022739442,
      -0.018790398,
      -0.13519233,
      -0.22443584,
      -0.027813824,
      -0.24089874,
      0.15959139,
      0.62400603,
      0.90681064,
      0.045120765,
      0.39689285,
      -1.3030641,
      -0.16950877,
      0.03524754,
      0.89112324,
      -0.06628635,
      0.36874235,
      -0.12542544,
      0.4527318,
      0.13660643,
      0.57908654,
      -1.0191728,
      -0.651588,
      -0.38265738,
      -0.2225471,
      -1.0027035,
      0.12560903,
      0.29605857,
      0.3499197,
      -0.41225836,
      -0.15029822,
      1.2009909,
      0.21177483,
      -0.5175159,
      0.4422464,
      0.23459752,
      -0.09541833,
      1.5283641,
      -0.04991158,
      -0.31687504,
      0.75632155,
      0.6853921,
      -0.3826798,
      0.23216286,
      0.015144729
    ],
    [
      -0.09203909,
      -0.17433599,
      -0.27207118,
      0.3112708,
      0.10873522,
      0.23242076,
      -1.4769295,
      0.08066168,
      0.06140482,
      -0.04811383,
      -0.3355869,
      0.23205641,
      0.3661487,
      0.32532963,
      -0.013772808,
      -1.0449592,
      0.8898172,
      0.44945234,
      -0.58330566,
      -0.16401036,
      0.28306136,
      -0.010941712,
      0.1308678,
      0.115307815,
      0.32361057,
      -0.61935717,
      -0.61438984,
      -0.1932435,
      0.12567583,
      -0.039578643,
      0.90668017,
      -0.19599876,
      0.1630124,
      -0.53078246,
      0.3050879,
      -0.16669178,
      0.116577156,
      -0.24128747,
      -0.2672404,
      -0.21081159,
      1.0965779,
      0.8390259,
      0.38300768,
      -0.052050594,
      1.0406284,
      -0.39221135,
      -0.23571841,
      -0.4576525,
      0.37405035,
      0.15720196,
      -0.8755592,
      -0.5515713,
      0.526038,
      -0.5110489,
      -0.07430038,
      0.4945424,
      -1.0836054,
      0.034521785,
      0.5948019,
      -0.5921248,
      -0.6280642,
      0.48130572,
      -0.42998102,
      0.15968312
    ],
    [
      0.3708346,
      0.36079285,
      0.1676033,
      0.12390776,
      0.2512216,
      -0.12551148,
      1.1042602,
      -0.17898796,
      0.23409982,
      -0.33701968,
      0.038498115,
      -0.20820403,
      -0.1498269,
      -0.35284004,
      0.44917324,
      1.0538375,
      -0.941832,
      -0.6266608,
      0.9559505,
      -0.087223224,
      -0.0009928255,
      -0.26619256,
      -0.10540847,
      -0.12212207,
      -0.365888,
      0.116454765,
      0.35859784,
      0.29056993,
      -0.39277133,
      0.28269452,
      -0.9417705,
      0.07524405,
      -0.19867633,
      0.37675342,
      0.08087811,
      0.38798186,
      -0.23406559,
      0.41001847,
      -0.18396589,
      0.13722344,
      -1.0148216,
      -0.39264384,
      -0.3562311,
      -0.1933187,
      -1.3705168,
      0.034734216,
      0.06243475,
      0.698063,
      -0.4113645,
      -0.2920296,
      1.0374517,
      0.44258982,
      -0.29251856,
      0.41651216,
      0.6242597,
      -0.4226357,
      1.1135832,
      -0.002897437,
      -0.5488103,
      0.64009696,
      0.6650202,
      0.42348695,
      0.47910827,
      -0.23955496
    ],
    [
      -0.419427,
      -0.1051175,
      -0.1418862,
      0.20691094,
      -0.22838855,
      0.46871033,
      -1.090392,
      0.37225002,
      -0.32786277,
      -0.031616542,
      -0.12944616,
      0.1236251,
      0.40370095,
      0.38187927,
      -0.10544067,
      -1.1718516,
      0.8306205,
      0.04185622,
      -0.8400097,
      -0.31678897,
      -0.13592288,
      0.42848313,
      0.0029972189,
      -0.009957613,
      0.19537246,
      -0.22774261,
      -0.65862346,
      -0.33028093,
      -0.12923184,
      -0.1490346,
      1.1304498,
      -0.14204052,
      -0.23462716,
      -0.7527264,
      -0.13713065,
      -0.29011968,
      0.15010303,
      -0.5360627,
      0.027230727,
      -0.34978938,
      1.1097326,
      0.6494008,
      0.18742305,
      -0.005633236,
      1.230984,
      -0.47090247,
      -0.021350939,
      -0.15425858,
      0.47231665,
      0.09039629,
      -0.6559773,
      -0.33358982,
      0.4356168,
      -0.41325808,
      0.03692747,
      0.0798858,
      -1.1419195,
      0.39042675,
      0.4606852,
      -0.985884,
      -0.63040656,
      0.00292274,
      -0.9281684,
      0.28952652
    ],
    [
      -0.34505308,
      -0.3759528,
      -0.13358371,
      -0.13235958,
      0.015878836,
      0.38884076,
      -0.3691931,
      0.29773873,
      -0.08180738,
      0.10316768,
      -0.5186348,
      -0.025673797,
      0.15424275,
      0.32453346,
      -0.32350117,
      -0.930363,
      0.7667977,
      0.31640708,
      -0.87145054,
      -0.24363293,
      0.16552125,
      -0.15419061,
      0.21581541,
      -0.075642355,
      0.10160403,
      -0.10348318,
      -0.8295305,
      -0.28548235,
      0.19306168,
      -0.36785334,
      0.9754762,
      -0.19046834,
      -0.10413559,
      -0.8973406,
      0.32657453,
      -0.24359202,
      -0.032768026,
      -0.15058525,
      -0.05815023,
      -0.62551713,
      1.1362445,
      0.76369554,
      0.4856868,
      -0.06745152,
      1.1104355,
      -0.10676162,
      0.09512221,
      -0.38450038,
      0.49418622,
      -0.028850984,
      -1.1805972,
      -0.3355049,
      0.41088083,
      -0.55900633,
      -0.10572089,
      0.27308586,
      -1.197856,
      -0.28983834,
      0.46989232,
      -0.53815186,
      -0.52851266,
      -0.00095805037,
      -0.29041836,
      0.754123
    ],
    [
      -0.19103633,
      -0.17864408,
      -0.41249278,
      -0.22248834,
      -0.5226096,
      0.41289204,
      -1.1219319,
      0.23718938,
      -0.00019944618,
      0.21815741,
      -0.020707557,
      0.32836983,
      0.29582947,
      -0.013384914,
      0.020285774,
      -1.0770848,
      0.697446,
      0.20930077,
      -0.65900564,
      0.0027318585,
      0.06951273,
      0.23138474,
      0.26271477,
      0.01961271,
      0.7101485,
      -0.4085824,
      -0.30751327,
      -0.5439324,
      0.35381567,
      0.025536554,
      1.2453499,
      -0.245278,
      0.010026148,
      -0.5033098,
      0.12190835,
      -0.055751182,
      -0.0919414,
      -0.19181408,
      -0.10248708,
      -0.40363905,
      0.91166717,
      0.6763662,
      0.18792477,
      0.104375646,
      1.021504,
      -0.29235807,
      0.52399975,
      -0.1960792,
      0.4140363,
      -0.019757139,
      -0.9942433,
      -0.45801106,
      0.30196375,
      -0.7268476,
      -0.049208153,
      0.41002187,
      -1.5960232,
      -0.17394134,
      0.24536888,
      -0.67534494,
      -0.8646533,
      0.011687258,
      -0.4879296,
      0.3518308
    ],
    [
      0.5306151,
      0.36788708,
      0.29874012,
      0.029811276,
      0.2725967,
      -0.22678368,
      1.1546148,
      -0.43290251,
      0.0700127,
      -0.09436602,
      0.023626994,
      -0.2030482,
      0.17733927,
      -0.38258034,
      0.0018856348,
      1.2432243,
      -0.7999459,
      -0.44951078,
      0.35447755,
      0.45813894,
      -0.31635532,
      -0.16418694,
      -0.23109135,
      -0.16158064,
      -0.47224316,
      -0.09105877,
      0.5226459,
      0.33177835,
      -0.30026957,
      0.05962371,
      -1.5760701,
      0.3274125,
      -0.24698183,
      0.50506717,
      -0.319252,
      0.33373147,
      -0.1993515,
      0.18993224,
      -0.060875703,
      0.52696127,
      -1.1312723,
      -0.5834321,
      -0.52541536,
      -0.3712992,
      -0.7947979,
      0.34784693,
      -0.14442143,
      0.5272029,
      -0.48245534,
      -0.40044904,
      0.62650156,
      0.30891123,
      -0.5672491,
      0.83729094,
      0.07525503,
      0.10014261,
      1.1492965,
      -0.0793127,
      -0.7074025,
      0.85928446,
      0.38107526,
      -0.08983777,
      0.39838475,
      -0.085969165
    ],
    [
      0.4040194,
      0.07610332,
      0.36886653,
      0.13378516,
      -0.16145182,
      -0.5337077,
      0.8876187,
      -0.09093068,
      0.16286716,
      0.09615618,
      0.23981942,
      0.18475357,
      -0.22425316,
      -0.16784325,
      -0.18417391,
      1.0933006,
      -1.199009,
      -0.35992765,
      0.98620874,
      0.49391708,
      -0.45004037,
      -0.18829447,
      -0.39108855,
      0.04887071,
      -0.31898612,
      0.22762723,
      0.65419924,
      0.29415384,
      -0.35905814,
      -0.100317046,
      -1.1772033,
      0.06303239,
      0.020533962,
      0.6113147,
      0.050566453,
      0.36335036,
      -0.15826271,
      -0.044022728,
      0.13835117,
      0.48659226,
      -0.9471975,
      -0.7799308,
      -0.22527725,
      -0.22309968,
      -1.2983254,
      0.1283379,
      -0.09116012,
      0.19387734,
      -0.17710257,
      -0.08642852,
      1.0861471,
      0.51638687,
      -0.2637541,
      0.4031441,
      0.47735363,
      0.1268091,
      1.1247565,
      -0.023072325,
      -0.21517515,
      0.68677133,
      0.7384998,
      -0.1362731,
      0.553889,
      0.13961962
    ],
    [
      0.13456854,
      -0.029520923,
      0.4370776,
      0.28641534,
      0.036112472,
      -0.18987419,
      1.0152808,
      -0.28524405,
      -0.23085283,
      0.076478906,
      0.22862533,
      -0.2605497,
      0.052685484,
      -0.18353713,
      0.13410522,
      1.4000999,
      -0.7630298,
      -0.29794726,
      0.6665364,
      0.089379326,
      -0.1985152,
      -0.020786364,
      -0.13996783,
      0.33016086,
      -0.015016146,
      -0.2907686,
      0.9524315,
      0.40257204,
      -0.2659823,
      0.16185147,
      -0.82356,
      0.08781357,
      -0.12510118,
      0.7045532,
      -0.23169859,
      0.0906252,
      0.058855947,
      0.43350258,
      -0.4285867,
      0.3941549,
      -0.9436457,
      -0.51093435,
      -0.33943924,
      -0.042313218,
      -1.1431433,
      0.19492722,
      0.068141446,
      0.6112919,
      -0.5248586,
      -0.09346249,
      0.93173456,
      0.2979178,
      -0.44479853,
      0.48047,
      0.05972573,
      0.07041194,
      1.2912244,
      -0.29801348,
      -0.12304891,
      0.46612963,
      1.0570624,
      -0.47361717,
      0.65630865,
      -0.27152094
    ],
    [
      0.6194624,
      0.34344658,
      0.16855684,
      0.4122331,
      0.21679705,
      -0.36220086,
      0.9771217,
      0.021134939,
      0.07619184,
      0.014590464,
      0.111315235,
      -0.35277233,
      -0.2927848,
      -0.3359422,
      0.051056977,
      1.5860372,
      -1.0628392,
      -0.39425564,
      0.7631738,
      0.2079764,
      -0.2488981,
      0.29300615,
      -0.14292343,
      -0.20922737,
      -0.16381578,
      0.45952725,
      0.6572562,
      0.7648827,
      0.015274617,
      0.39307424,
      -1.1221987,
      0.21487074,
      0.19501774,
      0.47781956,
      0.07321828,
      -0.11357915,
      -0.16237752,
      0.12396155,
      -0.23147497,
      0.405316,
      -0.81003344,
      -0.2093331,
      -0.44325525,
      0.029250156,
      -1.0762227,
      0.3126864,
      0.07128711,
      0.16314118,
      -0.36376742,
      -0.11240954,
      0.8901414,
      0.5396195,
      -0.65745324,
      0.6909776,
      0.17387964,
      -0.31112412,
      1.273846,
      -0.23407932,
      -0.49680102,
      0.75446916,
      0.6546523,
      -0.0031861668,
      0.10868597,
      -0.38497457
    ],
    [
      0.41178796,
      0.12630646,
      0.069836415,
      -0.14449753,
      -0.10993598,
      -0.6495379,
      1.0896113,
      -0.5445905,
      0.09086204,
      -0.018241225,
      0.22597943,
      -0.18363695,
      -0.1257916,
      -0.18196404,
      -0.2706473,
      1.0133942,
      -0.7067671,
      -0.6048216,
      0.92031425,
      0.11759512,
      0.013282433,
      -0.38436478,
      0.016498866,
      -0.10264215,
      -0.16980785,
      0.12505196,
      0.5444484,
      0.7020227,
      -0.16135858,
      -0.30172,
      -0.81083864,
      0.35862103,
      -0.031890042,
      0.6597411,
      0.050261386,
      -0.020620506,
      -0.1355618,
      0.023917632,
      0.027692333,
      0.5428679,
      -1.0514966,
      -0.07667605,
      -0.5014424,
      -0.009176325,
      -1.1199377,
      0.045515575,
      -0.013405416,
      0.6121172,
      -0.6012571,
      -0.052647825,
      1.056093,
      0.050002683,
      -0.53378475,
      0.6103737,
      0.25238466,
      -0.073619016,
      1.0985953,
      0.027137173,
      -0.5271316,
      0.6822624,
      0.9801536,
      -0.14051886,
      0.08499118,
      -0.79985523
    ],
    [
      0.06261354,
      0.5067513,
      0.07362145,
      -0.010851022,
      0.1303925,
      -0.6327471,
      1.0274806,
      -0.24141335,
      -0.13671672,
      0.053590316,
      -0.17172575,
      0.071471795,
      -0.061832342,
      -0.38500407,
      0.032928538,
      1.4313587,
      -1.1063182,
      -0.45548084,
      0.61053467,
      0.3024886,
      0.046840392,
      -0.16320159,
      -0.17525135,
      0.22007585,
      0.028106665,
      0.3302472,
      0.7468164,
      0.8158544,
      -0.46370488,
      0.1976536,
      -1.0687304,
      0.16230156,
      -0.19910371,
      0.88529664,
      0.11383662,
      0.1675593,
      0.2988184,
      0.29658228,
      0.28814813,
      0.30362844,
      -1.2279512,
      -0.7411997,
      -0.48025045,
      0.12797485,
      -0.813673,
      0.32979864,
      -0.16031031,
      0.34913117,
      -0.45323923,
      -0.016894441,
      0.7702949,
      0.5800678,
      -0.2932633,
      0.49745136,
      0.33479333,
      -0.1625364,
      0.9821603,
      0.026717994,
      -0.435531,
      0.265818,
      0.51866037,
      -0.1681603,
      0.8139839,
      -0.29304698
    ],
    [
      -0.5270888,
      0.028546238,
      0.071697906,
      0.11625866,
      -0.30126405,
      0.45149478,
      -1.2471333,
      -0.0625905,
      0.17921944,
      0.5136375,
      -0.021603016,
      -0.28178784,
      0.08197993,
      0.21720707,
      -0.15231876,
      -1.2129956,
      1.0117558,
      0.051941853,
      -0.67630446,
      -0.22369911,
      0.49050945,
      0.1760391,
      0.04014591,
      -0.25188917,
      -0.016102739,
      -0.46729255,
      -0.99527293,
      -0.38253587,
      0.29282174,
      0.16992584,
      1.1684713,
      -0.30501118,
      0.046941113,
      -0.8340126,
      0.38972235,
      0.031198444,
      0.15416604,
      -0.40060788,
      0.22764662,
      -0.5260011,
      0.9463025,
      0.8249404,
      0.46863654,
      -0.16228183,
      0.7885477,
      -0.34534615,
      0.011788583,
      -0.28966406,
      0.4994819,
      0.3520601,
      -0.7374733,
      -0.33231458,
      0.29933363,
      -0.41622028,
      -0.20275599,
      -0.008891998,
      -1.1774967,
      -0.08122299,
      0.37481382,
      -0.6296268,
      -0.9914789,
      -0.17278658,
      -0.46658772,
      0.33714285
    ],
    [
      -0.4922758,
      -0.51778793,
      -0.025145464,
      -0.19940984,
      0.041195504,
      0.47059318,
      -1.3679084,
      0.5195753,
      -0.32857957,
      0.28422162,
      -0.1468609,
      -0.05388528,
      0.22035247,
      -0.21678,
      0.2321197,
      -1.4195893,
      1.0151124,
      0.07079294,
      -0.6581037,
      -0.24630369,
      0.49233782,
      0.10922935,
      -0.012464444,
      0.07445733,
      0.16921651,
      -0.11768746,
      -0.3660609,
      -0.45314482,
      0.22259916,
      -0.30815008,
      0.75597155,
      -0.13887848,
      0.26993877,
      -0.6649548,
      0.2197729,
      -0.384799,
      0.19104393,
      -0.2460939,
      0.005423944,
      0.00002150471,
      1.1725229,
      0.70057774,
      0.12072812,
      0.14576487,
      1.0276538,
      -0.39642707,
      0.19314994,
      -0.28898734,
      0.8709771,
      0.24226817,
      -1.0628557,
      -0.38366213,
      0.33970514,
      -1.0023897,
      -0.11629174,
      0.19660157,
      -1.1556752,
      0.19535546,
      0.4265633,
      -0.68547696,
      -0.60940063,
      0.06699232,
      -0.21862863,
      0.2723611
    ],
    [
      0.121746674,
      -0.4453606,
      -0.17528741,
      0.12230655,
      -0.06334432,
      0.16819638,
      -1.2703825,
      0.22465345,
      -0.20705916,
      0.20298043,
      -0.07347202,
      -0.009823483,
      0.45014715,
      0.39576986,
      -0.29365766,
      -1.2760165,
      0.83369404,
      0.45386273,
      -0.7153989,
      -0.50930595,
      0.07949761,
      0.1451339,
      0.07442743,
      0.043449722,
      0.11199189,
      -0.25744897,
      -0.7529665,
      -0.57475674,
      0.1496519,
      0.003345857,
      0.97780555,
      0.13341995,
      0.023356786,
      -0.48503327,
      0.38256556,
      -0.3816653,
      0.04918494,
      0.013076837,
      0.27083838,
      -0.2942891,
      1.1655431,
      0.6482198,
      -0.099271975,
      0.3377055,
      0.6929139,
      -0.40304723,
      -0.03825463,
      -0.09299725,
      0.27920228,
      -0.025875581,
      -0.9508116,
      -0.4080647,
      0.16463488,
      -0.90092874,
      -0.06847015,
      -0.23310284,
      -1.3267425,
      -0.015984658,
      0.6103461,
      -0.85964495,
      -0.84146076,
      -0.02253498,
      -0.5206891,
      0.39391255
    ],
    [
      0.2155846,
      0.43852818,
      0.22076543,
      -0.16820152,
      0.064440355,
      -0.29083958,
      1.1734867,
      0.07623105,
      -0.005869446,
      0.14083482,
      -0.32322776,
      0.03596754,
      -0.22146223,
      0.042540073,
      0.06214873,
      0.9408631,
      -1.1538066,
      -0.50613564,
      1.0909635,
      0.5454068,
      -0.14995627,
      -0.04821115,
      -0.10600308,
      -0.08985161,
      -0.14552882,
      -0.016844103,
      0.7885867,
      0.42168373,
      -0.45135587,
      0.154996,
      -1.096072,
      0.08020614,
      -0.23138735,
      0.52629256,
      -0.3373489,
      0.07228019,
      -0.13245568,
      0.5708629,
      -0.19958699,
      0.47476038,
      -1.1155403,
      -0.8048403,
      -0.50606424,
      -0.17383817,
      -0.9835129,
      -0.03621956,
      -0.023755303,
      0.073977426,
      -0.33399916,
      -0.2709554,
      0.72834074,
      0.3230167,
      -0.5253524,
      0.5915782,
      -0.075699076,
      -0.37208402,
      1.1012344,
      -0.06812949,
      0.08099609,
      0.8543004,
      0.7318724,
      -0.19350317,
      0.41132858,
      -0.56806725
    ],
    [
      0.053011764,
      0.33750996,
      0.34191465,
      0.0698562,
      0.4411281,
      -0.22644247,
      1.1578985,
      -0.104684584,
      0.1960688,
      0.15449536,
      0.39865562,
      0.107466206,
      -0.11518237,
      -0.30100936,
      -0.3903039,
      1.106206,
      -0.54623735,
      -0.27560288,
      0.8513724,
      0.29775074,
      -0.36335143,
      -0.26721936,
      0.30127516,
      0.2985008,
      -0.038114596,
      0.27253,
      0.6462839,
      0.56714004,
      0.04521575,
      0.42464146,
      -1.3671043,
      0.18990025,
      -0.33318576,
      0.61006695,
      -0.14592953,
      0.20724517,
      -0.33165854,
      0.34327847,
      -0.07805801,
      0.437287,
      -1.245754,
      -0.48248953,
      -0.3299889,
      -0.21264166,
      -1.1238177,
      0.055584576,
      -0.23540427,
      0.29793027,
      -0.37898114,
      0.15605168,
      0.75043416,
      0.5263824,
      -0.23116603,
      0.5354224,
      0.3902505,
      -0.40622485,
      1.1416842,
      0.0015563658,
      -0.26129958,
      0.7242131,
      0.7274335,
      0.029981168,
      0.34538975,
      -0.3089605
    ],
    [
      0.4233051,
      0.22572762,
      0.29444736,
      0.1372427,
      0.20078968,
      -0.31504253,
      1.2108653,
      -0.024671962,
      -0.086829364,
      -0.475758,
      0.038791906,
      -0.121199064,
      -0.2597251,
      -0.39037532,
      0.04258531,
      0.97254664,
      -0.87119657,
      -0.19162512,
      0.91754013,
      0.34940946,
      -0.30840752,
      -0.16312604,
      0.18037234,
      -0.12530984,
      -0.08357453,
      0.042360775,
      0.50568676,
      0.27865455,
      -0.19360292,
      0.08124173,
      -1.2810901,
      -0.29313913,
      -0.27087504,
      0.59856945,
      -0.28812534,
      0.31965634,
      0.17903894,
      0.22204416,
      0.048187975,
      0.29766253,
      -0.8650064,
      -0.7057407,
      -0.4705822,
      0.25422043,
      -1.25804,
      0.3989314,
      -0.014942328,
      0.191232,
      -0.40128127,
      0.3290113,
      0.41873437,
      0.31755838,
      -0.49055013,
      0.8730785,
      0.541974,
      -0.08477614,
      1.2089463,
      -0.019370465,
      -0.50542986,
      0.60100275,
      0.6930442,
      -0.44194764,
      0.33439836,
      -0.39052206
    ],
    [
      0.36029136,
      0.12716404,
      0.47863337,
      0.16206549,
      -0.090671815,
      -0.17360593,
      0.911619,
      -0.19260226,
      0.22275698,
      -0.21410392,
      -0.28524494,
      0.3451369,
      -0.15232617,
      -0.4239946,
      -0.05442593,
      1.2095581,
      -0.48498523,
      -0.4845136,
      0.41780922,
      -0.014565888,
      0.038462862,
      -0.25299054,
      -0.13373822,
      -0.022982048,
      -0.11171093,
      0.4489701,
      0.40442216,
      0.6000336,
      -0.3727958,
      0.07412242,
      -1.0054464,
      0.14741753,
      0.06697929,
      0.87378705,
      -0.01163047,
      0.37848508,
      -0.2898214,
      0.28020144,
      -0.41768903,
      0.33616483,
      -0.9941739,
      -0.6532346,
      -0.6812443,
      0.08262768,
      -1.2573853,
      0.35028931,
      -0.10491791,
      0.16004281,
      -0.3861365,
      -0.059097648,
      1.1389265,
      0.2959098,
      -0.47454664,
      0.7566958,
      0.260194,
      -0.31312722,
      1.2817291,
      -0.09761928,
      -0.2817587,
      0.9827035,
      0.58102167,
      -0.31131867,
      0.19951294,
      -0.34569982
    ],
    [
      -0.253725,
      -0.19548737,
      -0.20994456,
      0.037364256,
      0.040078055,
      0.4121469,
      -1.0015439,
      0.09125034,
      -0.11605713,
      -0.013440901,
      0.19832522,
      0.16725172,
      -0.15389726,
      0.6298214,
      0.36290362,
      -1.3131049,
      0.6212019,
      0.10616595,
      -0.94707054,
      -0.35975266,
      0.12331791,
      -0.013406473,
      0.32796764,
      0.44969007,
      0.103986874,
      -0.42243835,
      -1.0764507,
      -0.35248587,
      0.19897318,
      -0.23311871,
      0.94907016,
      -0.05164785,
      0.14827865,
      -0.60224026,
      0.15267585,
      -0.2925672,
      0.14156058,
      -0.56614673,
      -0.015581662,
      -0.24712771,
      0.9407836,
      0.9509388,
      0.4259248,
      0.13024439,
      0.8853031,
      -0.23922999,
      0.08700671,
      -0.50674164,
      0.5846013,
      -0.2558494,
      -0.8945145,
      -0.052828453,
      0.5603178,
      -0.43343303,
      -0.14759941,
      0.00032314492,
      -1.2216763,
      -0.15915126,
      0.28793988,
      -0.49655986,
      -0.88545376,
      -0.19671595,
      -0.3731342,
      0.27162784
    ],
    [
      0.11504427,
      0.30815682,
      -0.010039481,
      0.32037964,
      0.010435048,
      -0.36370072,
      1.5067939,
      -0.11526701,
      0.2696029,
      -0.17724778,
      0.045602877,
      -0.057944667,
      -0.20014437,
      -0.54068726,
      0.106854774,
      1.0953237,
      -0.8821085,
      -0.25686613,
      0.6778589,
      0.28045076,
      -0.17097312,
      -0.03307277,
      -0.035802193,
      0.3312783,
      -0.39495394,
      0.13268812,
      0.46682304,
      0.75230426,
      -0.24462052,
      0.30397573,
      -0.7473489,
      0.33100593,
      -0.37209466,
      0.6230562,
      -0.26965064,
      0.28233477,
      -0.2677452,
      -0.07847139,
      0.36129406,
      0.6661725,
      -0.8821013,
      -0.62794787,
      -0.31360418,
      0.056563765,
      -1.1306622,
      0.492823,
      -0.07890871,
      0.48510537,
      -0.1697228,
      -0.055510126,
      0.7722626,
      0.061297104,
      -0.63937676,
      0.51862216,
      0.08823055,
      -0.07872257,
      1.4465718,
      -0.17443703,
      -0.17560977,
      0.9910978,
      0.59791225,
      0.16832922,
      0.35823852,
      -0.28011474
    ],
    [
      0.31935987,
      0.30746576,
      0.2575351,
      0.13981475,
      0.18224177,
      -0.30626136,
      1.5109172,
      0.097920835,
      0.09838561,
      -0.022185342,
      0.37291318,
      -0.13672301,
      -0.14128752,
      -0.009265549,
      0.03625199,
      1.2110864,
      -0.51876503,
      -0.09027318,
      0.4856469,
      0.09904304,
      0.154294,
      -0.12369174,
      -0.39528704,
      -0.37910792,
      -0.15860923,
      0.45726645,
      0.62184286,
      0.4695378,
      -0.005902546,
      0.25622967,
      -0.8945484,
      0.17995143,
      -0.26994962,
      0.58692056,
      -0.33499792,
      0.35379604,
      -0.01618816,
      0.14139666,
      -0.053586107,
      0.59929323,
      -0.9367373,
      -0.54404396,
      -0.6753085,
      0.12827064,
      -1.3460224,
      0.05098258,
      -0.031742506,
      0.15994854,
      -0.3608788,
      -0.39143553,
      0.78458476,
      0.49459204,
      0.090688266,
      0.84177816,
      0.2200865,
      0.23641907,
      1.1249894,
      -0.13628505,
      -0.2678538,
      0.70683545,
      0.5520893,
      -0.051644593,
      0.35209137,
      -0.5525656
    ],
    [
      0.13692534,
      0.54008496,
      0.17199682,
      0.21570358,
      0.44959635,
      -0.26420438,
      1.0293578,
      -0.0030375211,
      0.20830122,
      -0.08601445,
      0.18815173,
      -0.00006450565,
      -0.37355787,
      -0.2607892,
      -0.25069672,
      0.9884691,
      -0.9727944,
      -0.4816584,
      0.83618844,
      0.073491424,
      -0.2118565,
      -0.11597967,
      -0.071889184,
      -0.21532802,
      -0.3086254,
      0.21005438,
      0.6365617,
      0.7251039,
      -0.21923837,
      -0.15388699,
      -0.8511288,
      0.31178448,
      0.083153516,
      1.0199507,
      -0.12580535,
      0.1347628,
      -0.015691614,
      0.25104576,
      -0.35220423,
      0.4744153,
      -1.2930826,
      -1.0560524,
      0.0010189007,
      -0.21656197,
      -1.3759335,
      0.11680381,
      0.3206868,
      0.4172294,
      -0.3523461,
      -0.08945606,
      0.60034436,
      0.079109736,
      -0.61061186,
      0.58013976,
      0.18155378,
      0.038586188,
      1.067029,
      0.18709901,
      -0.3335048,
      0.25614443,
      0.6112235,
      -0.10118851,
      0.47279754,
      -0.17489704
    ],
    [
      0.56451005,
      0.24995156,
      0.4406995,
      -0.19176385,
      -0.11113211,
      -0.37508085,
      1.1610377,
      -0.53489304,
      0.105542965,
      -0.26549667,
      0.15495333,
      -0.15769129,
      -0.19014095,
      -0.32500714,
      -0.115148,
      0.7849413,
      -0.68129015,
      -0.3877901,
      0.87491226,
      -0.20118615,
      -0.16566648,
      0.08232636,
      -0.45416465,
      0.016185222,
      0.14193636,
      0.112855256,
      0.7446892,
      0.8855211,
      -0.28142413,
      0.32227388,
      -1.0188662,
      -0.040584635,
      -0.38291803,
      0.6067607,
      0.04818586,
      -0.14593148,
      0.09477575,
      0.15645853,
      -0.24912375,
      0.55800325,
      -0.8420415,
      -0.84756,
      -0.16792479,
      -0.16377345,
      -0.97926563,
      0.2925827,
      -0.09874027,
      0.17430492,
      -0.5434805,
      -0.20974316,
      0.6206784,
      0.36314213,
      -0.26860738,
      0.3259395,
      0.3199734,
      -0.11952219,
      1.1841999,
      -0.10561059,
      -0.40284112,
      0.7900132,
      0.61094457,
      0.0060900515,
      0.37941492,
      -0.42921856
    ],
    [
      -0.50369716,
      -0.25829893,
      -0.5225537,
      -0.013921894,
      -0.120475076,
      0.5454958,
      -1.3863055,
      0.14264072,
      0.0619587,
      0.10579965,
      -0.19280173,
      -0.14364862,
      0.4628498,
      0.22345553,
      -0.25165826,
      -1.0633929,
      1.191074,
      0.27722844,
      -0.55036914,
      0.038194254,
      0.1405952,
      0.30751848,
      -0.0047692675,
      0.19638327,
      -0.09459206,
      -0.3296686,
      -0.5489135,
      -0.59286475,
      0.023164751,
      -0.46158925,
      1.0508825,
      -0.035678525,
      -0.17251775,
      -0.6517765,
      0.078289464,
      -0.30556974,
      0.30130357,
      -0.0073113735,
      0.032221023,
      -0.38735136,
      1.0144477,
      0.55246985,
      0.5964182,
      0.39340118,
      0.81559354,
      -0.03968101,
      0.3047197,
      -0.71307576,
      0.37780142,
      -0.12260964,
      -0.7980368,
      -0.044022493,
      0.4815067,
      -0.6890175,
      -0.09313814,
      0.1486111,
      -1.3118515,
      -0.19614017,
      0.2042097,
      -0.524049,
      -0.7187621,
      0.19237755,
      -0.5033906,
      0.2682334
    ],
    [
      0.49461085,
      0.26291755,
      0.026814211,
      0.13998832,
      0.20971408,
      -0.8483043,
      1.4374827,
      0.1012795,
      0.07724553,
      -0.19152792,
      0.28793618,
      -0.057224043,
      -0.25893283,
      -0.6072788,
      0.0488353,
      1.0668755,
      -0.53417754,
      -0.37236255,
      0.43339667,
      0.23226723,
      -0.41711798,
      -0.22983868,
      -0.17018643,
      -0.20034441,
      -0.23153193,
      -0.2668115,
      0.8211963,
      0.4964567,
      -0.5174658,
      0.17083059,
      -1.0222133,
      0.019327102,
      -0.13268869,
      0.7243889,
      0.08780796,
      0.15475835,
      -0.15566483,
      0.28233197,
      -0.016322754,
      0.14061493,
      -1.0797832,
      -0.7762079,
      -0.38723877,
      -0.22393978,
      -0.9640951,
      0.2200041,
      0.0666915,
      0.16788195,
      -0.02926902,
      -0.031112159,
      1.0369067,
      0.524659,
      -0.42049962,
      0.77165836,
      0.020535842,
      -0.2122365,
      1.0626864,
      -0.17549378,
      -0.3245886,
      0.57729864,
      0.89177686,
      -0.03896397,
      0.44305003,
      -0.49706146
    ],
    [
      0.21413141,
      0.32475823,
      -0.1499638,
      0.04368347,
      0.092209704,
      -0.3581705,
      1.2081739,
      -0.21119633,
      0.012043504,
      -0.052985113,
      -0.14900257,
      0.092192076,
      -0.479249,
      -0.16305228,
      0.04228219,
      1.374858,
      -0.6443041,
      -0.4388893,
      0.9886454,
      -0.07972742,
      -0.42226014,
      -0.48130524,
      -0.32552204,
      -0.21839537,
      -0.3270002,
      0.107601665,
      0.69889283,
      0.2682833,
      -0.18920006,
      0.40436035,
      -1.2936883,
      0.44468394,
      -0.12003283,
      0.75184494,
      -0.3719473,
      0.027574165,
      0.0940853,
      -0.029190054,
      -0.056106277,
      0.17267166,
      -0.62873155,
      -0.46044955,
      -0.43444315,
      -0.32908422,
      -1.2537446,
      0.5684023,
      -0.063336946,
      0.4400273,
      -0.4425116,
      0.056628887,
      0.8090324,
      0.3411851,
      -0.33398935,
      0.7194208,
      0.15091623,
      -0.085793145,
      1.0782974,
      -0.07494183,
      -0.1867032,
      0.77850044,
      0.37165785,
      -0.08203337,
      0.57944137,
      -0.43614736
    ],
    [
      -0.2694945,
      -0.18786253,
      0.0020706893,
      -0.30048606,
      -0.31286174,
      0.36631078,
      -1.2974743,
      -0.034391306,
      -0.109117076,
      0.108114846,
      -0.075350784,
      0.035410445,
      0.088973075,
      0.3123445,
      0.12904507,
      -1.2560713,
      0.87165403,
      0.41163513,
      -0.9389215,
      -0.2937138,
      0.086625196,
      0.36082944,
      0.07870229,
      -0.06528901,
      0.30792236,
      -0.35870257,
      -0.3551465,
      -0.39943442,
      0.3105526,
      -0.338421,
      1.0861428,
      -0.0544055,
      0.06674135,
      -0.544845,
      -0.015225046,
      -0.4402149,
      -0.04935675,
      0.31191382,
      0.2402775,
      -0.63413733,
      0.7798742,
      1.0736859,
      0.35516423,
      0.09479327,
      0.59627914,
      -0.1585814,
      -0.14096256,
      -0.43964478,
      0.7096507,
      0.08370856,
      -0.92274654,
      -0.21178076,
      0.17091922,
      -0.44494417,
      -0.15221336,
      0.26403508,
      -0.8961503,
      0.3390509,
      0.4464267,
      -0.70949346,
      -0.78756636,
      0.33575764,
      -0.44222623,
      0.59222364
    ],
    [
      0.2591434,
      0.23706374,
      0.1058933,
      0.046674702,
      0.3193258,
      -0.25455725,
      1.2811658,
      -0.28648442,
      0.13623947,
      -0.44480145,
      0.17958073,
      -0.10726995,
      0.13685827,
      -0.1510005,
      0.032404017,
      1.1325617,
      -0.92763364,
      -0.56327945,
      0.9526228,
      0.056115244,
      -0.24901293,
      -0.25508055,
      -0.41738686,
      0.006090383,
      -0.14946616,
      0.36929154,
      0.8930771,
      0.66672575,
      -0.3571492,
      0.099398784,
      -1.0258447,
      0.12269556,
      0.15881109,
      0.68683875,
      -0.16492552,
      0.17488538,
      -0.2300756,
      0.1927358,
      -0.03778498,
      0.21332142,
      -1.1006045,
      -0.6688691,
      -0.35082832,
      0.085172616,
      -1.2653065,
      -0.024569169,
      -0.43622196,
      0.5829216,
      -0.074372694,
      0.34015316,
      0.75509745,
      0.37346828,
      -0.058863763,
      0.6303017,
      -0.12522535,
      -0.18384829,
      1.1456097,
      -0.45100775,
      -0.57806605,
      0.7795698,
      0.4560012,
      -0.22155544,
      0.07927975,
      -0.3136333
    ],
    [
      -0.5505966,
      -0.5787792,
      0.035807367,
      -0.040053204,
      -0.095758736,
      0.41601038,
      -0.9854079,
      0.1815461,
      -0.32748792,
      0.11858196,
      -0.33946496,
      0.24275263,
      0.13110976,
      0.034385484,
      -0.14116259,
      -1.539631,
      0.59932804,
      0.2563483,
      -0.89205843,
      -0.24348567,
      0.047452386,
      0.3649905,
      0.22650522,
      0.050737567,
      0.010112943,
      -0.31123942,
      -0.38955322,
      -0.32084155,
      0.43587354,
      -0.011494203,
      1.0651605,
      -0.35762024,
      0.40991148,
      -0.35619617,
      -0.03157612,
      -0.237428,
      0.3960207,
      -0.34814918,
      0.132066,
      -0.49875137,
      0.6990558,
      0.7561662,
      0.3627637,
      0.24348238,
      1.0701569,
      -0.13370623,
      0.17043248,
      -0.45033666,
      -0.06785812,
      0.10686736,
      -0.6240353,
      -0.2975704,
      0.46713954,
      -0.9972276,
      -0.36643213,
      0.37069726,
      -1.4784297,
      0.16807212,
      0.5560404,
      -0.585155,
      -0.6897103,
      0.29707962,
      -0.60588264,
      0.43877906
    ],
    [
      -0.1565922,
      -0.047008127,
      -0.15984571,
      -0.049595732,
      0.087980896,
      0.35078517,
      -1.0409734,
      0.067053236,
      -0.16499712,
      0.13098826,
      -0.18369374,
      0.18271914,
      0.15301375,
      0.13843136,
      -0.18158822,
      -1.1242611,
      0.98998576,
      0.54982793,
      -0.7163711,
      -0.2082038,
      -0.07960737,
      0.103126585,
      0.022282623,
      0.010319168,
      0.047951788,
      -0.4796274,
      -0.9715247,
      -0.05648868,
      0.45679396,
      -0.24183567,
      1.3069104,
      0.028517017,
      0.28405306,
      -1.0489916,
      -0.056112893,
      -0.077086955,
      -0.03324585,
      -0.037106022,
      -0.12630276,
      -0.48105934,
      1.3124918,
      0.8153053,
      0.25830278,
      0.29438183,
      1.0207292,
      -0.49633163,
      -0.09236713,
      -0.26534784,
      0.47407416,
      0.09303267,
      -0.382209,
      -0.17514868,
      0.31883,
      -0.8708833,
      -0.0310747,
      0.035845663,
      -1.1077261,
      0.262909,
      -0.03423278,
      -0.55976266,
      -1.1776222,
      -0.081550725,
      -0.18363838,
      0.12319201
    ],
    [
      -0.23828737,
      -0.20420238,
      0.00034799284,
      -0.41285866,
      -0.2826107,
      0.31258354,
      -1.2338194,
      0.7437761,
      0.11790245,
      0.14551806,
      -0.101913534,
      0.031496696,
      0.19961043,
      0.43331084,
      -0.19388269,
      -1.1326287,
      0.7936114,
      0.31081372,
      -0.98691744,
      -0.19785376,
      -0.004124045,
      0.27322137,
      0.16012625,
      0.0663792,
      -0.20537244,
      -0.48961917,
      -0.61637723,
      -0.42280197,
      0.22411375,
      0.061434772,
      1.238516,
      -0.16808522,
      0.34737864,
      -0.5660964,
      0.32761514,
      -0.34250817,
      0.049817678,
      -0.122328505,
      0.080112055,
      -0.25189123,
      1.0326724,
      0.7262528,
      0.2948703,
      0.017579958,
      1.0448713,
      -0.011608402,
      -0.13978139,
      -0.10557691,
      0.23522885,
      0.06824389,
      -0.9386123,
      -0.4776978,
      0.7785935,
      -0.6171301,
      -0.11772682,
      0.11034678,
      -0.8581067,
      0.010467062,
      -0.038429923,
      -0.5168891,
      -0.78288287,
      -0.045863174,
      -0.4015255,
      0.11435663
    ],
    [
      0.15549785,
      0.17435125,
      0.041145016,
      0.3247807,
      -0.35676205,
      -0.116115674,
      1.1828523,
      -0.08689959,
      0.09604774,
      -0.22264345,
      -0.013239535,
      0.026735235,
      -0.1667182,
      -0.1683925,
      0.25675014,
      1.1043142,
      -0.44378626,
      -0.54730886,
      1.0108063,
      0.19368379,
      -0.5242867,
      0.12809624,
      -0.082624204,
      -0.08191633,
      -0.16648188,
      0.21826446,
      0.68867046,
      0.5978113,
      -0.046678174,
      -0.026420299,
      -1.3290709,
      0.1999766,
      -0.09937161,
      0.67147803,
      0.29399613,
      0.01306514,
      -0.12910074,
      0.13379298,
      -0.05334598,
      0.21367608,
      -1.3521554,
      -0.8151278,
      -0.6560005,
      0.09413894,
      -0.97258633,
      -0.14677006,
      -0.15393412,
      0.24803191,
      -0.58647335,
      -0.053808253,
      0.60477847,
      0.39619932,
      -0.42720023,
      0.46542403,
      0.031467866,
      0.1136299,
      1.2691182,
      0.001125254,
      -0.35693887,
      0.5464991,
      0.8813591,
      -0.026442137,
      0.86681026,
      -0.4099458
    ],
    [
      0.28277212,
      0.16163518,
      0.21711536,
      -0.2758841,
      0.217289,
      -0.37893012,
      0.84155416,
      -0.00081790186,
      0.5251679,
      -0.0993998,
      0.28185984,
      -0.21624197,
      0.2687753,
      -0.34093145,
      0.20041174,
      1.2190679,
      -0.97565687,
      -0.48073053,
      0.73597455,
      0.050946865,
      -0.38939297,
      -0.1230243,
      -0.024304148,
      -0.22872157,
      -0.05576467,
      0.28948036,
      0.4363667,
      0.7793059,
      -0.2059398,
      -0.074446246,
      -1.0542853,
      0.15705618,
      -0.35673356,
      1.0079577,
      -0.009518001,
      0.57755154,
      0.1382349,
      0.20886315,
      -0.03397042,
      0.28454295,
      -0.6655323,
      -0.23428339,
      -0.2903712,
      -0.18139036,
      -1.1736954,
      0.005504803,
      -0.07118658,
      0.57861274,
      -0.62681377,
      -0.09111152,
      0.9522872,
      0.688973,
      -0.6467428,
      0.2686898,
      -0.034447026,
      0.00023519248,
      1.3909012,
      -0.0077563697,
      -0.09953928,
      0.6293682,
      0.7091265,
      -0.18516968,
      0.2739375,
      -0.76652604
    ],
    [
      0.20183592,
      0.064426765,
      -0.10290917,
      0.15713862,
      0.31564853,
      -0.57568777,
      1.220993,
      -0.2905581,
      -0.032288622,
      0.03107612,
      0.33381307,
      -0.14735872,
      -0.16934817,
      -0.13164824,
      0.053579163,
      1.2935922,
      -0.8203024,
      -0.6664328,
      0.65043914,
      0.18521293,
      0.030861069,
      0.21943666,
      -0.3861475,
      -0.070351146,
      -0.21415135,
      0.071910806,
      0.58591914,
      0.387089,
      -0.32729703,
      0.065439865,
      -1.1636994,
      -0.12929717,
      -0.23160513,
      0.89949983,
      -0.009749851,
      0.2551562,
      -0.74638593,
      0.30842137,
      -0.21790794,
      0.28761843,
      -0.8887545,
      -0.63302994,
      -0.31671885,
      0.23230511,
      -0.89906555,
      0.36910462,
      -0.06456141,
      0.29580492,
      -0.672325,
      0.13602434,
      0.6193841,
      0.32374644,
      -0.3293476,
      0.46629354,
      0.15021852,
      0.05609015,
      1.1148583,
      0.3219475,
      -0.13791324,
      0.91809785,
      0.594663,
      -0.19712602,
      0.4897217,
      -0.4752378
    ],
    [
      0.60104525,
      0.21860155,
      0.31328258,
      0.13610122,
      0.27720913,
      0.029340113,
      1.1115204,
      -0.19939083,
      -0.40013388,
      0.16926165,
      0.2405165,
      0.28595716,
      0.037845533,
      -0.09525049,
      0.16349076,
      1.1065794,
      -0.9005632,
      -0.19019175,
      1.1268545,
      0.24430165,
      -0.094229914,
      -0.2127423,
      -0.3129739,
      -0.12066732,
      -0.28946596,
      0.2737733,
      0.7845129,
      0.67169136,
      -0.29654607,
      0.036751766,
      -0.87971187,
      0.022447838,
      -0.23566468,
      0.746476,
      0.033135656,
      0.44384468,
      -0.09541601,
      0.0046920395,
      0.15236142,
      0.09009383,
      -1.3778216,
      -0.6448149,
      -0.39479107,
      -0.2576179,
      -1.1170335,
      0.53069115,
      0.069425814,
      0.12020319,
      -0.3093058,
      -0.01713752,
      0.6661039,
      0.14613003,
      -0.4405249,
      0.36040357,
      0.018834352,
      -0.2074724,
      1.2277107,
      -0.017443392,
      -0.4459392,
      0.6383003,
      0.936887,
      -0.050890956,
      0.40420166,
      -0.5924082
    ],
    [
      0.29849926,
      0.2791687,
      -0.00009915859,
      0.21655849,
      -0.07631029,
      -0.107840374,
      0.99645567,
      -0.16190453,
      0.20454316,
      0.20090899,
      0.37074208,
      0.21941142,
      -0.1856097,
      -0.4081797,
      0.20129615,
      0.8199245,
      -0.97524494,
      -0.1531743,
      0.8432592,
      0.30696726,
      0.18676862,
      -0.24999411,
      0.047705173,
      -0.1987999,
      -0.28177088,
      0.23413661,
      0.8523355,
      0.8047765,
      -0.27389273,
      0.11045049,
      -1.2215562,
      0.067371674,
      -0.24491347,
      0.70099336,
      0.08278456,
      -0.2742969,
      -0.13200417,
      0.42432794,
      -0.18250436,
      0.10585614,
      -0.699333,
      -0.69859964,
      -0.41076514,
      0.1516515,
      -0.95095915,
      0.2980983,
      -0.1628333,
      0.7512047,
      -0.65203243,
      -0.15301819,
      1.0127721,
      0.4576404,
      -0.32149658,
      0.54757035,
      0.1629826,
      0.22403498,
      1.414155,
      -0.08572089,
      -0.25208655,
      0.5994539,
      0.765997,
      -0.25859025,
      0.09380584,
      -0.33251178
    ],
    [
      -0.3545729,
      -0.0005322628,
      0.028207129,
      -0.017509762,
      -0.00026402352,
      -0.12889467,
      -1.2829261,
      0.14562848,
      -0.1536727,
      0.25884596,
      -0.41414222,
      0.2621385,
      0.14568985,
      0.5698768,
      -0.093823224,
      -1.305686,
      0.93053263,
      0.16879618,
      -0.67668223,
      -0.4122661,
      0.05879568,
      0.17624137,
      0.19123627,
      0.17125064,
      0.078008875,
      -0.103275806,
      -0.4901808,
      -0.7149391,
      0.39259258,
      -0.052979402,
      1.1303408,
      -0.36281636,
      0.12166682,
      -0.9558353,
      0.12591928,
      -0.053031404,
      0.15186155,
      -0.15182997,
      0.06401633,
      -0.37732193,
      0.87848884,
      0.44731182,
      0.4803485,
      0.43324032,
      1.2870908,
      -0.041645113,
      0.1438104,
      0.014040246,
      0.6397056,
      -0.010803842,
      -1.1081239,
      -0.052425683,
      0.12612043,
      -0.56727654,
      -0.1874359,
      0.5599608,
      -1.1811724,
      -0.11911736,
      0.39584187,
      -0.5780878,
      -0.55189687,
      0.18948773,
      -0.40757877,
      0.27886084
    ],
    [
      -0.4635038,
      -0.15157947,
      -0.1576659,
      -0.47185633,
      0.16396998,
      0.5316115,
      -1.3602203,
      0.066034034,
      -0.20232904,
      -0.016931154,
      -0.25989515,
      0.33871984,
      0.37256035,
      0.46388492,
      -0.058268167,
      -1.1481742,
      0.9259747,
      0.41269904,
      -0.9134857,
      -0.008187337,
      0.15216614,
      0.5047655,
      0.3552472,
      -0.26868227,
      0.17226991,
      -0.20528513,
      -0.71004647,
      -0.5019026,
      0.24163008,
      -0.09559312,
      1.2003435,
      -0.34752092,
      0.107760385,
      -0.4955316,
      0.08112345,
      -0.61858153,
      -0.08566737,
      -0.62619907,
      0.16547948,
      -0.32692552,
      1.0928916,
      0.4490158,
      0.41934964,
      0.03692978,
      0.8379261,
      -0.2166936,
      0.011280845,
      -0.17611942,
      0.6142894,
      0.1438414,
      -0.7834518,
      -0.22969523,
      0.26968214,
      -0.6169073,
      -0.04654808,
      0.07381252,
      -1.5652432,
      -0.097115576,
      0.39891434,
      -0.6018156,
      -0.3315177,
      0.11008731,
      0.030624203,
      0.46177804
    ]
  ],
  "shared_fc2_bias": [
    0.06469627,
    -0.11210686,
    -0.01948724,
    0.01983515,
    0.036202613,
    -0.12140888,
    0.14976032,
    0.0008989008,
    -0.04106053,
    0.17113547,
    -0.1840433,
    0.057727396,
    -0.08772025,
    -0.11821296,
    0.034971565,
    0.121677406,
    -0.13901131,
    -0.016898448,
    0.041155964,
    -0.067113,
    0.020538285,
    0.01910692,
    -0.035995107,
    -0.09983073,
    0.018076334,
    0.039176222,
    -0.034407742,
    -0.1172717,
    0.11081798,
    0.08009116,
    0.17393629,
    -0.03803599,
    -0.12964043,
    -0.035502456,
    -0.0111169005,
    -0.16631,
    -0.1127103,
    0.17545752,
    0.057612605,
    0.06502213,
    0.017103104,
    0.05411338,
    0.05140102,
    -0.04124169,
    0.16029125,
    -0.044843208,
    -0.083302155,
    -0.07585745,
    0.055770658,
    0.036288716,
    -0.18705799,
    -0.026020702,
    0.1758242,
    -0.10098387,
    0.19638819,
    0.021706112,
    0.00045439368,
    -0.14276062,
    -0.18649277,
    -0.1361332,
    -0.1470622,
    -0.08067719,
    0.027607892,
    0.058512967
  ],
  "policy_weight": [
    [
      0.8034945,
      0.084220245,
      -0.14361753,
      -0.27995947,
      0.035248306,
      0.21768849,
      0.13934007,
      0.03328671,
      -0.09828703,
      -0.23757063,
      0.12825166,
      -0.012900467,
      -0.012531505,
      0.067905,
      0.32294422,
      -0.21480757,
      0.041478645,
      -0.053744365,
      0.26137653,
      -0.15150195,
      0.03593196,
      -0.3238671,
      -0.1159616,
      0.10479066,
      0.052323602,
      -0.0015362143,
      -0.08084847,
      0.20305619,
      -0.060917202,
      -0.0918532,
      -0.21037713,
      0.19012019,
      -0.1508685,
      -0.2209567,
      0.17910232,
      0.08216103,
      -0.24599458,
      0.23253876,
      -0.16453743,
      0.06474202,
      -0.23917276,
      0.09679407,
      -0.17306459,
      0.15861237,
      0.3498593,
      0.08983746,
      0.13745369,
      -0.09708174,
      0.032115787,
      -0.1490265,
      0.1475859,
      0.15027417,
      -0.16453533,
      0.18738647,
      -0.23297788,
      0.39806065,
      -0.04555348,
      -0.21368548,
      0.18471248,
      -0.055127617,
      -0.15457723,
      0.050719928,
      -0.11899767,
      -0.18309689
    ],
    [
      -0.8062982,
      -0.08459553,
      0.14492016,
      0.27923062,
      -0.03169403,
      -0.21560138,
      -0.14021614,
      -0.03426037,
      0.098989405,
      0.2347775,
      -0.12883523,
      0.011891837,
      0.011213658,
      -0.067625515,
      -0.32184052,
      0.21590087,
      -0.041825976,
      0.05391937,
      -0.25845212,
      0.15227751,
      -0.034771033,
      0.32554322,
      0.11487748,
      -0.104084276,
      -0.051391516,
      -0.0004783063,
      0.08005172,
      -0.20535864,
      0.061763417,
      0.095233396,
      0.21307248,
      -0.18978932,
      0.150538,
      0.2235566,
      -0.1797667,
      -0.08055233,
      0.24617994,
      -0.23100483,
      0.16452494,
      -0.066166006,
      0.24040619,
      -0.09535755,
      0.17635065,
      -0.15919115,
      -0.3497007,
      -0.09188025,
      -0.13813157,
      0.09843307,
      -0.03013071,
      0.14784111,
      -0.1458354,
      -0.15090746,
      0.16395313,
      -0.18763235,
      0.23186548,
      -0.39658692,
      0.047643844,
      0.2119536,
      -0.18551074,
      0.057645846,
      0.15429321,
      -0.05108625,
      0.11632998,
      0.18956618
    ]
  ],
  "policy_bias": [
    -0.15930058,
    0.24915521
  ],
  "value_weight": [
    [
      0.42291474,
      -0.30729887,
      0.22790772,
      -0.38423857,
      -0.29282266,
      -0.23402995,
      0.38376078,
      0.34616965,
      -0.37222177,
      0.2326983,
      -0.25533596,
      0.29378307,
      -0.32932648,
      -0.30609474,
      0.38081408,
      0.23060481,
      -0.31695798,
      0.3117393,
      0.36487168,
      -0.3824361,
      -0.3130325,
      -0.3978143,
      0.2544028,
      -0.29092407,
      0.3374659,
      -0.34159133,
      0.29356685,
      -0.228239,
      0.28451878,
      0.3048419,
      0.23119177,
      -0.23081939,
      -0.37091324,
      -0.39637765,
      -0.24136412,
      -0.31926414,
      -0.3925543,
      0.3729214,
      0.24052663,
      0.33577415,
      -0.3639193,
      -0.28993657,
      -0.3532821,
      -0.25616157,
      0.39271945,
      -0.2820338,
      -0.2541188,
      -0.34192684,
      -0.31609783,
      0.2621874,
      -0.24817683,
      -0.2565781,
      0.25195897,
      -0.23608732,
      0.23434915,
      0.36856267,
      0.31213552,
      -0.38552037,
      -0.25885305,
      -0.3432663,
      -0.3665869,
      -0.31040508,
      0.26705638,
      0.24666649
    ]
  ],
  "value_bias": [
    0.1403527
  ]
}