{
  "obs_dim": 4,
  "action_dim": 2,
  "hidden_dim": 64,
  "activation": "Tanh",
  "metadata": {
    "total_steps": 5056836,
    "total_episodes": 34157,
    "final_performance": 148.04684252129871,
    "training_time_secs": 109.049568875,
    "device": "Cpu",
    "environment": "CartPole-v1",
    "algorithm": "PPO (Proximal Policy Optimization)",
    "timestamp": "2025-11-06T22:54:06.656454+00:00",
    "notes": "Modern RL training with orthogonal init, Tanh activation, and observation normalization. Achieved 148.0 steps/episode in 109.0s (46372 steps/sec)."
  },
  "shared_fc1_weight": [
    [
      -0.011927438,
      0.13324484,
      -0.33866554,
      -0.020951275
    ],
    [
      0.23519225,
      0.21291696,
      -0.17945185,
      0.035463333
    ],
    [
      -0.25955352,
      -0.3416809,
      0.067164265,
      -0.28004652
    ],
    [
      0.35162425,
      0.1369572,
      -0.018052958,
      -0.059743658
    ],
    [
      0.25713623,
      0.3457065,
      0.060195167,
      0.055607446
    ],
    [
      -0.0086910855,
      0.007243254,
      0.3096,
      0.09373598
    ],
    [
      -0.21067019,
      -0.01629956,
      0.23204358,
      -0.13831547
    ],
    [
      -0.17982037,
      0.06778839,
      -0.21651551,
      0.1900482
    ],
    [
      -0.24453592,
      -0.24216361,
      0.27877155,
      -0.15046264
    ],
    [
      0.32108745,
      0.24941473,
      -0.2686587,
      0.08504489
    ],
    [
      0.2886548,
      0.35829943,
      0.050010312,
      0.27224842
    ],
    [
      -0.22901239,
      -0.30910826,
      0.16733766,
      -0.11990506
    ],
    [
      0.33215296,
      -0.13478059,
      0.27316982,
      -0.23020877
    ],
    [
      -0.29297912,
      0.021350048,
      0.11581979,
      0.24503109
    ],
    [
      -0.016735865,
      0.25302282,
      -0.057535276,
      0.3608985
    ],
    [
      0.017236069,
      -0.11798738,
      0.055755436,
      0.14129591
    ],
    [
      -0.15785588,
      -0.39573675,
      -0.16192408,
      -0.3475609
    ],
    [
      -0.39650914,
      0.009098037,
      -0.24275388,
      -0.08122763
    ],
    [
      0.4742995,
      -0.105444856,
      -0.003406432,
      -0.22366354
    ],
    [
      0.17035769,
      0.10378054,
      -0.029354211,
      -0.037356086
    ],
    [
      -0.2511344,
      -0.25198105,
      0.16813982,
      -0.067184
    ],
    [
      0.042167913,
      0.18895003,
      0.21872164,
      0.2858749
    ],
    [
      -0.12809373,
      -0.35921174,
      -0.33959356,
      -0.26590773
    ],
    [
      0.12558377,
      0.23686558,
      -0.04392422,
      0.29611894
    ],
    [
      0.3578088,
      -0.07380637,
      0.34089985,
      0.18632108
    ],
    [
      0.20900664,
      0.102010965,
      -0.30200538,
      0.083004676
    ],
    [
      -0.33216825,
      -0.108237155,
      0.107418194,
      0.1875831
    ],
    [
      -0.110685065,
      -0.19528848,
      0.08085331,
      -0.035430867
    ],
    [
      -0.23663417,
      -0.09924411,
      -0.40770847,
      -0.14042123
    ],
    [
      0.20252867,
      0.08019403,
      0.034911126,
      0.28973585
    ],
    [
      -0.2854178,
      -0.31947756,
      -0.43628594,
      -0.23294315
    ],
    [
      -0.14717574,
      0.014200265,
      -0.19955006,
      0.07017478
    ],
    [
      -0.21632205,
      0.07884578,
      0.080583975,
      0.118034564
    ],
    [
      -0.03459129,
      0.23036897,
      -0.1708065,
      0.028792359
    ],
    [
      -0.52365136,
      -0.17853661,
      0.05326623,
      0.07678858
    ],
    [
      0.32242495,
      0.025072115,
      0.22414218,
      0.31229377
    ],
    [
      0.29799244,
      0.35470685,
      0.042777095,
      0.37874332
    ],
    [
      -0.3580639,
      -0.34994647,
      0.21332261,
      -0.1547805
    ],
    [
      0.25189418,
      0.08353908,
      -0.21842317,
      -0.021855267
    ],
    [
      -0.13427624,
      -0.17202008,
      0.112978354,
      0.046328947
    ],
    [
      -0.2067036,
      -0.0016054967,
      0.036677517,
      -0.007956843
    ],
    [
      -0.07490883,
      -0.058047768,
      -0.047283348,
      0.14741528
    ],
    [
      -0.31118274,
      -0.16989453,
      -0.24631621,
      -0.19501211
    ],
    [
      0.095385715,
      0.10631797,
      0.114029,
      0.20981975
    ],
    [
      0.15881036,
      -0.17290494,
      0.18397383,
      -0.13928568
    ],
    [
      0.25593916,
      0.21264735,
      0.39479205,
      0.054449636
    ],
    [
      0.27099982,
      0.18312411,
      -0.116018325,
      0.24433444
    ],
    [
      -0.15144731,
      -0.21644405,
      0.09571549,
      -0.002083254
    ],
    [
      0.22667556,
      0.055102367,
      0.19901758,
      0.17074952
    ],
    [
      -0.0020413424,
      -0.011791497,
      -0.208317,
      0.009176106
    ],
    [
      0.32824442,
      0.17082179,
      0.33559155,
      0.11015854
    ],
    [
      -0.2970387,
      -0.1422337,
      0.25182694,
      -0.03905974
    ],
    [
      -0.36728477,
      -0.16478387,
      -0.32619125,
      -0.23977447
    ],
    [
      0.2484451,
      0.25140685,
      -0.055553313,
      0.08224603
    ],
    [
      -0.12372747,
      -0.31383303,
      -0.05674256,
      -0.014711192
    ],
    [
      -0.00008464004,
      -0.08807249,
      0.009426307,
      0.10214385
    ],
    [
      0.52690035,
      0.07109216,
      0.24913013,
      0.25653815
    ],
    [
      0.12931868,
      0.49103463,
      0.24808545,
      0.34126598
    ],
    [
      0.2896788,
      -0.0027309516,
      0.11936336,
      0.055518664
    ],
    [
      0.25507158,
      0.19976935,
      0.29965797,
      0.30616173
    ],
    [
      -0.0053520123,
      0.43431213,
      -0.07423088,
      0.17169046
    ],
    [
      0.08125284,
      0.21404235,
      0.09601274,
      -0.092660636
    ],
    [
      -0.120406516,
      0.11641714,
      -0.16581838,
      -0.08510932
    ],
    [
      -0.29881033,
      -0.2067196,
      -0.24699394,
      -0.26415235
    ]
  ],
  "shared_fc1_bias": [
    0.50085217,
    0.7452121,
    -0.63129294,
    -0.8427244,
    0.7779765,
    0.4500207,
    0.458533,
    -0.3264766,
    0.82736045,
    0.41416535,
    0.5001979,
    -0.7490567,
    0.16734478,
    -0.57615125,
    0.31740907,
    0.32459465,
    -0.63595176,
    -0.27528536,
    -0.5869953,
    -0.21174406,
    0.066949,
    -0.7615645,
    0.7674856,
    -0.012178226,
    0.80159295,
    0.744391,
    -0.9425325,
    0.78426534,
    0.8696075,
    -0.6334491,
    0.9099799,
    -0.42989787,
    -0.0121519845,
    -0.27158684,
    0.6542069,
    0.6153958,
    0.48351702,
    0.11319106,
    -0.53689426,
    -0.47058997,
    0.7176015,
    0.4401417,
    -0.45282868,
    -0.4965034,
    0.22632961,
    -0.5295242,
    0.5101407,
    0.32230732,
    -0.77341855,
    -0.19863743,
    0.8337599,
    0.702859,
    -0.7342301,
    0.53200674,
    -0.39497495,
    0.4111136,
    0.28822276,
    0.6497148,
    0.11912061,
    -0.9673076,
    0.58549017,
    0.68736154,
    -0.50526035,
    -0.76001143
  ],
  "shared_fc2_weight": [
    [
      0.28923813,
      0.18853326,
      -0.7633367,
      -0.39918786,
      0.1873228,
      0.29420352,
      0.26410732,
      -0.014804056,
      0.09039521,
      0.11388751,
      0.7266255,
      -0.63580495,
      -0.30775496,
      -0.116387695,
      0.7236496,
      -0.06705493,
      -0.8058233,
      0.15212364,
      0.08512186,
      -0.104028456,
      -0.10001636,
      -0.02355985,
      -0.3900477,
      0.5893161,
      0.6114459,
      0.036906227,
      -0.4534948,
      0.24445546,
      -0.12574409,
      0.30267024,
      0.2857851,
      0.19917537,
      0.41831955,
      0.47803664,
      0.15118264,
      0.24129876,
      0.67466426,
      0.025724797,
      -0.29331726,
      0.06586913,
      -0.13376717,
      -0.052484132,
      -0.6754482,
      -0.38336214,
      -0.0056465757,
      0.051990405,
      0.25955224,
      -0.19804494,
      -0.09816761,
      -0.010487502,
      0.4084534,
      0.20629382,
      -0.5342532,
      0.32249305,
      -0.76886123,
      -0.21417789,
      -0.17302488,
      1.2444807,
      0.14251396,
      -0.035724297,
      0.7825923,
      0.9485291,
      0.1314659,
      -0.2258063
    ],
    [
      0.38823023,
      1.001322,
      -0.41828492,
      -0.33546117,
      0.06879312,
      -0.039442055,
      -0.2663614,
      0.07803348,
      -0.07960377,
      0.45199543,
      0.22393788,
      -0.68893737,
      -0.4282411,
      -0.47990596,
      -0.09456403,
      -0.4529205,
      -0.87527215,
      0.18600768,
      0.024676278,
      0.16151795,
      -0.28460705,
      -0.35828057,
      0.7299753,
      0.36347786,
      0.50996274,
      0.46247917,
      -0.6356867,
      0.46989235,
      0.42856127,
      -0.18103163,
      0.7293934,
      -0.17872563,
      -0.35722804,
      0.2015032,
      0.0017482842,
      0.56604475,
      0.25950605,
      -0.32423848,
      -0.10493406,
      -0.30413046,
      0.09464682,
      -0.26819262,
      -0.23692949,
      -0.6104427,
      -0.47973442,
      -0.43796182,
      0.39728564,
      0.08932954,
      -0.26999456,
      0.37546694,
      0.37033686,
      0.32077658,
      -0.22901209,
      0.5230353,
      -0.2215613,
      -0.29516423,
      0.11025396,
      0.19641136,
      -0.04055937,
      -0.8488091,
      0.82082343,
      0.51801556,
      -0.0017291385,
      -0.67507017
    ],
    [
      1.0726211,
      0.6806204,
      -0.24914473,
      0.0034970662,
      0.01805577,
      0.025867127,
      -0.14425974,
      0.0135862585,
      0.14470322,
      0.18216962,
      0.13553818,
      -0.349773,
      -0.29076585,
      -0.46391594,
      -0.12489206,
      -0.26097116,
      -0.33938387,
      -0.23543686,
      -0.17440361,
      0.0010521932,
      -0.035126094,
      -0.53820306,
      0.979791,
      -0.03554717,
      0.51154834,
      0.8968493,
      -1.3843677,
      0.12295524,
      0.9510588,
      -0.35334086,
      0.9971434,
      0.020612288,
      -0.28989154,
      0.27942774,
      0.24214192,
      0.17591073,
      -0.007715344,
      -0.037171174,
      -0.11386981,
      -0.46488973,
      0.382466,
      0.43640667,
      0.031982146,
      -0.6212615,
      -0.21449372,
      -0.94740593,
      0.20796742,
      -0.4452089,
      -0.35254616,
      0.23723191,
      0.6351003,
      0.3376529,
      -0.33690608,
      0.252628,
      0.20292042,
      0.021421017,
      0.14339828,
      0.31626108,
      -0.1452938,
      -1.2158308,
      0.43731573,
      0.49585724,
      0.35987657,
      -0.4097404
    ],
    [
      -0.41634676,
      -0.9077694,
      0.4398838,
      0.044288393,
      -0.3370787,
      0.1856544,
      -0.16009882,
      0.39753667,
      -0.30087653,
      -0.65875643,
      -0.5782181,
      0.6082388,
      -0.12353557,
      0.5467542,
      -0.23050964,
      0.23273785,
      0.53736556,
      0.43120846,
      0.2014092,
      -0.047291514,
      0.39888066,
      0.063494354,
      -0.07513229,
      -0.62146455,
      -0.5049464,
      -0.6948257,
      0.7190912,
      -0.27374035,
      -0.31029475,
      0.30697954,
      0.0026544791,
      -0.11726816,
      0.3906943,
      0.025732089,
      -0.21569945,
      -0.5952404,
      -0.15562937,
      -0.039295956,
      0.17594345,
      0.43445295,
      -0.20982155,
      0.10685285,
      0.7502337,
      0.37911618,
      -0.020566413,
      0.040247697,
      -0.31773368,
      0.22704999,
      -0.03725316,
      -0.118015125,
      -0.73848045,
      -0.089042954,
      0.50485677,
      -0.6890976,
      0.7453091,
      -0.16853762,
      -0.34268653,
      -0.7449972,
      -0.12181118,
      -0.16054617,
      -0.6891783,
      -0.4728415,
      -0.20902717,
      0.93862355
    ],
    [
      -0.50522465,
      -0.79321414,
      0.4306813,
      -0.19442411,
      -0.36288694,
      -0.20511428,
      -0.02441845,
      0.56266093,
      -0.22680949,
      -0.5163253,
      -0.70359516,
      0.9570371,
      -0.29665405,
      0.4487363,
      -0.081483416,
      -0.014858986,
      0.26382968,
      0.0996235,
      0.34423319,
      0.07140577,
      0.051757317,
      0.11800125,
      0.06569959,
      -0.36259735,
      -0.6460549,
      -0.27860588,
      0.6265314,
      -0.15023537,
      0.3542828,
      0.17699054,
      0.054280117,
      -0.06152047,
      0.1978939,
      0.0004245208,
      0.26037905,
      -0.21059534,
      -0.28157678,
      0.2598205,
      -0.03260272,
      0.5375377,
      -0.22475423,
      0.1067132,
      0.50748104,
      0.40980563,
      0.1425701,
      -0.15491895,
      -0.07143534,
      -0.018838622,
      -0.047347292,
      -0.22643335,
      -0.34911197,
      -0.5898108,
      0.60846984,
      -0.42454726,
      0.4515073,
      -0.27375025,
      -0.5755674,
      -0.39558434,
      -0.6010121,
      0.014182894,
      -0.66015357,
      -0.81567776,
      0.48644927,
      0.4465647
    ],
    [
      -0.081583396,
      -0.009319161,
      -0.035453286,
      0.27456763,
      -0.3950312,
      -0.9552437,
      -0.36414817,
      0.45660815,
      -0.6412972,
      0.008677442,
      -0.47275075,
      0.023536608,
      -0.8044657,
      0.03180078,
      -0.79867035,
      -0.42738315,
      0.5490173,
      0.61611694,
      0.77897435,
      0.993519,
      -0.2682658,
      0.0310591,
      0.23396409,
      -0.13699456,
      -0.36278293,
      -0.11001626,
      0.21760622,
      -0.3565919,
      -0.52068913,
      0.526616,
      -0.13742612,
      0.5325582,
      -0.37935573,
      0.6453769,
      -0.29491422,
      -0.437647,
      -0.6433141,
      -0.24684756,
      0.58258265,
      -0.35507408,
      -0.17762913,
      -0.3607176,
      0.7604601,
      0.26223347,
      -0.40440953,
      -0.2670086,
      -0.497669,
      -0.9694346,
      0.15462235,
      0.90128464,
      -0.14897098,
      -1.126967,
      0.48272988,
      0.09528872,
      0.34623694,
      -0.37647378,
      -0.39120567,
      -0.7395634,
      -0.7312104,
      0.32286456,
      -0.24128647,
      -0.08656983,
      0.6710031,
      0.50418705
    ],
    [
      -0.08783626,
      -0.18136747,
      -0.08835752,
      0.23465039,
      0.003322373,
      -0.1943316,
      -0.41619217,
      0.12733981,
      -0.49240232,
      0.100292325,
      0.12734075,
      0.017440597,
      0.2044317,
      0.40308052,
      -0.008832475,
      -0.3986459,
      0.29214934,
      -0.101084664,
      0.9305001,
      0.6843907,
      -0.28725007,
      0.90926343,
      -0.3001051,
      -0.0096028205,
      -0.012977205,
      0.00901404,
      -0.059244554,
      -0.74437416,
      -0.53786254,
      0.24363536,
      -0.47201905,
      -0.004641681,
      -0.18214253,
      0.24930026,
      -0.40083757,
      -0.34260637,
      -0.18758494,
      -0.29744825,
      0.69450754,
      0.055694677,
      -0.39871478,
      -0.9444384,
      0.44442278,
      0.24851647,
      -0.21847166,
      0.06377912,
      0.26566744,
      -0.7132202,
      0.6621606,
      0.2818887,
      -0.19189689,
      -0.624094,
      0.22841446,
      -0.012416953,
      0.26738247,
      -0.5132191,
      -0.17714292,
      -0.25084326,
      -0.105156936,
      0.64354616,
      0.25147608,
      -0.0004986741,
      0.29154783,
      0.15501042
    ],
    [
      0.18674035,
      -0.5222452,
      0.13344765,
      0.1479719,
      -0.3164559,
      -0.9247015,
      -0.84867,
      0.6459252,
      -0.62265944,
      0.22145611,
      -0.2364201,
      -0.18055412,
      -0.4670799,
      -0.07616356,
      -0.725361,
      -0.16554314,
      0.4462966,
      0.48105887,
      0.46220878,
      0.8904785,
      -0.27661365,
      0.054688293,
      0.18958071,
      -0.105809435,
      -0.43602028,
      -0.6257215,
      0.314982,
      -0.8005594,
      0.043834448,
      0.037529785,
      0.0047190357,
      0.38119268,
      -0.4014622,
      0.61544144,
      -0.49140388,
      -0.47909853,
      -0.30059537,
      -0.26896694,
      0.55665916,
      -0.17418784,
      -0.45454907,
      -0.3590642,
      0.6179784,
      -0.12972943,
      -0.5644102,
      -0.059782516,
      -0.07236702,
      -1.0576487,
      0.2584863,
      0.569718,
      -0.40660158,
      -1.0215693,
      0.7267539,
      -0.14513966,
      0.6001729,
      -0.63812596,
      -0.6568112,
      -0.8692542,
      -0.50859,
      0.08645991,
      -0.30013213,
      -0.26777792,
      0.7912738,
      0.39967796
    ],
    [
      0.046730254,
      0.100164324,
      -0.2773794,
      -0.26732796,
      -0.110837154,
      0.7294714,
      0.852128,
      -0.40381178,
      0.66708004,
      0.12091974,
      0.44168785,
      -0.16324468,
      0.72748965,
      -0.030084832,
      0.70974135,
      0.5298714,
      -0.45564693,
      -0.8114752,
      -0.6397446,
      -0.8122727,
      0.35410184,
      -0.14905104,
      0.20783378,
      -0.060419053,
      0.5017864,
      0.0075389617,
      -0.34912774,
      0.4452367,
      0.1199837,
      -0.041969363,
      0.1258503,
      -0.5348669,
      0.24810408,
      -0.45705676,
      0.36886644,
      0.63203734,
      0.42123032,
      0.22163466,
      -0.8275327,
      -0.32185793,
      0.17639677,
      0.34715393,
      -0.4248598,
      -0.0984416,
      0.21887615,
      0.34868154,
      0.01762803,
      1.1306622,
      0.08992199,
      -0.46269453,
      0.20874152,
      0.7017186,
      -0.54276377,
      -0.37750232,
      -0.42763156,
      0.5819283,
      0.60374975,
      1.1911331,
      0.18953545,
      -0.3040728,
      0.14363235,
      0.21055602,
      -0.78163064,
      -0.4678035
    ],
    [
      0.27662474,
      0.241117,
      -0.41964397,
      -0.030107403,
      0.21284342,
      0.35729817,
      0.44343454,
      -0.08242327,
      -0.12150682,
      -0.36318192,
      0.42925438,
      -0.31066203,
      -0.41213173,
      0.09442191,
      0.4342669,
      -0.03626994,
      -0.6475064,
      0.17528225,
      -0.040907286,
      -0.20091671,
      0.19687258,
      -0.09605534,
      -0.0528697,
      0.39764556,
      0.0044610375,
      -0.1275496,
      -0.2513749,
      0.00601263,
      0.09215219,
      -0.16383749,
      0.10413406,
      -0.1620944,
      0.34321487,
      0.051196072,
      -0.037140086,
      0.21355368,
      0.20678517,
      0.06211573,
      -0.37493977,
      -0.4465755,
      0.18004131,
      -0.39060286,
      -0.30739614,
      -0.15754867,
      -0.23962706,
      0.16259395,
      0.1485161,
      -0.07754557,
      0.01700772,
      -0.16604093,
      0.3530008,
      -0.077791765,
      -0.67063826,
      0.11820631,
      -0.84041333,
      -0.5059667,
      -0.07131881,
      0.6349029,
      0.3305471,
      -0.03658036,
      1.3527302,
      1.0369191,
      0.42980158,
      -0.52520853
    ],
    [
      0.04600636,
      0.16041157,
      0.036082078,
      0.4513643,
      -0.10838529,
      0.04626481,
      -0.5978657,
      0.19342886,
      -0.97326297,
      -0.1956715,
      0.015422387,
      0.270654,
      -0.09412131,
      0.2779638,
      0.01876217,
      -0.41818118,
      0.03526849,
      0.27051917,
      0.5760884,
      0.85384136,
      -0.059581287,
      0.41688365,
      -0.23002127,
      0.24024716,
      -0.18804039,
      0.19450508,
      0.05795625,
      -0.9062983,
      -0.6706338,
      0.46413767,
      -0.23822714,
      0.681768,
      -0.046347827,
      0.46704373,
      -0.64931613,
      -0.1779567,
      -0.00063598447,
      -0.46894157,
      0.6336839,
      -0.21712814,
      -0.7784678,
      -0.5196756,
      0.41690457,
      0.35284388,
      -0.42370546,
      0.22896707,
      -0.109984525,
      -0.87425923,
      0.20007724,
      0.0029703754,
      -0.22123168,
      -1.0331635,
      0.48082474,
      0.0314599,
      0.3913722,
      -0.13525331,
      -0.4357727,
      -0.41096368,
      -0.33243653,
      0.20040512,
      0.010815398,
      -0.14582792,
      0.5006082,
      0.034426242
    ],
    [
      -0.06567309,
      0.1114825,
      -0.33938912,
      -0.080692425,
      -0.17991479,
      0.19851202,
      0.12896663,
      -0.15253247,
      0.11728603,
      0.010555009,
      -0.18955536,
      -0.049067248,
      0.17280957,
      -0.007395921,
      0.33128434,
      -0.18453836,
      -0.08647663,
      0.07319041,
      -0.35392454,
      -0.7515664,
      0.16912434,
      0.14701593,
      -0.3262801,
      0.22436002,
      0.086715624,
      -0.04494312,
      -0.027555916,
      -0.11824861,
      -0.20512567,
      0.22012086,
      -0.08377054,
      0.039880484,
      0.12234117,
      0.45151824,
      0.036016382,
      -0.15011396,
      0.03981145,
      0.020563424,
      0.21013205,
      -0.011408518,
      -0.11250544,
      0.015402527,
      -0.040844243,
      0.24687111,
      -0.18336615,
      0.19843507,
      0.09183834,
      -0.27341253,
      0.3430942,
      -0.4617809,
      -0.16609915,
      0.07243382,
      0.18304227,
      -0.14262497,
      -0.48444366,
      0.21826187,
      0.3703234,
      0.20669995,
      0.40994284,
      0.41756576,
      0.3542802,
      -0.05376362,
      -0.16273473,
      -0.20304596
    ],
    [
      0.63149565,
      0.6535928,
      -0.503549,
      -0.12295205,
      0.32530016,
      -0.1298533,
      -0.10416145,
      -0.59700155,
      0.07079776,
      0.42255148,
      0.3209109,
      -0.9809843,
      0.49079326,
      -0.64912105,
      -0.07669613,
      -0.20907047,
      -0.65586615,
      -0.3159122,
      -0.16829497,
      0.19061191,
      -0.1005533,
      0.056927152,
      0.11586743,
      0.2863866,
      0.4867207,
      1.0516943,
      -0.6563717,
      0.16938402,
      0.024640765,
      -0.14090636,
      -0.14357166,
      -0.17282927,
      -0.059522822,
      0.18037376,
      0.31900764,
      0.46329063,
      0.7713071,
      -0.030571472,
      -0.35649446,
      -0.515447,
      0.14315644,
      0.009394597,
      -0.36181876,
      -0.23613892,
      -0.06902511,
      -0.027666017,
      0.39795032,
      -0.039251458,
      -0.31945175,
      0.20620897,
      0.9651318,
      0.07601361,
      -0.40948167,
      0.59680605,
      -0.733724,
      -0.23769489,
      0.46252024,
      0.3020076,
      0.30033952,
      -0.15666948,
      0.47628203,
      0.76909274,
      -0.4511217,
      -0.75071025
    ],
    [
      -0.30151087,
      -0.1167741,
      0.27767128,
      0.5426127,
      -0.21463282,
      -0.7911471,
      -0.543167,
      0.8094849,
      -1.1074938,
      0.07826173,
      -0.315175,
      0.07993676,
      -0.3900403,
      0.053430077,
      -0.51808906,
      -0.28629377,
      0.43656644,
      0.6740948,
      0.5419834,
      0.374672,
      -0.46361837,
      0.019730432,
      0.107525885,
      -0.45478854,
      -0.25218293,
      -0.045808557,
      -0.010898762,
      -0.4014498,
      -0.39761028,
      -0.13595514,
      0.056648094,
      0.738129,
      -0.5339628,
      0.49375317,
      -0.4637098,
      -0.681434,
      -0.58011305,
      -0.08596289,
      0.7517171,
      -0.19968712,
      -0.56515265,
      -0.47679123,
      0.77822703,
      0.07695903,
      -0.026059734,
      -0.059789736,
      -0.19439885,
      -0.90139925,
      -0.04370891,
      0.6604352,
      0.16222082,
      -0.7858643,
      0.96124446,
      -0.10736305,
      0.4383908,
      -0.9154222,
      -0.49871534,
      -0.8159102,
      -0.65594554,
      -0.0011313725,
      -0.22941253,
      -0.4646948,
      0.74575543,
      0.47937188
    ],
    [
      -0.18847097,
      -0.24608889,
      -0.20578898,
      0.42511624,
      -0.28638303,
      0.24402414,
      0.013264775,
      0.0853433,
      -0.5751998,
      -0.16302997,
      0.23591729,
      0.2248515,
      -0.441192,
      -0.051790815,
      0.27674243,
      -0.29182082,
      -0.104871616,
      0.24126218,
      0.15708175,
      -0.04235887,
      -0.0068615326,
      1.3600906,
      -0.7752499,
      0.4192103,
      0.28744227,
      -0.2680279,
      0.43318626,
      -0.6278483,
      -0.5744131,
      0.24037786,
      -1.400547,
      0.50797826,
      0.6197252,
      0.5600623,
      -0.29543972,
      -0.13691662,
      -0.27769247,
      0.098117374,
      -0.07617457,
      0.29206067,
      -0.22413915,
      -0.41568175,
      0.10313901,
      0.33019528,
      -0.61342067,
      0.5008473,
      0.2570629,
      0.016818684,
      0.3592397,
      -0.3656811,
      -0.36943844,
      -0.3863744,
      0.10916076,
      -0.08348322,
      0.16100931,
      -0.5326254,
      0.06557953,
      0.25936055,
      0.121375486,
      0.9804152,
      -0.108431324,
      -0.09472443,
      0.15028238,
      -0.13508151
    ],
    [
      -0.2632497,
      -1.1571436,
      0.24445859,
      0.3960405,
      -0.19418709,
      0.10013026,
      0.40298298,
      -0.021976525,
      -0.3050885,
      -0.45180148,
      0.019813908,
      0.7269136,
      -0.1413367,
      0.4596402,
      -0.011895238,
      0.13800079,
      -0.04414969,
      -0.23794618,
      0.21650912,
      -0.10344447,
      -0.06841593,
      0.8483718,
      -0.973684,
      0.32886758,
      -0.18083654,
      -0.50943846,
      1.1188653,
      -0.3863664,
      -0.8074944,
      0.20894508,
      -0.8152929,
      -0.14912651,
      0.59294385,
      -0.21664745,
      -0.6296429,
      -0.24038976,
      0.03464467,
      0.05943901,
      0.32669395,
      0.4195548,
      -0.029125614,
      -0.08867456,
      -0.13211347,
      0.36104497,
      0.14915028,
      0.855947,
      -0.31284887,
      0.16157943,
      0.72884876,
      -0.15871021,
      -0.30530578,
      -0.23268352,
      0.5112509,
      -0.2655977,
      0.23325992,
      0.05738635,
      0.40875742,
      -0.30032146,
      -0.1711832,
      0.996491,
      -0.48935264,
      -0.4632502,
      0.023949513,
      0.20392181
    ],
    [
      -0.3759862,
      -0.02900998,
      0.49679518,
      -0.10184882,
      -0.29713634,
      -0.061435394,
      -0.19110514,
      0.9323279,
      -0.36893794,
      -0.26665446,
      -0.13247365,
      0.46597907,
      -0.122026294,
      0.5703529,
      -0.4667022,
      0.22859786,
      0.50619555,
      -0.021537632,
      0.29388842,
      -0.16547741,
      0.26738352,
      0.31991315,
      0.3811099,
      -0.24365854,
      -0.10897099,
      -0.134992,
      0.57411647,
      -0.4787625,
      0.250593,
      -0.08939669,
      0.06556102,
      -0.016509093,
      0.101222835,
      -0.12036929,
      0.031176453,
      -0.20715682,
      -0.48390466,
      0.13614815,
      0.09352235,
      0.35926348,
      0.1770923,
      0.3889447,
      0.29053015,
      0.006328009,
      0.12018562,
      -0.19907719,
      -0.4112662,
      -0.063363545,
      -0.12916678,
      -0.11757279,
      -0.14390963,
      -0.07770945,
      0.47895038,
      -0.34413964,
      0.34399778,
      0.12381453,
      -0.5582969,
      -0.5052671,
      -0.51142305,
      -0.12709194,
      -0.3328845,
      -0.0015886428,
      -0.21185218,
      0.3999244
    ],
    [
      0.46835628,
      0.5476398,
      -0.103751644,
      -0.46685857,
      0.29646847,
      -0.42493826,
      0.5417216,
      0.048952196,
      0.93767816,
      0.020041168,
      0.27006775,
      0.012674066,
      0.3415227,
      -0.27194333,
      -0.07481654,
      0.25938874,
      -0.03686964,
      0.07819086,
      -0.32997537,
      0.039496984,
      0.07388822,
      -1.183554,
      1.018011,
      -0.259131,
      0.19562855,
      0.018295245,
      -0.36723733,
      0.5646178,
      0.27504182,
      -0.49282208,
      0.88674146,
      -0.3867364,
      -0.31905174,
      -0.21260132,
      0.31360558,
      -0.17415649,
      -0.15591705,
      0.05901417,
      -0.4157404,
      0.037254415,
      0.4481065,
      0.7146075,
      0.15220843,
      -0.19177756,
      0.1922328,
      -0.6244962,
      0.087763526,
      0.5188971,
      -0.53452295,
      0.14150976,
      0.029546456,
      0.6628389,
      0.15858178,
      0.47398517,
      -0.15154074,
      0.017643617,
      -0.19499233,
      -0.12550648,
      0.14825483,
      -0.93193954,
      0.07380679,
      -0.023406262,
      0.058256947,
      -0.08849315
    ],
    [
      -0.17384808,
      -0.23936443,
      -0.08141273,
      0.62839806,
      -0.33448294,
      -0.8714513,
      -0.49248597,
      0.59350306,
      -0.6920708,
      -0.21435231,
      -0.4682794,
      -0.15023628,
      -0.279146,
      -0.0839695,
      -0.8377333,
      -0.56154597,
      0.21496245,
      0.70399314,
      0.9450373,
      0.50489604,
      -0.26945862,
      -0.08474075,
      0.10339717,
      -0.4827739,
      -0.32578522,
      -0.23565231,
      0.39571753,
      -0.8114069,
      -0.21434364,
      0.30459794,
      -0.07444373,
      1.019863,
      -0.22211425,
      -0.12285592,
      -0.44747266,
      -0.63208514,
      -0.18951398,
      -0.33016765,
      0.7508553,
      0.035890248,
      -0.09322623,
      -0.3092726,
      0.7370623,
      0.1343616,
      -0.4462009,
      -0.31495795,
      0.08982327,
      -0.8954545,
      0.12766844,
      0.5966198,
      -0.26803163,
      -0.64817154,
      0.69782865,
      -0.33003953,
      0.23530467,
      -0.4438179,
      -0.56702536,
      -0.57599884,
      -0.5956589,
      0.037826035,
      0.09629326,
      -0.10080654,
      1.1317502,
      0.46054757
    ],
    [
      0.0987662,
      -0.14785103,
      -0.17077321,
      -0.13885736,
      0.30231306,
      1.0470569,
      0.80733734,
      -0.51974636,
      0.8082386,
      0.16972466,
      0.34923303,
      -0.09531044,
      0.6342894,
      0.2799848,
      0.9583544,
      0.47580558,
      -0.6526434,
      -0.2918863,
      -0.47277492,
      -0.79895604,
      0.51044315,
      -0.2081156,
      -0.084873974,
      0.17811823,
      0.80550486,
      0.46708432,
      0.00006804516,
      0.5954275,
      0.31646416,
      0.04650826,
      -0.2912468,
      -0.8309126,
      -0.04564,
      -0.24063142,
      0.4605927,
      0.48208404,
      0.49939108,
      0.20089972,
      -0.77248216,
      -0.18573919,
      0.29746467,
      0.24715337,
      -0.729392,
      -0.40054896,
      0.15310088,
      -0.06955428,
      0.0893703,
      1.0241545,
      -0.038971957,
      -0.7207636,
      0.40194055,
      1.0751034,
      -0.7385627,
      0.116647534,
      -0.47875053,
      0.7662458,
      0.24725527,
      0.45936024,
      0.3795003,
      0.048639365,
      -0.00042803364,
      0.14860977,
      -0.5719912,
      -0.45435283
    ],
    [
      -0.43690914,
      0.1830179,
      0.31253526,
      -0.58660215,
      -0.08056681,
      0.43857452,
      0.38141558,
      -0.509552,
      0.8936103,
      0.16132885,
      0.012488548,
      -0.20406473,
      0.42775172,
      -0.062840916,
      0.69569963,
      0.45290005,
      -0.06419325,
      -0.5062479,
      -0.8449907,
      -0.8280433,
      0.17193998,
      -0.25179505,
      -0.14606781,
      -0.08854623,
      0.58569545,
      0.19841924,
      0.092849284,
      0.451644,
      -0.019475041,
      -0.28119445,
      0.41036314,
      -0.56406134,
      0.3006799,
      -0.55076444,
      0.52481395,
      0.37385732,
      0.19097924,
      0.25306222,
      -0.77809286,
      -0.096155286,
      0.43247908,
      0.48797917,
      -0.6758342,
      0.013993154,
      0.052625638,
      -0.20126875,
      0.31945202,
      0.75468993,
      -0.31727257,
      -0.40783525,
      0.08951221,
      0.7155835,
      -0.64361274,
      0.12209518,
      -0.10466237,
      0.46263576,
      0.66473997,
      0.27310666,
      0.045015365,
      -0.36142725,
      -0.19451614,
      0.3303533,
      -0.2544881,
      -0.40880564
    ],
    [
      0.622474,
      0.8896806,
      -0.09232781,
      -0.30014277,
      0.18034473,
      -0.4378464,
      0.16897915,
      0.021991912,
      0.25313383,
      0.15199056,
      -0.008601955,
      -0.35483506,
      -0.1466347,
      -0.7125098,
      0.13750145,
      0.17235586,
      -0.17392303,
      0.2670147,
      0.13997059,
      0.13001347,
      -0.0637235,
      -0.51498,
      0.91246074,
      0.099405654,
      0.35862118,
      0.9748897,
      -0.9975967,
      0.46076667,
      0.8896944,
      -0.5092793,
      1.1024483,
      0.11612827,
      -0.06211747,
      0.33340582,
      0.14998214,
      0.36923254,
      0.16615398,
      -0.12904811,
      0.33963642,
      -0.70426935,
      0.056536682,
      0.19734639,
      -0.24134853,
      -0.7465024,
      -0.1819807,
      -1.1259588,
      0.5944052,
      0.25734165,
      -0.47986192,
      0.14554746,
      0.3174064,
      0.05737938,
      -0.23455384,
      0.11324588,
      -0.007722701,
      0.07232948,
      -0.04666848,
      0.3135221,
      -0.17850381,
      -1.0501117,
      0.5373087,
      0.63324714,
      -0.20844096,
      -0.35745087
    ],
    [
      -0.20452324,
      -0.2426346,
      -0.16701701,
      0.33464786,
      -0.09045534,
      -0.12941602,
      -0.590541,
      -0.007415928,
      -0.45229432,
      -0.2971057,
      -0.098595634,
      0.20089173,
      -0.34848878,
      -0.07328322,
      -0.16723217,
      -0.22979626,
      0.14515735,
      0.4780736,
      0.42676985,
      0.3235374,
      -0.6108348,
      0.79401803,
      -0.055143237,
      -0.025795512,
      -0.2735364,
      0.26095486,
      0.20287347,
      -0.7262809,
      -0.30121458,
      0.6678911,
      -0.4883253,
      0.71441555,
      -0.45012558,
      0.42370203,
      -0.90618294,
      -0.2556547,
      -0.12644069,
      -0.17662628,
      0.35906154,
      0.082101464,
      -0.8198024,
      -0.5663732,
      0.12406725,
      0.40847787,
      -0.3864707,
      0.17899236,
      -0.14727166,
      -0.58474773,
      0.63098097,
      0.35165587,
      -0.16987298,
      -0.6041474,
      0.18957928,
      -0.26753843,
      0.15937507,
      -0.42550352,
      0.025292266,
      -0.27506584,
      0.18919125,
      0.31815833,
      -0.01802497,
      -0.028227082,
      0.51049054,
      0.4511386
    ],
    [
      0.2999655,
      0.74304926,
      -0.33838525,
      -0.09338431,
      0.71244013,
      -0.033973485,
      0.36337858,
      -0.22465228,
      0.14586057,
      0.6245492,
      0.6570163,
      -0.6941398,
      -0.30296132,
      -0.6184286,
      -0.13858019,
      -0.10793589,
      -0.62101495,
      -0.53923875,
      -0.08838595,
      0.2304292,
      -0.21921259,
      -0.23352635,
      -0.076760806,
      0.2760463,
      0.89576834,
      0.65108263,
      -0.8515876,
      0.03196772,
      0.47855732,
      0.021680735,
      0.2995089,
      0.10086894,
      -0.27246103,
      0.07117746,
      0.16931191,
      0.5535832,
      0.49485296,
      0.06911354,
      -0.08791846,
      -0.76848304,
      -0.11927647,
      -0.18271837,
      -0.21540388,
      -0.355419,
      -0.24599163,
      -0.531447,
      0.42468908,
      -0.3530197,
      -0.3814702,
      0.13990068,
      0.36228105,
      0.32942656,
      -0.636606,
      0.36456463,
      -0.66942453,
      -0.11850789,
      0.47966453,
      0.3718898,
      0.44437808,
      -0.30771792,
      0.3657686,
      0.50543547,
      -0.20273603,
      -0.83206314
    ],
    [
      -0.030585526,
      -0.029022,
      0.036423117,
      0.48912907,
      -0.28020906,
      -0.81049544,
      -0.7593741,
      0.4657998,
      -0.656671,
      -0.13839667,
      -0.41124752,
      -0.0066652484,
      -0.36667806,
      0.4500279,
      -0.7098352,
      -0.30591393,
      0.50198424,
      0.7581159,
      1.0998347,
      0.42839506,
      -0.2577386,
      -0.047386404,
      -0.038134176,
      0.16942415,
      -0.7277983,
      -0.07990098,
      -0.07802053,
      -0.45621905,
      -0.011605093,
      0.17977981,
      0.09560398,
      0.83977777,
      -0.59793526,
      0.5866254,
      -0.41673204,
      -0.52707464,
      -0.46728852,
      -0.1985969,
      0.6029663,
      0.006517528,
      -0.19508865,
      -0.27822658,
      0.93394595,
      0.003463052,
      -0.3835439,
      0.17469683,
      0.090501785,
      -0.8833836,
      0.1345455,
      0.7640891,
      -0.7086834,
      -0.83367264,
      0.75124943,
      0.051420692,
      0.36732408,
      -0.7181664,
      -0.14721663,
      -0.773991,
      -0.58282787,
      -0.13848737,
      -0.505564,
      -0.16787535,
      0.8175613,
      0.46922907
    ],
    [
      0.09060915,
      -0.050656963,
      -0.29090872,
      -0.39984393,
      -0.061698824,
      -0.2474399,
      0.059072636,
      -0.10029183,
      0.70231086,
      0.10560556,
      0.12744288,
      -0.44228756,
      0.33998594,
      -0.07510774,
      0.04212399,
      0.4284601,
      0.045385454,
      -0.2880955,
      -0.017155567,
      0.08923429,
      0.044633098,
      -1.2602514,
      1.1785048,
      -0.49125582,
      -0.16937788,
      0.18489397,
      -0.23642081,
      0.8706356,
      0.4394392,
      -0.5254426,
      0.80179656,
      -0.24487717,
      -0.19375683,
      -0.5210934,
      -0.08841793,
      0.02505889,
      -0.24241416,
      0.2801784,
      -0.18279316,
      0.03265375,
      0.18352924,
      0.265348,
      -0.035409834,
      -0.31766066,
      0.70069623,
      -0.6683977,
      -0.29392138,
      -0.22161657,
      -0.59523183,
      -0.046416197,
      0.07278514,
      0.37613165,
      0.15050858,
      0.122661985,
      -0.12635395,
      0.45791182,
      -0.0150884325,
      -0.251412,
      0.17599097,
      -1.2236469,
      -0.17609732,
      0.31009832,
      -0.16860707,
      -0.53329414
    ],
    [
      0.31283382,
      0.926476,
      -0.5890072,
      -0.16677672,
      0.20324421,
      0.017465938,
      -0.035061844,
      -0.055380084,
      -0.19364326,
      0.146992,
      0.082387075,
      -0.58337307,
      -0.32518268,
      -0.28184453,
      0.11297526,
      -0.06844577,
      -0.10879589,
      -0.06298128,
      -0.13555837,
      0.31201366,
      -0.43388054,
      -0.51610035,
      0.8562622,
      0.23740321,
      0.14292417,
      0.6355504,
      -1.1025287,
      0.029693894,
      0.6792877,
      -0.2845812,
      0.73675054,
      -0.014485178,
      -0.009664662,
      0.36496875,
      0.0086547835,
      0.15494022,
      0.36186254,
      -0.16493177,
      -0.20828703,
      -0.4880157,
      0.44570863,
      0.047814444,
      -0.0040588267,
      -0.86130273,
      0.12381492,
      -0.9592727,
      0.2908722,
      0.22941251,
      -0.6305549,
      0.1749646,
      0.12720874,
      0.36336502,
      -0.54040384,
      0.19856867,
      -0.51847947,
      0.13146736,
      -0.21610722,
      0.3044978,
      -0.2188265,
      -0.9361706,
      0.83601826,
      0.28688887,
      0.24670562,
      -0.4421164
    ],
    [
      -0.1306902,
      -0.52012193,
      0.9124542,
      0.16347884,
      -0.35595664,
      -0.12482899,
      -0.18145794,
      0.20936592,
      0.035125617,
      -0.46573043,
      -0.39403898,
      0.703069,
      0.16805342,
      0.5538178,
      -0.5198464,
      0.084591374,
      0.7865673,
      0.030254072,
      0.07498212,
      -0.30248442,
      0.099424824,
      -0.09640763,
      0.2833056,
      -0.22533996,
      -0.7701738,
      -0.03878198,
      0.90102154,
      -0.16193825,
      -0.41480437,
      0.21602625,
      0.08330009,
      -0.22913551,
      0.20027791,
      -0.21189916,
      -0.047510184,
      -0.42877176,
      -0.707634,
      0.16742027,
      0.0990152,
      0.47004998,
      -0.49164373,
      0.29727542,
      0.4129487,
      -0.12076159,
      0.32416216,
      -0.1504581,
      -0.34683228,
      -0.03522329,
      -0.009973656,
      0.028486034,
      -0.63665825,
      -0.033828523,
      0.15116574,
      -0.8328839,
      0.6654636,
      -0.20294438,
      -0.305167,
      -0.6416523,
      -0.3993631,
      0.25544596,
      -0.75530493,
      -0.812713,
      0.058803204,
      0.48189992
    ],
    [
      0.11487126,
      -0.17892987,
      -0.056623165,
      -0.21579231,
      0.037492413,
      -0.09394746,
      0.15931584,
      0.4426807,
      0.7669002,
      0.28122613,
      0.062116057,
      -0.043313477,
      -0.06382492,
      -0.14276624,
      -0.3754609,
      0.34672922,
      0.05340098,
      -0.0046940222,
      -0.16700938,
      -0.18623374,
      -0.12448347,
      -1.1644576,
      0.8271008,
      -0.4795512,
      -0.048454896,
      0.41293725,
      -0.41747302,
      0.7472003,
      0.42834634,
      -0.9051264,
      0.9203026,
      -0.50651443,
      -0.35952914,
      -0.2521317,
      0.42689574,
      0.39243895,
      0.011413676,
      -0.056481067,
      -0.62781215,
      0.020448875,
      0.33066285,
      0.5250176,
      0.3158879,
      -0.36671284,
      0.49825758,
      -0.6273922,
      0.041297533,
      0.24102885,
      -0.75136614,
      0.032344796,
      -0.16738923,
      0.2695238,
      -0.19394264,
      0.39919177,
      0.08175071,
      0.319302,
      -0.060676128,
      -0.068199106,
      -0.123183995,
      -0.81645256,
      0.39247745,
      0.34548578,
      -0.20883845,
      0.030344427
    ],
    [
      -0.053504977,
      0.12065273,
      0.10334943,
      -0.69975674,
      -0.17058234,
      -0.25239033,
      0.6167233,
      -0.09223445,
      0.7905343,
      -0.07882693,
      -0.048573595,
      -0.16854788,
      -0.05886959,
      0.077077165,
      0.0377296,
      0.3958139,
      -0.2161741,
      -0.13188024,
      -0.47587892,
      -0.47859442,
      0.3036569,
      -0.55611557,
      0.6087186,
      -0.23430724,
      0.4151202,
      0.16864772,
      0.107766435,
      0.6424344,
      0.46712637,
      -0.7239212,
      0.4516206,
      -0.36203706,
      0.23828967,
      0.06342794,
      0.9623625,
      0.3549622,
      0.23250636,
      0.2622244,
      -0.24599217,
      -0.05342241,
      0.65893537,
      0.54776615,
      -0.12844129,
      -0.11056816,
      0.2658636,
      0.022358483,
      -0.17336771,
      0.44386438,
      -0.7818361,
      0.26295233,
      -0.055759497,
      0.8797215,
      -0.34506354,
      -0.03572035,
      -0.1979296,
      0.22071505,
      0.06322332,
      0.21362719,
      0.39662462,
      -0.85338956,
      0.14058061,
      -0.17219524,
      0.17663427,
      -0.19268608
    ],
    [
      -0.28297538,
      -0.08113076,
      0.013849679,
      -0.46257854,
      0.18206184,
      0.08738002,
      0.4694495,
      -0.4228851,
      0.3945118,
      0.12956609,
      0.37758422,
      0.07560905,
      -0.15609302,
      -0.16169897,
      -0.024746584,
      0.14036833,
      0.27932724,
      0.26522306,
      -0.34728163,
      -0.5095825,
      0.40989915,
      -0.54298514,
      0.59613234,
      -0.16156277,
      0.02426431,
      0.069550365,
      0.1088303,
      0.83750516,
      0.6655682,
      -0.58891994,
      0.6788305,
      -0.3836666,
      0.24555257,
      -0.13746962,
      0.40613025,
      -0.16843127,
      0.12706086,
      0.092343904,
      -0.5581812,
      0.13148014,
      0.4423764,
      0.51767606,
      0.18668464,
      0.05310513,
      -0.17840011,
      -0.2124995,
      -0.23278065,
      0.29947764,
      -0.59567684,
      0.15295818,
      0.03713524,
      0.6689238,
      0.18814191,
      -0.23743038,
      -0.010455301,
      0.18562299,
      -0.044139545,
      0.07704195,
      -0.27429926,
      -0.23313272,
      0.14868356,
      -0.047384128,
      0.23766938,
      0.10182828
    ],
    [
      0.26444685,
      0.057165902,
      -0.08451436,
      0.47853357,
      0.14597519,
      0.19893649,
      -0.2266902,
      0.021115761,
      -0.4481579,
      0.17354412,
      -0.31713516,
      0.32161164,
      -0.30058625,
      -0.12726957,
      0.3020368,
      -0.3367054,
      0.28659672,
      -0.054990392,
      1.004787,
      0.13302076,
      -0.46687722,
      0.5339773,
      -0.6901979,
      0.115754865,
      -0.024636563,
      -0.07368262,
      0.20541258,
      -0.92468107,
      -0.46721312,
      0.28277904,
      -0.8363555,
      0.08085533,
      0.11765482,
      0.12951106,
      -0.6950859,
      0.075087935,
      0.1044716,
      -0.0081446795,
      0.26265728,
      -0.15259662,
      -0.4859152,
      -0.48541358,
      -0.20316295,
      0.14264205,
      -0.46795595,
      0.5900503,
      -0.31899413,
      -0.18526913,
      0.3185474,
      -0.19327141,
      -0.05815538,
      -0.3387543,
      0.35532168,
      0.05670313,
      -0.15838283,
      -0.49224436,
      0.0054157684,
      0.01826113,
      -0.044592634,
      0.52724856,
      0.17495911,
      -0.056436546,
      0.18806086,
      0.14584507
    ],
    [
      -0.16353826,
      -0.41368648,
      0.90804935,
      -0.15536693,
      -0.31794444,
      0.01868425,
      -0.36004406,
      0.25323552,
      -0.12919983,
      -0.70098543,
      -0.6154152,
      0.8704666,
      0.078747995,
      -0.0015185792,
      -0.14268559,
      0.42286417,
      0.3982508,
      -0.1669625,
      0.123576984,
      -0.21113442,
      -0.010368686,
      0.087417334,
      -0.07452987,
      -0.31882107,
      -0.62022567,
      -0.6425814,
      0.3390469,
      0.1448295,
      -0.6568946,
      -0.03979106,
      -0.43618187,
      -0.11819334,
      -0.059193064,
      -0.22726738,
      0.024674557,
      -0.6425829,
      -0.33450586,
      0.25621024,
      0.15446497,
      0.25983435,
      -0.0034808347,
      -0.1281918,
      0.60575545,
      0.19015178,
      -0.045475196,
      0.108826675,
      -0.37818,
      -0.16038978,
      -0.009020909,
      -0.10884647,
      -0.57962143,
      0.062987335,
      0.39422965,
      -0.5576875,
      0.40160847,
      0.41088098,
      -0.19816703,
      -0.59900296,
      -0.27837124,
      0.48534843,
      -1.2142262,
      -0.5096242,
      -0.016359242,
      0.8371297
    ],
    [
      -0.082612015,
      -0.2369587,
      0.1766658,
      0.40974113,
      -0.5758474,
      -0.982645,
      -0.8962099,
      0.52282685,
      -0.9579249,
      0.01291677,
      -0.35566238,
      -0.020571277,
      -0.63592637,
      0.14731963,
      -0.69815725,
      -0.25847638,
      0.37689218,
      0.29352608,
      0.6147732,
      1.1431217,
      -0.204979,
      -0.0909876,
      -0.2690596,
      -0.075907886,
      -0.5063734,
      0.015052306,
      0.11394703,
      -0.4996159,
      0.043974012,
      0.32049617,
      -0.07953642,
      0.35089937,
      -0.5491397,
      0.5465838,
      -0.56118584,
      -0.84375167,
      -0.7576529,
      -0.25163957,
      0.8278977,
      0.047315296,
      -0.40867192,
      -0.21552373,
      0.6264725,
      0.13886522,
      -0.35999253,
      -0.082507685,
      -0.14527588,
      -0.48357773,
      -0.21621695,
      0.43043187,
      -0.36667705,
      -0.65651214,
      0.716335,
      -0.28468066,
      0.42493808,
      -0.74157447,
      -0.30155915,
      -0.6575694,
      -0.41258815,
      -0.021414954,
      0.17698008,
      -0.043608874,
      0.89120877,
      0.55041844
    ],
    [
      -0.028897235,
      -0.56383127,
      1.2170438,
      0.19778986,
      -0.36277062,
      -0.50539625,
      -0.10300857,
      0.11388157,
      -0.11736111,
      -0.22516955,
      -0.7037203,
      0.68802977,
      -0.23195326,
      0.40489653,
      -0.13834605,
      0.056306846,
      0.5289928,
      0.3367538,
      0.18823141,
      -0.23884451,
      0.4142722,
      0.21442409,
      0.14577234,
      -0.42325747,
      -0.5085293,
      -0.5647664,
      0.52195734,
      -0.3177474,
      -0.054464832,
      0.0029981656,
      -0.14894235,
      -0.062536806,
      0.24711426,
      -0.2624946,
      -0.038577594,
      -0.55695593,
      -0.50327224,
      -0.17802706,
      -0.2789798,
      0.56921273,
      -0.31486753,
      -0.14730333,
      0.55891705,
      0.56575906,
      0.6555252,
      0.11624759,
      -0.61908925,
      0.16464753,
      0.053607076,
      -0.25532395,
      -0.81586707,
      0.13562925,
      0.5387797,
      -0.514237,
      0.45706624,
      0.19601566,
      -0.045413177,
      -0.6478545,
      -0.46668646,
      0.27763554,
      -0.96325696,
      -0.4831311,
      0.046871133,
      0.7304854
    ],
    [
      -0.4160524,
      -0.76370066,
      1.2759008,
      0.01593067,
      -0.046820585,
      -0.19317737,
      0.061274428,
      0.04882703,
      -0.23638631,
      -0.33936945,
      -0.99323106,
      0.41291288,
      0.24053334,
      0.118549116,
      -0.46230707,
      0.5449117,
      0.8449642,
      0.19726707,
      0.08597877,
      -0.09042676,
      0.009216563,
      -0.1892294,
      0.109489225,
      -0.024737593,
      -0.5449111,
      -0.16470845,
      0.45325807,
      -0.28713095,
      -0.3882191,
      0.064619176,
      -0.1617693,
      -0.100910634,
      -0.2861698,
      -0.18347113,
      0.019005213,
      -0.09602908,
      -0.7229154,
      0.11077529,
      0.1556724,
      0.6032437,
      0.0026978897,
      0.2211665,
      0.6769926,
      0.5859637,
      0.29011437,
      0.017733896,
      -0.464198,
      -0.09681473,
      0.20815738,
      -0.049672775,
      -0.6368022,
      0.095830254,
      0.6067523,
      -0.48187178,
      0.9890135,
      0.173841,
      -0.52759296,
      -0.5705525,
      -0.25320828,
      -0.007426337,
      -0.78279585,
      -0.58132434,
      0.0013026724,
      0.42546296
    ],
    [
      0.46888876,
      -0.4732198,
      0.11656568,
      0.40671158,
      -0.2199764,
      0.52409494,
      0.17006408,
      -0.031838115,
      -0.59827274,
      0.110639706,
      0.19882694,
      0.53571206,
      0.27806988,
      0.15294643,
      0.34868035,
      -0.06931493,
      0.3622338,
      -0.09731729,
      0.029199064,
      -0.019288823,
      -0.24431044,
      -0.2934124,
      -0.23703043,
      0.29141325,
      -0.008980121,
      -0.14592898,
      1.1184179,
      -0.32952896,
      0.088959835,
      0.19338371,
      -0.39351833,
      -0.054315798,
      0.38627118,
      0.21902278,
      -0.46398997,
      0.22069508,
      0.06631565,
      -0.2911122,
      0.34027535,
      0.24846666,
      -0.09246005,
      -0.49337032,
      0.009400347,
      0.21049123,
      0.057300206,
      0.4354583,
      0.2029469,
      0.10990193,
      0.22876635,
      -0.21556571,
      -0.18514994,
      -0.25620517,
      -0.040677715,
      -0.17148016,
      -0.37682328,
      0.097997606,
      0.552996,
      0.11316648,
      0.24126409,
      0.27356476,
      -0.27186278,
      -0.15238497,
      0.15568261,
      0.3153484
    ],
    [
      -0.019531421,
      -0.019516915,
      0.01985029,
      -0.3793734,
      -0.008591649,
      -0.16648223,
      0.4110628,
      -0.22882359,
      1.0853677,
      -0.11306833,
      0.3453925,
      -0.079370014,
      0.06768681,
      -0.025459943,
      -0.32673258,
      0.38907593,
      0.019701457,
      -0.2368518,
      -0.29021358,
      -0.46016023,
      0.17553984,
      -0.830299,
      0.46789518,
      0.21865383,
      0.14447212,
      0.027113263,
      -0.08768107,
      0.44360465,
      0.5919382,
      -0.8647573,
      0.79517806,
      -0.078966215,
      0.14693286,
      -0.036094654,
      0.6768057,
      -0.008559898,
      0.0796878,
      0.2912556,
      -0.83199006,
      0.07929655,
      0.5171425,
      0.23398061,
      -0.085043795,
      0.11496424,
      -0.09263667,
      -0.34720457,
      -0.054786265,
      0.72292864,
      -0.666961,
      -0.15682967,
      0.64886403,
      0.75311553,
      -0.41242036,
      -0.07425353,
      -0.13097915,
      0.36965632,
      -0.21685885,
      0.06486366,
      -0.036793564,
      -0.7742905,
      0.02206929,
      -0.10566162,
      -0.28665912,
      -0.20592156
    ],
    [
      0.25888023,
      -0.2589866,
      -0.28398255,
      -0.7847714,
      -0.029684393,
      -0.18333334,
      0.3906806,
      -0.01656841,
      0.38849708,
      -0.102268256,
      0.34850347,
      0.07695968,
      0.090331025,
      -0.21287616,
      -0.071873635,
      0.07575713,
      0.20273024,
      0.072428934,
      -0.48394293,
      -0.47224584,
      0.35194868,
      -0.58527464,
      0.22434384,
      -0.3279464,
      -0.20383696,
      -0.04724394,
      0.21005827,
      0.63904595,
      0.4173544,
      -0.3045703,
      0.73534095,
      -0.07340226,
      -0.23874874,
      -0.16222534,
      0.8488408,
      0.18086575,
      -0.034846105,
      0.2876193,
      -0.40125364,
      -0.18427335,
      0.6327844,
      0.32047802,
      -0.19083022,
      0.097451836,
      0.16790868,
      -0.51254654,
      -0.070501775,
      0.40281188,
      -0.6809793,
      -0.05214841,
      0.05566233,
      1.1574515,
      -0.24534552,
      0.2568027,
      0.06329643,
      0.14726089,
      0.11355281,
      0.20936655,
      -0.30341092,
      -0.6935452,
      0.08257917,
      -0.028004177,
      -0.26788077,
      -0.25024304
    ],
    [
      -0.4009471,
      -0.639824,
      0.7002269,
      0.10009487,
      -0.5966462,
      0.2830231,
      0.31890085,
      -0.007047619,
      -0.2995372,
      -0.6483217,
      -0.48266786,
      0.52532893,
      0.041862242,
      0.5522108,
      -0.18814926,
      0.05946574,
      0.6570215,
      0.052535817,
      0.09038756,
      -0.23475297,
      0.21037865,
      0.2593045,
      -0.35474634,
      -0.24984737,
      -0.7099832,
      -0.8495165,
      0.8769436,
      0.15761262,
      -0.35876358,
      0.026898414,
      -0.5245394,
      0.0011449609,
      0.42686498,
      -0.0147388205,
      -0.019903515,
      -0.47448692,
      -0.13983417,
      0.46353495,
      -0.35521302,
      0.44193846,
      -0.5970403,
      0.11604243,
      0.24172574,
      0.46193802,
      0.16646436,
      0.23876218,
      -0.1199582,
      0.12820327,
      0.57022184,
      -0.11238171,
      -0.78260946,
      0.34928024,
      0.75481516,
      -0.40744194,
      0.48952353,
      0.39927182,
      -0.24004897,
      -0.56909144,
      -0.14641766,
      0.39558634,
      -0.3123918,
      -0.61322767,
      -0.038343318,
      0.6323477
    ],
    [
      -0.49768132,
      -0.6395643,
      0.5724361,
      0.3627855,
      -0.09849679,
      0.0014117875,
      0.06583986,
      0.4646868,
      -0.16786698,
      -0.26175463,
      -0.64771146,
      0.9358423,
      0.036943395,
      0.5917446,
      -0.3898108,
      0.65498114,
      0.3051928,
      0.20205168,
      0.05351739,
      -0.11462296,
      0.3935046,
      0.22913097,
      -0.1255487,
      -0.6038506,
      -1.0128745,
      -0.6250287,
      1.0265428,
      -0.10896923,
      -0.30598524,
      0.19676605,
      -0.10698032,
      0.066027775,
      0.26599798,
      0.25608566,
      -0.22079352,
      -0.81044275,
      -0.25696424,
      0.25355652,
      0.073928684,
      0.8246932,
      -0.17295362,
      -0.106098294,
      0.45346278,
      0.46778423,
      -0.03882725,
      0.034409247,
      -0.45358852,
      -0.043094512,
      0.19918904,
      0.0864504,
      -0.7250928,
      -0.041495614,
      0.6299179,
      -0.40069318,
      0.3851902,
      0.06861059,
      -0.29456505,
      -0.23201014,
      -0.43934083,
      0.2867509,
      -0.47131214,
      -0.3305613,
      0.18097919,
      0.3600944
    ],
    [
      -0.06796292,
      -0.7951105,
      0.7433983,
      0.13016716,
      -0.4736788,
      0.38994327,
      -0.03499635,
      0.65264374,
      0.1417397,
      -0.23089492,
      -0.67112,
      0.72686446,
      -0.18540752,
      0.48151976,
      -0.064910345,
      0.055681456,
      0.73370624,
      0.15404822,
      0.024831384,
      0.0042437497,
      -0.1986718,
      0.3681315,
      -0.040120736,
      -0.18946138,
      -0.60530174,
      -0.5105758,
      0.8213779,
      0.09175469,
      -0.041024838,
      0.0027206477,
      0.12566009,
      0.1403792,
      0.059956726,
      -0.17170769,
      -0.06022625,
      -0.6755146,
      -0.34798816,
      -0.09202074,
      0.26013803,
      0.5770975,
      -0.056525953,
      0.069874346,
      0.6270011,
      0.67403644,
      0.21847491,
      0.19095793,
      -0.516071,
      0.16363649,
      -0.15019645,
      0.2020253,
      -0.8140465,
      -0.06341648,
      0.46186823,
      -0.7332676,
      0.35254592,
      -0.079787694,
      -0.67462206,
      -0.66155684,
      -0.45269826,
      0.18233491,
      -0.71321297,
      -0.5058528,
      0.07991322,
      0.2674244
    ],
    [
      -0.6613546,
      -0.8236042,
      0.4854434,
      0.2717206,
      -0.12301834,
      0.15628465,
      0.021545691,
      -0.0155184455,
      -0.2788652,
      0.2314069,
      -0.24821416,
      0.56260747,
      0.014245853,
      0.51785266,
      -0.057636783,
      -0.027675709,
      0.5349174,
      -0.07406402,
      0.25968945,
      -0.008120307,
      0.14541356,
      0.78522813,
      -0.6535308,
      0.014564344,
      -0.317831,
      -0.89133865,
      0.9452148,
      -0.009753019,
      -1.0154485,
      0.40770498,
      -0.87272674,
      0.15021387,
      0.09005607,
      -0.1452391,
      -0.07060819,
      -0.374567,
      0.23405519,
      0.4196526,
      0.1411845,
      0.540463,
      -0.046927877,
      0.038997643,
      0.1058311,
      0.6443583,
      0.07611071,
      0.56375194,
      -0.36204603,
      0.10446584,
      0.85993177,
      -0.6255615,
      -0.18697377,
      -0.29699105,
      0.020476518,
      -0.38282806,
      0.50820357,
      -0.21932913,
      0.20476693,
      -0.27732784,
      0.20852225,
      0.55621237,
      -0.79996073,
      -0.49087274,
      -0.047389578,
      0.38977763
    ],
    [
      0.06430986,
      0.28146395,
      -0.58360165,
      -0.061231676,
      0.3232477,
      0.27731863,
      0.63533664,
      -0.4575595,
      0.28867692,
      0.4281985,
      0.5142551,
      -0.34222698,
      0.24383795,
      -0.22747643,
      0.6424262,
      0.008149116,
      -0.70366555,
      0.20403142,
      -0.4142631,
      -0.12572832,
      -0.051701423,
      0.21896623,
      -0.10052572,
      0.32755992,
      0.07752952,
      -0.118982404,
      -0.47054592,
      0.083447635,
      -0.10133154,
      -0.05385764,
      -0.090347774,
      -0.039105516,
      0.120809704,
      -0.16006844,
      0.45280588,
      0.68554944,
      0.2638572,
      0.1724662,
      -0.2300581,
      -0.19830969,
      -0.2698022,
      0.37307593,
      -0.5455227,
      -0.3336838,
      -0.4183516,
      0.42796782,
      0.43243742,
      0.19101474,
      -0.3269161,
      -0.35509902,
      0.39258116,
      0.5874548,
      -0.57204986,
      0.17791769,
      -0.599288,
      0.31717724,
      0.71290994,
      0.37622312,
      0.49976894,
      0.06755577,
      0.15838742,
      0.57004464,
      -0.18418463,
      -0.43412825
    ],
    [
      -0.6150929,
      -0.8807507,
      0.7751907,
      0.43274438,
      -0.32661772,
      -0.071028955,
      -0.077172995,
      0.58942944,
      -0.033278644,
      -0.7803619,
      -0.4034086,
      0.5869898,
      0.009864123,
      0.69957864,
      0.14248869,
      -0.15676728,
      0.41525975,
      0.039504685,
      -0.04354215,
      -0.096419156,
      0.022899719,
      -0.06605082,
      0.3418252,
      -0.077908985,
      -0.78951895,
      -0.65045583,
      0.7983255,
      0.00065622083,
      -0.081438705,
      0.36325198,
      -0.14857395,
      0.19466363,
      0.29614642,
      0.0062194453,
      0.06348515,
      -0.54292303,
      -0.2293652,
      0.4897654,
      0.2785777,
      0.46530187,
      -0.11989961,
      0.022720655,
      0.35530868,
      0.65687937,
      0.008833247,
      0.15960802,
      -0.43537349,
      0.11824054,
      0.12536104,
      -0.2313106,
      -0.8624888,
      -0.040927738,
      0.7371755,
      -0.50347495,
      0.6919869,
      -0.098807245,
      -0.3695528,
      -0.48543474,
      -0.3697105,
      0.5848711,
      -0.4633104,
      -0.19679293,
      -0.016574975,
      0.84668523
    ],
    [
      -0.4810962,
      -0.63253653,
      0.8776334,
      0.35380778,
      -0.3876314,
      0.06351392,
      -0.11787921,
      0.35366946,
      0.07211799,
      -0.54292554,
      -0.5151268,
      0.76326483,
      0.13718443,
      0.19309524,
      -0.3404189,
      0.4164441,
      0.7575394,
      -0.11305907,
      0.16331989,
      0.014559659,
      0.18241209,
      0.26345947,
      0.06600388,
      -0.16087106,
      -0.639619,
      -0.31203026,
      0.908447,
      0.16073184,
      -0.21194914,
      0.21617733,
      0.05205312,
      -0.15780407,
      0.007619765,
      -0.42432755,
      0.36973846,
      -0.78776765,
      -0.652035,
      -0.20025758,
      0.14518727,
      0.49362049,
      -0.50966907,
      -0.023462694,
      0.68810904,
      0.34729356,
      0.26038262,
      0.19904792,
      -0.48391375,
      -0.03345831,
      0.43419173,
      -0.44839245,
      -0.787052,
      -0.12223211,
      0.6979381,
      -0.2964413,
      0.36814818,
      0.18300024,
      -0.35577178,
      -0.49585494,
      -0.28478768,
      -0.23712158,
      -0.7084087,
      -0.51863754,
      -0.0005426096,
      0.9373426
    ],
    [
      0.2668979,
      0.73394877,
      -0.7107024,
      -0.30037645,
      0.7025104,
      -0.066064954,
      -0.17729712,
      -0.4591816,
      0.584605,
      0.8137196,
      0.6497762,
      -0.43791017,
      0.1710698,
      -0.7186434,
      -0.06159622,
      -0.23104218,
      -0.60121125,
      -0.3058768,
      -0.34525695,
      0.010208578,
      0.01931701,
      -0.2941609,
      -0.2177786,
      0.3392447,
      0.6133736,
      0.7268213,
      -0.77842253,
      0.17599675,
      0.001991922,
      -0.26847562,
      -0.28430414,
      0.22942486,
      -0.0043475907,
      0.10767577,
      0.17228268,
      0.6823124,
      0.48372158,
      -0.0661554,
      0.116564386,
      -0.7872463,
      0.09548327,
      -0.11688215,
      -0.38061997,
      -0.44013357,
      0.26298335,
      0.19582549,
      0.26498842,
      0.18221098,
      0.18795891,
      0.09174702,
      0.6885604,
      0.22847016,
      -0.60223746,
      0.46907184,
      -0.4676528,
      0.028236147,
      0.40169105,
      0.10304583,
      0.18955494,
      -0.28885606,
      0.6560449,
      0.75511825,
      0.14793192,
      -0.55211747
    ],
    [
      0.20988545,
      0.27139685,
      -0.2768166,
      -0.57970774,
      0.43840253,
      0.09843639,
      0.4116653,
      -0.4127345,
      0.7455043,
      -0.06436921,
      0.014266733,
      -0.32403794,
      0.25317284,
      0.11767242,
      0.0040623858,
      0.34488153,
      -0.36670795,
      -0.60371524,
      -0.44335377,
      -0.16498776,
      0.024725655,
      -0.88482183,
      0.5226241,
      -0.30924225,
      0.36330286,
      -0.061253432,
      0.40954715,
      1.0356152,
      0.67867035,
      -0.71650994,
      0.71378994,
      -0.26995033,
      -0.20834434,
      -0.20041162,
      0.3736416,
      0.3441342,
      -0.17225768,
      0.16073997,
      -0.57580173,
      -0.020163678,
      0.59412223,
      0.8015232,
      -0.088847734,
      -0.022149667,
      0.49155474,
      -0.43427652,
      0.12767479,
      0.122117385,
      -0.6619888,
      0.0024184068,
      0.056352835,
      0.5437464,
      -0.46553132,
      0.0633416,
      0.027846377,
      0.2631142,
      0.0062517817,
      0.0922393,
      -0.31369665,
      -0.8329455,
      0.037051473,
      0.036403928,
      -0.49056134,
      0.0787811
    ],
    [
      -0.12184743,
      0.1580374,
      -0.11815058,
      -0.754089,
      0.064421676,
      0.065924086,
      0.43140233,
      0.23156117,
      0.80285674,
      -0.30397505,
      -0.16673869,
      0.074686706,
      0.12713806,
      0.26392272,
      0.18202677,
      0.3549317,
      0.15266834,
      -0.08424308,
      -0.69513077,
      -0.0836755,
      0.4043968,
      -0.69645405,
      0.21028468,
      0.011060143,
      0.48232076,
      0.048989356,
      0.18083201,
      0.69661665,
      0.42828703,
      -0.62658805,
      0.53411573,
      -0.2813017,
      0.039302867,
      -0.51503634,
      0.42321363,
      0.20119081,
      0.25401473,
      0.44922575,
      -0.8483347,
      0.034901522,
      0.31680205,
      0.57027346,
      -0.13001513,
      -0.08698937,
      0.43755323,
      0.014715937,
      0.28361595,
      0.29654104,
      -0.3604541,
      -0.12654462,
      0.5181039,
      0.9670349,
      -0.45507136,
      -0.13058123,
      0.0053579756,
      0.46665025,
      0.38057515,
      0.43979776,
      0.13527006,
      -0.34542203,
      0.02160832,
      0.28396946,
      -0.30425686,
      -0.3707923
    ],
    [
      -0.14632677,
      -0.08949416,
      0.104500726,
      0.56980306,
      0.08886782,
      0.33170962,
      -0.18803033,
      0.240044,
      -0.4017438,
      -0.12438828,
      -0.3194753,
      -0.2784981,
      -0.37697452,
      -0.14554863,
      0.26194027,
      -0.6772129,
      -0.094769545,
      0.4426284,
      0.46033275,
      0.2264695,
      0.057364758,
      1.4209547,
      -0.6131829,
      0.084820695,
      -0.42794663,
      -0.06531506,
      0.1400154,
      -0.93608624,
      -0.47606435,
      0.20669648,
      -0.49935994,
      0.3316509,
      0.4713002,
      0.7865409,
      -0.7364767,
      -0.13991243,
      -0.25362957,
      0.029942201,
      0.36444658,
      -0.2504227,
      -0.37527004,
      -0.74943435,
      0.15464768,
      0.1385293,
      -0.6243213,
      0.5598719,
      0.021732952,
      0.014986505,
      0.5048706,
      -0.44204062,
      -0.09947108,
      -0.042510476,
      0.05330072,
      0.09680094,
      0.0527074,
      -0.33480504,
      -0.100723244,
      0.30542475,
      -0.008553316,
      0.82043505,
      -0.11674127,
      -0.32908952,
      0.5098122,
      0.4442127
    ],
    [
      0.052854862,
      0.05081152,
      -0.30824786,
      -0.03478556,
      0.211829,
      0.60181457,
      0.32521236,
      -0.2140114,
      0.6582088,
      -0.09645042,
      0.20441326,
      0.0016417236,
      0.6231505,
      0.19896008,
      0.42196113,
      0.7524511,
      -0.32256785,
      -0.10695411,
      -0.85393906,
      -0.5148166,
      0.20381726,
      0.030235406,
      -0.024447275,
      0.33432925,
      0.6307874,
      -0.0766949,
      -0.25156546,
      0.79851437,
      0.3868571,
      -0.45065773,
      0.16822393,
      -0.8440839,
      0.6057822,
      -0.5155745,
      0.59930146,
      0.7383529,
      0.24403648,
      0.4554313,
      -0.5998964,
      -0.09583473,
      0.28246346,
      0.45185012,
      -0.7974818,
      0.28286105,
      0.29400453,
      -0.39796913,
      -0.09632686,
      0.72630215,
      -0.14784478,
      -0.3108094,
      0.16544186,
      0.8513818,
      -0.69032884,
      -0.027982296,
      -0.41335863,
      0.4085821,
      0.51989716,
      0.4964563,
      0.18114474,
      -0.4472178,
      0.1803969,
      0.06323451,
      -0.3879677,
      -0.27144417
    ],
    [
      -0.44663402,
      -0.71191865,
      0.8579,
      -0.050655086,
      -0.21752593,
      -0.12634167,
      0.20963882,
      0.49785018,
      -0.07590835,
      -0.22469772,
      -1.0580308,
      0.6825843,
      0.124084435,
      0.19720623,
      0.003632703,
      0.10553795,
      0.7619467,
      -0.22864437,
      0.07713467,
      -0.22257096,
      0.42403167,
      -0.09890288,
      0.16338208,
      -0.0652927,
      -0.7622521,
      -0.23817414,
      0.4106146,
      -0.06806179,
      -0.023291215,
      -0.044078737,
      -0.32013834,
      0.14269252,
      0.18697199,
      -0.23985226,
      0.0032046698,
      -0.6540267,
      -0.816272,
      -0.34271967,
      0.072766595,
      0.63364625,
      -0.21684413,
      0.14315249,
      0.4685043,
      0.3249708,
      0.00816476,
      -0.1409185,
      -0.47476104,
      -0.09256468,
      0.05402925,
      0.31048223,
      -0.37544876,
      0.060241308,
      0.28531784,
      -0.5014633,
      0.7023233,
      -0.050875977,
      -0.114067465,
      -0.9053497,
      -0.30044693,
      -0.15889736,
      -0.75045705,
      -0.80781835,
      -0.2721246,
      0.7561701
    ],
    [
      0.24581893,
      1.0273027,
      -0.60955757,
      -0.23214878,
      0.22655587,
      0.27912036,
      0.11963042,
      -0.23093879,
      0.3197058,
      0.7358708,
      0.6835439,
      -0.6441948,
      0.28589115,
      -0.8245295,
      0.06910784,
      -0.19262527,
      -0.89612305,
      -0.15552406,
      0.21349646,
      0.20592849,
      -0.37298158,
      -0.32167017,
      -0.07910962,
      0.37416446,
      0.45294988,
      0.4439069,
      -0.75428754,
      -0.13384232,
      0.42184883,
      -0.164464,
      0.1921649,
      -0.30355775,
      -0.27733016,
      0.35843328,
      0.1979353,
      0.33093503,
      0.368335,
      -0.047429364,
      -0.078502044,
      -0.65096056,
      0.20284013,
      0.047236003,
      -0.45764744,
      -0.22717549,
      0.37092578,
      -0.32462233,
      0.35392252,
      -0.061563484,
      -0.29704496,
      0.36628878,
      0.804545,
      -0.117951885,
      -0.5474294,
      0.37880683,
      -0.07675757,
      0.05872767,
      0.55563945,
      0.3103989,
      0.36247823,
      -0.32652086,
      0.58665323,
      0.67357904,
      0.019571045,
      -0.6910115
    ],
    [
      -0.2571714,
      0.11459721,
      -0.02769109,
      -0.11976462,
      0.11553902,
      -0.6198452,
      -0.08806936,
      0.22085552,
      0.5180324,
      0.22967717,
      0.35672104,
      0.083475225,
      0.7449833,
      0.11730928,
      -0.52498156,
      0.25075746,
      0.043783586,
      -0.4888064,
      0.0099657895,
      0.27601036,
      -0.2574215,
      -0.7263101,
      0.4116536,
      0.19288284,
      -0.090380505,
      0.097898744,
      -0.09937722,
      0.7517821,
      -0.21830407,
      0.09992325,
      -0.16351584,
      -0.49985448,
      -0.5510216,
      -0.38743186,
      -0.25158712,
      0.05388658,
      0.33784902,
      -0.5030039,
      -0.09997894,
      -0.075447984,
      0.13710387,
      0.26009345,
      -0.44574577,
      0.47149384,
      0.347501,
      0.06790686,
      0.26751444,
      -0.6610047,
      -0.09971206,
      -0.029957468,
      -0.036513504,
      0.18421522,
      -0.19110358,
      -0.0034407056,
      0.112768546,
      0.21304917,
      0.36248296,
      -0.0079451315,
      0.215843,
      -0.5470281,
      -0.2581497,
      -0.09274037,
      -0.23582967,
      -0.066430636
    ],
    [
      0.079887085,
      0.056911092,
      -0.080747195,
      0.37314865,
      0.40664524,
      -0.7479635,
      -0.64006567,
      0.49238297,
      -1.025415,
      -0.1678861,
      -0.09039821,
      -0.11052727,
      -0.5356997,
      -0.013146348,
      -0.19172926,
      -0.53170913,
      0.2855087,
      0.19992055,
      0.65964806,
      0.55069834,
      -0.7061678,
      0.29422778,
      -0.39614093,
      0.03289525,
      -0.42497084,
      0.06734312,
      0.30414203,
      -0.5753771,
      -0.12241154,
      0.29542595,
      -0.2451691,
      0.23604085,
      0.039323587,
      0.6536579,
      -0.23414811,
      -0.40601483,
      -0.38650286,
      -0.54118747,
      0.45891917,
      -0.13615422,
      -0.2240795,
      -0.34653187,
      0.8212829,
      0.0065433704,
      -0.45543596,
      0.022931084,
      -0.28105584,
      -0.26138496,
      0.5471369,
      0.38893387,
      -0.09062907,
      -0.7202794,
      0.54642487,
      -0.32655355,
      0.31664416,
      -0.3766463,
      -0.3890487,
      -0.37074822,
      -0.10552132,
      0.232513,
      -0.18634903,
      -0.035486724,
      0.529659,
      0.0104714725
    ],
    [
      -0.1947091,
      -1.1318177,
      1.120639,
      -0.09920401,
      -0.17620197,
      -0.070656255,
      -0.2419569,
      0.45018324,
      -0.19073549,
      -0.32933062,
      -0.4632936,
      0.8409824,
      0.07800285,
      0.82264835,
      -0.10494374,
      0.14113332,
      0.4340939,
      0.33419955,
      0.29911336,
      -0.19323248,
      -0.132989,
      0.30141908,
      0.12879375,
      -0.2570137,
      -0.64437217,
      -0.7714474,
      0.8545032,
      -0.04365685,
      -0.12771599,
      0.5151393,
      -0.16482097,
      0.24262746,
      0.4228981,
      -0.113962345,
      -0.31996492,
      -0.80234855,
      -0.6450312,
      0.21696298,
      0.06411869,
      0.24645707,
      -0.13648748,
      0.24475709,
      0.7548391,
      0.40756622,
      0.11520301,
      0.23165037,
      -0.18802492,
      0.02820539,
      0.025309538,
      -0.02662789,
      -0.59566754,
      -0.30011904,
      0.59001285,
      -0.28866577,
      0.2563712,
      0.27571175,
      -0.34109807,
      -0.40490994,
      -0.2997035,
      -0.039094247,
      -0.03413032,
      -0.66090256,
      0.02806153,
      0.69750214
    ],
    [
      -0.330159,
      -0.22598661,
      0.14638315,
      0.31730166,
      -0.004265945,
      0.4266894,
      -0.3037745,
      0.047850683,
      -0.3126382,
      -0.5020897,
      0.11406384,
      -0.025855834,
      -0.54926056,
      0.47658387,
      0.16034922,
      -0.16105066,
      0.22833566,
      -0.06309825,
      0.20709704,
      -0.040176276,
      0.16256672,
      1.2555927,
      -0.93026555,
      0.28290322,
      -0.12874837,
      -0.6521228,
      0.2741143,
      -0.6220114,
      -0.56805503,
      0.7130159,
      -1.1149211,
      0.37864903,
      0.33262864,
      0.5858598,
      -0.5104639,
      0.29553366,
      0.19486366,
      -0.4031016,
      0.45838788,
      0.046834446,
      -0.35210562,
      -0.27234504,
      0.09867504,
      0.32310498,
      -0.28984547,
      0.25749496,
      0.11232256,
      -0.0067619905,
      0.51003987,
      -0.1553123,
      0.268911,
      -0.4064942,
      0.45373392,
      0.0019284124,
      -0.09553193,
      -0.5393871,
      0.19535199,
      0.16850883,
      0.015542457,
      1.0911431,
      -0.038813237,
      -0.018991834,
      0.3262616,
      -0.04414092
    ],
    [
      0.39899454,
      0.5700647,
      -0.82793784,
      -0.27888554,
      0.30729473,
      0.122673824,
      -0.08462357,
      -0.49097365,
      0.063107766,
      0.6596299,
      0.58778787,
      -0.55708903,
      -0.18757051,
      -0.383062,
      0.12164935,
      0.15749131,
      -0.81989473,
      -0.18908766,
      0.08817654,
      0.48914334,
      -0.36357787,
      -0.44910228,
      0.3203725,
      0.17335588,
      0.6753859,
      0.56603545,
      -0.7494601,
      0.04132264,
      0.14340961,
      -0.28702304,
      0.41190338,
      0.2731811,
      -0.09438649,
      0.2739279,
      0.38880086,
      0.49129084,
      0.2921068,
      -0.39597034,
      -0.20737451,
      -0.7833672,
      0.42956716,
      0.122598834,
      -0.89067,
      -0.25553122,
      0.05409897,
      -0.034461472,
      0.6887467,
      -0.22411023,
      0.12939963,
      0.10914706,
      0.80214846,
      0.33383113,
      -0.522576,
      0.32595462,
      -0.7181111,
      -0.36904222,
      0.37490374,
      0.23841056,
      0.3199185,
      0.0055357614,
      0.5218098,
      0.5694893,
      -0.13500583,
      -0.7358545
    ],
    [
      0.038558383,
      0.41786876,
      -0.6933277,
      -0.25561616,
      0.034575954,
      0.22950508,
      0.09122653,
      -0.20464799,
      -0.024430413,
      -0.024894658,
      0.9334745,
      -0.56220645,
      -0.2569571,
      -0.343147,
      0.5312291,
      -0.15981677,
      -0.78496486,
      0.20533246,
      -0.043093074,
      0.18998994,
      -0.2111051,
      -0.16353814,
      -0.043135177,
      0.26552963,
      0.50310534,
      0.16645539,
      -0.44195428,
      -0.16680682,
      0.42170036,
      -0.173981,
      -0.08175472,
      -0.08291036,
      0.13198812,
      0.27796713,
      -0.05473432,
      0.18262224,
      0.75362414,
      0.03758593,
      0.14450996,
      -0.25944605,
      -0.0069408813,
      0.25686038,
      -0.17850752,
      -0.26205143,
      -0.18333232,
      0.093036346,
      0.114045,
      -0.086817056,
      0.30539918,
      -0.014345078,
      0.36679295,
      0.15032431,
      -0.8939953,
      0.77078557,
      -0.9287966,
      -0.4251557,
      0.20899758,
      0.75932556,
      -0.14716801,
      -0.045493353,
      0.8323322,
      0.64826715,
      -0.09871458,
      -0.7881015
    ],
    [
      -0.31413898,
      -0.37299696,
      0.25894266,
      0.6582931,
      0.04251111,
      0.090997905,
      -0.36804283,
      0.22197689,
      -0.66264045,
      -0.50870895,
      0.07219076,
      0.088655375,
      -0.044243596,
      -0.2009537,
      0.5166927,
      -0.435351,
      0.15165918,
      0.004869245,
      0.38417622,
      0.24444833,
      0.20241888,
      1.0999753,
      -0.88272965,
      0.13679768,
      0.07417077,
      -0.38740793,
      0.22021188,
      -0.54437834,
      -0.899574,
      0.6273374,
      -0.66434056,
      0.42828447,
      0.052410062,
      0.64993113,
      -0.3687476,
      0.018657014,
      0.12878941,
      -0.09896259,
      0.061990168,
      0.2553386,
      -0.3215758,
      -0.19257733,
      -0.35974312,
      0.289417,
      -0.3588374,
      0.6109704,
      0.039559104,
      -0.26692575,
      0.6723058,
      -0.041158896,
      -0.21102022,
      -0.73852056,
      -0.033832606,
      -0.35892272,
      -0.30019143,
      -0.080855235,
      0.30985272,
      -0.26765642,
      0.04077597,
      0.7685603,
      0.15576695,
      -0.2229981,
      0.20747246,
      -0.1066648
    ],
    [
      0.81729126,
      0.74592173,
      -0.35527915,
      -0.49917415,
      0.4959792,
      0.29178828,
      0.010566658,
      0.30478978,
      -0.04977492,
      0.12949233,
      0.39085394,
      -1.1329893,
      -0.5189784,
      -0.10237581,
      -0.024053633,
      -0.09804474,
      -0.39562267,
      0.17121606,
      0.0016531553,
      0.10857146,
      -0.16807522,
      -0.59661686,
      0.7493898,
      -0.0504279,
      0.24957731,
      0.6919125,
      -0.8946226,
      -0.03095631,
      0.5893287,
      -0.4355209,
      0.45487663,
      -0.036441956,
      -0.14864907,
      0.17722882,
      0.2710917,
      0.10437004,
      0.18202387,
      0.018352028,
      0.15922439,
      -0.10842286,
      0.033343982,
      -0.052388832,
      -0.41375723,
      -0.46410266,
      -0.31184736,
      -0.5926709,
      0.2833418,
      0.2941271,
      -0.39438173,
      0.12374944,
      0.3221174,
      -0.1691317,
      -0.26222658,
      0.09768279,
      -0.5365536,
      0.031746738,
      0.15121393,
      0.50332224,
      -0.38494986,
      -0.7329557,
      0.97206616,
      0.46304905,
      0.3350606,
      -0.2929633
    ],
    [
      -0.06062417,
      -0.038823847,
      0.37015823,
      -0.29040048,
      -0.054725047,
      -0.229754,
      -0.14775023,
      0.20378552,
      -0.017211605,
      0.34854364,
      -0.5769046,
      0.0019622033,
      1.0599575,
      -0.3101309,
      -0.77423584,
      0.37152705,
      0.44900897,
      -0.4886023,
      0.2378491,
      -0.022113984,
      -0.14503789,
      -0.19674776,
      0.120152265,
      -0.05474614,
      -0.007992148,
      0.118071996,
      0.037406497,
      0.34847665,
      0.0060052397,
      -0.0780694,
      0.11209184,
      0.1326307,
      -0.49281076,
      -0.45598724,
      -0.25315577,
      -0.078412585,
      -0.20103563,
      -0.40446883,
      -0.024777686,
      -0.13141161,
      -0.14180827,
      0.26818052,
      0.15301968,
      0.2228549,
      0.32702807,
      -0.18664265,
      -0.47389445,
      0.06536677,
      -0.097425416,
      -0.34336615,
      -0.29016516,
      -0.019239945,
      0.09273776,
      0.15584446,
      0.7754463,
      0.12072646,
      0.46942273,
      -0.73424685,
      0.29331154,
      0.41041607,
      -0.9829273,
      -0.68681425,
      0.0100583555,
      0.2585901
    ],
    [
      -0.12311156,
      -0.2727774,
      -0.19908193,
      -0.5113674,
      0.4035397,
      0.1745274,
      0.45888537,
      -0.27371165,
      0.71739936,
      -0.16135456,
      -0.15996793,
      0.10031487,
      0.10610612,
      0.12729448,
      -0.13698165,
      -0.057097454,
      0.013413213,
      -0.029996464,
      -0.67850894,
      -0.523594,
      0.3008279,
      -0.7755682,
      0.7590105,
      -0.12538981,
      0.29078916,
      -0.116611615,
      -0.053601123,
      0.568693,
      0.5260023,
      -0.77518016,
      0.59437084,
      -0.37715128,
      0.059704863,
      -0.26835772,
      0.8157985,
      -0.33278337,
      0.0664408,
      0.1377413,
      -0.6184724,
      -0.26054317,
      0.31548697,
      0.56425595,
      -0.52688,
      -0.20604473,
      0.23929259,
      -0.38110837,
      -0.029446399,
      0.650098,
      -0.68179715,
      0.10084975,
      -0.11601285,
      0.70695305,
      -0.18055552,
      0.21281146,
      -0.006064238,
      0.34840044,
      0.087402366,
      0.53699046,
      0.14563648,
      -0.7678155,
      -0.13115384,
      0.25596413,
      -0.15887748,
      -0.41012993
    ],
    [
      0.17842516,
      0.32995352,
      -0.17184554,
      -0.46480697,
      0.27596262,
      0.057183027,
      0.5072554,
      -0.12947321,
      0.8674912,
      -0.08169262,
      -0.06868874,
      -0.20152476,
      0.20152089,
      -0.19653794,
      -0.071720146,
      0.6324874,
      0.14217994,
      0.042757362,
      -0.5377691,
      -0.2103414,
      -0.1459296,
      -0.73628604,
      0.8876004,
      -0.2161282,
      0.2959509,
      0.06768646,
      -0.21382464,
      0.6059478,
      0.9507631,
      -0.2029488,
      0.678726,
      -0.2572514,
      -0.122172035,
      -0.23167147,
      0.72350025,
      -0.045761604,
      0.0802064,
      0.064344555,
      -0.54898477,
      0.046920985,
      0.6561648,
      0.046248097,
      -0.07972541,
      -0.59456486,
      0.40825287,
      -0.2401127,
      -0.04637886,
      0.23268203,
      -0.7590722,
      -0.19722484,
      0.14917159,
      0.6423832,
      -0.12781073,
      0.17019112,
      0.3297343,
      0.182664,
      0.2977001,
      -0.060145926,
      -0.31304744,
      -0.7942436,
      0.37041727,
      -0.04287588,
      -0.2390382,
      -0.26194617
    ]
  ],
  "shared_fc2_bias": [
    0.0077694245,
    0.058104552,
    0.3719549,
    -0.077126764,
    -0.0046523125,
    -0.039843578,
    -0.21290596,
    -0.2968578,
    0.20832807,
    0.1905869,
    -0.18254761,
    -0.29277658,
    0.07883846,
    -0.20063314,
    -0.15469134,
    -0.33563742,
    0.11804715,
    0.11972902,
    -0.27178165,
    0.19590825,
    0.14360116,
    0.31637174,
    -0.1228787,
    0.09869226,
    -0.23416695,
    0.17750287,
    0.31275612,
    -0.11007542,
    0.09630557,
    0.023691697,
    -0.10045087,
    -0.2020393,
    -0.2971884,
    -0.122680075,
    -0.25326854,
    -0.18442358,
    -0.33051193,
    0.14336257,
    0.20271607,
    -0.24750729,
    -0.2412456,
    -0.2080938,
    -0.21199417,
    0.018357718,
    -0.06644974,
    -0.20449781,
    0.1514027,
    0.18988194,
    0.07030139,
    -0.24145582,
    0.14741504,
    -0.18993963,
    0.23926295,
    -0.10769029,
    -0.013295926,
    -0.09568194,
    0.009847584,
    0.26199454,
    0.07593114,
    -0.27290964,
    0.21891622,
    0.0061199823,
    0.1748414,
    0.12826177
  ],
  "policy_weight": [
    [
      -0.14549899,
      0.08193044,
      0.21263805,
      -0.04828527,
      0.057009313,
      0.11325332,
      0.05959985,
      0.13873942,
      -0.14075854,
      -0.06500526,
      0.04878375,
      -1.7960184,
      0.05184426,
      0.06857246,
      -0.06744093,
      -0.5046158,
      0.33156717,
      0.077692606,
      0.0034273774,
      -0.15039526,
      -0.090868846,
      0.42505243,
      -0.0085589,
      0.059238307,
      0.08945849,
      0.037016165,
      0.20021006,
      0.04164637,
      0.08494279,
      -0.0052355262,
      0.013891291,
      0.015291869,
      0.03745494,
      0.13206983,
      0.060632017,
      0.16532396,
      -0.86684746,
      0.008111212,
      -0.036079846,
      -0.08718265,
      -0.06768191,
      0.07369967,
      -0.1976964,
      -0.4968147,
      -0.065237984,
      0.008426498,
      0.049154118,
      -0.0043012844,
      -0.14222984,
      -0.0028971497,
      -0.05909587,
      0.11062577,
      0.06974752,
      0.06127589,
      0.525044,
      -0.024658639,
      -0.037873223,
      0.04370442,
      -0.096881226,
      -0.08135696,
      0.080409005,
      0.060236923,
      -0.016816197,
      0.057664957
    ],
    [
      0.14636536,
      -0.079224184,
      -0.21328747,
      0.048430365,
      -0.054892506,
      -0.112288974,
      -0.06186775,
      -0.13987698,
      0.1390495,
      0.06503482,
      -0.05078005,
      1.7975184,
      -0.052586418,
      -0.06961763,
      0.065248474,
      0.5040306,
      -0.33047417,
      -0.07816702,
      -0.0051181,
      0.15245879,
      0.09200166,
      -0.4274626,
      0.0055301404,
      -0.05664547,
      -0.08762076,
      -0.034481093,
      -0.20019914,
      -0.043504894,
      -0.08376628,
      0.0056156404,
      -0.012929538,
      -0.01634131,
      -0.03731127,
      -0.1325415,
      -0.061666798,
      -0.16125984,
      0.8670752,
      -0.005542478,
      0.03660016,
      0.085174166,
      0.066019475,
      -0.07453824,
      0.19735026,
      0.49615413,
      0.0615322,
      -0.005836798,
      -0.05016203,
      0.006344863,
      0.14331703,
      0.0019531021,
      0.05831753,
      -0.11072323,
      -0.069388136,
      -0.06547551,
      -0.5222205,
      0.026191399,
      0.035143323,
      -0.044369455,
      0.098597035,
      0.07993086,
      -0.07902984,
      -0.059838057,
      0.018132523,
      -0.060739752
    ]
  ],
  "policy_bias": [
    0.15697296,
    -0.019563148
  ],
  "value_weight": [
    [
      1.5124172,
      1.5563545,
      1.6237673,
      -1.5190865,
      -1.5475898,
      -1.5270886,
      -1.5589577,
      -1.5744292,
      1.5210212,
      1.5157554,
      -1.5297849,
      -0.02484101,
      1.488641,
      -1.5608007,
      -1.5823187,
      -1.818329,
      -1.54704,
      1.5515261,
      -1.5136045,
      1.5643222,
      1.5191553,
      1.7893938,
      -1.5274303,
      1.5386286,
      -1.532095,
      1.6028873,
      1.5326442,
      -1.5016603,
      1.5799277,
      1.5449666,
      1.5302606,
      -1.6052096,
      -1.5239407,
      -1.55466,
      -1.5707104,
      -1.5550513,
      -1.8345225,
      1.5933249,
      1.5643262,
      -1.4819143,
      -1.5658107,
      -1.5716321,
      -1.6029441,
      1.5082402,
      -1.560948,
      -1.5567238,
      1.4876286,
      1.5207256,
      1.5336,
      -1.5799628,
      1.536183,
      -1.5331745,
      1.530535,
      1.5714879,
      -1.5697643,
      -1.529501,
      -1.5594379,
      1.5687954,
      1.5341066,
      -1.5370485,
      1.5351243,
      -1.5328834,
      1.5951705,
      1.5812265
    ]
  ],
  "value_bias": [
    1.3732084
  ]
}