{
  "obs_dim": 4,
  "action_dim": 2,
  "hidden_dim": 128,
  "activation": "Tanh",
  "shared_fc1_weight": [
    [
      -0.12520976,
      -0.17948428,
      -0.6756495,
      -0.04978671
    ],
    [
      -0.30247417,
      -0.014032131,
      -0.27677312,
      -0.17958413
    ],
    [
      -0.22289667,
      -0.13501935,
      -0.5836265,
      -0.38686836
    ],
    [
      -0.13064744,
      -0.17533611,
      -0.30883002,
      -0.08347862
    ],
    [
      -0.36896253,
      0.06648586,
      0.9107533,
      0.093847945
    ],
    [
      -0.40719616,
      0.09678349,
      0.508608,
      0.026118869
    ],
    [
      0.047623187,
      -0.07220586,
      -0.20088819,
      -0.110987425
    ],
    [
      0.1850268,
      0.07067476,
      0.6409841,
      0.31527677
    ],
    [
      -0.032941606,
      0.11748144,
      0.5127575,
      0.060918894
    ],
    [
      -0.1663163,
      -0.26477733,
      -0.46136725,
      -0.1446785
    ],
    [
      0.502824,
      -0.07153457,
      -0.37125,
      -0.1335281
    ],
    [
      -0.21549606,
      0.08132254,
      0.7920647,
      0.15663067
    ],
    [
      0.09326154,
      0.31590828,
      -0.31710306,
      0.008190175
    ],
    [
      0.09242339,
      0.21992461,
      -0.14042477,
      -0.07351698
    ],
    [
      0.12972212,
      0.20704614,
      -0.046818197,
      0.00850036
    ],
    [
      -0.037366662,
      -0.31241035,
      -0.61384153,
      -0.20305184
    ],
    [
      -0.17909849,
      -0.08805776,
      -0.7861851,
      -0.08388383
    ],
    [
      0.19262603,
      -0.057627346,
      -0.57302856,
      -0.12277445
    ],
    [
      -0.11148516,
      -0.2004076,
      -0.8267823,
      -0.23251353
    ],
    [
      0.19100466,
      -0.0052822703,
      0.2976238,
      -0.25048047
    ],
    [
      -0.17446057,
      -0.024606338,
      0.71283346,
      0.17151967
    ],
    [
      -0.49126405,
      -0.012193304,
      0.82906735,
      0.009236185
    ],
    [
      0.24435893,
      0.1701635,
      0.04756584,
      -0.045050293
    ],
    [
      0.08548601,
      0.28941575,
      0.4704211,
      0.18106832
    ],
    [
      -0.007766465,
      0.087462395,
      0.54860353,
      0.16156946
    ],
    [
      0.08892709,
      0.03035212,
      0.6501193,
      0.17723453
    ],
    [
      -0.17802168,
      -0.078995444,
      0.048317894,
      0.11795019
    ],
    [
      -0.32045794,
      0.040713858,
      -0.5943777,
      -0.08237006
    ],
    [
      0.30598313,
      0.22405191,
      0.204692,
      0.14782381
    ],
    [
      0.13663852,
      0.020094162,
      -0.80476874,
      -0.15037273
    ],
    [
      -0.35619047,
      -0.14575522,
      0.6428384,
      0.104213834
    ],
    [
      -0.5798932,
      -0.06152724,
      0.72486526,
      0.0804062
    ],
    [
      0.29706213,
      0.12768315,
      -0.41611356,
      0.023775797
    ],
    [
      -0.20357671,
      -0.12099418,
      0.8670467,
      0.10516396
    ],
    [
      0.22658895,
      0.19570275,
      0.02015164,
      0.10039597
    ],
    [
      -0.06683052,
      0.045610726,
      0.50192064,
      0.14746496
    ],
    [
      0.35605347,
      0.12754202,
      -0.38795203,
      0.03736313
    ],
    [
      -0.26833966,
      0.025609327,
      0.36937526,
      -0.0714848
    ],
    [
      0.15260611,
      0.23769607,
      -0.06722159,
      0.03668116
    ],
    [
      -0.045087814,
      0.06298435,
      -0.5839367,
      -0.14367725
    ],
    [
      -0.2651935,
      0.12216544,
      0.78363776,
      0.083240725
    ],
    [
      0.48429996,
      0.15066563,
      -0.7811227,
      -0.09398897
    ],
    [
      0.059799276,
      -0.055780526,
      0.85207796,
      0.21372439
    ],
    [
      0.0033192432,
      0.10896523,
      -0.8819805,
      -0.33309722
    ],
    [
      0.12652175,
      0.13029227,
      0.68610644,
      0.2105623
    ],
    [
      0.3936777,
      -0.0467035,
      0.24073885,
      0.2301125
    ],
    [
      -0.113361195,
      -0.2828793,
      -0.37952113,
      -0.06725649
    ],
    [
      -0.039961178,
      0.18561855,
      -0.6394854,
      -0.08783871
    ],
    [
      -0.2073466,
      0.03710821,
      -0.034633532,
      -0.080509484
    ],
    [
      0.05535438,
      0.2168548,
      -0.6513002,
      -0.17602006
    ],
    [
      -0.38548458,
      -0.3230007,
      0.6168618,
      0.14335328
    ],
    [
      0.16307521,
      -0.075290866,
      -0.5563499,
      -0.15698892
    ],
    [
      0.060406167,
      0.034945875,
      0.65687853,
      0.17557591
    ],
    [
      0.28076774,
      0.07628767,
      -0.34715033,
      -0.17776224
    ],
    [
      -0.19487314,
      -0.13798225,
      -0.26982838,
      -0.018103972
    ],
    [
      0.076426305,
      -0.04535825,
      0.6104268,
      0.25562337
    ],
    [
      0.094525255,
      -0.0019386302,
      -0.6362862,
      -0.19302052
    ],
    [
      -0.28951433,
      -0.048670307,
      -0.21473621,
      0.023116136
    ],
    [
      -0.17173779,
      -0.20407851,
      -1.0617044,
      -0.159775
    ],
    [
      -0.17880672,
      -0.16241305,
      -0.4795201,
      -0.14321823
    ],
    [
      0.20273092,
      0.18240224,
      -0.24504554,
      -0.42902848
    ],
    [
      0.2948128,
      0.08444956,
      -0.26515624,
      0.059700362
    ],
    [
      -0.20823537,
      -0.000028588052,
      -0.7501259,
      -0.10540311
    ],
    [
      0.108863756,
      0.12998497,
      0.24797536,
      0.14690727
    ],
    [
      0.18556535,
      -0.06327892,
      -0.6075739,
      -0.06731825
    ],
    [
      -0.21143408,
      -0.17002624,
      -0.21081297,
      -0.11060148
    ],
    [
      -0.062009383,
      -0.15280728,
      0.6291792,
      0.12595564
    ],
    [
      0.29576898,
      -0.027909067,
      0.53321034,
      0.04064883
    ],
    [
      0.058690067,
      0.09498041,
      -0.6796983,
      -0.1124841
    ],
    [
      0.21720901,
      0.107506506,
      0.16656598,
      0.07039608
    ],
    [
      0.2592479,
      0.057129927,
      0.4548717,
      0.07042324
    ],
    [
      0.21397129,
      0.18883304,
      0.30242068,
      0.22464585
    ],
    [
      -0.25653473,
      -0.0119707845,
      0.64149475,
      0.13691945
    ],
    [
      0.046619605,
      -0.27660948,
      0.6210561,
      0.08976359
    ],
    [
      -0.24656914,
      0.03227466,
      0.6692454,
      0.15896012
    ],
    [
      0.071200795,
      0.15090206,
      0.27049664,
      -0.032619458
    ],
    [
      -0.20379853,
      -0.06222055,
      0.38559312,
      0.050609197
    ],
    [
      -0.18677628,
      -0.11598492,
      -0.4282251,
      -0.40825456
    ],
    [
      -0.064179026,
      0.0067892745,
      -0.50004655,
      -0.30990976
    ],
    [
      -0.0073126443,
      -0.25988305,
      0.28053018,
      0.010887205
    ],
    [
      0.060138553,
      0.33584896,
      0.7960156,
      0.20706812
    ],
    [
      -0.29131797,
      -0.059598353,
      0.7792921,
      -0.0069694323
    ],
    [
      0.5204291,
      -0.14908166,
      -0.5246401,
      -0.0665565
    ],
    [
      -0.054322705,
      -0.1345258,
      0.2221181,
      -0.09690798
    ],
    [
      -0.106129184,
      0.018990446,
      -0.6702897,
      -0.09958383
    ],
    [
      0.019546332,
      0.17067994,
      0.1927011,
      -0.08930939
    ],
    [
      -0.24791528,
      -0.16578564,
      -0.18444484,
      -0.04590146
    ],
    [
      -0.2545562,
      -0.13008456,
      -0.4965728,
      -0.26877576
    ],
    [
      0.22144946,
      0.19496125,
      0.14567518,
      0.13289417
    ],
    [
      0.17260532,
      -0.08277591,
      -0.6254399,
      -0.1025566
    ],
    [
      0.061653525,
      0.41003525,
      0.23946525,
      0.13682194
    ],
    [
      -0.16408761,
      -0.061076503,
      -0.09242109,
      -0.042810194
    ],
    [
      0.13706663,
      -0.058566567,
      0.57237935,
      0.18318035
    ],
    [
      0.3343693,
      0.12739077,
      0.096021734,
      -0.08067448
    ],
    [
      -0.0913507,
      -0.08883685,
      -0.5835495,
      -0.28695285
    ],
    [
      -0.2234966,
      -0.16315608,
      0.6734907,
      0.17046082
    ],
    [
      -0.1541511,
      -0.08114236,
      0.7926511,
      0.2279485
    ],
    [
      0.32924512,
      0.08375766,
      0.33002177,
      0.2967895
    ],
    [
      0.422884,
      0.037433494,
      -0.7293318,
      -0.26756933
    ],
    [
      0.13612305,
      0.08974377,
      -0.050248306,
      -0.0338724
    ],
    [
      0.5937503,
      -0.073338285,
      -0.6862378,
      0.0024302832
    ],
    [
      0.70129853,
      0.103904724,
      -0.57580274,
      -0.07356878
    ],
    [
      0.26448092,
      0.05084703,
      0.7689694,
      0.18427506
    ],
    [
      -0.2830827,
      -0.026996823,
      0.7409682,
      -0.031800516
    ],
    [
      -0.22967729,
      -0.09583113,
      0.36414757,
      0.10627534
    ],
    [
      0.09788274,
      0.24470481,
      0.046683192,
      -0.016283268
    ],
    [
      0.23522766,
      0.110535756,
      -0.51251245,
      -0.060456604
    ],
    [
      -0.07903977,
      -0.105291665,
      0.6346277,
      0.1694851
    ],
    [
      -0.23847766,
      -0.21764787,
      0.65846026,
      0.10364923
    ],
    [
      0.28192782,
      -0.0013412922,
      -0.5292182,
      -0.20170203
    ],
    [
      -0.10161819,
      -0.3117826,
      -0.13939318,
      -0.24608871
    ],
    [
      0.053337876,
      0.353193,
      0.5736224,
      0.21743843
    ],
    [
      0.40770292,
      0.136685,
      -0.1543515,
      0.20208593
    ],
    [
      0.21779586,
      -0.032908652,
      -0.7045926,
      -0.20529965
    ],
    [
      0.38362348,
      -0.04921342,
      -0.32927555,
      0.10266933
    ],
    [
      -0.09765892,
      -0.19698328,
      -0.6417867,
      -0.3002015
    ],
    [
      0.097803146,
      -0.09975731,
      -0.39699262,
      -0.16460681
    ],
    [
      -0.1776039,
      -0.038083337,
      -0.49351066,
      -0.4170519
    ],
    [
      -0.15186664,
      -0.1595989,
      -0.78368896,
      -0.18757865
    ],
    [
      0.19850811,
      0.05008428,
      0.32805565,
      0.21659914
    ],
    [
      0.4801699,
      -0.010483904,
      -0.53301615,
      -0.23930632
    ],
    [
      -0.17914796,
      -0.1584734,
      0.7190966,
      0.09020684
    ],
    [
      0.33363712,
      -0.27151588,
      -0.5989,
      -0.268978
    ],
    [
      0.23864597,
      0.04989396,
      -0.2615043,
      0.23266587
    ],
    [
      0.20352612,
      0.065056935,
      0.10143122,
      -0.1862757
    ],
    [
      0.36147416,
      -0.0147750955,
      -0.13100812,
      -0.0915502
    ],
    [
      -0.34537312,
      -0.13068727,
      0.4870603,
      0.035135332
    ],
    [
      -0.06873542,
      -0.18744534,
      0.5086809,
      0.13914374
    ]
  ],
  "shared_fc1_bias": [
    -0.18307279,
    -0.4584664,
    -0.19970202,
    -0.034655005,
    0.3318442,
    0.46102527,
    -0.63334984,
    0.33805645,
    0.39866713,
    -0.26414973,
    -0.45960456,
    0.40664732,
    0.56004333,
    0.29955038,
    0.52915746,
    0.19032314,
    -0.14086589,
    -0.4424194,
    -0.20832348,
    -0.029585965,
    0.11461363,
    0.21614185,
    0.5328323,
    0.19885308,
    0.52115476,
    0.5790549,
    -0.3583143,
    -0.36346796,
    0.57391584,
    -0.32818902,
    0.16529904,
    0.26316348,
    -0.68541294,
    0.4880621,
    0.53915006,
    0.09847423,
    -0.41371718,
    0.48610482,
    0.5084374,
    -0.29538995,
    0.33666673,
    -0.14673409,
    0.46405065,
    0.48803687,
    0.28393346,
    0.48675743,
    -0.024525307,
    -0.3423438,
    0.3522191,
    -0.16947351,
    0.102007404,
    -0.5090239,
    0.19892848,
    0.62822586,
    -0.044613544,
    0.51520324,
    -0.3841338,
    -0.38986045,
    -0.29433203,
    -0.21102841,
    0.6888552,
    0.6116405,
    -0.12769358,
    0.51535755,
    -0.29193595,
    -0.36139548,
    0.2403743,
    0.32457602,
    -0.08402186,
    0.36713833,
    0.20874637,
    0.42968425,
    0.24618442,
    0.089489564,
    0.5596656,
    0.54022115,
    0.4097231,
    0.4578419,
    -0.14554511,
    0.037152287,
    0.28199893,
    0.14794947,
    -0.5075264,
    -0.6760588,
    -0.33529323,
    0.3222183,
    -0.38579065,
    -0.5738703,
    0.5686095,
    -0.13459635,
    0.039806735,
    -0.46227208,
    0.17159931,
    0.6584012,
    -0.19508651,
    -0.46732426,
    -0.21416691,
    0.25040683,
    -0.55667436,
    0.33757368,
    -0.356783,
    -0.22150406,
    0.23483,
    0.3253091,
    -0.72092235,
    -0.023097131,
    0.16228393,
    0.123331755,
    0.57195896,
    0.3438595,
    -0.62251854,
    0.2035162,
    -0.63860744,
    -0.34762126,
    -0.2665018,
    -0.11696664,
    -0.28371847,
    -0.57255054,
    -0.16198896,
    0.3227747,
    -0.5366834,
    0.06913372,
    -0.286378,
    -0.563826,
    0.67929655,
    0.44683763,
    0.51526743,
    0.25375324
  ],
  "shared_fc2_weight": [
    [
      0.5252067,
      0.1812534,
      0.25270745,
      -0.015968982,
      -0.49265477,
      -0.076491274,
      0.01559648,
      -0.48157114,
      -0.06781239,
      0.078394495,
      0.10081741,
      -0.47604075,
      -0.05414715,
      0.05348759,
      -0.26748067,
      -0.05372246,
      0.59315085,
      0.24607038,
      0.6173882,
      -0.093604766,
      0.020930761,
      -0.8206759,
      -0.0930503,
      -0.5945099,
      -0.044131044,
      -0.26304558,
      0.2505248,
      -0.00936116,
      -0.09878696,
      0.6389483,
      -0.39323172,
      -0.5424016,
      0.041393146,
      -0.28086367,
      -0.20043877,
      -0.11805127,
      0.16218463,
      -0.1475899,
      -0.0079805,
      0.2866707,
      -0.3346287,
      0.6095577,
      -0.59828126,
      0.05999531,
      -0.7804214,
      0.07854049,
      0.19898643,
      0.11231894,
      0.09530705,
      0.28926885,
      -0.5035121,
      0.1761303,
      -0.53573567,
      0.03741443,
      0.039454192,
      -0.07863362,
      0.4225391,
      0.05461465,
      0.5964598,
      0.3651406,
      -0.09298399,
      0.27112928,
      0.3672177,
      -0.034166783,
      0.23769182,
      0.273482,
      -0.25862953,
      -0.0781682,
      0.49777704,
      -0.24502616,
      -0.30581284,
      0.066371284,
      -0.6974411,
      -0.19091116,
      -0.14531423,
      -0.28413215,
      -0.027973179,
      -0.17994843,
      0.27873608,
      0.065180734,
      -0.4929287,
      -0.75615525,
      0.22580889,
      0.00813972,
      0.20308055,
      0.16810083,
      0.10690713,
      0.27162313,
      0.011108918,
      0.23212714,
      -0.21952055,
      0.18111865,
      -0.25896066,
      0.044455733,
      0.28140265,
      0.09668549,
      -0.08125391,
      0.022055851,
      0.24017121,
      0.13584025,
      0.29130188,
      0.40192163,
      -0.37846637,
      -0.3104292,
      0.23359764,
      0.050266683,
      0.14477257,
      0.090530075,
      -0.23873651,
      0.30303156,
      0.14599718,
      -0.4841919,
      -0.028328659,
      0.22578236,
      0.22800817,
      0.030155404,
      0.026338253,
      -0.08391811,
      0.5197479,
      -0.18343897,
      0.14900568,
      -0.10922434,
      0.28652534,
      -0.0074120234,
      -0.0044531673,
      -0.03155469,
      -0.39206272,
      -0.20385441
    ],
    [
      -0.032370258,
      -0.29865927,
      -0.092393085,
      -0.050536208,
      0.36095878,
      0.3825979,
      -0.17924908,
      0.14533556,
      0.26946616,
      -0.13532713,
      -0.1054426,
      0.19916932,
      0.3075458,
      0.08265849,
      0.1384116,
      0.18340863,
      -0.19204399,
      -0.27848127,
      -0.13232052,
      0.007887372,
      0.18367898,
      0.14994486,
      0.23913845,
      0.430347,
      0.21299559,
      0.36699665,
      -0.45950922,
      -0.34980702,
      0.29601374,
      -0.1258121,
      0.009062912,
      0.17225641,
      -0.31187508,
      0.21191593,
      0.30373055,
      0.15569784,
      -0.23087595,
      0.34158957,
      0.03890006,
      -0.13396321,
      0.30126822,
      -0.044978067,
      0.27297854,
      0.28979397,
      0.19078735,
      0.06718237,
      0.30088887,
      -0.20972693,
      0.07850754,
      -0.116293825,
      -0.06129618,
      -0.36657754,
      0.0063668876,
      0.304956,
      0.09712987,
      0.19486025,
      -0.30623123,
      -0.1936456,
      -0.16083062,
      -0.28056723,
      0.203679,
      -0.033902295,
      -0.060109276,
      0.33910143,
      -0.044219796,
      -0.0876224,
      0.4298461,
      0.26426068,
      -0.17102054,
      0.21057105,
      -0.058330867,
      0.23824888,
      -0.008338755,
      0.24100272,
      0.06024086,
      0.32823527,
      0.20160085,
      0.32009557,
      -0.32100177,
      0.13419813,
      0.20081401,
      0.15980507,
      -0.08381864,
      -0.2013707,
      -0.3585346,
      0.54410774,
      -0.097352706,
      -0.031567276,
      -0.066518955,
      -0.12634398,
      -0.0848613,
      -0.105222695,
      -0.06933193,
      0.31890398,
      0.09565249,
      -0.12818757,
      -0.10833715,
      0.12275413,
      -0.2311818,
      0.1342576,
      -0.42369002,
      -0.5756048,
      0.15858972,
      0.27748793,
      -0.34401417,
      -0.09296663,
      -0.08715304,
      0.24071084,
      0.34988382,
      0.097601324,
      -0.15609057,
      0.18020946,
      -0.26146644,
      -0.38467813,
      -0.40013614,
      -0.031673007,
      -0.25053722,
      -0.014379146,
      -0.13103572,
      0.028238123,
      -0.17013848,
      0.15405728,
      -0.338072,
      -0.1665532,
      0.1492317,
      0.0609187,
      0.25755078,
      0.25992614
    ],
    [
      -0.4904632,
      -0.537349,
      -0.35000402,
      -0.16440237,
      0.15874715,
      -0.02784314,
      -0.19941044,
      0.6720015,
      -0.05288085,
      -0.62460107,
      0.0038108763,
      0.039749417,
      0.31135696,
      0.27541718,
      0.36252326,
      -0.12155707,
      -0.45963323,
      -0.20529309,
      -1.1024008,
      0.13213398,
      -0.06695689,
      -0.012120359,
      0.5629424,
      0.6827376,
      0.16289406,
      0.033807352,
      -0.43465108,
      -0.3783111,
      0.57876146,
      0.02176616,
      0.07735493,
      0.19714992,
      -0.25195673,
      -0.27916476,
      0.8887666,
      -0.28776923,
      -0.39059547,
      0.10034209,
      0.6092387,
      -0.26794726,
      -0.0673667,
      -0.3598782,
      0.30420455,
      0.052928768,
      0.6943046,
      0.45154858,
      -0.2716796,
      0.017424736,
      -0.17029981,
      -0.12352685,
      0.08554553,
      -0.043792374,
      0.116204545,
      0.31156963,
      -0.14226149,
      0.17830257,
      -0.17094299,
      -0.5838326,
      -0.32302502,
      -0.59473103,
      0.047318615,
      0.6434946,
      -0.38139898,
      0.22746502,
      -0.004938724,
      -0.61634594,
      0.0060873865,
      0.57658434,
      -0.025928961,
      0.688626,
      0.56462723,
      0.8477775,
      -0.17692646,
      -0.1594522,
      0.047465116,
      0.061320692,
      0.15415765,
      0.14699183,
      0.11630006,
      -0.16695824,
      0.72882694,
      0.13452813,
      0.02657988,
      -0.014800624,
      -0.2588023,
      0.17471808,
      -0.6080034,
      -0.37663087,
      0.71060306,
      -0.024229735,
      0.24891208,
      -0.54506713,
      0.13093726,
      0.5615176,
      -0.25499776,
      -0.35422042,
      -0.253963,
      0.09974106,
      -0.31242514,
      0.33475825,
      -0.019135594,
      0.003275245,
      0.6585401,
      0.12631586,
      -0.38644966,
      0.26538277,
      -0.029819127,
      0.03902529,
      0.1738886,
      0.510468,
      -0.28627965,
      0.86354613,
      0.0123005705,
      0.024977107,
      0.097817786,
      -0.060016986,
      -0.24126093,
      -0.36584803,
      -0.27662805,
      0.21880947,
      -0.23488179,
      -0.026520962,
      0.15005423,
      0.11173728,
      0.23107688,
      0.47630957,
      0.06946288,
      0.04287785
    ],
    [
      -0.22214843,
      -0.08802578,
      0.106561705,
      0.13734175,
      0.38388512,
      0.074094184,
      -0.2625855,
      0.18665996,
      0.17303406,
      -0.40469414,
      -0.4245502,
      0.16652781,
      0.2468179,
      0.095763914,
      0.14470649,
      0.15353478,
      -0.5049772,
      -0.13557534,
      -0.23751694,
      -0.09765304,
      0.09233597,
      0.47652835,
      -0.14529331,
      0.2906129,
      0.1774637,
      0.056774087,
      -0.11623267,
      -0.13510877,
      -0.06884044,
      -0.5089243,
      0.15382615,
      0.5787763,
      -0.19685581,
      0.21695368,
      -0.07764116,
      0.12256016,
      -0.36524662,
      -0.13917865,
      0.11999976,
      -0.15682456,
      0.28452954,
      -0.21968058,
      0.3367253,
      0.17388955,
      0.47649807,
      0.07164902,
      -0.13253962,
      -0.48407558,
      0.064758696,
      -0.15960304,
      0.42246708,
      -0.025551714,
      0.28694353,
      -0.067743294,
      -0.16167112,
      0.15498602,
      -0.5530172,
      -0.25323066,
      -0.23458752,
      -0.3015691,
      0.04714926,
      0.016660562,
      -0.34880203,
      0.28738523,
      -0.09397015,
      -0.13575129,
      0.31108055,
      0.26908514,
      -0.17444958,
      0.07386058,
      0.208624,
      0.23225875,
      0.5085528,
      -0.04213755,
      0.39828062,
      0.08141494,
      0.3779715,
      0.09306062,
      -0.3802085,
      0.12593214,
      0.59468627,
      0.7134577,
      -0.12563334,
      -0.14954911,
      -0.11546807,
      0.20920146,
      -0.12737867,
      -0.12591448,
      0.2698482,
      -0.07252814,
      0.19652039,
      -0.19897069,
      0.415644,
      0.084805466,
      -0.21761069,
      -0.19439922,
      0.060736116,
      0.09330717,
      -0.51232326,
      0.105165735,
      -0.33524913,
      -0.49485913,
      0.2555926,
      0.14421923,
      0.051970378,
      -0.20955199,
      -0.10423209,
      0.2532396,
      0.31253055,
      -0.019672098,
      0.062068626,
      0.21845335,
      -0.13275906,
      -0.42448026,
      -0.32853934,
      -0.026791394,
      -0.08805986,
      0.06092985,
      -0.38091096,
      -0.035374597,
      -0.25210115,
      0.33380184,
      -0.34029222,
      0.27097002,
      0.13526398,
      0.08176742,
      0.22161804,
      0.17547596
    ],
    [
      -0.725485,
      -0.47089523,
      -0.51531917,
      -0.18101445,
      0.25142074,
      0.21737719,
      -0.14242534,
      0.76500005,
      0.15827157,
      -0.6607317,
      -0.17527498,
      0.2548677,
      0.42641205,
      0.37276292,
      0.33000812,
      -0.1893103,
      -0.66886896,
      0.009595722,
      -0.6686843,
      0.19333592,
      -0.010026782,
      0.13428913,
      0.7667448,
      0.5858788,
      0.024671506,
      0.0746253,
      -0.38560274,
      -0.42685017,
      0.5551278,
      -0.010047154,
      0.017078813,
      0.24505664,
      0.03780479,
      -0.044879735,
      0.47851127,
      -0.008959096,
      -0.11190476,
      0.16241784,
      0.80096614,
      0.06281587,
      0.3005032,
      -0.080769725,
      0.4152383,
      -0.12153709,
      0.8525137,
      0.49640197,
      -0.40825152,
      0.19616199,
      -0.051912833,
      -0.031084465,
      0.06495725,
      0.051774614,
      0.2833401,
      0.6647309,
      -0.33470395,
      0.31383917,
      -0.51155883,
      -0.42577034,
      -0.7158567,
      -0.69416404,
      0.40329045,
      0.721889,
      -0.5031561,
      0.23454885,
      -0.05012613,
      -0.6163139,
      -0.10226478,
      0.40669495,
      -0.23471728,
      0.44145593,
      0.38350937,
      0.53852946,
      0.26283842,
      -0.036445722,
      0.18554075,
      0.06228983,
      0.031732563,
      -0.079495125,
      -0.24379954,
      -0.40311542,
      0.65116096,
      0.106300846,
      0.13223498,
      -0.06811369,
      -0.27223417,
      0.21163397,
      -0.20824337,
      -0.42239654,
      0.45455095,
      0.036435314,
      0.33378294,
      -0.24120457,
      0.45162702,
      0.44857705,
      -0.469825,
      -0.27813655,
      -0.076147005,
      0.16764562,
      -0.21215342,
      0.39720482,
      0.055179562,
      -0.11313724,
      0.78664345,
      0.025165886,
      -0.3639812,
      0.3226709,
      0.18808594,
      -0.042587284,
      -0.08448261,
      0.37565067,
      -0.33804896,
      0.57171226,
      0.07234484,
      -0.23220828,
      0.21926501,
      -0.36821684,
      0.062487848,
      -0.26461887,
      -0.5959294,
      0.17264965,
      -0.21530305,
      -0.045742653,
      -0.10360301,
      -0.058996648,
      0.1164889,
      0.36204925,
      -0.09074931,
      0.022102203
    ],
    [
      0.6054117,
      0.028246742,
      0.4082001,
      0.06729972,
      -0.40255046,
      0.09766434,
      0.23236163,
      -0.3504307,
      -0.33929014,
      0.1614583,
      -0.018424287,
      -0.27827913,
      -0.109029606,
      -0.21442844,
      -0.098388635,
      0.12322342,
      0.47096133,
      0.09355227,
      0.5010796,
      0.22109333,
      -0.22164078,
      -0.25134662,
      -0.01976427,
      -0.5316187,
      -0.3007915,
      -0.15913177,
      0.022179458,
      0.10171085,
      -0.16614534,
      0.3011794,
      -0.2385476,
      -0.41478944,
      -0.02449179,
      -0.1628573,
      -0.1601163,
      -0.46712703,
      0.2596086,
      -0.094437845,
      -0.15636183,
      0.3350641,
      -0.44951737,
      0.50608855,
      -0.3609705,
      -0.31815368,
      -0.44267538,
      -0.15335669,
      0.19572818,
      0.16497834,
      -0.20102222,
      0.195519,
      -0.20785001,
      0.23031454,
      -0.39501503,
      -0.028160097,
      -0.08278045,
      -0.47713223,
      0.37601814,
      0.23427752,
      0.2724075,
      0.39239237,
      0.05714411,
      -0.14117536,
      0.2506141,
      0.058009163,
      0.0023564107,
      0.10517729,
      -0.29371333,
      -0.1941483,
      0.10332193,
      -0.15142852,
      -0.20880601,
      -0.24799003,
      -0.46976718,
      -0.16427739,
      -0.39104557,
      0.069154575,
      -0.19925216,
      -0.030750748,
      0.3268285,
      0.021478375,
      -0.46377924,
      -0.43318263,
      0.019784288,
      0.05336005,
      0.3221452,
      -0.04236116,
      0.4471659,
      0.26416284,
      -0.09850661,
      0.117168814,
      -0.020905085,
      0.2542343,
      -0.30943462,
      0.097603016,
      0.45915088,
      -0.0867396,
      0.1599522,
      0.16398521,
      0.24533165,
      0.1958006,
      0.33575648,
      0.4091936,
      -0.4143882,
      -0.39101532,
      -0.012549069,
      0.03736055,
      -0.2739109,
      -0.20458116,
      -0.21951984,
      0.0123384325,
      0.18101797,
      -0.3255483,
      0.1657614,
      0.27308512,
      0.20133394,
      -0.04925787,
      0.11901866,
      0.25415987,
      0.25065866,
      -0.41481465,
      0.15894994,
      -0.051392388,
      0.31913176,
      0.034069836,
      0.022854513,
      0.028023507,
      -0.123380095,
      -0.22450079
    ],
    [
      -0.7378268,
      -0.37927708,
      -0.3455882,
      -0.11757541,
      0.32648048,
      0.18164824,
      0.109085016,
      0.43935722,
      0.017077703,
      -0.21729955,
      0.007526067,
      0.13676424,
      0.009397171,
      -0.12465595,
      0.020199163,
      -0.0811011,
      -0.6337307,
      -0.038703993,
      -0.59794813,
      0.13148616,
      0.112613946,
      0.5304599,
      -0.103899114,
      0.52379245,
      -0.020655958,
      0.26761627,
      0.08851732,
      -0.028280431,
      0.07992623,
      -0.5593199,
      0.21280009,
      0.69019103,
      -0.08707027,
      0.18210013,
      0.23526058,
      -0.2117774,
      -0.35722774,
      0.15687224,
      0.094976425,
      -0.25687772,
      -0.0042323805,
      -0.45875695,
      0.4480666,
      0.22365151,
      0.62303174,
      0.32476464,
      -0.19874889,
      -0.36230034,
      0.29763967,
      -0.3869388,
      0.23259224,
      -0.108545594,
      0.46113956,
      0.013608066,
      -0.045430902,
      0.39417076,
      -0.61255854,
      -0.24805883,
      -0.13627568,
      -0.53036237,
      0.00047365416,
      0.03376774,
      -0.4330791,
      0.26200256,
      -0.4972864,
      -0.07205088,
      -0.14502385,
      0.26193663,
      -0.5955031,
      -0.00951781,
      0.11443063,
      0.17312117,
      0.4645429,
      -0.03640383,
      0.37084144,
      0.071002275,
      0.06987063,
      0.05929036,
      -0.4099448,
      0.24539374,
      0.57706374,
      0.353265,
      -0.26556855,
      -0.095002644,
      -0.17928165,
      0.01876096,
      -0.107384294,
      -0.18743539,
      0.096340686,
      -0.117766574,
      -0.03888568,
      -0.17952017,
      0.25366458,
      0.15047652,
      -0.2249413,
      0.046589885,
      0.060156733,
      -0.21700537,
      -0.23533468,
      0.07205088,
      -0.37570077,
      -0.39488146,
      0.514649,
      0.2537258,
      0.031170761,
      0.081858344,
      0.04568091,
      0.04034994,
      0.15936354,
      -0.015453351,
      -0.05550437,
      0.3583979,
      0.14487574,
      -0.34199792,
      -0.13492052,
      -0.20157689,
      -0.044328224,
      -0.16850978,
      -0.35263777,
      0.05728991,
      -0.088464215,
      -0.009459859,
      -0.39908653,
      -0.103459485,
      0.026292684,
      -0.05292055,
      0.101551265,
      0.19266643
    ],
    [
      -0.3190932,
      -0.14658415,
      -0.07528746,
      -0.0022291571,
      0.3336183,
      0.45250744,
      -0.39151928,
      0.17238925,
      0.36353213,
      -0.33047387,
      -0.29994968,
      0.036488753,
      0.4789912,
      0.11476505,
      0.3855325,
      -0.03249664,
      0.0747831,
      -0.20775433,
      -0.1102667,
      -0.07748288,
      0.05597537,
      0.31564415,
      0.23189953,
      0.21313834,
      0.2427102,
      0.2967653,
      -0.3217938,
      -0.13266894,
      -0.059918076,
      -0.34277868,
      0.036227766,
      0.23541968,
      -0.3350452,
      0.31785884,
      0.29590365,
      0.0822462,
      -0.2766393,
      0.24863476,
      0.04814429,
      0.010069551,
      0.068568245,
      -0.12755673,
      0.18434533,
      0.264543,
      0.07205093,
      0.21933585,
      0.020313555,
      -0.22867589,
      0.15974519,
      -0.10601656,
      0.24222957,
      -0.21532609,
      0.048230566,
      0.2033071,
      0.18705425,
      0.3704262,
      -0.1945133,
      -0.20440562,
      -0.4555105,
      0.038622826,
      0.20920058,
      0.11939695,
      -0.10042886,
      0.097996555,
      -0.27064422,
      -0.119862564,
      0.18224922,
      0.28237918,
      0.07141986,
      0.17681664,
      0.11044116,
      0.10176124,
      0.07904594,
      0.14456977,
      0.14192338,
      0.12702708,
      0.23504679,
      0.22685032,
      0.30994907,
      0.13293448,
      0.26045874,
      0.19467904,
      -0.23510572,
      -0.20921172,
      -0.34030747,
      0.233457,
      -0.09354697,
      -0.36063173,
      0.30824307,
      -0.058096647,
      -0.03316821,
      -0.22093855,
      -0.14252198,
      0.06696267,
      -0.21021126,
      -0.2496926,
      0.3152912,
      0.20807444,
      -0.1785498,
      0.19891517,
      -0.15343244,
      -0.36530605,
      -0.13837613,
      0.019857718,
      -0.3211614,
      -0.187718,
      0.033423953,
      -0.07541184,
      0.44217673,
      0.114943795,
      -0.24697098,
      -0.05683014,
      -0.27606103,
      -0.37945992,
      -0.25273895,
      -0.31343627,
      -0.17124201,
      -0.33726838,
      0.093892634,
      0.33299813,
      -0.5678137,
      0.2127587,
      -0.47448617,
      -0.24782267,
      0.20732118,
      0.14177403,
      0.18124098,
      0.05269762
    ],
    [
      0.36597776,
      0.33611587,
      -0.030594276,
      -0.102107905,
      -0.046914835,
      -0.14836508,
      0.38838768,
      -0.15491405,
      -0.2307642,
      0.19737165,
      0.21253642,
      -0.3376921,
      -0.32683587,
      -0.21700096,
      -0.24583086,
      -0.22643282,
      0.015811859,
      0.091451526,
      0.10983664,
      -0.09589092,
      -0.21156028,
      -0.09585173,
      -0.3096977,
      -0.2236206,
      -0.14605173,
      -0.4035477,
      0.5518487,
      0.08342635,
      -0.380678,
      0.31764936,
      -0.1922598,
      -0.271793,
      0.132648,
      -0.14038184,
      -0.22432837,
      -0.14489818,
      0.12847297,
      -0.3032213,
      -0.4363645,
      0.06598723,
      -0.2893856,
      0.09088077,
      -0.25860542,
      -0.065628186,
      -0.0510522,
      -0.20535994,
      0.09606746,
      0.36246285,
      -0.27376804,
      0.050396174,
      -0.24812987,
      0.2978018,
      0.11778993,
      -0.25148776,
      -0.25080204,
      -0.26946014,
      0.38632944,
      0.21858802,
      0.12317288,
      0.04368636,
      -0.023849273,
      0.06605932,
      0.08133572,
      -0.09277873,
      0.09665983,
      0.24109937,
      -0.11072544,
      -0.2572462,
      0.07258182,
      -0.35289967,
      -0.13505109,
      -0.26090345,
      -0.3311889,
      -0.2644556,
      -0.28971437,
      -0.29694572,
      -0.39466622,
      -0.11966482,
      0.028025242,
      -0.150507,
      -0.24098857,
      -0.25959757,
      0.33490407,
      0.10446567,
      0.17265669,
      -0.32619542,
      0.045521416,
      0.16582006,
      -0.383955,
      -0.058904596,
      -0.034318876,
      0.36527845,
      -0.08379735,
      -0.32407323,
      0.26782978,
      0.14576524,
      -0.012014564,
      0.033323128,
      0.13074978,
      -0.35898608,
      0.17397563,
      0.14215943,
      -0.27983353,
      -0.41921937,
      0.14400809,
      0.39976424,
      0.2693708,
      -0.15738381,
      -0.08785707,
      -0.36865014,
      0.35415864,
      -0.19918709,
      0.14960171,
      0.085270576,
      -0.066096425,
      0.10518637,
      0.45668033,
      0.12724523,
      -0.13258639,
      -0.10545948,
      0.11298143,
      0.017000686,
      0.17504606,
      0.06345781,
      -0.38737312,
      -0.24764156,
      -0.25278562,
      -0.027960658
    ],
    [
      -0.32539654,
      -0.48833138,
      -0.21094601,
      -0.1613451,
      0.07216238,
      0.03993148,
      0.08500611,
      0.62735724,
      0.27189416,
      -0.6270541,
      -0.21682031,
      0.10963079,
      0.36738062,
      0.49517515,
      0.19527918,
      -0.096077435,
      -0.48780912,
      -0.26068658,
      -0.39932224,
      0.09661628,
      -0.13312712,
      0.017187685,
      0.5030339,
      0.63143975,
      0.08028952,
      0.08994307,
      -0.3046856,
      -0.49116123,
      0.5966128,
      -0.1764094,
      0.12319425,
      0.22189908,
      0.013205071,
      0.1330433,
      0.6156617,
      -0.105926394,
      -0.03842381,
      -0.20248105,
      0.5077483,
      -0.061243787,
      -0.013951667,
      0.07985401,
      0.25055528,
      -0.097827405,
      0.5131185,
      0.47766203,
      -0.15975738,
      -0.040861994,
      -0.07139532,
      -0.11465122,
      -0.14050171,
      -0.31683332,
      0.3545528,
      0.41163996,
      -0.052382607,
      -0.05483468,
      -0.08562902,
      -0.57045716,
      -0.6337842,
      -0.34072083,
      0.30736342,
      0.6639215,
      -0.50128615,
      0.28867432,
      0.18333945,
      -0.59691304,
      0.19338478,
      0.31721166,
      0.18792921,
      0.41945824,
      0.23864159,
      0.39394855,
      0.13939305,
      -0.06339076,
      0.2249188,
      0.1744737,
      0.022815399,
      -0.026889425,
      0.14565377,
      0.10111691,
      0.5932611,
      -0.11912662,
      -0.14069073,
      -0.12852298,
      -0.10312797,
      0.29879165,
      -0.41165745,
      -0.63017046,
      0.83963126,
      -0.22095676,
      0.21579005,
      -0.2621118,
      0.082862966,
      0.74494225,
      -0.12441088,
      -0.21578401,
      -0.19112737,
      0.23147981,
      -0.14830165,
      0.44753435,
      0.08236565,
      -0.059108388,
      0.5062116,
      0.21829127,
      -0.25348812,
      0.08623841,
      0.2979826,
      -0.14048561,
      0.10766944,
      0.21867199,
      -0.15616742,
      0.29117504,
      -0.012200586,
      0.11749209,
      0.07807349,
      -0.24462043,
      -0.08828457,
      -0.27010143,
      -0.35737747,
      0.4413467,
      -0.0663179,
      -0.3256213,
      -0.049680285,
      -0.19894867,
      0.32481208,
      0.3770862,
      0.23386626,
      0.0215359
    ],
    [
      0.5064294,
      0.14994842,
      0.31238756,
      0.28641248,
      -0.07518841,
      0.01746859,
      0.14206617,
      -0.8664146,
      -0.16088441,
      0.32943836,
      -0.015971547,
      0.17509039,
      -0.22066702,
      -0.3697951,
      -0.17577083,
      0.119894736,
      0.518357,
      0.068586424,
      0.8489072,
      -0.16379102,
      -0.08568773,
      -0.3629845,
      -0.40863004,
      -0.8194769,
      -0.11850504,
      -0.30213386,
      0.45876372,
      0.22295938,
      -0.4596911,
      0.044874318,
      -0.28037378,
      -0.3035164,
      -0.03354773,
      0.102981515,
      -0.5576684,
      0.0044989013,
      0.040677328,
      0.036334924,
      -0.46112505,
      0.266417,
      -0.03330622,
      0.35705137,
      -0.08354765,
      -0.22474892,
      -0.93892825,
      -0.48936996,
      0.24102566,
      0.082725585,
      -0.1280178,
      0.35789883,
      -0.2754941,
      0.17228416,
      -0.5782998,
      -0.2909584,
      0.45506963,
      -0.26374465,
      0.37629318,
      0.44417766,
      0.4482385,
      0.4704109,
      -0.5770042,
      -0.26431063,
      0.6217404,
      -0.00046273155,
      0.10966991,
      0.45089903,
      -0.051803872,
      -0.31390858,
      0.37067735,
      -0.44629028,
      -0.31233987,
      -0.7188145,
      -0.51208997,
      0.059104685,
      -0.1666997,
      -0.05052659,
      0.14953811,
      0.12333425,
      0.19077373,
      0.12824544,
      -0.6855242,
      -0.36892113,
      -0.09681599,
      -0.057365213,
      0.5276127,
      -0.22503348,
      0.48974752,
      0.4265597,
      -0.47903788,
      0.123115286,
      -0.40924037,
      0.1896514,
      -0.10100895,
      -0.5267562,
      0.66499555,
      0.14064191,
      -0.11417715,
      -0.3088421,
      0.111362815,
      -0.3236761,
      0.02032489,
      0.20692447,
      -0.64020276,
      0.065021604,
      0.24660046,
      -0.30219075,
      -0.06289962,
      0.061170895,
      -0.16886199,
      -0.141661,
      0.19480273,
      -0.86070794,
      0.23396891,
      0.08233587,
      -0.17700267,
      0.2146759,
      -0.053183205,
      0.17834301,
      0.59918857,
      -0.024753852,
      -0.03773184,
      0.056472976,
      -0.059866607,
      -0.022074541,
      -0.34932765,
      -0.21251701,
      0.060436353,
      0.14811648
    ],
    [
      0.49926558,
      0.35917702,
      0.0038221308,
      0.023978157,
      -0.50085723,
      -0.045189973,
      -0.06508548,
      -0.457161,
      -0.120144054,
      0.4259098,
      0.2889218,
      -0.16191699,
      0.27528444,
      -0.27144665,
      -0.077453084,
      0.12747177,
      0.44890046,
      0.29621384,
      0.5554901,
      -0.096343726,
      -0.09158855,
      -0.53176504,
      -0.13475445,
      -0.56980115,
      -0.56052476,
      -0.025978811,
      0.07457026,
      0.18532571,
      -0.16932774,
      0.5249378,
      -0.24152584,
      -0.6769028,
      0.078429535,
      -0.240676,
      0.03476942,
      -0.17745557,
      0.37962472,
      -0.12873816,
      0.029006323,
      0.29669574,
      -0.11819322,
      0.5047416,
      -0.26853976,
      -0.1601474,
      -0.58975446,
      -0.01690863,
      0.20102526,
      0.23478693,
      -0.13968165,
      0.5779406,
      -0.26150027,
      0.16603579,
      -0.36852828,
      -0.019142002,
      -0.06928931,
      -0.23975292,
      0.43654862,
      0.04387564,
      -0.03929097,
      0.33363202,
      -0.16560514,
      -0.19385765,
      0.45178595,
      -0.03042473,
      0.32016137,
      0.022999773,
      -0.4127017,
      0.035445124,
      0.3103216,
      -0.06240869,
      -0.3526177,
      -0.10098906,
      -0.80217475,
      -0.14435522,
      -0.24059291,
      -0.34796178,
      -0.2719805,
      0.08116024,
      0.39876655,
      0.16002649,
      -0.5908511,
      -0.5841309,
      0.28324938,
      -0.11225281,
      0.17003193,
      -0.04723191,
      -0.1549583,
      -0.10246731,
      -0.07517876,
      0.2791761,
      -0.296119,
      0.061495494,
      -0.19280434,
      0.113233484,
      0.3783743,
      0.118144244,
      -0.0063349004,
      0.13397807,
      0.16410534,
      0.008547311,
      0.36154416,
      0.5836594,
      -0.38546273,
      -0.18815604,
      0.16271456,
      0.025911506,
      0.1643861,
      -0.20392701,
      -0.32251143,
      0.09780581,
      0.25106242,
      -0.62164223,
      -0.06565211,
      0.33977407,
      0.08651359,
      0.17539343,
      0.10594306,
      0.26195222,
      0.42819995,
      -0.04908483,
      0.30664316,
      -0.010573404,
      0.5320876,
      0.10923145,
      0.18957552,
      -0.03849807,
      -0.14400937,
      0.038210478
    ],
    [
      -0.47047433,
      -0.21585865,
      -0.09938247,
      0.094467826,
      0.34287325,
      0.25880525,
      -0.25740308,
      0.11322439,
      0.3917185,
      -0.018861182,
      0.103005834,
      0.0680314,
      0.08666009,
      -0.0395139,
      0.123637795,
      -0.049882747,
      -0.48992005,
      -0.23163731,
      -0.2847383,
      -0.009904717,
      0.25383887,
      0.65780145,
      0.48464257,
      0.33599594,
      0.2628047,
      0.14717555,
      -0.41224593,
      -0.23194663,
      0.07989859,
      -0.5303662,
      0.13563547,
      0.44970608,
      -0.16120668,
      0.17362425,
      0.1480118,
      0.044018168,
      -0.025545593,
      0.25996786,
      0.28333676,
      -0.37805164,
      0.07919374,
      -0.19735931,
      0.20493075,
      0.08599992,
      0.55729187,
      -0.050561603,
      -0.109924115,
      -0.33025956,
      0.24456804,
      -0.20198928,
      0.2514242,
      -0.11480233,
      0.24347538,
      0.29574132,
      0.116591044,
      0.26317695,
      -0.2446671,
      -0.24959196,
      -0.33673722,
      -0.058331072,
      0.09128152,
      0.22855434,
      -0.27357987,
      0.14412504,
      -0.21221219,
      -0.23242477,
      0.20439172,
      0.27972642,
      0.060617875,
      0.1362266,
      0.36497822,
      0.39469224,
      0.60375506,
      0.071978524,
      0.22285913,
      0.106179275,
      0.08223542,
      0.12870511,
      -0.16065001,
      0.29778105,
      0.46690217,
      0.3941187,
      -0.060709618,
      -0.07035292,
      -0.2007105,
      0.17268997,
      0.28458974,
      0.018007249,
      0.1951684,
      -0.4676349,
      -0.0671538,
      -0.17006154,
      0.23399119,
      0.082581036,
      -0.105039574,
      -0.086891875,
      0.18758272,
      0.062167034,
      -0.40862495,
      -0.185567,
      -0.26503754,
      -0.3707057,
      0.3390553,
      0.23948622,
      -0.05164059,
      -0.022217529,
      0.065832786,
      0.24728188,
      0.17603569,
      0.18104373,
      -0.09219512,
      0.28048253,
      0.04443596,
      -0.15815617,
      -0.24953757,
      0.07631623,
      -0.06690679,
      -0.3500198,
      -0.33012214,
      0.20030285,
      -0.19571531,
      0.16499227,
      -0.11334464,
      -0.023249293,
      0.122952685,
      0.007308605,
      0.26337376,
      0.23346226
    ],
    [
      0.743481,
      0.68279094,
      0.7069966,
      0.06567204,
      -0.00007422335,
      0.022991315,
      -0.120449275,
      -0.5990623,
      0.02497889,
      0.3300855,
      0.1666032,
      -0.0009502663,
      -0.44298655,
      -0.18155178,
      -0.42823404,
      0.14280683,
      0.60889184,
      0.053641528,
      0.55275226,
      0.013711648,
      0.030622818,
      0.05077358,
      -0.72744805,
      -0.76842326,
      -0.18207185,
      -0.2306881,
      0.43891686,
      0.14784741,
      -0.5603269,
      0.08938681,
      -0.044722848,
      -0.09002666,
      0.06563195,
      0.015157676,
      -0.66838557,
      -0.105138816,
      0.015337721,
      -0.02564983,
      -0.5952806,
      0.044734277,
      -0.0639849,
      0.14005212,
      -0.17732468,
      -0.03909013,
      -0.55120003,
      -0.3236268,
      0.19276081,
      -0.25429416,
      -0.10136709,
      0.24265122,
      -0.04999496,
      -0.20239213,
      -0.24524878,
      -0.44533983,
      0.19091465,
      0.009291216,
      0.05014734,
      0.4478917,
      0.5411555,
      0.37110206,
      -0.1227659,
      -0.5900112,
      0.28708673,
      -0.2581268,
      0.1503746,
      0.6747997,
      0.060959924,
      -0.2896283,
      -0.00036930398,
      -0.55537117,
      -0.42015117,
      -0.8552764,
      -0.022376703,
      0.110588886,
      -0.11766683,
      -0.36289847,
      0.076534264,
      0.101076595,
      0.091139965,
      -0.10373288,
      -0.85825396,
      -0.10002864,
      0.25548536,
      0.23983127,
      0.1653182,
      -0.33841583,
      0.4431233,
      0.5911851,
      -0.8384968,
      0.11408562,
      -0.4396864,
      0.083509736,
      -0.07656067,
      -0.6856682,
      0.49394622,
      0.56666565,
      0.20301177,
      -0.32848042,
      0.17684762,
      -0.47556216,
      0.16386597,
      -0.02024056,
      -0.47415364,
      -0.13141713,
      0.30799982,
      -0.0697814,
      -0.20543392,
      -0.1826498,
      -0.122246325,
      -0.51447743,
      0.30211437,
      -0.6448584,
      0.29367164,
      0.15082294,
      -0.18958867,
      0.21577309,
      0.026205493,
      0.1763393,
      0.6601146,
      -0.19234024,
      0.22750236,
      -0.12306322,
      0.2573498,
      -0.18252693,
      -0.20737565,
      -0.35826108,
      0.004555716,
      0.06518066
    ],
    [
      -0.61876297,
      -0.12719882,
      -0.21230681,
      0.16157687,
      0.451503,
      0.14116119,
      0.043456472,
      0.6761269,
      0.1285716,
      -0.22982436,
      -0.3570136,
      0.39114934,
      0.15567155,
      -0.0062658833,
      0.070104934,
      0.12914224,
      -0.5577928,
      -0.2578628,
      -0.49431002,
      -0.046907086,
      0.17821574,
      0.55908203,
      -0.0137207,
      0.64164245,
      0.2525183,
      -0.25821173,
      -0.017164137,
      -0.056058105,
      -0.115201995,
      -0.280695,
      0.095891446,
      0.58002967,
      -0.18642016,
      0.10198307,
      0.22001202,
      0.23939009,
      -0.1477553,
      -0.09040457,
      0.17279187,
      -0.40029746,
      0.2504822,
      -0.27186728,
      0.48318323,
      -0.01149969,
      0.45433602,
      -0.034129564,
      -0.05377076,
      -0.23356792,
      0.18253495,
      -0.26689225,
      0.26400116,
      -0.035043493,
      0.03982474,
      0.14311469,
      0.07522622,
      0.23408478,
      -0.5116775,
      -0.17308968,
      -0.17360401,
      -0.05330998,
      0.13887128,
      0.027461058,
      -0.3638204,
      0.08882863,
      -0.4068135,
      -0.1223144,
      0.1586689,
      0.3374979,
      -0.1703018,
      0.1111896,
      0.34015623,
      -0.079309545,
      0.84125435,
      0.23094581,
      0.09111283,
      -0.08866249,
      0.00030474842,
      0.27329943,
      -0.23852497,
      0.20819443,
      0.35325187,
      0.34755415,
      -0.33444196,
      -0.15107109,
      -0.3215442,
      0.15474199,
      -0.083951674,
      -0.14565316,
      0.15652582,
      -0.18360883,
      0.019071324,
      -0.29165947,
      0.20022339,
      0.047582895,
      -0.2767688,
      0.2977478,
      0.17212933,
      -0.050228562,
      -0.39176276,
      -0.02441369,
      -0.50674725,
      -0.75092226,
      0.45250723,
      0.22789805,
      -0.08367506,
      -0.0016948755,
      -0.18301582,
      0.21198283,
      0.2220473,
      0.002010559,
      -0.13090399,
      0.68514615,
      -0.32675457,
      -0.207956,
      -0.13681665,
      -0.1026458,
      -0.099337734,
      -0.06019774,
      -0.3170872,
      0.07932782,
      -0.1404402,
      0.15832454,
      -0.3997624,
      -0.05969036,
      0.025213828,
      0.07968462,
      0.040565982,
      0.24172574
    ],
    [
      0.3352151,
      -0.055940714,
      -0.18436965,
      0.009857989,
      -0.4482876,
      -0.21596104,
      -0.07328574,
      0.03252465,
      -0.2923954,
      0.34046116,
      0.13450018,
      -0.24181132,
      -0.14471148,
      0.09185487,
      -0.035472665,
      -0.38563135,
      -0.014238509,
      0.3113007,
      0.1005978,
      -0.04351014,
      -0.3676346,
      -0.44099206,
      -0.08349136,
      -0.24346127,
      -0.07061054,
      -0.19763413,
      0.2899388,
      0.18573354,
      -0.023964789,
      0.27310467,
      -0.10946271,
      -0.59758514,
      0.22950833,
      -0.46663558,
      0.08317435,
      -0.34130642,
      0.5089644,
      -0.5201276,
      -0.1526427,
      0.40042546,
      -0.2516717,
      0.255384,
      -0.33457783,
      -0.09201605,
      0.16960022,
      -0.17933911,
      -0.18698166,
      0.4966817,
      -0.05349133,
      0.24301429,
      -0.38735753,
      -0.03225988,
      -0.0933015,
      -0.07129109,
      -0.086947456,
      -0.09870062,
      0.256267,
      0.19137424,
      -0.030435875,
      0.06857072,
      -0.06821806,
      0.019292874,
      0.004502725,
      -0.2846315,
      0.6517693,
      0.044031385,
      -0.4767452,
      -0.08623616,
      -0.024824442,
      -0.05577428,
      -0.06350622,
      -0.13886079,
      -0.38572738,
      -0.13719012,
      -0.18927506,
      -0.19170967,
      -0.2815122,
      -0.14420834,
      -0.018747019,
      -0.08703147,
      -0.44892436,
      -0.2515725,
      0.32592365,
      0.18321957,
      0.038288005,
      0.039001703,
      0.18101369,
      0.21374887,
      0.008953489,
      0.18294033,
      0.089021996,
      0.15362549,
      -0.37069082,
      -0.19692332,
      -0.019364579,
      0.09066874,
      -0.17682347,
      -0.25089172,
      0.47651914,
      0.03685441,
      0.33573943,
      0.18679789,
      -0.08808475,
      -0.41804945,
      0.13724983,
      0.026769461,
      0.0038802163,
      -0.2878738,
      -0.33832994,
      0.030641263,
      0.35629368,
      -0.1878639,
      0.33280325,
      0.2913616,
      0.30452684,
      -0.00017529109,
      0.23393747,
      -0.06345854,
      -0.18315381,
      -0.29031974,
      0.18546873,
      -0.25289738,
      0.04858376,
      0.16243052,
      0.029280316,
      -0.0679578,
      -0.3814838,
      -0.19920632
    ],
    [
      -0.48230192,
      -0.13919738,
      -0.25565147,
      0.11680963,
      0.33987024,
      0.12357988,
      -0.043740723,
      0.14208548,
      0.4202757,
      -0.15898436,
      -0.19420592,
      0.10522905,
      0.08039118,
      0.038706962,
      -0.13991028,
      0.34868923,
      -0.031730615,
      -0.20980118,
      -0.039462328,
      -0.1992347,
      0.14006601,
      0.12412938,
      0.056047723,
      0.22533312,
      0.24461417,
      0.27948517,
      -0.19569828,
      -0.1306964,
      -0.16811113,
      -0.7093432,
      0.2703976,
      0.39191666,
      -0.29524308,
      0.31650993,
      0.1739004,
      0.34860453,
      -0.22872029,
      0.19087054,
      0.2074394,
      -0.26943624,
      0.2401221,
      -0.37390476,
      0.28498542,
      -0.17120758,
      0.31318298,
      -0.01128962,
      -0.21031119,
      -0.50472987,
      0.13185123,
      -0.31086215,
      0.46343988,
      -0.2841888,
      0.24771129,
      0.08732842,
      -0.07878397,
      0.17180406,
      -0.4322722,
      -0.27874634,
      0.031842478,
      -0.16242394,
      0.24121015,
      0.20045123,
      0.017276876,
      0.061885912,
      -0.26494944,
      0.020821977,
      0.1152639,
      0.32962212,
      -0.30415967,
      0.0531651,
      0.2860325,
      0.04749496,
      0.28173277,
      0.2166266,
      0.16716383,
      0.13171537,
      0.47065374,
      0.24422495,
      -0.09365452,
      0.11226139,
      0.22544752,
      0.20632769,
      -0.37261906,
      0.07103624,
      -0.33875108,
      -0.07591057,
      -0.26027307,
      0.09364472,
      0.034301918,
      -0.3836433,
      0.009415718,
      -0.18485543,
      0.22041686,
      0.17938566,
      0.084056765,
      -0.020619579,
      0.04139805,
      -0.1503302,
      -0.49607605,
      0.12605451,
      -0.03311828,
      -0.4426533,
      0.15696785,
      0.23154554,
      -0.28236246,
      -0.016406743,
      -0.16092634,
      0.33066443,
      0.37757212,
      0.08030688,
      0.21342178,
      0.32496694,
      -0.1800081,
      -0.3832625,
      -0.22149368,
      0.07750867,
      -0.17447978,
      0.06980722,
      -0.16441883,
      0.1892834,
      -0.4440463,
      0.19057384,
      -0.18321086,
      -0.1307196,
      0.07064522,
      -0.07566751,
      0.33797127,
      0.25714642
    ],
    [
      -0.34366617,
      -0.27029583,
      -0.29698098,
      0.018138539,
      0.24851795,
      0.16451837,
      -0.041000783,
      0.4871174,
      -0.104827456,
      0.0686001,
      0.044627797,
      0.05439521,
      0.009488437,
      0.12901486,
      0.055672765,
      0.0020331137,
      -0.5300417,
      -0.14427418,
      -0.7610359,
      -0.041409425,
      0.12373654,
      0.041554272,
      0.13519579,
      0.31100756,
      0.21936244,
      0.14566778,
      0.024642978,
      -0.20470178,
      0.34607637,
      -0.25193197,
      0.45079014,
      0.5676996,
      -0.1098952,
      0.022868698,
      -0.09751748,
      -0.008720163,
      0.16832402,
      0.122899905,
      0.06629424,
      -0.12174937,
      0.13907386,
      -0.3992503,
      0.19515249,
      0.06447324,
      0.8625804,
      0.25929004,
      -0.1619828,
      -0.15537558,
      -0.119462505,
      -0.32877582,
      0.3453831,
      0.034669433,
      0.4127097,
      0.20434733,
      0.015314402,
      0.3874967,
      -0.58303076,
      -0.41078043,
      -0.29230487,
      -0.24174325,
      -0.03645448,
      0.0022864162,
      -0.5320523,
      0.19498679,
      -0.1419949,
      -0.13835081,
      0.3599792,
      0.5405861,
      -0.17917277,
      0.09765197,
      0.14384304,
      0.12914316,
      0.69045264,
      -0.0018004617,
      0.116082594,
      0.16570236,
      0.10911535,
      0.069376394,
      -0.08905061,
      0.0030648613,
      0.3720818,
      0.3395469,
      -0.24811293,
      -0.23780702,
      -0.19369197,
      -0.10741545,
      -0.19728114,
      -0.04231863,
      -0.0241694,
      0.03620814,
      0.27571926,
      -0.12928118,
      0.37795535,
      0.15562892,
      -0.4436903,
      -0.11453558,
      0.117300875,
      0.061516136,
      -0.18328784,
      0.19098997,
      -0.1401853,
      -0.48193496,
      0.554742,
      0.07320194,
      0.02004315,
      -0.07930923,
      0.09023836,
      0.124967255,
      0.21041267,
      0.18813217,
      0.060885705,
      0.64596206,
      -0.07526852,
      -0.26187742,
      -0.222573,
      -0.2192726,
      -0.087525666,
      -0.23552364,
      -0.44163552,
      0.56301284,
      0.014028162,
      0.15505137,
      -0.23576407,
      -0.21067548,
      -0.024989897,
      0.02552835,
      0.09758168,
      0.1886396
    ],
    [
      -0.32742843,
      -0.26047674,
      -0.2240892,
      0.12065578,
      0.42222607,
      0.08509906,
      -0.08064176,
      0.32122466,
      0.3300871,
      -0.31018355,
      -0.21263942,
      0.539241,
      0.0053410796,
      0.09916839,
      0.033037536,
      0.2736518,
      -0.16538912,
      -0.24248855,
      -0.40151924,
      -0.07296562,
      0.46539468,
      0.2822448,
      0.14009167,
      0.13600422,
      0.32999036,
      0.07471271,
      -0.11069715,
      -0.17105795,
      0.100213654,
      -0.7248608,
      0.41478238,
      0.23501585,
      -0.1569251,
      0.34889734,
      0.15332979,
      0.09874889,
      -0.065862276,
      0.10525739,
      0.27459946,
      -0.08188915,
      0.22751573,
      -0.33225837,
      0.4122095,
      0.10227185,
      0.3015456,
      0.42514735,
      0.2493951,
      -0.3742244,
      0.2430317,
      -0.265934,
      0.004912108,
      -0.09008666,
      0.12665755,
      0.1432607,
      -0.05346047,
      0.25699043,
      -0.34835082,
      -0.012923005,
      -0.24410601,
      0.13610849,
      0.083120845,
      0.012988328,
      -0.19007292,
      0.22029583,
      -0.10578239,
      -0.10257349,
      0.21209066,
      0.2526081,
      0.093206875,
      0.044630215,
      0.011402191,
      0.29892048,
      0.29246527,
      0.3192063,
      0.2676552,
      0.23285265,
      0.120414905,
      0.20000094,
      -0.01704185,
      0.19538453,
      0.55844873,
      0.63470966,
      -0.12784493,
      -0.24922772,
      -0.5234742,
      0.20438203,
      -0.13720143,
      -0.20065728,
      -0.027878117,
      -0.20781553,
      0.09939881,
      -0.14732142,
      0.14667656,
      0.068065256,
      -0.059687145,
      -0.19881314,
      0.2583337,
      -0.113174565,
      -0.5017473,
      0.3023283,
      -0.35201794,
      -0.25237873,
      0.1334419,
      0.21008211,
      -0.2319153,
      0.1982637,
      -0.11569193,
      0.070173524,
      0.037243105,
      0.050616127,
      -0.21818972,
      0.22557914,
      -0.14151031,
      -0.38873363,
      -0.25602695,
      -0.12213238,
      -0.08385893,
      -0.21502268,
      -0.21692328,
      0.105352536,
      -0.18930519,
      0.054186594,
      -0.14481369,
      -0.031729832,
      0.00198295,
      0.11609812,
      0.17470226,
      0.058545396
    ],
    [
      0.51993614,
      0.106817804,
      0.18329538,
      0.0034152747,
      -0.71465415,
      -0.28758347,
      0.15567398,
      -0.4163465,
      -0.19307552,
      0.14246014,
      0.23672712,
      -0.21414383,
      -0.17518675,
      0.06078516,
      -0.018043019,
      -0.10737956,
      0.1302164,
      0.13410503,
      0.40386352,
      -0.07450857,
      -0.24151202,
      -0.6416597,
      -0.068688415,
      -0.21771528,
      -0.17562851,
      -0.09331063,
      0.018049283,
      0.12853336,
      -0.122530036,
      0.3373667,
      -0.44196504,
      -0.37135017,
      0.1860069,
      -0.45303106,
      -0.20541885,
      0.03806637,
      -0.037017412,
      -0.4230869,
      -0.09589335,
      0.30948207,
      -0.1946319,
      0.3909382,
      -0.34034908,
      0.0738853,
      -0.5911269,
      0.060535025,
      -0.00007664299,
      0.19909872,
      -0.1521133,
      0.4641399,
      -0.2035196,
      -0.08694635,
      -0.15983325,
      0.089999035,
      -0.21465401,
      -0.03510529,
      0.47546613,
      0.12905909,
      0.14967088,
      0.23115973,
      -0.11281699,
      -0.17259714,
      0.28058028,
      0.10055668,
      0.18803962,
      0.17694779,
      -0.26242393,
      -0.18509203,
      0.1372112,
      0.09481166,
      -0.21713367,
      -0.10499864,
      -0.65275675,
      -0.16463694,
      -0.2761747,
      -0.07369366,
      -0.40010083,
      0.11451336,
      0.3014393,
      -0.12818445,
      -0.4732111,
      -0.4485023,
      0.3320935,
      -0.005270308,
      0.28672972,
      -0.24915974,
      0.44490305,
      0.06184041,
      -0.071667545,
      0.44801798,
      -0.08980565,
      0.22268,
      -0.35302413,
      -0.027713798,
      0.18391573,
      -0.10893564,
      0.21166205,
      -0.11046506,
      0.3902787,
      -0.028882347,
      0.34564787,
      0.42029825,
      -0.20023732,
      -0.46734032,
      -0.042141225,
      0.16980667,
      -0.012166554,
      -0.017408982,
      -0.4822658,
      0.0021765209,
      0.08666268,
      -0.16272902,
      0.021377373,
      0.6385902,
      0.17067091,
      0.24245189,
      0.22594686,
      -0.061073747,
      0.16373423,
      0.09414804,
      0.15447184,
      -0.34800515,
      0.26443845,
      0.11374496,
      -0.13731357,
      -0.16861413,
      -0.16572647,
      -0.06470058
    ],
    [
      0.555625,
      0.3748069,
      0.000892746,
      0.22871144,
      -0.34476802,
      -0.26782623,
      0.31135443,
      -0.2544407,
      -0.09916934,
      0.109837554,
      0.116383426,
      -0.32849792,
      -0.002357463,
      -0.2557928,
      -0.18143687,
      -0.046502724,
      0.40712637,
      0.3872241,
      0.3940622,
      0.1837894,
      -0.35932592,
      -0.24434672,
      0.08077864,
      -0.3650633,
      -0.12161411,
      -0.23053733,
      0.1295033,
      0.11565339,
      -0.007463037,
      0.3958315,
      -0.33572674,
      -0.5370761,
      0.21513529,
      -0.3955247,
      -0.27742985,
      -0.13465852,
      0.1863699,
      0.01199885,
      -0.1361373,
      0.2093985,
      -0.44276994,
      0.26014614,
      -0.4034522,
      0.06171982,
      -0.47626877,
      -0.15162152,
      0.1386714,
      0.059509516,
      -0.1844234,
      0.18172145,
      -0.35028625,
      -0.003775115,
      -0.14544761,
      0.049933076,
      -0.011424214,
      -0.22729592,
      0.4183808,
      0.18509603,
      0.14406683,
      -0.0006104186,
      -0.1565143,
      -0.07160761,
      0.24061258,
      -0.2279289,
      0.30586943,
      0.24013671,
      -0.23490518,
      0.18233478,
      0.4951795,
      0.23119912,
      -0.07044079,
      -0.11258062,
      -0.80249816,
      -0.07198207,
      -0.09140431,
      -0.13147353,
      -0.59649485,
      -0.009795315,
      0.04213204,
      -0.1079167,
      -0.40129122,
      -0.3928494,
      0.14153479,
      -0.019809455,
      0.30218652,
      -0.020263882,
      0.12261185,
      0.13475175,
      -0.050427437,
      0.39092776,
      0.253355,
      0.058700215,
      -0.34012952,
      -0.08556074,
      0.019613879,
      0.20275272,
      -0.19489841,
      -0.1370527,
      0.5081656,
      0.09026411,
      0.45732155,
      0.39983368,
      -0.0877003,
      -0.3869253,
      -0.032359645,
      -0.08978554,
      0.27238727,
      -0.18680616,
      -0.39609262,
      -0.04780315,
      0.14015703,
      -0.405453,
      0.20493414,
      0.266086,
      0.35974652,
      -0.2115346,
      0.02885613,
      0.09634449,
      0.12481601,
      -0.08140683,
      0.27583638,
      -0.044939574,
      0.49857703,
      0.02339753,
      -0.08427125,
      -0.043210804,
      -0.14209707,
      -0.1362566
    ],
    [
      -0.36607277,
      -0.34512913,
      -0.037373435,
      0.030399503,
      0.41767538,
      0.05899538,
      -0.28056636,
      0.35164982,
      0.19064437,
      -0.3061154,
      -0.24116969,
      0.27681082,
      0.16996028,
      0.09876383,
      0.14949888,
      -0.0057967077,
      0.021472063,
      -0.27227515,
      -0.33379588,
      -0.20955084,
      0.067256324,
      0.3541639,
      0.16005455,
      -0.04085409,
      0.1447679,
      0.008500228,
      -0.17293487,
      -0.035253797,
      0.011548122,
      -0.22670893,
      0.44997337,
      0.21362394,
      0.124770164,
      0.23162074,
      0.012035117,
      0.08853506,
      -0.34280717,
      0.24369463,
      0.18863793,
      -0.18048018,
      0.2855931,
      -0.19126312,
      0.23946857,
      0.15547405,
      0.4065737,
      0.105464146,
      0.07603517,
      -0.20486914,
      0.45625728,
      -0.15298794,
      0.25522485,
      -0.30194023,
      0.32908377,
      0.22136247,
      -0.017881744,
      0.22959466,
      -0.2662334,
      -0.32093203,
      -0.34008572,
      -0.34302437,
      0.20988078,
      -0.052179556,
      -0.11182953,
      0.15905996,
      -0.214445,
      -0.30829245,
      0.2915514,
      0.24091429,
      -0.18415533,
      0.10763912,
      0.047157817,
      0.19066754,
      0.4425012,
      0.18691716,
      0.118598506,
      0.071343936,
      0.22143427,
      0.20199074,
      -0.091484755,
      0.4316532,
      0.4687113,
      0.17200543,
      -0.20730156,
      -0.113882154,
      -0.08492769,
      -0.025493113,
      -0.0670219,
      -0.10077712,
      0.16572426,
      -0.17510822,
      0.21919215,
      -0.13670577,
      0.17645434,
      0.24373452,
      -0.11977907,
      0.0674725,
      -0.2079795,
      0.32820338,
      -0.4129033,
      0.18017653,
      -0.28178072,
      -0.31280482,
      0.12370933,
      0.24482909,
      -0.35683155,
      0.18809082,
      0.05020167,
      0.30718046,
      -0.029264988,
      0.13456266,
      -0.3549622,
      0.32635164,
      -0.18161681,
      -0.20378941,
      -0.24711163,
      -0.09175102,
      -0.36178148,
      -0.22145477,
      -0.20687728,
      -0.027240127,
      -0.4710484,
      0.23652181,
      -0.50565916,
      -0.1849761,
      0.21186756,
      0.04673083,
      0.34063864,
      0.2093472
    ],
    [
      0.43656877,
      0.06664385,
      0.5036816,
      0.04295989,
      -0.1592969,
      -0.28211674,
      0.31144413,
      -0.2439623,
      0.1432064,
      0.20250075,
      0.31193838,
      0.029579647,
      -0.032039512,
      -0.011989704,
      -0.015926916,
      0.018386083,
      0.38787144,
      0.13185444,
      0.4017063,
      -0.27274147,
      -0.16987027,
      -0.13914105,
      -0.15125781,
      -0.32383287,
      0.19589809,
      -0.0030776937,
      0.06534792,
      0.30800694,
      -0.22373115,
      0.36360666,
      -0.11145298,
      -0.42443702,
      -0.14726157,
      -0.2805718,
      -0.18739055,
      -0.27965522,
      0.0323823,
      0.03317301,
      -0.35130796,
      0.265879,
      -0.076987766,
      0.39406115,
      -0.5452875,
      0.017531967,
      -0.43585736,
      -0.13628423,
      -0.033377655,
      0.3633084,
      -0.09290255,
      0.060697265,
      -0.24649052,
      0.2625004,
      -0.2820467,
      -0.13764955,
      0.08623021,
      -0.092300795,
      0.27258214,
      0.2946631,
      0.3349075,
      0.18704087,
      -0.26202455,
      -0.23721758,
      0.40132698,
      -0.23855276,
      0.10572157,
      0.12697165,
      -0.27201834,
      -0.38426045,
      0.25951457,
      -0.14081286,
      -0.47024122,
      -0.35559884,
      -0.3930935,
      -0.0795648,
      -0.27082986,
      -0.13132013,
      0.016546933,
      0.118877746,
      0.26091066,
      -0.15075153,
      -0.59770685,
      -0.37966076,
      0.31662127,
      -0.119146645,
      0.44603315,
      0.11889417,
      0.30229405,
      0.09806176,
      0.009893944,
      0.23982358,
      -0.059790827,
      0.09666348,
      -0.20713648,
      0.0021036477,
      0.51712745,
      0.22292839,
      -0.092956334,
      -0.26377434,
      0.3013165,
      -0.21155646,
      0.27614656,
      0.45672214,
      -0.3827697,
      -0.272439,
      0.1585317,
      0.12709948,
      0.03293009,
      -0.14206165,
      -0.22858123,
      -0.03832975,
      0.264503,
      -0.4768252,
      0.015715092,
      0.25520104,
      0.1337957,
      0.2003312,
      0.16681851,
      0.3185817,
      0.228482,
      -0.09773758,
      0.11002707,
      0.13177097,
      0.41471645,
      0.070291296,
      0.020635879,
      -0.06524856,
      -0.26640314,
      -0.286031
    ],
    [
      -0.7999763,
      -0.38690022,
      -0.5932444,
      -0.0907884,
      0.227724,
      0.023140632,
      -0.092334874,
      0.94020754,
      0.24560432,
      -0.63912284,
      -0.031906843,
      0.038172584,
      0.25331244,
      0.30598944,
      0.3113721,
      -0.2348057,
      -0.65945035,
      0.09506254,
      -1.1065961,
      0.27494842,
      0.07586154,
      0.09027535,
      0.29387355,
      0.69294477,
      0.120292574,
      0.30967507,
      -0.27683696,
      -0.40162283,
      0.43288052,
      -0.42481488,
      -0.020770822,
      0.28805166,
      -0.008452664,
      0.01746655,
      0.5357796,
      -0.34011206,
      0.13836125,
      -0.09848367,
      0.44406688,
      -0.1270291,
      0.1775705,
      -0.37999845,
      0.28229448,
      -0.018512635,
      0.5592874,
      0.5333748,
      -0.29125854,
      0.009695885,
      0.12675591,
      -0.32425627,
      0.17522788,
      -0.12363307,
      0.45367223,
      0.468309,
      -0.21778788,
      0.28490657,
      -0.25842026,
      -0.33076587,
      -0.8111738,
      -0.70301163,
      0.22289437,
      0.46445876,
      -0.5197956,
      0.44919884,
      0.06186596,
      -0.39621463,
      0.16287817,
      0.3774952,
      -0.30619875,
      0.3503107,
      0.56366986,
      0.4946365,
      0.43528023,
      -0.3677796,
      0.026072813,
      0.2254598,
      -0.18498534,
      -0.013389173,
      -0.25996375,
      -0.15639131,
      0.8566199,
      0.09783475,
      -0.08682943,
      -0.07231496,
      -0.13847889,
      0.28598624,
      -0.4776179,
      -0.17191948,
      0.48053896,
      -0.0676802,
      0.42736638,
      -0.3664832,
      0.2220981,
      0.19644889,
      -0.4123716,
      -0.28435358,
      -0.1662223,
      0.3677564,
      -0.028046763,
      0.20420587,
      -0.044040773,
      -0.28452894,
      0.81014234,
      0.10710597,
      0.044265892,
      0.11676127,
      0.09103519,
      -0.1719083,
      0.067796886,
      -0.0017874142,
      -0.41286245,
      1.1184809,
      -0.08822328,
      -0.08618438,
      0.05505933,
      0.26307055,
      -0.2369229,
      -0.06782432,
      -0.7486658,
      0.2236116,
      -0.38040063,
      0.12610017,
      0.025174879,
      -0.065018535,
      0.10451838,
      0.3921563,
      -0.069523044,
      -0.114758186
    ],
    [
      -0.4982277,
      -0.08187157,
      -0.3933301,
      -0.30959207,
      0.5532736,
      0.12747647,
      0.2058993,
      0.5254829,
      0.24468209,
      -0.33545467,
      -0.40109733,
      0.3474764,
      0.15230809,
      -0.078339435,
      0.2820613,
      0.18040654,
      -0.41572136,
      0.033185184,
      -0.5474928,
      -0.024649668,
      0.31768575,
      0.335462,
      0.3223525,
      0.19665866,
      0.15795094,
      -0.0061948323,
      -0.11970596,
      -0.03796359,
      0.07700784,
      -0.44627297,
      0.56289154,
      0.7482471,
      -0.08246423,
      0.27835333,
      0.12896024,
      0.117344305,
      -0.17868263,
      0.01222852,
      0.010929139,
      -0.45966774,
      0.29584798,
      -0.4164954,
      0.5228778,
      0.10302919,
      0.6687772,
      0.12472114,
      -0.17821598,
      -0.04649659,
      0.11174971,
      -0.13572247,
      0.2898846,
      -0.124104485,
      0.6142884,
      0.304719,
      0.082523964,
      0.0937344,
      -0.2538195,
      0.002258221,
      0.022536011,
      -0.40347332,
      0.07275624,
      -0.053722214,
      -0.42986876,
      0.13614029,
      -0.20542246,
      -0.013593271,
      0.096786804,
      0.14576113,
      -0.32525286,
      0.006485809,
      0.19635557,
      0.36671987,
      0.7199175,
      -0.046669133,
      0.28762752,
      -0.06595667,
      0.26518756,
      0.085196264,
      -0.20140107,
      -0.122752905,
      0.4326375,
      0.45272547,
      -0.25192884,
      0.12781094,
      -0.19561942,
      0.2421332,
      -0.036314707,
      -0.08085917,
      0.21060918,
      -0.26150164,
      0.09455868,
      -0.18461022,
      0.05665135,
      0.11584803,
      -0.2700361,
      -0.0021977995,
      0.15894085,
      0.20827271,
      -0.303864,
      -0.023182271,
      -0.4804078,
      -0.4651244,
      0.55462044,
      0.08368731,
      -0.063636295,
      -0.17584662,
      -0.11508787,
      0.11923913,
      0.17809607,
      -0.07725934,
      0.05426344,
      0.60723394,
      0.084230185,
      -0.47057915,
      -0.28471074,
      0.0659699,
      0.0050342786,
      -0.23793308,
      -0.17681296,
      0.19960937,
      -0.15870813,
      0.21006614,
      -0.34325707,
      0.05393733,
      0.043215077,
      -0.16330995,
      0.30857682,
      0.056697123
    ],
    [
      0.44572437,
      0.12206911,
      0.04633205,
      0.21206988,
      -0.3518407,
      -0.22856298,
      0.092024,
      -0.41906747,
      -0.30028015,
      0.29248005,
      0.33427358,
      -0.000040880008,
      -0.21738432,
      -0.22953503,
      0.09863212,
      0.053233005,
      0.20440362,
      0.15366627,
      0.2784132,
      0.04801507,
      -0.3198268,
      -0.22533868,
      -0.16310102,
      -0.09610929,
      -0.293093,
      -0.41109362,
      0.0042327656,
      -0.02091805,
      -0.037604537,
      0.31596154,
      -0.28119883,
      -0.3125046,
      0.020500405,
      -0.18937273,
      -0.4053183,
      -0.0919001,
      0.147752,
      -0.16860482,
      -0.15204911,
      0.5767229,
      -0.024945812,
      0.18800049,
      -0.49746627,
      -0.006529428,
      -0.5840218,
      -0.0055419034,
      0.002517728,
      0.33445728,
      -0.031438466,
      0.09786674,
      -0.040758234,
      -0.03873714,
      -0.25196293,
      -0.1512072,
      0.026318403,
      -0.10571897,
      0.2837789,
      0.2849818,
      0.2881385,
      0.27944136,
      0.04856452,
      -0.06873389,
      0.1846498,
      -0.26677874,
      0.36712632,
      0.2889218,
      -0.28905612,
      -0.284462,
      0.19503304,
      -0.15398127,
      -0.2380562,
      -0.26507005,
      -0.6126775,
      -0.146569,
      -0.009434863,
      -0.2566642,
      -0.27756217,
      -0.2269572,
      0.31210732,
      -0.043374266,
      -0.49438703,
      -0.76498157,
      0.12278817,
      0.10394656,
      0.18539767,
      -0.002617512,
      0.02000195,
      0.26322305,
      -0.21916184,
      -0.008109185,
      0.22332506,
      0.080281556,
      -0.2511094,
      0.13723615,
      0.2280419,
      0.054173592,
      -0.14322528,
      0.07296598,
      0.22333065,
      -0.33705068,
      0.19723365,
      0.5047005,
      -0.36770034,
      -0.33641738,
      0.16646086,
      -0.0023265067,
      -0.04101866,
      -0.27197722,
      -0.17607181,
      0.05976283,
      0.07832788,
      -0.45509702,
      0.21720828,
      0.34204563,
      -0.0820903,
      0.0037439577,
      0.10366063,
      0.058649443,
      0.40263706,
      -0.36834177,
      0.16281843,
      -0.096412875,
      0.34267345,
      0.25002173,
      -0.1813969,
      -0.050033595,
      -0.17925648,
      -0.11612204
    ],
    [
      -0.30381852,
      -0.35919252,
      0.12824045,
      0.14103226,
      0.35652202,
      -0.057023764,
      -0.1860921,
      -0.005901182,
      0.2628936,
      -0.20666516,
      -0.4463396,
      -0.20424753,
      0.22295563,
      0.2399624,
      0.061166305,
      0.19083454,
      -0.1755279,
      -0.22904608,
      -0.37658986,
      -0.1753383,
      0.1913188,
      0.3437556,
      0.045411393,
      0.08996895,
      0.20186386,
      0.17575975,
      -0.14569588,
      -0.04716409,
      0.24273013,
      -0.3564297,
      0.1811436,
      0.37670127,
      -0.0837786,
      0.20693253,
      0.3879299,
      0.1627116,
      -0.048711322,
      0.3412442,
      0.28609717,
      -0.38034207,
      0.29196745,
      -0.0071500004,
      0.28885448,
      -0.007868043,
      0.3484951,
      0.09031445,
      -0.06558786,
      -0.22592276,
      0.2609034,
      -0.1485663,
      0.14681679,
      -0.33609426,
      0.2742916,
      0.47388574,
      0.30702028,
      0.40192837,
      -0.32493314,
      -0.009153602,
      -0.23510574,
      -0.29206854,
      0.13158534,
      0.13440332,
      -0.21183208,
      0.41665542,
      -0.24213956,
      -0.052152563,
      0.07841258,
      0.22910427,
      -0.040624868,
      0.37445912,
      0.27292377,
      0.04587155,
      0.18463142,
      0.3505626,
      0.09901963,
      0.041412238,
      0.124188244,
      -0.013237475,
      -0.095930755,
      0.056261934,
      0.27129123,
      0.3020107,
      -0.24089868,
      -0.23450232,
      -0.49043682,
      0.4150308,
      -0.20463693,
      -0.3566081,
      0.139994,
      -0.24676831,
      -0.09388007,
      -0.26099518,
      0.26082867,
      0.43146312,
      -0.10881059,
      -0.35773546,
      0.16254577,
      0.18094343,
      -0.3035169,
      0.23071769,
      -0.21496378,
      -0.089098155,
      -0.10565186,
      0.23040004,
      -0.20752302,
      -0.1677953,
      -0.0069283247,
      0.26694903,
      0.29865414,
      0.039646056,
      -0.30914623,
      0.20498385,
      -0.2269174,
      -0.10674303,
      -0.46357948,
      -0.19745483,
      -0.25819516,
      -0.1047671,
      -0.109898806,
      0.18892168,
      -0.10654456,
      0.14564762,
      -0.28644896,
      -0.13784653,
      -0.04356722,
      0.2612039,
      0.1515578,
      0.14787342
    ],
    [
      0.6648143,
      0.6213299,
      0.25636783,
      0.188208,
      0.06175862,
      0.011875401,
      -0.006928372,
      -0.6307108,
      -0.068464406,
      0.66450953,
      0.10525476,
      -0.31881103,
      -0.56502044,
      -0.27212596,
      -0.30964777,
      0.06682297,
      0.44524992,
      -0.04516432,
      0.7693066,
      -0.11262515,
      0.20429869,
      -0.13491188,
      -0.6051498,
      -0.6785615,
      -0.17091334,
      -0.2662508,
      0.41183212,
      0.5644029,
      -0.62366855,
      0.098195955,
      -0.084718384,
      -0.026063696,
      -0.06535181,
      -0.04404234,
      -0.6381537,
      0.064590715,
      -0.029124213,
      0.19715744,
      -0.7732823,
      0.24959143,
      -0.31856304,
      0.24848638,
      -0.1215634,
      -0.055900015,
      -0.77864665,
      -0.49535197,
      0.14750582,
      0.19312079,
      0.24826235,
      0.02187028,
      -0.2981693,
      0.10517099,
      -0.008934326,
      -0.6116297,
      -0.114645004,
      -0.19602908,
      0.16102773,
      0.4127438,
      0.58744895,
      0.51590014,
      -0.2713513,
      -0.76391673,
      0.1503642,
      -0.191387,
      -0.00094741,
      0.5798247,
      -0.016945913,
      -0.5816144,
      0.12309302,
      -0.5760566,
      -0.5208714,
      -1.015477,
      -0.21859662,
      0.16810162,
      0.01192879,
      -0.19948773,
      0.054121736,
      0.056595158,
      0.048082843,
      0.16863735,
      -0.6111009,
      0.019136379,
      0.12833636,
      0.28381565,
      0.13851677,
      -0.15489954,
      0.52558774,
      0.24428225,
      -1.1241196,
      -0.010583895,
      -0.18404098,
      0.15947893,
      -0.11975008,
      -0.5226428,
      0.3371406,
      0.30493587,
      0.19749214,
      -0.31817257,
      0.114638135,
      -0.42216814,
      0.19583198,
      -0.023843627,
      -0.14301984,
      0.04321319,
      0.15441832,
      -0.2778188,
      -0.11734824,
      0.0044725207,
      -0.012374184,
      -0.38187888,
      0.26852667,
      -0.51834035,
      0.20042658,
      0.14274931,
      0.007375356,
      0.33192778,
      -0.21823765,
      0.2079031,
      0.50641286,
      0.021663815,
      0.09048851,
      0.18365744,
      0.07468303,
      0.26730177,
      0.0015759523,
      -0.17469695,
      -0.08879477,
      0.20308477
    ],
    [
      0.82956433,
      0.19801855,
      0.6060395,
      0.23683362,
      0.038964327,
      0.12409643,
      0.08626411,
      -0.7668311,
      -0.16527146,
      0.5825551,
      -0.09871892,
      0.0067874165,
      -0.21204486,
      -0.4863521,
      -0.33055118,
      0.17908752,
      0.7269702,
      0.01985974,
      1.0359739,
      -0.2603398,
      -0.0073122378,
      -0.1328788,
      -0.5069973,
      -0.8183563,
      -0.082557715,
      -0.06418172,
      0.34382287,
      0.14664088,
      -0.73211384,
      0.27273667,
      -0.091031566,
      -0.26589113,
      0.14878058,
      0.12716125,
      -0.6069336,
      -0.19104947,
      0.006259238,
      0.052616816,
      -0.60780436,
      0.23158494,
      0.112908736,
      -0.026610903,
      -0.2392566,
      0.19954939,
      -0.71461546,
      -0.526734,
      0.28644118,
      0.057257853,
      0.19557562,
      0.08049706,
      -0.03221359,
      0.14885044,
      -0.30206,
      -0.4907958,
      -0.09105587,
      -0.12141317,
      0.25521758,
      0.5839347,
      0.61735165,
      0.6679126,
      -0.3824472,
      -0.567954,
      0.5358075,
      -0.033146806,
      0.0449992,
      0.6249947,
      0.028266696,
      -0.306299,
      0.21162258,
      -0.39401636,
      -0.28989264,
      -0.8139046,
      -0.1814107,
      -0.041835167,
      0.18816555,
      -0.090354376,
      -0.015551353,
      0.03033405,
      0.13683231,
      -0.11956358,
      -0.7388906,
      -0.19389988,
      0.18464954,
      0.1420318,
      0.23380153,
      -0.10414847,
      0.37027714,
      0.25134438,
      -0.8394111,
      -0.22180349,
      -0.42079958,
      0.24851356,
      -0.41703925,
      -0.49764106,
      0.22404139,
      0.35486573,
      0.20039693,
      -0.14765614,
      0.229275,
      -0.34892437,
      0.08245802,
      0.18339658,
      -0.6893287,
      0.020775814,
      0.17305683,
      -0.2278717,
      -0.17132433,
      0.17023352,
      -0.055697713,
      -0.26058307,
      0.49517852,
      -0.9291752,
      0.05780709,
      0.44873175,
      0.23974498,
      0.276587,
      -0.17126511,
      0.31523302,
      0.6166554,
      -0.09857403,
      0.26557985,
      -0.04168711,
      0.13110746,
      -0.05493094,
      -0.41819492,
      -0.45459613,
      -0.3175288,
      0.25512385
    ],
    [
      0.54441,
      0.43896928,
      0.32832623,
      0.16830365,
      0.1026121,
      -0.013841818,
      0.26799965,
      -0.46590906,
      0.0021915655,
      0.42081797,
      -0.013054309,
      -0.118803985,
      -0.37981197,
      -0.5175395,
      -0.6697324,
      -0.21889398,
      0.16070966,
      0.0892547,
      0.4133686,
      0.14923878,
      0.17275138,
      -0.11971363,
      -0.65987927,
      -0.44484475,
      0.015961349,
      -0.12548015,
      0.29933098,
      0.24128146,
      -0.6246061,
      0.10757795,
      0.092876345,
      0.06562201,
      -0.059149317,
      -0.32150498,
      -0.86526793,
      0.16210265,
      0.20450464,
      -0.2834775,
      -0.7841777,
      0.08811607,
      -0.06376326,
      0.01944695,
      -0.1259191,
      -0.3075627,
      -0.40434766,
      -0.49185356,
      -0.104111165,
      0.008458128,
      0.20156054,
      -0.027839022,
      -0.20857038,
      -0.064053014,
      -0.09725105,
      -0.4131175,
      0.15713044,
      -0.11834848,
      0.19662584,
      0.5521917,
      -0.008654782,
      0.4932655,
      -0.37071088,
      -0.62752366,
      0.07276904,
      -0.22020617,
      0.18271402,
      0.35941094,
      0.005134915,
      -0.32198498,
      -0.09438257,
      -0.57023287,
      -0.50026184,
      -0.49500567,
      -0.04499292,
      0.077084854,
      0.04811231,
      -0.33280417,
      -0.0908859,
      0.08238694,
      0.21438208,
      -0.10814476,
      -0.22807528,
      -0.05638802,
      0.04185485,
      0.14634567,
      0.13100494,
      -0.49072066,
      0.5300582,
      0.27927658,
      -0.65151376,
      -0.15849991,
      -0.3840015,
      0.0664049,
      0.03187077,
      -0.51040125,
      0.23970209,
      0.5295511,
      0.26463622,
      0.056307867,
      0.36040017,
      -0.3560924,
      -0.24952206,
      0.2388255,
      -0.4773673,
      0.19700268,
      0.2210658,
      -0.06406857,
      -0.42875794,
      0.21268247,
      -0.044516202,
      -0.4626601,
      0.28822902,
      -0.54756314,
      0.23221314,
      -0.13565496,
      0.21827197,
      -0.024048181,
      0.10619814,
      0.37630144,
      0.06473913,
      -0.24322857,
      0.14953443,
      0.23002215,
      -0.16808309,
      0.1121481,
      -0.29898024,
      -0.6273368,
      0.025250226,
      0.011548904
    ],
    [
      -0.51137275,
      -0.4687337,
      -0.3522324,
      0.00016001116,
      0.40537727,
      -0.08552938,
      -0.054992285,
      0.14845511,
      0.31891873,
      -0.42500716,
      -0.20254323,
      0.0013092047,
      0.21427584,
      0.13670327,
      0.3303132,
      -0.04173104,
      -0.33566347,
      0.084302194,
      -0.34882385,
      0.19572625,
      0.17132893,
      -0.13008645,
      0.41877124,
      0.32473266,
      0.03020672,
      0.019703802,
      -0.3620319,
      -0.3810269,
      0.40025178,
      -0.20109774,
      -0.0034139098,
      0.22384517,
      -0.08779829,
      0.10695373,
      0.29703194,
      -0.013987641,
      -0.11644736,
      0.03325665,
      0.38668168,
      0.03208564,
      0.26834476,
      0.086616054,
      -0.17211774,
      0.48648968,
      0.3581933,
      0.11939339,
      -0.03380696,
      -0.11443436,
      -0.11825514,
      -0.054502215,
      -0.1531116,
      0.001107413,
      0.21950546,
      0.056663483,
      0.19534989,
      -0.0045344112,
      -0.035918843,
      -0.514109,
      -0.3798183,
      -0.22963406,
      0.39205095,
      0.2105657,
      -0.3263219,
      0.33240482,
      -0.0147923445,
      -0.3965481,
      -0.0827468,
      0.3008811,
      -0.26853648,
      0.32846132,
      0.30297446,
      0.3544079,
      0.111073434,
      0.27971974,
      -0.043926176,
      0.08969302,
      0.04659592,
      0.098285,
      -0.32735738,
      -0.08081839,
      0.5305381,
      0.13422385,
      -0.28757775,
      -0.07252192,
      -0.0779857,
      0.14277427,
      -0.315798,
      -0.38623232,
      0.32401067,
      -0.0983265,
      0.11281831,
      -0.39845988,
      0.3367459,
      0.4161615,
      -0.41157612,
      -0.20473453,
      0.028079426,
      0.1991193,
      -0.21812156,
      0.23366614,
      0.07799584,
      -0.086062774,
      0.16250868,
      0.1840266,
      -0.35162175,
      0.11296962,
      -0.09491559,
      -0.20201692,
      0.08248428,
      0.24750149,
      -0.049990516,
      0.37611628,
      -0.2937615,
      -0.010927918,
      -0.03995205,
      -0.25387448,
      0.05258662,
      -0.3926138,
      -0.22899473,
      0.35598648,
      -0.096454985,
      0.011483661,
      0.10428136,
      -0.13794419,
      0.35626987,
      0.3994935,
      -0.040812127,
      0.072469465
    ],
    [
      0.7773795,
      -0.20742705,
      0.2243411,
      -0.065896615,
      -0.48082513,
      -0.055728074,
      0.07607752,
      -0.34432814,
      -0.18161139,
      0.31583846,
      0.2426014,
      -0.27420723,
      -0.13030624,
      -0.10930312,
      -0.31626964,
      0.2946736,
      0.85638785,
      0.3250874,
      0.91579366,
      -0.010366973,
      -0.24154943,
      -0.55610925,
      0.055356063,
      -0.6463947,
      -0.25272232,
      -0.1545776,
      0.21247725,
      0.0608589,
      -0.08880758,
      0.4434898,
      -0.37250945,
      -1.0601122,
      -0.11928637,
      -0.23177686,
      -0.119909845,
      0.07369455,
      0.038004275,
      -0.029953217,
      -0.13616875,
      0.41759133,
      -0.28885058,
      0.6230215,
      -0.40748638,
      0.09628468,
      -0.53919363,
      0.06623367,
      -0.042382453,
      0.070092745,
      -0.17410727,
      0.41824585,
      -0.37128317,
      0.062497962,
      -0.6322829,
      -0.10013038,
      0.24649282,
      -0.11141328,
      0.46322125,
      0.1296452,
      0.12118744,
      0.5041894,
      0.060430206,
      0.07134368,
      0.44762123,
      0.033554375,
      0.42515787,
      0.13414629,
      -0.077760376,
      -0.4227853,
      0.47878745,
      0.049935237,
      -0.16542777,
      -0.08003318,
      -0.89384615,
      0.1027948,
      -0.18980604,
      -0.003165366,
      -0.37388813,
      0.04076247,
      0.111772925,
      0.10725323,
      -0.8253556,
      -0.56669116,
      0.21858561,
      0.13833925,
      0.19055857,
      -0.08844807,
      -0.005324243,
      -0.08236428,
      -0.01618358,
      0.31179062,
      -0.33456177,
      -0.08734088,
      -0.012763638,
      0.098525874,
      0.20051242,
      -0.25031865,
      -0.16298653,
      0.21920614,
      0.11509163,
      -0.044254795,
      0.07561851,
      0.48417863,
      -0.2788118,
      -0.3935359,
      0.09000117,
      -0.008799402,
      0.19969982,
      -0.17411268,
      -0.28087315,
      0.09239476,
      0.16912897,
      -0.56296384,
      0.14446476,
      0.54586464,
      0.31020516,
      -0.123427935,
      0.07054896,
      0.07859015,
      0.70447844,
      0.05880704,
      0.057912756,
      0.04409409,
      0.25761193,
      -0.013701177,
      0.043316104,
      0.13268787,
      -0.05586119,
      -0.35236558
    ],
    [
      0.50454146,
      0.13786313,
      0.1748361,
      -0.0275949,
      0.04213204,
      -0.056997277,
      0.16436161,
      -0.12941934,
      -0.19826625,
      0.32501772,
      0.20948273,
      -0.042954013,
      -0.05198373,
      0.07877264,
      -0.06650412,
      0.09911078,
      0.36099187,
      -0.033598036,
      0.5654866,
      0.2338275,
      0.0057627726,
      -0.38743657,
      -0.28824064,
      -0.100977734,
      -0.23949894,
      -0.068646014,
      0.3848749,
      0.38764298,
      -0.38321382,
      0.23173036,
      -0.20835476,
      -0.2842289,
      0.15731573,
      -0.29248014,
      -0.36321622,
      -0.127883,
      0.2754343,
      -0.076418005,
      -0.4143894,
      0.0600067,
      -0.2406754,
      0.16414341,
      -0.48495516,
      -0.23800682,
      -0.25258192,
      -0.18904316,
      0.14593336,
      0.18332472,
      -0.14220583,
      0.23123577,
      -0.37197745,
      0.055386,
      -0.19944742,
      -0.10618282,
      -0.06128648,
      -0.2137996,
      0.12854393,
      0.26563329,
      0.11744311,
      0.13510646,
      -0.23276535,
      -0.24502274,
      0.21369417,
      -0.10462493,
      -0.040669378,
      0.22634986,
      -0.31519586,
      -0.15822062,
      0.23889805,
      -0.28073937,
      -0.05681024,
      0.07457837,
      -0.2481463,
      0.059602883,
      -0.24694583,
      -0.43977222,
      -0.02143533,
      -0.22301786,
      0.078723416,
      -0.06754716,
      -0.4052641,
      -0.17440917,
      0.17439494,
      0.06258586,
      0.40564117,
      -0.28409472,
      0.056771524,
      0.26135477,
      -0.11962988,
      0.10671716,
      0.30202302,
      0.2834466,
      -0.13754317,
      -0.08676942,
      -0.04803409,
      0.10345839,
      0.05712815,
      -0.17334794,
      0.25632608,
      -0.44671276,
      0.095775954,
      0.21189468,
      -0.027399829,
      -0.16348852,
      0.16888434,
      0.16667026,
      -0.11207529,
      -0.23666969,
      -0.0093237255,
      -0.1988477,
      0.20796497,
      -0.4679555,
      0.27544725,
      0.47858343,
      0.023555087,
      0.27777883,
      0.13436835,
      0.23140445,
      0.28185546,
      -0.286768,
      0.02070198,
      -0.1889193,
      0.10854694,
      0.14361413,
      -0.26888114,
      -0.28584698,
      -0.17993057,
      -0.13021214
    ],
    [
      -0.040442552,
      -0.07447978,
      -0.09069711,
      0.09876039,
      0.36325893,
      0.22217293,
      -0.21825942,
      0.046857763,
      0.06280838,
      -0.31652454,
      -0.26003802,
      -0.029894212,
      0.2558236,
      0.11776641,
      0.26486057,
      0.40920824,
      -0.07188829,
      -0.40980884,
      0.007766536,
      -0.14973544,
      0.15931126,
      0.1608102,
      0.20295772,
      0.05815699,
      0.40553248,
      0.302162,
      -0.20306623,
      -0.17889594,
      0.21085659,
      -0.36745542,
      -0.007687706,
      0.056571875,
      -0.16570589,
      0.24797791,
      0.11130982,
      0.03533273,
      -0.057802543,
      0.26898158,
      0.21433142,
      -0.31358948,
      0.24421579,
      -0.04391576,
      0.37341386,
      0.37640527,
      0.20534748,
      0.089767635,
      0.07918403,
      -0.0014967966,
      0.38411325,
      -0.050735712,
      0.2963446,
      -0.49287012,
      -0.020313302,
      0.060012214,
      0.31599757,
      0.11266682,
      -0.45624122,
      -0.22961268,
      -0.1104614,
      0.21819545,
      0.22769648,
      0.1744479,
      -0.13318245,
      0.20678553,
      -0.5021785,
      -0.21513602,
      0.37459445,
      0.14987804,
      -0.1129113,
      0.1779483,
      0.090946004,
      0.35392904,
      0.16994277,
      0.14612241,
      0.2152351,
      0.2709437,
      0.16415745,
      0.27804163,
      -0.045878336,
      0.11610866,
      0.048669003,
      0.20795462,
      -0.23201741,
      -0.10751469,
      -0.110878736,
      0.28330946,
      -0.2689725,
      -0.35267672,
      0.28477305,
      -0.19978356,
      -0.13619724,
      -0.3758323,
      0.22983155,
      0.01448164,
      0.07146736,
      -0.19037902,
      0.03459952,
      0.12889934,
      -0.25754008,
      0.23434453,
      -0.3035638,
      0.055249106,
      0.1972423,
      0.3498959,
      -0.13525632,
      0.0062675537,
      0.008204776,
      0.08525992,
      -0.024125732,
      0.12651543,
      -0.008084973,
      -0.031138463,
      -0.37247342,
      -0.41807377,
      -0.29548064,
      -0.22538546,
      -0.24629767,
      -0.30109307,
      -0.04301147,
      -0.01716119,
      -0.5220735,
      0.047803108,
      -0.14376909,
      -0.22674897,
      0.16375595,
      0.26815262,
      0.27371112,
      0.46221766
    ],
    [
      0.46678618,
      0.22775534,
      0.14264525,
      0.12929522,
      -0.3923793,
      -0.3394289,
      0.1961107,
      -0.23965044,
      -0.17340381,
      0.17566933,
      0.32227308,
      -0.27133197,
      -0.17288165,
      -0.15960787,
      -0.042584736,
      0.041791752,
      0.5314293,
      0.17999175,
      0.34824342,
      -0.027605912,
      -0.3465826,
      -0.311364,
      -0.19891241,
      -0.37743118,
      -0.1408576,
      -0.033489946,
      -0.16420622,
      0.072905995,
      -0.11762872,
      0.45568871,
      -0.21513575,
      -0.41499737,
      0.03350831,
      -0.19800779,
      -0.20689957,
      -0.2563014,
      0.18112132,
      -0.16843544,
      -0.24487162,
      0.37405902,
      -0.17575343,
      0.24506086,
      -0.40502366,
      0.03819064,
      -0.5630701,
      -0.34406027,
      0.15305421,
      0.26844037,
      0.07188228,
      0.49728495,
      -0.34380314,
      0.057883944,
      -0.42270458,
      0.13253483,
      0.026799392,
      -0.39214548,
      0.7378198,
      0.12327039,
      0.27029297,
      0.44101983,
      0.043927167,
      -0.1747728,
      0.19963266,
      0.08347533,
      0.17533693,
      0.20754114,
      -0.21948761,
      -0.14478709,
      0.39987877,
      -0.06354744,
      -0.3317187,
      -0.11311098,
      -0.62828696,
      -0.45381168,
      -0.189813,
      -0.16631219,
      -0.048680097,
      -0.17050713,
      0.15371518,
      -0.12642807,
      -0.58938694,
      -0.39529708,
      0.104539424,
      0.23059545,
      -0.17540193,
      -0.15859506,
      0.20112948,
      0.048463706,
      -0.23488382,
      0.34337866,
      -0.03582121,
      0.17300768,
      0.15126848,
      0.03129301,
      0.12023733,
      0.05005655,
      -0.223138,
      -0.28192404,
      0.3415818,
      0.087512165,
      0.26388502,
      0.40241414,
      -0.32666335,
      -0.21593688,
      0.19877183,
      -0.067349456,
      0.12337176,
      -0.24522741,
      -0.17647369,
      -0.04752904,
      0.023857016,
      -0.59546596,
      0.12746711,
      0.5204033,
      0.31396273,
      0.11614057,
      0.4790562,
      0.28483713,
      0.32248083,
      -0.14346185,
      -0.050881162,
      -0.1725598,
      0.15361877,
      -0.08504696,
      0.00056402717,
      -0.028864024,
      -0.19825669,
      -0.11929094
    ],
    [
      0.47584656,
      0.09596107,
      0.42256382,
      -0.19629085,
      -0.47638902,
      -0.07779348,
      0.1622412,
      0.12751614,
      0.003368139,
      0.19120654,
      0.24833988,
      -0.23350915,
      -0.40309653,
      -0.30393207,
      -0.19992892,
      -0.23327862,
      0.048770785,
      0.11763096,
      0.12749857,
      0.14076594,
      -0.12513328,
      -0.5525047,
      0.044918474,
      -0.14029454,
      -0.16317295,
      -0.032902453,
      0.11721818,
      0.07938796,
      0.005498165,
      0.45540905,
      -0.42111805,
      -0.3377746,
      0.28442013,
      -0.29519877,
      -0.035797235,
      -0.07156674,
      0.36421263,
      -0.18695058,
      -0.0893032,
      0.28078744,
      -0.23475982,
      0.31048736,
      -0.33786818,
      -0.15234953,
      -0.2316474,
      -0.15198176,
      -0.061895285,
      0.2981774,
      0.011878339,
      0.09326392,
      -0.05298605,
      0.28218406,
      -0.12545876,
      -0.21799168,
      -0.114675656,
      -0.2778062,
      0.6453708,
      -0.022278352,
      0.31120571,
      0.075879596,
      -0.09316598,
      -0.11957032,
      0.07593911,
      -0.08982964,
      0.3856211,
      0.09109316,
      -0.3270574,
      -0.023443686,
      0.067479,
      -0.009200035,
      -0.08605079,
      -0.38238034,
      -0.44559205,
      -0.24171539,
      -0.17897968,
      -0.25161245,
      -0.2886419,
      -0.13148853,
      0.23496866,
      -0.094260536,
      -0.38294804,
      -0.22183982,
      0.10067681,
      0.15432338,
      0.26542002,
      -0.04474256,
      -0.10837371,
      0.20042981,
      -0.085330434,
      0.44779825,
      0.17656589,
      0.10209943,
      -0.19562945,
      -0.24842452,
      -0.0037441384,
      -0.088875696,
      0.0013070385,
      -0.2285897,
      0.15788862,
      -0.28928986,
      0.26625502,
      0.4444201,
      -0.077261545,
      -0.40268758,
      -0.08138552,
      0.061074935,
      0.21634355,
      -0.42184353,
      -0.43410146,
      0.0067649595,
      -0.01951376,
      -0.4688423,
      0.21324837,
      0.19300179,
      0.1769667,
      0.28545433,
      0.12611374,
      0.124594204,
      0.26956883,
      -0.39005378,
      0.32493898,
      0.03785331,
      0.15646313,
      -0.11434843,
      -0.24218035,
      -0.07565695,
      -0.27336523,
      -0.020111624
    ],
    [
      -0.2619652,
      -0.10545095,
      0.020723304,
      -0.06326181,
      0.4095787,
      0.24004266,
      -0.4072244,
      0.31977075,
      0.09658896,
      -0.1305875,
      -0.39873686,
      0.4078508,
      -0.045224484,
      -0.14680937,
      0.009557631,
      0.23615946,
      -0.119672135,
      -0.25222224,
      0.085173726,
      -0.1435765,
      0.26407757,
      0.22352028,
      0.057315793,
      0.07465622,
      0.25644398,
      -0.071956344,
      -0.13358162,
      0.014962163,
      0.13115211,
      -0.36465457,
      0.041283127,
      0.19366424,
      -0.39780036,
      0.24243367,
      -0.01729206,
      0.014363235,
      -0.32119134,
      0.09715341,
      0.26778868,
      -0.39842552,
      0.31849778,
      -0.3218313,
      0.34615168,
      0.123390555,
      0.039161917,
      -0.0032865219,
      -0.044999592,
      -0.2979099,
      0.081001684,
      -0.10623373,
      0.20712076,
      -0.28474405,
      0.23143798,
      0.24879915,
      0.26664093,
      0.26383078,
      -0.38493848,
      -0.15878268,
      -0.26464868,
      -0.20771751,
      0.05076266,
      0.10551374,
      0.084016405,
      0.031492513,
      -0.3261581,
      0.073834844,
      0.22398101,
      0.033557367,
