{"obs_dim": 4, "action_dim": 2, "hidden_dim": 64, "shared_fc1_weight": [[0.5813475251197815, -0.029717449098825455, 1.0559191703796387, 0.39765146374702454], [-0.5618892908096313, 0.7729431390762329, 1.254582405090332, -0.36473530530929565], [0.07318709790706635, -0.6681810021400452, -1.0816224813461304, 1.3574012517929077], [0.09821667522192001, -0.5242838859558105, 0.9880257844924927, 0.5618805885314941], [-0.07351986318826675, 0.5165132880210876, -0.7768511772155762, 0.3216625452041626], [-1.3016250133514404, -0.34914496541023254, 0.5462539196014404, 0.22362537682056427], [-0.4768125116825104, -0.1559782773256302, 0.8220781087875366, -0.23684339225292206], [-0.6159713864326477, -0.8356152772903442, -1.3747748136520386, -0.41046133637428284], [-1.701296091079712, -0.3200313448905945, -0.43693503737449646, -0.23393788933753967], [-1.4468344449996948, -1.0566229820251465, 0.5929593443870544, 1.0191932916641235], [-0.046240609139204025, -1.207961082458496, -0.3737603425979614, -0.764851987361908], [-1.1464872360229492, 0.6047523617744446, -1.614004373550415, -0.4022368788719177], [1.0473567247390747, -0.4947674870491028, 1.2097394466400146, 0.8660020232200623], [0.6688274145126343, 0.3098565638065338, 1.2628754377365112, -0.48337647318840027], [-1.1076489686965942, -0.9813116192817688, 0.47857022285461426, -0.9315751791000366], [1.7657356262207031, 0.16947734355926514, 1.727061152458191, 0.11484158039093018], [1.4319005012512207, -1.144863247871399, 0.8904880881309509, -0.9182262420654297], [1.4463661909103394, -0.35205990076065063, 1.1217031478881836, 0.7706291079521179], [0.5176798105239868, -0.22530792653560638, -0.3925554156303406, 0.7720419764518738], [-0.4422050714492798, 1.1397356986999512, 0.1669207215309143, 0.6703893542289734], [-0.9490495324134827, 0.26153039932250977, 0.25679445266723633, -0.27016523480415344], [1.083310842514038, 1.0498981475830078, 1.8662980794906616, 0.8301876187324524], [-1.0065499544143677, -0.9893528819084167, -1.2055566310882568, -0.7803547978401184], [0.9354501366615295, 0.7133023738861084, 0.3231560289859772, 0.9314882159233093], [1.435962200164795, -0.29359403252601624, 0.02393542043864727, 0.3462055027484894], [1.051665186882019, -1.1499582529067993, -1.133880376815796, -0.08053614944219589], [0.39663469791412354, -0.7632282376289368, -0.34083589911460876, -0.47589972615242004], [0.1651579886674881, 0.6806135177612305, 0.18283607065677643, -0.5181767344474792], [1.1706260442733765, 0.006776752416044474, 1.231597661972046, 0.011138969101011753], [0.6803260445594788, 0.21120195090770721, -1.2579509019851685, -0.21107660233974457], [0.8105597496032715, 1.0579769611358643, 0.9129337072372437, 0.5884150266647339], [-1.0449415445327759, -0.46757644414901733, -0.17044107615947723, 1.1563612222671509], [0.20324403047561646, -0.23279371857643127, 0.9831957221031189, -0.6982521414756775], [-1.3704719543457031, 0.7374083995819092, 0.026739319786429405, -0.7080814838409424], [0.4257224500179291, 1.2166786193847656, 1.4145729541778564, -0.23234404623508453], [-1.0494959354400635, 0.37055692076683044, 1.0194631814956665, -0.5341411232948303], [1.571802020072937, 0.7696985602378845, 0.9587538838386536, 0.4859693944454193], [0.48155686259269714, -0.8171298503875732, -0.9129328727722168, -0.7791821956634521], [-0.20363005995750427, 0.012307829223573208, -0.8774663805961609, -0.23447127640247345], [-0.19238460063934326, 0.8743528127670288, 1.1683120727539062, 0.7989007830619812], [1.5511548519134521, -0.42780399322509766, 0.02692580595612526, -0.6136922240257263], [-0.5042228102684021, 0.8226249814033508, -0.7907814383506775, -0.5111846923828125], [-0.08958298712968826, 0.2746812403202057, 0.7516648769378662, 0.8824030756950378], [0.8459116816520691, -0.6249512434005737, 1.235971450805664, 0.2922649681568146], [0.6916432976722717, -0.37504059076309204, -0.247566819190979, -0.8465515375137329], [0.10142718255519867, 0.21837136149406433, -1.3887559175491333, -1.104584813117981], [-0.16369280219078064, 0.3945157825946808, -1.1133761405944824, -0.12230624258518219], [0.29252779483795166, 0.8634107708930969, 1.3930621147155762, 0.21123714745044708], [0.7044462561607361, -1.0633041858673096, 0.5784546732902527, -0.9225177764892578], [-0.5031118988990784, -0.6200273036956787, -1.362021565437317, 0.6290018558502197], [-0.3881984055042267, -0.1808851659297943, -0.4712503254413605, -0.018523801118135452], [-0.3118419349193573, -0.3727358281612396, -1.308783769607544, -0.9860032796859741], [-0.22230006754398346, 0.7239096164703369, 0.051823798567056656, -0.22790761291980743], [-0.2692672908306122, 0.005302279721945524, 1.1263351440429688, -0.2918306589126587], [-0.81753009557724, 0.05078984051942825, 0.5205469727516174, 0.05198267102241516], [-1.5277196168899536, -0.1030111163854599, -1.6252449750900269, -0.15287107229232788], [0.1466277688741684, -0.1956905573606491, -0.7432669997215271, -0.6033503413200378], [-0.03656819090247154, 0.08050723373889923, 0.34928542375564575, 1.0757101774215698], [0.2199268639087677, 0.9581543207168579, -0.017910964787006378, 0.44091111421585083], [-0.06751935184001923, 0.3259084224700928, 0.059148721396923065, 0.2749638259410858], [0.9382284283638, 0.9797304272651672, 0.42789918184280396, 0.4939102828502655], [-1.4492104053497314, 0.9073002934455872, -0.6515910625457764, 0.7562533020973206], [0.5911892056465149, -0.9301552772521973, -0.997141420841217, -0.5834416747093201], [-0.7736318707466125, 1.07494056224823, 0.9924029111862183, 0.27592381834983826]], "shared_fc1_bias": [0.9141668081283569, 0.6397920250892639, 0.4293683171272278, 0.3654015362262726, 0.887182891368866, -0.45650050044059753, 0.3343391418457031, 0.3913988173007965, -0.023671604692935944, 0.1748575121164322, -0.09593326598405838, -0.40134820342063904, -0.27851036190986633, -0.35591650009155273, -0.5909503698348999, -0.05171150714159012, -0.042929138988256454, -0.4247613251209259, 0.5797648429870605, -0.29991212487220764, 0.5549030303955078, -0.0998745784163475, -0.5279531478881836, 0.7751246094703674, -0.4574136734008789, 0.35528668761253357, 0.6983518600463867, -0.41230297088623047, -0.00857195258140564, 0.741910457611084, 0.6289989948272705, 0.7764258980751038, 0.5910133123397827, -0.3891279101371765, -0.2698054611682892, -0.5720948576927185, 0.0062909722328186035, 0.5344959497451782, 0.7193276286125183, 0.7609460353851318, -0.15491966903209686, 0.5320268273353577, 0.7127273082733154, -0.6698344945907593, -0.6170828342437744, 0.6207854747772217, 0.7939618825912476, 0.9786801338195801, 0.6669164299964905, 0.015763431787490845, 0.4448298513889313, 0.23892387747764587, 0.06781188398599625, 0.6949097514152527, 0.4218481183052063, -0.013089660555124283, 0.8373895287513733, -0.22620004415512085, -0.43082278966903687, 0.6646549701690674, -0.30301642417907715, -0.091464564204216, 0.9191612005233765, 0.16374273598194122], "shared_fc2_weight": [[0.08449162542819977, 0.23089030385017395, 0.30958646535873413, 0.3982044458389282, 0.10282101482152939, -0.19662261009216309, 0.5228412747383118, 0.19109831750392914, -0.4062137007713318, -0.09115343540906906, 0.05106190964579582, -0.33268025517463684, -0.33940058946609497, -0.10141728818416595, -0.3785141110420227, -0.9889521598815918, -0.5644208192825317, 0.06529057770967484, 0.062422867864370346, -0.2940014898777008, 0.25784289836883545, -0.19237707555294037, -0.3710830509662628, -0.0899648666381836, -0.5057284235954285, -0.06698837876319885, 0.45779383182525635, 0.2197604775428772, -0.7136021852493286, 0.36598891019821167, -0.006284002680331469, 0.4056335985660553, -0.04672541096806526, 0.03671920299530029, 0.0998290404677391, -0.10471158474683762, -0.06766465306282043, 0.30291083455085754, 0.440078467130661, 0.43559128046035767, 0.00922282412648201, 0.190522700548172, 0.19703292846679688, -0.32611408829689026, 0.0546211414039135, -0.11026489734649658, 0.3302156329154968, 0.36785751581192017, -0.08184434473514557, 0.15309935808181763, 0.3456435799598694, 0.08595860749483109, 0.3872234523296356, 0.01798034831881523, 0.41318845748901367, -0.6668354868888855, 0.23897428810596466, -0.16276760399341583, -0.3696540296077728, 0.5562905669212341, -0.415688157081604, 0.09141361713409424, 0.31422072649002075, 0.318921834230423], [0.06323254853487015, 0.1297457069158554, -0.0920867994427681, -0.20708180963993073, -0.32015591859817505, -0.19100995361804962, -0.15430772304534912, 0.11405687779188156, 0.36202386021614075, -0.007379586808383465, 0.11089816689491272, 0.38340893387794495, 0.016210781410336494, 0.37381988763809204, -0.21897058188915253, 0.9171679615974426, 0.6120240092277527, 0.38104599714279175, -0.07436832785606384, 0.6644083261489868, 0.3106619119644165, 0.44550374150276184, 0.5495228171348572, 0.2903479039669037, 0.3406285047531128, 0.19414523243904114, -0.12346633523702621, 0.15727266669273376, 1.0516200065612793, 0.26182544231414795, 0.05872573330998421, -0.1443389505147934, 0.0060102506540715694, -0.20228302478790283, 0.20281405746936798, 0.19118309020996094, 0.42971619963645935, 0.39160338044166565, 0.14915184676647186, -0.17411094903945923, -0.18809334933757782, -0.0981224775314331, -0.30132946372032166, 0.5879971981048584, 0.34333735704421997, 0.22282832860946655, -0.25568443536758423, 0.1766643077135086, 0.38392898440361023, 0.46223965287208557, 0.08475929498672485, -0.10291550308465958, -0.2727559506893158, 0.14789262413978577, -0.21914169192314148, 0.6116792559623718, 0.13560888171195984, -0.11910252273082733, 0.541836142539978, 0.008517482317984104, 0.3639880418777466, -0.04983309656381607, -0.12116280198097229, 0.01615738682448864], [0.4358738660812378, 0.4324086606502533, 0.0007401045877486467, 0.3896999955177307, 0.5209268927574158, -0.3384503126144409, 0.4524306654930115, -0.06166971102356911, -0.47825682163238525, -0.21965686976909637, -0.11531757563352585, -0.38119828701019287, 0.21302767097949982, -0.10977952927350998, -0.3078829050064087, -0.5075165629386902, -0.43336963653564453, -0.29347458481788635, 0.2599998116493225, -0.42037495970726013, -0.10543923079967499, -0.4983409643173218, -0.46813875436782837, 0.0017651865491643548, -0.04939711466431618, -0.014225678518414497, 0.47403866052627563, 0.1604842245578766, -0.5307271480560303, 0.12216189503669739, 0.027529310435056686, 0.25706762075424194, 0.062211114913225174, -0.36820119619369507, -0.15865164995193481, 0.214032843708992, -0.481789231300354, 0.06765860319137573, 0.33191385865211487, 0.4268801212310791, -0.3755350410938263, 0.2618162930011749, 0.06191953644156456, -0.1451016515493393, -0.08446633815765381, -0.17039754986763, 0.3753330707550049, 0.2012016773223877, 0.18077923357486725, 0.25207918882369995, -0.032023388892412186, 0.06743347644805908, -0.022165225818753242, 0.4757527709007263, 0.225331112742424, -0.5238288044929504, 0.4365684986114502, 0.1870158165693283, -0.432454377412796, 0.08929223567247391, -0.2952254116535187, 0.030471444129943848, 0.09550149738788605, -0.07983481884002686], [0.5038567781448364, 0.2291950285434723, -0.08108536899089813, -0.04808398708701134, 0.6616993546485901, -0.34847503900527954, 0.3860985338687897, 0.3114113211631775, 0.10218469053506851, 0.17527297139167786, -0.3957187533378601, -0.10561440885066986, -0.2851649820804596, -0.4743863642215729, 0.023966806009411812, -0.7513217926025391, -0.6836028099060059, -0.23403127491474152, 0.33194389939308167, -0.5877641439437866, 0.4947815239429474, -0.36924710869789124, -0.29164838790893555, 0.10066044330596924, -0.34804436564445496, 0.06900003552436829, 0.6028257608413696, -0.017499735578894615, -0.9183992147445679, 0.13459718227386475, 0.04245808348059654, 0.3930925130844116, 0.3918314278125763, 0.20219746232032776, 0.10770924389362335, -0.10995010286569595, -0.08211823552846909, 0.20239096879959106, 0.2678453326225281, 0.10759969800710678, -0.26670119166374207, -0.16605615615844727, 0.013909493573009968, -0.2883249521255493, 0.2160569131374359, 0.2768622636795044, 0.2962210178375244, -0.04916183650493622, 0.30494779348373413, -0.191028892993927, -0.0860634595155716, -0.10075241327285767, 0.08116156607866287, 0.42684805393218994, 0.5821834206581116, -0.5481023192405701, 0.30463966727256775, 0.08008130639791489, -0.5173797011375427, 0.4216642379760742, -0.12098941206932068, -0.3349393904209137, 0.36316975951194763, 0.2809901237487793], [0.5002215504646301, 0.3200497627258301, -0.13169051706790924, 0.3470701277256012, 0.4720149338245392, -0.25018224120140076, 0.0685608759522438, 0.31178078055381775, 0.058018818497657776, -0.1248055100440979, -0.18394728004932404, -0.3214985728263855, 0.04227767139673233, -0.4332062005996704, 0.0841694250702858, -1.0214911699295044, -0.565041720867157, -0.016677364706993103, 0.13591182231903076, -0.6930692195892334, 0.2330809086561203, -0.6701834797859192, -0.25498324632644653, 0.32504361867904663, -0.1913568079471588, 0.08036154508590698, -0.03246238827705383, -0.3268297016620636, -0.5933946967124939, 0.31384772062301636, 0.06280995160341263, 0.12451130151748657, 0.22788533568382263, 0.19967308640480042, -0.12349925190210342, -0.2977985739707947, -0.3245593309402466, 0.3043484687805176, 0.48895683884620667, -0.04889005050063133, -0.058233823627233505, 0.41115179657936096, 0.39985448122024536, 0.03825698047876358, -0.031242160126566887, 0.11023250222206116, -0.041054800152778625, 0.08949388563632965, 0.025960681959986687, -0.14871716499328613, 0.1605750471353531, 0.4244299530982971, 0.12425680458545685, 0.4203949272632599, 0.05050958693027496, -0.2822372615337372, -0.007082425989210606, 0.3342907428741455, -0.27862095832824707, 0.5380098819732666, -0.47525352239608765, -0.2670819163322449, 0.4150988757610321, -0.20792289078235626], [0.08087439835071564, 0.3212345242500305, -0.14515946805477142, 0.38959553837776184, 0.20328710973262787, -0.1284600794315338, 0.05099887773394585, 0.2279415875673294, -0.12027502059936523, 0.37070128321647644, -0.27591657638549805, -0.15351389348506927, -0.16356876492500305, -0.16512002050876617, -0.005392984952777624, -0.8046100735664368, -0.23079170286655426, -0.021728554740548134, 0.41108882427215576, -0.7002778649330139, -0.04702848196029663, -0.33988773822784424, -0.28484246134757996, 0.08970091491937637, 0.09599462151527405, 0.3889072835445404, 0.22298134863376617, -0.1959560662508011, -0.6076030135154724, 0.28105980157852173, 0.19055230915546417, 0.2123197615146637, 0.0850372239947319, 0.028638100251555443, -0.11232311278581619, -0.10680761933326721, -0.24609582126140594, 0.057554762810468674, 0.3110026717185974, 0.2951068878173828, -0.19018541276454926, 0.3035963475704193, 0.4594915211200714, -0.1401699185371399, 0.20947366952896118, -0.03541511669754982, 0.3848154842853546, 0.22189685702323914, 0.35561874508857727, 0.14358697831630707, 0.22664611041545868, -0.0651807188987732, 0.07749175280332565, 0.27549800276756287, 0.17399579286575317, -0.6487130522727966, 0.10029704123735428, 0.24586248397827148, -0.6954222917556763, 0.48134663701057434, -0.2923949658870697, -0.4301561415195465, 0.25921815633773804, 0.14150118827819824], [0.4333204925060272, 0.20866504311561584, 0.06166777387261391, 0.1430215984582901, 0.5640896558761597, -0.015131933614611626, 0.3811759352684021, -0.10454747825860977, -0.27412155270576477, -0.1435525119304657, -0.44518598914146423, -0.11425218731164932, -0.3338659107685089, -0.06397274136543274, -0.47649773955345154, -0.610853910446167, -0.14166583120822906, -0.3159765899181366, -0.006739369593560696, -0.5473910570144653, 0.10792528092861176, -0.3223559856414795, -0.1124621033668518, 0.03187931701540947, -0.21675139665603638, 0.31660881638526917, 0.11670278012752533, -0.2507675588130951, -0.5206512808799744, 0.013681912794709206, 0.47191864252090454, 0.4346505403518677, 0.12401033937931061, -0.24571795761585236, -0.09834811836481094, -0.2765694558620453, -0.25212427973747253, 0.05719586834311485, 0.38605576753616333, 0.5888779759407043, -0.35344356298446655, 0.015018943697214127, 0.013061214238405228, 0.13162627816200256, -0.05129585787653923, -0.07084589451551437, 0.5071285963058472, -0.02347932755947113, 0.2755727469921112, -0.14784806966781616, 0.07573621720075607, -0.10547004640102386, 0.31964537501335144, 0.2229030877351761, 0.11619972437620163, -0.49203240871429443, 0.07699135690927505, -0.08789412677288055, -0.21067039668560028, 0.47052308917045593, -0.13581238687038422, -0.1932828426361084, 0.2961629629135132, 0.10617348551750183], [0.001656543230637908, 0.005811991635710001, 0.3922312557697296, 0.312166690826416, 0.2604353725910187, -0.01086657028645277, 0.5438737273216248, -0.19329026341438293, -0.2994731068611145, 0.12641336023807526, -0.13285323977470398, -0.2728940546512604, 0.1737045794725418, -0.5701993107795715, -0.3351763188838959, -0.5875108242034912, -0.5206522941589355, -0.13481436669826508, 0.39512497186660767, -0.1768176108598709, 0.40594443678855896, -0.6076376438140869, -0.16347752511501312, 0.1034877747297287, 0.015022743493318558, 0.3739479184150696, 0.27960285544395447, 0.10777350515127182, -1.0375534296035767, -0.006327889394015074, -0.08535311371088028, 0.26732581853866577, 0.505671501159668, -0.27516862750053406, -0.23659935593605042, 0.20844054222106934, -0.1319819539785385, 0.3169156610965729, 0.5888184309005737, 0.03827441483736038, -0.11666755378246307, 0.10967764258384705, -0.01875270903110504, -0.28155890107154846, -0.2202811986207962, 0.22299425303936005, -0.01681923121213913, 0.4021819829940796, -0.09152920544147491, -0.1751125007867813, 0.14714522659778595, -0.114791639149189, 0.19104963541030884, 0.19698406755924225, 0.09994470328092575, -0.3012656271457672, 0.5122843980789185, 0.32951271533966064, -0.3048536777496338, 0.4233647286891937, -0.26967698335647583, -0.2134963572025299, 0.5381711721420288, 0.3427294194698334], [0.09126071631908417, 0.24514146149158478, 0.14669954776763916, 0.1631748378276825, 0.28721630573272705, 0.01567883789539337, 0.4628324806690216, -0.16426096856594086, -0.12786723673343658, 0.01987357623875141, 0.17716555297374725, 0.17364820837974548, -0.21326769888401031, -0.08613000810146332, -0.30950677394866943, -0.5289802551269531, -0.10533130913972855, -0.15711426734924316, 0.33501628041267395, -0.5295012593269348, -0.12784737348556519, -0.27839043736457825, -0.11531533300876617, 0.3854273855686188, -0.43547219038009644, 0.4484030306339264, 0.5080077648162842, 0.10558529198169708, -0.7262982726097107, -0.03356562554836273, 0.07830005139112473, -0.029197266325354576, 0.32934901118278503, 0.03281348943710327, -0.20957863330841064, 0.2550557851791382, -0.22330619394779205, 0.2817719876766205, 0.27454832196235657, 0.20519939064979553, -0.2893243432044983, 0.1343885213136673, 0.3467215597629547, -0.08120600879192352, -0.2057570368051529, -0.092530257999897, 0.5080112814903259, 0.3431914448738098, 0.37644144892692566, -0.08886449038982391, -0.13868612051010132, 0.045956648886203766, 0.15209510922431946, 0.5700149536132812, 0.49864843487739563, -0.25402557849884033, 0.08404368162155151, 0.031962137669324875, -0.2753599286079407, 0.06742140650749207, -0.009465575218200684, -0.2879983186721802, 0.24498023092746735, -0.12390710413455963], [-0.29370033740997314, -0.12020592391490936, 0.3818049132823944, 0.041243597865104675, -0.1395658701658249, -0.11349864304065704, 0.3564871549606323, 0.32882505655288696, 0.04588262736797333, 0.007996739819645882, 0.41005629301071167, -0.07843802124261856, -0.2555365264415741, -0.319819837808609, 0.26613879203796387, 0.5244799256324768, 0.2406947761774063, -0.053217921406030655, -0.24758119881153107, 0.5412142872810364, 0.06329012662172318, -0.15974238514900208, 0.5029617547988892, 0.15540218353271484, -0.1186651885509491, 0.007569667883217335, -0.22078722715377808, 0.013573582284152508, 0.38122662901878357, 0.2721026837825775, 0.0758676826953888, 0.022417942062020302, -0.01984996348619461, 0.384962797164917, -0.24228788912296295, 0.14780300855636597, 0.2696111798286438, 0.35668623447418213, 0.020250985398888588, -0.4740496277809143, 0.032569438219070435, 0.07641378045082092, -0.27605435252189636, -0.24166543781757355, 0.01849701628088951, 0.0548357255756855, 0.4356301724910736, -0.4353390634059906, -0.11393427103757858, 0.30993911623954773, 0.41608741879463196, 0.03638419136404991, 0.10699833929538727, 0.059340499341487885, -0.04129092022776604, 0.2788042724132538, 0.043312329798936844, -0.09950682520866394, 0.4306143820285797, 0.1688607633113861, 0.2452869862318039, -0.10011570900678635, 0.190764382481575, 0.29116928577423096], [0.5435980558395386, 0.14599968492984772, 0.14466646313667297, -0.017456717789173126, 0.13059471547603607, -0.2247771918773651, 0.6432508230209351, -0.1280832290649414, -0.2598722279071808, 0.30414339900016785, -0.3388398587703705, -0.27872756123542786, -0.026946881785988808, -0.4370141327381134, -0.031391143798828125, -1.0365833044052124, -0.7162649631500244, -0.07230682671070099, 0.537204921245575, -0.631682813167572, 0.35626736283302307, -0.3910898268222809, -0.25587794184684753, 0.01538668479770422, -0.29720339179039, -0.09604544192552567, 0.29244109988212585, 0.1036771908402443, -0.5771732926368713, 0.3494299650192261, 0.25418633222579956, 0.3094303607940674, 0.44477593898773193, -0.14037035405635834, -0.36136171221733093, -0.12835833430290222, -0.398723304271698, 0.029426204040646553, 0.36438944935798645, 0.2549637258052826, 0.16495169699192047, -0.041715607047080994, 0.15922874212265015, 0.1461465060710907, -0.1454172432422638, 0.025759128853678703, 0.4757537245750427, 0.15965761244297028, -0.03244151547551155, 0.15558403730392456, 0.4350324869155884, 0.0391208715736866, 0.3124940097332001, 0.4884478449821472, 0.19971902668476105, -0.6614691615104675, 0.27738773822784424, -0.013236570172011852, -0.7385706305503845, 0.4510762393474579, -0.4475347697734833, -0.20231793820858002, 0.4471803605556488, -0.09402313083410263], [-0.1718086451292038, -0.2767084538936615, -0.09309538453817368, -0.10799530893564224, -0.03718699887394905, -0.17840875685214996, 0.1681911051273346, -0.036924831569194794, 0.18555063009262085, 0.026771677657961845, -0.08820229768753052, 0.12095028162002563, -0.09745628386735916, 0.28479522466659546, -0.06526265293359756, -0.0894867479801178, 0.21036148071289062, -0.19035933911800385, 0.19770404696464539, 0.03815576434135437, -0.31327056884765625, -0.002497346606105566, -0.09721611440181732, 0.0007338994182646275, -0.031419191509485245, -0.14317962527275085, -0.14475247263908386, 0.011159337125718594, -0.12407796829938889, -0.0071294489316642284, 0.06942298263311386, -0.06322314590215683, 0.11134940385818481, -0.20220394432544708, 0.09546733647584915, 0.25275498628616333, -0.2512279152870178, -0.043299563229084015, 0.20240280032157898, -0.009711046703159809, -0.21331410109996796, 0.2903769016265869, -0.2787158787250519, -0.07823748886585236, 0.054538920521736145, -0.26509344577789307, -0.29083549976348877, -0.04380732774734497, 0.05685970559716225, -0.05413191393017769, -0.33534157276153564, 0.08043372631072998, -0.14749856293201447, 0.19359615445137024, 0.18125930428504944, 0.16929025948047638, -0.0684543177485466, -0.0008648002403788269, -0.25252825021743774, -0.3108421266078949, 0.3206186592578888, -0.018134944140911102, 0.08571013063192368, 0.15315808355808258], [0.04117800295352936, -0.10910612344741821, 0.4023262560367584, 0.016251517459750175, 0.28196367621421814, 0.04624371975660324, 0.33385971188545227, 0.265801340341568, -0.09350409358739853, 0.11641401797533035, -0.4205452501773834, -0.2991955876350403, -0.025373302400112152, -0.2988000810146332, 0.008330442942678928, -0.655401885509491, -0.41715988516807556, -0.004318199586123228, 0.22098514437675476, -0.35813647508621216, 0.16274189949035645, -0.20041263103485107, -0.05416600778698921, 0.12861332297325134, -0.05125555768609047, 0.022202016785740852, 0.16297325491905212, 0.25294336676597595, -0.9905857443809509, 0.39999714493751526, 0.20965880155563354, 0.017154909670352936, 0.33786332607269287, -0.31612521409988403, -0.2671160101890564, 0.03280739486217499, -0.21235164999961853, -0.051448214799165726, 0.2545567750930786, 0.3244389295578003, 0.07387691736221313, 0.39683717489242554, 0.15498857200145721, -0.21483445167541504, -0.10897035151720047, 0.4108786880970001, 0.209874227643013, 0.14076407253742218, 0.16832971572875977, -0.1432991325855255, 0.1414410024881363, 0.054865553975105286, -0.14022387564182281, 0.5134351253509521, 0.10242763161659241, -0.5984066724777222, 0.10816062241792679, 0.10282500088214874, -0.3088211715221405, 0.150779128074646, -0.1757073998451233, -0.17500092089176178, 0.5347587466239929, 0.30603042244911194], [0.14697468280792236, 0.1842370629310608, 0.11349606513977051, 0.3010255694389343, 0.26476791501045227, -0.3302442133426666, 0.11105789244174957, 0.3765850365161896, 0.09879150241613388, 0.22765974700450897, -0.25196170806884766, 0.08009956032037735, -0.25232866406440735, -0.010131233371794224, -0.07595711201429367, -1.0243195295333862, -0.575386106967926, -0.4638993740081787, 0.5240632891654968, -0.6504864692687988, 0.1194322481751442, -0.5428834557533264, 0.04454483836889267, 0.3046017587184906, -0.20757494866847992, 0.10913360118865967, 0.3724348545074463, -0.3064497411251068, -0.6830487251281738, 0.40328213572502136, 0.35990703105926514, 0.15303584933280945, 0.5294494032859802, -0.2873612344264984, -0.011689279228448868, -0.2862873077392578, -0.18355712294578552, 0.3764517605304718, 0.43430840969085693, 0.45235586166381836, 0.04613645374774933, 0.3540846109390259, 0.32865288853645325, -0.06400220096111298, -0.34644463658332825, -0.027203388512134552, 0.34865546226501465, 0.058278631418943405, 0.3289657235145569, -0.05830159783363342, -0.0181940495967865, -0.10108397901058197, 0.13868990540504456, 0.4027804434299469, 0.19180426001548767, -0.5691550970077515, 0.1643412560224533, 0.03129007667303085, -0.7237896919250488, 0.3960556387901306, -0.1107410117983818, -0.3537326753139496, 0.41089075803756714, 0.40428948402404785], [-0.34099000692367554, -0.15629248321056366, 0.41307970881462097, -0.05520780757069588, 0.2135280966758728, -0.22892345488071442, -0.047202471643686295, 0.04744217172265053, 0.2892809510231018, 0.15657958388328552, 0.20274198055267334, 0.19142650067806244, -0.4011392295360565, -0.23113273084163666, 0.012178939767181873, -0.4120732545852661, 0.15571457147598267, -0.5666401982307434, -0.18535184860229492, 0.16398151218891144, 0.055733874440193176, -0.3958190977573395, 0.1374979466199875, -0.5069909691810608, -0.3430843651294708, 0.26413851976394653, -0.21453937888145447, 0.018184248358011246, -0.31085044145584106, 0.1425185203552246, -0.42998263239860535, -0.025107743218541145, -0.33029767870903015, -0.07017391920089722, -0.22736810147762299, -0.17817692458629608, -0.3030557632446289, 0.08308447152376175, -0.009899313561618328, -0.6646422743797302, -0.5121857523918152, 0.12175541371107101, -0.5643205642700195, -0.29336100816726685, -0.14107273519039154, 0.30391862988471985, -0.0004747942148242146, -0.09133105725049973, -0.25017139315605164, 0.358711302280426, 0.01991841569542885, 0.26409006118774414, -0.34673115611076355, -0.15895426273345947, -0.045805200934410095, 0.7281534671783447, 0.02324514649808407, -0.09648043662309647, -0.30021384358406067, -0.0580100491642952, -0.2941586673259735, 0.07742875069379807, 0.3085991442203522, -0.2951235771179199], [-0.07692283391952515, -0.03691195324063301, 0.1695334017276764, 0.1875714808702469, -0.1805056929588318, 0.43728169798851013, 0.09225530922412872, -0.3679855465888977, 0.31114470958709717, -0.03871854767203331, -0.1499214619398117, 0.00034875140408985317, 0.3951594829559326, 0.1882789134979248, 0.342917799949646, 0.34606805443763733, 0.017637144774198532, 0.2514357268810272, -0.10043777525424957, 0.5240238904953003, 0.30666401982307434, 0.9415405988693237, 0.4254423677921295, -0.029334228485822678, 0.45520463585853577, -0.32305341958999634, -0.4025903046131134, -0.03937284275889397, 0.49350228905677795, -0.43738028407096863, 0.42258167266845703, 0.02323393151164055, -0.05331065133213997, 0.09535091370344162, 0.3802529573440552, 0.3272767663002014, 0.5933669209480286, -0.3535012900829315, -0.25190407037734985, -0.09137406945228577, 0.2996830344200134, 0.2612639367580414, -0.008979171514511108, 0.2819913923740387, 0.08185164630413055, 0.27076470851898193, -0.4525544047355652, -0.04651331529021263, -0.2571273148059845, 0.3417260944843292, -0.27135908603668213, -0.13344456255435944, 0.0824543684720993, -0.258174329996109, 0.10778922587633133, 0.4189736247062683, -0.48407691717147827, 0.3231516182422638, 0.4647635519504547, -0.3165318965911865, 0.4100201427936554, 0.22070936858654022, -0.2725871503353119, 0.5984973907470703], [0.16404414176940918, 0.06081065163016319, 0.00782837439328432, 0.18746991455554962, 0.18086493015289307, 0.0958784744143486, 0.38161441683769226, -0.21273569762706757, -0.37126630544662476, 0.3261791169643402, 0.048535220324993134, -0.028256768360733986, -0.32003432512283325, -0.45623186230659485, 0.17775283753871918, -0.6442710161209106, -0.3605091869831085, -0.41881030797958374, 0.46232765913009644, -0.6637744903564453, 0.39650407433509827, -0.6691528558731079, -0.11934585869312286, 0.4305568039417267, 0.05130016431212425, -0.017635269090533257, 0.12440036237239838, -0.24274979531764984, -0.7622868418693542, -0.02167350985109806, 0.38368332386016846, 0.2972227931022644, 0.1260928362607956, 0.25422292947769165, -0.08188914507627487, -0.141967311501503, -0.5724725723266602, 0.08095896989107132, 0.6276907324790955, 0.4566842317581177, -0.27682092785835266, -0.03509151563048363, 0.24769727885723114, -0.1881808191537857, -0.1418972760438919, -0.075802743434906, 0.15757878124713898, 0.38407596945762634, 0.1885950118303299, 0.015794141218066216, 0.368632435798645, 0.3951479196548462, 0.32164719700813293, 0.5336787700653076, 0.009197595529258251, -0.40988078713417053, 0.4063061773777008, -0.2421848177909851, -0.5829638838768005, 0.6439722776412964, -0.3769247829914093, -0.11101297289133072, 0.5456140041351318, 0.08532574772834778], [-0.09824484586715698, -0.06382030248641968, 0.08621738851070404, -0.3187069594860077, -0.26436445116996765, -0.04752194881439209, -0.03742130845785141, 0.3264680802822113, 0.2539806067943573, 0.20621156692504883, 0.18326787650585175, 0.0552704744040966, -0.056732457131147385, 0.531524121761322, 0.11592034995555878, 0.6319226622581482, 0.41928866505622864, 0.18631765246391296, -0.12540599703788757, 0.5382189154624939, 0.05539428070187569, -0.12944640219211578, 0.5876214504241943, -0.1022980734705925, 0.46593233942985535, 0.19061511754989624, -0.26895397901535034, -0.024797646328806877, 0.712806224822998, -0.04009642079472542, -0.017321739345788956, 0.3700422942638397, -0.06756531447172165, 0.11220791190862656, 0.27811121940612793, 0.010231810621917248, 0.3243110179901123, 0.3323994576931, 0.20609481632709503, -0.30460959672927856, 0.11489446461200714, 0.3599686324596405, 0.07044211030006409, -0.10092352330684662, -0.00898750126361847, 0.050047412514686584, 0.21571184694766998, -0.20463860034942627, -0.10282481461763382, 0.22044940292835236, 0.3112927973270416, 0.30879783630371094, 0.11343828588724136, 0.024760646745562553, 0.29121533036231995, 0.3535584509372711, 0.0651223212480545, -0.07734161615371704, 0.5937048196792603, -0.15704406797885895, 0.3914596140384674, -0.1271553784608841, -0.1939343363046646, 0.026202049106359482], [-0.42492976784706116, -0.30979642271995544, 0.33506542444229126, -0.2829571068286896, 0.34249791502952576, 0.22043229639530182, -0.04793498292565346, 0.49028849601745605, 0.3144901394844055, 0.2896369695663452, 0.38010111451148987, 0.3867538273334503, -0.3039292097091675, 0.29756608605384827, -0.04779309034347534, 0.5640909075737, 0.7056376934051514, 0.21868997812271118, 0.022497516125440598, 0.6932073831558228, 0.270953506231308, 0.13364575803279877, 0.5252093076705933, -0.3951779007911682, 0.09546386450529099, 0.40562695264816284, -0.23771096765995026, 0.018179569393396378, 0.45894932746887207, 0.3346763849258423, -0.2770460844039917, -0.05378866195678711, 0.07459595054388046, -0.0008702760678716004, -0.08149227499961853, -0.06401047855615616, 0.43855130672454834, 0.2630015015602112, 0.07389239221811295, -0.5943890810012817, 0.4396238923072815, 0.1364566832780838, 0.15680265426635742, 0.18049223721027374, 0.25434374809265137, 0.11896359920501709, 0.07101260125637054, -0.05277923122048378, -0.0018251256551593542, 0.24301517009735107, 0.41990622878074646, -0.058430738747119904, -0.17365477979183197, 0.08898510783910751, -0.07420036941766739, 0.538626492023468, 0.020037317648530006, 0.11275357007980347, 0.6340441703796387, 0.0571453683078289, 0.5682892203330994, 0.27654311060905457, 0.2425953596830368, -0.1524132639169693], [0.39804258942604065, 0.006110390182584524, 0.09690844267606735, 0.30639442801475525, -0.18924830853939056, -0.6242367625236511, 0.3441872000694275, -0.2768351435661316, -0.30507856607437134, -0.20513397455215454, -0.39733821153640747, -0.35361647605895996, 0.02698473073542118, 0.36744391918182373, -0.39718693494796753, 0.9450333714485168, 0.19731546938419342, 0.24871130287647247, 0.192521333694458, 0.17716652154922485, -0.08547698706388474, 0.44825100898742676, -0.15905241668224335, 0.27503061294555664, 0.07584821432828903, 0.20459482073783875, 0.1546081006526947, 0.2506932318210602, 1.1274986267089844, -0.11138907819986343, 0.45754221081733704, -0.41867417097091675, 0.13259245455265045, 0.23196196556091309, 0.011725443415343761, 0.28406593203544617, 0.1876627504825592, 0.08135952055454254, -0.598405659198761, 0.2756783068180084, 0.22870315611362457, 0.15815532207489014, 0.22424261271953583, 0.25350242853164673, -0.2000020146369934, -0.19634093344211578, -0.5267117619514465, 0.48797500133514404, 0.07515715062618256, -0.28627267479896545, -0.37883293628692627, -0.32352638244628906, 0.19558890163898468, 0.2901849150657654, -0.003924884367734194, 0.028611231595277786, -0.19759796559810638, 0.1595350056886673, -0.0010546366684138775, 0.25208985805511475, 0.19014163315296173, -0.16429029405117035, -0.45611730217933655, 0.19783033430576324], [-0.6205956935882568, -0.17207463085651398, -0.07823425531387329, 0.0181072149425745, 0.07209070771932602, 0.5033553838729858, 0.010654687881469727, 0.06824015080928802, 0.3305962383747101, 0.15241773426532745, 0.34297317266464233, 0.38977107405662537, 0.26372355222702026, 0.4000259041786194, -0.07522130012512207, 0.5660099387168884, 0.3418162167072296, 0.19399124383926392, 0.07615934312343597, 0.5793728232383728, 0.015589225105941296, 0.7694613337516785, 0.15150678157806396, 0.010624836198985577, 0.11088097095489502, -0.28683239221572876, -0.4321591556072235, 0.28055834770202637, 0.170211523771286, 0.1715499758720398, -0.02933911420404911, 0.21476072072982788, -0.09561948478221893, 0.14298266172409058, 0.1509527862071991, 0.1993698924779892, 0.21065333485603333, 0.0371696799993515, 0.09507782012224197, -0.3187856078147888, 0.27225518226623535, -0.23785114288330078, -0.10087550431489944, -0.07856851071119308, 0.3896762430667877, -0.02840897999703884, 0.08920762687921524, 0.21664752066135406, -0.5400241613388062, 0.019110603258013725, -0.34677594900131226, 0.27402618527412415, 0.2107377052307129, -0.49435144662857056, 0.08870166540145874, 0.7351580858230591, -0.17884154617786407, -0.19796043634414673, 0.7897534370422363, -0.4302719235420227, 0.24865172803401947, 0.525955080986023, -0.07147514820098877, -0.2166515439748764], [0.29036664962768555, 0.30406495928764343, 0.2870286703109741, 0.3361514210700989, 0.24271263182163239, 0.06284647434949875, 0.25661227107048035, -0.31354379653930664, -0.2133946716785431, 0.09976712614297867, -0.3246849477291107, -0.33444225788116455, -0.3706062436103821, -0.3130929172039032, 0.06987284123897552, -0.7397149801254272, -0.48400044441223145, -0.4941083490848541, -0.003598565701395273, -0.36539071798324585, -0.022021040320396423, -0.5858926177024841, -0.5402370095252991, 0.09430823475122452, -0.09500593692064285, 0.3184804618358612, 0.08439331501722336, 0.22550582885742188, -0.9626104235649109, 0.31307870149612427, 0.12615332007408142, -0.044013988226652145, 0.09626249969005585, -0.34636732935905457, -0.24814869463443756, -0.22376801073551178, -0.2293291687965393, -0.2000361829996109, 0.3087686002254486, 0.4321323335170746, -0.020150460302829742, -0.06345860660076141, 0.3553149700164795, -0.018831277266144753, -0.16555315256118774, 0.2323869913816452, 0.46453291177749634, -0.10141541063785553, -0.09378479421138763, -0.2646667957305908, -0.06630678474903107, -0.04942331090569496, -0.14713570475578308, -0.05882867053151131, -0.18937565386295319, -0.3558538854122162, 0.4004320800304413, 0.1273486316204071, -0.30255240201950073, 0.5740720629692078, -0.24265772104263306, -0.09501437842845917, 0.38384246826171875, 0.11364670097827911], [0.4861220121383667, 0.32263925671577454, 0.2133699655532837, 0.3490442931652069, 0.15134187042713165, 0.09871584177017212, 0.5231115221977234, -0.1318565309047699, -0.3602810800075531, 0.28309181332588196, -0.09085658937692642, -0.30311381816864014, 0.1793082356452942, -0.5427745580673218, -0.024145863950252533, -1.04265558719635, -0.6000470519065857, -0.28030234575271606, 0.1728455275297165, -0.671963632106781, 0.31448984146118164, -0.10823824256658554, -0.06764797866344452, 0.3857038617134094, -0.2341512143611908, 0.058549102395772934, 0.3209204375743866, -0.08119528740644455, -0.6084408164024353, 0.4013326168060303, 0.014185561798512936, 0.07048215717077255, 0.2606027126312256, 0.07359740883111954, 0.011350903660058975, -0.3114902079105377, -0.2598259747028351, 0.3677215576171875, 0.549182653427124, 0.47400957345962524, -0.24416543543338776, -0.00880842562764883, -0.04122548922896385, -0.4227275550365448, -0.2278541624546051, 0.3027048110961914, 0.2380976378917694, 0.12938208878040314, 0.04350005090236664, 0.288736492395401, 0.00022906223603058606, 0.37064316868782043, 0.3633424937725067, 0.23906536400318146, 0.2579948306083679, -0.786107063293457, 0.3945856988430023, 0.18474255502223969, -0.6643972992897034, 0.4624210298061371, -0.33961230516433716, 0.08443256467580795, 0.4405810832977295, -0.22303946316242218], [0.2221257984638214, -0.05525419861078262, 0.11651619523763657, 0.21881265938282013, 0.5540551543235779, -0.08433279395103455, 0.5315717458724976, 0.16580665111541748, -0.4267367124557495, 0.004425122868269682, -0.4040580987930298, 0.18074476718902588, 0.09422136098146439, -0.05304945260286331, 0.13159969449043274, -1.067954182624817, -0.5142172574996948, -0.112555593252182, -0.062259215861558914, -0.5336353778839111, 0.46274808049201965, -0.46793603897094727, -0.2960270941257477, 0.3795982301235199, -0.10827654600143433, 0.4257599711418152, 0.301777184009552, -0.18810990452766418, -0.9611138105392456, 0.04498656094074249, 0.43128201365470886, 0.03555760532617569, 0.07906883209943771, -0.11221073567867279, -0.23316717147827148, 0.03719605505466461, -0.03991404175758362, 0.21911486983299255, 0.42549294233322144, 0.11150869727134705, -0.0933205857872963, 0.24420489370822906, 0.331596702337265, -0.13296401500701904, -0.07005660980939865, 0.013895697891712189, 0.31478431820869446, 0.06238671764731407, 0.40775266289711, -0.08895295113325119, -0.0753311738371849, 0.18665045499801636, -0.06251353770494461, 0.07069571316242218, 0.031337447464466095, -0.20593202114105225, 0.3117212951183319, 0.0024441550485789776, -0.6785297989845276, 0.25003230571746826, -0.407148152589798, -0.3074325621128082, 0.49007532000541687, 0.39487653970718384], [0.5258893966674805, 0.256284236907959, 0.04379323124885559, 0.19216923415660858, 0.1765354871749878, -0.3718058168888092, 0.03347223997116089, 0.13232655823230743, 0.1006791815161705, 0.37410032749176025, -0.29315176606178284, -0.12063510715961456, -0.30006808042526245, -0.4213051497936249, 0.10116744041442871, -0.5798892378807068, -0.6482078433036804, -0.4332975447177887, 0.03507762402296066, -0.2682504653930664, 0.3457552194595337, -0.16064941883087158, -0.30073070526123047, -0.01972527988255024, -0.2168254405260086, -0.04669220373034477, 0.2892005741596222, 0.05651548504829407, -1.004701018333435, -0.05270075425505638, 0.18196336925029755, 0.3194544017314911, -0.027511052787303925, 0.18992938101291656, 0.013726278208196163, -0.08161180466413498, -0.05792687460780144, -0.21590149402618408, 0.39424628019332886, -0.0016612192848697305, -0.4126873016357422, 0.34413161873817444, 0.48076751828193665, -0.23313403129577637, 0.029892954975366592, 0.06707514077425003, -0.014442388899624348, -0.01183584239333868, 0.4285273253917694, -0.12033341079950333, 0.43639877438545227, 0.0035754581913352013, -0.013098755851387978, 0.4190980792045593, 0.5191963315010071, -0.44203197956085205, 0.5542498230934143, 0.044151414185762405, -0.6003062129020691, 0.11875341832637787, 0.015328739769756794, 0.11509646475315094, 0.44858479499816895, 0.15247505903244019], [0.47703155875205994, 0.4667932689189911, 0.4294530749320984, 0.11231707781553268, 0.1615842580795288, 0.18232305347919464, 0.5664734244346619, 0.24788878858089447, -0.20078888535499573, 0.22143062949180603, -0.2179068922996521, 0.06289980560541153, -0.22759343683719635, 0.042062196880578995, -0.3654699921607971, -0.8802777528762817, -0.18676696717739105, 0.060067541897296906, 0.2587640583515167, -0.5075369477272034, 0.35640352964401245, -0.4465518295764923, -0.22870828211307526, 0.16792032122612, -0.35783150792121887, 0.13899026811122894, 0.05847691372036934, 0.2548282742500305, -0.6310107707977295, 0.17002159357070923, 0.24042999744415283, -0.12421345710754395, 0.41720759868621826, 0.19671481847763062, -0.3242691159248352, -0.19468283653259277, -0.15174344182014465, 0.06186068803071976, 0.30988118052482605, 0.2767774760723114, -0.3079264760017395, -0.05548669025301933, 0.42849433422088623, -0.39021992683410645, -0.10920773446559906, -0.14605000615119934, 0.45752793550491333, 0.3169318735599518, 0.044444575905799866, 0.3316759467124939, 0.41322097182273865, -0.16741709411144257, -0.009604956954717636, 0.056597162038087845, 0.4044269919395447, -0.5364010334014893, 0.22141698002815247, 0.16963087022304535, -0.4055362641811371, 0.39232921600341797, -0.4690771698951721, 0.1207113116979599, 0.03349966183304787, 0.21571749448776245], [-0.3265146315097809, -0.21220164000988007, 0.28221702575683594, -0.18775318562984467, 0.2338056117296219, 0.033909089863300323, -0.04758629947900772, 0.20028066635131836, 0.09038854390382767, -0.004516969434916973, -0.004581430461257696, 0.07821615040302277, -0.1989748775959015, 0.22459304332733154, -0.06621629744768143, 0.11220353841781616, 0.6895193457603455, 0.11817917227745056, 0.09466228634119034, 0.009988592937588692, -0.08129751682281494, -0.22812607884407043, 0.4684886634349823, -0.35398080945014954, 0.3659331202507019, 0.12904967367649078, 0.3922007381916046, 0.11799675971269608, 0.2979649007320404, 0.4151642620563507, -0.18093767762184143, -0.09753792732954025, -0.2509388327598572, -0.13103438913822174, -0.3889073431491852, 0.15585215389728546, -0.08860407024621964, 0.39588671922683716, 0.2331056445837021, -0.4130936563014984, 0.007567915134131908, -0.021943189203739166, -0.23636646568775177, -0.04648841917514801, 0.16555766761302948, 0.17310382425785065, 0.38717350363731384, -0.4191519618034363, 0.41843289136886597, -0.043222494423389435, 0.1757121980190277, 0.36448171734809875, 0.013251095078885555, -0.07289934158325195, -0.15763971209526062, 0.7659448385238647, 0.22285933792591095, 0.08388953655958176, 0.29486045241355896, 0.10562719404697418, -0.1926858276128769, 0.15370215475559235, 0.4654834568500519, -0.1852668821811676], [0.45752060413360596, 0.4432641267776489, 0.013060311786830425, 0.21233469247817993, 0.03721117228269577, 0.16029056906700134, -0.004501448944211006, 0.15768647193908691, 0.12028210610151291, 0.29598185420036316, -0.41294199228286743, -0.3772750794887543, 0.17384564876556396, -0.49480974674224854, -0.06552986800670624, -0.6551783680915833, -0.6460404396057129, 0.07988208532333374, 0.037852101027965546, -0.6638819575309753, 0.218307763338089, -0.10147034376859665, -0.01996772363781929, 0.16062869131565094, 0.06475257128477097, 0.25816068053245544, 0.40156999230384827, -0.13599029183387756, -0.9971292614936829, 0.19893242418766022, -0.15109214186668396, -0.09815096855163574, 0.2783331274986267, -0.0036432964261621237, -0.24871142208576202, 0.03209727630019188, -0.32765665650367737, -0.15733177959918976, 0.007987748831510544, 0.08580644428730011, 0.11877471953630447, 0.3212072253227234, 0.047702986747026443, -0.30685684084892273, 0.16231928765773773, 0.3166847825050354, 0.2249043881893158, 0.35449448227882385, 0.4599800705909729, 0.029364483430981636, 0.042321957647800446, 0.097011499106884, 0.12967072427272797, 0.40224531292915344, 0.32900524139404297, -0.48779281973838806, 0.4043716788291931, 0.29719647765159607, -0.48950305581092834, 0.009402815252542496, -0.39252904057502747, -0.30223163962364197, 0.273009717464447, -0.05711118131875992], [-0.35399869084358215, 0.1163112074136734, 0.30038586258888245, -0.14730563759803772, -0.51178377866745, 0.41345375776290894, -0.07230747491121292, 0.47104206681251526, 0.07839004695415497, 0.12529143691062927, -0.0853598341345787, 0.3771696984767914, 0.01597253605723381, 0.503378689289093, 0.029733531177043915, 0.34523022174835205, 0.5390211343765259, 0.427982360124588, -0.008309663273394108, 0.024700790643692017, 0.023167839273810387, 0.702989935874939, 0.6122488975524902, -0.1238858625292778, 0.3545861542224884, -0.061445556581020355, 0.10719051957130432, 0.12039671093225479, 0.2724165618419647, -0.1460570991039276, -0.2852562367916107, -0.12743030488491058, 0.032255202531814575, 0.20630954205989838, -0.1628645956516266, 0.18006649613380432, 0.08552658557891846, 0.027233755216002464, 0.016012629494071007, -0.09072050452232361, 0.4136645197868347, -0.04949449375271797, -0.4159473776817322, 0.026294823735952377, 0.28193286061286926, -0.04147665202617645, -0.24669064581394196, -0.10754004865884781, 0.15103772282600403, 0.11066273599863052, 0.22693918645381927, 0.17433267831802368, 0.10268208384513855, 0.03190617263317108, -0.07193921506404877, 0.33827126026153564, -0.3768405020236969, -0.23573896288871765, 0.30467987060546875, -0.164720356464386, 0.3985510766506195, 0.07637317478656769, 0.08398403227329254, -0.020057106390595436], [0.3385542631149292, 0.16479544341564178, 0.19494087994098663, 0.14714017510414124, 0.2525534927845001, -0.23772728443145752, 0.6214435696601868, 0.041812464594841, 0.09732073545455933, 0.17103560268878937, -0.01053804811090231, 0.09259548783302307, -0.3375720977783203, -0.5073637366294861, -0.2513786554336548, -0.8600389957427979, -0.17416055500507355, -0.4271477460861206, 0.2728034257888794, -0.3376992642879486, 0.23844686150550842, -0.3101888597011566, -0.2191823571920395, 0.5151865482330322, -0.3729898929595947, 0.2840990126132965, 0.23855014145374298, 0.19737125933170319, -1.112620234489441, 0.0998789444565773, 0.07158499956130981, 0.18089920282363892, 0.17758195102214813, -0.2126077115535736, 0.08111079037189484, 0.03379449248313904, -0.037778448313474655, -0.1507541388273239, 0.5345466136932373, 0.09384596347808838, 0.15123876929283142, 0.08378779143095016, 0.15700581669807434, -0.4074237644672394, -0.18158602714538574, 0.15534010529518127, 0.19334672391414642, 0.4811975359916687, 0.14541402459144592, -0.08874858915805817, 0.355569452047348, 0.20012691617012024, 0.21698860824108124, 0.42478328943252563, 0.5620694756507874, -0.38670915365219116, 0.4371405839920044, -0.14895671606063843, -0.6861252188682556, 0.2735113501548767, -0.27925440669059753, -0.1223490908741951, 0.3151514530181885, 0.41868856549263], [0.02892189286649227, -0.22643683850765228, 0.2280460000038147, -0.05733902379870415, 0.29356327652931213, 0.10723286867141724, 0.3046070635318756, 0.5008514523506165, 0.25456178188323975, 0.042192310094833374, 0.3231426477432251, 0.14855849742889404, -0.43762505054473877, -0.5362756848335266, 0.16826152801513672, -0.2487838715314865, -0.6060386896133423, -0.5173583626747131, -0.10059048980474472, 0.6923523545265198, 0.48149845004081726, -0.316095769405365, 0.5013620853424072, -0.43509089946746826, -0.2300487905740738, -0.17547670006752014, 0.09719647467136383, -0.11614637821912766, -0.7434872388839722, 0.13129201531410217, -0.3986741900444031, 0.33858129382133484, -0.17084629833698273, -0.03761700913310051, -0.27264752984046936, 0.1890425980091095, -0.271942675113678, -0.3833197057247162, 0.21432241797447205, -0.09684625267982483, -0.6312849521636963, -0.030082523822784424, -0.45496809482574463, -0.2830406129360199, -0.3851853311061859, -0.04236970096826553, 0.43315258622169495, -0.028703590855002403, -0.2927483916282654, 0.08824079483747482, 0.4080020487308502, 0.06530623137950897, 0.40004095435142517, -0.16279779374599457, -0.12767918407917023, 0.6860196590423584, -0.13042394816875458, -0.017217107117176056, -0.05871732905507088, -0.09283172339200974, -0.5008469820022583, 0.3802655339241028, -0.05139295756816864, 0.2278382033109665], [0.5214000940322876, 0.2764234244823456, 0.12711359560489655, 0.21593967080116272, 0.5296997427940369, -0.30152690410614014, 0.5365432500839233, 0.355625718832016, -0.1354675590991974, 0.3647262752056122, -0.04455721005797386, 0.14402362704277039, 0.15772214531898499, -0.12706083059310913, -0.31216591596603394, -0.8640172481536865, -0.6537213921546936, -0.18865501880645752, 0.0990329459309578, -0.5145794153213501, 0.1532062292098999, -0.6596301794052124, -0.24653449654579163, 0.17398513853549957, -0.19527512788772583, -0.04727683588862419, 0.12724022567272186, 0.054432209581136703, -0.9653415083885193, 0.10695873200893402, -0.01067102700471878, 0.22923782467842102, 0.3958725929260254, -0.17380517721176147, 0.010538628324866295, 0.14268150925636292, -0.2433907687664032, 0.018667137250304222, 0.45426639914512634, 0.24248819053173065, 0.10594533383846283, 0.39082852005958557, -0.034599654376506805, -0.22034558653831482, -0.010733800008893013, 0.3444734513759613, 0.52164226770401, 0.174422487616539, 0.46043282747268677, -0.2664405405521393, 0.030760975554585457, -0.02906949073076248, 0.321151465177536, 0.5409166812896729, -0.009412160143256187, -0.7131029367446899, 0.36770156025886536, 0.2322191298007965, -0.32092368602752686, 0.27394530177116394, -0.3937649726867676, -0.41284918785095215, 0.17593368887901306, 0.038224972784519196], [0.005275378003716469, 0.3232993483543396, 0.08906564861536026, 0.20357593894004822, -0.02376096136868, -0.1382693648338318, 0.29269394278526306, -0.09092206507921219, -0.0764402374625206, -0.2606085240840912, -0.48196136951446533, -0.18052013218402863, -0.054191041737794876, -0.3207385540008545, -0.2641810178756714, -0.34012943506240845, -0.37402817606925964, 0.10317953675985336, -0.04075092449784279, -0.49059173464775085, 0.3159721791744232, -0.5991527438163757, -0.14595846831798553, 0.3828015923500061, -0.42711567878723145, -0.0328473299741745, 0.31481021642684937, -0.13475507497787476, -0.7301344275474548, 0.2186133712530136, -0.040327634662389755, -0.021271634846925735, 0.4662529230117798, 0.1788312792778015, -0.23175999522209167, -0.05406161770224571, -0.4690101444721222, 0.24696648120880127, 0.18264465034008026, -0.008166726678609848, 0.13552212715148926, 0.06782139837741852, 0.3803108036518097, -0.1301545351743698, -0.1997302621603012, 0.14269611239433289, 0.18553057312965393, -0.04174770042300224, -0.1388518214225769, -0.054360974580049515, 0.1812528520822525, 0.09672597795724869, 0.20496900379657745, 0.4780529737472534, 0.0149454390630126, -0.6460083723068237, -0.022958051413297653, 0.21970055997371674, -0.31161850690841675, 0.13381516933441162, -0.3044750988483429, -0.46472060680389404, 0.2215665727853775, 0.22528629004955292], [0.3402056396007538, 0.05790683627128601, 0.05535953864455223, 0.39377105236053467, 0.0634523406624794, -0.2771957516670227, 0.502644419670105, 0.383558064699173, -0.3003469705581665, -0.17318439483642578, -0.3254302740097046, 0.089541956782341, 0.05102379247546196, -0.42194586992263794, -0.25294408202171326, -0.47966820001602173, -0.2509642541408539, -0.49276843667030334, -0.07880799472332001, -0.6477633714675903, 0.30873599648475647, -0.5708222389221191, -0.3058519959449768, 0.42111650109291077, 0.08903849124908447, -0.1297398805618286, 0.05305126681923866, 0.025970442220568657, -0.9364417195320129, 0.3358928859233856, -0.04359924793243408, 0.4318930506706238, -0.015096152201294899, -0.05049848183989525, 0.12603384256362915, 0.09041579812765121, -0.2550538182258606, 0.10733295977115631, 0.4401432275772095, 0.028346246108412743, -0.20639505982398987, -0.12563849985599518, 0.33623024821281433, 0.042259495705366135, -0.10660826414823532, 0.36113837361335754, 0.38632455468177795, -0.03349908068776131, 0.4210807979106903, 0.007209565956145525, 0.3885209858417511, -0.016611428931355476, 0.2683638632297516, 0.2850281596183777, 0.030228516086935997, -0.3454124629497528, 0.5496512055397034, -0.22526045143604279, -0.11343905329704285, 0.43739429116249084, -0.1844993680715561, -0.04436969384551048, 0.458457887172699, 0.3469325006008148], [0.17144814133644104, -0.24651679396629333, 0.06144961714744568, 0.06938900798559189, 0.24551665782928467, -0.1388043314218521, -0.1250459849834442, -0.07297150790691376, 0.211435467004776, -0.17190679907798767, -0.1628233641386032, 0.11630287766456604, -0.22537647187709808, -0.18524038791656494, 0.044730573892593384, -0.25685566663742065, 0.06063529849052429, 0.2999116778373718, -0.1964472234249115, -0.014649865217506886, -0.04774932563304901, -0.21472759544849396, -0.12631767988204956, 0.1734781414270401, 0.020454589277505875, 0.1451367884874344, -0.0060013881884515285, -0.14066173136234283, -0.036909062415361404, 0.12201917916536331, -0.0974636971950531, -0.15527892112731934, 0.23429736495018005, 0.054503586143255234, -0.07526350021362305, -0.09769272059202194, -0.19431380927562714, -0.2911345958709717, 0.13881516456604004, -0.24568414688110352, 0.048832397907972336, -0.2114787995815277, -0.09822142124176025, 0.014160816557705402, -0.2215961515903473, 0.19884054362773895, 0.12607574462890625, -0.1907026171684265, -0.23045316338539124, -0.07160745561122894, -0.23050831258296967, -0.27961912751197815, -0.21229983866214752, 0.27847155928611755, 0.26664337515830994, -0.24459800124168396, -0.1683799922466278, 0.022100312635302544, -0.24017103016376495, -0.159979909658432, 0.1683245152235031, -0.10612528026103973, -0.22801318764686584, -0.0017106933519244194], [-0.044994279742240906, 0.1370564103126526, 0.15225547552108765, 0.35351863503456116, 0.4877762496471405, 0.04212324693799019, 0.5211789011955261, -0.20321375131607056, -0.35046061873435974, 0.3254832625389099, -0.16071203351020813, -0.20888793468475342, 0.14147712290287018, -0.046515271067619324, 0.08513060212135315, -0.5810607075691223, -0.3033120334148407, -0.30554527044296265, 0.4612897038459778, -0.6776803731918335, 0.2265503704547882, -0.4188019335269928, -0.09264784306287766, 0.20051692426204681, -0.21191158890724182, 0.4046415686607361, 0.2606762945652008, -0.19085584580898285, -1.064197301864624, 0.31151485443115234, 0.05316337198019028, 0.10704221576452255, 0.38469311594963074, 0.015507164411246777, -0.13948935270309448, 0.19688288867473602, -0.4802579879760742, 0.3627806305885315, 0.1438097357749939, 0.4460045099258423, 0.02754022553563118, 0.3911457359790802, 0.03924785181879997, -0.18281912803649902, 0.19356347620487213, 0.0715201199054718, 0.04540792107582092, 0.2590007185935974, 0.11064839363098145, -0.04553283378481865, -0.004777285270392895, -0.12124773114919662, 0.353729248046875, 0.6176380515098572, 0.1686953753232956, -0.7901580929756165, 0.35350245237350464, 0.21974092721939087, -0.5539861917495728, 0.5598152875900269, -0.44407519698143005, -0.13241825997829437, 0.15258431434631348, 0.24906904995441437], [-0.43247225880622864, -0.3987116515636444, 0.43521741032600403, -0.23050008714199066, 0.3868739604949951, -0.37846627831459045, 0.019532663747668266, 0.08765718340873718, 0.2294236272573471, -0.029503289610147476, 0.19713349640369415, 0.3528282940387726, -0.1688867062330246, -0.3730185627937317, -0.19575175642967224, 0.25804874300956726, 0.00013146406854502857, -0.6894758343696594, 0.17527416348457336, 0.012086151167750359, -0.0016586794517934322, -0.9569324851036072, 0.3809152841567993, -0.4096111059188843, -0.20344975590705872, -0.20982643961906433, -0.1238798126578331, -0.010519315488636494, 0.22494450211524963, 0.2420853078365326, 0.061941955238580704, 0.44580206274986267, -0.09464089572429657, 0.14374227821826935, -0.45794376730918884, -0.08876193314790726, -0.04821893945336342, 0.2366405576467514, 0.11424153298139572, -0.43229514360427856, 0.0830303207039833, 0.3300504982471466, -0.22176030278205872, -0.12680862843990326, -0.4113057851791382, 0.1927749514579773, 0.3588514029979706, -0.26417264342308044, -0.4830423593521118, 0.13358727097511292, 0.30361613631248474, 0.19025860726833344, -0.1893967092037201, 0.1400429606437683, 0.20900234580039978, 0.5220252275466919, -0.019001362845301628, -0.2774237394332886, -0.1298413723707199, 0.2868048846721649, 0.005793651100248098, 0.09756478667259216, 0.06549523770809174, -0.19717781245708466], [0.2700287997722626, 0.4770348072052002, 0.311855673789978, 0.009851749055087566, 0.483294278383255, -0.33214399218559265, 0.43525874614715576, 0.15721146762371063, -0.001085344236344099, 0.3164515495300293, 0.06805267930030823, -0.35542094707489014, -0.24350206553936005, -0.22033719718456268, -0.23456111550331116, -0.5474980473518372, -0.4435560703277588, -0.2554619610309601, 0.3226076364517212, -0.40476635098457336, 0.25225621461868286, -0.6844801306724548, -0.2113461196422577, 0.023107288405299187, -0.46024414896965027, 0.266585111618042, 0.5099140405654907, -0.018776804208755493, -0.545742392539978, -0.12252011150121689, -0.004172421991825104, 0.41271066665649414, 0.43345075845718384, 0.14625674486160278, 0.013486324809491634, 0.19633685052394867, -0.20042073726654053, -0.21694441139698029, 0.40528935194015503, 0.5071455240249634, -0.31957513093948364, 0.06910893321037292, 0.2060547024011612, -0.11281561106443405, 0.03885188698768616, 0.024044817313551903, 0.35656553506851196, 0.3331413269042969, 0.34469208121299744, 0.15455594658851624, 0.16990938782691956, 0.298055499792099, -0.14318202435970306, 0.5261920690536499, 0.5289627909660339, -0.20744051039218903, 0.28061243891716003, 0.1239883080124855, -0.6438777446746826, 0.6006696820259094, 0.0038711826782673597, 0.07837041467428207, -0.03683105856180191, -0.179169163107872], [-0.08084976673126221, -0.008090044371783733, -0.0308530293405056, -0.19231420755386353, -0.004215165041387081, -0.2154597043991089, 0.2842496633529663, -0.6789475083351135, -0.13313840329647064, 0.016544055193662643, -0.32140079140663147, -0.3354448974132538, 0.05873781815171242, 0.03697214648127556, -0.5026140213012695, 0.39370492100715637, 0.16299130022525787, 0.02209111675620079, 0.1534007489681244, 0.5293968915939331, 0.1933259218931198, 0.6896334886550903, -0.48631641268730164, -0.11419631540775299, 0.3153187930583954, -0.3455680012702942, 0.05449022725224495, 0.05919500067830086, 0.5123315453529358, -0.035079795867204666, -0.11441145092248917, 0.20152531564235687, 0.1363336592912674, -0.3327770531177521, 0.22096067667007446, 0.1817224770784378, 0.05189112573862076, -0.1886492371559143, -0.241916224360466, 0.2316291332244873, -0.1393294632434845, 0.17193804681301117, 0.3200278580188751, -0.06123947352170944, 0.08094833791255951, -0.22652441263198853, -0.1292692869901657, 0.31485819816589355, -0.12360882759094238, -0.23205076158046722, -0.15626215934753418, -0.26604577898979187, -0.2246028631925583, -0.15058884024620056, 0.213556706905365, 0.2878393232822418, -0.20910614728927612, -0.12249903380870819, 0.29440993070602417, -0.34562817215919495, 0.4257861375808716, 0.5319514274597168, -0.06419652700424194, 0.1691388040781021], [0.5586886405944824, 0.4610790014266968, -0.08622762560844421, -0.0858580693602562, 0.5861250162124634, -0.3134387731552124, 0.31105491518974304, -0.07982214540243149, 0.08831120282411575, 0.11653974652290344, -0.47479885816574097, 0.0106249013915658, -0.4138796031475067, -0.33114370703697205, -0.030248716473579407, -0.7877649664878845, -0.19846545159816742, -0.1628570407629013, 0.1416161209344864, -0.6711924076080322, 0.031910210847854614, -0.7289865016937256, 0.005290626082569361, 0.42420950531959534, -0.3029972016811371, 0.3120538592338562, 0.11476325243711472, -0.24109458923339844, -0.8609763979911804, 0.45057404041290283, 0.4168380796909332, -0.0750342383980751, 0.348808616399765, -0.22688739001750946, -0.36040249466896057, -0.06215856224298477, -0.5899192690849304, -0.2647012174129486, 0.3012927174568176, 0.6136523485183716, -0.17997591197490692, 0.21073442697525024, 0.3647533059120178, -0.13640791177749634, -0.1905689537525177, 0.2356465458869934, 0.3824574649333954, 0.3483944833278656, 0.18756863474845886, 0.24097304046154022, 0.20246285200119019, 0.3612963557243347, 0.3137253224849701, 0.6374732255935669, 0.4805662930011749, -0.3889343738555908, 0.36138617992401123, 0.25798138976097107, -0.6738191843032837, 0.33561933040618896, -0.5230710506439209, -0.24020296335220337, 0.582139253616333, -0.13477396965026855], [0.06337573379278183, 0.22013427317142487, 0.3090488314628601, 0.3814937174320221, 0.05692920461297035, -0.3868972361087799, 0.046162404119968414, -0.273256778717041, -0.1891745924949646, -0.086763896048069, 0.05810684710741043, -0.08529698103666306, -0.004884835798293352, -0.1889171600341797, -0.2772044539451599, -0.6837504506111145, -0.26591572165489197, -0.1765097677707672, 0.012730232439935207, -0.3421417474746704, 0.01992945186793804, -0.4388085603713989, -0.4709106981754303, 0.40069228410720825, -0.24885864555835724, -0.118398018181324, 0.4472358226776123, -0.23089881241321564, -1.1121408939361572, 0.35214686393737793, 0.4496011734008789, 0.038827355951070786, 0.0029987466987222433, -0.197409525513649, -0.1783534437417984, 0.2295428365468979, -0.04732164368033409, -0.03612716123461723, 0.6158742904663086, 0.10502029955387115, -0.268664687871933, 0.08141842484474182, 0.2652732729911804, -0.16490742564201355, -0.3478543162345886, 0.11112812906503677, 0.12865479290485382, 0.4063531756401062, 0.21602429449558258, -0.2250312715768814, 0.43270736932754517, -0.116656094789505, 0.02925962023437023, 0.5874256491661072, 0.14896531403064728, -0.8885803818702698, 0.11985919624567032, 0.23180623352527618, -0.22558696568012238, 0.31272947788238525, -0.166889026761055, -0.17535433173179626, 0.40185797214508057, 0.3071528673171997], [0.23326635360717773, 0.2713478207588196, -0.1360633224248886, -0.08510494232177734, 0.030499739572405815, 0.12559464573860168, -0.07832755893468857, -0.4575551450252533, -0.17170670628547668, -0.13130028545856476, -0.46606317162513733, -0.026414912194013596, 0.184054896235466, 0.058081671595573425, -0.4811874032020569, 0.7058676481246948, 0.05609339103102684, 0.06550547480583191, 0.0357314832508564, 0.35788941383361816, -0.2404525727033615, 0.34143614768981934, -0.20240603387355804, -0.09164847433567047, 0.043543457984924316, -0.08331083506345749, -0.09643154591321945, 0.20642255246639252, 0.9862160682678223, -0.28424176573753357, 0.5160943269729614, -0.016944728791713715, 0.37899425625801086, 0.24017234146595, 0.3080825209617615, 0.02345811203122139, 0.20773738622665405, -0.27423205971717834, 0.07983561605215073, 0.27622610330581665, 0.383642315864563, -0.0325351357460022, 0.4327448308467865, -0.04274510219693184, -0.216461643576622, -0.15788725018501282, -0.2708204388618469, 0.3212190568447113, 0.11302914470434189, 0.0022869615349918604, -0.04888094961643219, -0.29843512177467346, -0.19894564151763916, 0.21253874897956848, 0.11021990329027176, -0.05325578153133392, -0.13055108487606049, -0.10744254291057587, 0.641859769821167, 0.011234636418521404, 0.3754426836967468, 0.44122156500816345, -0.2317994385957718, 0.3821876645088196], [-0.0813356414437294, -0.13938067853450775, -0.010680186562240124, -0.05611552298069, 0.08229060471057892, 0.2411944717168808, 0.12293355166912079, 0.15059292316436768, 0.19220907986164093, -0.10869676619768143, 0.11892332881689072, 0.41504648327827454, 0.18826885521411896, 0.4114530384540558, 0.4146025776863098, 0.4903360605239868, 0.5747127532958984, 0.4306953549385071, -0.0838892012834549, 0.6765793561935425, -0.1855543702840805, 0.6093323826789856, 0.24711355566978455, 0.16027911007404327, 0.3044995665550232, -0.2898903787136078, -0.24324603378772736, 0.11667346954345703, 0.7387666702270508, -0.09369147568941116, 0.3882906138896942, 0.20648089051246643, 0.28242620825767517, -0.005939601454883814, 0.6199666261672974, 0.0284257922321558, 0.5715206265449524, -0.6814644932746887, -0.6118073463439941, 0.28775307536125183, 0.11124735325574875, -0.08916100114583969, -0.04330931231379509, 0.3954085111618042, 0.24185669422149658, -0.1971033811569214, -0.2845369577407837, 0.25928935408592224, -0.39245161414146423, -0.04970165714621544, 0.12600471079349518, -0.10812803357839584, 0.45938700437545776, -0.12220388650894165, 0.17394985258579254, 0.3573513329029083, -0.6533061861991882, 0.21609832346439362, 0.3556828498840332, 0.06027964875102043, 0.07553621381521225, 0.3854702413082123, -0.5611918568611145, 0.6146706342697144], [0.02828121930360794, -0.21778039634227753, 0.07785122096538544, -0.28479427099227905, 0.14064835011959076, -0.1652025282382965, -0.2607223391532898, 0.5726658701896667, 0.20123222470283508, -0.16842493414878845, 0.43193280696868896, 0.36852678656578064, 0.02530471421778202, -0.013151898980140686, 0.11381437629461288, 0.7367653846740723, 0.33770468831062317, 0.5506166219711304, -0.06254897266626358, 0.2944188117980957, -0.0919266790151596, 0.1255270391702652, 0.39782461524009705, -0.13318298757076263, 0.076967254281044, 0.22727735340595245, 0.37376493215560913, 0.23554202914237976, 0.91194087266922, 0.21974903345108032, -0.22727853059768677, 0.30956029891967773, 0.19568391144275665, 0.33495691418647766, -0.20175719261169434, -0.07193032652139664, 0.19922418892383575, -0.11536986380815506, 0.024778664112091064, -0.1310381442308426, 0.09443088620901108, 0.3729892373085022, -0.18846073746681213, 0.22624878585338593, 0.32771772146224976, -0.06296258419752121, 0.2795407474040985, -0.005928727798163891, 0.2578389048576355, 0.47516924142837524, 0.04822933301329613, -0.12872613966464996, -0.13262462615966797, -0.28720757365226746, 0.06828806549310684, 0.6442278027534485, -0.02507185749709606, -0.27844277024269104, 0.29699331521987915, -0.24717594683170319, 0.2949535548686981, 0.4018267095088959, -0.047121573239564896, -0.1831664890050888], [-0.17974063754081726, -0.19222046434879303, -0.08654230833053589, -0.13994434475898743, -0.18021532893180847, 0.30576810240745544, -0.10804694145917892, 0.42600589990615845, 0.44837111234664917, 0.12391774356365204, 0.2491447776556015, 0.46813759207725525, -0.13734830915927887, -0.0963091254234314, 0.36083585023880005, -0.41633740067481995, -0.34668993949890137, -0.4266274571418762, 0.11200133711099625, 0.4056812524795532, -0.12385040521621704, -0.19009792804718018, 0.2583252489566803, -0.28729093074798584, -0.16616103053092957, 0.12612727284431458, 0.08910708874464035, 0.0845676064491272, -0.4425453841686249, -0.08515825122594833, -0.20333677530288696, 0.4137094020843506, -0.5702707767486572, 0.40386760234832764, -0.12557868659496307, -0.16949282586574554, -0.319855660200119, 0.2903049886226654, 0.2472231239080429, -0.3399405777454376, -0.3225015103816986, 0.41148993372917175, 0.052844543009996414, -0.34880444407463074, -0.1989232748746872, 0.18299800157546997, 0.33042484521865845, -0.4261414110660553, -0.5592905879020691, -0.04708116874098778, -0.014902036637067795, 0.23079320788383484, -0.0953645259141922, 0.09692932665348053, -0.21618039906024933, 0.7059525847434998, 0.3834017217159271, -0.2301158905029297, 0.1388111561536789, -0.35812005400657654, -0.12954218685626984, 0.13974660634994507, 0.08142072707414627, -0.13187646865844727], [0.15697939693927765, 0.0646698996424675, 0.13597829639911652, 0.3422359228134155, 0.31503286957740784, -0.09284807741641998, 0.32630690932273865, 0.021397462114691734, -0.3280883729457855, 0.34933531284332275, -0.24583546817302704, -0.017593085765838623, -0.08205778896808624, 0.06348247081041336, -0.10215134918689728, -0.4794484078884125, -0.4132513403892517, -0.3497716188430786, 0.029233718290925026, -0.21748778223991394, -0.07463996857404709, -0.4278799891471863, -0.005342882126569748, 0.3821728527545929, -0.13437478244304657, 0.3902026414871216, 0.07264617085456848, -0.2472083419561386, -0.5090211629867554, 0.1045570895075798, -0.123462975025177, -0.10547056794166565, 0.30326566100120544, 0.15239079296588898, -0.18891555070877075, 0.09778206795454025, -0.3592667579650879, -0.09180066734552383, -0.009655994363129139, 0.01169613003730774, 0.050804201513528824, -0.07046642899513245, 0.3551766276359558, 0.045121464878320694, -0.1353401094675064, -0.07065006345510483, 0.24796530604362488, 0.16840314865112305, 0.3916341960430145, 0.0872148722410202, -0.15466025471687317, -0.061644285917282104, -0.13350293040275574, 0.3374996781349182, 0.08539533615112305, -0.2992408871650696, 0.2822514772415161, 0.3512277603149414, -0.09730185568332672, 0.1609528362751007, -0.44684672355651855, -0.21409089863300323, 0.38267946243286133, -0.354549765586853], [0.03643127903342247, 0.03583942726254463, -0.003846889827400446, -0.10511452704668045, -0.1237693801522255, 0.03556408733129501, -0.06952837854623795, 0.034033261239528656, 0.06145237386226654, 0.17999888956546783, -0.053383275866508484, 0.17803004384040833, 0.1607545018196106, 0.44365885853767395, 0.08750887960195541, 0.1957903951406479, 0.5861625075340271, 0.3821985721588135, -0.00019465481454972178, 0.9584102034568787, -0.10637978464365005, 1.0393157005310059, 0.25344908237457275, 0.37736135721206665, 0.32907333970069885, -0.2747269868850708, -0.4596203863620758, -0.00911534670740366, 0.350297749042511, -0.4354272484779358, 0.34942197799682617, 0.1268785148859024, -0.21316289901733398, 0.2259833812713623, 0.04647328332066536, 0.28333359956741333, 0.08932223916053772, -0.7326809167861938, -0.6779664158821106, -0.024038052186369896, 0.41466179490089417, 0.008871941827237606, -0.18159575760364532, 0.5749008655548096, -0.1158759817481041, 0.4049470126628876, -0.39789727330207825, 0.43720757961273193, -0.2413039654493332, 0.09692712128162384, -0.11669149994850159, 0.1950562447309494, -0.0387042798101902, 0.09896519035100937, 0.14758634567260742, 0.35999825596809387, -0.4899141490459442, 0.015739696100354195, 0.26563361287117004, -0.41302475333213806, 0.4054122269153595, 0.5695479512214661, -0.3257133960723877, 0.44733312726020813], [-0.3337121307849884, -0.34258386492729187, 0.02542264200747013, 0.11475887149572372, -0.15685725212097168, -0.00723623763769865, -0.2923935651779175, 0.25467976927757263, 0.24426788091659546, 0.11233265697956085, -0.04019659012556076, 0.4151008129119873, 0.17764432728290558, 0.37916049361228943, 0.05033225938677788, 0.536139726638794, 0.17995254695415497, 0.10455472767353058, 0.06852420419454575, 0.44337716698646545, 0.3729114234447479, 0.5295881032943726, 0.10350914299488068, 0.14398057758808136, 0.38709813356399536, 0.19579198956489563, 0.26280203461647034, 0.06080847978591919, 0.4424728453159332, 0.08770697563886642, -0.2909761667251587, 0.4844307601451874, 0.07408555597066879, 0.2843684256076813, 0.21676760911941528, -0.14731009304523468, 0.09638774394989014, 0.24935871362686157, 0.3400126099586487, -0.3459547460079193, 0.293125718832016, -0.16216416656970978, -0.4433760344982147, 0.28627291321754456, 0.33688119053840637, 0.22646082937717438, 0.3154224157333374, -0.2793196737766266, 0.2416054755449295, -0.06426461786031723, 0.26817718148231506, 0.28368234634399414, -0.020847022533416748, -0.0554274283349514, -0.20005938410758972, 0.5879272818565369, 0.24533085525035858, 0.10964961349964142, 0.16561029851436615, -0.34579458832740784, 0.3490689694881439, 0.14652395248413086, 0.1029394343495369, -0.26128676533699036], [0.10382931679487228, 0.3488340675830841, 0.3929763436317444, 0.30539020895957947, 0.4038350582122803, -0.245853453874588, 0.38270992040634155, 0.30070891976356506, -0.1648852825164795, -0.1522553712129593, 0.11012798547744751, -0.12572239339351654, 0.1841580718755722, -0.10866480320692062, -0.1603071242570877, -0.5223357081413269, -0.4034925103187561, 0.09501639753580093, 0.42077258229255676, -0.6681023240089417, 0.08557440340518951, -0.07859529554843903, -0.45623579621315, -0.04282527416944504, -0.1678776890039444, -0.08539681881666183, -0.014421559870243073, 0.11427829414606094, -0.9209311008453369, 0.07342909276485443, 0.007873229682445526, 0.0492732897400856, 0.4659070372581482, -0.1070907711982727, 0.1679450273513794, -0.10198599845170975, -0.33348190784454346, 0.21403126418590546, 0.3648304343223572, 0.2343185544013977, -0.1915656328201294, 0.20221371948719025, 0.20669931173324585, -0.3793938457965851, 0.11547412723302841, 0.1033041849732399, 0.49008801579475403, 0.07563596963882446, 0.3641660809516907, -0.04775752127170563, -0.1091325432062149, 0.2775680124759674, 0.20766964554786682, 0.3510958254337311, 0.09076812863349915, -0.5508404970169067, 0.336488276720047, 0.2068607211112976, -0.4833657443523407, 0.4183782637119293, -0.3848129212856293, -0.18555498123168945, 0.34041354060173035, 0.3201456069946289], [-0.23086485266685486, 0.04658370092511177, -0.16229692101478577, 0.11441055685281754, -0.2848777770996094, 0.1836615800857544, 0.23506978154182434, 0.04433595389127731, 0.3887702524662018, 0.0076841614209115505, -0.11715960502624512, 0.41780713200569153, -0.21754863858222961, -0.3473353385925293, 0.2804882824420929, 0.11388251930475235, -0.2223416268825531, 0.14112816751003265, -0.09795226156711578, -0.11919369548559189, 0.028711184859275818, -0.17647098004817963, 0.3256591856479645, -0.15410755574703217, 0.0437878854572773, -0.09182262420654297, 0.1251429170370102, 0.024100808426737785, -0.2207288295030594, -0.2003602385520935, -0.27318641543388367, 0.01222252193838358, -0.06926119327545166, 0.27768415212631226, 0.28294476866722107, 0.309597909450531, -0.18572761118412018, -0.4559197723865509, 0.04445997625589371, -0.13441812992095947, 0.23342259228229523, 0.17284587025642395, -0.17223137617111206, -0.04204508662223816, -0.22683042287826538, -0.29109296202659607, -0.17256592214107513, -0.5698606371879578, -0.21856550872325897, 0.18865905702114105, 0.28555241227149963, -0.16568711400032043, -0.22458083927631378, 0.27936190366744995, -0.07045137882232666, 0.313528448343277, 0.10796279460191727, -0.1336248368024826, -0.24148067831993103, -0.28103598952293396, 0.09978397190570831, 0.21204774081707, -0.026000164449214935, 0.1824730783700943], [-0.04520099237561226, 0.2227528691291809, -0.04781235754489899, -0.2940616309642792, -0.17171859741210938, 0.4334712326526642, 0.3844166398048401, -0.0008424156694673002, 0.1614689826965332, 0.04706159606575966, 0.0028540054336190224, 0.04894808307290077, 0.3472736179828644, 0.1743030548095703, 0.14324632287025452, 0.27149224281311035, 0.1980242133140564, 0.3337599039077759, 0.12129216641187668, 0.4725971221923828, 0.19990330934524536, 0.6333374381065369, 0.358948290348053, 0.3239254355430603, 0.06101511791348457, -0.2836543321609497, -0.1585683822631836, 0.36363527178764343, 0.2966400682926178, -0.1898171305656433, 0.20101964473724365, 0.021312827244400978, -0.23002055287361145, 0.258048415184021, 0.4149131774902344, 0.32987213134765625, 0.35714539885520935, -0.5786463022232056, -0.5523743629455566, -0.1213642954826355, 0.17803263664245605, -0.1324245035648346, 0.2804878354072571, 0.32040297985076904, 0.18168242275714874, 0.025398094207048416, -0.3272348642349243, -0.05247053876519203, -0.43628546595573425, 0.006492720916867256, 0.2020556628704071, 0.22560225427150726, 0.2910137474536896, -0.07937892526388168, -0.025286909192800522, 0.20367395877838135, -0.535723090171814, 0.17843252420425415, 0.7172793745994568, -0.009184202179312706, 0.24048088490962982, 0.6195269823074341, -0.38676202297210693, 0.35384058952331543], [-0.2727467715740204, -0.21429680287837982, -0.31238651275634766, -0.11498819291591644, -0.021454185247421265, -0.139109805226326, -0.16081425547599792, 0.2791743874549866, -0.20996278524398804, 0.17978443205356598, 0.09436897188425064, -0.1232418566942215, -0.09760649502277374, 0.11110547184944153, -0.19476380944252014, 0.05067658796906471, -0.05729074031114578, 0.12824305891990662, -0.31587159633636475, -0.15511849522590637, 0.09668464958667755, -0.06224379688501358, 0.19394436478614807, 0.04254254326224327, -0.017027774825692177, -0.3530089557170868, -0.12145082652568817, 0.19594919681549072, 0.20125021040439606, -0.24338693916797638, 0.1642964482307434, -0.15468694269657135, 0.25611236691474915, -0.22360676527023315, 0.1718302071094513, 0.20298311114311218, 0.13996417820453644, -0.028585907071828842, -0.16124692559242249, -0.1969660222530365, 0.08312557637691498, -0.16663195192813873, 0.02054530754685402, 0.1914709359407425, 0.01414791401475668, 0.036224205046892166, 0.043092261999845505, 0.01561296172440052, -0.14122915267944336, 0.033720310777425766, 0.11826229840517044, 0.0422307550907135, -0.07711032032966614, -0.2886662781238556, 0.1470239758491516, -0.04583965614438057, -0.2292570173740387, -0.22029224038124084, -0.05932534858584404, -0.12913495302200317, -0.1378132700920105, 0.22968953847885132, 0.11984466761350632, 0.0693475604057312], [0.4497997462749481, 0.49421757459640503, 0.4031335711479187, 0.32465189695358276, 0.21914809942245483, -0.12215171009302139, 0.44296419620513916, -0.02585693635046482, -0.13590107858181, -0.1663801372051239, -0.332865446805954, -0.36651185154914856, -0.30561524629592896, -0.1563829779624939, -0.06947775185108185, -0.7674552798271179, -0.41970276832580566, -0.5304866433143616, 0.08822821080684662, -0.3168737590312958, 0.29604557156562805, -0.5689215660095215, -0.45355677604675293, 0.0965079516172409, -0.1990908533334732, 0.40393054485321045, 0.41479718685150146, 0.01963801681995392, -0.8554718494415283, 0.053846053779125214, -0.028265735134482384, 0.3684086799621582, 0.09678859263658524, -0.04824255034327507, -0.2385152131319046, 0.21633820235729218, -0.6050682663917542, 0.00932407844811678, 0.3240877389907837, 0.05505173280835152, -0.4237428903579712, 0.41899609565734863, 0.21125134825706482, -0.045559562742710114, 0.010416622273623943, 0.2199336737394333, 0.17759564518928528, 0.5654516816139221, 0.3866652548313141, -0.12890170514583588, 0.3890448212623596, 0.2009606659412384, -0.10450366139411926, 0.6829158067703247, 0.22848188877105713, -0.8214067816734314, 0.14129652082920074, 0.23884131014347076, -0.5645096898078918, 0.6198840141296387, -0.08440817892551422, -0.09318627417087555, 0.1390364021062851, 0.15747910737991333], [0.011834172531962395, -0.02534271404147148, 0.07042292505502701, -0.003987305797636509, 0.3355655372142792, -0.3026442527770996, 0.524979829788208, 0.35571086406707764, -0.3415991961956024, -0.06747846305370331, -0.31627166271209717, -0.3528687655925751, -0.3432859778404236, -0.30695974826812744, -0.23839513957500458, -0.5439422130584717, -0.3903052806854248, -0.18300439417362213, -0.06392454355955124, -0.6573218107223511, 0.4368021488189697, -0.6159366369247437, -0.1839061826467514, 0.40604808926582336, -0.2873847782611847, 0.31619253754615784, 0.2853241264820099, -0.09113794565200806, -1.04617178440094, 0.273802250623703, 0.32790854573249817, 0.4073137938976288, 0.30461445450782776, 0.21525412797927856, -0.17850156128406525, 0.02240738645195961, -0.46953755617141724, 0.26879358291625977, 0.5557721853256226, 0.4108733534812927, -0.2918007969856262, 0.0003678291686810553, 0.28893324732780457, -0.12205634266138077, -0.06373517960309982, 0.07792532444000244, 0.5647833347320557, -0.04049527272582054, 0.131270632147789, -0.11634665727615356, 0.226171612739563, -0.11404486000537872, 0.1930195391178131, 0.21788468956947327, 0.5508913993835449, -0.6393583416938782, 0.39725178480148315, 0.022180726751685143, -0.7121990919113159, 0.26143959164619446, -0.38580140471458435, -0.4539187252521515, 0.26004791259765625, 0.3933424949645996], [0.3335838317871094, 0.4748404026031494, 0.2995396852493286, 0.1802363246679306, 0.008064739406108856, -0.026722893118858337, 0.0656876340508461, 0.1833992749452591, -0.2707866132259369, 0.12130406498908997, -0.40687665343284607, 0.037930674850940704, 0.15791387856006622, -0.19388741254806519, -0.37328773736953735, -0.5706491470336914, -0.5748255252838135, 0.04574110731482506, 0.16525021195411682, -0.452370285987854, 0.363552063703537, -0.44894006848335266, -0.2371540516614914, 0.07843321561813354, 0.03708578646183014, 0.29126617312431335, 0.16050177812576294, -0.13305839896202087, -1.0731971263885498, 0.07856518775224686, 0.38807353377342224, 0.41526854038238525, -0.05810701847076416, 0.11342410743236542, -0.04171047732234001, -0.2240549474954605, 0.0017805707175284624, -0.18416641652584076, 0.14028391242027283, -0.030687592923641205, -0.20855264365673065, 0.30830127000808716, 0.4723029136657715, 0.05057692527770996, 0.2231902778148651, 0.28950822353363037, 0.47080326080322266, -0.11803057044744492, 0.3656391203403473, 0.04679645597934723, 0.33242687582969666, -0.026651522144675255, 0.1332484781742096, 0.144756019115448, 0.49674898386001587, -0.35649821162223816, 0.2540019452571869, 0.0725129097700119, -0.2719310224056244, 0.40789562463760376, -0.23404385149478912, -0.32360705733299255, 0.11204326897859573, -0.08957207202911377], [-0.3853836953639984, -0.4302109181880951, -0.00018123492191080004, -0.41089949011802673, -0.6024852395057678, 0.3420734703540802, 0.15606233477592468, 0.04437446594238281, 0.3015208840370178, 0.20033206045627594, 0.35394400358200073, -0.16848111152648926, 0.25085708498954773, -0.10330629348754883, 0.3812542259693146, 0.014841513708233833, -0.0009205559035763144, 0.3329080045223236, -0.08732618391513824, -0.07057158648967743, -0.08688855171203613, 0.35028043389320374, 0.41721779108047485, -0.17582377791404724, 0.2021361142396927, 0.2646217346191406, 0.12518365681171417, 0.3818262815475464, 0.5088025331497192, 0.14352180063724518, 0.03794682025909424, -0.04587875306606293, -0.013715350069105625, 0.23120969533920288, -0.18642957508563995, -0.11366775631904602, 0.2961716651916504, -0.32504844665527344, -0.17392408847808838, -0.33327850699424744, 0.27699244022369385, -0.13509348034858704, -0.19666261970996857, 0.5170716643333435, -0.07983443886041641, 0.0360170379281044, -0.19988538324832916, -0.52644944190979, -0.14920353889465332, 0.12684722244739532, -0.009440287947654724, 0.1020960584282875, -0.24348662793636322, -0.4319494962692261, 0.09653453528881073, 0.3963134288787842, -0.15276320278644562, -0.08817161619663239, 0.4091184139251709, -0.5732415318489075, 0.37715139985084534, 0.15088656544685364, -0.049374792724847794, -0.02387632243335247], [-0.3148890733718872, 0.1030689999461174, 0.2548077702522278, -0.269008070230484, 0.06800103932619095, 0.38306552171707153, -0.3867769241333008, 0.2331613004207611, 0.3049098253250122, 0.19846008718013763, 0.22844208776950836, 0.42549851536750793, 0.2560371458530426, 0.3458462655544281, -0.0155734121799469, -0.12635786831378937, 0.026710527017712593, -0.23916536569595337, -0.22839754819869995, 0.3357694745063782, 0.052540138363838196, 0.4118719696998596, 0.38167881965637207, -0.30464109778404236, -0.0149332694709301, -0.07627035677433014, -0.3486393094062805, 0.2874569892883301, -0.044018302112817764, -0.07251991331577301, -0.30289655923843384, 0.18675971031188965, -0.28150227665901184, 0.1619257628917694, -0.054778777062892914, 0.23720808327198029, 0.14217792451381683, 0.22706261277198792, -0.13104011118412018, -0.27334606647491455, 0.11141431331634521, -0.16013218462467194, -0.47569188475608826, 0.3205875754356384, 0.10478025674819946, 0.25386473536491394, 0.29393285512924194, -0.36124828457832336, -0.192335307598114, 0.13574503362178802, -0.0931803360581398, 0.26746881008148193, 0.14185361564159393, -0.45485997200012207, -0.045252107083797455, 0.5297574400901794, 0.24732594192028046, -0.21590958535671234, 0.33511045575141907, -0.3197612464427948, 0.1943415254354477, 0.19427861273288727, -0.22849199175834656, -0.14782045781612396], [-0.31366121768951416, 0.16270892322063446, 0.32940396666526794, -0.2580904960632324, -0.247429758310318, 0.21650801599025726, 0.18573501706123352, 0.45013514161109924, 0.05547056347131729, 0.36485064029693604, 0.37390074133872986, -0.10778898745775223, -0.049123555421829224, 0.44407984614372253, 0.3368895649909973, 0.7819572687149048, 0.3976876139640808, 0.19216345250606537, 0.06235326826572418, 0.46310752630233765, -0.1411818265914917, 0.6254926323890686, 0.14915388822555542, -0.02776898443698883, -0.01565011776983738, 0.0944129079580307, 0.2541905343532562, 0.2456715852022171, 0.6295880675315857, -0.08298154175281525, 0.0301041416823864, 0.3680683374404907, -0.02692868933081627, 0.40119093656539917, 0.005066800396889448, 0.34779131412506104, 0.22909975051879883, 0.3039492070674896, -0.17928528785705566, -0.14108014106750488, 0.5583610534667969, -0.11582272499799728, -0.21062375605106354, 0.044288456439971924, -0.12387146055698395, 0.06320049613714218, 0.07527405023574829, 0.2917648255825043, -0.12137532234191895, 0.38078436255455017, 0.0035609654150903225, 0.2260299026966095, 0.15950369834899902, -0.24973434209823608, -0.2390819638967514, 0.6793461441993713, 0.093951515853405, 0.1689610481262207, 0.27553316950798035, -0.16515840590000153, 0.28695207834243774, 0.05987902730703354, -0.048056550323963165, 0.19379043579101562], [0.09213543683290482, 0.44351327419281006, -0.012963288463652134, 0.02198893018066883, 0.38929709792137146, 0.13134709000587463, 0.24460648000240326, -0.05902589485049248, -0.28693339228630066, -0.06110365316271782, -0.2955949008464813, 0.14296658337116241, 0.12922844290733337, -0.49855396151542664, -0.056732889264822006, -0.762745201587677, -0.4975183308124542, -0.23503468930721283, 0.27216407656669617, -0.11647839844226837, 0.23996601998806, -0.5409017205238342, 0.05171896517276764, 0.3767014145851135, -0.4146612882614136, 0.26163020730018616, 0.22664782404899597, -0.3172735571861267, -0.9178395867347717, -0.1618298441171646, 0.23435138165950775, 0.36021772027015686, 0.20593298971652985, 0.17601536214351654, -0.13855130970478058, 0.09363003075122833, -0.5341079831123352, 0.2686307728290558, 0.22566403448581696, 0.3126441538333893, 0.21171431243419647, 0.032689452171325684, 0.20353715121746063, -0.2675847113132477, -0.12792032957077026, 0.3047868013381958, 0.29901212453842163, 0.3956463932991028, 0.19304347038269043, -0.004919766914099455, 0.24992918968200684, 0.2185303121805191, 0.14251677691936493, 0.32988661527633667, 0.23330442607402802, -0.2919101417064667, 0.5156397819519043, 0.2936716377735138, -0.7011865377426147, 0.37354305386543274, -0.30323347449302673, -0.04889839142560959, 0.47007107734680176, 0.13832727074623108], [0.5082337260246277, 0.062363043427467346, -0.01319506298750639, 0.2198633849620819, 0.39116406440734863, -0.08654491603374481, -0.01665383018553257, -0.19873541593551636, -0.2684526741504669, 0.14787930250167847, -0.4242200255393982, -0.3535042405128479, -0.32530295848846436, -0.22428803145885468, -0.27544817328453064, -0.8713418841362, -0.3251586854457855, 0.015139736235141754, -0.06427288800477982, -0.36142364144325256, -0.07661963254213333, -0.4666757881641388, -0.11490220576524734, 0.18055889010429382, 0.0087810680270195, 0.04517699405550957, 0.23912778496742249, -0.3228684663772583, -0.771362841129303, 0.4072132706642151, -0.04022035375237465, 0.02705766260623932, 0.45100876688957214, -0.16152894496917725, 0.07141337543725967, -0.09998903423547745, -0.11131741851568222, -0.21875911951065063, 0.3770822584629059, 0.1830757111310959, 0.01473257690668106, 0.22795236110687256, 0.32964643836021423, -0.23172037303447723, 0.16901260614395142, -0.2007453441619873, 0.20189398527145386, -0.023557303473353386, -0.06287432461977005, -0.1803983598947525, -0.018888507038354874, 0.20651116967201233, 0.003794636344537139, 0.37057074904441833, 0.4764424264431, -0.6167759895324707, 0.4322960674762726, 0.35003861784935, -0.17317716777324677, 0.5290677547454834, -0.07166244089603424, 0.014391259290277958, 0.506865918636322, -0.052605438977479935], [0.2914162278175354, 0.09155173599720001, 0.10661046952009201, 0.19383563101291656, 0.26575013995170593, -0.40583130717277527, 0.4536609351634979, 0.33018121123313904, -0.2919429540634155, -0.16967664659023285, -0.4741179645061493, 0.15376529097557068, 0.09585056453943253, -0.3230038583278656, -0.14755962789058685, -0.9557594060897827, -0.602483868598938, -0.34924978017807007, 0.34688034653663635, -0.34209850430488586, -0.1518448442220688, -0.26661431789398193, -0.20518778264522552, -0.03871568292379379, -0.14336711168289185, 0.20696502923965454, 0.0016052286373451352, -0.23342810571193695, -0.8440300822257996, -0.006314074620604515, 0.17914006114006042, 0.41026654839515686, 0.4492477774620056, 0.10102428495883942, -0.004666555672883987, -0.18895666301250458, -0.418519526720047, 0.33662769198417664, 0.22741258144378662, 0.44697803258895874, -0.15519657731056213, 0.18203473091125488, -0.03054075501859188, -0.03839385136961937, -0.33826744556427, 0.1270689070224762, 0.48614785075187683, 0.35971373319625854, 0.30476880073547363, -0.18832865357398987, -0.15089641511440277, 0.0603056363761425, 0.14925023913383484, 0.27297696471214294, 0.060512155294418335, -0.26417866349220276, 0.29650428891181946, -0.2733665406703949, -0.6893933415412903, 0.03285432979464531, -0.42690110206604004, -0.48773711919784546, 0.17066426575183868, 0.2338363081216812], [0.2972583770751953, -0.12342889606952667, -0.25542503595352173, 0.1605810970067978, -0.2437686026096344, 0.4234611988067627, 0.25140637159347534, 0.2692853510379791, 0.42519286274909973, 0.31777235865592957, 0.26974159479141235, 0.09018460661172867, 0.28851160407066345, 0.5189096331596375, -0.023795505985617638, 0.9578995108604431, 0.19878624379634857, 0.43888741731643677, -0.1395735889673233, 0.6245691776275635, -0.02502404898405075, 0.6802619695663452, 0.10147060453891754, 0.16950757801532745, 0.10125602036714554, 0.026063838973641396, 0.08173155784606934, -0.12748084962368011, 0.5217570066452026, 0.0494421012699604, 0.28031304478645325, -0.0020383521914482117, -0.22576041519641876, 0.09567893296480179, 0.4050396978855133, -0.015369181521236897, 0.5550150871276855, -0.18913684785366058, -0.04634098708629608, 0.09623308479785919, 0.14034795761108398, 0.22113585472106934, 0.1337311863899231, 0.486982524394989, -0.05514519289135933, 0.01473124697804451, -0.16577878594398499, 0.286062091588974, 0.043284352868795395, 0.03105386532843113, -0.17801915109157562, 0.29296836256980896, -0.10378269106149673, -0.08357056230306625, 0.08542939275503159, 0.4305877089500427, -0.11953172832727432, 0.2624823749065399, 0.496165931224823, -0.18411070108413696, 0.05536004900932312, 0.6031494736671448, -0.2902451455593109, 0.17101654410362244], [0.6030313968658447, 0.264243483543396, -0.014418644830584526, -0.021926280111074448, 0.15709084272384644, -0.16451892256736755, 0.4335879385471344, 0.08741006255149841, -0.012353654950857162, 0.015672873705625534, -0.09453586488962173, -0.3930521607398987, -0.36208561062812805, -0.5495774745941162, -0.285414457321167, -1.0073496103286743, -0.35530751943588257, 0.06632669270038605, 0.0025148300919681787, -0.29712554812431335, 0.24270354211330414, -0.5446979999542236, -0.16606497764587402, 0.4980163276195526, -0.19738925993442535, 0.4220817983150482, 0.05516044422984123, -0.21304009854793549, -0.6180194616317749, 0.5044412612915039, 0.04347613826394081, 0.2799757421016693, 0.10862521082162857, -0.12404178828001022, -0.216780424118042, 0.10738322138786316, -0.45865997672080994, 0.12960155308246613, 0.4139404594898224, 0.16979697346687317, -0.24517610669136047, 0.05181970074772835, 0.5663688778877258, 0.012049552984535694, -0.3478686809539795, 0.4014001488685608, 0.2626432478427887, 0.043134309351444244, 0.12898457050323486, 0.19757238030433655, 0.45286262035369873, 0.21568581461906433, 0.3574729263782501, 0.6259158253669739, 0.43463191390037537, -0.7011533975601196, 0.138404980301857, 0.02061723731458187, -0.6793898344039917, 0.23019595444202423, -0.03784776106476784, -0.3370457887649536, 0.08856834471225739, 0.018003759905695915], [-0.05175644904375076, 0.26862725615501404, 0.08448962867259979, 0.14772793650627136, 0.265264093875885, -0.08295142650604248, -0.2928392291069031, -0.20651061832904816, -0.37762048840522766, -0.30816009640693665, -0.5552372336387634, -0.30532097816467285, 0.14054279029369354, -0.09134926646947861, -0.7085790038108826, 0.3582172393798828, -0.39315539598464966, -0.2374112904071808, -0.1892688274383545, 0.4888492524623871, -0.20291782915592194, 0.18729855120182037, -0.7030835747718811, -0.240045428276062, 0.07855100184679031, -0.3254919648170471, 0.1628745049238205, -0.2817273736000061, 0.24949105083942413, -0.07743323594331741, -0.04894483834505081, 0.027710633352398872, 0.033643461763858795, 0.16551202535629272, 0.17670051753520966, -0.32708659768104553, -0.17355170845985413, -0.2934439182281494, -0.14075370132923126, 0.15334159135818481, -0.012666206806898117, -0.11089067906141281, 0.3065359890460968, -0.1588546484708786, -0.17522749304771423, -0.3296985924243927, 0.1708013117313385, 0.1489289551973343, 0.024368252605199814, -0.48327451944351196, -0.22087514400482178, -0.2028210312128067, 0.2164848893880844, 0.07371161878108978, 0.06559041887521744, 0.14497052133083344, -0.051187679171562195, -0.3381136655807495, 0.2680644094944, 0.24826769530773163, -0.025481274351477623, -0.04540116712450981, -0.4015065133571625, 0.1543647050857544]], "shared_fc2_bias": [0.2977847456932068, -0.031033338978886604, 0.3042590320110321, 0.46875280141830444, 0.1441795825958252, 0.23594515025615692, 0.38494136929512024, 0.32512080669403076, 0.30912986397743225, -0.01740475744009018, 0.38507065176963806, -0.03273604065179825, 0.3548324406147003, 0.35069558024406433, -0.13791021704673767, -0.026822777464985847, 0.4625081717967987, -0.05585167929530144, -0.017822768539190292, -0.09291564673185349, -0.1481490284204483, 0.2985091507434845, 0.29792505502700806, 0.20096875727176666, 0.2981911599636078, 0.3097221553325653, -0.06952843815088272, 0.3212141990661621, -0.15179763734340668, 0.292414128780365, -0.10672912746667862, 0.18046727776527405, 0.18952086567878723, 0.31412696838378906, -0.058287978172302246, 0.21565178036689758, 0.08347811549901962, 0.23655098676681519, -0.07450015097856522, 0.47847023606300354, 0.29866108298301697, 0.11993789672851562, -0.11686752736568451, -0.042451951652765274, -0.12145224958658218, 0.25256335735321045, -0.08542587608098984, 0.07480408996343613, 0.2357950657606125, -0.2020188719034195, -0.25809353590011597, -0.10471412539482117, 0.2894858121871948, 0.3499508798122406, 0.3529910147190094, -0.3393222689628601, -0.26199737191200256, -0.20871396362781525, 0.1108529195189476, 0.34832149744033813, 0.3447706699371338, -0.03871423378586769, 0.3807238042354584, 0.004731818102300167], "policy_weight": [[0.11743517965078354, 0.201059490442276, -0.05840971693396568, -0.16622580587863922, 0.07624867558479309, 0.2424113005399704, 0.06551320105791092, 0.01473317388445139, 0.17086565494537354, -0.2460280954837799, -0.3043825924396515, 0.3091525733470917, 0.25085020065307617, 0.12246953696012497, -0.04102834314107895, -0.10581456124782562, -0.04042540490627289, 0.1808757781982422, 0.13519605994224548, -0.5533985495567322, -0.12284405529499054, 0.22802981734275818, -0.19864560663700104, 0.17205514013767242, 0.16301555931568146, -0.34791046380996704, 0.45405644178390503, 0.2228422462940216, -0.26873543858528137, -0.05130385980010033, 0.22334492206573486, -0.04694773256778717, 0.08055008202791214, 0.23969757556915283, -0.08463262021541595, -0.18951503932476044, 0.650304913520813, 0.19967158138751984, -0.2980479300022125, 0.17293290793895721, -0.01135646179318428, -0.3672105669975281, 0.21417391300201416, 0.11095964163541794, 0.09515242278575897, 0.0887884870171547, -0.05988980829715729, 0.2700097858905792, -0.14358258247375488, 0.12149399518966675, -0.0668565183877945, -0.22974610328674316, 0.142054945230484, 0.3646499514579773, -0.3119078278541565, -0.1653960943222046, -0.14316722750663757, -0.012666069902479649, 0.035819124430418015, -0.17867915332317352, -0.09956832975149155, -0.253395140171051, -0.00522937998175621, 0.007261700928211212], [-0.195140078663826, -0.15248993039131165, 0.26448166370391846, 0.11565789580345154, -0.20457430183887482, -0.013314899057149887, 0.24165208637714386, -0.03234769031405449, -0.13494962453842163, -0.1693619191646576, 0.2317609190940857, -0.10651649534702301, 0.22371041774749756, 0.025468476116657257, 0.0017623614985495806, -0.20996612310409546, 0.031831927597522736, 0.07946569472551346, -0.2023761123418808, 0.45173582434654236, -0.31174948811531067, 0.12302470207214355, -0.24151253700256348, -0.10235937684774399, -0.05889049917459488, 0.3523977994918823, -0.48114559054374695, 0.18805593252182007, 0.04595150798559189, 0.00915056373924017, 0.16603001952171326, -0.08780466765165329, -0.14301984012126923, 0.08644416183233261, 0.26678991317749023, -0.2004743069410324, -0.4024127125740051, 0.06437912583351135, 0.2619035542011261, 0.15382124483585358, -0.02730375900864601, 0.5620449781417847, 0.12080150842666626, -0.13014137744903564, -0.14768534898757935, 0.2636445462703705, 0.0484369620680809, -0.3606794476509094, 0.13453345000743866, 0.26532182097435, 0.05569044128060341, 0.20395268499851227, 0.1548440158367157, 0.038034722208976746, 0.0814141258597374, -0.02381475269794464, 0.024496443569660187, 0.18240118026733398, -0.043822068721055984, 0.16990961134433746, -0.3270568251609802, 0.46927106380462646, -0.13627158105373383, 0.17173780500888824]], "policy_bias": [0.14810830354690552, 0.010729669593274593], "value_weight": [[0.6096786260604858, -0.5261668562889099, 0.6290858387947083, 0.4934130311012268, 0.6271860003471375, 0.6369786262512207, 0.6334722638130188, 0.5923223495483398, 0.5088489651679993, -0.4552137851715088, 0.5032980442047119, -0.006679271813482046, 0.5049933791160583, 0.4610386788845062, -0.6243298649787903, -0.8394404053688049, 0.40628424286842346, -0.6018646359443665, -0.7467673420906067, -0.92375648021698, -0.6066381335258484, 0.3940839171409607, 0.572699248790741, 0.7517345547676086, 0.6593014001846313, 0.5872860550880432, -0.30314746499061584, 0.5081489086151123, -0.7158703207969666, 0.4218308925628662, -0.4936473071575165, 0.42112600803375244, 0.5008447170257568, 0.47589096426963806, 0.12484988570213318, 0.48196327686309814, -0.9883087873458862, 0.41117075085639954, -0.47335371375083923, 0.34910887479782104, 0.5568668246269226, -0.5103514790534973, -0.9642569422721863, -0.8270742297172546, -0.932701051235199, 0.6385863423347473, -0.7567464709281921, -0.686213493347168, 0.5506366491317749, -0.4847623407840729, -0.994949996471405, 0.23658858239650726, 0.5455581545829773, 0.6450135111808777, 0.4082823693752289, -0.33193284273147583, -0.7815902829170227, -0.5422951579093933, 0.5329498648643494, 0.6481677889823914, 0.640006959438324, -0.617969810962677, 0.5052784085273743, -0.4048384130001068]], "value_bias": [0.14440184831619263]}