{"obs_dim": 4, "action_dim": 2, "hidden_dim": 128, "shared_fc1_weight": [[-0.5238645672798157, -0.19920961558818817, -0.13830584287643433, 0.5847299098968506], [0.2804718315601349, 0.1437048316001892, 1.258381724357605, 0.0318792499601841], [-0.7678970098495483, 0.5671944618225098, 1.4221445322036743, -0.4232272505760193], [0.2820265293121338, -0.08872813731431961, -0.40945398807525635, -0.15801064670085907], [-0.4382018446922302, 1.370956301689148, 0.11825429648160934, 1.1349791288375854], [-0.6011903882026672, -0.9296548366546631, 2.2784268856048584, 0.3130119740962982], [-1.1168715953826904, -0.5901238322257996, -1.2954710721969604, -0.41819632053375244], [1.9391297101974487, -1.0775846242904663, -1.488936424255371, -0.7735356092453003], [-0.6718459725379944, 0.8858619928359985, -0.7042893767356873, -0.2287527173757553], [1.0345964431762695, 0.22774408757686615, -1.4269258975982666, 0.5293020009994507], [1.3602079153060913, -0.053831808269023895, -0.7563278675079346, 0.5172984004020691], [1.3785349130630493, 1.0004533529281616, 0.36673614382743835, -0.1740250587463379], [-0.2209452986717224, -0.3637773096561432, -2.0018277168273926, -0.46572113037109375], [0.3175216615200043, -0.6452875733375549, 0.4404696822166443, -0.3843683898448944], [-0.24106384813785553, -0.9931080937385559, -0.31951794028282166, -0.12308412045240402], [0.3296276330947876, 1.035190224647522, 0.3304380476474762, 0.8166643977165222], [0.7019341588020325, 1.0309476852416992, -0.34128379821777344, -0.5857517123222351], [0.035474859178066254, -1.1897780895233154, 0.5634409785270691, -0.16015952825546265], [0.9154656529426575, 0.9850302338600159, -0.3170558214187622, 0.5463548302650452], [-0.6145038604736328, -0.29471924901008606, 0.34023213386535645, -0.16701701283454895], [-0.2644675374031067, -1.0048857927322388, -0.4326847493648529, -0.7941225171089172], [0.15884476900100708, 1.0013365745544434, -0.6251918077468872, -0.2868739664554596], [-0.12509378790855408, 0.7899566292762756, -1.3045978546142578, 0.2013932764530182], [0.05870545282959938, 0.053623735904693604, 2.5881271362304688, 0.8804692029953003], [1.2521785497665405, -0.41740402579307556, 1.1652787923812866, -0.3752554655075073], [1.3108805418014526, -0.973421037197113, 0.5834917426109314, 0.380324125289917], [-0.34392276406288147, -0.44883352518081665, 1.7453241348266602, 0.8494022488594055], [0.7162749171257019, -1.2612998485565186, -1.412604570388794, -0.9489728808403015], [1.8487656116485596, -0.871598482131958, -0.5422269701957703, -1.0854569673538208], [0.6974525451660156, -0.8775364756584167, 1.4736440181732178, -0.7480401992797852], [0.6073768734931946, -0.9476584792137146, 0.9680081605911255, 0.1759616732597351], [0.6255626678466797, -1.0949764251708984, 1.015921950340271, -0.6181447505950928], [1.7091925144195557, -0.9161715507507324, 1.3571383953094482, -0.6728513240814209], [-0.2465588003396988, 0.17618891596794128, 0.13981840014457703, -0.14788313210010529], [0.7024458050727844, 0.6456316709518433, 0.6894184947013855, 0.26843729615211487], [-0.06121378391981125, -0.2767132520675659, 1.0562344789505005, 0.46920567750930786], [-0.6482816934585571, -0.47941160202026367, 0.6945684552192688, -0.06057446077466011], [0.24318207800388336, -0.09306405484676361, -1.1561827659606934, 0.1875656247138977], [-0.8310807347297668, 0.009024806320667267, -0.29076942801475525, 0.6155507564544678], [0.5634276866912842, 0.21995051205158234, -0.2801224887371063, 0.812402069568634], [-1.429990530014038, 0.8769298195838928, -1.6776105165481567, 0.704407274723053], [-1.0757025480270386, 0.4003911018371582, -0.9848421216011047, -0.946578323841095], [-0.8266491889953613, -1.1020901203155518, 0.5694058537483215, -0.9278280138969421], [-0.8576518893241882, -0.34983301162719727, 0.9737353324890137, 0.8037662506103516], [0.5561218857765198, -1.047377586364746, -0.38513439893722534, -1.078098177909851], [1.288968563079834, -0.2324540615081787, 2.745907783508301, 0.2011898159980774], [1.2403970956802368, -0.8090937733650208, 1.4029746055603027, 0.02077711746096611], [0.4696596562862396, -0.6680915355682373, -1.3798192739486694, 0.7965015172958374], [0.9245759844779968, 0.5301225185394287, 0.8989086151123047, 0.5331928730010986], [-0.5674156546592712, 0.6933874487876892, 1.39178466796875, -1.0896966457366943], [-0.8708481788635254, 1.0887510776519775, -0.37731626629829407, 0.015221970155835152], [-0.6811513304710388, 0.6001872420310974, -0.14471636712551117, 1.2847689390182495], [0.3801881670951843, -0.3050909638404846, -0.19995202124118805, 0.8885681629180908], [-0.45398879051208496, 0.6681559681892395, 1.3404310941696167, -0.36173215508461], [1.4178802967071533, 0.4475988447666168, -0.5911967754364014, 0.2923189401626587], [1.4468189477920532, 0.16324469447135925, -1.4013526439666748, -0.5722126960754395], [0.6686837077140808, 0.983650267124176, 0.3275553584098816, -0.3010919392108917], [-1.243713617324829, -0.22514605522155762, 0.6778690814971924, -0.4259496331214905], [-0.036062806844711304, 0.49173790216445923, 1.9542903900146484, -0.04026000201702118], [0.10335295647382736, -0.4102987051010132, -1.085366129875183, -0.7084784507751465], [-0.016373353078961372, 0.49877867102622986, -0.0969335213303566, -1.0896985530853271], [-0.24149242043495178, -1.1139130592346191, 1.0439246892929077, 0.7082219123840332], [-1.4184701442718506, -0.964208722114563, -2.9767913818359375, -0.6676562428474426], [-1.7224806547164917, 0.7974774241447449, -1.217362403869629, 0.7472988963127136], [-0.5130321383476257, -0.36589598655700684, -1.252230167388916, -0.8479143977165222], [0.41536182165145874, -0.8392863273620605, 0.3711468577384949, -0.505496621131897], [-0.8758113384246826, -0.2627308964729309, -0.11254124343395233, -0.9795856475830078], [0.7615368962287903, -0.5306289196014404, -0.0814858078956604, 0.8219658136367798], [0.43437644839286804, -1.032446026802063, 0.15843631327152252, -0.347056120634079], [0.9626342058181763, 0.966026246547699, 0.6569463014602661, -0.6108840703964233], [-0.4532959461212158, 0.9821346998214722, -0.6216604709625244, -0.482490211725235], [0.10915576666593552, 0.9573644995689392, -1.3103785514831543, -0.8169147968292236], [-1.1014264822006226, -0.3571719825267792, -1.567724585533142, 0.0203175600618124], [-1.2389634847640991, -0.8407320380210876, -0.6321269869804382, 0.5931087136268616], [-0.8575364947319031, 0.8950619101524353, -0.7596979737281799, 0.23180076479911804], [-0.029546786099672318, 0.1781386435031891, 0.3380139470100403, -0.5321943163871765], [1.2900830507278442, -0.1092725619673729, 0.5188474059104919, -1.0261062383651733], [-0.9494739174842834, 0.8470348119735718, 0.4957346022129059, 1.3051732778549194], [-0.30488571524620056, -0.05235936865210533, -1.7293763160705566, -0.03794151172041893], [1.0413223505020142, 0.11093876510858536, 1.9442764520645142, 0.08508388698101044], [0.39709773659706116, -0.36146047711372375, -0.38851070404052734, -0.7419417500495911], [-0.1492539644241333, 0.8215590715408325, -1.109569787979126, 0.8015565872192383], [0.399262934923172, 0.8184424042701721, -0.6314724087715149, 0.5775123238563538], [-0.4891743063926697, 0.19942836463451385, 0.9769573211669922, 0.9249312877655029], [1.5841686725616455, -0.27842026948928833, 1.152683973312378, 1.017447590827942], [0.5875999331474304, -0.7984121441841125, -0.45695725083351135, -0.6210660934448242], [-0.1892462968826294, 0.680158257484436, 0.6677484512329102, -0.15745669603347778], [0.9565979838371277, -1.139266014099121, -2.0964815616607666, -1.0092260837554932], [-0.9829750061035156, 0.8044960498809814, 0.49126145243644714, 0.6400538086891174], [-0.8510636687278748, -0.5343284010887146, -0.3858030438423157, -0.9496502876281738], [0.877997875213623, -0.08298653364181519, -0.217100128531456, 0.32753869891166687], [-1.2090829610824585, 1.2582558393478394, 0.019949110224843025, 0.9049928188323975], [-0.8767572045326233, -0.18496692180633545, 1.4779058694839478, -0.2548639178276062], [0.3908800184726715, -0.28774935007095337, 0.18332813680171967, 0.8222825527191162], [-0.8917484879493713, -1.1027203798294067, -1.5397272109985352, -0.06785335391759872], [-1.0612093210220337, -1.014332890510559, -1.1404447555541992, 0.9819024205207825], [0.1548084169626236, 0.756122350692749, 2.06166410446167, 0.5878731608390808], [-0.4211938679218292, 0.06201093643903732, -0.8272140026092529, 0.3097445070743561], [-0.8351837992668152, -0.20792444050312042, -0.8387742042541504, -0.6628484129905701], [1.420973539352417, 0.6822881102561951, 0.6305636763572693, 0.12424250692129135], [0.6412055492401123, 1.0200762748718262, 0.9264589548110962, 0.6175753474235535], [-0.282433420419693, -0.9962521195411682, -0.39509567618370056, -0.784326434135437], [1.3450870513916016, 0.578143835067749, -0.1835053712129593, 0.32246261835098267], [-0.45593899488449097, -0.3238552510738373, 0.0007980042137205601, 0.6994758248329163], [-0.3817432224750519, -1.0212361812591553, 0.47379904985427856, -0.8033642768859863], [-1.4558911323547363, -0.027916641905903816, -0.9597334861755371, 0.027663378044962883], [0.02738245576620102, -0.6726962327957153, 1.7405331134796143, 0.6447286605834961], [0.1997678130865097, -0.7457024455070496, -0.19122759997844696, -0.4130726754665375], [-0.5527290105819702, -0.3129501938819885, -2.3767127990722656, 0.5513700842857361], [-0.522382915019989, -0.9799939393997192, -0.9560382962226868, 0.09816443175077438], [-0.9048479199409485, -0.1766357421875, 1.3993016481399536, -0.030980011448264122], [-0.29245707392692566, -0.7985936403274536, -3.309020519256592, -0.6462894678115845], [1.1565072536468506, -0.951286792755127, 0.561406135559082, 0.8036226034164429], [0.8470722436904907, 0.12132823467254639, 2.6157066822052, 0.7776138186454773], [0.23527005314826965, -0.7489522695541382, -0.9437151551246643, -0.8471241593360901], [0.3648878335952759, 1.1256163120269775, -0.5772588849067688, 0.903171181678772], [0.8720090985298157, 0.5430554151535034, 1.8611931800842285, 0.35088029503822327], [1.8923635482788086, -0.08403471112251282, 1.555060863494873, -0.10971096903085709], [-0.5627598762512207, 0.7224754691123962, -0.9644631147384644, -1.1457587480545044], [-0.43333226442337036, -0.19491909444332123, -0.9736199378967285, -0.7479214072227478], [0.4636942148208618, 0.7527657747268677, 1.6896398067474365, 0.553428590297699], [-1.0394426584243774, 0.8676350712776184, -0.7822786569595337, 0.24889162182807922], [0.9373263120651245, -0.41775617003440857, 1.2080433368682861, -0.6415755152702332], [-0.06195981055498123, -0.0260312482714653, -1.4690847396850586, 0.45642954111099243], [-0.6136893033981323, -0.07483506202697754, 1.1884853839874268, 0.006624564528465271], [0.3735042214393616, 0.5213251709938049, 0.22315379977226257, 0.5566595792770386], [1.10075044631958, 0.09025545418262482, -0.31831902265548706, -0.9330019354820251], [0.9642548561096191, 0.9034466743469238, 0.8974790573120117, 0.5951337814331055]], "shared_fc1_bias": [-0.7531351447105408, -0.3713968098163605, 0.5625934600830078, 0.5228087306022644, 0.38714948296546936, -0.4563343822956085, 0.030042363330721855, 0.17583346366882324, -0.21354155242443085, -0.031083237379789352, 0.6882849931716919, 0.38712039589881897, 0.04146479442715645, -0.3661758601665497, 0.3272332549095154, -0.42864182591438293, 0.42957600951194763, -0.2770446240901947, 0.8234554529190063, -1.1226879358291626, -0.5009364485740662, 0.7494453191757202, 0.37177377939224243, 0.3473755121231079, 0.2337713986635208, 0.8139081001281738, 0.3833863139152527, 0.07039368897676468, 0.5219891667366028, 0.8557020425796509, -0.7348971366882324, 0.6761046648025513, 0.19172357022762299, 0.6496236324310303, 0.6222943067550659, -0.14424821734428406, -0.656510591506958, -0.39081379771232605, 0.8241334557533264, 0.6738852262496948, -0.22904208302497864, -0.6826181411743164, 0.3018958270549774, -0.07681764662265778, 0.3868161737918854, 0.3159739375114441, 0.42106252908706665, -0.4310174584388733, -0.4581303894519806, 0.6312596797943115, 0.4143427610397339, 0.39196303486824036, 0.4077623188495636, -0.11537203937768936, -0.35482552647590637, 0.12751758098602295, 0.05600181967020035, 0.1670481264591217, 0.671830952167511, 0.7794077396392822, -0.751746416091919, 0.5293495059013367, -0.026625584810972214, 0.31301259994506836, -0.09713922441005707, 0.5762878656387329, 0.8483462929725647, 0.04927234724164009, 0.7393329739570618, -0.2432662546634674, 0.6075717210769653, -0.44443169236183167, -0.4507119059562683, 0.1434425264596939, -0.7269695997238159, 0.4977993667125702, -0.33673474192619324, -0.053301651030778885, -0.20419082045555115, -0.36226963996887207, 0.9354470372200012, 0.35419222712516785, 0.18303515017032623, 0.707439661026001, -0.4029962420463562, 0.24651610851287842, 0.7638930678367615, 0.056682098656892776, 0.3370431363582611, -0.2557441294193268, 0.7150763869285583, 0.2362736612558365, 0.33595404028892517, -0.45808494091033936, 0.45110398530960083, -0.045744720846414566, 0.024784084409475327, 0.7990953922271729, -0.6838749051094055, 0.5709335207939148, -0.029841965064406395, -0.4941149652004242, 0.48079124093055725, -0.4670897126197815, -0.5121557712554932, -0.344503253698349, -0.23705138266086578, -0.44775763154029846, -0.23141580820083618, 0.38343632221221924, 0.7287891507148743, 0.44473615288734436, 0.48800650238990784, 0.17931659519672394, 0.6815603971481323, 0.7348842620849609, 0.01980733498930931, -0.08909903466701508, -0.4475950002670288, -0.7797219157218933, 0.2698277235031128, -0.15656109154224396, 0.8812909722328186, -0.5329495668411255, -0.4726890027523041, 0.3313928246498108, 0.08676370978355408, 0.6508741974830627], "shared_fc2_weight": [[0.019384924322366714, -0.2433777004480362, -0.09276194125413895, -0.8837364315986633, -0.34701329469680786, -0.0735948458313942, -0.031748659908771515, -0.30747583508491516, 0.22975079715251923, -0.029211262241005898, -0.1060338094830513, 0.2563760578632355, 0.428448349237442, 0.006129870191216469, 0.017847662791609764, 0.27029943466186523, 0.07509517669677734, -0.006854509934782982, -0.04750699922442436, 0.41544970870018005, 0.4492489695549011, -0.40606027841567993, -0.04634862020611763, -0.07304292172193527, -0.1244310513138771, -0.317923367023468, -0.36178770661354065, 0.1401243656873703, -0.43800678849220276, -0.44014349579811096, -0.19820690155029297, -0.0023280116729438305, 0.11344651877880096, -0.28232264518737793, -0.12485057860612869, -0.038829028606414795, 0.023963838815689087, 0.1148580014705658, 0.05457643046975136, -0.34653863310813904, 0.12113689631223679, 0.45667192339897156, -0.1316024363040924, 0.09376324713230133, -0.21628320217132568, -0.11738114804029465, 0.03813610225915909, 0.0895528569817543, 0.05145716294646263, -0.24504175782203674, -0.3129393458366394, -0.15330123901367188, -0.12278471887111664, -0.0728277638554573, 0.048813045024871826, 0.11417337507009506, 0.14321374893188477, 0.17530420422554016, -0.15058346092700958, -0.7182478308677673, 0.039593346416950226, -0.09663714468479156, 0.5273466110229492, 0.04404705762863159, 0.015244600363075733, -0.13071128726005554, -0.16567368805408478, 0.046613600105047226, -0.3337453007698059, 0.15685173869132996, -0.4035893976688385, 0.13885436952114105, -0.1127178892493248, 0.09539628028869629, 0.07238142192363739, -0.18126246333122253, 0.1460820585489273, -0.28464001417160034, 0.36853650212287903, 0.2071903496980667, -0.7717851400375366, -0.10391929745674133, 0.17019307613372803, -0.17956998944282532, -0.15424881875514984, -0.15093426406383514, -0.42060935497283936, 0.3767967224121094, 0.09076559543609619, 0.14815828204154968, -0.3006623089313507, -0.32908323407173157, -0.19422608613967896, -0.04104331508278847, -0.17627876996994019, -0.030054805800318718, 0.5355470180511475, -0.2913266718387604, 0.4094800353050232, -0.06847942620515823, 0.25388383865356445, 0.5297821164131165, 0.16869153082370758, 0.10259609669446945, 0.2304796278476715, 0.21152259409427643, -0.11588673293590546, 0.22819672524929047, 0.12357580661773682, 0.11738169938325882, 0.08538831770420074, -0.14217731356620789, -0.2257481962442398, -0.020946403965353966, -0.5608700513839722, 0.1344795525074005, 0.12578287720680237, 0.12774522602558136, 0.2763420343399048, 0.46824145317077637, 0.38340240716934204, 0.23410668969154358, -0.13180555403232574, 0.09850223362445831, -0.029014015570282936, 0.12824027240276337, 0.08409687131643295, 0.08193787187337875], [0.18814562261104584, -0.5073091387748718, -0.13220065832138062, -0.3918797969818115, 0.2126699537038803, -0.060328103601932526, 0.5293908715248108, -0.379546195268631, 0.3938120901584625, -0.3100239336490631, 0.12922993302345276, 0.08968380838632584, 0.3524361252784729, 0.5931710600852966, 0.03531930223107338, 0.6407221555709839, -0.13763748109340668, 0.09059176594018936, 0.042865458875894547, -0.12067735940217972, 0.39784935116767883, 0.11487361788749695, -0.12856431305408478, 0.2190101593732834, -0.8367791771888733, -0.11063158512115479, -0.16483865678310394, 0.09985722601413727, -0.3793426752090454, -0.04505467042326927, 0.015377712436020374, -0.3759342133998871, 0.9882662892341614, -0.11331354826688766, 0.1728031039237976, 0.06479159742593765, 0.4443033039569855, 0.10430005937814713, 0.1331254094839096, 0.02395310252904892, 0.8642569184303284, 0.22493258118629456, 0.02258521318435669, 0.008677136152982712, -0.4884190559387207, 0.03751826286315918, -0.03046395443379879, -0.18781770765781403, 0.3757951557636261, -0.013863512314856052, -0.02394947223365307, -0.15089142322540283, 0.10782519727945328, 0.10225792974233627, 0.09609393775463104, -0.2782815098762512, -0.2753266990184784, 0.13659997284412384, -0.10097000747919083, -0.16945677995681763, -0.06301867216825485, -0.0824480727314949, -0.3489372730255127, 0.2086646556854248, -0.11960600316524506, -0.18227709829807281, -0.2715647518634796, -0.14018148183822632, -0.2743188738822937, -0.06064927205443382, 0.10197132080793381, 0.06453367322683334, 0.343116819858551, -0.19074484705924988, 0.578808605670929, 0.03087303787469864, -0.15023253858089447, 0.3200099766254425, 1.025708794593811, 0.811538577079773, -0.22197560966014862, -0.060253847390413284, -0.3141556680202484, -0.08654958754777908, -0.08522406965494156, -0.355947345495224, -0.14480797946453094, 0.091342993080616, -0.03553260117769241, -0.07754186540842056, -0.006331486161798239, -0.24055008590221405, 0.0035798612516373396, -0.14579880237579346, 0.01294803712517023, 0.17330187559127808, 0.7378093004226685, -0.14351671934127808, 0.49981194734573364, 0.05048714205622673, 0.38483935594558716, 0.40233996510505676, -0.18259994685649872, -0.15515008568763733, 0.7089250087738037, 0.35679543018341064, -0.034796811640262604, 0.49988842010498047, -0.0024981405586004257, -0.25533607602119446, 0.15233160555362701, -0.40375542640686035, 0.08981627225875854, 0.030628062784671783, -0.5278041958808899, -0.022109536454081535, 1.2973968982696533, 0.9203033447265625, 0.028017381206154823, 0.18803906440734863, 0.3899482488632202, 0.601131021976471, -0.10048055648803711, 0.3420577645301819, 0.24276979267597198, -0.08455022424459457, -0.36758413910865784, 0.05947910621762276], [0.24579036235809326, 0.044807419180870056, -0.12541353702545166, 0.28325092792510986, -0.2688756287097931, -0.07357049733400345, -0.5525623559951782, -0.04368598759174347, -0.048301566392183304, -0.027020808309316635, -0.2572777569293976, 0.13290411233901978, 0.17867256700992584, -0.15684135258197784, -0.12877815961837769, 0.17199017107486725, -0.0076198759488761425, 0.06031953543424606, 0.06252361834049225, 0.13158759474754333, 0.2292816936969757, 0.0827367752790451, 0.18559390306472778, -0.4776279926300049, -0.866106390953064, -0.16342341899871826, -0.15572907030582428, -0.2814752161502838, -0.24233010411262512, -0.15088488161563873, 0.13956387341022491, -0.5245567560195923, 0.054568056017160416, 0.02242448180913925, 0.0428599938750267, -0.11741316318511963, 0.008233949542045593, 0.4345305562019348, 0.13659876585006714, 0.16359968483448029, 0.17515385150909424, 0.0017118501709774137, -0.10784709453582764, -0.021011624485254288, -0.6736912727355957, -0.3055211007595062, -0.49830690026283264, 0.27495047450065613, -0.748504638671875, -0.15324099361896515, -0.05821984261274338, 0.31926313042640686, 0.21545056998729706, -0.3102245628833771, -0.20374593138694763, 0.057506952434778214, -0.2501590847969055, -0.36472418904304504, -0.045096348971128464, 0.23360700905323029, 0.18288926780223846, -0.025141742080450058, -0.3880757987499237, 0.25016653537750244, -0.24492619931697845, 0.06946476548910141, 0.15218080580234528, 0.00529633741825819, -0.1434422731399536, 0.03062022291123867, 0.10183089226484299, -0.020033368840813637, -0.17590609192848206, -0.14329814910888672, 0.10076107084751129, -0.2078264057636261, 0.009133836254477501, -0.23638185858726501, 0.18807433545589447, -0.6158342957496643, -0.03551631420850754, 0.5209739804267883, 0.26796260476112366, -0.2708119750022888, -0.29470571875572205, -0.19591055810451508, 0.06722725927829742, -0.14820171892642975, -0.06890027970075607, -0.15671323239803314, 0.0631152018904686, 0.07567154616117477, -0.41536563634872437, -0.00456392765045166, 0.20967666804790497, 0.006315874867141247, -0.20227466523647308, -0.1352192759513855, -0.0704805925488472, -0.2273547202348709, 0.110990509390831, 0.2075510174036026, -0.3416624367237091, 0.21973863244056702, -0.05801830813288689, -0.07906533777713776, -0.4180578887462616, 0.06962200999259949, 0.10774634033441544, -0.09540195763111115, -0.4390791952610016, 0.34095409512519836, 0.1239398941397667, -0.6751956343650818, 0.12261470407247543, 0.12608881294727325, -0.5757178664207458, -0.40423038601875305, 0.24787145853042603, 0.07541071623563766, -0.28064703941345215, 0.23873165249824524, -0.3308296203613281, 0.13250602781772614, -0.09881006926298141, 0.10515785962343216, 0.03130653128027916, -0.5565676093101501], [-0.18560242652893066, -0.2779639661312103, 0.25396889448165894, -0.007421854417771101, 0.41647908091545105, 0.2884664833545685, -0.4096267819404602, -0.8261511921882629, 0.2916474938392639, -0.1981816589832306, -0.15391796827316284, -0.27362868189811707, -0.18160876631736755, -0.09111543744802475, -0.01679147593677044, 0.27083781361579895, -0.055773407220840454, -0.42802944779396057, -0.02839767187833786, -0.3404274880886078, -0.8975278735160828, -0.18457390367984772, 0.03168453648686409, 0.22945959866046906, -0.47601351141929626, -0.14090430736541748, 0.21383483707904816, -1.5692007541656494, -0.2510497272014618, -0.2903979420661926, -0.2510381042957306, -0.19423726201057434, 0.6824156045913696, -0.11058015376329422, -0.23251500725746155, -0.01623534969985485, -0.2731727063655853, -0.06721849739551544, 0.14615653455257416, -0.04243122413754463, 0.2661914825439453, 0.043012555688619614, -0.2175154983997345, 0.23102451860904694, -0.38104256987571716, -0.35874199867248535, -0.38535404205322266, -0.21178396046161652, 0.3159429430961609, 0.12075646966695786, 0.3079090714454651, 0.03887585550546646, -0.197273850440979, 0.13085733354091644, 0.09084916114807129, -0.009323361329734325, -0.33580511808395386, 0.23528367280960083, 0.01339523121714592, -0.09328030049800873, 0.18981575965881348, -0.1095622107386589, -1.5522329807281494, 0.11491896957159042, -0.269633024930954, -0.17305994033813477, -0.08111129701137543, -0.03633331134915352, -0.06417056173086166, -0.30292242765426636, 0.007785670924931765, -0.009188604541122913, -0.08730859309434891, -0.0013783045578747988, -0.34342777729034424, -0.0845223218202591, 0.11989916861057281, -0.16975481808185577, -0.6659442186355591, 0.5151935815811157, -0.18271689116954803, -0.03948989510536194, -0.7635086178779602, 0.32440751791000366, -0.16260367631912231, -0.23792225122451782, -0.16542330384254456, -1.3277145624160767, -0.023647366091609, -0.059586431831121445, -0.0841970220208168, -0.9101323485374451, 0.22670893371105194, 0.010747057385742664, -0.21226459741592407, -0.020025888457894325, -0.07431935518980026, -0.04210907593369484, -0.007493975572288036, -0.07936286926269531, 0.18921448290348053, -0.8148651719093323, -0.29043203592300415, -0.07694131135940552, -0.0016915203304961324, -0.08757594972848892, 0.12182533740997314, -0.6368392705917358, -0.35891008377075195, -0.17209987342357635, 0.16707046329975128, -0.3724808692932129, 0.015921704471111298, 0.07374270260334015, -0.1606127768754959, -0.07145281136035919, 0.661090075969696, 0.5038216710090637, -0.10329315066337585, -0.03385036811232567, 0.18528683483600616, -0.032036639750003815, 0.08171699941158295, -0.20023950934410095, -0.011574341915547848, -0.17377345263957977, 0.03951636329293251, 0.026207316666841507], [0.24719946086406708, -0.5592959523200989, -0.10846462100744247, 0.16219034790992737, 0.09826327115297318, 0.17716948688030243, -0.25997355580329895, -0.056796081364154816, -0.016560126096010208, 0.08466591686010361, 0.06488992273807526, -0.010906441137194633, 0.04904085770249367, -0.5343160033226013, -0.05578989163041115, -0.9245166778564453, -0.12129607051610947, -0.1621997207403183, -0.052311498671770096, 0.3813900947570801, -0.3303173780441284, 0.18894073367118835, 0.27944207191467285, 0.1341150403022766, 0.4965442419052124, 0.012474624440073967, -0.06148594245314598, -0.02646888606250286, 0.07055070251226425, 0.12473862618207932, -0.13023947179317474, 0.16215193271636963, -0.5382295846939087, 0.051798731088638306, 0.19714267551898956, -0.03395252674818039, 0.030935226008296013, 0.41602298617362976, -0.2083376795053482, -0.11054196208715439, -0.1230502501130104, -0.11358916014432907, -0.07057775557041168, -0.06302900612354279, 0.056042350828647614, -0.19626308977603912, 0.2286226898431778, 0.10072150081396103, -0.5686737895011902, 0.06562490016222, 0.1370733231306076, -0.01251266524195671, 0.304553747177124, 0.18660737574100494, 0.3873401880264282, -0.012826262041926384, -0.04569094255566597, 0.00458173593506217, 0.12370235472917557, 0.0142345717176795, 0.0706242248415947, 0.13361045718193054, 0.6402801275253296, 0.16399523615837097, 0.2727977931499481, 0.24326317012310028, 0.18647588789463043, -0.13390207290649414, -0.012236217968165874, -0.12001717835664749, -0.11379413306713104, 0.20679926872253418, -0.06259754300117493, 0.17360764741897583, 0.05213725194334984, 0.01583636738359928, 0.02583688497543335, -0.09808505326509476, -0.6776006817817688, -1.22713303565979, 0.20013658702373505, 0.08372224122285843, 0.3683394193649292, -0.0619819350540638, 0.08768803626298904, 0.21157656610012054, 0.11243163049221039, 0.10645166784524918, 0.12825757265090942, -0.05231039971113205, 0.23241935670375824, 0.5734623670578003, 0.18721047043800354, 0.0022959024645388126, 0.09321068227291107, 0.014148888178169727, -0.7763257622718811, 0.005238664336502552, -0.32523876428604126, 0.1854768842458725, -0.270509272813797, -0.22837583720684052, 0.15413916110992432, 0.2548936605453491, -0.12703697383403778, -0.09697962552309036, 0.22554057836532593, -0.3886594772338867, -0.1200634315609932, -0.174821674823761, 0.012933174148201942, -0.22755581140518188, 0.05243874713778496, 0.03900059312582016, -0.06900795549154282, -0.10595672577619553, -1.7255733013153076, -0.9483036398887634, -0.19209024310112, -0.03816387802362442, -0.45908665657043457, 0.23046721518039703, 0.014750467613339424, -0.08207198232412338, -0.10757248848676682, 0.29733869433403015, 0.3441421091556549, 0.3604390025138855], [0.25699812173843384, 0.47640302777290344, -0.07745221257209778, 0.41188719868659973, 0.2231409102678299, -0.03713414445519447, -0.2617926001548767, -0.1992814987897873, -0.1838587522506714, -0.1385618895292282, 0.2265639305114746, 0.19198711216449738, -0.292688250541687, -0.4944167137145996, 0.10481838136911392, -0.40927010774612427, 0.0841682031750679, -0.12305191159248352, 0.06995516270399094, 0.27281761169433594, -0.37206709384918213, 0.10050312429666519, 0.16929183900356293, 0.0432182140648365, 0.9401410222053528, 0.029835442081093788, 0.14309091866016388, 0.16245825588703156, 0.13811619579792023, 0.08657890558242798, -0.05706408992409706, 0.001335420529358089, -0.9841682314872742, 0.1791299730539322, 0.2968583405017853, 0.10074927657842636, -0.23309491574764252, -0.10167737305164337, -0.0010219640098512173, 0.2302490770816803, -0.6295648217201233, -0.060736265033483505, 0.11666505038738251, -0.04551294445991516, -0.0016462641069665551, 0.13334263861179352, 0.08189191669225693, 0.06322681903839111, 0.02834286168217659, 0.16254322230815887, 0.08324680477380753, -0.07004667073488235, 0.019531195983290672, -0.03258506953716278, 0.26224008202552795, 0.13421089947223663, 0.31778860092163086, 0.034304216504096985, 0.34980592131614685, 0.2868117392063141, -0.1760433167219162, -0.09280768036842346, 0.5726534724235535, -0.10167594254016876, -0.16786012053489685, -0.01038434635847807, 0.28728291392326355, 0.1608259528875351, 0.31562620401382446, 0.12939666211605072, -0.05352703854441643, -0.13842153549194336, 0.08332173526287079, -0.06795383989810944, -0.18525341153144836, 0.25955843925476074, 0.1488196700811386, -0.11481964588165283, -0.7679877281188965, -0.5719616413116455, 0.39093226194381714, 0.10035526752471924, 0.47889503836631775, 0.005719240289181471, 0.2917919456958771, -0.19053864479064941, 0.31222066283226013, 0.004567257594317198, -0.017419666051864624, -0.09815517067909241, 0.4468853175640106, 0.6712954640388489, 0.1827106922864914, -0.1791282445192337, 0.22428886592388153, 0.04605196416378021, -0.37592387199401855, 0.0020331034902483225, -0.36434629559516907, 0.39694279432296753, 0.03559890761971474, -0.2363431751728058, 0.30820393562316895, 0.20233449339866638, -0.3294888734817505, -0.22650784254074097, -0.1290348768234253, -0.45153525471687317, -0.068247951567173, 0.14857397973537445, 0.06924422830343246, -0.031086869537830353, -0.0028043061029165983, 0.3128551244735718, 0.10212624818086624, 0.20876869559288025, -0.8561269044876099, -0.5875436067581177, -0.18676745891571045, -0.17240191996097565, -0.12336808443069458, 0.11743602156639099, 0.15298992395401, 0.044450484216213226, -0.4810347855091095, 0.2996636927127838, 0.12783682346343994, 0.4222297966480255], [0.01743035949766636, 0.29928526282310486, -0.11363508552312851, 0.3581734597682953, -0.15138238668441772, 0.16197404265403748, -0.2444104105234146, -0.15976077318191528, -0.11252503842115402, 0.20665954053401947, 0.1495390385389328, 0.007483301218599081, -0.06836625933647156, -0.3651183843612671, 0.16828776895999908, -0.3529534339904785, 0.2408706396818161, -0.032485656440258026, 0.03598027303814888, 0.056357622146606445, -0.4025529623031616, 0.009385204873979092, 0.19651494920253754, 0.046327248215675354, 0.7669423818588257, 0.15752831101417542, 0.05819058045744896, 0.18960732221603394, -0.12895998358726501, 0.1487954705953598, -0.019172387197613716, 0.3811824321746826, -1.085097312927246, 0.13022568821907043, 0.1271512657403946, 0.02587319351732731, -0.20483621954917908, -0.1727987676858902, -0.08497375249862671, 0.04128332808613777, -0.5650474429130554, -0.03057187795639038, 0.32202646136283875, -0.04882988706231117, 0.057999346405267715, 0.018652716651558876, 0.3842041492462158, 0.07739362865686417, -0.05341343209147453, 0.24937628209590912, 0.19182157516479492, 0.0593070425093174, 0.22106394171714783, 0.06645804643630981, 0.3925800621509552, -0.1056203544139862, 0.12736545503139496, -0.03351849317550659, 0.14850875735282898, 0.19742010533809662, 0.032943498343229294, 0.1514301300048828, 0.6060847640037537, -0.013073421083390713, 0.1928407847881317, 0.2453491985797882, 0.1396864801645279, 0.02160920575261116, 0.22900043427944183, -0.01598718762397766, 0.23905405402183533, -0.24213621020317078, 0.02345096878707409, 0.08012265712022781, -0.14558649063110352, -0.09140365570783615, 0.26694560050964355, 0.02443132922053337, -0.5346902012825012, -0.495169997215271, 0.2052251249551773, 0.006850246340036392, 0.5448873043060303, -0.0030894370283931494, 0.11035363376140594, -0.001391862635500729, 0.18742960691452026, -0.18506228923797607, 0.23867766559123993, 0.028030773624777794, 0.2779368460178375, 0.8589638471603394, 0.10443586111068726, 0.0644860789179802, -0.1671517938375473, -0.15299460291862488, -0.38201582431793213, 0.33215153217315674, -0.3911702036857605, 0.1686381995677948, -0.12758859992027283, 0.018245888873934746, 0.26470789313316345, -0.04008055478334427, -0.4887221157550812, -0.32310014963150024, -0.054408960044384, -0.33799800276756287, 0.017383065074682236, 0.10795773565769196, 0.32385578751564026, -0.06952988356351852, 0.09372425079345703, 0.018393101170659065, 0.3572917878627777, 0.29236292839050293, -1.0185929536819458, -0.42353659868240356, 0.013753509148955345, 0.010953720659017563, -0.3327457010746002, -0.07632841914892197, 0.18712234497070312, -0.198592871427536, -0.35376062989234924, 0.2713293433189392, 0.053906407207250595, 0.3124729096889496], [0.18464533984661102, 0.4377014636993408, -0.05327453836798668, 0.3311518728733063, -0.06915056705474854, 0.12455553561449051, -0.36559364199638367, -0.11244305968284607, -0.1899760365486145, 0.2213422954082489, 0.3239428400993347, 0.22587229311466217, -0.27561166882514954, -0.5559643507003784, -0.06361722201108932, -0.39855584502220154, 0.1444934457540512, -0.31921717524528503, 0.07998720556497574, -0.00991691742092371, -0.3728122413158417, 0.08234705030918121, 0.1777433156967163, 0.0477592758834362, 0.6297603249549866, 0.1530720293521881, 0.32238954305648804, -0.13342449069023132, -0.18584281206130981, 0.4387354254722595, -0.12912757694721222, 0.11216586083173752, -0.7994762063026428, 0.09035830199718475, 0.09159152209758759, 0.04882146790623665, -0.03575117886066437, 0.1167592778801918, -0.06213705241680145, 0.18397527933120728, -0.24737372994422913, -0.033902887254953384, 0.2331325262784958, -0.08223290741443634, -0.2644104063510895, 0.09391114115715027, 0.3836137056350708, -0.05502215772867203, 0.08741963654756546, 0.09818550199270248, 0.19051197171211243, 0.17852120101451874, 0.2786053717136383, 0.14325518906116486, 0.18225762248039246, -0.06567718833684921, 0.05605887249112129, -0.01633645035326481, -0.05781922861933708, 0.2979745864868164, -0.026348406448960304, 0.27331802248954773, 0.4644232988357544, 0.16050119698047638, 0.07134149968624115, 0.37826603651046753, 0.15399940311908722, 0.11425735801458359, 0.0714220330119133, -0.10119405388832092, -0.10385231673717499, -0.2821853756904602, -0.25786489248275757, -0.07503345608711243, -0.18379858136177063, 0.17941376566886902, 0.21436399221420288, -0.08010966330766678, -0.7388893365859985, -0.46167996525764465, 0.0020243364851921797, 0.17002856731414795, 0.5658941268920898, 0.18266595900058746, 0.10969220846891403, 0.09605030715465546, 0.31818950176239014, -0.13180121779441833, -0.10643300414085388, 0.005138962995260954, 0.3344421088695526, 0.42416489124298096, 0.3464837074279785, 0.1695975959300995, 0.24552088975906372, -0.07263775169849396, -0.38791623711586, 0.17816893756389618, -0.23890042304992676, 0.246272012591362, -0.17291449010372162, 0.055876776576042175, 0.36752527952194214, 0.16086754202842712, -0.23645249009132385, -0.21526466310024261, -0.1340535283088684, -0.42632219195365906, -0.003954170271754265, 0.09697345644235611, 0.11317789554595947, 0.07173054665327072, 0.0422188863158226, 0.0658455565571785, 0.17574724555015564, 0.26864612102508545, -1.1095575094223022, -0.4110759496688843, -0.0010254269000142813, -0.17627590894699097, -0.20808222889900208, -0.19238406419754028, 0.34813636541366577, -0.0111106988042593, -0.2074255645275116, 0.18081960082054138, 0.13670748472213745, 0.527488648891449], [0.14602011442184448, 0.17354513704776764, -0.19136102497577667, 0.3322039246559143, 0.14946968853473663, 0.007969824597239494, -0.13809096813201904, -0.09549235552549362, -0.13413092494010925, 0.10052520781755447, 0.24161048233509064, 0.0741608738899231, -0.05426733195781708, -0.615648090839386, -0.22529378533363342, -0.022380495443940163, -0.10315732657909393, -0.04999221861362457, -0.0184467826038599, -0.2736426293849945, -0.3920198976993561, 0.015025033615529537, -0.05289419740438461, -0.13694216310977936, 0.7558127045631409, 0.17575053870677948, 0.18188808858394623, 0.06938713043928146, 0.21012258529663086, 0.17952057719230652, 0.17349404096603394, -0.10967443138360977, -0.8667145371437073, 0.037995122373104095, 0.15244382619857788, -0.024806013330817223, -0.35574203729629517, 0.11813826858997345, -0.10378425568342209, 0.2650349736213684, -0.3148069977760315, -0.01592419482767582, -0.07426708191633224, -0.1836269199848175, -0.05053361505270004, 0.09887649118900299, 0.4743216633796692, -0.18691889941692352, -0.3014870285987854, -0.06716414541006088, 0.0840519517660141, 0.20354098081588745, 0.13137422502040863, 0.13558655977249146, 0.19953830540180206, 0.28005483746528625, 0.10629443824291229, -0.1795690357685089, -0.07534617185592651, -0.1282120794057846, 0.06364873796701431, -0.04371599480509758, 0.48582157492637634, -0.09241127967834473, 0.19459205865859985, 0.11109242588281631, -0.09965622425079346, -0.1479148417711258, -0.022366466000676155, 0.04997624084353447, 0.22229892015457153, -0.12387148290872574, -0.10316283255815506, -0.048884108662605286, -0.06379527598619461, 0.19774918258190155, 0.24052494764328003, 0.2669315040111542, -0.6140400171279907, -0.9754893183708191, 0.274646520614624, -0.01706227846443653, 0.3349551856517792, -0.059568148106336594, 0.24349865317344666, 0.24464201927185059, 0.061265524476766586, -0.07852111011743546, -0.0008268216624855995, -0.04688958078622818, 0.04359972104430199, 0.5052706003189087, -0.13637125492095947, 0.2002307027578354, -0.06781115382909775, 0.0420222282409668, -0.42164549231529236, 0.2681354284286499, -0.06879512220621109, -0.0020022939424961805, 0.06329010426998138, -0.2387753576040268, 0.48396986722946167, 0.14797255396842957, -0.5012046098709106, -0.5378597378730774, -0.014362147077918053, -0.05303424224257469, -0.006839511916041374, -0.159692645072937, 0.18357454240322113, -0.13564065098762512, 0.04781397804617882, 0.2196037471294403, 0.20308855175971985, 0.2750995457172394, -1.0539618730545044, -0.5596842169761658, -0.16726665198802948, -0.03795532509684563, -0.06854912638664246, 0.29577770829200745, 0.2801440358161926, -0.20802025496959686, -0.6967986226081848, 0.15365979075431824, -0.06055564433336258, 0.3305801451206207], [-0.15546676516532898, 0.3010726273059845, 0.04545968398451805, 0.40087422728538513, -0.02409181371331215, -0.040190719068050385, -0.45302915573120117, -0.1903330236673355, 0.11656350642442703, 0.11345747858285904, 0.2950162887573242, 0.18581585586071014, -0.08617625385522842, -0.3605809509754181, 0.01023210771381855, -0.6037687063217163, 0.1465321183204651, 0.09432699531316757, 0.2885389029979706, 0.2938867211341858, -0.15514066815376282, 0.14395663142204285, 0.08132349699735641, -0.06575837731361389, 0.6546810269355774, 0.3573766350746155, 0.02571338787674904, -0.13675382733345032, 0.20825862884521484, 0.13999910652637482, 0.0892912968993187, 0.07677290588617325, -1.062325119972229, 0.14255402982234955, 0.18871842324733734, -0.160774827003479, 0.01097613014280796, -0.204315647482872, 0.09366872161626816, 0.29270637035369873, -0.48074841499328613, -0.22537286579608917, 0.22908896207809448, 0.2559720277786255, 0.07959163188934326, 0.10335824638605118, 0.2944841980934143, 0.004647206515073776, -0.2728264331817627, 0.018734199926257133, 0.1278047263622284, 0.039860356599092484, -0.029999418184161186, 0.17563141882419586, 0.12912671267986298, 0.19542700052261353, 0.17122489213943481, 0.15489961206912994, 0.15427449345588684, 0.2754788100719452, -0.07641091197729111, -0.06172574311494827, 0.46602413058280945, 0.07389751076698303, -0.12171225994825363, 0.026796074584126472, -0.08047301322221756, 0.12219364941120148, 0.16696937382221222, -0.03984564170241356, 0.2559458017349243, -0.10231703519821167, 0.01993812434375286, 0.16587501764297485, -0.010101916268467903, 0.25799494981765747, 0.16426190733909607, 0.03739871457219124, -0.5594599843025208, -0.5864697098731995, 0.36641430854797363, 0.11965099722146988, 0.5642374753952026, 0.2559012770652771, 0.06928731501102448, 0.03141510486602783, -0.003425211412832141, -0.13333489000797272, -0.1823781281709671, -0.040335215628147125, 0.2602015733718872, 0.5517213940620422, 0.32358551025390625, 0.05967804789543152, 0.16540218889713287, 0.0033840935211628675, -0.6656289100646973, -0.030343102291226387, -0.25994768738746643, 0.13416902720928192, -0.22290049493312836, 0.0808427482843399, 0.2639792561531067, -0.012416714802384377, -0.19228233397006989, -0.5131561756134033, 0.09135251492261887, -0.15890733897686005, -0.001925714430399239, 0.20578020811080933, 0.11347051709890366, 0.16496948897838593, 0.2434002012014389, 0.05369747802615166, 0.2522611618041992, 0.08327443897724152, -1.04387629032135, -0.4905112683773041, -0.27443864941596985, -0.3016292154788971, -0.16241534054279327, -0.23802450299263, 0.17182084918022156, -0.19040513038635254, -0.06815510243177414, 0.23483946919441223, -0.09650935977697372, 0.3692358434200287], [0.07879442721605301, -0.018452757969498634, -0.05680292099714279, 0.010370660573244095, -0.43232038617134094, 0.017123689875006676, -0.3428741991519928, -0.09560023248195648, -0.28263553977012634, -0.11039184033870697, 0.044939685612916946, 0.0010520538780838251, -0.31293776631355286, 0.4278663098812103, 0.08148466050624847, 0.037250816822052, -0.06239771470427513, 0.02158880978822708, 0.09410783648490906, 0.11075233668088913, -0.43149688839912415, -0.2885434627532959, -0.05493536591529846, 0.0970909371972084, 0.12783080339431763, -0.10852296650409698, -0.01775640808045864, -0.16549119353294373, 0.19053222239017487, -0.005870726425200701, 0.05684318765997887, 0.21985119581222534, 0.41677260398864746, -0.2811007797718048, 0.15013159811496735, -0.08342834562063217, -0.40644022822380066, -0.10293068736791611, -0.36819273233413696, -0.3312593102455139, -0.10928383469581604, -0.2356507033109665, -0.47953367233276367, 0.01904054917395115, 0.3586776852607727, 0.3535638451576233, 0.09392458945512772, -0.02286558970808983, 0.04281395301222801, -0.07962922006845474, -0.2996792495250702, -0.33354151248931885, -0.3508147895336151, 0.22604265809059143, 0.22453437745571136, -0.009688866324722767, 0.09816456586122513, 0.021838027983903885, -0.17021672427654266, -0.3257172405719757, 0.21728430688381195, 0.05833084508776665, -0.3590628206729889, -0.7153893709182739, -0.09214233607053757, -0.2036464959383011, -0.1285264790058136, -0.12173336744308472, 0.15342774987220764, 0.2621626853942871, -0.07471926510334015, -0.13953688740730286, -0.6054264307022095, 0.14020374417304993, 0.09068875759840012, -0.2317638099193573, 0.1876475214958191, -0.3265749514102936, 0.01803695037961006, 0.14972186088562012, -0.2409033626317978, -0.11647749692201614, -0.2608312964439392, -0.41567322611808777, 0.20835165679454803, 0.3139662742614746, -0.09782718867063522, -0.4327009320259094, -0.4164908230304718, -0.14703397452831268, -0.26842382550239563, -0.05063148960471153, -0.5702950358390808, -0.001227815169841051, -0.33086004853248596, -0.07817517966032028, 0.30111363530158997, -0.6019193530082703, -0.1658123880624771, 0.22109819948673248, 0.008902201429009438, -0.46795353293418884, -0.009174013510346413, -0.17284783720970154, -0.19071365892887115, -0.6074584126472473, 0.21913699805736542, -0.1366473138332367, -0.14235921204090118, 0.0038038049824535847, -0.4154738485813141, -0.2580231726169586, -0.027333898469805717, 0.04232028126716614, -0.3302046060562134, 0.012532786466181278, 0.44411709904670715, 0.5821487307548523, -0.07762578874826431, -0.1408272534608841, 0.44002631306648254, 0.07743113487958908, 0.11036437004804611, -0.037616562098264694, 0.025989960879087448, -0.19113144278526306, 0.09436412155628204, 0.13455192744731903], [0.16348053514957428, -0.3412255346775055, -0.15276335179805756, -0.5921682715415955, -0.18762004375457764, -0.12119977921247482, -0.03055112436413765, -0.10950606316328049, 0.013411673717200756, -0.2501866817474365, -0.027826718986034393, -0.04618081822991371, 0.31599828600883484, -0.062176596373319626, -0.11064013838768005, 0.11981933563947678, -0.29356661438941956, -0.13939493894577026, -0.31516367197036743, 0.3400557339191437, -0.06309764087200165, -0.14883579313755035, -0.45679372549057007, -0.09573731571435928, 0.08932291716337204, -0.09755414724349976, 0.08937419205904007, 0.11501268297433853, -0.30505651235580444, -0.3726866543292999, -0.1498691290616989, -0.3302953839302063, 0.11833701282739639, -0.07052706182003021, 0.1348363310098648, -0.2214309275150299, 0.22442099452018738, -0.18444669246673584, 0.06230883300304413, -0.2057647854089737, 0.23859241604804993, 0.1070416197180748, 0.14250604808330536, -0.18212345242500305, -0.24021071195602417, 0.13373340666294098, 0.1533515304327011, -0.12289730459451675, -0.14426971971988678, -0.057320598512887955, 0.01253028865903616, -0.3103336989879608, -0.13418354094028473, 0.11549197882413864, -0.2678363025188446, -0.18878619372844696, -0.17313143610954285, 0.12884388864040375, -0.17227743566036224, -0.6143733859062195, -0.2119622677564621, 0.11493711173534393, -0.15645235776901245, -0.22654584050178528, 0.1446887105703354, -0.11918720602989197, 0.035941075533628464, -0.28645211458206177, -0.2665712833404541, -0.22748325765132904, -0.1278941035270691, -0.22866599261760712, 0.11341202259063721, 0.03128499537706375, 0.43765708804130554, -0.2396976202726364, -0.18566164374351501, -0.31462380290031433, 0.524880588054657, 0.09143942594528198, -0.6096533536911011, -0.7211897969245911, -0.00945540051907301, -0.2690995931625366, 0.16794638335704803, -0.003936575260013342, -0.018563665449619293, 0.09202413260936737, -0.05750655382871628, 0.012940589338541031, -0.08024673163890839, -0.22695401310920715, 0.03876902908086777, -0.3130589723587036, -0.09634170681238174, -0.12021319568157196, 0.47790324687957764, -0.33513033390045166, 0.15669572353363037, -0.05726262927055359, 0.20433224737644196, 0.35250839591026306, 0.10356602072715759, 0.05701756849884987, 0.32141172885894775, 0.18758055567741394, 0.047253116965293884, 0.08620994538068771, -0.06004764512181282, -0.10514961928129196, -0.08097919821739197, -0.28998515009880066, -0.23416562378406525, 0.04623177647590637, -0.47321489453315735, -0.30027836561203003, -0.04544319957494736, 0.4175027906894684, 0.09675012528896332, -0.079051174223423, 0.2307664453983307, 0.48157158493995667, -0.25676506757736206, 0.007433319929987192, 0.4008915424346924, -0.4392213523387909, 0.008640989661216736, 0.07448746263980865], [-0.24938687682151794, 0.05568094924092293, -0.05538089573383331, 0.1693202555179596, 0.38944578170776367, -0.19501608610153198, -0.2634126842021942, -0.03822067007422447, 0.3531278371810913, 0.2586948275566101, 0.26372477412223816, 0.07015448063611984, 0.33280766010284424, 0.5399349331855774, -0.16814540326595306, 0.7421183586120605, 0.2502661347389221, -0.17511838674545288, 0.40466269850730896, -0.269090473651886, -0.11137442290782928, 0.16821971535682678, 0.06533883512020111, 0.1912832111120224, -0.942009687423706, 0.1411050707101822, 0.11531102657318115, -1.0567518472671509, -0.19613030552864075, -0.2666894197463989, 0.31557324528694153, -0.2664059102535248, 0.21233119070529938, -0.11986969411373138, 0.040765952318906784, -0.008498897776007652, -0.32047805190086365, -0.08324021846055984, 0.04067312553524971, 0.2623205780982971, 0.4656161665916443, 0.28142109513282776, -0.5048197507858276, -0.1592387706041336, -0.13461710512638092, 0.11744850128889084, -0.011212699115276337, 0.24311815202236176, 0.015612156130373478, 0.023269223049283028, 0.3126680552959442, 0.08198601752519608, 0.07556983828544617, 0.234451025724411, -0.2752280831336975, 0.07805482298135757, 0.1584785282611847, -0.13825932145118713, 0.1463155597448349, -0.00809340737760067, 0.186032235622406, 0.1173413097858429, -0.7866795659065247, 0.02710418775677681, 0.012742631137371063, -0.17207071185112, -0.04099424183368683, -0.0221084076911211, -0.2557830214500427, 0.04680335149168968, 0.2784379720687866, 0.086341492831707, -0.08623169362545013, 0.1210937574505806, 0.4612036347389221, 0.288196861743927, 0.20556306838989258, 0.5112211108207703, 0.41679492592811584, -0.17233586311340332, 0.16008342802524567, 0.4941725432872772, 0.146808460354805, -0.23842507600784302, 0.26488131284713745, 0.2594568729400635, 0.2639833688735962, -0.9525449275970459, 0.6538695693016052, -0.2402016669511795, 0.17072689533233643, 0.7423128485679626, -0.4457756280899048, 0.013065988197922707, -0.03521309792995453, 0.0042974939569830894, 0.5289857387542725, 0.24216319620609283, -0.0034960280172526836, 0.2556273639202118, 0.012838234193623066, -0.002899147104471922, 0.08011502027511597, -0.07731061428785324, -0.13728691637516022, -0.24894928932189941, 0.015568490140140057, -0.15812453627586365, 0.0660608783364296, -0.1420060396194458, -0.40614446997642517, 0.018521329388022423, 0.2973112165927887, 0.04877752438187599, 0.021548163145780563, 0.15193811058998108, 0.29596850275993347, 0.05192625895142555, 0.38833585381507874, 0.3152107298374176, 0.695320725440979, 0.2789091467857361, -0.001138127874583006, 0.12349057197570801, 0.05880585312843323, 0.556459367275238, 0.19589629769325256, -0.01215879525989294], [0.1517155021429062, 0.06365777552127838, -0.036924224346876144, 0.036549750715494156, 0.14001603424549103, 0.2002769559621811, 0.11181657761335373, 0.13793998956680298, 0.1714174896478653, 0.11077369749546051, -0.18603628873825073, -0.140001580119133, -0.21678778529167175, 0.08037367463111877, 0.09124476462602615, -0.20301388204097748, -0.2119741141796112, 0.06971695274114609, -0.20595252513885498, 0.10911839455366135, 0.014741603285074234, -0.13994957506656647, -0.03508317843079567, -0.12631855905056, 0.05990986153483391, -0.1488576978445053, -0.020983267575502396, 0.09436628222465515, -0.07453638315200806, -0.1167912483215332, -0.1724502593278885, 0.1372741311788559, 0.01903214305639267, 0.1824653446674347, 0.20943385362625122, -0.07618971914052963, 0.15076659619808197, 0.1175118237733841, -0.04152100533246994, 0.15288564562797546, -0.08232792466878891, 0.18663713335990906, -0.2028777301311493, -0.035676032304763794, 0.11630436778068542, 0.040768809616565704, -0.21116334199905396, -0.014634803868830204, -0.06255322694778442, -0.07555080205202103, -0.18287864327430725, -0.04273504391312599, 0.19092760980129242, -0.0006769849569536746, 0.1930406540632248, -0.11970988661050797, 0.20209376513957977, -0.12100250273942947, 0.109233058989048, -0.029273102059960365, 0.08332428336143494, -0.0790782943367958, 0.09466132521629333, 0.14643384516239166, 0.0399208702147007, -0.041053757071495056, -0.06242320314049721, 0.04676968604326248, -0.0036231479607522488, -0.12554222345352173, -0.19566184282302856, -0.005236374214291573, -0.17071405053138733, 0.036711037158966064, 0.039594534784555435, 0.11301494389772415, 0.17613427340984344, -0.11475030332803726, 0.060812175273895264, -0.05399676412343979, -0.05362267792224884, 0.03860672190785408, -0.14792343974113464, -0.21869981288909912, 0.16853545606136322, -0.11186692118644714, -0.03491392731666565, -0.15228459239006042, 0.09771272540092468, -0.18839888274669647, 0.054331716150045395, 0.12075147032737732, -0.022841358557343483, -0.22234123945236206, 0.1593482941389084, -0.19512589275836945, -0.0453345850110054, 0.10286232829093933, -0.14654792845249176, -0.04490464925765991, -0.07429389655590057, -0.11032450199127197, -0.15237602591514587, -0.04227013140916824, 0.0007644927245564759, -0.04142271354794502, -0.141897052526474, 0.0921778604388237, -0.07076866179704666, -0.06528720259666443, -0.15175703167915344, 0.03672681376338005, 0.03991970047354698, -0.07311701774597168, -0.07372600585222244, 0.15401966869831085, -0.18319933116436005, -0.09860949963331223, -0.17693457007408142, 0.20558884739875793, -0.05091845616698265, 0.1659226417541504, -0.10841473937034607, 0.19878330826759338, 0.06768739223480225, 0.1265649050474167, -0.145423024892807, -0.03822154551744461], [0.09545968472957611, -0.16778425872325897, -0.07464347779750824, -0.39115840196609497, 0.18840500712394714, 0.17777952551841736, 0.03239933401346207, -0.16518491506576538, 0.0016716968966647983, -0.24488294124603271, -0.16660377383232117, -0.2307857722043991, 0.2613864243030548, 0.11119269579648972, -0.2235410362482071, 0.08674480020999908, 0.052101124078035355, -0.004249564837664366, -0.12743209302425385, -0.061832722276449203, -0.2059318870306015, -0.19532056152820587, -0.31020262837409973, 0.21932128071784973, 0.04497986286878586, -0.1528552919626236, 0.27361994981765747, 0.22402261197566986, -0.1508706659078598, -0.0067092375829815865, 0.038969382643699646, 0.04491906613111496, 0.13764522969722748, -0.05386127904057503, -0.0663195475935936, -0.122087262570858, 0.1272808164358139, -0.27068787813186646, -0.09627577662467957, -0.1347554326057434, 0.16260872781276703, 0.12645040452480316, 0.08626233041286469, 0.19238747656345367, -0.27578604221343994, -0.11012446135282516, 0.2507084310054779, -0.19081948697566986, 0.01070364285260439, -0.04468974843621254, 0.18738453090190887, -0.07560094445943832, -0.12957826256752014, 0.07149530202150345, -0.1881898045539856, -0.311259001493454, -0.032388705760240555, -0.009786507114768028, 0.16047713160514832, -0.5668452978134155, -0.24398308992385864, 0.03128000348806381, -0.1218276396393776, -0.04202130436897278, -0.2048880159854889, -0.010277356952428818, 0.03360304981470108, -0.12530583143234253, 0.008836626075208187, -0.15126696228981018, -0.20725271105766296, 0.05661194398999214, -0.1126820519566536, 0.06377483904361725, 0.44189220666885376, 0.008891675621271133, -0.18084591627120972, -0.014902536757290363, 0.04063982889056206, 0.22563211619853973, -0.4448592960834503, -0.13868843019008636, 0.028030870482325554, -0.032314103096723557, -0.064954973757267, -0.06513898819684982, -0.18164119124412537, -0.32338759303092957, 0.21270859241485596, -0.07224100083112717, 0.03680787235498428, -0.1573479026556015, 0.23955117166042328, 0.07753968238830566, -0.213257297873497, -0.018602576106786728, 0.30433714389801025, -0.26224827766418457, 0.11633298546075821, -0.07255969941616058, 0.14219042658805847, -0.11423629522323608, 0.15466485917568207, 0.13233323395252228, 0.029579242691397667, -0.005516889505088329, 0.1659695953130722, 0.1518658995628357, -0.05990014597773552, -0.16821853816509247, 0.05725541710853577, -0.5143908858299255, -0.15058040618896484, -0.04081665724515915, -0.4304487109184265, 0.022427059710025787, -0.0675555169582367, 0.23014511168003082, -0.05577325448393822, -0.10989099740982056, 0.1768140345811844, 0.44387826323509216, -0.14661969244480133, 0.12295754253864288, 0.38286757469177246, -0.10872782766819, 0.004287077113986015, -0.05856213718652725], [0.02924625761806965, 0.6061909198760986, -0.0001745156478136778, 0.3943285346031189, 0.00963508989661932, -0.05965340882539749, -0.30492016673088074, 0.11114451289176941, -0.1538390815258026, 0.08255847543478012, 0.0825454518198967, 0.2119726538658142, -0.46147698163986206, -0.5651590824127197, 0.23702964186668396, -0.5005515217781067, -0.18610325455665588, -0.10924217849969864, 0.1734074354171753, 0.3417964279651642, -0.21261392533779144, -0.04872733727097511, -0.11480899900197983, 0.16341790556907654, 0.6169026494026184, 0.3923807740211487, 0.21017582714557648, -0.04347473755478859, 0.14078396558761597, 0.3525683283805847, -0.33452582359313965, 0.3130204379558563, -1.0849213600158691, 0.2840006351470947, 0.369253545999527, 0.08579488843679428, -0.04527920484542847, -0.12603697180747986, 0.003310930682346225, 0.29009655117988586, -0.2876560389995575, -0.24040205776691437, 0.12304864823818207, 0.027070660144090652, -0.17704014480113983, 0.045028697699308395, 0.09389618039131165, -0.22005830705165863, -0.11950620263814926, 0.278219997882843, -0.08570681512355804, 0.17774048447608948, 0.2275482714176178, -0.18210390210151672, 0.10762202739715576, -0.13796494901180267, 0.18393391370773315, -0.03537344932556152, 0.11375274509191513, -0.01203173492103815, -0.045534152537584305, 0.13644088804721832, 0.44256195425987244, -0.0732404887676239, 0.027929695323109627, 0.20572756230831146, 0.0991455689072609, -0.017898190766572952, 0.18977704644203186, -0.09054993838071823, 0.24263879656791687, -0.03678293526172638, -0.1779872626066208, 0.2558463215827942, -0.0539851039648056, 0.0042397561483085155, 0.019871192052960396, -0.08546855300664902, -0.519325315952301, -0.6880015730857849, 0.3678182065486908, 0.183799609541893, 0.5725631713867188, 0.3293303847312927, 0.36180776357650757, 0.016994476318359375, 0.38284385204315186, -0.0681561678647995, 0.16341780126094818, 0.004892791621387005, 0.37820011377334595, 0.6849119067192078, 0.23787520825862885, -0.23489482700824738, 0.07512591779232025, -0.17116928100585938, -0.5817277431488037, -0.010107739828526974, -0.30092716217041016, 0.3831653892993927, -0.2830224931240082, 0.03302409127354622, 0.33558112382888794, 0.3114594519138336, -0.5660549402236938, -0.11976003646850586, 0.12915417551994324, -0.46249598264694214, -0.23933067917823792, -0.04690995439887047, 0.23601627349853516, -0.05031929910182953, 0.2348860651254654, 0.14141954481601715, 0.33960434794425964, 0.07253926247358322, -0.8679386377334595, -0.3654123842716217, -0.25404343008995056, 0.06607592105865479, -0.2858541011810303, 0.08210048079490662, 0.2490117996931076, -0.2614331841468811, -0.3786025047302246, 0.37443655729293823, 0.09400258958339691, 0.4212294816970825], [0.1530032902956009, -0.5686951279640198, 0.15635496377944946, -0.9740025997161865, 0.11095430701971054, 0.034628741443157196, 0.14302755892276764, -0.056866735219955444, 0.2559928596019745, -0.31273263692855835, -0.11478988081216812, -0.013093392364680767, -0.03638733550906181, -0.10948539525270462, -0.009819315746426582, 0.2928406894207001, -0.07235337793827057, -0.09989574551582336, -0.1324693113565445, 0.38824719190597534, 0.2557646334171295, -0.35103434324264526, -0.12723775207996368, -0.3719145655632019, -0.1357959508895874, -0.06799650937318802, -0.10881634056568146, 0.3186831772327423, -0.036110442131757736, -0.20388935506343842, -0.22078318893909454, -0.35340526700019836, 0.42753374576568604, -0.33255696296691895, 0.15748782455921173, -0.06291785836219788, 0.0623454675078392, 0.03579947352409363, -0.16676399111747742, -0.35707399249076843, 0.2745266556739807, 0.18390342593193054, 0.09311478585004807, 0.07346270233392715, -0.21401458978652954, 0.023017017170786858, -0.049040403217077255, -0.13577234745025635, -0.09470970928668976, -0.001283772406168282, -0.11431022733449936, -0.3686695098876953, -0.11505797505378723, 0.19408747553825378, -0.040831100195646286, -0.2849106192588806, 0.12161986529827118, 0.2512953281402588, -0.10086345672607422, -0.56977379322052, -0.02066691778600216, 0.029022591188549995, 0.1606599986553192, -0.23639680445194244, 0.0629996657371521, -0.36498400568962097, -0.3871901333332062, -0.06852184981107712, -0.46114155650138855, 0.062343671917915344, -0.23437318205833435, 0.22268716990947723, 0.013837997801601887, -0.06503160297870636, 0.23956172168254852, 0.005638754460960627, 0.007829130627214909, 0.19630654156208038, 0.49003657698631287, 0.41394299268722534, -0.6611338257789612, -0.1735580712556839, 0.058416206389665604, 0.034579675644636154, -0.16550381481647491, 0.018689388409256935, -0.10085014998912811, 0.15664274990558624, -0.060762062668800354, 0.31783589720726013, -0.47192877531051636, -0.05057332664728165, 0.1717362254858017, -0.21421541273593903, -0.09440983831882477, -0.10184605419635773, 0.8083087801933289, -0.4381604790687561, 0.5839861631393433, -0.14952847361564636, 0.42524781823158264, 0.3931848704814911, -0.03837781399488449, -0.24900265038013458, 0.15268918871879578, 0.0649905875325203, -0.10416541248559952, -0.007758167572319508, 0.12474051117897034, 0.00896285381168127, 0.06544587016105652, -0.4700574278831482, -0.1178567036986351, 0.11468280851840973, -0.8496249914169312, 0.08396529406309128, 0.1734755039215088, 0.27888235449790955, 0.13861334323883057, 0.3094937801361084, 0.13892611861228943, 0.3083476126194, 0.05396169796586037, 0.014037979766726494, 0.38191094994544983, -0.1130119189620018, -0.06415408849716187, 0.044135622680187225], [-0.10392160713672638, -0.11085983365774155, 0.011516007594764233, -0.12871547043323517, 0.15365251898765564, -0.1717756688594818, 0.023060288280248642, -0.7589770555496216, 0.312531441450119, -0.14532269537448883, -0.16929373145103455, -0.2519567608833313, -0.17375022172927856, 0.17757681012153625, -0.00497184693813324, 0.4199194014072418, -0.161542609333992, -0.29724451899528503, -0.19784274697303772, -0.2835790514945984, -0.7679238319396973, 0.07610432803630829, -0.25434792041778564, 0.29062619805336, -0.5784239172935486, -0.31441035866737366, 0.11963983625173569, -0.6119894981384277, -0.3307534456253052, -0.012879873625934124, -0.0859152227640152, -0.35575833916664124, 0.8888883590698242, 0.07651903480291367, -0.25635507702827454, 0.2705030143260956, -0.130918487906456, 0.1498972773551941, -0.2635669410228729, -0.2934812605381012, 0.427354097366333, 0.05894038826227188, -0.2192228138446808, -0.13475863635540009, -0.8357869982719421, 0.02346903830766678, -0.06300576776266098, 0.02767186053097248, 0.14515219628810883, -0.1747896522283554, -0.1231904923915863, 0.18814408779144287, -0.03201339393854141, 0.24516092240810394, 0.149012491106987, -0.1873224377632141, 0.04004061967134476, -0.0407453216612339, 0.012616269290447235, -0.1638355851173401, 0.05804499238729477, -0.288901150226593, -0.3170787990093231, 0.269519180059433, -0.31503841280937195, -0.1286228746175766, -0.21323542296886444, -0.10511648654937744, -0.06342225521802902, 0.035858895629644394, -0.06127247214317322, -0.21124248206615448, 0.052318885922431946, 0.02062523178756237, 0.3912053406238556, -0.2113063484430313, -0.0722748413681984, 0.44843384623527527, -0.09600497782230377, 0.39201435446739197, -0.11192303150892258, -0.3213079571723938, -0.04128381982445717, 0.20607157051563263, -0.10267015546560287, 0.2019450068473816, -0.02829376794397831, -0.5891587734222412, -0.014546009711921215, -0.10721128433942795, -0.16497547924518585, 0.7318482398986816, 0.17767371237277985, -0.19749298691749573, -0.4111492931842804, -0.02349577471613884, 0.6747637987136841, -0.1560562700033188, -0.17478275299072266, -0.173305481672287, 0.3702714145183563, -0.539762020111084, -0.3684309124946594, -0.11778276413679123, -0.26529449224472046, 0.34882718324661255, -0.17679749429225922, -0.3760809600353241, 0.090801902115345, -0.06063371151685715, 0.13068804144859314, -0.61825031042099, 0.06685762107372284, 0.14477024972438812, -0.6166406869888306, -0.2328268587589264, 0.5084840059280396, 0.4193555414676666, 0.09791641682386398, -0.4373132288455963, 0.5843291282653809, 0.6621349453926086, -0.30747249722480774, 0.05258797109127045, 0.21933843195438385, -0.4187377691268921, -0.1665860116481781, -0.21836324036121368], [0.0092200031504035, -0.3654320538043976, -0.3454674482345581, -0.14895841479301453, -0.36804574728012085, -0.16783955693244934, -0.039906926453113556, 0.07121267169713974, -0.21942052245140076, -0.3451234698295593, -0.1624547243118286, -0.1408127397298813, 0.30754441022872925, -0.034015581011772156, 0.06369100511074066, -0.3581622838973999, 0.14421431720256805, -0.2561660706996918, -0.0405220203101635, 0.10244573652744293, 0.4697311222553253, 0.15076012909412384, 0.07588906586170197, -0.09658350795507431, -0.3152034282684326, -0.060584839433431625, 0.02620960958302021, 0.08572585135698318, -0.5975560545921326, -0.2560940086841583, -0.0024950418155640364, 0.005327022168785334, -0.8801899552345276, -0.1949668526649475, -0.16319763660430908, 0.18495862185955048, 0.11666369438171387, 0.08534064143896103, -0.17629484832286835, 0.01724521815776825, -0.2099929004907608, 0.12535259127616882, -0.20969036221504211, -0.17808370292186737, -0.19140104949474335, -0.2697421610355377, -0.16943906247615814, 0.05990288034081459, -0.5704613924026489, -0.2516205906867981, -0.42945587635040283, -0.06765574216842651, 0.10362367331981659, -0.575402021408081, -0.21025563776493073, -0.34101083874702454, -0.1913018822669983, -0.6256975531578064, -0.7204686403274536, -0.052972350269556046, -0.16603761911392212, 0.030458876863121986, 0.4335159957408905, 0.17873378098011017, 0.12861837446689606, 0.06424783170223236, 0.043207429349422455, -0.1461513638496399, -0.09384441375732422, 0.1860855221748352, -0.29934370517730713, -0.030259232968091965, 0.09603043645620346, -0.009833262301981449, -0.1761079579591751, -0.3622259795665741, 0.19250226020812988, -0.76669842004776, 0.6526815295219421, -0.2804626524448395, -0.13749514520168304, 0.2946261763572693, -0.4799617826938629, -0.2446487545967102, -0.12780869007110596, 0.017836879938840866, -0.17540544271469116, 0.1924068033695221, -0.3070667088031769, 0.007498966529965401, 0.17880015075206757, -0.6606925129890442, -0.12008138746023178, -0.06424693763256073, 0.0036787407007068396, 0.04389319196343422, -0.24433466792106628, -0.20678794384002686, 0.3786563277244568, -0.6948400735855103, -0.15624433755874634, 0.3460026979446411, -0.5983654856681824, -0.2445019781589508, 0.09291685372591019, 0.10317528992891312, 0.10323169082403183, 0.15543660521507263, 0.28014278411865234, -0.16866131126880646, 0.031921688467264175, 0.21121717989444733, -0.05985255911946297, -0.434894323348999, 0.029458900913596153, -0.01612129621207714, -0.5167245864868164, -0.11788609623908997, 0.24364060163497925, 0.3875626027584076, -0.3658559024333954, 0.007910927757620811, -0.3251256048679352, 0.28073635697364807, -0.23182719945907593, -0.20532117784023285, -0.038200777024030685, -0.3937310576438904], [-0.14678122103214264, 0.06060246750712395, 0.08639948070049286, 0.11938692629337311, 0.06698305159807205, -0.09934474527835846, -0.03606117516756058, -0.2365788370370865, 0.06640484184026718, -0.03921858221292496, 0.11725567281246185, -0.06620215624570847, 0.19102250039577484, -0.15862086415290833, 0.058225661516189575, 0.9100258946418762, 0.03217828646302223, -0.5066657066345215, -0.12670637667179108, 0.12818370759487152, 0.46461063623428345, 0.061584681272506714, 0.3126702904701233, -0.023185227066278458, -1.489221215248108, -0.21627895534038544, 0.2040451616048813, 0.11913883686065674, -0.5721610188484192, -0.6291589736938477, -0.15406186878681183, -0.46811792254447937, -0.4071064293384552, -0.01296327169984579, -0.11943573504686356, 0.0553385466337204, 0.1830664724111557, 0.07707582414150238, 0.14389668405056, 0.1438169926404953, 0.5047807693481445, 0.139596626162529, 0.07091762870550156, -0.007532571442425251, -0.6106597781181335, -0.613956093788147, -0.659092128276825, -0.4077448844909668, 0.4060250222682953, -0.17404350638389587, 0.05282389745116234, 0.4325261116027832, 0.20475375652313232, 0.04932417720556259, -0.16869744658470154, -0.25804057717323303, -0.22634276747703552, 0.13871853053569794, -0.0391724519431591, 0.06633449345827103, -0.05562515929341316, 0.13060221076011658, -0.01017918810248375, 0.309976190328598, -0.25218451023101807, -0.38204124569892883, 0.15209253132343292, -0.27817386388778687, -0.10792966187000275, -0.08012650907039642, 0.2478647083044052, -0.11610531061887741, -0.08710243552923203, 0.186807319521904, 0.20687896013259888, 0.084889717400074, -0.3597899377346039, 0.17815619707107544, 0.6784653663635254, -0.2965148091316223, -0.010950618423521519, 0.5643811225891113, 0.22571557760238647, -0.14126236736774445, -0.3553004264831543, -0.18881262838840485, -0.14368696510791779, -0.002838782500475645, 0.14924420416355133, -0.27695077657699585, 0.09766186028718948, 0.1008385494351387, -0.3314943313598633, -0.520642876625061, 0.0351455919444561, 0.12756837904453278, 0.34435588121414185, 0.24586422741413116, 0.03302689269185066, -0.24710030853748322, -0.0132807781919837, 0.110695481300354, -0.4401792883872986, -0.3380541205406189, 0.4198507070541382, 0.23919768631458282, -0.15978682041168213, 0.007410950027406216, -0.06126077100634575, 0.09817138314247131, -0.22477538883686066, 0.33247023820877075, -0.03038906492292881, -0.43571239709854126, -0.012860557064414024, 0.3230357766151428, -0.09180775284767151, -0.9021596312522888, 0.22403988242149353, -0.01642364077270031, -0.00556177506223321, 0.23836207389831543, -0.6160035133361816, -0.11864588409662247, 0.26780885457992554, -0.10937022417783737, -0.09758908301591873, -0.3479510545730591], [0.24044518172740936, 0.32187753915786743, 0.09515639394521713, 0.17352695763111115, 0.16890215873718262, -0.13580170273780823, -0.4683772623538971, 0.11321273446083069, -0.26268112659454346, -0.1233629509806633, 0.2590048611164093, 0.2849864661693573, -0.07271791249513626, -0.3362741768360138, 0.2508992850780487, -0.4363960027694702, -0.004568187054246664, -0.20326070487499237, 0.08382581174373627, 0.3463875949382782, -0.08216125518083572, 0.01838589459657669, 0.19546283781528473, 0.02582676336169243, 0.8240629434585571, -0.02152087725698948, 0.30004236102104187, -0.1933734267950058, -0.13640139997005463, 0.4240174889564514, -0.3179059326648712, 0.297301709651947, -1.0639240741729736, 0.20547255873680115, 0.3485965132713318, -0.022421497851610184, -0.1625060886144638, 0.11215190589427948, 0.20978042483329773, 0.36058592796325684, -0.6272046566009521, -0.32581090927124023, 0.06786312907934189, 0.26809024810791016, 0.055164821445941925, -0.1073777973651886, 0.356481671333313, 0.01490451768040657, -0.3004910945892334, 0.03695166856050491, -0.04270906746387482, 0.0015992618864402175, 0.11501362919807434, -0.08114736527204514, 0.3158246576786041, -0.04385814815759659, 0.3817870020866394, 0.2003343552350998, 0.010287242941558361, -0.019795672968029976, -0.04142617806792259, 0.13822457194328308, 0.538230836391449, 0.10272995382547379, 0.17703872919082642, 0.15988001227378845, 0.0339544452726841, 0.13499346375465393, 0.10923704504966736, -0.07031142711639404, -0.11543221026659012, -0.24090830981731415, -0.17240548133850098, 0.13325916230678558, -0.40169402956962585, 0.24364635348320007, 0.07685531675815582, -0.06837847828865051, -0.6098971962928772, -0.4044482707977295, 0.048927560448646545, 0.19037622213363647, 0.38554203510284424, 0.00016881764167919755, 0.026379801332950592, -0.15158869326114655, 0.24320609867572784, -0.2842741012573242, -0.07419241964817047, -0.048687152564525604, 0.23782309889793396, 0.5034838318824768, 0.15757489204406738, 0.11681750416755676, -0.06877391040325165, -0.11876532435417175, -0.4160366654396057, 0.07852786779403687, -0.43286779522895813, 0.2575402557849884, -0.3010980188846588, -0.2663024067878723, 0.45208337903022766, 0.2451242208480835, -0.5663940906524658, -0.48941296339035034, 0.24759000539779663, -0.3522005081176758, 0.07714124768972397, 0.24682475626468658, 0.35460391640663147, -0.2708369195461273, -0.06599864363670349, 0.258121132850647, 0.22430038452148438, 0.19445079565048218, -1.0872406959533691, -0.6933257579803467, -0.23104292154312134, 0.08762790262699127, 0.04301523044705391, -0.012790095992386341, 0.29497790336608887, 0.07726968079805374, -0.19795070588588715, 0.23041264712810516, 0.18133075535297394, 0.22054412961006165], [-0.14798475801944733, -0.233612060546875, -0.010725135914981365, -0.3046380877494812, 0.16274306178092957, -0.259268194437027, 0.4283774495124817, 0.4802184998989105, -0.02363056130707264, -0.0837114155292511, 0.14677664637565613, -0.148076131939888, -0.01637662574648857, 0.7496531009674072, -0.15226276218891144, 0.7910828590393066, 0.0376717634499073, 0.14129842817783356, -0.0023524684365838766, 0.054421525448560715, 0.4583016037940979, 0.12192796915769577, 0.11818232387304306, -0.16479232907295227, -0.1842508614063263, -0.1717015504837036, -0.2263646274805069, 0.3052280843257904, -0.2999802529811859, -0.03464836627244949, 0.3800961375236511, 0.03594733029603958, 0.49957525730133057, -0.3090568780899048, 0.047318559139966965, 0.15289293229579926, -0.0236730445176363, 0.21620586514472961, 0.13743314146995544, 0.0015584015054628253, 0.6998090744018555, -0.021062353625893593, -0.22941632568836212, -0.3965493440628052, -0.045478787273168564, -0.10428272187709808, 0.10289132595062256, 0.13917939364910126, 0.26101046800613403, -0.09018351882696152, -0.07260018587112427, -0.029421741142868996, -0.03594145178794861, 0.1762009710073471, 0.25314459204673767, -0.10745649039745331, 0.25271403789520264, -0.1843232959508896, -0.12308302521705627, -0.308317631483078, 0.06693515181541443, -0.10267134010791779, 0.3403802812099457, 0.28632640838623047, -0.03738844767212868, 0.09831631183624268, -0.23740306496620178, 0.07143795490264893, -0.24976998567581177, -0.026547914370894432, 0.13112559914588928, -0.07919233292341232, 0.3061273396015167, -0.2788097560405731, 0.5217036008834839, -0.2729628384113312, -0.5263156294822693, 0.43071508407592773, 1.1708616018295288, 0.6588929295539856, -0.43338844180107117, 0.2735227644443512, -0.08548466861248016, -0.23696108162403107, -0.17799563705921173, 0.2343605011701584, 0.007119924761354923, 0.4717348515987396, 0.3335726857185364, -0.3003186583518982, -0.3273063898086548, -0.3910023868083954, -0.2793428897857666, 0.09706062823534012, 0.11832350492477417, 0.12858201563358307, 0.812390148639679, 0.1408490389585495, 0.5878768563270569, 0.1090131625533104, 0.4679247736930847, 0.4932956397533417, 0.06830304116010666, -0.2617394030094147, 0.5465614795684814, 0.6427440643310547, -0.17340990900993347, 0.5007889270782471, 0.34008803963661194, -0.021809332072734833, -0.09058360755443573, 0.09150172024965286, -0.015442823059856892, -0.2736692428588867, -0.36469465494155884, 0.04873238503932953, 0.9403627514839172, 0.904939591884613, 0.12314973771572113, 0.049875371158123016, 0.5000291466712952, 0.5043982267379761, -0.5148736238479614, 0.18801721930503845, 0.480116069316864, 0.0658220499753952, -0.34685054421424866, -0.14732477068901062], [0.2109644114971161, 0.3359886705875397, 0.27678996324539185, 0.4015498161315918, 0.19042623043060303, -0.01706244796514511, -0.18672628700733185, 0.14322569966316223, -0.14547698199748993, 0.13638842105865479, 0.4161226749420166, 0.30813366174697876, -0.38165581226348877, -0.33562102913856506, 0.028986429795622826, -0.427561491727829, 0.11784008890390396, 0.05190759897232056, 0.14362592995166779, 0.029049204662442207, -0.4113183915615082, 0.2812052369117737, -0.0875634029507637, 0.2891334891319275, 0.505929708480835, 0.35834169387817383, 0.23122607171535492, 0.16422273218631744, -0.06432186812162399, 0.2103852927684784, -0.10559842735528946, 0.10551952570676804, -0.9553979635238647, 0.15918685495853424, 0.3535941243171692, 0.0650041475892067, 0.08228788524866104, 0.11411365866661072, -0.0478203147649765, 0.16821546852588654, -0.5297818183898926, -0.2749336361885071, -0.03514288365840912, -0.06683299690485, 0.14684060215950012, 0.27549606561660767, 0.3506286144256592, -0.19950102269649506, -0.28672266006469727, 0.23068423569202423, -0.07939890027046204, 0.15897037088871002, 0.20901235938072205, 0.04798641800880432, 0.33062323927879333, 0.08798374980688095, 0.26491299271583557, 0.10656299442052841, 0.009916610084474087, 0.2252918779850006, -0.2994753420352936, 0.1265314221382141, 0.6211225390434265, 0.07594124972820282, -0.19347260892391205, 0.2664661705493927, 0.12617678940296173, -0.030186938121914864, -0.03843256086111069, 0.22714391350746155, -0.09264694899320602, -0.1013398990035057, -0.20658530294895172, -0.05038071051239967, -0.04983963817358017, 0.07027581334114075, 0.24093708395957947, 0.13974127173423767, -0.46771296858787537, -0.8087581992149353, 0.0974680632352829, 0.11243356019258499, 0.5905516147613525, 0.26547738909721375, 0.09752337634563446, -0.07273402065038681, 0.06621921062469482, -0.03272228688001633, 0.002940771169960499, 0.1761808842420578, 0.4326610863208771, 0.7018831968307495, 0.14541345834732056, -0.18000613152980804, 0.02432875894010067, -0.1496461182832718, -0.5328919887542725, 0.014477208256721497, -0.5102751851081848, 0.18918733298778534, -0.2970779240131378, -0.3008970320224762, 0.1760101616382599, 0.24668152630329132, -0.2398645430803299, -0.4937046468257904, -0.11693534255027771, -0.33566805720329285, -0.1354306936264038, 0.12115805596113205, 0.4094599187374115, -0.1427088975906372, 0.036502301692962646, -0.016340745612978935, 0.23342955112457275, 0.3135896921157837, -0.8275448083877563, -0.39858534932136536, -0.03609149530529976, -0.21587616205215454, -0.09976232796907425, 0.028239533305168152, 0.2898727059364319, -0.2868063449859619, -0.49483945965766907, 0.2102069854736328, -0.0056116534397006035, 0.39928779006004333], [-0.13813601434230804, 0.08119302242994308, -0.15264438092708588, 0.12148996442556381, -0.23183880746364594, 0.04852597042918205, 0.13871215283870697, 0.19144207239151, -0.12423337250947952, -0.07661132514476776, 0.09398107975721359, 0.11203687638044357, -0.06533683091402054, -0.05866433307528496, 0.026647478342056274, 0.14636392891407013, -0.13859544694423676, -0.04674766957759857, 0.0597585029900074, 0.11959250271320343, -0.11349818110466003, -0.2156965434551239, 0.07365847378969193, -0.023662788793444633, -0.04982515051960945, -0.13083131611347198, 0.06370683014392853, -0.2036743313074112, -0.20438750088214874, 0.173702672123909, -0.058923158794641495, 0.11970304697751999, 0.10070092976093292, 0.10189953446388245, -0.1414160430431366, -0.05481972172856331, 0.1915387213230133, -0.19508497416973114, -0.2248096466064453, 0.05628768354654312, -0.0407385416328907, -0.1573130041360855, -0.14558061957359314, -0.14317873120307922, 0.015871746465563774, 0.14318430423736572, -0.1208224818110466, -0.15202227234840393, 0.07060883939266205, 0.011058129370212555, -0.22461649775505066, 0.0022162538953125477, 0.04072017967700958, -0.17024366557598114, -0.0873246043920517, 0.15901567041873932, 0.025190941989421844, 0.03220897540450096, 0.18205487728118896, 0.13967584073543549, -0.03319636732339859, 0.09577686339616776, 0.005797506310045719, -0.02691592648625374, 0.015333438292145729, 0.05763300135731697, -0.1975441724061966, 0.034684956073760986, -0.05569278821349144, -0.009753764607012272, 0.022472316399216652, -0.11248927563428879, -0.056409627199172974, 0.012692592106759548, 0.08589021861553192, -0.11350984126329422, 0.10835222154855728, -0.15000729262828827, -0.02962127886712551, -0.012530618347227573, -0.04910049960017204, 0.14289551973342896, -0.013353005982935429, -0.028159409761428833, -0.12806344032287598, -0.06877108663320541, 0.13484016060829163, -0.12883536517620087, -0.14658118784427643, 0.21523527801036835, 0.15155257284641266, 0.16554513573646545, -0.16383372247219086, -0.17086254060268402, -0.08207162469625473, 0.132831409573555, -0.004061897750943899, 0.06673908978700638, 0.09370333701372147, -0.2060648649930954, 0.13467662036418915, 0.15683327615261078, -0.1563255786895752, 0.07136731594800949, 0.1462634652853012, -0.01937548816204071, -0.06904368102550507, 0.0562308132648468, -0.17546138167381287, 0.1595446616411209, -0.07560074329376221, -0.1422959566116333, -0.17967426776885986, -0.09037937968969345, -0.07355592399835587, 0.10316838324069977, -0.024644427001476288, 0.12277195602655411, 0.009866946376860142, -0.12412182241678238, -0.05754915997385979, -0.05571436509490013, -0.09069633483886719, 0.010554516687989235, -0.06124072149395943, -0.1396636813879013, -0.16102856397628784, 0.013816611841320992], [0.002201308263465762, -0.21476763486862183, -0.009299924597144127, -0.13062924146652222, 0.2109527289867401, -0.3161434233188629, 0.2955929636955261, -0.056885845959186554, 0.31524327397346497, 0.11891605705022812, -0.09565842896699905, 0.0330178327858448, 0.27087411284446716, 0.03238123282790184, 0.04050103574991226, 0.5405370593070984, -0.1949796974658966, 0.0800488144159317, -0.2647589147090912, 0.1828736662864685, 0.3032471239566803, 0.17619630694389343, 0.24103659391403198, 0.03334181010723114, -0.20512039959430695, -0.25076231360435486, 0.14803564548492432, -0.028969205915927887, -0.41288191080093384, -0.5171756744384766, 0.0075635770335793495, -0.5916591882705688, 0.2268652468919754, -0.10303407162427902, -0.3798641264438629, -0.22688379883766174, 0.27321773767471313, 0.07329487055540085, 0.21983608603477478, -0.09525889158248901, 0.271116703748703, 0.4641099274158478, -0.18229621648788452, -0.10277395695447922, -0.5866130590438843, -0.4427185654640198, -0.21863731741905212, 0.0714971050620079, 0.2313930243253708, 0.14027419686317444, 0.2831837236881256, 0.2081345021724701, 0.06361839175224304, 0.1514204442501068, 0.12410301715135574, -0.13814395666122437, -0.03217816725373268, 0.1452050805091858, -0.28057271242141724, 0.034838780760765076, -0.2258375585079193, 0.03216030076146126, 0.6185358762741089, 0.021979758515954018, -0.17610245943069458, -0.30752846598625183, 0.17349815368652344, 0.03151136264204979, -0.09852702915668488, -0.07491686195135117, 0.003468334674835205, -0.11429058760404587, 0.4749079942703247, 0.00935280416160822, 0.6057141423225403, -0.24310137331485748, 0.19566915929317474, 0.5375931262969971, 0.7980833053588867, 0.34095126390457153, -0.30192694067955017, 0.2176843136548996, -0.05684671550989151, 0.024776361882686615, -0.08064758777618408, 0.5530368089675903, -0.27222540974617004, 0.23697498440742493, 0.02069573663175106, -0.26048311591148376, -0.2702140510082245, 0.55531245470047, -0.3907930850982666, -0.24168981611728668, 0.17670896649360657, -0.04869186878204346, 0.05290701612830162, -0.17682360112667084, 0.7527754306793213, -0.277208149433136, 0.37086302042007446, 0.10781873017549515, -0.11083889752626419, -0.10067345201969147, 0.29097428917884827, 0.2898090183734894, -0.28169068694114685, 0.16160228848457336, 0.5269141793251038, -0.049609147012233734, -0.22577022016048431, 0.33939486742019653, -0.23222751915454865, -0.13634422421455383, -0.1906587779521942, 0.11775346100330353, 0.3031321167945862, 0.6077022552490234, 0.24710795283317566, 0.12568914890289307, -0.156545951962471, 0.42464113235473633, -0.48266154527664185, -0.049955833703279495, 0.32336321473121643, -0.049710799008607864, 0.03210681304335594, -0.28454020619392395], [0.17953501641750336, -0.3284476101398468, -0.03738928213715553, -0.6822944283485413, -0.4852822422981262, -0.10863763839006424, 0.2934066355228424, -0.5766638517379761, -0.22337080538272858, -0.006929731462150812, -0.2565614581108093, 0.14929160475730896, 0.39861685037612915, 0.030398830771446228, -0.15006175637245178, 0.07353121042251587, -0.011716448701918125, -0.025836901739239693, 0.10658146440982819, 0.2371557354927063, 0.4914378225803375, -0.4405152499675751, 0.04146774858236313, -0.34778401255607605, 0.04727094992995262, -0.09715554118156433, 0.05315055325627327, 0.3265506625175476, -0.08435674756765366, -0.21725626289844513, 0.10815161466598511, -0.2798950672149658, -0.029006676748394966, -0.25591978430747986, 0.17478349804878235, 0.15044191479682922, -0.07234132289886475, -0.2798241376876831, -0.3018876612186432, -0.03682583570480347, 0.18542587757110596, 0.31742897629737854, -0.11370158940553665, -0.07579942792654037, -0.19321532547473907, -0.03507011756300926, 0.05665315315127373, -0.2289043515920639, -0.19443939626216888, 0.14402742683887482, -0.0855204164981842, -0.22422346472740173, -0.06292696297168732, -0.19275808334350586, 0.24662530422210693, 0.16669364273548126, 0.1448160707950592, -0.12476814538240433, -0.3371615409851074, -0.6502525210380554, -0.1817142218351364, -0.11906272172927856, 0.558890700340271, -0.15022636950016022, 0.11129698157310486, -0.372365802526474, -0.13042230904102325, 0.039069343358278275, -0.41512855887413025, 0.025558998808264732, -0.37943580746650696, 0.06779950857162476, 0.07463494688272476, 0.10275635868310928, 0.05227144435048103, -0.35626986622810364, 0.4122479259967804, -0.4262335002422333, 0.374994158744812, 0.30137890577316284, -0.4951598644256592, -0.44250261783599854, -0.2956913113594055, -0.24886327981948853, -0.1186753362417221, -0.1938239187002182, -0.282942533493042, 0.07935886085033417, -0.21637684106826782, 0.3219585418701172, 0.04395114630460739, -0.34055137634277344, 0.021932879462838173, 0.0267178937792778, -0.19402845203876495, 0.10035552084445953, 0.4249758720397949, -0.18590596318244934, 0.46883633732795715, 0.3362451493740082, 0.2512151300907135, 0.287879079580307, 0.17368084192276, 0.11105333268642426, 0.37966370582580566, 0.24009613692760468, -0.06584688276052475, 0.13587281107902527, 0.12459074705839157, -0.09709231555461884, -0.14733397960662842, -0.40578171610832214, -0.07287847995758057, -0.10512326657772064, -0.41497573256492615, -0.22357404232025146, 0.32004889845848083, 0.10154321789741516, 0.04813096299767494, 0.2550983726978302, 0.2754737138748169, 0.3720596730709076, -0.23464883863925934, 0.3130955696105957, 0.1401406228542328, 0.05619693920016289, -0.16217756271362305, -0.05952265113592148], [0.234785795211792, -0.2877592444419861, 0.012908357195556164, -0.47352397441864014, -0.2334008663892746, -0.029079118743538857, 0.11561473459005356, 0.08998968452215195, 0.03228707239031792, -0.2435017079114914, -0.3677317798137665, -0.24762983620166779, 0.1359136998653412, 0.08668500930070877, 0.12972144782543182, -0.06026296690106392, 0.053580142557621, 0.06866922974586487, 0.05582350492477417, 0.21455790102481842, 0.20922966301441193, -0.4217740595340729, -0.2451518476009369, -0.6169363856315613, 0.07711034268140793, -0.22224712371826172, -0.14149105548858643, 0.11550839990377426, 0.4103739559650421, -0.5541760325431824, 0.054432958364486694, -0.028823232278227806, -0.15696173906326294, -0.18867458403110504, -0.3517938256263733, -0.13136127591133118, -0.0887291207909584, 0.044248513877391815, -0.2648150324821472, -0.388081818819046, 0.1108606681227684, 0.23294560611248016, 0.11556652188301086, -0.1140943393111229, 0.13349081575870514, -0.3555743396282196, -0.007293804548680782, -0.18483176827430725, -0.00114534015301615, -0.3173832297325134, -0.21864047646522522, -0.10183438658714294, -0.3974303603172302, -0.3099513649940491, -0.06702828407287598, 0.027629125863313675, -0.26442232728004456, -0.40651437640190125, -0.568451464176178, -0.40107932686805725, 0.0030255799647420645, -0.03569631651043892, 0.35114678740501404, -0.25220876932144165, 0.46395865082740784, -0.12922529876232147, -0.2436268925666809, -0.177308589220047, -0.03567289561033249, -0.09274665266275406, -0.2577655613422394, 0.030081432312726974, -0.009786955080926418, -0.1561243087053299, 0.276424378156662, -0.13138456642627716, -0.1838679313659668, -0.6851106286048889, 0.7221670150756836, 0.028842909261584282, -0.5703147053718567, -0.2196025848388672, -0.08423731476068497, -0.005883603822439909, -0.3772833049297333, 0.18494826555252075, -0.43015599250793457, 0.4534101188182831, -0.49376291036605835, 0.27935725450515747, -0.47263550758361816, -0.33362460136413574, -0.11769095808267593, -0.25535479187965393, 0.111705482006073, -0.1974555253982544, -0.2311275750398636, -0.2338489145040512, 0.4871889352798462, -0.045956261456012726, -0.2694685161113739, 0.36646369099617004, 0.17202287912368774, -0.16985921561717987, 0.2857936918735504, 0.04013510048389435, -0.11678163707256317, 0.2097967565059662, -0.08342449367046356, -0.016446800902485847, 0.08176244795322418, 0.1300354152917862, -0.2997625470161438, 0.046052683144807816, -0.2736309766769409, -0.3435162901878357, -0.12549778819084167, 0.027784861624240875, 0.4386088252067566, 0.3485625386238098, 0.1234927624464035, 0.1268942803144455, -0.16640734672546387, 0.10010886192321777, 0.1164044588804245, -0.19803845882415771, 0.0353248156607151, -0.08321020752191544], [-0.2888014018535614, -0.4530375897884369, 0.3023877441883087, 0.3942940831184387, 0.04905935376882553, -0.06213552504777908, -0.4498898983001709, -0.02222810685634613, -0.0886346697807312, -0.0038343428168445826, 0.4247925281524658, 0.19908615946769714, -0.1704130470752716, -0.507028341293335, 0.09793034940958023, -0.5845360159873962, 0.0972195714712143, -0.21932119131088257, 0.10901948064565659, 0.06915275007486343, -0.33139368891716003, 0.15449444949626923, 0.027996491640806198, -0.24894064664840698, 0.6308414936065674, 0.4166065454483032, 0.08917117118835449, 0.280638188123703, 0.27311867475509644, 0.10487944632768631, -0.12013569474220276, 0.2539665997028351, -0.8221909403800964, 0.0003471583186183125, 0.056119102984666824, -0.3269616365432739, -0.0937713086605072, -0.09911774098873138, -0.04091973230242729, 0.10026318579912186, -0.24609656631946564, -0.08408438414335251, 0.05857810378074646, -0.15757757425308228, 0.11402294039726257, -0.3647286593914032, 0.2161204218864441, 0.03916624188423157, -0.48478981852531433, -0.07675327360630035, -0.10734390467405319, -0.23581938445568085, 0.05505278706550598, 0.221842959523201, 0.19639232754707336, -0.21366849541664124, 0.035034846514463425, 0.10741972923278809, 0.02370496280491352, 0.06660815328359604, -0.2220924347639084, -0.07217369228601456, 0.48842623829841614, 0.20506763458251953, -0.16739562153816223, 0.3958881199359894, 0.13803032040596008, -0.035952113568782806, 0.1569458544254303, 0.11686646938323975, 0.25015005469322205, 0.15078727900981903, -0.2660945951938629, -0.08822116255760193, -0.2850424349308014, 0.23088473081588745, -0.004462121054530144, -0.18828323483467102, -0.5272902846336365, -1.0775935649871826, 0.14644794166088104, 0.20244471728801727, 0.2973976135253906, 0.15362045168876648, -0.1992066651582718, -0.05826229229569435, -0.048408061265945435, 0.06133446842432022, 0.04981371760368347, 0.19149601459503174, 0.24598689377307892, 0.5114725828170776, 0.2494577318429947, -0.10124227404594421, -0.007506559602916241, 0.12543761730194092, -0.8265031576156616, 0.08591320365667343, -0.39250174164772034, 0.3980376720428467, -0.20818190276622772, 0.05297393724322319, 0.15337511897087097, 0.16010510921478271, -0.4223836660385132, -0.3534533679485321, -0.2199576050043106, -0.1890106052160263, -0.05105062201619148, -0.032319191843271255, 0.29068273305892944, -0.000990535831078887, 0.07847471535205841, -0.14736177027225494, 0.2892662584781647, 0.2286258339881897, -1.2433946132659912, -0.6877259016036987, -0.26488861441612244, 0.06480617821216583, -0.6073965430259705, 0.03421434387564659, 0.0832614079117775, -0.2628423869609833, -0.40823206305503845, 0.21977278590202332, 0.23758547008037567, 0.11536108702421188], [0.06930936127901077, 0.4167737066745758, 0.2433050125837326, 0.032100170850753784, 0.06997639685869217, 0.1490032970905304, -0.28443530201911926, -0.14052261412143707, -0.2701551020145416, -0.0681840032339096, 0.4480670690536499, 0.03510602191090584, -0.43912529945373535, -0.5719413757324219, -0.014840773306787014, -0.42960286140441895, -0.09957136958837509, -0.31632333993911743, 0.37412652373313904, 0.1644134521484375, -0.048577338457107544, 0.19561924040317535, -0.14669126272201538, 0.22906646132469177, 0.5233117341995239, 0.1138254925608635, 0.04753540828824043, -0.21989338099956512, 0.011433286592364311, 0.3931293785572052, 0.016834445297718048, 0.23995651304721832, -0.8342882990837097, 0.40132176876068115, 0.2596293091773987, -0.08906269818544388, -0.022159188985824585, -0.17852015793323517, 0.19416432082653046, 0.23080632090568542, -0.481814980506897, -0.3036879599094391, 0.29409635066986084, 0.04169608652591705, 0.02838609181344509, 0.04231731593608856, 0.031406573951244354, 0.04541156440973282, -0.07353099435567856, 0.26497113704681396, -0.062274329364299774, 0.11540280282497406, -0.06512429565191269, 0.14565953612327576, 0.07006964087486267, -0.07616350799798965, 0.09071237593889236, 0.160496324300766, 0.3541191816329956, 0.13713233172893524, 0.03954887017607689, -0.05332183837890625, 0.46010997891426086, 0.2037281095981598, -0.023740291595458984, 0.25743409991264343, -0.019526923075318336, 0.11339064687490463, 0.31556788086891174, 0.2918868362903595, 0.0998835489153862, 0.06617266684770584, -0.2216629832983017, 0.018789544701576233, -0.3879413902759552, 0.340600848197937, -0.011249994859099388, -0.18246665596961975, -0.5580767393112183, -0.8028793334960938, 0.33425968885421753, 0.2614356577396393, 0.4658767282962799, 0.10275129228830338, 0.3276955783367157, 0.051122866570949554, 0.29181551933288574, 0.10300334542989731, -0.040991827845573425, 0.12614023685455322, 0.038946483284235, 0.6289870738983154, -0.020701594650745392, -0.14296884834766388, 0.02984546683728695, -0.1893584132194519, -0.8153226375579834, 0.38888466358184814, -0.1592792123556137, 0.2018296867609024, 0.014175968244671822, 0.008443166501820087, 0.5170239806175232, 0.2943388521671295, -0.17298591136932373, -0.15056824684143066, 0.21121393144130707, -0.5646505355834961, -0.18315456807613373, -0.06402714550495148, 0.3841073215007782, 0.11096431314945221, 0.010179937817156315, -0.0257551446557045, 0.07047956436872482, 0.03317876160144806, -1.089352011680603, -0.44261881709098816, 0.009755036793649197, -0.14897751808166504, -0.033085208386182785, -0.1172817051410675, 0.3189760148525238, -0.15620207786560059, -0.24066691100597382, 0.41926297545433044, -0.00690319063141942, 0.48552513122558594], [0.0788164958357811, -0.46565911173820496, -0.08634641021490097, 0.4723106324672699, 0.11054444313049316, -0.006993988528847694, -0.3398931622505188, 0.2268691211938858, -0.09241124242544174, 0.07169326394796371, 0.09042344242334366, -0.04529362544417381, -0.09005770832300186, -0.6848211884498596, -0.0520038940012455, -0.6312493085861206, 0.024348845705389977, 0.02422955259680748, 0.3178749680519104, -0.16534996032714844, -0.2992550730705261, 0.2030593901872635, -0.026020018383860588, -0.273033082485199, 0.6801673769950867, 0.24353128671646118, 0.17084883153438568, -0.09302804619073868, 0.18467584252357483, 0.1507132649421692, -0.23499968647956848, 0.15123578906059265, -0.8730511665344238, 0.23271368443965912, 0.1601346731185913, -0.5526504516601562, -0.11828017234802246, 0.16483429074287415, 0.13576261699199677, 0.07849109917879105, -0.576000988483429, -0.10183288156986237, 0.2098507583141327, 0.19657570123672485, -0.1783522218465805, -0.2087739109992981, 0.09598702192306519, -0.07531901448965073, -0.48583823442459106, 0.2549504041671753, -0.12603908777236938, 0.03914405778050423, 0.025053901597857475, 0.00945358444005251, -0.02701270952820778, 0.1650375872850418, 0.2462780475616455, 0.138021320104599, 0.15453298389911652, 0.13194672763347626, -0.3559398949146271, -0.11076939851045609, 0.4384291470050812, 0.14414231479167938, -0.17970727384090424, 0.46259909868240356, -0.02342049777507782, 0.005869343876838684, 0.44758719205856323, 0.16262319684028625, 0.16805067658424377, 0.06501641869544983, -0.08808854967355728, -0.09702402353286743, -0.2749570310115814, 0.15385375916957855, -0.06340791285037994, -0.19523732364177704, -0.7128873467445374, -1.4357632398605347, 0.2582712471485138, -0.13394713401794434, 0.2982223927974701, 0.0541839636862278, -0.16014297306537628, 0.17116931080818176, 0.019254814833402634, -0.16147629916667938, 0.024305805563926697, 0.0006802388234063983, 0.09387124329805374, 0.11163362860679626, 0.013364261947572231, -0.051899559795856476, 0.15620680153369904, 0.057182278484106064, -0.796496570110321, 0.34896931052207947, -0.2694356143474579, 0.2756170630455017, -0.15600602328777313, -0.24773935973644257, 0.3728662431240082, 0.027380462735891342, -0.3439829349517822, -0.2452489286661148, -0.20601786673069, -0.5039774179458618, -0.3386574685573578, 0.06566213071346283, 0.4197392463684082, -0.1341899037361145, 0.33639758825302124, -0.3556390404701233, 0.30062493681907654, 0.25670093297958374, -1.4543497562408447, -1.1024998426437378, -0.13175657391548157, -0.21456241607666016, -0.8607308864593506, 0.12178492546081543, 0.5331098437309265, -0.3160136044025421, -0.36688247323036194, 0.29331570863723755, 0.024321328848600388, 0.279145747423172], [-0.09612102061510086, -0.5014743804931641, -0.13537384569644928, 0.32739871740341187, -0.2108805775642395, -0.06452147662639618, -0.55857253074646, 0.14924679696559906, -0.13278640806674957, 0.06067773327231407, 0.13881619274616241, -0.004834743216633797, -0.30235087871551514, -0.4343523681163788, -0.01155729778110981, -0.8030117750167847, -0.13116544485092163, -0.12466845661401749, 0.1224144771695137, 0.14872348308563232, -0.18937675654888153, -0.03017096221446991, -0.2512206733226776, 0.14625518023967743, 0.8855226635932922, 0.05490975081920624, 0.058730076998472214, 0.1684371531009674, -0.000458489143056795, 0.5199313759803772, 0.02857479266822338, 0.0649585872888565, -0.7925621867179871, 0.03440983593463898, 0.06270676106214523, -0.4317266643047333, 0.01716039329767227, 0.0030602922197431326, 0.18174925446510315, 0.08012918382883072, -0.34012189507484436, -0.013391196727752686, 0.08586001396179199, -0.13859759271144867, 0.2267959862947464, -0.027069786563515663, 0.2885058522224426, -0.11918875575065613, -0.5839098691940308, 0.2182920277118683, -0.013255313038825989, -0.17801640927791595, 0.025283945724368095, 0.025343675166368484, 0.18233269453048706, -0.07936788350343704, -0.1504952311515808, 0.03158239275217056, 0.17039452493190765, 0.25797605514526367, -0.0628298670053482, 0.1541415899991989, 0.32253965735435486, 0.16108544170856476, -0.09001892060041428, 0.3474816679954529, -0.07982035726308823, -0.08878286182880402, 0.2547070384025574, -0.026618055999279022, 0.0373968742787838, -0.06574178487062454, -0.2248934656381607, 0.24208341538906097, -0.2655103802680969, -0.07661326229572296, -0.22590883076190948, -0.04544529691338539, -0.7598214745521545, -0.9776725172996521, 0.002958216005936265, -0.20807808637619019, 0.10464810580015182, -0.008861983194947243, -0.04252330958843231, -0.01546025276184082, 0.19903063774108887, 0.0031794996466487646, -0.2183867245912552, -0.030791109427809715, 0.17128337919712067, 0.4735698103904724, 0.25816866755485535, -0.08649511635303497, -0.1317272037267685, -0.143804132938385, -0.852954626083374, 0.3344781994819641, -0.46264174580574036, 0.13525938987731934, -0.26009130477905273, 0.06385430693626404, 0.07714740186929703, 0.15776075422763824, -0.2506868839263916, -0.2972734272480011, -0.13434819877147675, -0.3948977291584015, -0.3777465522289276, 0.2994591295719147, 0.31273138523101807, -0.15021415054798126, 0.035512860864400864, -0.4101865589618683, 0.286970853805542, -0.0431172214448452, -1.1156505346298218, -0.9240315556526184, 0.021693680435419083, -0.2964770495891571, -0.5396468043327332, 0.20107311010360718, 0.30547505617141724, -0.2841954529285431, -0.47797125577926636, 0.16557089984416962, 0.26230156421661377, 0.3166932761669159], [0.15274173021316528, -0.5631527304649353, -0.2272796481847763, -0.29078325629234314, -0.17520736157894135, 0.03436993807554245, 0.01647266186773777, 0.24764257669448853, 0.07463690638542175, -0.1718609631061554, -0.18177779018878937, -0.1297004669904709, 0.5078336596488953, 0.23580192029476166, -0.11378780007362366, 0.2346782088279724, -0.16179870069026947, -0.014436089433729649, -0.22675304114818573, 0.4706340730190277, 0.22185008227825165, -0.15969663858413696, -0.15270037949085236, -0.7834340333938599, -0.41903334856033325, -0.15578784048557281, -0.0343049131333828, 0.4061931371688843, 0.39688998460769653, -0.6382198929786682, -0.2688080668449402, -0.28039464354515076, 0.0718848928809166, -0.41954493522644043, 0.043217189610004425, -0.345696359872818, -0.05034762993454933, -0.09143852442502975, -0.007243177853524685, -0.29280439019203186, 0.15517620742321014, -0.10287679731845856, -0.2848353981971741, -0.19186395406723022, 0.14387279748916626, -0.07632807642221451, -0.23320284485816956, 0.04345988482236862, 0.022355442866683006, -0.14293824136257172, -0.2673148214817047, -0.36100614070892334, -0.23869886994361877, -0.071006178855896, 0.26291078329086304, 0.3238382935523987, 0.17983095347881317, -0.5365553498268127, -0.3737304210662842, 0.04421401396393776, 0.006793571636080742, 0.02867208980023861, 0.1899005025625229, -0.19800101220607758, 0.1359952688217163, -0.11741235107183456, -0.026857629418373108, -0.0563473179936409, -0.1939590871334076, 0.00963246077299118, -0.08133283257484436, 0.14254805445671082, -0.12353967875242233, -0.032456815242767334, 0.27009719610214233, -0.06882403790950775, 0.024412263184785843, -0.31346315145492554, 0.6171623468399048, -0.11535719782114029, -0.08608575910329819, 0.09915633499622345, 0.3675234317779541, -0.28384074568748474, -0.2343359738588333, 0.08384927362203598, -0.3564254641532898, 0.35171011090278625, 0.19976019859313965, -0.05996221303939819, -0.19368195533752441, -0.27924972772598267, 