{
  "obs_dim": 4,
  "action_dim": 2,
  "hidden_dim": 128,
  "activation": "ReLU",
  "metadata": {
    "total_steps": 5049532,
    "total_episodes": 18535,
    "final_performance": 272.43226328567573,
    "training_time_secs": 317.042126,
    "device": "Cpu",
    "environment": "CartPole-v1",
    "algorithm": "PPO (Proximal Policy Optimization)",
    "timestamp": "2025-11-07T00:58:31.848202+00:00",
    "notes": "Modern RL training with orthogonal init and ReLU activation (no obs normalization for inference compatibility). Achieved 272.4 steps/episode in 317.0s (15927 steps/sec)."
  },
  "shared_fc1_weight": [
    [
      0.043451577,
      -0.27232572,
      -0.20441069,
      -0.20572709
    ],
    [
      -0.033959668,
      -0.06565612,
      -0.027463058,
      0.00020202366
    ],
    [
      -0.05533341,
      -0.039095707,
      -0.24890389,
      -0.0099330405
    ],
    [
      -0.14453065,
      -0.04438254,
      -0.7441791,
      -0.25075558
    ],
    [
      -0.07127204,
      -0.062041555,
      -0.25173786,
      -0.15851654
    ],
    [
      -0.07323632,
      -0.39019537,
      -0.6417806,
      -0.14577432
    ],
    [
      0.0027408842,
      0.026054487,
      0.0009700418,
      -0.10089729
    ],
    [
      -0.092010245,
      0.09530805,
      -0.009804846,
      -0.11888694
    ],
    [
      -0.004043589,
      -0.038280573,
      -0.08347674,
      -0.16067882
    ],
    [
      0.04424086,
      -0.24362871,
      -0.1831008,
      -0.09213871
    ],
    [
      -0.006538708,
      0.061279334,
      -0.0006823878,
      0.075085275
    ],
    [
      -0.00007322245,
      -0.29531184,
      -0.24004672,
      -0.23341915
    ],
    [
      0.11222484,
      -0.010206096,
      0.18628822,
      0.25905538
    ],
    [
      -0.01602367,
      -0.072786294,
      0.13508241,
      0.18302839
    ],
    [
      0.13543944,
      -0.057501823,
      -0.34146202,
      -0.18968393
    ],
    [
      -0.03619581,
      0.003720132,
      -0.741691,
      -0.12670264
    ],
    [
      -0.18489692,
      0.047283906,
      -0.118360564,
      -0.114843234
    ],
    [
      0.1478299,
      -0.0047357692,
      0.040603813,
      -0.06502593
    ],
    [
      0.30550778,
      0.22773443,
      0.6233208,
      0.28942746
    ],
    [
      -0.053194173,
      0.12482206,
      0.007559733,
      -0.017172253
    ],
    [
      -0.07619802,
      0.1666757,
      0.026381947,
      -0.026192324
    ],
    [
      -0.06274278,
      -0.06230886,
      -0.009027536,
      0.15003024
    ],
    [
      0.049174517,
      -0.0015701735,
      -0.08266155,
      -0.18068069
    ],
    [
      -0.12977524,
      -0.02567566,
      -0.17599621,
      0.05801248
    ],
    [
      0.0729842,
      -0.12796998,
      -0.039570317,
      0.072112545
    ],
    [
      0.05898941,
      -0.010057734,
      -0.010346928,
      -0.040830653
    ],
    [
      -0.18685275,
      -0.42686695,
      -1.0087513,
      -0.34629267
    ],
    [
      0.011219896,
      -0.16889137,
      0.20142244,
      -0.30479965
    ],
    [
      -0.005044435,
      -0.06928705,
      0.097810574,
      -0.16165453
    ],
    [
      0.06904623,
      0.13319732,
      -0.099418975,
      -0.09634867
    ],
    [
      0.017413327,
      -0.16258688,
      -0.11394072,
      -0.08680321
    ],
    [
      -0.032130543,
      0.08860407,
      -0.23516734,
      0.027915953
    ],
    [
      0.0010652052,
      -0.015892057,
      -0.093130805,
      -0.07918348
    ],
    [
      0.1640538,
      0.42972684,
      0.6670311,
      0.25457844
    ],
    [
      0.16247647,
      0.20586367,
      0.800072,
      0.18979384
    ],
    [
      -0.082088284,
      -0.035547037,
      -0.4381632,
      -0.2992631
    ],
    [
      -0.08550468,
      -0.060265355,
      -0.06913113,
      -0.023058426
    ],
    [
      -0.03383249,
      0.06854872,
      0.008680877,
      0.027549548
    ],
    [
      -0.020876927,
      0.13689929,
      -0.18335836,
      0.14659278
    ],
    [
      -0.29048374,
      0.33188757,
      0.19950032,
      0.156228
    ],
    [
      0.044816826,
      -0.13466385,
      -0.06561262,
      -0.18973887
    ],
    [
      -0.021363458,
      0.09157772,
      -0.19873933,
      -0.29049647
    ],
    [
      0.062017754,
      -0.18347834,
      0.24213022,
      0.2305756
    ],
    [
      0.020014556,
      0.010003472,
      0.2707763,
      0.068089165
    ],
    [
      -0.061463416,
      -0.2526737,
      -0.89830875,
      -0.17455311
    ],
    [
      0.1088521,
      -0.31907177,
      -0.14903522,
      -0.11083719
    ],
    [
      -0.014212499,
      0.20371248,
      0.4370454,
      0.23771168
    ],
    [
      -0.1227409,
      -0.48161292,
      -0.9282527,
      -0.39633912
    ],
    [
      0.18285042,
      -0.26680696,
      -0.26969826,
      -0.28812274
    ],
    [
      -0.0009581907,
      -0.06426702,
      -0.15678339,
      -0.15457809
    ],
    [
      0.21536548,
      -0.13725816,
      0.11156267,
      0.030385809
    ],
    [
      -0.14810517,
      -0.12180293,
      -0.17336741,
      0.047104858
    ],
    [
      -0.026646452,
      -0.06852909,
      0.17689647,
      -0.058466308
    ],
    [
      -0.09092846,
      -0.056030292,
      -0.15160672,
      0.004160415
    ],
    [
      0.05264575,
      -0.07153149,
      0.09107751,
      -0.0783401
    ],
    [
      0.08109246,
      0.35630098,
      0.8973244,
      0.32001135
    ],
    [
      -0.09376842,
      -0.036679536,
      -0.42910194,
      -0.18550551
    ],
    [
      -0.35375467,
      0.11378256,
      -0.131466,
      0.07125087
    ],
    [
      -0.03410822,
      -0.0034720856,
      0.30904895,
      0.06873909
    ],
    [
      0.23945464,
      0.2152057,
      0.3910664,
      0.15275155
    ],
    [
      0.11136154,
      -0.003510857,
      -0.14440003,
      0.058803104
    ],
    [
      0.13473092,
      0.0057896567,
      -0.38433772,
      -0.15165947
    ],
    [
      -0.3034646,
      -0.035342235,
      -0.2186605,
      0.05958276
    ],
    [
      -0.06309334,
      0.06458789,
      0.03171678,
      0.09667832
    ],
    [
      0.28566447,
      0.05279933,
      0.57480645,
      0.052973423
    ],
    [
      -0.16956778,
      -0.09187242,
      -0.08349053,
      -0.15544352
    ],
    [
      0.11710626,
      0.0435227,
      0.10766161,
      0.13734491
    ],
    [
      0.19270565,
      0.16859888,
      0.43297327,
      0.016500214
    ],
    [
      -0.15125965,
      -0.011912066,
      -0.15156521,
      -0.10449425
    ],
    [
      -0.09212503,
      0.039050207,
      0.037886947,
      0.051398005
    ],
    [
      0.0048694937,
      -0.32410514,
      -0.7419393,
      -0.26227108
    ],
    [
      0.04360484,
      -0.076175764,
      -0.06848061,
      0.04999705
    ],
    [
      0.115715645,
      0.1287397,
      0.61644316,
      0.2893356
    ],
    [
      -0.00937091,
      0.0023900582,
      -0.14677109,
      -0.00095747184
    ],
    [
      -0.088976614,
      0.0039712987,
      -0.035107516,
      -0.045984145
    ],
    [
      0.039844356,
      0.021271935,
      0.12508753,
      0.15970258
    ],
    [
      -0.022242548,
      0.08387287,
      -0.27590176,
      -0.13737623
    ],
    [
      -0.04698436,
      -0.10915334,
      -0.2543764,
      -0.047498018
    ],
    [
      -0.0812182,
      0.017397298,
      -0.27859342,
      0.038876433
    ],
    [
      0.2989125,
      0.018313743,
      0.286419,
      0.01499236
    ],
    [
      0.03425519,
      0.21880291,
      0.7673835,
      0.12799613
    ],
    [
      0.23510876,
      -0.10785991,
      0.29588786,
      -0.15462191
    ],
    [
      -0.092689574,
      0.18324594,
      -0.137806,
      0.014439142
    ],
    [
      0.057715487,
      -0.15667495,
      -0.35173875,
      -0.113670096
    ],
    [
      0.0048923846,
      -0.20292942,
      -0.28652692,
      -0.23825115
    ],
    [
      -0.010743726,
      -0.058090094,
      -0.07964622,
      -0.12885588
    ],
    [
      -0.04570514,
      0.039151054,
      -0.034256395,
      -0.10129721
    ],
    [
      0.023375683,
      0.07387066,
      -0.17486481,
      -0.01951113
    ],
    [
      -0.37429017,
      0.10862722,
      -0.30420977,
      0.084860064
    ],
    [
      0.08058926,
      0.064144365,
      0.3165599,
      0.12225825
    ],
    [
      -0.066497415,
      0.1923313,
      -0.13685435,
      0.11267025
    ],
    [
      -0.01876883,
      -0.057367433,
      -0.009705084,
      -0.11127409
    ],
    [
      0.040101834,
      0.15263584,
      0.28909045,
      0.1340361
    ],
    [
      -0.006296951,
      0.24814922,
      0.15917732,
      0.22071822
    ],
    [
      0.13145225,
      0.26855764,
      0.41241062,
      0.18628964
    ],
    [
      0.059174657,
      0.08118812,
      0.42447567,
      0.33510342
    ],
    [
      -0.22087334,
      -0.14527525,
      -0.5092664,
      -0.078321695
    ],
    [
      -0.04782718,
      0.038802292,
      0.021696204,
      0.17851979
    ],
    [
      -0.049610507,
      -0.0056675803,
      0.039958175,
      0.20377178
    ],
    [
      -0.021104135,
      0.123985596,
      0.19800891,
      0.070148796
    ],
    [
      0.0864807,
      0.17688416,
      0.39449757,
      0.4307121
    ],
    [
      0.13001399,
      0.059602723,
      -0.087456726,
      -0.08155109
    ],
    [
      0.016644081,
      0.13346845,
      -0.26089513,
      0.056012455
    ],
    [
      -0.060238454,
      -0.071161866,
      0.06556273,
      0.108510286
    ],
    [
      -0.003607995,
      -0.0649568,
      0.10894949,
      0.029418945
    ],
    [
      0.021599175,
      -0.096335396,
      0.0011554236,
      0.26122788
    ],
    [
      0.03290116,
      -0.14968981,
      -0.21292491,
      -0.113674104
    ],
    [
      0.15846606,
      0.022323504,
      -0.16037165,
      0.068743184
    ],
    [
      -0.09454585,
      0.18667234,
      0.04474228,
      -0.44652158
    ],
    [
      0.13222271,
      -0.019995226,
      -0.19819364,
      -0.07682562
    ],
    [
      -0.15132253,
      -0.16830063,
      -0.9440846,
      -0.1723005
    ],
    [
      0.03250498,
      0.0378036,
      0.36637995,
      0.12558149
    ],
    [
      0.1005722,
      -0.058428623,
      -0.51257294,
      -0.059676316
    ],
    [
      0.059104577,
      -0.10886835,
      -0.1215702,
      -0.0030013213
    ],
    [
      -0.23635153,
      -0.010103628,
      0.21952048,
      0.08881252
    ],
    [
      -0.03865233,
      -0.063628726,
      0.06704571,
      0.0040509105
    ],
    [
      -0.06295787,
      -0.20992395,
      -0.22725625,
      0.056350064
    ],
    [
      0.032852944,
      -0.014446037,
      -0.01628456,
      0.09923736
    ],
    [
      0.109022394,
      0.030269772,
      -0.19787237,
      0.073510155
    ],
    [
      0.1931946,
      -0.25604957,
      -0.355956,
      -0.30327722
    ],
    [
      -0.008140434,
      -0.20435117,
      0.0024884418,
      0.10436106
    ],
    [
      0.097782716,
      0.066914134,
      0.31267574,
      0.2687505
    ],
    [
      0.10660912,
      -0.24898797,
      -0.26799121,
      -0.16004643
    ],
    [
      0.0540805,
      -0.2144817,
      -0.5587484,
      -0.16703336
    ],
    [
      -0.14273798,
      -0.10462201,
      0.016298728,
      0.059470113
    ],
    [
      0.02190931,
      -0.082585156,
      -0.09413864,
      0.20325434
    ],
    [
      0.032519653,
      0.03879915,
      0.29144105,
      0.14700416
    ],
    [
      -0.08095687,
      -0.105799936,
      -0.20012479,
      -0.16040687
    ]
  ],
  "shared_fc1_bias": [
    0.45913935,
    0.2964268,
    0.29953974,
    -0.18119732,
    0.31047586,
    0.20522785,
    -0.48172468,
    0.2815208,
    0.31280267,
    0.22531377,
    0.3216988,
    -0.09716907,
    0.6388451,
    0.41930425,
    0.5829058,
    -0.21087866,
    0.5629246,
    -0.2507104,
    -0.47018132,
    0.22704065,
    0.24688481,
    0.45784202,
    0.6635834,
    0.49798405,
    0.33474466,
    -0.2320286,
    -0.33460036,
    0.28563198,
    0.25560004,
    0.61531055,
    0.28969157,
    0.317649,
    -0.28084308,
    -0.44048458,
    -0.29015127,
    0.391324,
    0.40037993,
    -0.4207731,
    0.60191256,
    -0.080528766,
    0.3227849,
    0.7045073,
    -0.2977754,
    -0.25437665,
    0.17007467,
    0.35365298,
    0.2577246,
    -0.44222364,
    -0.3610944,
    0.3075038,
    0.6694272,
    0.6790243,
    -0.3631084,
    0.40199828,
    0.32552516,
    -0.31307587,
    0.3454897,
    -0.019479793,
    -0.3546785,
    -0.46124566,
    -0.3965217,
    0.61823416,
    -0.31149226,
    -0.48557192,
    0.004188746,
    0.6974533,
    0.573717,
    -0.41355783,
    0.6020375,
    0.4494858,
    0.17675255,
    0.38776726,
    0.15524189,
    0.2077527,
    -0.26847497,
    0.43920863,
    0.66125137,
    0.52751386,
    -0.19931196,
    -0.12642406,
    0.18000533,
    -0.29834864,
    0.41329902,
    0.11281603,
    0.2527679,
    0.47414005,
    0.34927008,
    0.57711273,
    -0.19945572,
    0.39322993,
    0.26065645,
    -0.25354084,
    0.53602254,
    0.56899244,
    -0.32437223,
    0.3347181,
    -0.48863897,
    0.38893104,
    0.5070743,
    0.19462804,
    0.41221562,
    -0.34366256,
    -0.47573948,
    0.4523741,
    0.37208006,
    -0.39897797,
    0.31356075,
    0.60214454,
    0.4307108,
    0.6977707,
    0.2030252,
    0.2875675,
    0.5119186,
    0.3257418,
    0.22936615,
    -0.45437795,
    0.7022618,
    -0.19527099,
    0.48837778,
    -0.3546045,
    0.5958266,
    0.4485091,
    0.39539754,
    -0.21169229,
    0.63633597,
    -0.19618726,
    0.2883112,
    0.41181955
  ],
  "shared_fc2_weight": [
    [
      -0.15305369,
      -0.038586322,
      0.060207576,
      -0.16359228,
      -0.103430465,
      0.15031706,
      -0.031696748,
      0.07572941,
      -0.06879421,
      0.029881243,
      0.020780504,
      0.08236284,
      -0.047720607,
      -0.114553005,
      -0.17822824,
      -0.033556867,
      -0.027023979,
      -0.12007114,
      -0.037717324,
      0.18566503,
      -0.05441864,
      -0.121847175,
      0.020328293,
      0.12873778,
      0.032832377,
      0.10273533,
      0.06288621,
      0.016838424,
      -0.2885343,
      -0.04283719,
      -0.08501284,
      0.10911416,
      -0.14108452,
      0.054203786,
      -0.05028964,
      -0.1256795,
      -0.043645807,
      -0.0928977,
      -0.15030856,
      0.08436395,
      -0.030543465,
      -0.07097926,
      0.04337224,
      -0.1467224,
      -0.101332344,
      -0.21534422,
      -0.0010812016,
      -0.30906382,
      0.13065831,
      -0.21931826,
      0.13481933,
      0.17523898,
      -0.04520202,
      -0.09712337,
      -0.21053052,
      -0.20886381,
      0.08594071,
      0.035213813,
      -0.011683279,
      -0.0386525,
      0.18211697,
      0.100232236,
      0.0004831642,
      0.21269044,
      -0.073717825,
      -0.12553324,
      0.025732802,
      0.0416651,
      -0.07615722,
      0.15776585,
      0.060053173,
      0.068047926,
      -0.013483498,
      -0.14826566,
      0.04148872,
      0.108667105,
      -0.06054658,
      0.058283277,
      0.03502319,
      0.034898117,
      -0.062292453,
      -0.24350405,
      -0.110651396,
      -0.010447727,
      0.19080308,
      0.19631214,
      0.12816387,
      0.11950739,
      -0.019816833,
      -0.13698123,
      -0.14512144,
      -0.028619407,
      0.19122626,
      -0.004687075,
      0.15248439,
      -0.032539845,
      0.2355328,
      0.23620704,
      0.08248151,
      0.0494611,
      -0.020039594,
      0.07259181,
      0.041023,
      -0.20626011,
      -0.10346251,
      0.016850898,
      -0.24111238,
      -0.095002085,
      0.030294228,
      -0.08164648,
      -0.25046006,
      -0.0003647354,
      -0.18181586,
      0.04568374,
      0.03793844,
      0.040652778,
      -0.06339154,
      -0.0064069196,
      -0.09194603,
      -0.07628598,
      0.2076841,
      -0.24001752,
      0.2689565,
      -0.04340629,
      -0.098202035,
      -0.0039414614,
      -0.33411723,
      0.07584248
    ],
    [
      0.15702398,
      0.1907447,
      -0.016727608,
      0.15205753,
      0.22417629,
      -0.21902168,
      -0.1577205,
      0.022401052,
      0.2347712,
      0.15863584,
      0.12410968,
      -0.11186388,
      0.21604353,
      0.083599165,
      0.20332266,
      -0.37436727,
      0.090940095,
      -0.28086656,
      -0.09814223,
      0.17357856,
      0.08043853,
      0.082537115,
      0.13607164,
      0.1939189,
      0.10302997,
      -0.06146966,
      -0.48810178,
      0.14048384,
      -0.10448402,
      0.4327794,
      0.39759523,
      0.120873585,
      0.044007137,
      -0.117966995,
      -0.16224813,
      0.13997692,
      -0.0480459,
      0.05621399,
      0.41149315,
      0.14363006,
      0.2277793,
      0.19080602,
      0.18076415,
      0.013634379,
      -0.2391893,
      0.16564356,
      0.07370586,
      -0.58826023,
      -0.1266661,
      0.37722716,
      0.014045364,
      0.09951539,
      0.033521317,
      -0.09870342,
      0.041090015,
      -0.29369938,
      0.057915434,
      0.18511033,
      -0.014505749,
      -0.18255748,
      -0.13851947,
      0.11846615,
      0.06792068,
      0.012770436,
      -0.065913245,
      0.23359385,
      0.35886493,
      -0.2157288,
      0.29203475,
      0.42222774,
      -0.5444482,
      0.14022754,
      0.088889055,
      0.14390269,
      0.058718275,
      0.08073329,
      0.16508295,
      0.14056969,
      -0.08715423,
      -0.09529922,
      0.17519857,
      -0.10038153,
      -0.0019011244,
      -0.10383816,
      0.09756389,
      0.18014053,
      0.11821734,
      0.10945656,
      -0.0388553,
      0.22453019,
      0.20544058,
      0.15072724,
      0.16614273,
      0.51447064,
      -0.19136524,
      0.20542027,
      -0.24343763,
      0.15772964,
      0.11944473,
      0.36679268,
      0.29843196,
      -0.13387696,
      0.1298768,
      0.025926376,
      0.011037098,
      -0.0586527,
      0.076894894,
      0.33482876,
      0.04445383,
      -0.010905135,
      -0.53555477,
      0.27950728,
      0.21181259,
      0.08230317,
      0.09664601,
      0.27823067,
      0.036432385,
      -0.14419584,
      0.10005983,
      -0.044762395,
      0.12781633,
      0.18796462,
      0.28080377,
      -0.13140105,
      0.39158973,
      -0.16426323,
      0.06819143,
      -0.0054432726
    ],
    [
      0.0040658675,
      -0.04847286,
      0.052682873,
      -0.1629008,
      0.3256516,
      -0.37081409,
      0.11066165,
      0.2097145,
      0.13415633,
      0.16634141,
      0.22959436,
      -0.12734337,
      0.050140437,
      0.3855555,
      -0.06334307,
      -0.3933191,
      0.07886596,
      -0.15591504,
      -0.36964586,
      0.103411525,
      0.19260511,
      0.46058595,
      0.3042487,
      0.3908808,
      0.13081099,
      -0.015096374,
      -0.25595978,
      0.14975479,
      0.14470172,
      0.099872634,
      0.29977375,
      0.12764038,
      -0.04980684,
      -0.34635332,
      -0.20238544,
      0.09727022,
      0.09131458,
      -0.03771989,
      0.15043561,
      0.07599914,
      0.18376566,
      -0.16491239,
      -0.15790765,
      -0.034462973,
      -0.2680662,
      -0.0017452632,
      0.33453298,
      -0.5412843,
      0.11667341,
      0.10356513,
      0.21445067,
      0.17439775,
      0.03755336,
      0.21723326,
      0.29600096,
      -0.3124045,
      0.19356778,
      0.13115953,
      0.27780446,
      -0.25366184,
      0.12072024,
      0.24564809,
      0.048123784,
      -0.12689364,
      0.12025422,
      0.01401924,
      0.3983498,
      -0.34363195,
      0.15622854,
      0.17043963,
      -0.37226358,
      0.16840588,
      0.16734278,
      0.26397052,
      -0.19502126,
      0.06361958,
      0.063953266,
      -0.015063941,
      0.16055097,
      -0.08850747,
      0.40921587,
      -0.114333004,
      0.13119003,
      -0.1492278,
      -0.12664373,
      0.03901486,
      0.350712,
      0.30824912,
      0.07916999,
      0.16062129,
      0.27302003,
      0.2938055,
      0.33609244,
      0.19248937,
      -0.22653432,
      0.2743115,
      -0.13586365,
      0.11415826,
      0.15918866,
      0.06550706,
      0.149878,
      -0.3589086,
      -0.1755729,
      0.31416154,
      -0.036993373,
      0.15945023,
      -0.036755253,
      0.39276236,
      -0.12670195,
      0.046790108,
      -0.33894068,
      0.14123213,
      0.31987724,
      0.17367923,
      0.13185194,
      -0.19872433,
      0.005393008,
      0.04116854,
      -0.031687927,
      -0.05390323,
      0.2999683,
      0.327037,
      0.09978583,
      -0.34521803,
      0.33202845,
      -0.010469963,
      0.11669121,
      0.13209163
    ],
    [
      -0.086096734,
      0.06091293,
      0.09957928,
      0.17256089,
      -0.0059335083,
      0.1799036,
      0.05132099,
      0.13448091,
      -0.047861088,
      0.18144609,
      0.12418796,
      0.2558276,
      -0.17374666,
      -0.11275738,
      0.06668977,
      0.13993661,
      -0.0574045,
      0.03189648,
      0.19477148,
      0.22894318,
      -0.073051825,
      0.054714408,
      -0.06306029,
      -0.042244527,
      -0.07434469,
      -0.19035304,
      -0.26400983,
      -0.091941856,
      -0.0058834488,
      -0.06674395,
      -0.0472446,
      0.3657253,
      -0.1822056,
      0.32601485,
      0.19400042,
      -0.3278312,
      0.18303078,
      -0.082028784,
      0.16292283,
      0.12023,
      -0.09997233,
      0.067193694,
      0.17926809,
      0.009846456,
      0.25138703,
      0.034196008,
      0.13125153,
      0.6387289,
      0.04060079,
      0.24719742,
      -0.029391263,
      0.023685776,
      0.12504813,
      0.029103488,
      0.01740444,
      0.31511015,
      0.047333933,
      -0.0702041,
      0.10403228,
      0.4184371,
      0.0313931,
      0.060478266,
      -0.0161483,
      0.09453699,
      0.06619425,
      -0.102337815,
      -0.08417787,
      0.2786495,
      0.112157665,
      -0.15126273,
      0.20250045,
      0.026287988,
      -0.19138451,
      0.13863441,
      0.051208213,
      0.047118805,
      0.016707478,
      0.17685634,
      0.09294315,
      -0.06253817,
      0.007271108,
      0.047975767,
      -0.042999513,
      0.24016929,
      -0.050673015,
      -0.03040596,
      0.21923605,
      -0.061454248,
      0.19453132,
      0.12109933,
      0.08790749,
      -0.05101112,
      -0.1491437,
      -0.033624098,
      0.35115525,
      0.18469879,
      0.3666594,
      0.2731789,
      -0.29755142,
      0.19015007,
      0.012042861,
      0.20976013,
      -0.07051469,
      0.17349108,
      0.07527433,
      0.17771912,
      0.02765903,
      0.13227895,
      0.13549857,
      0.14971372,
      0.019869037,
      0.31011692,
      0.027475622,
      -0.11778418,
      -0.15351617,
      -0.0903907,
      0.18402779,
      -0.22795893,
      -0.17805937,
      -0.0900187,
      0.22083978,
      0.097917296,
      0.11980706,
      0.04257291,
      0.07235449,
      0.3481121,
      0.1151022,
      -0.25578547
    ],
    [
      0.26624012,
      0.021861158,
      0.041524213,
      -0.023017237,
      0.32981193,
      -0.36781615,
      0.11834367,
      0.24806969,
      0.32413134,
      -0.25955397,
      0.29702199,
      -0.11316773,
      0.28508577,
      -0.103419825,
      0.11025268,
      -0.38419098,
      -0.08505117,
      -0.26796928,
      -0.5283153,
      0.20679972,
      0.30960724,
      0.15060498,
      0.044307314,
      0.024074126,
      -0.041880887,
      0.24417445,
      -0.107793376,
      0.0052917097,
      0.10620336,
      0.2190039,
      0.1566574,
      0.38160405,
      0.03779404,
      -0.33796838,
      -0.064750634,
      0.06739344,
      0.14668418,
      -0.1394711,
      0.093847685,
      0.06803839,
      0.2193654,
      0.23196323,
      0.060083777,
      0.065676376,
      -0.48919204,
      -0.035624623,
      0.5080367,
      -0.39999053,
      -0.09328341,
      -0.08275398,
      0.2526455,
      0.21558473,
      -0.06810653,
      0.091391556,
      0.18416107,
      -0.20460139,
      0.06632646,
      0.039609164,
      -0.036196284,
      -0.16085356,
      -0.12525265,
      0.06757094,
      0.07485053,
      0.14162599,
      0.14576042,
      -0.07296804,
      0.17879508,
      -0.18572561,
      0.0074031902,
      0.34103084,
      -0.53200907,
      0.2844748,
      0.32045212,
      -0.08645008,
      0.060880188,
      0.14012651,
      -0.014595461,
      0.35398665,
      0.023884306,
      -0.013125404,
      0.30851176,
      -0.35574704,
      0.18177776,
      -0.015910596,
      -0.2385454,
      0.22997321,
      0.06577812,
      0.26806703,
      -0.056734018,
      0.5456337,
      0.066641174,
      0.020553356,
      0.10744435,
      0.16525438,
      -0.34955975,
      0.5194635,
      -0.20372884,
      0.05732479,
      0.16480407,
      0.18751793,
      0.3487229,
      -0.5497101,
      0.08090494,
      0.18380947,
      0.04176994,
      -0.13296407,
      0.112166636,
      0.2712373,
      0.0027382036,
      0.29366884,
      -0.38962546,
      0.18991797,
      0.06971437,
      0.3260491,
      0.14831202,
      -0.038281105,
      0.012331779,
      0.08949466,
      0.22697468,
      -0.12009277,
      0.028857592,
      0.3021792,
      0.17309739,
      -0.15266706,
      0.17148419,
      -0.18691821,
      0.16782686,
      -0.04896721
    ],
    [
      0.29407075,
      0.028931336,
      0.22893517,
      0.36307383,
      0.1700351,
      0.15261205,
      0.101234466,
      0.2056669,
      0.1690476,
      0.0013740563,
      0.14854586,
      -0.008740957,
      -0.2619017,
      -0.10926647,
      0.3747096,
      -0.15321246,
      0.25604403,
      -0.1926847,
      -0.3620634,
      0.1762313,
      0.07375154,
      0.11305989,
      0.1597524,
      0.23785214,
      0.14273041,
      0.04162576,
      0.36729145,
      0.46033403,
      0.11010218,
      0.0398656,
      0.1669552,
      -0.13356756,
      -0.049653824,
      -0.21722148,
      -0.46651053,
      0.31698686,
      0.17148595,
      0.002148544,
      0.056087576,
      -0.09563067,
      0.3648349,
      0.14811043,
      -0.25536913,
      -0.04832471,
      0.15953842,
      0.2864715,
      -0.13918568,
      -0.2686195,
      0.028554095,
      0.10629162,
      0.26102805,
      0.118790895,
      0.12879066,
      0.15122749,
      -0.07820919,
      -0.33402568,
      0.33376873,
      -0.3321289,
      -0.010769476,
      -0.15957843,
      0.03778937,
      0.0077071968,
      -0.12931831,
      0.010277971,
      -0.22896573,
      0.018939696,
      0.19159973,
      0.08875541,
      0.2963952,
      0.20745356,
      -0.04978699,
      0.2292385,
      0.022327306,
      0.14242512,
      -0.10717923,
      0.34806517,
      0.118601836,
      0.20657137,
      -0.33846545,
      -0.04360455,
      -0.100734,
      -0.15038055,
      0.26818267,
      -0.06424468,
      0.23204121,
      0.33277386,
      0.035247248,
      0.26305616,
      -0.056174308,
      0.13443717,
      0.17611384,
      -0.10356278,
      0.020483298,
      0.16227755,
      -0.15330793,
      -0.29712555,
      -0.5800046,
      0.14647597,
      0.097955294,
      -0.15155771,
      -0.0050353347,
      -0.04187816,
      -0.16111252,
      0.101482175,
      0.3302893,
      -0.0980873,
      0.14253408,
      0.27419984,
      0.10351315,
      0.19885814,
      -0.2936822,
      0.31362295,
      0.57401115,
      0.030190382,
      0.24068569,
      0.022089262,
      0.14260492,
      -0.008817657,
      0.032465536,
      -0.027414529,
      0.24840513,
      -0.015784461,
      0.12474649,
      -0.1427109,
      0.22175139,
      -0.21743086,
      0.07901117,
      0.20360395
    ],
    [
      -0.1535008,
      0.11461037,
      -0.002244421,
      0.21467367,
      0.19676542,
      -0.41059196,
      -0.09585599,
      0.17340896,
      0.1780089,
      0.075662315,
      0.10679737,
      0.016640322,
      0.4060049,
      0.046630673,
      0.092761405,
      -0.4277678,
      0.08538975,
      0.059590876,
      -0.23731358,
      0.19522479,
      0.09730086,
      0.25413123,
      0.029089775,
      0.15281601,
      0.28913453,
      0.12332919,
      -0.24588796,
      -0.063852705,
      0.06647149,
      0.21875754,
      0.25091353,
      0.07688513,
      0.04315518,
      -0.268933,
      -0.28497633,
      0.07891979,
      0.19012022,
      -0.0050458596,
      -0.009230331,
      0.11977568,
      0.3172324,
      0.041138433,
      0.056905054,
      -0.022779217,
      -0.5583995,
      0.19357975,
      0.14675586,
      -0.45357576,
      0.040448576,
      -0.05107756,
      0.0418668,
      -0.04682179,
      -0.0870177,
      0.15254518,
      0.28981504,
      -0.44843853,
      0.0723713,
      0.046020616,
      -0.0325523,
      -0.16620082,
      -0.03008658,
      0.4739183,
      0.3505286,
      0.12979,
      -0.037411924,
      0.020909395,
      0.30978248,
      0.0037566246,
      -0.0069330563,
      -0.0237352,
      -0.49532664,
      0.13213713,
      0.35960978,
      0.1352392,
      0.21890284,
      0.34827545,
      0.35571668,
      -0.034636658,
      0.2027128,
      -0.17246434,
      0.22824533,
      -0.19114669,
      0.26836714,
      -0.23526551,
      0.061744947,
      0.008851404,
      0.16431224,
      0.18083826,
      0.05394559,
      0.24963522,
      0.24137548,
      0.13292494,
      0.16194585,
      0.17934495,
      -0.04944158,
      0.27637243,
      -0.50626945,
      0.49611717,
      0.12527534,
      0.19384637,
      0.20252876,
      -0.40435296,
      -0.046025265,
      0.23554601,
      -0.02204209,
      -0.023762926,
      0.19585113,
      -0.10769302,
      0.20576063,
      0.38765162,
      -0.5926976,
      0.34902596,
      0.27291468,
      0.1969224,
      0.016993782,
      -0.052855156,
      0.15074104,
      0.020610739,
      0.17928074,
      0.14492984,
      0.26377785,
      0.14676489,
      0.0016618746,
      -0.16082473,
      0.12081629,
      -0.23109217,
      0.2388683,
      0.10877573
    ],
    [
      -0.024722889,
      -0.16609827,
      0.105311215,
      -0.163536,
      -0.12838969,
      -0.20986755,
      -0.07969584,
      -0.044128977,
      -0.057771787,
      0.29736027,
      0.1322701,
      0.438486,
      0.110424444,
      -0.03128084,
      -0.05109244,
      0.27603474,
      -0.13696803,
      0.12988536,
      0.4777128,
      0.18996829,
      0.21234216,
      0.007157375,
      -0.01339237,
      0.095036685,
      0.059350815,
      -0.0123777045,
      -0.032997854,
      -0.01157185,
      0.22680666,
      0.059764896,
      -0.07392369,
      -0.055924125,
      -0.086293414,
      0.19187546,
      0.62761194,
      0.20685841,
      -0.12864655,
      -0.0470988,
      -0.07637794,
      0.0593276,
      -0.29240388,
      0.1499167,
      -0.0047049723,
      -0.1732609,
      0.04200356,
      -0.16517313,
      0.14033952,
      0.5009277,
      -0.24115033,
      -0.11608578,
      0.06783299,
      -0.27464408,
      -0.031623725,
      0.066197515,
      -0.024769625,
      0.38939694,
      0.08605734,
      0.21133168,
      -0.0069972645,
      0.20285581,
      0.052088935,
      0.025529781,
      0.28340715,
      0.09767571,
      0.34225592,
      -0.10817304,
      0.13307706,
      -0.102869555,
      -0.07414035,
      -0.17886807,
      0.12592141,
      0.21495068,
      0.2124132,
      -0.015752679,
      0.029994076,
      -0.1296868,
      0.022334188,
      -0.012684997,
      0.19084863,
      0.17943433,
      0.2695672,
      0.015814092,
      0.068787456,
      0.38839617,
      0.10029268,
      -0.06241502,
      -0.13432452,
      -0.08137879,
      0.27064824,
      0.079917744,
      0.043471944,
      -0.074344456,
      -0.010988732,
      0.11412728,
      0.051371954,
      0.09545472,
      0.5216472,
      0.09776442,
      0.10551993,
      -0.09754654,
      0.28872514,
      0.060527164,
      -0.050695214,
      0.07720359,
      -0.00093483116,
      0.09941005,
      -0.20855562,
      0.20664115,
      0.16362974,
      -0.05687796,
      0.2818616,
      0.4444085,
      0.18247254,
      0.089794345,
      0.038013354,
      -0.07104897,
      0.15202,
      -0.0011430144,
      0.24981038,
      -0.15514325,
      0.107329406,
      0.048609212,
      0.1489838,
      0.2661213,
      0.09274398,
      0.031378374,
      0.0067266193,
      -0.0035097885
    ],
    [
      -0.097496115,
      -0.0573542,
      -0.004563978,
      -0.070815474,
      -0.0019992557,
      0.04627208,
      0.13627824,
      -0.108362064,
      -0.038397256,
      0.10091713,
      0.17621194,
      -0.14727996,
      0.2513946,
      0.038486376,
      -0.2422403,
      -0.18337786,
      -0.21886687,
      0.010230498,
      -0.11691987,
      0.1435381,
      -0.28828642,
      -0.08037369,
      -0.1206992,
      -0.024969663,
      -0.24503934,
      -0.038456243,
      -0.1077322,
      -0.021558896,
      -0.16273078,
      0.039134506,
      0.09615503,
      0.08517262,
      0.07742166,
      -0.0027975112,
      0.059775554,
      0.010100592,
      -0.038245227,
      -0.0035508592,
      -0.13666084,
      -0.12362262,
      -0.12628423,
      -0.057782415,
      -0.024705611,
      0.28527978,
      0.29641652,
      0.013373847,
      -0.13109852,
      -0.04830885,
      -0.023019934,
      0.08107964,
      -0.032443494,
      0.029010635,
      -0.17427798,
      0.20788012,
      0.047313172,
      -0.13072482,
      0.12413589,
      -0.06451704,
      -0.059739172,
      -0.027327407,
      -0.054251906,
      -0.01876475,
      -0.14379042,
      0.054761082,
      -0.17983228,
      0.058289748,
      -0.013511629,
      0.14765495,
      -0.006390802,
      0.060843684,
      -0.09193225,
      -0.22182187,
      -0.07503335,
      0.19097348,
      0.060994677,
      0.061524387,
      -0.15926589,
      0.0031516533,
      0.03403937,
      -0.035181448,
      0.10596785,
      0.058117617,
      -0.0881452,
      -0.054002035,
      -0.408907,
      0.105851114,
      -0.0512354,
      0.035897754,
      0.09223471,
      -0.0060223807,
      0.028117271,
      -0.22471295,
      -0.11700375,
      0.07611584,
      -0.03352022,
      0.013789106,
      -0.0553166,
      -0.18232107,
      0.07762835,
      -0.10109559,
      0.0927781,
      0.2571749,
      -0.2326638,
      -0.020705651,
      -0.07596428,
      0.04409929,
      -0.017613243,
      -0.049771283,
      -0.015911112,
      0.08511798,
      -0.108987585,
      0.08999778,
      0.21335988,
      0.03768646,
      -0.0026704692,
      -0.05329745,
      -0.021126583,
      0.037158437,
      0.2399961,
      -0.03282686,
      -0.053112656,
      -0.31036982,
      -0.09394497,
      -0.024819162,
      -0.18258613,
      -0.12724626,
      -0.12238403,
      0.16875571
    ],
    [
      0.11145708,
      0.077525094,
      0.33885208,
      -0.31146562,
      0.17208672,
      -0.11826725,
      0.10709701,
      0.35174635,
      0.058582876,
      -0.0724407,
      -0.04836872,
      0.12786299,
      0.25189957,
      0.18106987,
      0.21122041,
      -0.34780744,
      0.15582445,
      -0.04350321,
      -0.016607659,
      0.28317764,
      0.079005346,
      0.12984659,
      0.27256805,
      0.15865925,
      0.11294986,
      0.01134924,
      -0.16551363,
      0.08372073,
      -0.012876143,
      0.3060572,
      0.13383599,
      0.14372784,
      0.2115093,
      -0.40574777,
      -0.34193596,
      0.10496517,
      0.30737108,
      -0.008202873,
      0.21665677,
      0.12024665,
      0.1334075,
      0.39729276,
      -0.008030051,
      -0.31492248,
      -0.4656537,
      0.2151054,
      0.20956084,
      -0.5833352,
      0.1950642,
      0.16682418,
      0.030744713,
      0.27565205,
      -0.11085576,
      0.17371604,
      0.17836535,
      -0.24599765,
      0.031049354,
      -0.020464946,
      -0.008726569,
      -0.40225345,
      0.14299348,
      0.23248251,
      0.062665366,
      0.20524634,
      -0.21364853,
      0.25109565,
      0.17051981,
      -0.06397203,
      -0.12989993,
      0.41629243,
      -0.22706036,
      0.0019336737,
      0.317298,
      0.23340192,
      -0.024585413,
      0.15749374,
      0.20289071,
      0.03264409,
      -0.13439552,
      -0.027401133,
      0.26158515,
      -0.20448035,
      0.2343477,
      0.08828927,
      -0.089769624,
      0.28343225,
      0.24386965,
      -0.023704734,
      -0.09330013,
      0.18084745,
      0.0027071536,
      0.016036514,
      0.07668952,
      0.3057044,
      -0.22749928,
      -0.050170608,
      -0.28620458,
      -0.0068710805,
      0.23868981,
      0.17710924,
      -0.024937022,
      -0.19805965,
      -0.07337469,
      0.2954453,
      0.11281522,
      0.03224684,
      0.007188944,
      0.270011,
      -0.17142153,
      0.31493947,
      -0.23045087,
      0.31748432,
      0.2152111,
      0.17701204,
      -0.024258748,
      0.0055330587,
      0.29858682,
      0.049610496,
      0.17413564,
      -0.14634363,
      0.17767905,
      0.27649468,
      -0.079686515,
      -0.1448879,
      0.16236447,
      -0.11756014,
      0.33598235,
      -0.0010595518
    ],
    [
      0.3655033,
      0.19773681,
      -0.09530144,
      -0.016165426,
      0.09875321,
      -0.058248736,
      -0.046357818,
      0.06942832,
      0.19266465,
      0.08501321,
      -0.07512672,
      0.26021075,
      0.2884604,
      0.1947304,
      0.04517459,
      -0.24044187,
      0.2793538,
      -0.3263156,
      -0.15418513,
      0.0026989602,
      0.17712656,
      0.15868965,
      0.17110062,
      0.077186465,
      0.19725199,
      0.11271509,
      0.10374511,
      0.13132577,
      0.22365023,
      0.3555164,
      0.1723212,
      0.2810703,
      -0.011941412,
      -0.19374727,
      -0.31154457,
      0.20724325,
      0.23201004,
      -0.11392851,
      -0.028429303,
      -0.012000805,
      0.25162238,
      0.10716355,
      -0.17505158,
      0.16117978,
      -0.22404416,
      0.08292932,
      0.22410464,
      -0.38087323,
      0.23973279,
      0.13864188,
      0.24537882,
      0.24266043,
      -0.083881475,
      0.21609178,
      0.07445298,
      -0.6042035,
      -0.022679707,
      -0.20110947,
      -0.20708287,
      -0.36591646,
      0.08586114,
      0.180855,
      -0.26931602,
      0.11415396,
      -0.16740283,
      0.0027065584,
      0.43766364,
      -0.32634047,
      0.4399851,
      0.07955873,
      -0.32127923,
      0.1771059,
      0.0754454,
      0.44139624,
      -0.037638422,
      0.1995018,
      0.14398232,
      0.07723015,
      -0.13631593,
      -0.25047448,
      0.21864207,
      -0.20602092,
      0.08019238,
      0.24086285,
      0.12723112,
      -0.01576963,
      0.2148408,
      0.20417732,
      -0.1841699,
      0.13926901,
      0.24865375,
      -0.1001268,
      -0.012327461,
      0.079617426,
      -0.22682172,
      0.09423164,
      -0.39214063,
      0.24271509,
      -0.009452553,
      0.12250936,
      0.142851,
      -0.14023837,
      0.036652815,
      0.1046312,
      0.25363377,
      -0.0027135345,
      0.10950493,
      0.217656,
      -0.0017180956,
      0.39052433,
      -0.29529437,
      0.029787302,
      0.092994496,
      0.28413275,
      0.16888621,
      0.15692364,
      0.2823125,
      0.017747259,
      0.043356292,
      0.1656347,
      0.04532242,
      -0.12611547,
      0.14798452,
      -0.13668284,
      0.4325569,
      -0.04866643,
      0.2509366,
      0.26243743
    ],
    [
      0.3293841,
      0.17167878,
      -0.008241085,
      -0.21669503,
      0.07288582,
      -0.141113,
      0.25274256,
      0.15795268,
      0.3127518,
      0.11535796,
      0.14641939,
      -0.12281499,
      0.23680882,
      -0.046308853,
      0.04243037,
      -0.36486185,
      0.108432,
      -0.03807314,
      -0.22483538,
      0.2864411,
      -0.0822475,
      0.17905879,
      0.28934112,
      0.23575182,
      -0.08118504,
      0.1509309,
      -0.0025547887,
      -0.06204937,
      -0.009020557,
      0.2954293,
      0.10529531,
      0.21053949,
      -0.15481068,
      -0.2831167,
      -0.21441847,
      -0.10651789,
      -0.0007702028,
      -0.005936472,
      0.301241,
      0.24430758,
      0.30515417,
      0.029562047,
      0.104145326,
      -0.053787906,
      -0.18491836,
      0.40548265,
      0.17057526,
      -0.5176252,
      -0.10083822,
      0.13706382,
      0.11373421,
      0.090189576,
      0.26245287,
      0.2987675,
      -0.011624206,
      -0.47237533,
      0.32742274,
      0.025078852,
      -0.12601161,
      -0.33341005,
      -0.040982325,
      -0.014812959,
      -0.055880733,
      0.045066614,
      -0.23437524,
      0.06674012,
      0.28644615,
      -0.08890297,
      0.3276195,
      -0.016370667,
      -0.1273327,
      0.31946015,
      0.00524752,
      0.12079796,
      0.14068958,
      0.06551998,
      0.14643717,
      0.10706928,
      -0.058412265,
      -0.20954472,
      0.29166967,
      0.0020341747,
      0.22325073,
      0.086956516,
      0.31789464,
      0.21028438,
      0.19797929,
      0.23537451,
      -0.22914408,
      0.088087924,
      0.05883947,
      0.050067805,
      0.27002376,
      0.19931093,
      -0.27560073,
      -0.039863914,
      -0.36845312,
      0.28301585,
      0.081917085,
      0.012629153,
      0.047712848,
      -0.38983008,
      0.037115213,
      0.19035669,
      0.030416053,
      -0.1667411,
      0.25570005,
      0.15773204,
      0.15019578,
      0.28540835,
      -0.13165931,
      -0.1043189,
      0.32189032,
      0.09235273,
      0.17296705,
      -0.13506654,
      0.14936636,
      0.08280002,
      0.2761349,
      -0.041058157,
      0.28648564,
      0.3949801,
      -0.07840136,
      0.1482739,
      0.16354696,
      -0.14128736,
      0.15841448,
      0.31633556
    ],
    [
      0.28563133,
      0.28795215,
      0.19178551,
      0.18025225,
      0.29064342,
      0.06923791,
      0.06622697,
      0.12990168,
      0.30781955,
      0.11794314,
      0.30990252,
      -0.15937304,
      0.10374582,
      0.23146245,
      0.16061045,
      -0.16646768,
      0.16575271,
      -0.33304605,
      -0.4871173,
      0.29625592,
      0.22899504,
      0.26611194,
      0.2089379,
      0.31402165,
      0.19042434,
      0.07975885,
      0.08113393,
      -0.05553482,
      -0.0205174,
      0.36251605,
      0.20845109,
      0.06255818,
      0.12598963,
      -0.18671432,
      -0.26605248,
      0.15460537,
      0.022701433,
      -0.24675268,
      0.062217988,
      -0.101031005,
      0.062974475,
      0.2236297,
      -0.043734662,
      -0.20396276,
      -0.17570898,
      0.19968127,
      0.39234495,
      -0.5461385,
      0.12322138,
      0.45009258,
      0.11501968,
      0.15066923,
      -0.037096024,
      -0.1310802,
      -0.012062093,
      -0.5947787,
      0.4272115,
      -0.29922235,
      -0.022321476,
      -0.49832192,
      0.0011174195,
      0.38894805,
      0.23312646,
      -0.007967145,
      -0.20362943,
      0.24828047,
      0.0371008,
      -0.1157405,
      0.3740894,
      0.24171802,
      -0.15767169,
      -0.017920652,
      -0.21711063,
      0.08013287,
      -0.17160092,
      0.2222178,
      0.14019212,
      0.13801567,
      0.023208488,
      -0.037685048,
      0.09498017,
      -0.20182964,
      0.26934397,
      -0.13195713,
      0.21406233,
      -0.063390896,
      0.07045226,
      0.2141787,
      -0.4002367,
      -0.083989814,
      0.25197577,
      -0.09231774,
      0.027578674,
      -0.0064671296,
      -0.27489448,
      -0.001596982,
      -0.44746715,
      0.06780003,
      0.21290712,
      -0.017964585,
      -0.10570002,
      -0.25935364,
      -0.16227381,
      0.03571482,
      0.14314848,
      -0.05423021,
      0.22926663,
      0.32125476,
      0.123881936,
      0.27722988,
      -0.1734305,
      0.13174638,
      0.23600791,
      0.20259462,
      -0.026573338,
      -0.006759408,
      0.3519618,
      -0.04895043,
      0.17187087,
      0.2538588,
      0.1450516,
      0.1176759,
      0.23828049,
      0.002168435,
      0.15361358,
      -0.34222108,
      0.27943596,
      0.21528254
    ],
    [
      0.26083,
      0.2588338,
      0.10189691,
      -0.0416822,
      0.22197069,
      -0.2772461,
      0.04714728,
      -0.026224447,
      0.26580378,
      0.037382025,
      0.3247171,
      -0.0577901,
      0.4079861,
      0.0612301,
      0.18187845,
      -0.34484497,
      -0.08222526,
      -0.13071312,
      -0.3397927,
      0.36124045,
      0.115809105,
      0.21782266,
      0.14407477,
      0.02281538,
      0.19325481,
      -0.0018527386,
      0.08547783,
      0.1283874,
      -0.037540294,
      0.02535659,
      0.3427739,
      0.21307884,
      -0.070434675,
      -0.4758531,
      -0.37388164,
      0.20420726,
      0.18648097,
      0.09784561,
      0.30286548,
      0.11243718,
      -0.0032777714,
      0.23452692,
      0.039242923,
      -0.15021998,
      -0.07224185,
      -0.03588836,
      0.2073222,
      -0.36089,
      0.18126807,
      0.18860845,
      0.17596735,
      0.18931174,
      -0.037559688,
      0.13625251,
      0.34447196,
      -0.28212616,
      -0.10017101,
      -0.28505093,
      -0.038192354,
      -0.3330138,
      -0.15377349,
      0.22015414,
      -0.10503555,
      -0.13093816,
      -0.2160869,
      0.17707612,
      0.26895404,
      -0.33776543,
      0.06550726,
      0.3113549,
      -0.23856285,
      0.08968876,
      -0.025746439,
      0.047701538,
      -0.09439596,
      0.2056163,
      0.058194194,
      -0.01153352,
      0.13558172,
      -0.1773357,
      -0.10826371,
      -0.26111636,
      0.3075672,
      0.104455724,
      0.3537126,
      0.17700502,
      -0.059943885,
      0.4090744,
      -0.07616705,
      0.3315972,
      0.3382511,
      0.10400461,
      0.365341,
      0.12122734,
      -0.3971714,
      -0.14712653,
      -0.50030196,
      0.35197166,
      0.17588559,
      0.24771176,
      0.020786561,
      -0.21328805,
      0.018024463,
      0.15761094,
      0.107901685,
      -0.17277496,
      -0.08589934,
      0.18074836,
      0.14044625,
      -0.09237361,
      -0.43038267,
      0.17625421,
      0.2994132,
      0.1582186,
      0.013610682,
      -0.020880293,
      0.30374885,
      0.115297005,
      0.1999152,
      0.1302245,
      0.20057267,
      0.16613303,
      0.0057862266,
      -0.12360553,
      0.16446283,
      0.08637897,
      0.25737998,
      0.26219255
    ],
    [
      0.4526454,
      0.29863304,
      0.21946438,
      0.15491366,
      0.494632,
      0.34228212,
      -0.28229934,
      0.19657342,
      0.27267498,
      0.3405048,
      0.37099954,
      0.06546169,
      0.03164166,
      -0.00072164513,
      0.1247498,
      -0.29689446,
      0.13791834,
      0.03884113,
      -0.2557377,
      0.21388228,
      0.16999404,
      0.14391813,
      0.30993205,
      0.04760956,
      -0.018228697,
      -0.059609625,
      0.038272806,
      0.2826399,
      0.29994315,
      0.32127008,
      -0.02197432,
      0.10597537,
      0.12618521,
      -0.30433416,
      -0.46238476,
      0.17087367,
      0.2219229,
      0.17328742,
      -0.0411131,
      -0.15397525,
      0.19764951,
      0.23488882,
      -0.16050532,
      -0.0620116,
      0.15896022,
      0.22372793,
      0.080406375,
      -0.26285037,
      0.17812209,
      0.05466445,
      0.102467746,
      0.34531784,
      0.10673293,
      0.011029807,
      0.27707213,
      -0.5151075,
      0.12865984,
      -0.30276763,
      -0.16945674,
      -0.3520446,
      0.05202034,
      0.10399613,
      0.029859047,
      -0.07584776,
      -0.22668,
      0.35022545,
      0.14609207,
      -0.15757008,
      0.07662094,
      0.11281281,
      -0.04199457,
      0.30585906,
      -0.02034545,
      0.48508593,
      -0.06288119,
      0.11334701,
      0.06846039,
      0.41267768,
      -0.41793913,
      -0.31205136,
      -0.20224023,
      -0.02467498,
      0.16294283,
      -0.27455282,
      0.38886672,
      -0.006888993,
      0.14749706,
      0.16521555,
      -0.29682863,
      -0.017825127,
      -0.052974787,
      0.034888573,
      0.22606602,
      0.13964729,
      -0.034842454,
      -0.13998741,
      -0.44844362,
      0.06058552,
      -0.008341413,
      0.28109887,
      0.01617762,
      -0.1449605,
      -0.19903919,
      0.04716688,
      0.055537794,
      -0.31706786,
      0.38310984,
      0.3491926,
      0.086721934,
      0.17088434,
      -0.26659104,
      -0.02868876,
      0.20273563,
      0.30679995,
      0.09996626,
      -0.294419,
      0.28829572,
      0.017871145,
      0.13978913,
      0.015671028,
      0.28358272,
      -0.049053736,
      0.06670786,
      -0.07964151,
      0.08112793,
      -0.24014856,
      -0.19428985,
      0.28853357
    ],
    [
      0.22893013,
      0.2987658,
      0.38691685,
      0.047309965,
      0.31824747,
      0.27272388,
      -0.05986637,
      0.19780387,
      0.25822055,
      0.014356086,
      0.15417868,
      0.028241226,
      0.03228555,
      0.12018301,
      0.2731379,
      -0.12557316,
      0.13888094,
      -0.042826828,
      -0.12507285,
      0.1476648,
      0.15483142,
      -0.059967022,
      0.08984646,
      0.14069545,
      0.042491984,
      -0.07983602,
      0.24444908,
      0.26830998,
      0.10322439,
      0.34960508,
      -0.117726795,
      0.20358124,
      0.08988269,
      -0.14748715,
      -0.3299294,
      0.09618546,
      0.2863274,
      0.010486711,
      0.17140938,
      -0.009023516,
      0.08784794,
      0.28936046,
      0.017660053,
      -0.18093246,
      0.21831469,
      0.33568114,
      -0.19770348,
      -0.36940685,
      0.0031442607,
      0.2877771,
      0.23327148,
      0.24238376,
      -0.18365203,
      0.1691502,
      0.1509862,
      -0.590986,
      0.3971601,
      -0.28615358,
      0.03809592,
      -0.38115948,
      0.10734612,
      0.20951144,
      0.04579166,
      0.053050395,
      -0.02737119,
      0.054141443,
      0.28081706,
      -0.27484074,
      0.35942495,
      0.19652632,
      0.112377405,
      0.0617341,
      0.099352404,
      0.16441004,
      0.06778759,
      0.07037053,
      0.062725864,
      0.080018505,
      -0.21615358,
      -0.36814138,
      -0.045094788,
      -0.013448611,
      0.20487265,
      -0.13917191,
      0.33600062,
      0.07687206,
      0.3808047,
      0.20368178,
      0.030910108,
      0.3520019,
      0.14774276,
      0.11982672,
      0.10024145,
      0.14605567,
      -0.4758885,
      0.097389705,
      -0.8336528,
      0.19298165,
      0.09584753,
      -0.06640389,
      -0.22143029,
      -0.08615476,
      0.0034796856,
      0.17704393,
      -0.110469624,
      -0.03376552,
      0.09392237,
      0.1646086,
      0.108633175,
      0.08928581,
      -0.14404547,
      -0.16091004,
      0.34157556,
      0.18771555,
      0.16939904,
      -0.141895,
      0.0059750834,
      0.043820266,
      0.31132287,
      0.23652808,
      0.008076909,
      -0.10331581,
      0.5557836,
      -0.03485728,
      0.16945264,
      -0.05020843,
      0.15407331,
      0.27638683
    ],
    [
      0.22950377,
      0.34767395,
      0.17068298,
      0.13183622,
      0.11508881,
      -0.08012274,
      0.06175902,
      0.04893111,
      0.16316453,
      0.06548239,
      0.10747716,
      -0.059324633,
      0.029575601,
      0.18429783,
      0.29901418,
      -0.43946356,
      0.26331815,
      0.11112733,
      -0.11271209,
      0.22404449,
      0.16889939,
      0.30416808,
      0.20976074,
      0.32036453,
      -0.20939721,
      0.07602925,
      -0.024345284,
      0.06999316,
      0.42336348,
      0.28362057,
      0.14891033,
      0.15726522,
      0.03880181,
      -0.23475072,
      -0.42369476,
      0.26192936,
      0.17023851,
      0.18098086,
      0.18497378,
      -0.044219352,
      0.024481758,
      -0.0059457645,
      -0.20926172,
      -0.051816516,
      -0.09583604,
      0.07010584,
      0.086774416,
      -0.39274645,
      0.09538409,
      0.21776375,
      0.19866833,
      0.064241156,
      -0.1010179,
      0.084289975,
      0.016442692,
      -0.40983155,
      0.3095538,
      0.041498654,
      0.15479805,
      -0.24501379,
      0.12153382,
      0.1525548,
      -0.005615664,
      -0.013480022,
      -0.17364128,
      0.18652873,
      0.14963393,
      -0.21062118,
      0.29160544,
      0.2572121,
      -0.37113506,
      0.06989479,
      -0.10744322,
      -0.055177394,
      0.13399623,
      0.13932759,
      -0.06581178,
      0.21448226,
      -0.14850694,
      -0.30415976,
      0.02958605,
      -0.39414564,
      0.15927272,
      -0.05259629,
      0.24996749,
      0.18712565,
      0.035489656,
      0.10287724,
      -0.053081203,
      0.12030306,
      0.16529338,
      -0.09557248,
      0.3293101,
      0.04613199,
      -0.3080273,
      0.16258155,
      -0.24697109,
      0.068424344,
      0.10925431,
      0.42220828,
      -0.07938477,
      -0.39154857,
      0.024338074,
      0.40548047,
      -0.013094602,
      0.08551291,
      0.016914051,
      0.11089129,
      0.19459608,
      0.5408645,
      -0.37541556,
      0.2602124,
      0.14558756,
      0.27031508,
      0.3281081,
      0.21059503,
      0.17907803,
      0.089439,
      0.3080955,
      0.08421184,
      0.15943493,
      0.16874148,
      0.06995795,
      -0.2752406,
      -0.044085976,
      0.022700898,
      0.22010487,
      0.3286779
    ],
    [
      0.20481177,
      0.14452839,
      0.16285916,
      0.049188048,
      0.08804458,
      -0.40590042,
      -0.12730986,
      0.31585494,
      -0.009839211,
      0.15852189,
      0.13075785,
      -0.035063874,
      0.20110051,
      0.03511451,
      0.23854405,
      -0.07799778,
      0.13466474,
      -0.110127196,
      -0.2651922,
      0.20041937,
      0.14025924,
      0.042724982,
      0.090250626,
      0.28776535,
      0.1493195,
      -0.09773758,
      -0.07163187,
      0.2652968,
      0.06945918,
      0.39634338,
      0.2165315,
      0.25567988,
      0.06848529,
      -0.32304552,
      -0.39068082,
      0.2772134,
      0.19143592,
      -0.14302954,
      0.20065857,
      0.05170347,
      0.2513922,
      0.10133073,
      0.05735605,
      0.22671896,
      0.0797093,
      0.26215675,
      0.1964983,
      -0.49330547,
      0.17373824,
      -0.07585517,
      0.5346953,
      0.17343819,
      0.05772044,
      0.073321134,
      0.11207826,
      -0.4185767,
      0.24531235,
      -0.08967717,
      -0.12016238,
      -0.06840814,
      0.14809267,
      0.28508675,
      -0.03447085,
      -0.1444734,
      -0.35887644,
      0.25593078,
      -0.04873169,
      -0.36757842,
      0.1526988,
      0.29149058,
      -0.1899071,
      0.16727257,
      0.04629599,
      0.24042138,
      -0.20693539,
      0.2605985,
      0.03894359,
      0.18932094,
      0.068101935,
      -0.48185822,
      0.033748686,
      -0.24908215,
      0.23208867,
      -0.28456724,
      0.2257213,
      0.3729976,
      0.3576543,
      0.022628464,
      -0.18168643,
      0.048516512,
      0.066826135,
      0.055558555,
      0.18636553,
      0.19859451,
      -0.4609568,
      0.16830681,
      -0.3368376,
      0.25635576,
      0.073998615,
      0.033836436,
      0.07022572,
      -0.4608741,
      0.005578281,
      0.23273969,
      0.15560892,
      -0.008392338,
      0.302132,
      0.24046604,
      0.14316835,
      0.16735269,
      -0.21776432,
      0.21683346,
      0.20926738,
      -0.15012944,
      -0.0063303662,
      -0.11330195,
      0.37653264,
      0.069890484,
      0.30488783,
      -0.018225571,
      -0.023864526,
      0.042935956,
      0.18685013,
      -0.051348545,
      0.22551487,
      -0.23570953,
      0.2771849,
      0.21175024
    ],
    [
      0.08938993,
      0.055359382,
      -0.022972692,
      -0.07593706,
      -0.006948882,
      0.1736351,
      0.050867926,
      0.18410894,
      0.3825179,
      0.27167588,
      0.28108123,
      -0.11134448,
      0.25330842,
      0.04671465,
      0.2577639,
      -0.07315347,
      0.22535206,
      -0.112417914,
      -0.36397156,
      0.110332556,
      0.15175778,
      0.13462123,
      0.29049525,
      0.21561229,
      0.2337824,
      0.082822494,
      0.046748757,
      0.17781332,
      0.24420752,
      0.29547676,
      0.18313238,
      0.2535131,
      0.2500773,
      -0.16108376,
      -0.5305492,
      0.3720129,
      0.08835156,
      -0.0813064,
      0.030778062,
      -0.14547975,
      0.11908405,
      0.18730469,
      -0.14394131,
      -0.06818792,
      0.2372267,
      0.20049493,
      0.13796064,
      -0.49849156,
      -0.019565612,
      0.07385478,
      0.034647424,
      0.1661911,
      0.09773483,
      0.18908197,
      0.2625375,
      -0.47983867,
      0.24142465,
      -0.20392102,
      0.0607409,
      -0.2691382,
      0.150249,
      0.153501,
      -0.3252126,
      0.12411902,
      -0.051782228,
      0.22470088,
      0.048762817,
      -0.06305632,
      0.17501813,
      0.23675904,
      -0.040957663,
      0.2904098,
      -0.02929627,
      0.037327543,
      0.099530436,
      0.12707528,
      0.036194123,
      0.26914245,
      -0.1095082,
      -0.07588036,
      -0.22826086,
      -0.18985203,
      0.1436598,
      -0.04257676,
      0.3354633,
      -0.13236834,
      0.48796165,
      0.28874657,
      -0.37095484,
      0.15251283,
      0.14342798,
      0.05867987,
      -0.13123329,
      0.46000788,
      -0.41442296,
      -0.22991517,
      -0.54816705,
      0.29362503,
      0.30010906,
      0.40251163,
      -0.0011736362,
      -0.3361613,
      -0.07967196,
      0.30252722,
      0.26290244,
      -0.031049974,
      0.28986335,
      0.088167526,
      -0.03104096,
      0.25797394,
      -0.19457534,
      0.0657555,
      0.35670826,
      0.060711477,
      -0.052624278,
      0.027038462,
      -0.13506243,
      -0.12881376,
      0.2308038,
      0.13732697,
      0.22712883,
      0.058567602,
      0.22654516,
      -0.2566912,
      0.022930272,
      -0.13177277,
      0.16225931,
      0.12998545
    ],
    [
      0.37155563,
      0.2622477,
      0.16825697,
      -0.19420633,
      0.29900876,
      0.20780128,
      0.009989619,
      0.029498452,
      -0.0005435978,
      0.28149492,
      0.068232186,
      -0.031882018,
      -0.191071,
      0.2065095,
      0.4536271,
      -0.35438418,
      0.08583785,
      -0.13254665,
      -0.42331907,
      -0.026268536,
      0.01831019,
      0.14631818,
      -0.11562435,
      0.092734866,
      0.15468678,
      0.1487807,
      0.12481645,
      0.113369465,
      0.15875474,
      0.32197672,
      0.29486212,
      0.23370029,
      -0.05115798,
      -0.2682656,
      -0.3987886,
      0.2452693,
      -0.06849613,
      -0.14155896,
      0.09450134,
      0.12056405,
      0.08690073,
      0.2043763,
      -0.16185679,
      -0.0868531,
      -0.1278399,
      0.26441228,
      0.11390085,
      -0.43975565,
      0.015920712,
      0.22322084,
      0.3723244,
      0.2987364,
      -0.024281513,
      0.365283,
      0.35408992,
      -0.3237895,
      0.16084445,
      -0.18014248,
      -0.10467245,
      -0.26126665,
      -0.019161554,
      0.10641724,
      0.21851459,
      -0.030504236,
      -0.2636601,
      0.11828515,
      -0.032163337,
      -0.21321803,
      0.24466628,
      0.13322574,
      -0.18438077,
      0.22066726,
      0.0934109,
      0.21018958,
      -0.23295362,
      0.061228927,
      0.42453173,
      0.1870701,
      0.054839723,
      -0.20526046,
      -0.32498747,
      0.059408993,
      -0.070902735,
      0.15996858,
      0.2638686,
      0.2140368,
      0.24986246,
      0.15971337,
      -0.3074386,
      0.13295054,
      0.13672292,
      0.13218033,
      0.16207461,
      0.13677196,
      -0.19798848,
      0.20201074,
      -0.39313972,
      0.1660281,
      0.23221599,
      0.16950361,
      0.18519592,
      -0.12106086,
      0.0019792663,
      0.048716016,
      0.061572414,
      0.10495111,
      0.114350975,
      0.063455254,
      0.02973117,
      0.38922992,
      -0.23184998,
      0.29683408,
      0.40441245,
      0.17923272,
      0.1637686,
      -0.03786849,
      0.14228828,
      -0.013334788,
      0.38770944,
      0.19339204,
      0.28742906,
      0.10682919,
      0.2059339,
      -0.038734455,
      -0.012674838,
      -0.08749043,
      0.06394476,
      0.18905152
    ],
    [
      0.2430974,
      0.1989523,
      0.39913705,
      0.20701976,
      0.31440946,
      0.092528366,
      -0.01219754,
      0.30343106,
      0.18012285,
      0.32943058,
      0.03923141,
      0.29356492,
      0.110695496,
      0.117527075,
      0.16101396,
      -0.07595972,
      0.1811622,
      0.13156952,
      -0.37612936,
      0.10728231,
      0.07086226,
      0.056980878,
      0.49705118,
      0.039594345,
      0.02906308,
      -0.11088838,
      0.04259687,
      0.3331529,
      -0.05984679,
      0.04223732,
      0.25097117,
      0.26637837,
      -0.11159845,
      -0.33352166,
      -0.7264774,
      0.16367091,
      0.009096395,
      -0.014488099,
      0.04750698,
      -0.046736047,
      0.16721854,
      0.20481311,
      0.023703517,
      0.18142323,
      0.10799593,
      0.22173955,
      -0.25204027,
      -0.44860893,
      0.020462729,
      0.21916302,
      0.053863123,
      0.24734817,
      -0.17511708,
      0.1816348,
      0.09991167,
      -0.55911684,
      0.41687864,
      -0.327676,
      -0.026504785,
      -0.46481168,
      -0.07028733,
      0.1823617,
      0.0030986213,
      -0.02042678,
      -0.24338087,
      0.0646512,
      -0.14067346,
      -0.43660226,
      0.27577668,
      0.17594802,
      0.0596248,
      0.181308,
      -0.21447366,
      0.01836822,
      -0.19100983,
      0.11446561,
      0.2595684,
      0.2341112,
      -0.21656244,
      -0.18277805,
      -0.27694127,
      -0.03317322,
      0.42127872,
      0.22140229,
      0.3161831,
      0.16151902,
      0.25750437,
      0.2701803,
      -0.22770701,
      0.007390849,
      -0.009696028,
      0.12473096,
      -0.22370425,
      0.0982736,
      -0.07053194,
      -0.07580758,
      -0.36553156,
      -0.004977627,
      0.16872466,
      0.07006333,
      0.09242351,
      -0.16428192,
      -0.09615761,
      0.35139605,
      0.16845238,
      -0.2170841,
      0.41387743,
      0.30182454,
      0.40670016,
      0.17382166,
      -0.1339461,
      -0.087133065,
      0.2188717,
      0.2699361,
      0.29398632,
      0.21828479,
      -0.0034250198,
      0.016799202,
      0.21342947,
      0.22990547,
      0.14988804,
      -0.027113462,
      0.13829833,
      -0.24515267,
      0.12358661,
      -0.21258928,
      0.13750665,
      0.22987254
    ],
    [
      0.063647516,
      0.24365339,
      0.17926715,
      0.010580202,
      0.25442183,
      -0.059889995,
      -0.23154294,
      -0.1388334,
      0.21950148,
      0.06457528,
      0.028685056,
      -0.038661066,
      0.18387268,
      0.3100351,
      0.39513984,
      -0.30576384,
      0.08570435,
      -0.058235522,
      -0.12193954,
      0.29845664,
      0.008624688,
      0.051472437,
      0.1528672,
      0.19398656,
      -0.057720717,
      -0.23996642,
      -0.20365724,
      0.19318295,
      0.26368225,
      0.050309863,
      0.25200173,
      0.2152412,
      -0.05907637,
      -0.312667,
      -0.2660587,
      0.29539788,
      0.26336637,
      -0.11217245,
      0.09566143,
      0.18747054,
      0.16062409,
      0.2702689,
      -0.1966571,
      -0.13639554,
      -0.032108825,
      0.038175542,
      0.13699447,
      -0.59233135,
      0.21752815,
      0.17301272,
      0.22971293,
      0.22974011,
      0.090147875,
      0.26966128,
      0.12703978,
      -0.59737873,
      0.21006289,
      -0.11671494,
      -0.18276651,
      -0.21753697,
      -0.227809,
      0.25193703,
      -0.042908527,
      0.25063163,
      -0.22225419,
      -0.17464752,
      0.11991812,
      -0.1664425,
      0.3742238,
      0.19985695,
      -0.32680446,
      0.11231946,
      0.023366982,
      0.1981469,
      0.08637703,
      0.3574512,
      0.2205693,
      0.54817957,
      -0.017369047,
      -0.10688006,
      -0.02052942,
      -0.18789984,
      0.27792418,
      0.009466014,
      0.0722369,
      0.15096034,
      0.1665039,
      0.28400654,
      0.016597342,
      0.064442165,
      0.16398437,
      0.07770964,
      0.29912427,
      0.29190508,
      -0.3238618,
      -0.16432472,
      -0.44871688,
      0.17443231,
      0.27644706,
      -0.008104362,
      -0.052668966,
      -0.43499753,
      0.029746713,
      0.01161723,
      0.25880462,
      0.06651753,
      0.4340339,
      0.3716707,
      0.06592924,
      0.2711894,
      -0.18366708,
      -0.0051095244,
      0.28336218,
      0.24496959,
      0.07791855,
      -0.18064116,
      0.13112542,
      0.1424024,
      0.084655516,
      0.2561037,
      0.11663955,
      0.39737275,
      0.24911366,
      -0.25378445,
      0.1028222,
      -0.2144335,
      0.052086174,
      0.028735979
    ],
    [
      0.098893374,
      0.29174086,
      0.3411553,
      -0.17960672,
      0.0878246,
      -0.05372501,
      0.10333306,
      0.30001673,
      0.13739608,
      -0.009776425,
      0.19744094,
      0.10565352,
      0.2482359,
      0.3613621,
      0.17730631,
      -0.3144918,
      0.34206223,
      0.11576702,
      -0.36548495,
      0.08668633,
      0.18974176,
      0.31067088,
      0.2946051,
      0.12635376,
      0.07103059,
      0.10932238,
      0.120747514,
      0.022182086,
      0.06244984,
      0.11605312,
      0.43611774,
      0.16291817,
      0.15256312,
      -0.11160817,
      -0.2815111,
      0.08638296,
      0.057354864,
      0.14211409,
      0.12461829,
      0.2404406,
      0.13409394,
      0.10756406,
      -0.079246454,
      0.15894328,
      0.040121585,
      0.08213896,
      0.21241188,
      -0.39393866,
      -0.008254774,
      0.13302018,
      0.0954497,
      0.1679561,
      0.21235892,
      0.16434707,
      0.14818566,
      -0.38041714,
      0.15248215,
      -0.06944479,
      0.06703052,
      -0.4484172,
      -0.1436364,
      0.24941127,
      0.07563724,
      0.031779896,
      -0.0287689,
      0.0001057785,
      0.3061607,
      -0.08105198,
      0.32613513,
      0.3363446,
      -0.5960352,
      0.23724681,
      0.19945268,
      0.20988281,
      0.10243286,
      0.16820611,
      0.38299355,
      0.22439784,
      0.08487212,
      -0.4051274,
      0.06628175,
      -0.2852511,
      -0.022821892,
      -0.17014359,
      0.121807896,
      0.062350303,
      0.13395005,
      0.026727788,
      -0.078711554,
      0.3391553,
      -0.03273515,
      -0.16360229,
      -0.011933599,
      0.16520676,
      -0.18191074,
      -0.038045794,
      -0.13235697,
      0.21080278,
      0.10709994,
      -0.0035794962,
      0.0012988637,
      -0.4222369,
      -0.00456592,
      0.07643836,
      0.23159137,
      -0.30900192,
      -0.030749552,
      0.1875727,
      0.042200163,
      -0.11377651,
      -0.32822642,
      0.27360937,
      0.18188797,
      0.11295099,
      0.19416703,
      -0.23582381,
      0.2786437,
      -0.10991234,
      0.3316214,
      0.1440661,
      0.12575434,
      0.17352216,
      0.32576022,
      -0.114425,
      0.081323355,
      -0.1823591,
      0.3081933,
      0.06951751
    ],
    [
      -0.05401363,
      0.3348008,
      -0.013281974,
      -0.14530411,
      0.005422371,
      -0.08184398,
      -0.15491328,
      0.19398208,
      0.23577467,
      0.19085425,
      0.21028082,
      -0.017181262,
      0.32618946,
      0.18611798,
      0.11736471,
      -0.36197785,
      0.16464417,
      -0.050003696,
      -0.49548787,
      0.12943219,
      0.08514004,
      0.36423883,
      0.16733342,
      0.0076617803,
      0.120442726,
      -0.032686047,
      -0.14491263,
      0.2252205,
      0.14879511,
      0.11682401,
      0.113601126,
      0.09275456,
      0.12351313,
      -0.25336948,
      -0.15611881,
      -0.06719362,
      0.20574851,
      -0.17858915,
      0.12929893,
      0.14490332,
      -0.034504615,
      0.2203552,
      0.0010676719,
      -0.024642691,
      -0.28284585,
      0.22372107,
      0.13474107,
      -0.6576888,
      0.27430612,
      0.049619522,
      0.26442006,
      -0.06431662,
      0.045789544,
      0.071464136,
      0.2192066,
      -0.13101338,
      0.06914386,
      0.18307483,
      0.045231972,
      0.034232873,
      0.018405413,
      0.07646783,
      0.14595664,
      -0.062360708,
      0.27661404,
      0.12834395,
      0.052558932,
      -0.22133285,
      0.07405201,
      0.302699,
      -0.38884324,
      0.15441279,
      0.15672484,
      0.17183433,
      0.11049129,
      0.5330323,
      0.13492599,
      0.076988645,
      -0.27781206,
      -0.14048843,
      0.22164534,
      -0.2050571,
      0.16592447,
      0.29226974,
      0.037066754,
      0.08666793,
      0.24428667,
      0.22950098,
      -0.23790972,
      0.3228386,
      0.25543278,
      -0.2960637,
      0.29997188,
      0.06281342,
      -0.20079698,
      0.279891,
      -0.20202605,
      0.1479714,
      0.30910227,
      -0.015342978,
      0.008902485,
      -0.3203465,
      -0.05655598,
      0.17332035,
      -0.11507225,
      -0.06045485,
      0.16719542,
      0.28156206,
      0.02680725,
      0.14135584,
      -0.5995548,
      0.057386648,
      0.32390442,
      -0.04862087,
      0.14731364,
      0.13500905,
      0.20803767,
      0.00059743354,
      0.2769555,
      0.15356646,
      0.1087723,
      0.3748402,
      0.10096985,
      -0.019010069,
      0.37588271,
      -0.19248113,
      0.12237565,
      0.23002902
    ],
    [
      0.0399638,
      -0.007737152,
      0.059744656,
      0.065290846,
      -0.03664558,
      -0.06495669,
      -0.048584104,
      -0.053620566,
      -0.07031997,
      -0.23808035,
      0.3117894,
      0.16977595,
      0.026714576,
      -0.19542399,
      -0.119439594,
      -0.15658657,
      0.12468654,
      0.12179725,
      -0.13465083,
      -0.19793665,
      -0.23520395,
      -0.098409735,
      -0.27317488,
      -0.056764852,
      -0.024774741,
      0.2587583,
      -0.34789976,
      0.03123806,
      0.00043267728,
      0.17547412,
      -0.04006059,
      -0.0022477452,
      0.011216685,
      0.09147367,
      0.15382262,
      0.19496389,
      -0.0054734116,
      -0.1324341,
      0.0073544653,
      0.22012515,
      0.022922903,
      -0.05157423,
      -0.14383255,
      -0.13904761,
      0.011569193,
      0.07059013,
      -0.017197711,
      -0.019349072,
      0.18131058,
      -0.024286194,
      -0.17486265,
      -0.012038977,
      -0.07055049,
      0.04757144,
      -0.2086152,
      -0.08433225,
      -0.18965997,
      0.11883499,
      -0.090822525,
      -0.07558456,
      0.06275381,
      0.07807047,
      -0.13071613,
      -0.31650752,
      0.1804154,
      -0.14001551,
      -0.0109066665,
      -0.07345406,
      0.08027,
      0.08081394,
      -0.004685129,
      -0.11960744,
      -0.049320538,
      -0.03728969,
      -0.13730292,
      -0.1649687,
      -0.028253617,
      -0.11382191,
      -0.12544346,
      0.0868187,
      -0.16972119,
      -0.16419925,
      -0.0004903462,
      -0.040671542,
      -0.14742857,
      0.038469367,
      0.30406225,
      0.0673731,
      0.046465367,
      0.04137478,
      -0.058797393,
      0.12685867,
      -0.08467287,
      -0.10989741,
      0.06594442,
      -0.1197223,
      -0.002123577,
      0.0070125675,
      0.0836772,
      -0.018564861,
      -0.032910094,
      -0.119283624,
      -0.036089372,
      0.05448902,
      0.016854482,
      0.046452627,
      0.089275874,
      0.05013789,
      0.07008795,
      -0.14570953,
      -0.12156611,
      0.014732334,
      0.049397726,
      0.08904104,
      0.17651919,
      -0.057433937,
      0.10131146,
      -0.091191985,
      -0.18355621,
      0.033251897,
      0.047698088,
      0.060249604,
      -0.10241809,
      0.2923544,
      -0.22863619,
      0.061768923,
      0.12659909,
      -0.0012343257
    ],
    [
      0.15449336,
      0.1973263,
      0.09671486,
      0.22778395,
      -0.083707064,
      0.085383974,
      -0.021250693,
      0.22546634,
      0.10983832,
      0.0874867,
      0.2678917,
      0.110598415,
      0.20006634,
      0.12421721,
      0.23142451,
      -0.5696961,
      0.014051443,
      -0.04836117,
      -0.4695866,
      0.099591844,
      0.16643137,
      0.05970535,
      0.2905934,
      0.30568182,
      0.2092325,
      0.21663952,
      0.11508547,
      0.40555823,
      0.14062703,
      -0.00442707,
      0.1712958,
      0.28033596,
      -0.038408943,
      -0.39047655,
      -0.15045615,
      0.2348191,
      0.4330619,
      -0.07212813,
      0.2099291,
      -0.12436237,
      0.021966757,
      0.17969576,
      0.07173713,
      -0.17603005,
      0.043568525,
      0.22727098,
      0.049701948,
      -0.43805426,
      -0.047199674,
      0.09089212,
      0.022419315,
      0.37508523,
      0.10460026,
      0.03189936,
      0.29616416,
      -0.54602724,
      0.375083,
      -0.13111554,
      -0.09815802,
      -0.30666772,
      -0.16503377,
      0.20734705,
      0.005353773,
      -0.077894226,
      -0.11744562,
      0.3528571,
      0.19751129,
      -0.34988552,
      0.35080403,
      -0.022766456,
      -0.37107188,
      0.048163734,
      0.020101337,
      0.07115384,
      0.07271859,
      0.049979277,
      0.4006382,
      0.14202327,
      -0.026560528,
      -0.068999045,
      0.18916406,
      -0.27456778,
      0.012729297,
      0.0654034,
      0.1680936,
      0.3078141,
      0.29835042,
      0.11462707,
      -0.06911614,
      0.08369668,
      0.11267869,
      0.16902272,
      0.29480413,
      0.34165394,
      -0.062262356,
      0.07598752,
      -0.47038966,
      0.07990695,
      0.1668249,
      0.16143167,
      0.108121805,
      -0.39744815,
      -0.047730822,
      0.21293776,
      0.19167167,
      -0.21443453,
      0.13055098,
      0.2512756,
      -0.24314743,
      0.37536177,
      -0.17095785,
      0.03365395,
      0.2804881,
      -0.0046699243,
      0.09667334,
      0.15522757,
      0.4465755,
      0.22136596,
      0.18516947,
      0.1469978,
      0.1718573,
      0.05508441,
      0.30101344,
      -0.17553136,
      0.11804038,
      -0.2277852,
      0.2223652,
      0.29681623
    ],
    [
      0.22331423,
      0.013902114,
      0.36268967,
      0.16533127,
      0.13036044,
      -0.09365093,
      0.14941983,
      0.0742229,
      0.28041553,
      0.20087534,
      0.14471172,
      -0.005034806,
      0.14084668,
      0.17440373,
      0.18246497,
      -0.29430094,
      0.16608205,
      -0.26551172,
      -0.5510821,
      0.26186842,
      -0.034793884,
      0.10987179,
      0.33402705,
      0.13056016,
      0.21114606,
      -0.124640875,
      0.15786508,
      0.11040616,
      0.2903549,
      0.31591353,
      0.3009314,
      0.38809112,
      0.00055268535,
      -0.48829818,
      -0.4593243,
      0.42804056,
      0.22480707,
      -0.030049047,
      0.0027365948,
      0.17547885,
      0.30728725,
      0.04922602,
      -0.08907594,
      0.07548196,
      0.03904894,
      0.23703891,
      -0.114810966,
      -0.4675657,
      0.13701946,
      0.23158069,
      0.035319876,
      0.52858025,
      -0.09547895,
      0.05019628,
      -0.06476349,
      -0.36351222,
      0.07145175,
      -0.14022712,
      0.012928077,
      -0.060276333,
      0.06740179,
      0.11308939,
      -0.11633141,
      0.22741906,
      0.10107026,
      0.5156733,
      0.26819694,
      -0.3685718,
      0.21970542,
      0.046139285,
      -0.16159564,
      0.2764429,
      -0.04882129,
      0.28894648,
      0.02940337,
      0.0078055277,
      0.3682776,
      0.3534802,
      -0.09756651,
      -0.21989481,
      0.016914457,
      -0.11836584,
      0.37835738,
      -0.0558873,
      0.33594966,
      0.21360102,
      0.20433812,
      -0.01655573,
      -0.15444581,
      0.08599255,
      0.18461955,
      -0.16136587,
      0.04803106,
      0.10284767,
      -0.22716716,
      0.08450616,
      -0.5933494,
      0.13187642,
      0.22692059,
      0.008699128,
      -0.2651793,
      -0.25474682,
      -0.029125387,
      -0.019670693,
      -0.080210105,
      -0.025446324,
      0.050350226,
      0.1257822,
      0.076861575,
      0.10238392,
      -0.18408832,
      0.23090579,
      0.1566635,
      0.2611923,
      0.071630426,
      0.031304855,
      0.08036382,
      0.018768266,
      0.21049698,
      0.24589814,
      0.2253378,
      0.25981775,
      0.09468417,
      0.048891526,
      0.04149657,
      -0.18124169,
      -0.01382752,
      0.16203171
    ],
    [
      0.1500019,
      0.02414412,
      0.11501674,
      -0.19995926,
      0.0015472048,
      -0.22534935,
      0.11240292,
      0.29733786,
      -0.18576282,
      0.05116237,
      0.26663774,
      -0.34125483,
      0.33128,
      0.14707157,
      0.17013153,
      -0.5470471,
      0.2208171,
      -0.31012756,
      -0.1485501,
      0.39401424,
      0.25113684,
      0.111597925,
      -0.0048680343,
      0.13012917,
      0.16038217,
      -0.17676039,
      -0.24431537,
      0.036314577,
      0.06835616,
      0.26923543,
      -0.09507912,
      0.22741927,
      0.0073216646,
      -0.5305587,
      -0.1477207,
      0.12900284,
      -0.09706801,
      0.12166762,
      0.17735188,
      0.0026008773,
      0.22917005,
      0.23483367,
      -0.14498636,
      0.019603044,
      -0.21832788,
      0.0042858957,
      0.39714652,
      -0.66542864,
      0.0065198494,
      0.082136914,
      0.09818772,
      -0.07743457,
      -0.17021264,
      0.21190402,
      0.056196008,
      -0.2707727,
      0.013233942,
      0.26067924,
      -0.17285663,
      -0.19803253,
      -0.033740964,
      0.14214146,
      0.15519874,
      -0.16187708,
      0.1566569,
      0.080900446,
      0.099171035,
      -0.24494413,
      0.28382564,
      0.19071274,
      -0.31560442,
      0.11294566,
      0.11166437,
      0.0954345,
      0.06799622,
      0.19217458,
      0.22974063,
      -0.115584105,
      0.18408416,
      -0.075538225,
      0.31643537,
      -0.18915932,
      0.1747155,
      -0.012676846,
      0.089059226,
      0.12473599,
      0.2649705,
      0.08210926,
      0.14505075,
      0.4968248,
      0.27167848,
      -0.22728096,
      0.22853531,
      0.16262123,
      0.062310778,
      0.15590921,
      -0.34622392,
      0.18059781,
      0.2404868,
      0.26292175,
      0.38993627,
      -0.51052713,
      0.023393909,
      -0.05827503,
      0.19375548,
      -0.13509773,
      0.0776538,
      0.14953928,
      -0.06967161,
      0.18608098,
      -0.54136074,
      0.12809503,
      -0.06914362,
      0.16859241,
      0.18487662,
      -0.21206349,
      0.13816836,
      0.011237588,
      0.19769256,
      0.09747499,
      0.22684532,
      0.35674316,
      -0.01146466,
      -0.50331277,
      0.3448522,
      -0.22263138,
      0.35244554,
      0.08048983
    ],
    [
      0.052320916,
      0.3186968,
      0.26264894,
      -0.14754508,
      0.084518954,
      -0.027449854,
      -0.09682177,
      0.08058082,
      0.16946991,
      0.15675865,
      0.18241759,
      -0.20919144,
      0.07334243,
      0.23856373,
      0.21516275,
      -0.34707835,
      0.18899205,
      -0.30488452,
      -0.47199607,
      0.06131219,
      0.07178264,
      0.0971506,
      0.15245828,
      0.050882638,
      0.2355151,
      -0.20880502,
      -0.050013624,
      -0.01535772,
      0.07796495,
      0.08695327,
      0.17083475,
      0.15418153,
      -0.13465793,
      -0.2025407,
      -0.11286402,
      0.20828247,
      0.19661884,
      0.027088232,
      0.1602424,
      0.20418097,
      0.2273398,
      0.08813749,
      0.2192325,
      -0.03904318,
      -0.19420215,
      0.20624855,
      0.26818734,
      -0.5175073,
      -0.1093764,
      0.15990329,
      0.20235465,
      0.11930134,
      -0.26454392,
      0.15401788,
      0.33692485,
      -0.31135952,
      0.22561952,
      0.1222613,
      -0.24735194,
      -0.5494362,
      0.1107558,
      0.27335396,
      -0.16288364,
      0.051911466,
      -0.14863949,
      0.13103926,
      0.3018493,
      -0.19534567,
      0.20373875,
      0.057051685,
      -0.27955234,
      0.25768685,
      0.32707036,
      0.36345527,
      0.13761736,
      -0.019853333,
      0.14768484,
      0.154783,
      -0.25527772,
      0.015850957,
      0.1118285,
      -0.52166814,
      0.31741226,
      -0.21955219,
      0.17805927,
      0.27515122,
      0.0724439,
      0.3444186,
      -0.27802378,
      0.15758704,
      0.23590721,
      -0.0074709677,
      0.3549515,
      0.10965608,
      -0.2748634,
      0.16938023,
      -0.34256357,
      0.17008658,
      0.26715085,
      0.12897997,
      0.17932458,
      -0.43037352,
      -0.2005781,
      0.44042486,
      0.05942234,
      -0.06874465,
      0.050262563,
      0.14768079,
      0.14384785,
      0.18365234,
      -0.33486894,
      0.20177622,
      0.17862621,
      -0.033698227,
      0.3683852,
      -0.0018905659,
      0.21327065,
      -0.16438264,
      0.14402564,
      0.13755092,
      -0.031589705,
      0.14442039,
      -0.036976207,
      -0.31834656,
      0.15295549,
      -0.30493668,
      0.19454627,
      -0.13624118
    ],
    [
      -0.056906756,
      0.15381922,
      0.35287288,
      -0.29850027,
      0.24436289,
      -0.37909395,
      -0.054112587,
      0.017615367,
      0.066328034,
      0.009443002,
      0.32551047,
      -0.18880706,
      0.45678622,
      0.07200541,
      0.14976297,
      -0.34388882,
      0.05089388,
      -0.2098102,
      -0.28331274,
      -0.043745663,
      0.15883146,
      0.06063978,
      0.27002904,
      0.18380105,
      0.15296172,
      0.06542224,
      -0.11685342,
      -0.06406414,
      0.09538326,
      0.36339206,
      0.0089557255,
      0.36623898,
      -0.014651666,
      -0.5108173,
      -0.10146366,
      0.031134322,
      0.062509775,
      0.10330086,
      0.26021874,
      0.24801776,
      0.12355079,
      0.103287555,
      -0.21342003,
      -0.11874304,
      -0.54191005,
      -0.033250548,
      0.13796158,
      -0.4220337,
      0.0009910789,
      -0.06421719,
      0.31444982,
      0.24262862,
      0.23997675,
      0.16627869,
      0.2637693,
      -0.356712,
      -0.05685123,
      0.017592398,
      0.0669021,
      -0.3229631,
      0.10551531,
      0.19107029,
      0.29419267,
      -0.09381691,
      -0.014368405,
      0.15382208,
      0.24645838,
      -0.10846962,
      0.4405893,
      0.30606124,
      -0.5378441,
      0.18989578,
      0.10820602,
      0.03365582,
      0.14091755,
      0.21848015,
      0.12584114,
      0.2387685,
      0.0031259267,
      -0.058168966,
      0.34533963,
      -0.25817803,
      -0.046437915,
      0.067016326,
      -0.11679909,
      0.054622285,
      0.08156657,
      0.015414041,
      -0.04556947,
      0.015569808,
      0.070029944,
      -0.26279876,
      0.35458496,
      0.33832905,
      -0.32630754,
      0.39447835,
      -0.657491,
      0.16700356,
      0.29792294,
      0.17777635,
      0.26089147,
      -0.43935898,
      -0.14591141,
      0.31266776,
      0.27660048,
      0.029791988,
      0.15088774,
      0.13716051,
      0.2318549,
      -0.035440657,
      -0.45209187,
      0.29424706,
      0.23496641,
      -0.030985603,
      0.20425363,
      0.17616801,
      0.08437757,
      -0.05497174,
      -0.03394619,
      -0.020844009,
      0.31646094,
      0.17973211,
      -0.059438888,
      -0.25684142,
      0.37302577,
      -0.20929971,
      0.33446068,
      0.18780735
    ],
    [
      0.19316997,
      0.21587896,
      0.20850971,
      -0.24532789,
      0.14821196,
      -0.22735761,
      0.1108246,
      0.15914905,
      0.04089266,
      -0.13300997,
      0.19910538,
      -0.058990907,
      0.10899927,
      0.30349103,
      0.3497026,
      -0.29381976,
      -0.0023629384,
      0.014035859,
      -0.53686273,
      0.07183107,
      0.27461752,
      0.33731577,
      0.2356812,
      0.06831824,
      0.32820737,
      0.15408124,
      -0.22476119,
      0.04133351,
      0.03774721,
      0.37193996,
      0.12475282,
      0.17197706,
      -0.08260702,
      -0.51228994,
      -0.15767248,
      0.13156256,
      0.2325298,
      0.05642935,
      0.19885698,
      0.07043091,
      -0.0366744,
      0.01874736,
      -0.051165164,
      -0.07158151,
      -0.32700834,
      0.3116759,
      0.029848121,
      -0.60376745,
      0.084919915,
      -0.069442384,
      0.30524695,
      -0.15096495,
      -0.1126445,
      -0.017481364,
      0.1255749,
      -0.19142023,
      -0.031671323,
      -0.10554245,
      -0.0056463755,
      -0.37253562,
      0.09205213,
      0.14107126,
      -0.13976853,
      0.14113416,
      -0.24342035,
      0.22750401,
      0.08076903,
      -0.25074154,
      0.26689893,
      0.0049176887,
      -0.43244088,
      0.061819043,
      0.019589359,
      0.043604076,
      0.24102828,
      0.34576204,
      0.030186027,
      0.27992022,
      0.032229852,
      -0.10304147,
      0.35933605,
      0.06245324,
      0.24440382,
      -0.30674082,
      -0.029018495,
      0.26047373,
      0.1689265,
      0.2503033,
      0.06410906,
      0.12820347,
      0.2885345,
      -0.11696486,
      0.18136041,
      0.3328801,
      -0.079823285,
      0.10668916,
      -0.20975365,
      0.3051783,
      0.25825092,
      0.28657365,
      0.29101634,
      -0.27123502,
      0.1780152,
      0.17800312,
      0.020208504,
      -0.18241966,
      0.21232866,
      0.33339953,
      -0.054757044,
      0.15238518,
      -0.27835435,
      0.23607789,
      0.13620728,
      0.2593874,
      0.19807114,
      -0.1512313,
      0.014944354,
      -0.12336448,
      -0.019705124,
      0.31138694,
      0.116416186,
      0.11984292,
      0.23817013,
      0.003964098,
      0.18779711,
      -0.05837765,
      0.22613557,
      0.1326759
    ],
    [
      0.21454935,
      0.20985217,
      0.1828515,
      -0.118344836,
      0.24641268,
      -0.19322293,
      0.18786116,
      0.24439919,
      0.115068786,
      0.15936588,
      0.22606601,
      -0.111221515,
      0.25362086,
      0.18769626,
      0.051607437,
      -0.27027273,
      0.3442842,
      -0.053270854,
      -0.46735647,
      0.095190935,
      0.070736125,
      0.05787715,
      0.16118406,
      0.21226607,
      0.34398758,
      -0.08616464,
      -0.19834149,
      0.10913534,
      0.25165838,
      0.1455318,
      0.3069899,
      0.012513735,
      0.16175355,
      0.03698777,
      -0.17996587,
      0.057363857,
      0.12261858,
      -0.1871824,
      0.20928438,
      0.1366533,
      -0.03719669,
      -0.09353974,
      0.09008203,
      -0.050207052,
      -0.47599667,
      -0.0454121,
      0.12738857,
      -0.60858595,
      0.028245647,
      0.09461699,
      0.17090952,
      0.18687132,
      -0.07399199,
      0.14078252,
      0.037186578,
      -0.2888727,
      0.12395691,
      -0.19608586,
      -0.102914944,
      -0.24692318,
      -0.14483342,
      0.28109363,
      0.19010216,
      0.036601644,
      0.1361592,
      0.20155208,
      0.094425365,
      -0.34764197,
      0.3428949,
      0.22075544,
      -0.2649118,
      0.15309444,
      0.123105936,
      0.12947583,
      0.11062199,
      0.097966775,
      0.052711856,
      0.3014321,
      0.010512452,
      -0.19262658,
      0.21173094,
      -0.12055413,
      0.1306825,
      0.12177336,
      -0.05055299,
      0.19304924,
      0.11309129,
      -0.16003795,
      0.16587457,
      0.40938845,
      0.24576706,
      0.072375655,
      0.50541854,
      0.16187724,
      -0.3697461,
      -0.033625897,
      -0.45061114,
      0.32458037,
      0.30740103,
      0.21754037,
      0.27424344,
      -0.2688,
      0.020923508,
      0.22194992,
      0.30402964,
      -0.2849798,
      0.030687511,
      0.18738058,
      0.10916754,
      0.5060886,
      -0.42621538,
      0.16885863,
      0.06231492,
      0.0015565599,
      -0.019834848,
      -0.20607166,
      0.038440116,
      -0.07020237,
      0.017731005,
      -0.16470963,
      -0.031120418,
      0.14865045,
      -0.11096601,
      -0.116551794,
      0.1363087,
      -0.1183656,
      0.019580018,
      0.21169461
    ],
    [
      -0.00015186598,
      0.151884,
      -0.018197713,
      -0.06640694,
      0.14504497,
      -0.056516543,
      -0.077270195,
      0.027582351,
      -0.09189919,
      0.13574152,
      0.009611842,
      -0.005426156,
      -0.043232758,
      -0.016941989,
      -0.005186144,
      -0.17449999,
      0.0043697264,
      0.08057502,
      0.093312845,
      -0.19899052,
      -0.159708,
      -0.24643083,
      0.056922648,
      0.04324114,
      0.20592058,
      0.028515775,
      0.1760501,
      0.07697967,
      0.04732989,
      0.09669908,
      -0.13185261,
      0.03511123,
      -0.12402129,
      -0.121070094,
      -0.07356522,
      -0.045536596,
      0.048404153,
      -0.08256742,
      0.14887019,
      0.038556743,
      0.058738504,
      0.29028946,
      0.026202975,
      0.122071594,
      -0.12726058,
      0.07357254,
      0.120705724,
      -0.096869916,
      0.019848552,
      0.11800614,
      0.13778745,
      -0.14864485,
      -0.14646703,
      -0.053027645,
      0.07223446,
      -0.07169166,
      0.11082008,
      -0.039360646,
      0.15731707,
      0.089610435,
      -0.05148001,
      -0.06952668,
      -0.099530846,
      0.070906326,
      0.15619695,
      0.023232756,
      0.09018518,
      -0.21659766,
      0.044429284,
      -0.055326045,
      -0.338745,
      -0.081961244,
      -0.21466032,
      0.012811471,
      0.19456892,
      0.15241076,
      -0.14060453,
      -0.10663654,
      0.030460063,
      0.17409049,
      -0.15334281,
      -0.053447343,
      -0.112306274,
      -0.09095881,
      -0.102706,
      0.005966783,
      -0.28071514,
      -0.07893906,
      -0.2080568,
      -0.006751798,
      0.029982489,
      0.14449064,
      -0.37643638,
      0.12543665,
      0.15418679,
      -0.023686014,
      0.05287875,
      0.076491594,
      0.06009992,
      -0.17274442,
      -0.06331607,
      -0.20409392,
      -0.12231367,
      0.017085563,
      -0.059450377,
      0.048525445,
      -0.19411916,
      -0.07483018,
      0.04049202,
      -0.01065068,
      -0.12712169,
      -0.07844088,
      -0.05889434,
      -0.040496107,
      -0.080447555,
      -0.3097906,
      -0.08792515,
      0.05056972,
      -0.12489745,
      -0.3575056,
      -0.010834096,
      0.11062682,
      -0.055121843,
      -0.044212602,
      -0.090625,
      0.08393793,
      -0.03335602,
      0.09836037
    ],
    [
      -0.06471545,
      -0.21288264,
      -0.18015516,
      -0.068867594,
      0.010561195,
      0.0144792665,
      0.00551738,
      0.04775169,
      -0.25960895,
      -0.11336142,
      0.0942426,
      0.0072204974,
      -0.034436285,
      0.009461811,
      0.007484355,
      -0.1573765,
      -0.14554122,
      -0.09917486,
      0.10340321,
      -0.037663314,
      -0.0036589622,
      -0.08371238,
      0.06429167,
      -0.09413817,
      -0.20186064,
      -0.11902761,
      0.0039089806,
      0.2899707,
      0.10524615,
      -0.14000581,
      0.056711957,
      -0.1962978,
      -0.14243968,
      0.19267489,
      -0.025045583,
      -0.09413418,
      -0.14999095,
      -0.014455429,
      -0.22098172,
      0.075860195,
      -0.057165172,
      -0.11272906,
      0.0772736,
      0.047460817,
      0.08875512,
      0.09586635,
      0.08328077,
      0.114245586,
      0.01581625,
      0.080627,
      0.060184687,
      -0.05912539,
      -0.12005456,
      -0.07800985,
      -0.050749,
      -0.0028779411,
      -0.28349406,
      -0.11252847,
      -0.14605297,
      -0.00044890403,
      0.17810027,
      0.20078094,
      0.13378716,
      -0.036794446,
      0.059835207,
      0.046299428,
      -0.093957774,
      0.23382007,
      0.014217593,
      -0.12155121,
      -0.14336653,
      -0.25627398,
      -0.02100746,
      -0.11756917,
      0.020692676,
      -0.029445224,
      0.21414384,
      0.0036161575,
      -0.021420836,
      0.0053057135,
      -0.064165644,
      0.14437956,
      -0.036500268,
      0.058363542,
      0.0645917,
      0.13039711,
      -0.0061677378,
      0.010262366,
      -0.1094824,
      -0.21837239,
      0.018334325,
      -0.10052147,
      -0.07637694,
      0.011360707,
      -0.3285539,
      0.04142169,
      -0.055139724,
      0.18371186,
      0.022128107,
      0.106342345,
      -0.20556718,
      -0.17353678,
      -0.2180677,
      -0.025838286,
      -0.1781751,
      -0.26185814,
      0.026440429,
      -0.027605295,
      -0.05967981,
      -0.121404834,
      0.2390482,
      -0.1021827,
      -0.08711742,
      0.23710859,
      0.04065491,
      0.15467761,
      -0.09567736,
      -0.056078795,
      -0.08224295,
      -0.33020648,
      -0.10425487,
      0.05932114,
      0.10114178,
      -0.069058776,
      -0.016392136,
      0.050601278,
      0.009007601,
      0.035333384
    ],
    [
      0.20229988,
      0.3064533,
      0.122637086,
      -0.14106005,
      0.057375245,
      -0.39522764,
      0.04673774,
      0.31319022,
      0.19563556,
      0.1357758,
      0.30430394,
      0.040159546,
      0.23227252,
      0.072119944,
      0.16358402,
      -0.3198844,
      0.33839566,
      -0.20021346,
      -0.3500153,
      0.049855266,
      0.15791202,
      0.018286625,
      0.087445684,
      -0.020811519,
      0.13964902,
      0.0025042035,
      0.007831917,
      -0.13678546,
      0.17861827,
      0.24698651,
      -0.05349535,
      -0.18979894,
      0.24560735,
      -0.33796036,
      -0.02739049,
      -0.03894246,
      0.22514382,
      0.09512818,
      0.098255254,
      0.10207815,
      -0.03555648,
      -0.07835967,
      0.109558046,
      -0.17355329,
      -0.16971456,
      -0.06596933,
      0.092443585,
      -0.59785175,
      0.07267889,
      0.22271895,
      0.24819726,
      0.13699904,
      0.1606023,
      0.35334307,
      0.35012436,
      -0.61575276,
      0.09208785,
      -0.027456569,
      0.08225433,
      -0.27616414,
      -0.08625739,
      0.23569804,
      -0.02840002,
      -0.01888372,
      -0.10081044,
      0.22456086,
      0.37829995,
      -0.08666901,
      0.16903584,
      0.16564545,
      -0.4806758,
      0.23724374,
      0.026048828,
      0.068435356,
      -0.21406232,
      0.27003226,
      0.22075886,
      0.20718744,
      0.11830118,
      -0.058043677,
      0.11097207,
      -0.020601286,
      0.2749738,
      -0.13771324,
      0.16579488,
      0.5041944,
      0.3260749,
      0.2699731,
      -0.055788595,
      0.29894048,
      0.107505724,
      -0.06563712,
      0.045870803,
      0.31906122,
      -0.18610261,
      0.14170957,
      -0.40105152,
      0.033734813,
      0.06342005,
      0.07138493,
      0.24771832,
      -0.4190583,
      -0.123240374,
      0.10029278,
      -0.0315255,
      0.076180644,
      0.13574155,
      0.30675614,
      0.16056283,
      0.2637964,
      -0.38669848,
      0.34120634,
      -0.031018052,
      0.15526332,
      -0.022721019,
      0.20920509,
      0.13046487,
      0.0761432,
      0.09356558,
      0.18108536,
      0.0041067866,
      0.43893436,
      0.08932017,
      -0.2993354,
      0.1958593,
      -0.04409925,
      0.0011749074,
      0.10850849
    ],
    [
      0.3335113,
      0.09109545,
      0.1491819,
      0.015319685,
      0.10179455,
      0.19191206,
      -0.012031049,
      0.06916937,
      0.21410455,
      0.12643762,
      -0.034649633,
      0.052507296,
      0.05109575,
      0.14343692,
      0.3479562,
      -0.264785,
      0.15024811,
      0.042954106,
      -0.35895705,
      0.2776731,
      -0.04173803,
      0.12235712,
      0.19642664,
      0.047519073,
      -0.009426412,
      -0.006944451,
      -0.01522427,
      0.11127106,
      0.19123909,
      0.22177762,
      0.22620288,
      0.15096217,
      0.16503587,
      -0.16703478,
      -0.55417,
      0.10347501,
      0.0942236,
      0.13112141,
      0.06735439,
      -0.130815,
      0.05836434,
      0.20125099,
      0.23230521,
      -0.030337922,
      0.002826321,
      0.15933672,
      0.23413874,
      -0.1730089,
      0.16089429,
      -0.041635953,
      0.19838314,
      -0.0018595298,
      -0.009253694,
      0.30416808,
      0.28519467,
      -0.48100257,
      0.27482164,
      -0.3240868,
      -0.114075735,
      -0.2451979,
      0.028865626,
      0.45217696,
      -0.03821771,
      -0.042345956,
      -0.07710931,
      0.37706488,
      0.23138963,
      -0.31941238,
      0.52191436,
      0.39038336,
      -0.16124502,
      0.34113762,
      0.043042745,
      0.07401126,
      0.0020812456,
      0.06267857,
      0.056016795,
      0.105794646,
      -0.30295235,
      -0.043963384,
      0.12019001,
      -0.22841308,
      0.35417154,
      -0.026564645,
      -0.1338756,
      0.21156147,
      0.2894731,
      0.16222467,
      -0.1987935,
      -0.04631729,
      0.32906613,
      0.108729415,
      0.09911857,
      0.040674824,
      -0.12210175,
      0.04896197,
      -0.52170503,
      0.13956347,
      0.17877333,
      0.08582701,
      0.03560512,
      -0.17051305,
      0.105741404,
      0.027055979,
      0.17321761,
      0.00401712,
      0.22409613,
      -0.06868122,
      0.11482297,
      -0.076976314,
      -0.10322556,
      0.2732045,
      0.013219988,
      0.016923185,
      0.15224941,
      -0.04815682,
      0.090555884,
      0.24712586,
      0.06928857,
      0.09746676,
      0.3891936,
      0.29190975,
      0.35651225,
      -0.052997157,
      0.10181648,
      -0.34825516,
      0.032569718,
      0.31671712
    ],
    [
      0.4232009,
      0.27470508,
      0.35555887,
      -0.09129127,
      -0.029416293,
      -0.097641096,
      0.009548985,
      0.0790757,
      0.20570838,
      0.05002783,
      0.056667183,
      -0.084912404,
      0.09575033,
      0.28450838,
      0.036108356,
      -0.13701047,
      0.03937079,
      -0.030474298,
      -0.2798232,
      0.11482501,
      0.15985304,
      -0.06440346,
      0.3757097,
      0.016955303,
      0.057826653,
      -0.0062794248,
      -0.30059654,
      0.26114026,
      0.1892685,
      0.052530665,
      0.09467687,
      0.26859346,
