{
  "obs_dim": 4,
  "action_dim": 2,
  "hidden_dim": 64,
  "activation": "ReLU",
  "metadata": {
    "total_steps": 5044112,
    "total_episodes": 20574,
    "final_performance": 245.1692427335472,
    "training_time_secs": 188.218511209,
    "device": "Cpu",
    "environment": "CartPole-v1",
    "algorithm": "PPO (Proximal Policy Optimization)",
    "timestamp": "2025-11-07T00:18:17.315266+00:00",
    "notes": "Modern RL training with orthogonal init and ReLU activation (no obs normalization for inference compatibility). Achieved 245.2 steps/episode in 188.2s (26799 steps/sec)."
  },
  "shared_fc1_weight": [
    [
      0.047836028,
      0.06654271,
      -0.2662137,
      -0.2630135
    ],
    [
      0.34866148,
      -0.07790533,
      0.85831267,
      0.6141693
    ],
    [
      0.037239734,
      0.2110109,
      -0.07396234,
      -0.22107698
    ],
    [
      0.09097261,
      -0.24910691,
      0.109818585,
      0.09568869
    ],
    [
      -0.02468718,
      -0.07429756,
      0.09151703,
      -0.1162998
    ],
    [
      -0.54633796,
      0.037363805,
      0.0074942578,
      0.06526193
    ],
    [
      -0.14329712,
      -0.31142294,
      -1.1769553,
      -0.25662616
    ],
    [
      -0.16569299,
      -0.07433393,
      0.039541848,
      0.1501456
    ],
    [
      -0.0025500148,
      -0.081145994,
      -0.46449345,
      -0.43633333
    ],
    [
      -0.20138076,
      -0.15739405,
      -0.2922592,
      -0.19251741
    ],
    [
      -0.4637568,
      -0.15377517,
      -0.85895354,
      -0.24955662
    ],
    [
      0.008647112,
      0.030798743,
      -0.12256948,
      -0.030601256
    ],
    [
      0.59060216,
      0.2737193,
      1.0902852,
      0.35387835
    ],
    [
      -0.2842507,
      -0.24200425,
      -0.9455459,
      -0.26686236
    ],
    [
      -0.18625866,
      0.20975655,
      -0.5034463,
      0.25637996
    ],
    [
      0.029920172,
      0.45871273,
      -0.0030983903,
      0.059554256
    ],
    [
      0.06940256,
      0.1115121,
      0.46753827,
      0.22699775
    ],
    [
      0.16782139,
      -0.06237524,
      -0.27289516,
      -0.3193071
    ],
    [
      -0.10031872,
      -0.2617069,
      0.09187737,
      -0.24480344
    ],
    [
      -0.017903721,
      0.30791017,
      0.562166,
      0.36792657
    ],
    [
      0.04478171,
      0.060360637,
      0.40028873,
      0.1753597
    ],
    [
      -0.22245581,
      -0.1851841,
      -0.36073074,
      -0.11313697
    ],
    [
      -0.07311191,
      -0.07038678,
      -0.050376922,
      0.16597995
    ],
    [
      -0.032348216,
      0.23262528,
      0.5254858,
      0.50948
    ],
    [
      0.046489652,
      -0.13632372,
      -0.53766346,
      -0.1679938
    ],
    [
      0.012795938,
      -0.049569234,
      0.71921265,
      -0.070511706
    ],
    [
      -0.06220319,
      0.53264654,
      0.42667764,
      0.41064742
    ],
    [
      -0.1527686,
      -0.09795868,
      -0.18278998,
      -0.14210433
    ],
    [
      0.35136282,
      0.10884826,
      -0.13379964,
      0.056307748
    ],
    [
      0.24335505,
      -0.32079577,
      -0.4604449,
      -0.28258863
    ],
    [
      -0.0006681485,
      -0.16739064,
      -0.0052507115,
      0.03233127
    ],
    [
      -0.15424696,
      0.08578056,
      -0.054030485,
      -0.06779784
    ],
    [
      0.004574819,
      -0.15760496,
      -0.17235667,
      -0.27957776
    ],
    [
      0.11409872,
      -0.06854602,
      0.26318812,
      0.35595158
    ],
    [
      0.050227813,
      0.35402536,
      0.8862859,
      0.13124314
    ],
    [
      0.03654249,
      0.0798058,
      0.13368294,
      -0.025987796
    ],
    [
      -0.18042469,
      -0.52346104,
      -0.19412729,
      -0.34715864
    ],
    [
      0.09756098,
      -0.089909025,
      -0.1248256,
      0.12138333
    ],
    [
      -0.06620118,
      0.10462493,
      0.25755525,
      0.2558846
    ],
    [
      -0.07904827,
      -0.30620736,
      -1.3772614,
      -0.25244078
    ],
    [
      -0.15959537,
      0.11140132,
      0.41014263,
      0.1685107
    ],
    [
      -0.10055085,
      -0.05631348,
      -0.020092633,
      0.12505676
    ],
    [
      0.056022417,
      -0.010928259,
      0.16189049,
      0.13633513
    ],
    [
      -0.010698229,
      0.30324814,
      -0.029501302,
      -0.032000817
    ],
    [
      -0.10658938,
      0.039651245,
      0.15310277,
      0.01399697
    ],
    [
      -0.09618555,
      -0.08403671,
      0.059551276,
      -0.124758765
    ],
    [
      0.08152328,
      0.12059527,
      -0.09709256,
      -0.094714284
    ],
    [
      0.06605887,
      -0.21741499,
      -0.3678183,
      0.07770831
    ],
    [
      0.087750874,
      -0.248373,
      -0.06334702,
      0.06964057
    ],
    [
      -0.018263957,
      0.098989174,
      0.3782544,
      0.116867825
    ],
    [
      -0.20845114,
      -0.072305635,
      -0.6026413,
      -0.44606096
    ],
    [
      0.50566494,
      0.37496683,
      1.1188389,
      0.23566988
    ],
    [
      0.21760868,
      0.004207681,
      0.23820321,
      0.31915042
    ],
    [
      0.025983028,
      0.2553398,
      0.119472615,
      0.082576476
    ],
    [
      0.040158134,
      -0.14450103,
      -0.6021292,
      -0.1856354
    ],
    [
      -0.21111646,
      0.18645008,
      -0.3647081,
      -0.21029426
    ],
    [
      0.18626468,
      -0.18074618,
      -0.19602782,
      -0.24617653
    ],
    [
      -0.018647967,
      -0.2276639,
      -1.067,
      -0.17435297
    ],
    [
      -0.2793315,
      0.1944804,
      0.13654247,
      0.31495145
    ],
    [
      -0.113149315,
      -0.13678066,
      -0.18887867,
      -0.056408968
    ],
    [
      0.0346595,
      -0.003408767,
      1.3155171,
      0.091551274
    ],
    [
      -0.22280234,
      -0.30805233,
      -0.5817999,
      -0.14012134
    ],
    [
      0.09719861,
      0.11736534,
      0.047976255,
      -0.3027863
    ],
    [
      -0.05315113,
      0.028421158,
      -0.19702415,
      -0.17479861
    ]
  ],
  "shared_fc1_bias": [
    0.5408799,
    -0.33509257,
    0.75861126,
    0.5886318,
    0.48258445,
    0.00438684,
    -0.33898667,
    0.81620926,
    0.57719064,
    -0.13405724,
    -0.23252091,
    -0.20757759,
    -0.04073406,
    -0.5265616,
    0.719534,
    0.6556821,
    0.38388464,
    -0.4742515,
    0.6617718,
    0.34087515,
    0.3548169,
    -0.4310279,
    0.65127945,
    0.64900124,
    0.37838697,
    0.38006043,
    -0.36361983,
    0.8124758,
    0.01533904,
    0.7397335,
    0.49797243,
    0.67099947,
    0.39985758,
    0.7313936,
    0.07407632,
    0.35300437,
    -0.48027888,
    0.32384646,
    0.79097927,
    -0.37020466,
    0.63763195,
    0.5866598,
    0.34042937,
    0.62348735,
    -0.37655598,
    0.7293284,
    0.7522939,
    0.37681434,
    0.56376266,
    0.33205777,
    0.18481845,
    0.04785329,
    0.63438857,
    0.43288746,
    0.37417844,
    0.67945707,
    0.7838847,
    -0.17753667,
    -0.47112188,
    0.680523,
    -0.26431584,
    -0.50451976,
    0.80478185,
    0.24560866
  ],
  "shared_fc2_weight": [
    [
      -0.047422763,
      0.0393619,
      0.46330646,
      0.47691098,
      0.17999043,
      -0.17561431,
      -0.7784876,
      0.27194655,
      0.10964796,
      -0.007247965,
      -0.29159752,
      -0.18638608,
      -0.14952168,
      -0.33780968,
      -0.06091695,
      0.66315097,
      0.20987026,
      -0.31929892,
      0.10926783,
      0.363187,
      0.10101095,
      -0.58561856,
      0.29422507,
      0.4694453,
      0.12253403,
      0.19307384,
      0.27465707,
      0.5440837,
      0.08937956,
      0.110503264,
      0.25074145,
      0.47087678,
      0.23626322,
      0.3211822,
      0.26941553,
      0.24520965,
      -0.28689545,
      0.12575026,
      0.12274502,
      -0.90687126,
      0.24531864,
      0.40686956,
      0.46201053,
      0.49472097,
      0.06580655,
      -0.009131712,
      0.46283287,
      0.052334376,
      0.6246581,
      0.66740686,
      -0.2868745,
      0.1834319,
      0.520145,
      0.4433357,
      0.1534136,
      0.6240097,
      0.17448747,
      -0.5393663,
      0.10876717,
      0.23854274,
      -0.3621552,
      -0.43158472,
      -0.042931788,
      0.058933698
    ],
    [
      0.27738878,
      0.062043227,
      0.31394723,
      0.1067349,
      0.4444139,
      0.06267419,
      -0.4147731,
      0.095639296,
      0.3114596,
      0.29399702,
      0.21924932,
      0.050616384,
      -0.45826066,
      -0.34275112,
      0.29807264,
      0.04539199,
      -0.18316676,
      0.013299565,
      0.0630633,
      0.19621636,
      0.24760936,
      -0.63281333,
      0.37142923,
      0.04121516,
      0.51674086,
      0.028710274,
      -0.23540935,
      0.39495993,
      0.34745827,
      0.5963915,
      0.1331201,
      0.23507781,
      0.23221172,
      0.5370473,
      -0.14775753,
      0.42223278,
      -0.26369786,
      0.24001366,
      0.42997506,
      -0.105087675,
      0.4800167,
      0.008488386,
      0.106512055,
      0.2723177,
      0.092293955,
      0.096103616,
      0.6941788,
      0.13692974,
      0.06933466,
      -0.12792103,
      0.04788106,
      -0.27368513,
      0.09915518,
      0.2635692,
      0.7042106,
      0.26265332,
      0.28276893,
      0.36220798,
      -0.239066,
      0.16266613,
      -1.0815116,
      -0.4081582,
      0.19960722,
      0.2690848
    ],
    [
      0.032327604,
      0.0019812207,
      0.37275633,
      0.38814622,
      0.4115134,
      -0.18533368,
      -0.31201693,
      0.1991271,
      0.4179046,
      0.1071875,
      0.16529332,
      0.22641662,
      0.1751205,
      -0.32221454,
      0.259658,
      0.2078873,
      0.28023893,
      -0.38250607,
      0.42719635,
      0.064063504,
      0.032563027,
      -0.82611513,
      0.10559822,
      0.25624102,
      0.52148384,
      0.3641586,
      -0.3869768,
      0.23007408,
      -0.24908835,
      0.65574336,
      -0.23091942,
      0.6232917,
      0.61431843,
      0.3821974,
      -0.17583176,
      0.27115044,
      -0.63901687,
      0.06280876,
      0.426957,
      -0.39663112,
      0.24010108,
      0.44444725,
      0.3277028,
      0.2574395,
      -0.20404187,
      0.33042154,
      0.25281024,
      0.20352115,
      0.38384917,
      0.15201394,
      0.16540623,
      -0.3733494,
      0.27547476,
      0.06320688,
      0.27810976,
      0.3650223,
      0.22692728,
      0.25064316,
      -0.49757984,
      0.26380527,
      -0.9898708,
      -0.34433165,
      0.43840453,
      0.28265163
    ],
    [
      0.121178515,
      -0.34608412,
      0.0969455,
      0.046560127,
      0.3608137,
      0.10910542,
      -0.74328285,
      0.34245512,
      0.1187896,
      -0.015476861,
      -0.51303566,
      -0.12550677,
      0.020941155,
      -0.31557512,
      -0.01790916,
      -0.023870828,
      0.34505782,
      -0.35648188,
      0.15910618,
      0.23071256,
      0.76226526,
      -0.42046812,
      0.33321697,
      0.4066647,
      0.2497872,
      0.48923188,
      -0.24196434,
      0.41154674,
      0.16990207,
      0.24463464,
      0.16992143,
      0.29758292,
      -0.00473681,
      0.33826354,
      0.25059062,
      0.4970871,
      -0.29610592,
      0.32448927,
      0.46586186,
      -0.6158144,
      0.04923132,
      0.255004,
      0.6427479,
      0.38276276,
      -0.09570075,
      0.29142767,
      0.19419299,
      -0.33227366,
      0.48583844,
      0.32336542,
      0.062251724,
      0.21359588,
      0.17893527,
      0.21224122,
      -0.059747502,
      0.5030764,
      0.2091853,
      -0.18560007,
      -0.027154697,
      0.35488552,
      -0.2788933,
      -0.35106906,
      0.55643374,
      0.37211367
    ],
    [
      -0.08374561,
      -0.032620605,
      -0.14987978,
      -0.35685614,
      0.24138062,
      -0.015285359,
      -0.10138453,
      0.08535926,
      -0.0033078603,
      0.19449107,
      -0.22579238,
      -0.14635603,
      0.17668208,
      -0.059571926,
      0.07490431,
      0.004213206,
      -0.22792977,
      0.2658347,
      -0.05650266,
      -0.29980576,
      -0.060178455,
      -0.14653605,
      -0.28938532,
      0.2783184,
      0.14220057,
      -0.01990009,
      0.14554091,
      0.0036769905,
      0.062715895,
      -0.12556663,
      0.010824075,
      -0.035442796,
      -0.11270928,
      0.06543452,
      0.14353393,
      -0.39105806,
      -0.22727719,
      -0.30978447,
      0.060677905,
      0.12771359,
      -0.11852894,
      0.15013036,
      -0.3071557,
      -0.046762213,
      -0.23394823,
      0.1593695,
      0.19780624,
      -0.109873585,
      0.016530005,
      -0.014113428,
      -0.17454547,
      -0.25486067,
      -0.16293927,
      -0.09679414,
      0.027928812,
      -0.054422993,
      -0.17138141,
      0.17056584,
      -0.08726308,
      -0.15109137,
      0.13054073,
      -0.46640423,
      -0.05833629,
      -0.2559679
    ],
    [
      0.35558847,
      0.027934901,
      0.20776711,
      0.34209108,
      0.5665099,
      -0.08292507,
      -0.3040459,
      0.18119766,
      0.71974224,
      0.16018319,
      0.445347,
      -0.15038949,
      -0.005863648,
      -0.08426847,
      0.10670879,
      0.31843078,
      -0.19715618,
      -0.21344124,
      0.41873872,
      -0.009003027,
      0.15244816,
      -0.33283138,
      0.46994817,
      0.075791635,
      0.4798444,
      -0.06910338,
      -0.28627127,
      0.44536915,
      -0.0033887809,
      0.30621788,
      0.06434816,
      0.118699886,
      0.22544014,
      0.1095702,
      -0.4975453,
      0.015289387,
      -0.26322842,
      -0.09158561,
      0.18232511,
      -0.096623294,
      0.023423715,
      0.042478036,
      -0.020947559,
      0.38331494,
      0.13943453,
      0.7581639,
      0.17281045,
      0.5086907,
      0.1647996,
      0.19165462,
      0.22310035,
      -0.6179968,
      -0.16658466,
      0.21403515,
      0.22819377,
      0.51409173,
      0.26099485,
      0.34368283,
      -0.1695065,
      0.4406662,
      -0.64907616,
      -0.29083872,
      0.4108407,
      0.44886455
    ],
    [
      -0.04105687,
      -0.050801754,
      -0.20294526,
      -0.01687597,
      0.010777683,
      0.11817173,
      -0.3357799,
      -0.16017047,
      0.038457345,
      0.07849216,
      -0.059603527,
      0.19305485,
      -0.21837917,
      0.032319408,
      0.19954123,
      -0.066898204,
      0.2178398,
      0.023544699,
      -0.16632327,
      0.26529437,
      -0.035093706,
      0.14372511,
      -0.3374652,
      -0.37666926,
      0.2204526,
      -0.048422765,
      0.17446063,
      -0.023620434,
      -0.25757122,
      -0.4507814,
      -0.113727435,
      0.12603372,
      -0.23693462,
      -0.106221035,
      -0.014812176,
      0.06875668,
      0.039025407,
      -0.26766646,
      0.21112843,
      -0.01930723,
      -0.17846937,
      0.1971675,
      0.13829614,
      -0.22448371,
      0.0593812,
      -0.08891039,
      -0.44360003,
      0.18205786,
      -0.16061807,
      -0.08515709,
      -0.0759142,
      -0.053406063,
      0.02012246,
      -0.25208357,
      0.10480508,
      -0.042345114,
      -0.20013091,
      -0.090567484,
      0.2549828,
      0.06675146,
      -0.2270492,
      -0.0432708,
      -0.13840109,
      -0.19941817
    ],
    [
      0.053166237,
      -0.16155274,
      0.4048412,
      0.19901961,
      0.5300169,
      -0.2146305,
      -0.32561687,
      0.18646209,
      0.33353543,
      0.41355792,
      0.31771556,
      0.25374386,
      -0.032012254,
      -0.7598489,
      0.3390708,
      0.31717044,
      0.3060146,
      0.20266284,
      0.15150808,
      -0.14961575,
      0.29758197,
      -0.30975533,
      0.23838006,
      0.030637348,
      0.5596858,
      0.29927415,
      -0.5594534,
      0.5182648,
      0.06813023,
      0.5510099,
      0.30434543,
      -0.00020547517,
      0.021479815,
      0.029623836,
      -0.23563774,
      0.05027984,
      -0.36091113,
      0.43655044,
      0.08410093,
      -0.68552566,
      0.2132602,
      0.25803307,
      0.3014622,
      0.46041083,
      0.030530231,
      0.29144058,
      0.3579331,
      0.3552391,
      0.61382306,
      0.17424841,
      0.11824383,
      -0.33042803,
      0.36239448,
      -0.008542873,
      0.4546633,
      0.29853073,
      0.4525193,
      -0.14521004,
      -0.07928445,
      0.28248414,
      -0.7126339,
      -0.53384435,
      0.5138223,
      0.23829049
    ],
    [
      0.24405587,
      -0.18465984,
      0.28743324,
      0.24597596,
      -0.09448153,
      -0.20324624,
      -0.6184806,
      0.4637549,
      0.36118728,
      0.10609136,
      0.0438414,
      0.2224894,
      0.0010798494,
      -0.41377008,
      0.48077804,
      0.13916226,
      0.37071607,
      -0.35495225,
      0.06232585,
      0.23874506,
      0.2580591,
      -0.32649556,
      0.6550632,
      0.6233633,
      0.3694205,
      0.39212894,
      0.18610759,
      0.24831231,
      0.09545222,
      0.15186533,
      0.3054684,
      0.43654555,
      0.11629668,
      0.35975337,
      0.015658304,
      0.14332749,
      -0.58182937,
      0.3665995,
      0.2996687,
      -0.85533535,
      0.40482637,
      -0.06164888,
      0.23112938,
      0.14404197,
      0.080103286,
      -0.028516164,
      0.2415272,
      -0.073329665,
      0.1935192,
      0.55986917,
      0.16100268,
      0.069904685,
      0.21470127,
      0.5297334,
      -0.28626645,
      0.08699399,
      -0.15202528,
      -0.5326059,
      -0.039760843,
      0.32123476,
      -0.4799174,
      -0.59680283,
      0.46459472,
      -0.032495346
    ],
    [
      -0.17129865,
      -0.034841213,
      0.2425425,
      -0.23247133,
      0.012530722,
      0.03383811,
      -0.06181968,
      -0.18764305,
      -0.301923,
      0.04645167,
      -0.10761715,
      0.069502525,
      -0.34033176,
      0.1825872,
      -0.021076418,
      0.032562807,
      0.103363946,
      -0.27442095,
      0.09165966,
      -0.26539347,
      -0.13770816,
      -0.13565944,
      -0.30513027,
      0.15128425,
      0.0027515222,
      -0.120646045,
      0.24752814,
      -0.06276638,
      0.026243523,
      -0.013211723,
      -0.06800251,
      -0.19459601,
      0.02095277,
      -0.12990212,
      0.26112407,
      0.21374567,
      -0.13343953,
      0.21203999,
      -0.11567027,
      0.18179,
      0.14933504,
      -0.22569078,
      0.17621826,
      -0.23374446,
      0.34094468,
      0.3574132,
      -0.05883082,
      0.35323635,
      -0.0064284657,
      -0.054892704,
      -0.22573718,
      0.04269719,
      0.076402694,
      0.06343279,
      -0.23268142,
      -0.09937823,
      -0.030952323,
      -0.24671665,
      -0.19754021,
      -0.031499278,
      0.12414787,
      -0.14525199,
      0.27106792,
      0.038162213
    ],
    [
      0.14329082,
      -0.09042224,
      0.3723738,
      0.51803887,
      0.44748586,
      -0.4748653,
      -0.79315525,
      0.21470217,
      -0.2072549,
      0.30875778,
      -0.18318093,
      -0.3054217,
      0.13467352,
      -0.5451448,
      0.3903937,
      0.14943688,
      0.4760142,
      -0.3208967,
      0.33055952,
      0.5015021,
      0.22282898,
      -0.22077163,
      0.40428278,
      0.5472253,
      0.13243237,
      0.37614045,
      -0.11194733,
      0.65146965,
      0.061073083,
      -0.01448712,
      0.3235598,
      0.34649423,
      0.024532426,
      0.38637802,
      0.3836565,
      0.33707282,
      -0.41991815,
      -0.0027226727,
      0.28319776,
      -0.5846276,
      0.56103736,
      0.34969112,
      0.3186704,
      0.29511854,
      0.14378485,
      0.36441195,
      0.054279916,
      -0.052392244,
      0.27111796,
      0.10658578,
      0.28715557,
      0.023639748,
      0.59797853,
      0.6562998,
      0.10680225,
      -0.012155064,
      0.2762392,
      -0.32630977,
      -0.04788891,
      0.031883046,
      -0.23505911,
      -0.268851,
      0.285112,
      0.25907502
    ],
    [
      0.22501653,
      0.09478752,
      0.13899693,
      0.40331298,
      0.45762676,
      0.0798676,
      -0.40012005,
      0.6451756,
      0.464178,
      0.26287636,
      0.2581134,
      0.44667104,
      -0.17096916,
      -0.36194292,
      0.15326282,
      0.21762984,
      0.16829194,
      -0.013867573,
      0.7047208,
      -0.27856597,
      0.082503274,
      -0.44672146,
      0.2924063,
      -0.07677531,
      0.25376114,
      0.2195699,
      -0.24634981,
      0.55438346,
      -0.14230572,
      0.21775995,
      0.7836906,
      0.27671382,
      0.44124416,
      -0.11591583,
      -0.23636441,
      0.50844485,
      -0.48069695,
      0.2847396,
      0.18971251,
      -0.076253474,
      0.077760436,
      0.33669877,
      0.35187864,
      0.2897482,
      -0.08832615,
      0.49780363,
      0.5673323,
      0.11966875,
      0.12066052,
      0.049611866,
      0.30975547,
      -0.232943,
      -0.0076480433,
      0.3384626,
      0.43228042,
      0.43478832,
      0.21438573,
      0.41726035,
      -0.3418084,
      0.17120859,
      -0.9692795,
      -0.6761993,
      0.17443335,
      0.26314458
    ],
    [
      0.03379224,
      -0.026069432,
      -0.10455721,
      0.51943564,
      0.5172312,
      -0.021813361,
      -0.57588935,
      0.6317383,
      0.13527969,
      -0.06304969,
      -0.33603948,
      -0.23715629,
      0.23999979,
      -0.8792794,
      0.27010453,
      0.45242694,
      0.6080329,
      -0.5777505,
      0.10672193,
      0.68803704,
      0.5539584,
      -0.25726724,
      0.15442517,
      0.5061918,
      0.15330988,
      0.15896398,
      0.12692517,
      0.26317805,
      0.16299248,
      0.26657838,
      0.2872218,
      0.4695856,
      0.12651716,
      0.33659923,
      0.34835434,
      0.095351644,
      -0.24135369,
      0.59256876,
      0.37528205,
      -0.46073225,
      0.37775487,
      0.2023787,
      0.56408477,
      0.033739895,
      -0.100356124,
      0.10979053,
      0.54943895,
      0.4342855,
      0.1801277,
      0.5737007,
      -0.20966522,
      0.16467184,
      0.2400856,
      0.37677273,
      0.06709248,
      0.046101693,
      0.20069072,
      -0.61556965,
      -0.020809919,
      0.29260266,
      -0.13222808,
      -0.18348484,
      0.4299984,
      -0.04549576
    ],
    [
      0.17388523,
      0.1872201,
      0.24873443,
      0.5546307,
      0.14479594,
      -0.039025087,
      -0.30023485,
      0.12197623,
      0.3552541,
      0.2468396,
      -0.39886823,
      0.210885,
      -0.101188004,
      -0.20395128,
      0.13779552,
      0.03580031,
      0.3575836,
      -0.035183743,
      0.36413884,
      0.6636738,
      0.32480025,
      -0.5971141,
      0.41133115,
      0.32779863,
      0.336714,
      0.5885863,
      -0.22608197,
      0.41863573,
      -0.09086064,
      0.11725612,
      0.09083254,
      0.15234657,
      0.027592866,
      0.050735343,
      0.24476832,
      0.17207351,
      -0.4368945,
      0.5138612,
      0.33921975,
      -0.68837184,
      0.45278087,
      0.30486298,
      0.19630872,
      0.3263176,
      -0.1968073,
      0.57808626,
      0.58231866,
      0.15078887,
      0.51859736,
      0.33470803,
      -0.27288595,
      -0.058848333,
      0.042515013,
      0.55696744,
      -0.034347933,
      -0.002744953,
      0.37368777,
      -0.28096253,
      0.04037178,
      0.32922992,
      -0.34448326,
      -0.15697676,
      0.10864614,
      0.0040659523
    ],
    [
      0.30099258,
      -0.03806848,
      0.6098726,
      0.40832993,
      0.24862318,
      -0.050004337,
      -0.50938505,
      0.07045372,
      0.24463424,
      0.15510134,
      -0.3555189,
      0.24041806,
      -0.05582362,
      -0.3422248,
      0.4895031,
      0.37551907,
      0.29559478,
      0.002319833,
      0.18942675,
      0.26481053,
      0.5071076,
      -0.07801274,
      0.5667606,
      0.31603304,
      0.32908723,
      0.059018802,
      -0.2556236,
      0.28641975,
      0.19916506,
      0.2456675,
      0.46352488,
      0.22908063,
      0.65988034,
      0.35145548,
      0.17614265,
      0.17789729,
      -0.6441977,
      0.13017085,
      0.24195407,
      -0.27307296,
      -0.20292436,
      0.22627689,
      0.16652969,
      0.29516178,
      -0.23600075,
      0.2752347,
      0.4385905,
      0.24948901,
      0.12940626,
      0.16517194,
      -0.11439347,
      -0.048705928,
      0.5310126,
      -0.016733613,
      -0.0193742,
      0.25693682,
      0.15691434,
      -0.1626329,
      -0.23317763,
      0.2751536,
      -0.46928766,
      -0.16597986,
      0.13136843,
      0.40108803
    ],
    [
      0.39178103,
      -0.002129962,
      0.24934055,
      0.3154157,
      0.30689427,
      0.030474171,
      -0.24735348,
      0.64283806,
      0.17781639,
      0.53264767,
      -0.3601925,
      0.031638753,
      0.018264944,
      -0.2020315,
      0.44187683,
      0.10450968,
      -0.021661729,
      -0.032720163,
      0.21275099,
      -0.101365305,
      0.23311508,
      -0.46586096,
      0.23830618,
      -0.025061939,
      0.22341603,
      0.18322602,
      -0.25884458,
      0.2562526,
      -0.011841378,
      0.25320733,
      0.07963365,
      0.3271466,
      0.42436802,
      0.34754607,
      -0.30284172,
      0.52298695,
      -0.11066493,
      0.19040953,
      0.11795697,
      -0.5808748,
      0.27169898,
      0.42666203,
      0.16711324,
      0.3188526,
      -0.23233005,
      0.07466082,
      0.33363748,
      0.62671596,
      0.46099806,
      0.14779055,
      0.01789773,
      -0.25965375,
      0.35476255,
      0.62712693,
      0.27577782,
      0.21438323,
      -0.09703653,
      0.028308945,
      0.001267146,
      0.3327557,
      -0.45001715,
      -0.44868866,
      0.54031163,
      0.59238696
    ],
    [
      0.4299981,
      -0.11100344,
      0.36040574,
      0.48712164,
      0.39427927,
      0.09278277,
      -0.40673837,
      0.37998912,
      0.19723228,
      0.45389926,
      0.14034931,
      -0.06065486,
      -0.34674016,
      -0.59428906,
      0.32952207,
      -0.3647741,
      0.14020595,
      -0.11369216,
      0.5918624,
      0.16344807,
      0.16809073,
      -0.4119621,
      0.32026073,
      0.2810674,
      0.23190928,
      0.4775255,
      -0.13086297,
      0.15982813,
      -0.14731754,
      0.50314224,
      0.30958003,
      0.25461316,
      0.6523366,
      0.36484578,
      -0.023747453,
      0.16390389,
      -0.09039208,
      0.006937427,
      0.18066202,
      -0.4495495,
      0.10748381,
      0.15176089,
      0.26370215,
      0.48247406,
      0.15505296,
      0.22185095,
      0.1195475,
      0.33695802,
      0.31405914,
      0.5685931,
      -0.10600131,
      -0.017745055,
      -0.013547984,
      -0.06866152,
      0.36126673,
      0.27132505,
      0.47768566,
      0.029123196,
      -0.2001613,
      0.12787396,
      -0.38967857,
      -0.5310067,
      0.24347024,
      0.094926335
    ],
    [
      0.014940634,
      -0.054318223,
      0.35638884,
      0.21232902,
      0.35420555,
      -0.12503451,
      -0.5741682,
      0.19804679,
      0.23352022,
      -0.009878186,
      0.07189896,
      0.21700491,
      0.14894857,
      -0.7662973,
      -0.22134164,
      0.17036495,
      0.19198245,
      -0.53456426,
      0.2159147,
      0.45477605,
      0.71482664,
      -0.23744774,
      0.15855205,
      0.47351062,
      -0.31982112,
      0.35804963,
      0.08151951,
      0.0985793,
      0.2217726,
      -0.09972873,
      0.15637241,
      0.41314095,
      -0.133126,
      0.42326802,
      0.48004583,
      0.53061855,
      -0.597704,
      0.25575525,
      0.17924273,
      -1.0775522,
      0.15170015,
      0.48189804,
      -0.07944778,
      0.04305834,
      0.09661345,
      0.11391053,
      0.14382441,
      0.23177195,
      0.30062512,
      0.45198122,
      -0.273431,
      0.37261745,
      0.5204303,
      0.40310314,
      0.05605537,
      -0.017095685,
      0.13948482,
      -0.45749247,
      -0.08563394,
      0.29152212,
      -0.11260327,
      -0.2668895,
      0.24255857,
      -0.075512424
    ],
    [
      0.4123274,
      -0.23325075,
      0.43599018,
      0.20780867,
      0.111073494,
      -0.12316213,
      -0.058187876,
      0.100731574,
      0.27637482,
      0.29710063,
      0.40362433,
      -0.27506375,
      0.020052861,
      -0.02267039,
      0.15736848,
      0.28724304,
      0.58198094,
      -0.15184963,
      0.37561753,
      0.057256933,
      0.42622885,
      -0.37148803,
      0.11521767,
      0.11885832,
      0.52260906,
      0.27881274,
      -0.21907711,
      0.5340554,
      -0.10605805,
      0.17749402,
      0.27963784,
      0.3701356,
      0.43668878,
      0.28109956,
      -0.20892996,
      0.086676575,
      0.0508488,
      0.31443718,
      0.44198817,
      -0.33274034,
      0.046825334,
      0.5793112,
      0.12171354,
      0.2939004,
      0.17324246,
      0.22532064,
      0.73932356,
      0.10467746,
      0.17286463,
      0.12106904,
      -0.09874439,
      0.012803656,
      0.20413947,
      0.25244716,
      0.26277402,
      0.020468267,
      0.27034402,
      0.17197089,
      -0.2796699,
      0.43902805,
      -0.62300444,
      -0.73788,
      0.3458375,
      0.3924929
    ],
    [
      0.21902344,
      -0.15499218,
      0.5051754,
      0.3260985,
      0.3632746,
      -0.39259487,
      -0.1496782,
      0.17343533,
      0.78709894,
      0.3486576,
      -0.07961199,
      -0.033828422,
      -0.26036724,
      -0.20369105,
      0.60838056,
      0.2625825,
      -0.43470934,
      -0.15932831,
      0.38991088,
      -0.041159224,
      0.1640604,
      -0.29942378,
      0.0664615,
      -0.07802327,
      0.4727732,
      0.24960223,
      -0.46201006,
      0.23107803,
      0.10957021,
      0.23117767,
      0.40843055,
      0.42178532,
      0.5639325,
      0.060863152,
      -0.44255063,
      0.009840518,
      -0.19860113,
      0.28338456,
      0.40627784,
      -0.14842282,
      0.19934477,
      0.071956314,
      0.1915038,
      0.051640086,
      -0.14030595,
      0.53082025,
      0.2079741,
      0.15231596,
      0.5762217,
      0.07660685,
      0.20978175,
      0.19473322,
      0.18326439,
      0.3242043,
      0.58589244,
      0.38569912,
      0.5229576,
      0.5153981,
      -0.3960726,
      0.36026785,
      -0.867159,
      -0.563518,
      0.4840131,
      0.004046347
    ],
    [
      0.5120636,
      -0.20142254,
      0.5273903,
      0.3687248,
      0.58210754,
      -0.2709657,
      -0.5503781,
      0.21143357,
      0.2082308,
      -0.1444158,
      -0.14357455,
      -0.11861013,
      -0.07088941,
      -0.49518636,
      0.19319332,
      0.19705535,
      -0.06381736,
      0.11054121,
      0.12718794,
      -0.021303818,
      0.07870185,
      -0.5104418,
      0.36969164,
      0.32380116,
      0.114985354,
      0.42184737,
      -0.21597421,
      0.5242657,
      -0.14681858,
      0.56053543,
      0.22242467,
      0.4024578,
      0.5504911,
      -0.10044911,
      -0.08452223,
      0.14170952,
      -0.27746454,
      0.45340478,
      0.3129707,
      -0.6814955,
      0.0067233117,
      0.49657547,
      0.18020797,
      0.0040108766,
      0.13819492,
      0.26924306,
      0.35233822,
      0.38763243,
      -0.009297865,
      -0.04481116,
      0.14040884,
      -0.107749216,
      -0.09383515,
      0.35342595,
      0.2115497,
      0.10041262,
      0.30456996,
      0.3035416,
      0.03478137,
      0.38925585,
      -0.8643881,
      -0.35861644,
      0.36556873,
      0.1828217
    ],
    [
      0.3290153,
      0.004237117,
      0.4600102,
      0.2854147,
      0.3948099,
      -0.048954688,
      -0.4292925,
      0.5087448,
      0.122774996,
      0.10202651,
      -0.09193547,
      0.21378084,
      0.11637875,
      -0.39379516,
      0.2662084,
      0.23242885,
      0.27045962,
      0.1368681,
      0.47036543,
      0.15687688,
      0.24158005,
      -0.49501687,
      0.18316762,
      0.044810902,
      0.5594365,
      0.21392938,
      -0.20672019,
      0.30214545,
      0.31936723,
      0.07688803,
      0.40768543,
      0.51092947,
      0.47794172,
      0.45151636,
      0.011561505,
      0.34795177,
      -0.17682008,
      0.027037183,
      0.16891296,
      -0.81113136,
      0.5609852,
      0.117295906,
      0.19003509,
      0.31350422,
      0.26349205,
      0.4327116,
      0.48061177,
      0.1456008,
      0.22119655,
      0.123236954,
      -0.09833497,
      -0.24726307,
      0.21890905,
      0.03641927,
      -0.11632615,
      0.39358875,
      0.48727605,
      0.43526602,
      0.038336314,
      0.7014342,
      -0.61215305,
      -0.2932679,
      0.56511813,
      -0.07703653
    ],
    [
      0.30955198,
      -0.15228301,
      -0.25307247,
      0.31707788,
      -0.056427494,
      -0.06916559,
      -0.3114481,
      0.09912936,
      0.39759386,
      -0.18498619,
      0.033966117,
      0.051064257,
      -0.38339734,
      -0.2544202,
      0.392416,
      -0.035800382,
      -0.043807276,
      -0.24510816,
      0.4694534,
      -0.14153376,
      0.050868377,
      -0.38535067,
      0.2868066,
      -0.007753868,
      0.380111,
      0.1532245,
      -0.4260799,
      0.72338855,
      0.15124197,
      0.63832504,
      0.4494352,
      0.1940426,
      0.42701554,
      0.39523795,
      -0.35731855,
      0.14423105,
      -0.47961217,
      -0.08365985,
      0.05356101,
      -0.4057548,
      -0.03168257,
      0.43165678,
      0.25272867,
      -0.034940608,
      0.04620188,
      0.39053708,
      0.53324896,
      0.44018793,
      0.49151072,
      0.06970275,
      0.21044932,
      -0.5191015,
      0.4126448,
      0.26253885,
      0.4324098,
      0.1684177,
      0.59128225,
      0.36354068,
      -0.18910453,
      0.5236689,
      -0.7168644,
      -0.52303356,
      0.44665644,
      0.05608726
    ],
    [
      0.32958663,
      0.23401101,
      0.22247131,
      0.49260402,
      0.49057838,
      -0.042822737,
      -0.82437545,
      -0.02357559,
      0.12896354,
      0.028250925,
      0.10558993,
      0.08667182,
      0.099269554,
      -0.4404322,
      0.26273027,
      0.06538687,
      0.3060735,
      -0.30187732,
      -0.08196123,
      0.22298875,
      0.53300583,
      -0.89171594,
      0.20146683,
      0.43969932,
      0.13662623,
      0.65245014,
      -0.22166258,
      0.09532669,
      0.19248843,
      -0.05625104,
      0.5688829,
      0.09148581,
      0.45592198,
      0.51642,
      0.19846529,
      0.0019827378,
      -0.14248851,
      0.3973174,
      0.18258098,
      -0.40243438,
      0.37476942,
      0.47888204,
      0.29359952,
      0.25214314,
      -0.11318771,
      0.30662534,
      0.30625,
      0.25746492,
      0.3009415,
      0.44470072,
      0.17790689,
      0.051554944,
      0.48362216,
      0.5294186,
      -0.04916972,
      0.45664296,
      0.2580628,
      -0.41383493,
      0.09626287,
      0.590346,
      -0.5156187,
      -0.49075216,
      0.34394065,
      0.21500862
    ],
    [
      0.5604932,
      -0.008843031,
      0.3326139,
      0.2643698,
      0.5067098,
      -0.39718992,
      -0.21894923,
      0.42151466,
      0.39202076,
      0.14534691,
      -0.13997261,
      0.15977758,
      -0.13882639,
      -0.34548107,
      0.30405512,
      0.37790513,
      0.13109745,
      -0.18432862,
      0.36795676,
      0.07399557,
      0.34339097,
      -0.45031494,
      0.47130653,
      0.3122329,
      0.076275595,
      0.30618986,
      -0.109351486,
      0.20844452,
      -0.026161173,
      0.25730628,
      0.2490123,
      0.11319525,
      0.06991344,
      0.20633587,
      -0.3177456,
      0.27071223,
      -0.109514594,
      0.32326838,
      0.4415298,
      -0.23884505,
      0.11747182,
      0.19390441,
      0.41281337,
      0.11412159,
      0.17173345,
      0.041315414,
      0.14338966,
      0.16326706,
      0.4529494,
      0.051553003,
      -0.18510672,
      -0.71038544,
      0.39915952,
      0.22209524,
      0.095899455,
      0.43509272,
      0.6611283,
      0.2695991,
      -0.35450712,
      0.44093227,
      -0.852338,
      -0.694906,
      0.11219638,
      0.23013343
    ],
    [
      -0.24480522,
      0.023020627,
      0.42658117,
      0.43673742,
      0.18875869,
      0.3519937,
      -0.22529572,
      0.2649509,
      0.17157167,
      0.11656673,
      0.26799104,
      -0.11318748,
      0.23372915,
      -0.1322884,
      -0.097271614,
      -0.37956053,
      0.06604764,
      -0.030197538,
      -0.16125745,
      -0.4092496,
      -0.19747573,
      -0.24768588,
      0.274527,
      -0.3440788,
      0.6281247,
      -0.1503595,
      -0.20757723,
      0.024094082,
      -0.006120708,
      0.3001539,
      0.42010972,
      -0.017487654,
      0.06780261,
      0.12613714,
      -0.6584458,
      -0.009591292,
      -0.021598684,
      0.17467475,
      0.16497822,
      0.12868181,
      -0.037271604,
      0.21369201,
      -0.19899282,
      -0.23238905,
      0.05487226,
      0.14622419,
      0.13061564,
      0.31310672,
      0.24276341,
      0.070902154,
      -0.0029148448,
      0.04303049,
      -0.03779785,
      0.05199867,
      0.13955288,
      0.12626643,
      0.45827892,
      1.0687114,
      -0.11058285,
      -0.020489506,
      -0.59787107,
      -0.08960066,
      -0.07223149,
      0.13207956
    ],
    [
      0.24157181,
      0.05796956,
      0.31730142,
      0.23491582,
      0.03096547,
      -0.15868942,
      -0.6540673,
      0.36281335,
      -0.18699339,
      -0.09983942,
      -0.04003754,
      0.10267589,
      0.17407356,
      -0.6901117,
      0.7145852,
      0.16474399,
      0.51569307,
      -0.5989508,
      -0.030412905,
      0.31070736,
      0.38242677,
      -0.20977825,
      0.22178698,
      0.47828054,
      -0.21895537,
      0.5542697,
      -0.09657634,
      0.34739995,
      0.3079243,
      -0.03019521,
      -0.052880693,
      0.36837813,
      -0.08056864,
      0.45862997,
      0.20677002,
      0.19896129,
      -0.5206753,
      0.23920853,
      0.40086144,
      -1.0308139,
      0.38127482,
      0.3329385,
      0.5822365,
      0.26476902,
      -0.15290657,
      0.47834972,
      0.41984436,
      0.19893986,
      0.045835614,
      0.3595572,
      -0.505191,
      0.41294146,
      0.13183415,
      0.528497,
      -0.022749297,
      0.58768827,
      0.3202348,
      -0.55059403,
      -0.005413096,
      0.24532278,
      -0.055271152,
      -0.39676002,
      -0.09471487,
      0.33259326
    ],
    [
      0.5742606,
      -0.06722649,
      0.17250185,
      0.086654775,
      0.11565843,
      0.25199682,
      -0.68519294,
      0.60005164,
      0.08896281,
      0.06043334,
      -0.15087129,
      -0.16772117,
      -0.122496694,
      -0.43076506,
      0.068598405,
      0.45518622,
      0.4001944,
      -0.18700285,
      -0.026176192,
      0.5610844,
      0.46518725,
      -0.38188034,
      0.30971926,
      0.44221184,
      0.24883085,
      0.48563957,
      -0.04730076,
      -0.05789483,
      -0.12878121,
      0.17903824,
      0.33323503,
      0.36604217,
      0.20247562,
      0.14252225,
      0.10832388,
      0.035597406,
      -0.44940776,
      0.106712,
      0.11826188,
      -0.9902342,
      0.40951964,
      0.1389214,
      0.23748302,
      0.1672867,
      0.017866146,
      0.6647156,
      0.38896906,
      0.27468374,
      0.4101627,
      0.22529167,
      0.1597466,
      0.06481106,
      0.59119093,
      0.35130236,
      0.35140443,
      0.25104448,
      0.36119252,
      -0.1751682,
      -0.4353793,
      0.18351087,
      -0.6416775,
      -0.38924852,
      0.20139936,
      0.39390334
    ],
    [
      0.38549423,
      0.11363591,
      0.35463408,
      0.5403671,
      0.10864996,
      -0.062956095,
      -0.47102708,
      0.21126126,
      0.7346854,
      -0.25704294,
      -0.31672353,
      -0.11490253,
      -0.009701503,
      -0.5883138,
      0.45711097,
      0.11041462,
      0.23392525,
      -0.23639683,
      0.16244894,
      -0.032596298,
      0.36722758,
      -0.5516767,
      0.27782992,
      0.30097976,
      0.3192574,
      0.077167444,
      -0.4167845,
      0.3221402,
      0.01460464,
      0.10753531,
      0.33256072,
      0.26160458,
      0.13822076,
      0.1477502,
      0.21120417,
      0.32342413,
      -0.34391862,
      0.32524174,
      0.23717317,
      -0.56620866,
      0.6377273,
      0.41528714,
      0.34399116,
      0.5380279,
      0.34234762,
      0.34802493,
      0.22019103,
      0.1329523,
      0.19380169,
      0.4668609,
      -0.07645165,
      -0.1366924,
      0.33026475,
      0.059307482,
      0.46363488,
      0.064399876,
      -0.038223207,
      0.20674606,
      -0.2501248,
      0.35712358,
      -0.38084927,
      -0.5913782,
      0.21159595,
      0.42774194
    ],
    [
      -0.3638746,
      -0.0070231543,
      -0.11534316,
      0.0044331583,
      -0.1897842,
      0.035575006,
      -0.17375293,
      -0.19027397,
      0.072964564,
      0.2208675,
      -0.026762974,
      -0.014110905,
      0.16903356,
      -0.027889743,
      -0.06643133,
      0.19314688,
      -0.09700669,
      -0.18926501,
      0.14321776,
      0.053610448,
      -0.040593177,
      -0.027659936,
      0.12260103,
      0.030151036,
      -0.023816902,
      0.14908025,
      -0.17120825,
      -0.23084113,
      0.05238683,
      0.054359235,
      0.3672863,
      0.250045,
      0.10257081,
      -0.0063935984,
      0.00535346,
      -0.017490853,
      0.1939846,
      -0.08953794,
      -0.30592912,
      -0.15205465,
      0.07822595,
      -0.045785274,
      0.04221904,
      -0.29004726,
      0.03419151,
      -0.08844192,
      -0.17125049,
      -0.22732241,
      -0.08167215,
      -0.48312873,
      -0.34625244,
      -0.28441903,
      -0.38710177,
      -0.057584032,
      0.24882047,
      -0.058694884,
      -0.042903244,
      -0.3027386,
      -0.07813594,
      0.16017394,
      0.15954909,
      -0.045599792,
      -0.047048137,
      0.2391765
    ],
    [
      0.41406375,
      -0.492683,
      0.016029913,
      0.3605439,
      0.44253212,
      0.058227222,
      -0.17011541,
      0.2292926,
      -0.08468427,
      0.14253224,
      0.16615954,
      0.30713654,
      0.09748376,
      -0.12322165,
      0.4525924,
      0.370672,
      -0.19364145,
      -0.07145505,
      0.27117184,
      0.046192773,
      0.09619737,
      -0.93816555,
      0.57057136,
      -0.007741629,
      0.52257484,
      0.08855376,
      -0.5583778,
      0.299948,
      0.15393238,
      0.2053748,
      0.35914618,
      0.4928594,
      0.26852083,
      -0.18583563,
      -0.15638731,
      0.02523664,
      -0.49691936,
      0.12443037,
      0.27243823,
      -0.16909865,
      0.1924387,
      0.3548407,
      0.19263619,
      0.3381526,
      0.3299322,
      0.08505686,
      0.20079127,
      0.32244506,
      0.32189283,
      0.2774168,
      -0.07330111,
      -0.05236507,
      0.15775463,
      0.21616657,
      0.3444616,
      0.25477743,
      0.48547497,
      0.31825745,
      -0.33524072,
      0.1401939,
      -0.62029165,
      -0.42155653,
      0.3647169,
      0.21047342
    ],
    [
      -0.17429434,
      -0.06168145,
      -0.008318999,
      -0.10616953,
      0.20805787,
      0.019365404,
      -0.032041784,
      0.2825022,
      -0.023817526,
      -0.27505213,
      -0.0439202,
      0.20646921,
      -0.19395,
      0.049188834,
      -0.0056001833,
      0.110832594,
      0.081927285,
      0.17888457,
      -0.00266171,
      0.1174166,
      0.015729029,
      0.1446943,
      -0.340082,
      -0.13655716,
      -0.09092821,
      0.028275045,
      -0.4533901,
      0.13067326,
      0.26246792,
      0.09371306,
      -0.21504542,
      -0.09285267,
      0.32516018,
      0.06266261,
      -0.28214502,
      -0.13401082,
      0.22558872,
      -0.09982759,
      -0.116227716,
      0.09282454,
      -0.021289358,
      -0.01490779,
      -0.12154057,
      -0.15718003,
      0.3508032,
      0.15872253,
      -0.16609293,
      -0.35294035,
      -0.027191242,
      0.28036556,
      -0.034882482,
      -0.13068585,
      -0.01768583,
      0.29240543,
      -0.06506983,
      -0.13269554,
      -0.27396226,
      -0.19737588,
      -0.19880985,
      -0.12105561,
      -0.051067892,
      0.04200898,
      -0.27408174,
      -0.0294232
    ],
    [
      0.07885012,
      0.17032802,
      -0.015721763,
      0.15000878,
      -0.068298995,
      0.13891695,
      -0.011859459,
      0.023021761,
      -0.0583883,
      -0.17410883,
      0.22987531,
      -0.32082587,
      -0.048438724,
      -0.30583224,
      0.13059418,
      0.027325086,
      0.057468303,
      0.11063791,
      0.44581786,
      0.075163364,
      0.15895115,
      -0.36997712,
      -0.0709021,
      -0.12554882,
      0.2398767,
      -0.32937574,
      -0.10042951,
      0.12688123,
      0.053086143,
      -0.09285411,
      -0.11774416,
      -0.30320296,
      -0.018626854,
      -0.06241198,
      0.19560978,
      -0.052398942,
      0.05403576,
      0.018448263,
      -0.055335138,
      -0.2645423,
      -0.22408599,
      -0.25011498,
      -0.08520516,
      -0.27198112,
      -0.26123157,
      -0.23990804,
      -0.28950807,
      -0.018794745,
      0.16938347,
      -0.2839062,
      -0.11887912,
      0.19115849,
      -0.025331434,
      0.18851535,
      -0.25733188,
      0.11315581,
      -0.14630352,
      0.08822516,
      -0.18680164,
      -0.12808388,
      -0.079323456,
      -0.10199273,
      -0.057543017,
      0.026155803
    ],
    [
      0.064128056,
      -0.11118155,
      0.40749538,
      0.3849076,
      0.24865353,
      -0.03356852,
      -0.21842332,
      0.5250704,
      0.32505214,
      0.15482846,
      0.13235919,
      0.107075796,
      -0.09679989,
      -0.055869594,
      0.18216406,
      -0.026596509,
      -0.13802835,
      0.08545616,
      0.5063745,
      -0.15463385,
      0.0557499,
      -0.27593845,
      0.16128606,
      0.44011584,
      0.5080818,
      0.25355458,
      -0.47326392,
      0.21855782,
      0.07302029,
      0.39113307,
      0.3161922,
      0.2441839,
      0.027379356,
      0.23208018,
      0.058667216,
      -0.20574324,
      -0.11035662,
      0.21012177,
      0.26768634,
      -0.31766784,
      0.11834134,
      0.32034296,
      0.5873337,
      0.32443184,
      0.18400033,
      0.17870468,
      0.36687526,
      0.5718568,
      0.25709388,
      -0.1549946,
      0.31940407,
      -0.06580104,
      0.22280915,
      0.17652479,
      0.34143132,
      0.40384293,
      0.019047314,
      0.2696488,
      -0.37240905,
      0.66812396,
      -0.80325794,
      -0.13232657,
      0.057749987,
      0.14516157
    ],
    [
      0.22780886,
      -0.06430941,
      0.32087085,
      0.37612334,
      0.09461095,
      -0.1538541,
      -0.40212592,
      0.41567928,
      -0.021015452,
      -0.022343814,
      -0.16596374,
      0.1602208,
      -0.024677498,
      -0.5704858,
      0.4662706,
      0.46734133,
      0.39486864,
      -0.2853813,
      0.27733293,
      0.4069988,
      0.18372837,
      -0.36602747,
      0.13335091,
      0.6578812,
      0.30272332,
      0.16342922,
      -0.0075844997,
      -0.1450099,
      0.039546534,
      0.4947875,
      0.35004684,
      -0.10764938,
      -0.011650837,
      0.2704394,
      0.23137034,
      0.38511038,
      -0.28569314,
      0.031828333,
      0.18569094,
      -0.43446168,
      0.24951157,
      0.64084953,
      0.025564807,
      0.23577878,
      -0.01172596,
      0.36548346,
      0.22738923,
      -0.14991505,
      0.39231813,
      0.44762665,
      -0.13002971,
      0.29477674,
      0.105228975,
      0.40774307,
      0.21355936,
      0.2304463,
      0.24377741,
      -0.10754657,
      0.38356516,
      0.474271,
      -0.6926607,
      -0.30423737,
      0.44919494,
      0.4353524
    ],
    [
      -0.08843183,
      -0.2464954,
      -0.300918,
      -0.012368009,
      -0.049521346,
      -0.14897735,
      -0.13635077,
      -0.15874858,
      -0.0560748,
      0.16499645,
      0.029982276,
      -0.22526999,
      0.18376347,
      -0.10640378,
      -0.07635329,
      -0.06531714,
      0.119431056,
      0.161469,
      0.1602852,
      -0.16789496,
      -0.35117105,
      0.11874121,
      0.26896578,
      -0.44659814,
      -0.27241382,
      -0.18982053,
      -0.0012991974,
      -0.45356342,
      0.18019152,
      -0.0570121,
      -0.26511043,
      -0.12883525,
      0.22244634,
      -0.100945495,
      0.33460212,
      0.002250879,
      -0.03696044,
      0.124719575,
      0.36498398,
      -0.05810223,
      -0.067357324,
      -0.15943912,
      -0.004957061,
      -0.0147029385,
      0.08930538,
      0.19243217,
      0.15804102,
      -0.101344794,
      0.11923438,
      0.15728395,
      0.042865008,
      -0.08222107,
      0.09875667,
      0.07018364,
      0.10452741,
      0.013148275,
      -0.12662987,
      -0.04028686,
      0.014494476,
      0.31478968,
      -0.19868146,
      -0.08337991,
      -0.14155038,
      0.027013708
    ],
    [
      0.44977337,
      0.20310803,
      0.6422464,
      0.13585529,
      0.45570412,
      0.21268712,
      -0.26178265,
      0.28565055,
      0.18070897,
      0.060204305,
      0.15841281,
      -0.100918986,
      -0.15907323,
      -0.3182007,
      0.12258347,
      0.3727642,
      0.11577581,
      -0.029992878,
      0.28821805,
      0.06601873,
      -0.1787987,
      -0.3629357,
      0.28687394,
      0.13996649,
      0.17698278,
      0.25159094,
      -0.47015962,
      0.33646607,
      0.06175936,
      0.010884456,
      0.33146116,
      0.17903937,
      0.26475105,
      0.32972285,
      -0.16826582,
      0.17600845,
      -0.59998417,
      0.030156635,
      0.39416528,
      -0.33094144,
      0.39195678,
      0.2274087,
      0.63572747,
      -0.059538137,
      -0.2844097,
      0.008669869,
      0.35503858,
      0.073491335,
      0.48872963,
      0.4492918,
      0.20780872,
      -0.16132785,
      -0.002239087,
      0.09439356,
      0.32551387,
      -0.107381485,
      0.392477,
      0.13063996,
      -0.13549057,
      0.5818907,
      -0.43850824,
      -0.38305092,
      0.40347043,
      0.36692694
    ],
    [
      -0.0865565,
      0.12392423,
      0.45022532,
      0.17578779,
      0.3166744,
      -0.1275712,
      -0.4733784,
      0.19169831,
      -0.09975709,
      -0.13320151,
      -0.27381158,
      -0.10346303,
      -0.27313542,
      -0.28715342,
      0.27246144,
      0.31497326,
      0.41462398,
      -0.23835897,
      0.5664423,
      0.31025812,
      0.82661724,
      -0.33599517,
      0.3582437,
      0.030160999,
      0.076118946,
      0.27175504,
      -0.15129888,
      -0.056326956,
      -0.1175462,
      0.35986906,
      0.33605596,
      0.37868485,
      0.122842774,
      0.32777327,
      0.07392815,
      -0.13414827,
      -0.71122295,
      0.2571469,
      0.30866098,
      -0.70297223,
      0.48455024,
      0.38315082,
      0.29772615,
      0.53147686,
      -0.032731067,
      0.05355978,
      0.22149524,
      0.22122157,
      -0.027088718,
      0.40016836,
      0.10053024,
      -0.0922396,
      0.22881275,
      0.6606175,
      0.22791068,
      0.38307342,
      0.27632663,
      -0.13572843,
      0.10972365,
      0.35421592,
      -0.327404,
      -0.57770383,
      0.38006178,
      0.07098575
    ],
    [
      0.1919813,
      0.3193631,
      0.26533675,
      -0.09359588,
      0.13291955,
      -0.15085657,
      -0.86905515,
      0.26098463,
      0.09010405,
      0.047359318,
      -0.29834017,
      0.13544878,
      0.4247303,
      -0.59560066,
      0.15326574,
      0.2549811,
      0.5218201,
      -0.5143382,
      0.05846597,
      0.8461393,
      0.18924665,
      -0.24951981,
      0.27089396,
      0.5798222,
      0.005346373,
      0.26302215,
      -0.49648204,
      0.21870176,
      -0.18673083,
      0.40841973,
      0.31556383,
      0.23501898,
      0.16889745,
      0.2068985,
      0.3439894,
      0.39581117,
      -0.28730494,
      0.17699233,
      0.34093615,
      -0.62013096,
      0.3213211,
      0.12916811,
      0.3056038,
      0.5397095,
      0.09515637,
      0.038774554,
      0.37369603,
      0.36026794,
      0.38038698,
      0.2625271,
      -0.08186049,
      0.3789192,
      0.4749354,
      0.54509103,
      -0.18966235,
      0.23885663,
      0.19424213,
      -0.253338,
      0.05056384,
      0.41132334,
      -0.04141013,
      -0.7623157,
      0.13742933,
      -0.14845796
    ],
    [
      0.022644954,
      0.1481995,
      0.27521136,
      0.067060746,
      0.37582874,
      -0.12026313,
      -0.63708633,
      0.4038871,
      0.16454011,
      0.0889611,
      -0.18245357,
      0.028761653,
      -0.054739777,
      -0.42630157,
      0.33799058,
      0.46673068,
      0.39570665,
      -0.4459901,
      0.16417912,
      0.323051,
      0.25867566,
      -0.5616445,
      0.91397613,
      0.21566033,
      0.06852728,
      0.30709308,
      -0.04607621,
      0.2106296,
      0.090095915,
      0.11058547,
      -0.014481206,
      0.06449209,
      0.11825959,
      0.48980483,
      0.14387597,
      0.18515751,
      -0.002868754,
      0.3026834,
      -0.15224375,
      -0.7239541,
      0.235625,
      0.6582738,
      0.53947204,
      0.39495552,
      -0.20870805,
      0.47528136,
      0.22499506,
      0.081305765,
      0.037560314,
      0.28529483,
      -0.07606059,
      0.38719073,
      0.40425578,
      0.18033484,
      0.061090823,
      -0.072606504,
      0.18910733,
      -0.118698195,
      -0.21314022,
      0.249127,
      -0.3687128,
      -0.40609437,
      0.41430974,
      -0.22299801
    ],
    [
      0.3730265,
      0.0015094181,
      0.16561751,
      0.08435512,
      0.38463992,
      -0.3598391,
      -0.93580383,
      0.40370247,
      0.26087973,
      -0.15267438,
      -0.044204187,
      0.14733016,
      -0.038731795,
      -0.19306052,
      0.1627619,
      0.2192901,
      0.40614995,
      -0.37142313,
      0.46191782,
      0.10304795,
      0.20329702,
      -0.35064808,
      0.24290395,
      0.5065141,
      0.49196005,
      0.4426201,
      -0.09100124,
      0.19701242,
      0.31983238,
      0.25787672,
      0.35538605,
      0.14241603,
      0.22151154,
      0.016700296,
      0.1680211,
      0.311231,
      -0.13622697,
      0.17780036,
      0.5956364,
      -0.8290004,
      0.45194995,
      0.2971626,
      0.1658494,
      0.45838544,
      -0.49089053,
      0.051779725,
      0.21906666,
      0.21121427,
      -0.013269605,
      0.47020078,
      -0.2955109,
      0.050240923,
      0.56548065,
      0.4969809,
      0.32394016,
      0.07153812,
      0.42387682,
      -0.31908238,
      -0.1656259,
      0.28089267,
      -0.21974191,
      -0.13601932,
      0.2896709,
      0.20434111
    ],
    [
      0.53507465,
      0.10726153,
      0.16586412,
      0.3963432,
      0.59059197,
      -0.008603398,
      -0.10484549,
      -0.011409544,
      0.12278738,
      0.10992544,
      -0.18975751,
      -0.109985754,
      -0.052222513,
      -0.28853595,
      0.15834512,
      0.07783558,
      0.39428043,
      -0.23721074,
      0.2084273,
      0.09998867,
      0.1972907,
      -0.2687514,
      0.38579974,
      0.43001807,
      0.10507446,
      -0.025772497,
      -0.43697032,
      0.17253052,
      0.05347567,
      0.423641,
      0.4822227,
      0.454962,
      0.009644528,
      0.1617189,
      -0.02530351,
      0.39959148,
      -0.20453544,
      0.039368056,
      0.32919228,
      -0.78261054,
      0.5522957,
      0.46428785,
      0.23002207,
      0.03964818,
      -0.16077971,
      0.38635993,
      0.33532444,
      0.05874605,
      0.1414439,
      0.2972819,
      -0.06005529,
      0.12960435,
      0.3718416,
      0.20718695,
      0.016443882,
      0.6071977,
      0.0374016,
      -0.5186442,
      -0.18386838,
      0.17571953,
      -0.58238673,
      -0.44376943,
      0.3240243,
      -0.18665625
    ],
    [
      0.35123137,
      -0.28027308,
      0.1665379,
      0.2880761,
      0.5070507,
      -0.17529023,
      0.16430494,
      0.28152543,
      0.69039536,
      0.37135416,
      0.016999481,
      -0.19840811,
      -0.21631594,
      -0.29749775,
      0.20750353,
      0.14552934,
      0.13635772,
      0.16050407,
      0.3642669,
      -0.058315612,
      -0.22875212,
      -0.53697795,
      0.17551848,
      -0.08561522,
      0.7073152,
      0.5122923,
      -0.33982792,
      0.3955181,
      0.03026388,
      0.52053064,
      0.2720883,
      0.2288292,
      0.3572286,
      0.18221477,
      -0.32837686,
      0.1935869,
      -0.5880421,
      0.26228145,
      -0.244579,
      -0.018487649,
      0.2210398,
      0.16548127,
      0.22213824,
      0.06281265,
      -0.015811129,
      0.20055442,
      0.24346247,
      0.1692088,
      -0.20956928,
      0.15862979,
      0.08642011,
      -0.25681835,
      0.50949305,
      0.25100684,
      0.3673592,
      0.62795866,
      0.43707445,
      0.6194007,
      -0.25853643,
      0.589843,
      -0.68369865,
      -0.42807063,
      0.1797285,
      0.41700953
    ],
    [
      0.64490557,
      0.109769665,
      0.349679,
      0.14765744,
      0.0140833575,
      -0.36709246,
      -0.4361863,
      0.20883228,
      0.35258007,
      0.49659976,
      0.18808398,
      -0.0941133,
      -0.011563301,
      -0.052192673,
      0.2788248,
      0.17976126,
      0.057964798,
      0.27711338,
      0.4691066,
      -0.075516574,
      0.24208969,
      -0.51958704,
      0.16734599,
      0.14897639,
      0.64380336,
      -0.081932895,
      -0.44655153,
      0.23793775,
      0.3330454,
      0.60675085,
      0.36189178,
      0.4984636,
      0.3681572,
      0.24644817,
      -0.3601163,
      0.3605993,
      -0.37572092,
      0.5998975,
      0.03223107,
      -0.21545821,
      0.019299014,
      0.5367164,
      0.5095649,
      0.052617494,
      0.023681203,
      0.46525118,
      0.13538852,
      0.3399165,
      0.32435384,
      0.4231295,
      0.3273555,
      -0.57470846,
      -0.05672934,
      0.19888976,
      0.48386222,
      0.37856466,
      0.44490087,
      0.52996844,
      -0.2873385,
      0.1673609,
      -0.7559104,
      -0.332645,
      0.15368478,
      0.08565839
    ],
    [
      0.010674089,
      0.24512804,
      0.30923593,
      0.19071178,
      0.2705064,
      0.11074809,
      -0.49886036,
      0.100057594,
      -0.02424105,
      0.07512512,
      -0.16190296,
      0.14509103,
      0.3260943,
      -0.40249068,
      0.65636647,
      0.25394222,
      0.2642364,
      -0.2472053,
      0.026955195,
      0.44105256,
      0.39533225,
      -0.4202827,
      0.22046459,
      0.43562207,
      -0.01629854,
      0.34271723,
      0.16287938,
      0.34123826,
      -0.34467807,
      0.24177435,
      0.38024837,
      0.051727008,
      0.06562026,
      0.29685825,
      0.4449566,
      0.33250943,
      -0.115499265,
      0.28503186,
      0.42006704,
      -1.0158963,
      0.064585574,
      0.19626315,
      0.34841716,
      0.10586646,
      0.11471807,
      0.19022176,
      0.3952634,
      -0.17120346,
      0.088898286,
      0.6924881,
      -0.029488323,
      -0.06672467,
      0.50105447,
      0.60697705,
      0.2915493,
      0.37152252,
      0.18759589,
      -0.24838416,
      -0.3979392,
      0.3822618,
      -0.016813224,
      -0.041321013,
      0.44516537,
      0.011497826
    ],
    [
      0.04926926,
      -0.17650612,
      0.21799438,
      0.4757707,
      0.22895487,
      -0.006784404,
      -0.4894491,
      0.5784782,
      0.30998614,
      0.16337644,
      -0.06349005,
      -0.21971951,
      -0.037237953,
      -0.063148126,
      0.33086544,
      0.26356256,
      0.25006682,
      0.041015163,
      0.12524532,
      0.23766547,
      0.17039354,
      -0.5256618,
      0.21464044,
      0.5866546,
      0.16842982,
      0.038853947,
      -0.5448804,
      0.37119722,
      -0.043218277,
      -0.019900138,
      0.20813097,
      0.023727212,
      0.37201256,
      0.45542616,
      -0.110346,
      0.55895,
      -0.6017161,
      0.42723295,
      0.30757642,
      -0.63135314,
      0.12737387,
      0.27559185,
      0.07965566,
      0.44013456,
      0.00777739,
      0.21507345,
      0.18003869,
      0.26823434,
      -0.03439897,
      0.18517387,
      0.05573023,
      -0.03454328,
      0.09963767,
      0.24172884,
      0.45137045,
      0.3755401,
      0.7272619,
      -0.29174593,
      -0.24802102,
      0.544345,
      -0.6599247,
      -0.5484533,
      0.45183665,
      -0.019854425
    ],
    [
      0.07733336,
      -0.07530157,
      0.22067134,
      0.21575142,
      0.41943204,
      0.44114503,
      -0.3200481,
      -0.012249418,
      0.2394001,
      0.21626689,
      0.04151075,
      -0.21951959,
      -0.19185255,
      -0.5132881,
      0.5380132,
      0.38241684,
      0.1512529,
      -0.13924478,
      0.24891049,
      0.119608834,
      0.09890338,
      -0.37609133,
      0.14486513,
      0.40924203,
      0.23527749,
      0.32109603,
      -0.12710959,
      0.32587802,
      0.28823757,
      0.4511859,
      0.49279323,
      0.59859765,
      0.20056018,
      0.13352181,
      -0.19481033,
      0.41991755,
      -0.26695827,
      0.40494853,
      0.3265515,
      -0.58470064,
      0.1521126,
      0.3390555,
      0.24479567,
      0.7862818,
      -0.19052824,
      0.38667446,
      0.04467154,
      0.24389668,
      0.28505418,
      0.3142692,
      0.058759958,
      -0.19161797,
      0.27648455,
      0.4513646,
      -0.14759767,
      -0.034247715,
      0.36493394,
      0.21483731,
      -0.25461146,
      0.6198533,
      -0.7439505,
      -0.39727828,
      0.07828226,
      0.21186186
    ],
    [
      0.24728301,
      0.038190994,
      0.2522228,
      0.13251513,
      0.7141734,
      -0.025215616,
      -0.86880463,
      0.30440718,
      0.45744118,
      -0.16297652,
      0.14975181,
      -0.26329294,
      0.085186414,
      -0.122058846,
      0.6493506,
      0.14944357,
      0.3069249,
      0.05942346,
      0.40787968,
      0.22457027,
      0.28166693,
      -0.38705423,
      0.46375725,
      0.33858418,
      0.24142025,
      0.468201,
      -0.26395848,
      0.055764373,
      -0.28075904,
      0.32577237,
      0.4129578,
      0.46239686,
      -0.0015485912,
      0.54021776,
      0.011412943,
      0.43841594,
      -0.5551633,
      0.3533314,
      0.113110974,
      -0.56220245,
      0.17935644,
      0.30787778,
      0.38001177,
      0.21517012,
      0.21894465,
      0.2700353,
      0.518053,
      0.19441849,
      0.548854,
      0.32199934,
      -0.47481722,
      0.2441344,
      0.41037628,
      0.46262258,
      0.05837318,
      0.15079813,
      0.21618037,
      -0.22877067,
      0.07807423,
      0.24752446,
      -0.46588138,
      -0.24218155,
      0.297014,
      0.19619413
    ],
    [
      -0.01360597,
      0.03055391,
      0.44509888,
      0.104595296,
      0.028843224,
      0.07032429,
      -0.36867595,
      0.27674162,
      0.32410514,
      -0.18008548,
      -0.3155793,
      -0.18455607,
      0.0929729,
      -0.65297693,
      0.3454152,
      0.40809986,
      0.28101605,
      -0.2815667,
      0.39251834,
      0.5018436,
      0.18685006,
      -0.43264744,
      0.37976918,
      0.5222448,
      0.18073298,
      0.7405095,
      -0.30184337,
      -0.01599576,
      0.2872264,
      -0.094742425,
      0.30584967,
      0.26615372,
      0.041278265,
      0.38914266,
      0.414712,
      0.46033612,
      -0.13325354,
      0.13006645,
      0.5270202,
      -0.7986669,
      0.07664424,
      0.4061082,
      0.43642136,
      0.27756697,
      0.097945504,
      0.24674338,
      0.5091422,
      0.3113233,
      0.0015981897,
      0.48539054,
      0.07371456,
      -0.109229796,
      0.5030382,
      0.47695172,
      -0.07463938,
      0.31365985,
      0.30043608,
      -0.5686605,
      0.18971749,
      -0.33493054,
      -0.41875455,
      -0.43547907,
      0.46966842,
      0.14725004
    ],
    [
      0.20261833,
      -0.27549002,
      0.3978354,
      0.03757174,
      0.22238663,
      -0.4107072,
      -0.1546663,
      0.22097908,
      0.4217593,
      -0.023131352,
      -0.040096704,
      0.0036481991,
      -0.119293705,
      -0.60652,
      0.32187626,
      0.0601091,
      0.4060962,
      0.18610309,
      0.3103622,
      -0.24437833,
      0.20766105,
      -0.90686035,
      0.31371135,
      0.08918448,
      0.31336078,
      0.047697466,
      -0.22706313,
      0.23167467,
      -0.10068421,
      0.16063847,
      0.44450134,
      0.530235,
      0.19514069,
      0.24162856,
      -0.51101327,
      0.3674762,
      -0.16821067,
      -0.12523147,
      0.13227743,
      -0.022476802,
      0.10883672,
      0.09002225,
      0.12751444,
      0.3417121,
      -0.059431016,
      0.3634956,
      0.44759572,
      0.40485737,
      0.40362987,
      0.107877925,
      0.30225283,
      -0.15144879,
      0.009452123,
      0.38562775,
      0.42876798,
      0.2588546,
      0.47887152,
      0.111944266,
      -0.4612301,
      0.49006763,
      -0.6825967,
      -0.049094148,
      0.13692626,
      0.12824066
    ],
    [
      -0.11925465,
      -0.3350395,
      -0.13157234,
      0.10507227,
      0.07931917,
      -0.1949831,
      -0.1614429,
      -0.16557893,
      -0.16335532,
      -0.23552011,
      0.1531437,
      0.10158521,
      -0.18619813,
      -0.09711676,
      0.07851624,
      0.089082755,
      -0.43186325,
      0.073438495,
      0.08624313,
      0.2038529,
      -0.04791192,
      0.18282694,
      -0.123021014,
      -0.051572416,
      0.22898763,
      -0.10648814,
      0.018242529,
      -0.26039985,
      -0.27589902,
      -0.14436725,
      -0.14985362,
      -0.037000943,
      -0.04749882,
      0.028999522,
      -0.11413999,
      0.2929624,
      0.1609674,
      0.19634672,
      -0.15478729,
      -0.048322227,
      0.20752686,
      0.16321257,
      -0.06597782,
      -0.10145675,
      -0.18738796,
      -0.038107716,
      0.341705,
      -0.020123487,
      -0.026542118,
      0.01874048,
      0.36036018,
      -0.072990514,
      -0.09562021,
      -0.21780373,
      -0.30219495,
      0.09659065,
      0.038442004,
      0.0028052712,
      -0.22407353,
      -0.02580696,
      0.3809298,
      -0.1943349,
      -0.2349753,
      0.14345625
    ],
    [
      0.20519389,
      -0.08246119,
      0.08639013,
      0.37734678,
      0.49439764,
      -0.13027139,
      -0.35390097,
      0.17707369,
      0.49217394,
      0.040521502,
      -0.09915057,
      0.22999278,
      -0.04130668,
      0.062081188,
      0.43863398,
      0.37033078,
      0.63318604,
      -0.098446555,
      0.11797725,
      0.08057011,
      0.12785862,
      -0.3466171,
      0.09816614,
      0.27655673,
      -0.09733478,
      0.17742181,
      -0.1701065,
      0.23494452,
      0.13929304,
      0.2888951,
      0.29349726,
      0.42045906,
      0.16010144,
      0.53329295,
      0.51416063,
      0.08194806,
      -0.121518284,
      0.26183784,
      0.05719123,
      -0.7137516,
      0.2999443,
      0.05011698,
      0.16334279,
      0.3141975,
      -0.12597907,
      0.08596636,
      0.2764499,
      0.26453665,
      0.38256973,
      0.24399462,
      0.26771933,
      0.017896164,
      0.016106024,
      0.2839875,
      0.08838933,
      0.20026746,
      0.52052546,
      0.2060043,
      -0.0560932,
      -0.055758778,
      -0.5429129,
      -0.477182,
      0.27267167,
      0.41297692
    ],
    [
      -0.09843664,
      0.15329604,
      -0.15028572,
      0.33481658,
      -0.25557274,
      -0.18904328,
      -0.11672342,
      -0.039698858,
      -0.1221881,
      0.033595625,
      0.19946194,
      -0.2921179,
      -0.067146964,
      0.080608346,
      0.013623551,
      0.23511554,
      -0.092944734,
      0.10007504,
      -0.2971513,
      -0.31088352,
      0.2775714,
      0.26253366,
      -0.16859542,
      -0.11501372,
      -0.072191805,
      0.33933783,
      -0.14305703,
      -0.12419997,
      -0.03482467,
      0.0020170864,
      -0.13393444,
      -0.1030992,
      0.04074468,
      -0.35600415,
      0.072704315,
      0.2648998,
      -0.0055307355,
      -0.38992703,
      -0.20328626,
      0.20885196,
      0.08352974,
      -0.20948364,
      0.082212,
      0.086121224,
      -0.077282794,
      -0.16366895,
      0.14487453,
      -0.0019377944,
      -0.039336782,
      0.056440465,
      -0.17987265,
      -0.069140084,
      -0.11543005,
      -0.052616984,
      -0.17440091,
      -0.03356769,
      -0.07774529,
      0.21746875,
      -0.1686395,
      -0.109893955,
      -0.23415461,
      0.13453546,
      0.22862326,
      -0.2504844
    ],
    [
      0.44312793,
      -0.0014370879,
      0.35915118,
      0.120936126,
      0.10721771,
      -0.29268274,
      -0.19255397,
      0.499858,
      0.24877484,
      -0.034355205,
      0.26625854,
      -0.03284348,
      -0.35602605,
      -0.33084157,
      0.18520883,
      0.0054103737,
      -0.1767846,
      0.03210441,
      0.2232364,
      -0.045411468,
      -0.2501832,
      -0.3632226,
      0.24099109,
      -0.31517476,
      0.4287177,
      0.16269952,
      -0.5860348,
      0.50428635,
      -0.17741437,
      0.32846746,
      0.44774172,
      0.69794863,
      0.20129931,
      0.2790662,
      0.006560677,
      0.017493825,
      -0.23688222,
      0.60639936,
      0.09145676,
      0.15080677,
      0.036882445,
      0.3101802,
      -0.20342934,
      0.38038987,
      -0.18949707,
      0.41241613,
      0.105476804,
      0.20939456,
      0.34610644,
      0.084525466,
      -0.03786164,
      -0.64993805,
      0.13290185,
      0.08587591,
      0.3598795,
      0.5004319,
      0.3503391,
      0.28847027,
      -0.53514904,
      0.39814097,
      -0.9444613,
      -0.35601526,
      0.6170317,
      0.2667236
    ],
    [
      0.26874915,
      0.1313119,
      0.40130714,
      0.06577366,
      0.38468096,
      0.14278342,
      -0.44689614,
      0.41542456,
      0.14566511,
      0.19130956,
      -0.13024841,
      -0.18627621,
      0.015271762,
      -0.18836032,
      0.6719089,
      0.21157514,
      0.28862587,
      -0.539545,
      0.53462887,
      -0.07775358,
      0.3747388,
      -0.44053337,
      0.38077548,
      0.26333728,
      0.32423756,
      0.49901468,
      -0.35371706,
      0.432054,
      0.1226532,
      0.21135697,
      0.041558236,
      0.381246,
      0.22484824,
      -0.05418073,
      0.09300109,
      0.33703342,
      -0.27041984,
      0.35873863,
      -0.00725165,
      -0.3608703,
      0.27436343,
      0.25657544,
      -0.23816785,
      0.08237588,
      0.055931225,
      0.08686151,
      0.45943934,
      0.20117687,
      0.41223434,
      0.34184524,
      0.383265,
      -0.1775172,
      0.24053973,
      -0.058032688,
      0.3602911,
      0.34230027,
      0.3643958,
      -0.05670841,
      0.032886133,
      0.51712614,
      -0.6998767,
      -0.2941395,
      -0.06379292,
      0.059050683
    ],
    [
      0.23105071,
      -0.16901295,
      0.63256896,
      0.51741344,
      0.2456901,
      0.23818748,
      -0.33578274,
      0.47610778,
      0.32021347,
      -0.18317492,
      0.1827683,
      0.024798932,
      0.29257745,
      -0.18871757,
      0.34612775,
      0.048374914,
      0.17163898,
      0.06515981,
      0.07356896,
      0.15407535,
      0.40946564,
      -0.41241542,
      0.3393974,
      0.15520586,
      0.297275,
      0.2393808,
      0.020668082,
      0.1849736,
      0.12760174,
      0.52581906,
      0.07028191,
      0.4191681,
      0.21417879,
      0.108710825,
      0.27140304,
      0.37260106,
      -0.19455363,
      0.080243774,
      0.13491248,
      -0.26459447,
      0.30038676,
      0.2678678,
      0.4463162,
      0.20465682,
      -0.26376265,
      0.45842347,
      0.15593581,
      0.055114206,
      0.2749763,
      0.08586357,
      0.049011223,
      -0.19529521,
      0.45291537,
      0.48454428,
      0.3017361,
      0.09223648,
      0.51762015,
      -0.26373926,
      0.07486857,
      0.376697,
      -0.33305317,
      -0.76732993,
      0.12227195,
      -0.04675811
    ],
    [
      0.3081152,
      0.43350485,
      0.04324963,
      0.3828064,
      0.45552906,
      0.009399985,
      -0.2821591,
      0.08184366,
      -0.045583744,
      -0.1611686,
      -0.23684949,
      0.15873133,
      0.056192044,
      -0.5705917,
      0.16548197,
      0.3418329,
      0.34665668,
      -0.14799662,
      0.22603443,
      -0.09834742,
      0.24192418,
      0.0072804666,
      0.5056028,
      0.60786504,
      0.74479395,
      0.41160855,
      -0.11608925,
      0.16788612,
      -0.051946435,
      -0.03718033,
      0.013303058,
      0.50405693,
      0.36542416,
      0.5174189,
      0.106626354,
      0.31386787,
      -0.29030797,
      0.42953107,
      0.20115611,
      -0.5519227,
      0.09792421,
      0.16663414,
      0.30428758,
      0.4128704,
      0.11433012,
      0.30058601,
      0.23195784,
      0.10603105,
      0.39480036,
      0.22055234,
      -0.0058103492,
      0.109742664,
      0.24089172,
      0.65525776,
      0.45160127,
      0.2610318,
      0.41836137,
      -0.12206136,
      -0.041168097,
      0.29831186,
      -0.41677085,
      -0.5033781,
      0.29273307,
      0.08686953
    ],
    [
      0.39234886,
      -0.2906097,
      0.5259379,
      0.5582698,
      0.39387435,
      0.008858073,
      -0.46025312,
      0.07156999,
      0.097105175,
      -0.1419706,
      -0.02919309,
      0.014072205,
      0.10073584,
      -0.17921732,
      0.33229187,
      0.12708858,
      0.44675,
      -0.12967926,
      0.46698362,
      0.40668494,
      -0.03751809,
      -0.42949358,
      0.22609253,
      0.297575,
      0.16247308,
      0.47739473,
      -0.13729277,
      0.2341286,
      0.38712108,
      0.19363107,
      0.31936163,
      0.20642732,
      0.11760479,
      0.2046862,
      -0.47351342,
      0.2558682,
      -0.32769066,
      0.46817324,
      0.02593379,
      -0.3532788,
      0.06851263,
      0.07538847,
      0.16644819,
      0.4269496,
      -0.16107546,
      0.30442148,
      0.43750864,
      0.26311794,
      0.43137074,
      0.100388445,
      0.034307376,
      -0.29535222,
      0.22603776,
      0.19646272,
      0.6747736,
      0.4332428,
      -0.11601708,
      0.37448025,
      -0.2441273,
      0.27411044,
      -0.5599791,
      -0.5204807,
      0.5507767,
      -0.019261999
    ],
    [
      0.3658737,
      0.37808645,
      0.1615321,
      0.32414234,
      0.40603498,
      -0.19984387,
      -0.35812435,
      0.46087283,
      0.25655907,
      0.006657978,
      -0.15387563,
      -0.15648188,
      0.06899346,
      -0.33471277,
      0.41467807,
      0.18401656,
      0.3283784,
      -0.34461954,
      0.072207645,
      0.4327274,
      0.18137851,
      -0.36488357,
      0.123361245,
      0.03923967,
      0.25199065,
      0.5230637,
      0.2130728,
      0.029489908,
      0.41819763,
      0.27917784,
      0.34922963,
      0.08644008,
      0.20667888,
      0.26810607,
      0.1574442,
      0.3129326,
      -0.60695094,
      0.21265216,
      0.3547764,
      -0.69998467,
      0.1404881,
      0.64736784,
      0.29776934,
      0.570777,
      0.3087593,
      0.09469219,
      0.34558412,
      0.013380975,
      0.43523872,
      -0.043263376,
      0.16251962,
      0.10599283,
      0.1225184,
      0.3241517,
      -0.01910279,
      0.20720969,
      0.281655,
      -0.5041311,
      -0.3488147,
      0.25464773,
      -0.18026266,
      -0.25160688,
      0.27032816,
      0.07228409
    ],
    [
      0.257042,
      0.18567967,
      0.21572159,
      0.4243555,
      0.23923956,
      -0.28135017,
      -0.58927095,
      0.2881677,
      -0.22237828,
      -0.13902108,
      -0.4799705,
      -0.007946797,
      0.54873437,
      -0.37209448,
      0.19260554,
      0.44121718,
      0.11559318,
      -0.4601046,
      0.37675688,
      0.44907293,
      0.49167114,
      -0.42262158,
      0.11268624,
      0.2324455,
      0.096520096,
      0.59621316,
      0.055408984,
      0.3354619,
      -0.04949108,
      0.29941726,
      0.43994436,
      0.21057424,
      -0.20643473,
      0.75430405,
      0.2334766,
      0.36209542,
      -0.32039165,
      0.27727908,
      0.34989497,
      -0.9286562,
      0.24201742,
      -0.07376331,
      0.36911362,
      0.4261271,
      -0.061973456,
      0.41326,
      0.26396826,
      0.16608924,
      0.050675116,
      0.6474563,
      -0.095516205,
      0.41157022,
      0.47220236,
      0.20369986,
      0.003796781,
      -0.14496127,
      0.18800655,
      -0.81060106,
      -0.0045637446,
      0.2723316,
      -0.50990367,
      -0.5281847,
      0.06272421,
      0.1656192
    ],
    [
      0.60335106,
      -0.33938685,
      0.40060422,
      0.3864597,
      0.3837875,
      -0.05300129,
      -0.424362,
      0.41050842,
      0.19913112,
      0.19958287,
      0.011386634,
      0.0031053904,
      -0.12201032,
      -0.45497385,
      0.2750318,
      0.5209949,
      0.26077116,
      -0.7023219,
      0.1266531,
      0.022510985,
      0.31394166,
      -0.5896568,
      0.10843874,
      0.27537724,
      0.30350763,
      0.2528671,
      -0.43916684,
      0.048525713,
      -0.14852205,
      0.19453254,
      0.39123708,
      0.19564298,
      0.23579489,
      0.5630205,
      0.23968276,
      0.3181476,
      -0.45381108,
      0.39247024,
      0.296656,
      -0.7434825,
      0.092790864,
      0.14427456,
      0.39552778,
      0.5245529,
      -0.04786034,
      0.36470202,
      0.4174611,
      -0.062229466,
      0.2560367,
      0.088972494,
      -0.007196944,
      -0.19339128,
      0.37408528,
      0.5033365,
      0.1862298,
      0.11247519,
      0.1266373,
      -0.090825,
      0.26704046,
      0.21153122,
      -0.2170764,
      -0.12554187,
      0.06581778,
      -0.22522321
    ],
    [
      0.29761502,
      -0.36079225,
      0.35537767,
      0.049189214,
      0.3951526,
      -0.16267662,
      -0.09495105,
      0.26444042,
      0.34628847,
      -0.013603508,
      0.07249701,
      -0.08573172,
      -0.031092837,
      -0.2399744,
      0.3359143,
      0.42583492,
      0.21570404,
      -0.0509546,
      0.17028552,
      0.09616809,
      0.2462292,
      -0.35661978,
      0.5643715,
      0.018935364,
      0.6036348,
      0.5867766,
      -0.23951411,
      0.5882445,
      -0.0042781685,
      0.4549378,
      0.5917537,
      0.0048027043,
      0.5291064,
      0.48016322,
      0.14269058,
      0.49289918,
      -0.35328582,
      0.19245006,
      0.3720827,
      -0.38526013,
      0.46454868,
      0.37937015,
      0.20137456,
      0.18974186,
      -0.10537052,
      0.37911612,
      0.024052648,
      0.63992685,
      0.4935363,
      0.27296245,
      0.07881126,
      -0.25296223,
      -0.17254665,
      0.31495827,
      0.44626838,
      0.51593184,
      0.0597823,
      0.25143847,
      -0.34512454,
      0.4169339,
      -0.7114961,
      -0.45891905,
      0.09643665,
      0.04320127
    ],
    [
      -0.051712725,
      0.33561072,
      0.21311316,
      0.39837375,
      0.44876006,
      -0.3989822,
      -0.23122321,
      0.5330083,
      0.039396048,
      -0.009371259,
      0.12759103,
      -0.08938283,
      -0.37712708,
      -0.20053144,
      0.36404347,
      0.26571023,
      0.3944098,
      -0.1297565,
      -0.016889589,
      0.28864777,
      0.28846487,
      -0.7202023,
      0.44754633,
      0.3891017,
      0.3218014,
      0.4132548,
      -0.26709154,
      0.19152434,
      0.16329013,
      0.36610752,
      0.43630385,
      0.5229933,
      0.24473248,
      0.12010308,
      0.039140176,
      0.442489,
      -0.29197413,
      0.2406211,
      0.5488639,
      -0.7173227,
      -0.0625239,
      0.039894093,
      0.20721203,
      0.1484284,
      -0.03413126,
      0.5214372,
      0.27715567,
      0.21911034,
      0.29591963,
      0.25954485,
      0.09528514,
      0.004929356,
      0.4100439,
      0.037024837,
      0.29695874,
      0.19283018,
      0.06963376,
      0.061854105,
      0.1931192,
      0.40845865,
      -0.09759909,
      -0.5756431,
      0.22535323,
      0.29524788
    ],
    [
      -0.23453848,
      -0.015733607,
      -0.0830123,
      -0.39742494,
      0.1041869,
      -0.20777197,
      0.3649426,
      0.009820482,
      -0.07095759,
      -0.20344089,
      0.15535478,
      -0.13727987,
      0.21008016,
      0.10804877,
      0.04322612,
      -0.45879567,
      -0.18427874,
      -0.17299281,
      -0.11219308,
      0.17807838,
      0.049970515,
      0.12748052,
      -0.13309689,
      0.048607696,
      0.029293224,
      -0.31236795,
      0.13943088,
      -0.00900303,
      -0.07035157,
      -0.30665925,
      0.15770799,
      -0.15496558,
      0.41313773,
      -0.28456545,
      -0.062444884,
      -0.025696337,
      -0.057107612,
      0.0689592,
      -0.2942596,
      -0.1141167,
      0.08160569,
      -0.091290504,
      0.2474165,
      0.13461298,
      -0.11729589,
      0.0054347483,
      -0.0075475546,
      -0.092991985,
      0.051909316,
      -0.05237619,
      -0.12306562,
      -0.16962531,
      0.01193299,
      -0.11683659,
      0.030279823,
      -0.065294705,
      -0.013978289,
      0.059683498,
      0.24867174,
      -0.2097197,
      -0.35890746,
      0.11867521,
      -0.09408047,
      0.108920015
    ]
  ],
  "shared_fc2_bias": [
    0.18355599,
    0.38733125,
    0.1700948,
    0.30984116,
    0.046593428,
    0.3733415,
    0.020016875,
    0.31345606,
    0.35873818,
    -0.09232375,
    0.24658987,
    0.21648371,
    0.17750396,
    0.22948718,
    0.26754278,
    0.2906944,
    0.3745514,
    0.38269147,
    0.1825206,
    0.17347695,
    0.38692638,
    0.24691825,
    0.31488934,
    0.20092392,
    0.33089197,
    0.116348535,
    0.38919517,
    0.3711558,
    0.28234783,
    0.06790836,
    0.39638764,
    0.025648728,
    -0.08520378,
    0.2527982,
    0.36002207,
    0.09293555,
    0.24438357,
    0.32278568,
    0.23619103,
    0.33424786,
    0.24811839,
    0.40252772,
    0.30860636,
    0.2753697,
    0.25875926,
    0.18919183,
    0.18645032,
    0.1830956,
    0.24611826,
    0.29366028,
    -0.01844744,
    0.42787936,
    0.08911574,
    0.18304856,
    0.27158606,
    0.22509547,
    0.24436569,
    0.36656633,
    0.41691417,
    0.33193973,
    0.31933895,
    0.25272474,
    0.23567629,
    -0.0072510093
  ],
  "policy_weight": [
    [
      -0.10471823,
      0.10138923,
      0.06545495,
      -0.0740038,
      0.0029075851,
      0.15307166,
      0.013116668,
      0.07906515,
      -0.108105615,
      -0.00011157058,
      -0.095797196,
      0.13068002,
      -0.116997026,
      -0.061789695,
      -0.0071604694,
      0.033950776,
      0.05324165,
      -0.19327286,
      0.048800647,
      0.12788431,
      0.08136986,
      0.02563021,
      0.13894506,
      -0.06965182,
      0.04727827,
      0.2066369,
      -0.15200675,
      -0.061321322,
      0.0021518364,
      -0.0004512739,
      0.097191505,
      -0.0009719304,
      -0.0012086559,
      0.09016393,
      -0.058422405,
      0.0010940031,
      0.04435633,
      -0.05708681,
      -0.15158021,
      -0.09181626,
      -0.060106393,
      -0.03391884,
      0.18180256,
      0.15062958,
      -0.11130388,
      -0.00043412537,
      0.009662416,
      -0.035767492,
      -0.11736472,
      0.119967915,
      -0.012643042,
      -0.008134626,
      -0.00082374114,
      0.18991421,
      0.041953076,
      0.0138283055,
      -0.039176714,
      0.036962185,
      -0.051207412,
      -0.17832722,
      -0.047948513,
      0.06434467,
      -0.0221331,
      0.00004538561
    ],
    [
      0.107319735,
      -0.10167384,
      -0.06458278,
      0.0741285,
      -0.0006150699,
      -0.15367015,
      -0.013189555,
      -0.07663813,
      0.10667176,
      0.00078695215,
      0.09593576,
      -0.12918499,
      0.121761285,
      0.05931184,
      0.008432232,
      -0.033630904,
      -0.054187614,
      0.19178416,
      -0.04460731,
      -0.12954849,
      -0.07992968,
      -0.029236794,
      -0.14080556,
      0.069765046,
      -0.044735078,
      -0.2045028,
      0.15250045,
      0.060652584,
      -0.0020106125,
      0.0008276201,
      -0.0994721,
      0.0006884066,
      -0.0015665826,
      -0.08842798,
      0.05767422,
      -0.00014673137,
      -0.044662744,
      0.060310986,
      0.1524166,
      0.09349698,
      0.062440243,
      0.032604016,
      -0.18327971,
      -0.15343665,
      0.111013636,
      -0.0010599233,
      -0.01113365,
      0.037755653,
      0.11479949,
      -0.11931524,
      0.014330588,
      0.009789888,
      -0.00009045916,
      -0.1919289,
      -0.041123256,
      -0.014914682,
      0.03954303,
      -0.038704418,
      0.04823162,
      0.17867629,
      0.049431916,
      -0.065103434,
      0.022000981,
      0.00040719795
    ]
  ],
  "policy_bias": [
    0.0653013,
    0.020496175
  ],
  "value_weight": [
    [
      0.2866884,
      0.26361752,
      0.24355672,
      0.3069097,
      -0.0017432997,
      0.23457246,
      -0.010132623,
      0.27126062,
      0.32191947,
      0.000020418584,
      0.23068576,
      0.25307357,
      0.2459794,
      0.31189165,
      0.26611158,
      0.2753996,
      0.29245457,
      0.3048332,
      0.26575705,
      0.22756733,
      0.3075046,
      0.2233623,
      0.2509931,
      0.30764607,
      0.24192446,
      0.1920872,
      0.2599623,
      0.27311614,
      0.26518223,
      0.0010892468,
      0.302784,
      0.00299059,
      0.002048365,
      0.2732259,
      0.2513156,
      -0.0012100277,
      0.29260585,
      0.2655226,
      0.32026082,
      0.3042258,
      0.2878912,
      0.2649855,
      0.2888773,
      0.2744576,
      0.27309722,
      0.26393244,
      0.29181194,
      0.25880134,
      0.26538274,
      0.29894525,
      -0.0035028628,
      0.28627634,
      -0.00009457705,
      0.24963175,
      0.27237964,
      0.25357348,
      0.31006083,
      0.2897721,
      0.2764511,
      0.32720473,
      0.31725526,
      0.23715204,
      0.26275557,
      0.000096116666
    ]
  ],
  "value_bias": [
    0.25993133
  ]
}