{
  "obs_dim": 4,
  "action_dim": 2,
  "hidden_dim": 256,
  "activation": "Tanh",
  "shared_fc1_weight": [
    [
      -0.15430574,
      -0.031890538,
      0.7195396,
      0.06486902
    ],
    [
      -0.08441435,
      0.04598705,
      -1.0035535,
      -0.09249123
    ],
    [
      -0.20951337,
      -0.17980632,
      0.20507035,
      0.016424863
    ],
    [
      0.11396896,
      -0.0028105592,
      -0.78292197,
      -0.06407654
    ],
    [
      0.12794948,
      0.39589894,
      -0.040746674,
      -0.018691065
    ],
    [
      -0.22234568,
      -0.15354994,
      0.36737093,
      0.09388583
    ],
    [
      -0.3627628,
      0.38380688,
      -1.0039529,
      0.42722017
    ],
    [
      -0.20743671,
      -0.044694815,
      -1.0886656,
      -0.21078882
    ],
    [
      0.09761256,
      0.061914943,
      -0.87712145,
      -0.16284822
    ],
    [
      -0.056982208,
      -0.07919954,
      -0.7957142,
      -0.1548686
    ],
    [
      -0.16292872,
      -0.2912618,
      0.9896079,
      -0.046642747
    ],
    [
      0.29722247,
      0.044817388,
      -0.6139072,
      -0.19988155
    ],
    [
      -0.2715604,
      -0.0440097,
      0.551335,
      0.14597927
    ],
    [
      0.401442,
      0.21259023,
      -0.5992701,
      -0.08193691
    ],
    [
      0.13272582,
      0.05242489,
      -0.99593604,
      -0.07572174
    ],
    [
      0.05727169,
      0.19901231,
      1.1156327,
      0.25938857
    ],
    [
      -0.0020742146,
      0.04148277,
      0.8375814,
      -0.22945036
    ],
    [
      0.112171814,
      0.19471909,
      0.48942006,
      0.16290417
    ],
    [
      -0.124444865,
      0.008486325,
      -0.9943935,
      0.034673292
    ],
    [
      -0.20777117,
      0.257254,
      -0.7565809,
      0.029498208
    ],
    [
      -0.017246803,
      0.058333926,
      0.6154473,
      0.14092201
    ],
    [
      0.1017338,
      0.06503308,
      -0.6066828,
      0.38504305
    ],
    [
      0.14552501,
      0.09698279,
      -0.24502903,
      -0.023259025
    ],
    [
      0.30143127,
      -0.107861176,
      0.6551562,
      0.19451751
    ],
    [
      -0.2779726,
      -0.124879174,
      -0.957696,
      -0.23739792
    ],
    [
      -0.12038398,
      -0.15001959,
      0.5251504,
      -0.0062357634
    ],
    [
      -0.18952903,
      0.0033260854,
      1.0018839,
      0.10337971
    ],
    [
      -0.022721346,
      -0.23996624,
      0.8342159,
      -0.15064944
    ],
    [
      -0.08476109,
      0.017794248,
      -0.90507805,
      -0.028076591
    ],
    [
      0.057313584,
      0.09159199,
      0.2534367,
      -0.038333625
    ],
    [
      -0.0042913603,
      -0.1724011,
      -0.88943404,
      0.03805034
    ],
    [
      -0.21998416,
      -0.16972463,
      0.670777,
      -0.09733681
    ],
    [
      -0.12062472,
      -0.081869304,
      -1.0084168,
      -0.2175201
    ],
    [
      0.15330619,
      0.10097897,
      -0.84670085,
      0.062431954
    ],
    [
      -0.24049857,
      0.079812594,
      0.48330072,
      0.27566156
    ],
    [
      -0.20362392,
      0.29506797,
      -0.710027,
      -0.16453022
    ],
    [
      -0.123809144,
      -0.13590725,
      -1.0222182,
      -0.22820072
    ],
    [
      -0.21568972,
      0.004194323,
      -1.0900906,
      -0.0680067
    ],
    [
      0.53121233,
      -0.29406115,
      -0.17878425,
      0.09436707
    ],
    [
      0.014955009,
      0.028283726,
      0.83725303,
      0.016045123
    ],
    [
      -0.031041473,
      -0.069981515,
      -0.6089441,
      -0.19938375
    ],
    [
      -0.19258024,
      -0.1804253,
      0.4230096,
      0.023762545
    ],
    [
      0.056281433,
      0.063902445,
      0.16842282,
      0.21778618
    ],
    [
      -0.18250687,
      0.048740245,
      -0.7064708,
      -0.14905703
    ],
    [
      0.26234615,
      0.22523673,
      -0.7941891,
      0.060298383
    ],
    [
      -0.24441898,
      0.08754898,
      0.77953535,
      0.23482496
    ],
    [
      -0.17404562,
      -0.0032274078,
      0.8617442,
      0.024673693
    ],
    [
      -0.0688649,
      -0.13444035,
      -1.0710902,
      -0.11347622
    ],
    [
      0.41441524,
      0.19848071,
      0.2677372,
      0.087971665
    ],
    [
      -0.090423845,
      -0.101089105,
      -0.793375,
      -0.12458283
    ],
    [
      0.12532087,
      0.18933487,
      0.64946854,
      0.13272014
    ],
    [
      -0.07951991,
      -0.16144314,
      -0.94368047,
      -0.15747055
    ],
    [
      0.12858813,
      0.11965061,
      0.3142381,
      0.19657183
    ],
    [
      -0.18057476,
      -0.072721064,
      0.3955389,
      -0.039274994
    ],
    [
      0.002607608,
      0.056236662,
      -1.2011446,
      0.016795406
    ],
    [
      -0.17127623,
      -0.29399204,
      -0.9532465,
      0.07816919
    ],
    [
      -0.10713349,
      -0.04408947,
      -0.92828184,
      0.08974314
    ],
    [
      0.36109403,
      0.17716298,
      -0.8187091,
      -0.19846866
    ],
    [
      -0.099701054,
      -0.07953395,
      0.67515403,
      0.023882864
    ],
    [
      0.32133976,
      0.25956377,
      -0.301216,
      -0.11285447
    ],
    [
      -0.3267236,
      -0.09330538,
      0.25715855,
      -0.15061824
    ],
    [
      -0.09758925,
      -0.040139306,
      -0.936391,
      -0.20418887
    ],
    [
      0.31373385,
      0.20709065,
      -0.6124877,
      0.01084996
    ],
    [
      0.21639079,
      0.28435826,
      -0.21831162,
      0.100050844
    ],
    [
      0.099448316,
      0.049033023,
      0.732904,
      0.017307455
    ],
    [
      -0.3480619,
      -0.33008298,
      1.1908586,
      0.05014366
    ],
    [
      0.16954175,
      0.19535238,
      -0.7918011,
      -0.0025837505
    ],
    [
      0.16540232,
      -0.09736944,
      0.42637917,
      0.12155347
    ],
    [
      0.17525768,
      0.01524864,
      1.4856431,
      -0.14965756
    ],
    [
      0.16061841,
      0.0982952,
      0.7826724,
      -0.16868865
    ],
    [
      0.21855411,
      0.18119705,
      0.509169,
      0.2744503
    ],
    [
      -0.08072192,
      -0.12339652,
      -0.44247583,
      -0.08581518
    ],
    [
      0.0021282628,
      0.19458923,
      0.6001743,
      0.2914894
    ],
    [
      -0.19427733,
      0.04466492,
      -1.0371476,
      0.19503854
    ],
    [
      -0.04954544,
      0.13756679,
      1.02882,
      0.1845664
    ],
    [
      0.119259275,
      0.00440071,
      -0.6926621,
      -0.18436798
    ],
    [
      -0.08856338,
      -0.15181643,
      0.73605245,
      -0.20795774
    ],
    [
      0.23523577,
      -0.0053976076,
      -0.4749246,
      -0.19280174
    ],
    [
      -0.020652128,
      -0.13379838,
      -0.43881682,
      -0.27546507
    ],
    [
      -0.21354446,
      -0.1755542,
      0.8379035,
      -0.04714928
    ],
    [
      -0.21860202,
      -0.14198174,
      0.8783265,
      -0.023653258
    ],
    [
      -0.3784832,
      -0.07930303,
      -0.037576884,
      0.03172041
    ],
    [
      -0.23954462,
      0.19223545,
      -0.3520624,
      -0.0034852114
    ],
    [
      -0.21369562,
      -0.1687557,
      -0.1369062,
      -0.21871057
    ],
    [
      0.08068769,
      0.060067266,
      -0.94864106,
      -0.15182854
    ],
    [
      0.036215756,
      -0.18081181,
      -0.6822783,
      -0.04760464
    ],
    [
      0.25832734,
      -0.10776162,
      -0.78687054,
      0.22657427
    ],
    [
      -0.22515532,
      -0.06352865,
      0.8877493,
      0.0003203597
    ],
    [
      0.108747646,
      -0.09981408,
      -0.83156705,
      -0.26014313
    ],
    [
      0.055641845,
      0.14312421,
      0.79152775,
      0.11180818
    ],
    [
      0.014306776,
      0.17186047,
      1.2911668,
      0.085825644
    ],
    [
      0.2188838,
      0.010832102,
      0.63700473,
      0.1669565
    ],
    [
      0.39494973,
      0.22716206,
      -1.0048866,
      -0.068784766
    ],
    [
      0.12818605,
      -0.36780453,
      0.8192531,
      -0.16775328
    ],
    [
      0.3276782,
      -0.00071115943,
      -0.61871284,
      0.0015340078
    ],
    [
      0.12681448,
      0.02534014,
      0.5111432,
      -0.009875116
    ],
    [
      0.12956916,
      0.3505356,
      0.19571933,
      0.07528938
    ],
    [
      0.18483125,
      -0.02378551,
      0.84192,
      0.03928336
    ],
    [
      -0.1034821,
      -0.0007201312,
      -0.79676765,
      -0.19814959
    ],
    [
      0.09925974,
      0.1333669,
      0.9091909,
      0.32537165
    ],
    [
      -0.10345468,
      0.023238305,
      -0.8756371,
      0.5689124
    ],
    [
      0.26333666,
      0.045287076,
      1.0385051,
      -0.051334552
    ],
    [
      0.23881762,
      -0.22585388,
      -0.61049235,
      0.14261848
    ],
    [
      0.2208986,
      -0.033724904,
      -0.84961253,
      -0.09487645
    ],
    [
      -0.16670004,
      -0.18621965,
      -0.7222221,
      -0.00297276
    ],
    [
      -0.044675022,
      -0.27895677,
      -1.0256964,
      -0.28097552
    ],
    [
      -0.30197218,
      -0.27357316,
      0.3692024,
      0.07974829
    ],
    [
      0.08131817,
      0.08605535,
      0.84331334,
      0.1112533
    ],
    [
      0.073505126,
      -0.23730922,
      -0.46768034,
      -0.39710417
    ],
    [
      0.27173972,
      -0.02819298,
      0.88850486,
      0.2463027
    ],
    [
      0.088890545,
      0.02537303,
      1.2287985,
      0.062156815
    ],
    [
      -0.071412586,
      0.15228331,
      0.8206134,
      0.30170795
    ],
    [
      -0.049163815,
      -0.113922045,
      0.3118723,
      -0.23167765
    ],
    [
      -0.013260318,
      0.13424306,
      0.7252258,
      0.3170828
    ],
    [
      -0.124258004,
      -0.0351865,
      0.959783,
      -0.33743677
    ],
    [
      -0.100731626,
      -0.13228783,
      1.2414435,
      -0.11189281
    ],
    [
      0.1122089,
      0.26028523,
      0.77761936,
      -0.123590134
    ],
    [
      0.13952042,
      0.24092282,
      1.1757164,
      -0.11446112
    ],
    [
      -0.07630952,
      -0.015257611,
      1.0461355,
      0.05428301
    ],
    [
      0.18169336,
      -0.09007963,
      1.5130149,
      -0.099169806
    ],
    [
      -0.17280123,
      -0.09385879,
      -0.20126507,
      -0.10584065
    ],
    [
      -0.06443325,
      0.32924938,
      0.68354577,
      -0.19927448
    ],
    [
      -0.13814129,
      -0.01584526,
      -0.35997432,
      -0.07353283
    ],
    [
      -0.23942152,
      -0.16557401,
      -0.7067576,
      0.08473225
    ],
    [
      -0.11937304,
      0.08619339,
      -0.9595705,
      0.02508072
    ],
    [
      0.07180737,
      0.34177673,
      -0.41392696,
      0.25942472
    ],
    [
      -0.006132871,
      -0.09015229,
      -0.8485841,
      -0.07242741
    ],
    [
      -0.04044499,
      0.0852792,
      0.5703424,
      0.2080691
    ],
    [
      -0.07952186,
      0.086081326,
      1.0312448,
      -0.0740831
    ],
    [
      -0.32943627,
      0.051593576,
      -0.3773607,
      -0.061742444
    ],
    [
      -0.19845189,
      -0.219881,
      0.57529646,
      0.03139497
    ],
    [
      -0.16714992,
      -0.26906058,
      -0.29279062,
      0.34159666
    ],
    [
      0.017139452,
      0.17825812,
      -0.99824166,
      -0.010863318
    ],
    [
      0.17430189,
      -0.2050462,
      -0.5416337,
      0.18340161
    ],
    [
      0.22411191,
      0.31827694,
      -0.61236954,
      0.024210522
    ],
    [
      0.23114659,
      -0.22136222,
      0.64293635,
      -0.21789847
    ],
    [
      0.20903052,
      0.09571135,
      -0.73679477,
      -0.017702648
    ],
    [
      0.21861668,
      0.18551084,
      -0.58274376,
      -0.0076112733
    ],
    [
      0.03967416,
      0.15420744,
      -0.9821326,
      -0.029800665
    ],
    [
      0.012764899,
      0.007974444,
      0.5825986,
      0.18863551
    ],
    [
      -0.22412138,
      -0.11760542,
      -0.82640725,
      -0.37158903
    ],
    [
      0.2440037,
      0.2334279,
      -0.5029964,
      0.044120714
    ],
    [
      -0.04316431,
      -0.081784844,
      -1.367558,
      0.3937414
    ],
    [
      -0.1557299,
      -0.17866726,
      -0.15945101,
      -0.12838599
    ],
    [
      -0.09183413,
      -0.35754535,
      0.5945547,
      0.079954356
    ],
    [
      -0.11062156,
      -0.17196573,
      -0.49754053,
      0.00800987
    ],
    [
      -0.07168875,
      -0.000935659,
      -0.8105328,
      -0.025076168
    ],
    [
      0.23430757,
      0.41526404,
      0.66881114,
      -0.07483857
    ],
    [
      0.028061071,
      0.15597081,
      1.0649045,
      0.13066068
    ],
    [
      0.0796594,
      0.17060216,
      0.89056975,
      0.038263798
    ],
    [
      0.084975936,
      0.12959655,
      0.3152411,
      0.25277737
    ],
    [
      -0.085535,
      -0.23979308,
      -0.92836154,
      -0.22282456
    ],
    [
      -0.029516578,
      0.07877913,
      0.8011951,
      0.24823785
    ],
    [
      -0.1464159,
      -0.28073916,
      0.58862793,
      -0.2504374
    ],
    [
      0.20588642,
      0.13426177,
      -0.9707686,
      -0.004706553
    ],
    [
      0.21267962,
      -0.16748613,
      -0.8039435,
      -0.15850037
    ],
    [
      -0.38883668,
      -0.14693171,
      0.22912157,
      0.24412772
    ],
    [
      -0.3495683,
      -0.16681431,
      0.38658872,
      0.05364738
    ],
    [
      -0.21348988,
      -0.20948648,
      -0.060809672,
      0.086595364
    ],
    [
      0.20307936,
      0.073506,
      -0.20375118,
      0.025662256
    ],
    [
      -0.19358705,
      0.010857875,
      -0.027846148,
      -0.08324568
    ],
    [
      -0.26169294,
      -0.03574811,
      -0.18948114,
      -0.25674263
    ],
    [
      0.03226148,
      -0.15985136,
      -0.7268142,
      -0.20401265
    ],
    [
      -0.2734679,
      -0.089233324,
      -0.41578856,
      0.046904735
    ],
    [
      -0.14145356,
      0.035692234,
      -0.72360545,
      -0.08974534
    ],
    [
      -0.12424782,
      -0.34663713,
      0.11736813,
      0.020279508
    ],
    [
      -0.3028868,
      -0.011984988,
      -0.57124704,
      -0.22321653
    ],
    [
      0.15938602,
      0.16578591,
      -0.40962392,
      0.23105824
    ],
    [
      -0.30554727,
      -0.15992679,
      0.75833577,
      0.06329205
    ],
    [
      0.16792727,
      0.1577446,
      -0.7735547,
      -0.12785152
    ],
    [
      0.046782393,
      0.07948319,
      -1.1165717,
      0.12103254
    ],
    [
      -0.02319817,
      0.047110446,
      0.9662841,
      0.15403424
    ],
    [
      -0.19770727,
      -0.28907278,
      -0.37415925,
      -0.32983008
    ],
    [
      0.19020078,
      0.0438263,
      1.1507319,
      0.055980537
    ],
    [
      -0.097195484,
      -0.056381013,
      -1.079767,
      -0.14140975
    ],
    [
      -0.017280659,
      0.17567927,
      1.1509496,
      0.19509088
    ],
    [
      0.036044132,
      0.08146875,
      0.899591,
      -0.074045815
    ],
    [
      0.19142352,
      -0.09674064,
      -1.0011374,
      -0.11625762
    ],
    [
      -0.33106667,
      -0.1621953,
      0.8396455,
      0.16381715
    ],
    [
      0.17074732,
      0.10972043,
      0.35877815,
      -0.27851015
    ],
    [
      0.023415664,
      -0.3011402,
      -0.75001055,
      0.7652947
    ],
    [
      0.32209462,
      0.17749836,
      -0.92225087,
      -0.20171067
    ],
    [
      0.14812595,
      0.13679323,
      -0.7880436,
      0.02393792
    ],
    [
      0.1125256,
      0.09634105,
      0.5430722,
      0.18532465
    ],
    [
      -0.08677354,
      -0.30287358,
      -0.9798065,
      -0.18877685
    ],
    [
      0.08345956,
      -0.13022661,
      -0.52306134,
      -0.35628918
    ],
    [
      0.082661636,
      0.122383185,
      0.9260902,
      0.16678914
    ],
    [
      0.2513709,
      -0.06335306,
      0.8147428,
      0.23182128
    ],
    [
      -0.06253484,
      -0.28508124,
      -1.1958154,
      0.19320442
    ],
    [
      0.018304678,
      -0.14761151,
      -0.61309826,
      -0.18487525
    ],
    [
      -0.08597662,
      -0.045020364,
      -1.136696,
      -0.10360986
    ],
    [
      0.31516108,
      0.19472183,
      -0.7661262,
      -0.14266913
    ],
    [
      -0.20123398,
      -0.02892234,
      -0.7841414,
      0.022994025
    ],
    [
      -0.07774358,
      -0.030534921,
      -0.93441457,
      0.013536335
    ],
    [
      0.18702047,
      0.18397363,
      0.6620287,
      0.17827103
    ],
    [
      0.2962968,
      0.25813773,
      -0.7173403,
      -0.16301642
    ],
    [
      0.34760907,
      0.040418945,
      0.27472013,
      -0.31751397
    ],
    [
      0.1884251,
      0.08340928,
      -0.38822255,
      0.03455675
    ],
    [
      0.04228062,
      -0.08181668,
      0.6980308,
      0.10572947
    ],
    [
      -0.115856156,
      -0.08702951,
      -0.04882695,
      -0.1568585
    ],
    [
      -0.23794311,
      -0.14516684,
      1.0135454,
      -0.057514533
    ],
    [
      0.06877631,
      0.113600306,
      0.4746556,
      0.19593102
    ],
    [
      -0.37522668,
      -0.12569894,
      0.92793685,
      0.239279
    ],
    [
      0.20187016,
      0.36321196,
      0.77999365,
      -0.6027544
    ],
    [
      0.013400105,
      -0.07895576,
      -0.8194884,
      -0.16063337
    ],
    [
      0.11021265,
      0.021098567,
      0.5485112,
      0.19068956
    ],
    [
      0.14749914,
      -0.059145954,
      -0.031234795,
      -0.12416983
    ],
    [
      0.19906859,
      0.07403501,
      -0.59119904,
      0.019522257
    ],
    [
      -0.23856696,
      -0.07197074,
      0.53025997,
      -0.0074050236
    ],
    [
      -0.24808982,
      -0.26643214,
      0.5447537,
      0.11134611
    ],
    [
      0.10861987,
      0.19343244,
      -0.68972015,
      -0.056597143
    ],
    [
      0.09057128,
      0.16916955,
      1.1332208,
      0.14022146
    ],
    [
      -0.4272037,
      -0.06862212,
      0.21174623,
      -0.17123574
    ],
    [
      0.010269592,
      0.10151426,
      -1.0587745,
      -0.07304261
    ],
    [
      0.058534317,
      0.059228245,
      1.0787811,
      0.15412007
    ],
    [
      -0.14644352,
      -0.06290798,
      -1.2212913,
      -0.17239895
    ],
    [
      -0.09125058,
      -0.1265544,
      1.3559867,
      0.035032295
    ],
    [
      0.24148189,
      0.31417918,
      -0.7950779,
      0.02955853
    ],
    [
      -0.07488593,
      0.34134713,
      -0.13245423,
      -0.069944866
    ],
    [
      -0.2838473,
      -0.18381187,
      0.5060862,
      0.10451642
    ],
    [
      0.078893505,
      0.20357485,
      0.3982392,
      0.39126387
    ],
    [
      -0.021223597,
      -0.3886091,
      0.4319896,
      -0.20443451
    ],
    [
      0.067489214,
      0.24179673,
      0.21544535,
      0.1825102
    ],
    [
      -0.21244888,
      -0.14277813,
      0.82585055,
      0.20449513
    ],
    [
      -0.099108204,
      -0.10478779,
      -0.519542,
      -0.1683704
    ],
    [
      -0.14503828,
      -0.15716398,
      1.0205592,
      -0.038669806
    ],
    [
      0.12206031,
      0.30308208,
      0.108058356,
      0.31151527
    ],
    [
      -0.30550554,
      0.117174424,
      -0.83581847,
      0.18895808
    ],
    [
      0.08956589,
      0.115869716,
      1.4127047,
      0.023058353
    ],
    [
      -0.18911548,
      -0.10403331,
      0.2647519,
      0.17819977
    ],
    [
      -0.33411682,
      -0.045102134,
      0.41003177,
      -0.016300308
    ],
    [
      0.048837494,
      0.011490919,
      0.6324626,
      0.09952159
    ],
    [
      -0.21332508,
      -0.058681596,
      0.80104345,
      -0.061467167
    ],
    [
      -0.18832761,
      -0.18890971,
      0.4907382,
      -0.20508482
    ],
    [
      0.014086271,
      0.14164293,
      0.97105724,
      0.09824833
    ],
    [
      -0.36406654,
      0.19851166,
      -0.15975891,
      0.27673844
    ],
    [
      -0.19333886,
      0.07178766,
      -0.8782861,
      -0.17686173
    ],
    [
      0.14442454,
      -0.12272608,
      0.8672318,
      -0.031388767
    ],
    [
      -0.33990777,
      -0.13150966,
      0.38186276,
      0.17494375
    ],
    [
      -0.17366207,
      -0.09545712,
      0.15528882,
      -0.37889364
    ],
    [
      0.04088443,
      0.08311399,
      -0.5120807,
      0.33442885
    ],
    [
      -0.05604877,
      0.18555202,
      0.8780979,
      0.21225545
    ],
    [
      -0.31548342,
      -0.04347163,
      -0.50449437,
      0.295769
    ],
    [
      0.16994323,
      0.12493905,
      -0.54029286,
      0.03341807
    ],
    [
      -0.28839618,
      -0.13981086,
      0.31510684,
      -0.06427565
    ],
    [
      0.12781098,
      0.04117956,
      0.50850683,
      0.18326086
    ],
    [
      -0.09957765,
      0.09056239,
      1.0720886,
      -0.005855933
    ],
    [
      -0.1560186,
      -0.07682805,
      -0.7808605,
      -0.02777391
    ],
    [
      0.040941097,
      0.2517923,
      0.73857677,
      0.410414
    ],
    [
      -0.14189011,
      0.061686084,
      -0.64227957,
      -0.15974621
    ],
    [
      0.18261184,
      -0.060497284,
      -0.08956217,
      0.43277457
    ],
    [
      0.025135284,
      0.17173018,
      1.0200645,
      0.04448288
    ],
    [
      -0.27814594,
      -0.022752387,
      0.96190155,
      0.09508955
    ],
    [
      -0.15018654,
      0.10177425,
      -0.9537055,
      -0.08442536
    ],
    [
      -0.06032496,
      -0.10441923,
      -0.9264899,
      -0.11627884
    ],
    [
      -0.20845786,
      0.07889451,
      1.074882,
      -0.096464224
    ]
  ],
  "shared_fc1_bias": [
    0.64183795,
    0.3005879,
    0.73475426,
    0.5546227,
    -0.1940619,
    -0.6967368,
    -0.12537573,
    0.52252126,
    0.4930473,
    -0.32601705,
    -0.7313416,
    -0.35621855,
    -0.5982395,
    0.86342233,
    0.43752995,
    -0.37566796,
    0.94897455,
    0.47629106,
    -0.20921302,
    -0.5389546,
    0.31571895,
    0.69986314,
    0.46824613,
    -0.66602093,
    0.80164284,
    0.5483565,
    -0.53422177,
    0.43515685,
    -0.16474853,
    0.49368516,
    -0.4873715,
    0.57461625,
    0.49584192,
    -0.39676723,
    -0.6220033,
    -0.8446964,
    0.5885836,
    0.51224834,
    -0.7814539,
    0.4179117,
    -0.2020673,
    0.71425205,
    0.46469808,
    0.4385322,
    -0.78060347,
    -0.58742607,
    0.4905536,
    0.2785228,
    -0.61171424,
    -0.42147267,
    0.5546778,
    0.41732875,
    0.563314,
    0.68402404,
    0.266608,
    -0.52675945,
    -0.58647364,
    0.8158218,
    0.42082176,
    0.8834736,
    0.72927016,
    0.47425354,
    -0.7904026,
    -0.9603167,
    0.19029564,
    -0.68933064,
    -0.3657631,
    -0.66357017,
    -0.080853924,
    0.63518053,
    -0.63869476,
    -0.45143077,
    0.3771894,
    -0.34726837,
    -0.23248585,
    -0.18049285,
    0.49270573,
    0.5879143,
    -0.36227292,
    -0.6125027,
    -0.48523617,
    0.8801678,
    0.665369,
    -0.6738344,
    0.6448031,
    -0.5724086,
    -0.76219064,
    0.43912417,
    0.7235021,
    0.43203467,
    -0.19870512,
    -0.7241854,
    0.7347815,
    0.2505568,
    -0.85368043,
    0.49861318,
    -0.31540728,
    -0.3692523,
    -0.56397396,
    -0.52013963,
    0.490642,
    -0.34014907,
    -0.58817524,
    -0.69656193,
    -0.467186,
    0.29213512,
    -0.717411,
    -0.44011334,
    -0.47196165,
    -0.6202351,
    -0.38341,
    -0.22381772,
    -0.49952257,
    -0.17186935,
    0.27030125,
    -0.27431917,
    -0.32355464,
    -0.18314433,
    -0.5102225,
    -0.18922685,
    0.3551604,
    0.31036052,
    -0.56765246,
    0.8399832,
    -0.361877,
    -0.60693234,
    -0.17375675,
    -0.5037908,
    0.33109206,
    0.87232727,
    0.46563882,
    -0.73140377,
    0.5416852,
    -0.15140525,
    -0.41001204,
    0.5896926,
    0.6875404,
    -0.48678327,
    0.4003542,
    0.3132403,
    0.6607243,
    -0.6260216,
    -0.37708753,
    -0.7198034,
    0.8732179,
    -0.69256175,
    -0.22183445,
    0.95727533,
    -0.19463857,
    0.31801122,
    0.49093574,
    0.47282758,
    -0.45772547,
    -0.73494285,
    -0.21867993,
    -0.6062157,
    0.73489565,
    0.9858202,
    0.607835,
    -0.65772897,
    -0.679719,
    0.68762076,
    0.521783,
    0.7930603,
    -0.40559617,
    0.38778606,
    0.72865456,
    0.7189609,
    -0.7835864,
    -0.59221184,
    -0.5330518,
    -0.4674637,
    0.77643484,
    -0.3755309,
    0.44814143,
    -0.48550722,
    0.3463473,
    -0.77150065,
    -0.63582295,
    0.6913462,
    -0.06791978,
    0.6690364,
    -0.48464838,
    0.428232,
    0.5843253,
    -0.60020095,
    0.3472831,
    -0.634032,
    -0.57099384,
    -0.20917276,
    0.3636632,
    0.8378692,
    -0.560776,
    -0.21071921,
    0.727242,
    -0.8807797,
    0.7373328,
    0.82822096,
    0.27559754,
    -0.72282726,
    0.63364524,
    0.25683454,
    -0.83194715,
    -0.2754325,
    0.43624577,
    -0.5014952,
    0.9616352,
    -0.41162074,
    -0.6429864,
    -0.85784763,
    -0.43473014,
    -0.28122556,
    0.953141,
    0.6886488,
    -0.48768136,
    0.42649597,
    -0.63155323,
    -0.8863664,
    0.83536184,
    0.8221916,
    -0.36559626,
    0.38273287,
    -0.64447474,
    -0.35418865,
    -0.47089246,
    -0.37654448,
    -0.545976,
    0.58248204,
    -0.13424106,
    0.558816,
    0.5485925,
    0.5984574,
    0.3308019,
    0.3493417,
    0.48963597,
    0.5438225,
    0.6207867,
    -0.12048264,
    -0.99499714,
    0.2567541,
    0.6595049,
    0.5296165,
    0.6665479,
    0.5477267,
    0.864874,
    0.621177,
    0.47880232,
    -0.3557098,
    -0.51006436,
    -0.44697312,
    -0.54299784,
    -0.40719196,
    -0.5994272,
    0.29569137,
    -0.39069948,
    0.3427054
  ],
  "shared_fc2_weight": [
    [
      0.6290554,
      0.6208479,
      0.7848183,
      0.0158266,
      -0.37351462,
      0.13060635,
      0.39687544,
      0.9954338,
      -0.042861506,
      0.034295958,
      0.06503897,
      -0.548545,
      0.08543675,
      0.055505686,
      -0.034894124,
      -0.19915345,
      -0.0534257,
      -0.17022145,
      0.07042753,
      0.019965198,
      -0.17336158,
      -0.011402032,
      -0.1075265,
      -0.73868805,
      0.8886426,
      0.39098945,
      -0.035366166,
      0.1109061,
      0.32029572,
      -0.041968565,
      -0.047711283,
      0.51394343,
      0.76349115,
      -0.59972984,
      -0.026601149,
      0.14537928,
      0.30733538,
      0.99755114,
      -0.78892034,
      -0.07817257,
      -0.0020587759,
      0.8424646,
      0.068126254,
      0.89514476,
      -0.6777926,
      0.15849403,
      0.8051846,
      0.17599624,
      -0.6141359,
      0.12223954,
      0.2163652,
      0.27466303,
      0.02534712,
      1.1544187,
      0.400774,
      0.04025491,
      -0.11630297,
      0.086203076,
      0.49944654,
      -0.052859135,
      1.2565022,
      0.24796768,
      -0.689367,
      -0.6201284,
      -0.259013,
      -0.039038517,
      -0.29692233,
      -0.3904338,
      -0.5773393,
      -0.07137073,
      -0.24877106,
      0.094822705,
      -0.019726042,
      0.14320919,
      0.051419806,
      -0.22470894,
      0.24712884,
      -0.058074255,
      0.061773226,
      -0.030466994,
      -0.09097702,
      1.4498405,
      0.9151559,
      -0.07831505,
      0.094435684,
      -0.04786494,
      -0.6917509,
      0.41969112,
      0.100128695,
      -0.16850339,
      -0.15169914,
      -0.59167403,
      0.08473747,
      -0.14885338,
      -1.2114863,
      -0.1563825,
      -0.2400759,
      -0.96369237,
      -0.027536374,
      -0.2809008,
      -0.14624296,
      -0.9694099,
      -0.8248444,
      -0.7886616,
      -0.022866398,
      0.12785226,
      0.08106617,
      -0.14121898,
      -0.15488093,
      -1.3691719,
      -0.5238322,
      0.0040081167,
      0.024041146,
      0.10093682,
      0.41410783,
      0.052030142,
      0.034010775,
      -0.43476075,
      0.068929344,
      -0.80674386,
      0.5843062,
      0.11794057,
      0.08176937,
      0.55286604,
      0.044068042,
      -0.2555882,
      -0.10966046,
      -0.15114154,
      0.4940675,
      1.7278181,
      0.4645951,
      -0.0063105044,
      -0.044242032,
      -0.4686532,
      -0.41734654,
      -0.068013825,
      0.036349937,
      -0.6490873,
      0.040327344,
      -0.22169006,
      0.8406269,
      -0.61485106,
      0.1870317,
      -0.13086285,
      0.002045906,
      -0.034504738,
      0.35174406,
      -0.3040755,
      -0.23810294,
      -0.08649818,
      0.09006613,
      0.008706344,
      -0.21938048,
      0.04549331,
      -0.30113596,
      -0.7544572,
      0.93068093,
      0.8110963,
      1.0812938,
      -0.7240669,
      0.042614777,
      1.0130606,
      0.07694166,
      1.1165128,
      0.18569458,
      0.30339038,
      1.4729638,
      -0.024747496,
      -0.0040245177,
      -0.56168556,
      0.049427614,
      -0.2010681,
      0.49984667,
      -1.1620167,
      0.30035523,
      0.016971864,
      -0.23312193,
      -0.44389033,
      -0.12712479,
      0.084724426,
      0.06915953,
      -0.05978352,
      -0.5767843,
      -0.107880466,
      0.23811668,
      -0.12475235,
      -0.043921772,
      -0.89119864,
      -0.12064362,
      0.00086444657,
      0.64413846,
      0.14105852,
      0.14636452,
      0.18675874,
      0.030184405,
      -0.9846932,
      -0.1454251,
      0.0030158435,
      -0.17218179,
      -0.050476428,
      0.11218444,
      -0.026429081,
      -0.09776938,
      -0.61403126,
      0.18453373,
      -0.815013,
      0.03442857,
      -0.5892142,
      0.009597576,
      -0.038156312,
      -0.07426352,
      -0.46492904,
      1.1509566,
      0.24318567,
      -0.06329664,
      0.77042353,
      -0.07131049,
      -0.6726368,
      0.11911263,
      0.72943306,
      -0.27258357,
      0.00005926638,
      -0.2694127,
      0.12738982,
      0.22578333,
      -0.12870564,
      -0.2427344,
      0.912274,
      -0.35994142,
      0.27159137,
      0.6621095,
      -0.012244059,
      0.7143954,
      0.63022256,
      0.013041449,
      0.7346346,
      0.692789,
      -0.65742034,
      -0.1003451,
      0.35034087,
      0.01600816,
      0.16611005,
      1.1766529,
      -0.2302662,
      1.2831067,
      0.10790126,
      0.27224672,
      0.14828028,
      -0.29216456,
      0.096189335,
      -0.5755008,
      0.029234318,
      0.025408,
      0.5597795,
      0.09364693,
      0.49278277
    ],
    [
      -0.18945977,
      0.22037958,
      0.13868925,
      0.40985534,
      0.13448942,
      -0.35723737,
      0.07535505,
      0.22852421,
      0.32512653,
      -0.050262466,
      -0.6614738,
      0.32873714,
      -0.34109035,
      0.4810387,
      0.8914875,
      -0.22894451,
      0.14200917,
      -0.21740392,
      0.04122657,
      -0.052113708,
      0.07968242,
      0.21057075,
      0.17763382,
      -0.1166891,
      0.28069457,
      -0.09942121,
      -0.18587478,
      0.031943843,
      0.105880134,
      0.15509033,
      -0.0030719892,
      -0.10155739,
      0.308569,
      -0.016665164,
      -0.34105268,
      -0.12638043,
      0.36729264,
      0.22718658,
      -0.19973387,
      0.16905177,
      0.15183635,
      0.08136649,
      -0.013288907,
      -0.02567392,
      0.015293597,
      -0.34898382,
      -0.03399576,
      0.088735774,
      0.14147592,
      -0.08635324,
      0.12207755,
      0.241364,
      0.20804867,
      0.13396774,
      0.09843346,
      -0.14853638,
      -0.11928413,
      0.48838863,
      0.055743787,
      0.27894506,
      0.0403853,
      0.0642664,
      0.05204816,
      -0.020487824,
      0.04452367,
      -0.5078761,
      0.18887195,
      -0.13823251,
      -0.3092112,
      -0.022086846,
      -0.23673204,
      -0.15452321,
      0.060904812,
      0.10213803,
      -0.24669787,
      0.1692599,
      -0.017300462,
      0.31060255,
      0.09911725,
      -0.47216168,
      -0.40217033,
      0.31409368,
      0.33168265,
      -0.0643283,
      0.35720322,
      -0.2678418,
      -0.20449662,
      -0.24324244,
      0.28491962,
      -0.006563626,
      -0.118496135,
      -0.24125303,
      0.36857495,
      -0.23398584,
      -0.2783057,
      0.10088353,
      -0.032669757,
      0.004856141,
      0.042844508,
      -0.20980817,
      0.27263114,
      0.024500472,
      -0.058543347,
      -0.15583612,
      0.18563458,
      0.12170075,
      -0.22988522,
      -0.074928515,
      -0.15113182,
      -0.07073323,
      -0.19196366,
      -0.09379617,
      -0.3629276,
      -0.14036912,
      -0.11616908,
      -0.4075094,
      -0.2461085,
      0.014845229,
      -0.25416103,
      -0.080612324,
      0.09424801,
      0.18836157,
      0.012228069,
      0.08296432,
      0.09893685,
      0.1299409,
      0.022043213,
      -0.32338575,
      0.118405044,
      0.15542883,
      -0.24612044,
      -0.14523359,
      0.16590963,
      0.058407404,
      0.088049114,
      0.15832728,
      0.20617752,
      0.13286975,
      0.29818606,
      -0.06373036,
      0.22873698,
      0.011349354,
      -0.25771523,
      -0.45870453,
      0.004097299,
      -0.12495587,
      -0.08494246,
      0.10906097,
      -0.2108022,
      0.30583256,
      0.13761346,
      0.39837313,
      -0.14248894,
      -0.20050363,
      0.277611,
      -0.19598214,
      0.12831494,
      0.0036345802,
      0.19844702,
      -0.16041481,
      -0.06043095,
      0.084031366,
      0.38344282,
      -0.074006766,
      -0.09903207,
      -0.14396895,
      0.31036183,
      0.7052932,
      -0.28012902,
      -0.015166809,
      -0.2710083,
      -0.41232124,
      0.0026332077,
      -0.21251133,
      0.28378767,
      -0.26768926,
      0.10961695,
      -0.17345715,
      -0.5625137,
      0.13281268,
      -0.19182293,
      0.37103197,
      0.0184874,
      -0.0792454,
      0.07906649,
      -0.24637151,
      0.04328467,
      -0.17854892,
      -0.12045876,
      0.0493133,
      0.18074039,
      0.37280813,
      -0.0080839945,
      0.003852243,
      0.08757246,
      -0.21459885,
      0.14684112,
      0.33237085,
      -0.30650315,
      -0.2849795,
      0.19635054,
      0.07209057,
      -0.62451565,
      0.029622009,
      0.35627097,
      -0.12827411,
      0.25543746,
      0.14035788,
      -0.6376543,
      -0.20734493,
      0.14068231,
      -0.19578911,
      0.14844958,
      0.19283725,
      -0.17829582,
      0.24516103,
      -0.31760967,
      -0.10755798,
      0.25445142,
      0.045977984,
      0.07927107,
      -0.0057278695,
      0.060546137,
      -0.06484528,
      0.0065396526,
      -0.7552429,
      0.013821566,
      0.27152312,
      -0.20458755,
      0.092681296,
      0.17711808,
      0.05915561,
      -0.045973655,
      -0.12143743,
      0.16629253,
      0.097730085,
      0.35926095,
      -0.06108039,
      -0.6273752,
      -0.08878692,
      0.2717801,
      0.06041646,
      0.28003255,
      0.34527174,
      0.10716656,
      0.100946404,
      0.10957918,
      0.0025518488,
      0.12356427,
      0.24141581,
      -0.06484712,
      -0.20021543,
      -0.5706972,
      0.17585047,
      0.043601792,
      -0.24870329
    ],
    [
      -0.022166865,
      -0.07250215,
      -0.10695634,
      0.22194406,
      0.2230152,
      0.13774659,
      -0.26833302,
      0.013616842,
      0.25150165,
      -0.051196575,
      -0.1975623,
      0.16862254,
      -0.61893886,
      0.3585614,
      0.18254478,
      0.05424756,
      -0.1424933,
      0.49483475,
      -0.13455655,
      -0.31647098,
      0.18200076,
      0.4933331,
      0.21931744,
      0.21437806,
      0.061679117,
      -0.2736034,
      -0.19583875,
      -0.293865,
      -0.1919941,
      0.6542197,
      -0.10330338,
      -0.22432579,
      -0.21080288,
      0.41529736,
      -0.4288026,
      -0.025989572,
      -0.07838907,
      -0.13771161,
      0.12630992,
      0.030624611,
      0.17457147,
      -0.061747987,
      0.22986862,
      -0.12763497,
      0.35055083,
      -0.40078422,
      -0.20434117,
      -0.2531086,
      0.08949245,
      -0.19970463,
      0.39599138,
      -0.08610736,
      0.20159414,
      -0.30820397,
      -0.4345172,
      -0.1049371,
      0.024291545,
      0.8182671,
      -0.003289756,
      0.5182513,
      -0.11101725,
      -0.18477736,
      0.083709486,
      0.25498176,
      0.38233322,
      -0.62733597,
      0.2544696,
      0.09782563,
      0.10783651,
      0.431746,
      0.16796067,
      -0.49866474,
      -0.26260716,
      -0.9399651,
      -0.024474492,
      0.2717783,
      -0.12590034,
      0.26877448,
      -0.088011846,
      -0.13996759,
      0.2540014,
      -0.0511795,
      -0.33071405,
      -0.5688839,
      -0.15628651,
      -0.046648093,
      0.10754576,
      -0.29893124,
      0.060725544,
      0.51891375,
      0.11447337,
      0.20542617,
      0.44110548,
      0.15617658,
      0.14179966,
      0.29728374,
      0.26031455,
      0.20601177,
      -0.121888734,
      0.029675933,
      -0.28796315,
      0.1299617,
      -0.08016345,
      0.13397712,
      -0.7595032,
      -0.17789315,
      -1.037,
      0.05745225,
      0.17946485,
      -0.022960426,
      0.14975166,
      -0.21219599,
      -0.19381298,
      0.074869744,
      -0.28993952,
      -0.012799819,
      -0.099060886,
      0.33803746,
      0.16857418,
      0.29112568,
      -0.35424516,
      0.21583514,
      -0.44069803,
      -0.098005466,
      0.1400246,
      0.1889277,
      0.040801905,
      0.123827785,
      -0.105411254,
      -0.1688846,
      -0.34386277,
      -0.3379259,
      -0.11649094,
      -0.05452684,
      0.39816397,
      0.2934041,
      0.704931,
      0.2155304,
      0.060349327,
      0.00017077026,
      -0.12276394,
      0.13196051,
      -0.40579444,
      -0.21524027,
      -0.08507305,
      -0.40609786,
      -0.26099885,
      0.17705408,
      0.112807564,
      0.27608484,
      0.18448925,
      0.05178362,
      0.09250576,
      -0.15451603,
      0.3823379,
      0.24751654,
      -0.18565594,
      -0.1048496,
      -0.3143381,
      0.14802644,
      -0.36226088,
      -0.19648151,
      -0.07684939,
      -0.18711083,
      -0.0437981,
      -0.28782445,
      -0.18383107,
      0.5192204,
      -0.5364213,
      0.19816889,
      0.05809646,
      -0.039083946,
      -0.24530369,
      -0.01232745,
      -0.0146563295,
      0.03722051,
      0.20460325,
      0.21050249,
      -1.0825871,
      0.7716667,
      -0.1578883,
      0.80248153,
      0.18178846,
      0.09310824,
      -0.12879923,
      0.09043163,
      -0.0416432,
      0.025553355,
      -0.4251227,
      0.12771334,
      -0.14976291,
      0.8341508,
      -0.36453348,
      -0.23026282,
      0.7384445,
      0.18633892,
      0.98518926,
      0.6326845,
      0.07074711,
      -0.2760995,
      -0.011380617,
      -0.088944115,
      -1.0061154,
      0.20818134,
      0.057194356,
      0.16440032,
      0.06815765,
      0.33822808,
      -0.42542338,
      -0.5676438,
      0.08491051,
      -0.04946808,
      -0.08461933,
      0.18436942,
      0.029366517,
      -0.0065487516,
      0.08391173,
      0.17558908,
      -0.10657654,
      -0.26076576,
      0.24265662,
      -0.25697044,
      0.064569615,
      -0.4212743,
      -0.2814643,
      0.08286507,
      0.12644885,
      -0.07401102,
      0.27572367,
      -0.45258522,
      -0.18241055,
      0.41609684,
      -0.3971534,
      -0.21694663,
      0.24822585,
      -0.16993695,
      -0.21740128,
      0.21047747,
      -0.92211896,
      -0.1648418,
      0.35881865,
      0.025127608,
      -0.051693723,
      0.20336904,
      -0.15198737,
      0.44543475,
      -0.20680787,
      -0.42833233,
      0.09603601,
      -0.09650164,
      0.27785924,
      -0.123704694,
      -0.49374634,
      -0.1573631,
      -0.11975732,
      -0.2713103
    ],
    [
      -0.59425366,
      -0.662359,
      -0.6275566,
      0.12477362,
      0.31542075,
      0.07694749,
      -0.33707857,
      -1.089539,
      -0.095311135,
      -0.13010807,
      0.10541044,
      0.37451085,
      0.09418776,
      -0.15638307,
      -0.15067418,
      0.29306656,
      -0.00069552823,
      0.11673161,
      -0.24818127,
      -0.14535247,
      0.022884145,
      0.1840924,
      0.056516364,
      0.81301475,
      -0.7185985,
      -0.40919837,
      0.23582704,
      0.15316351,
      -0.31305343,
      0.00088814605,
      0.08527204,
      -0.6232602,
      -0.5829626,
      0.7246111,
      -0.005762027,
      -0.020499755,
      -0.2904828,
      -0.99812496,
      0.70549965,
      -0.028697904,
      -0.012930829,
      -0.8496218,
      0.14749062,
      -0.874506,
      0.5568922,
      0.086082265,
      -0.72874683,
      -0.31383786,
      0.42441297,
      -0.044023473,
      0.029826572,
      -0.26356167,
      0.22242878,
      -1.2363503,
      -0.3254056,
      -0.10595264,
      0.11318635,
      0.118260436,
      -0.3987401,
      -0.0058088573,
      -1.1210549,
      -0.4759805,
      0.7462668,
      0.6161949,
      0.18003926,
      -0.021050079,
      0.54214716,
      0.34633636,
      0.7407463,
      0.075116485,
      0.12580709,
      -0.0153350625,
      0.11804376,
      -0.09563989,
      0.24638687,
      0.33121896,
      -0.101796605,
      0.032894913,
      0.03152336,
      0.031605095,
      0.009355054,
      -1.5164942,
      -0.6550404,
      0.036636982,
      0.0052181706,
      -0.031028436,
      0.44764304,
      -0.3085961,
      0.07403448,
      -0.056546748,
      0.017399255,
      0.5159668,
      0.024692401,
      0.32583946,
      1.3364936,
      0.058054097,
      0.23241638,
      0.8956828,
      -0.0069213915,
      0.35431248,
      0.017305,
      0.8412304,
      0.66638625,
      0.910513,
      -0.102803916,
      -0.03962465,
      0.06355492,
      0.024538655,
      0.27331975,
      1.2876109,
      0.57995576,
      0.006675995,
      -0.009467856,
      -0.07272973,
      -0.34086078,
      0.039784305,
      -0.09932573,
      0.3682197,
      -0.019970767,
      0.75200856,
      -0.7262962,
      -0.047164757,
      -0.053868327,
      -0.6986739,
      -0.17690936,
      0.35234892,
      0.04207206,
      0.186623,
      -0.40202034,
      -1.742196,
      -0.51528794,
      0.110681444,
      -0.2745361,
      0.3094853,
      0.57924765,
      0.009106629,
      0.17461462,
      0.35952398,
      -0.0816812,
      0.15906975,
      -0.80605364,
      0.605224,
      -0.10380151,
      -0.07382756,
      -0.0044653444,
      -0.13887353,
      -0.077581726,
      0.03164485,
      0.12077905,
      0.0008201277,
      -0.0095185805,
      -0.2511123,
      0.21592629,
      0.068269245,
      0.28672683,
      0.48934588,
      -0.8389454,
      -0.80457145,
      -0.8048346,
      0.8972669,
      -0.038549464,
      -0.9068352,
      0.048585333,
      -1.0834029,
      -0.10574102,
      -0.31476077,
      -1.7053425,
      0.11135743,
      -0.03784467,
      0.4196673,
      0.004070954,
      0.2542745,
      -0.62214744,
      1.4034822,
      -0.23512074,
      0.14444172,
      -0.044453472,
      0.36319244,
      0.085877284,
      0.096398026,
      -0.13385634,
      -0.08805717,
      0.72187227,
      0.09078278,
      -0.111890204,
      0.033542193,
      0.045854226,
      0.799394,
      -0.05192063,
      0.087292865,
      -0.7766029,
      0.04345355,
      0.04833631,
      -0.28836742,
      0.010212024,
      0.8647789,
      0.013311666,
      0.028252283,
      0.3096896,
      0.08088388,
      -0.23583588,
      0.17637224,
      0.0023001914,
      0.6581074,
      0.019965788,
      0.9034247,
      -0.19599451,
      0.42458218,
      -0.03637159,
      -0.026642695,
      -0.06955079,
      0.54939103,
      -0.91767865,
      -0.06324521,
      0.26604396,
      -0.6694222,
      0.0061253537,
      0.5735671,
      0.016107177,
      -0.7326315,
      0.25490624,
      0.067969166,
      0.35154366,
      -0.07271651,
      -0.10368297,
      -0.012908592,
      0.31141514,
      -1.0264472,
      0.27178565,
      -0.26531607,
      -0.7831611,
      0.096814595,
      -0.5577208,
      -0.48921347,
      0.12427371,
      -0.80633146,
      -0.75396043,
      0.7193567,
      -0.09985156,
      -0.41427827,
      0.014239154,
      -0.19291991,
      -1.2953278,
      0.17415868,
      -1.2976809,
      0.15094516,
      -0.4124538,
      -0.09098751,
      0.3319467,
      -0.18247889,
      0.6166759,
      0.07692035,
      -0.14577529,
      -0.6967133,
      -0.15502267,
      -0.49620423
    ],
    [
      0.3930331,
      0.5097775,
      0.7689257,
      0.09886675,
      -0.34263214,
      -0.017465975,
      0.012157441,
      0.8577174,
      -0.22683907,
      0.2657833,
      0.16144037,
      -0.23872443,
      -0.087429024,
      -0.1508086,
      0.021492345,
      -0.60481226,
      -0.02074404,
      -0.17214426,
      0.116622485,
      -0.012054904,
      -0.019017847,
      -0.14884922,
      0.06529177,
      -0.50820655,
      0.66897076,
      0.46564573,
      0.021747816,
      0.32014483,
      0.1243381,
      -0.08362814,
      0.10543989,
      0.5243006,
      0.55473495,
      -0.4706277,
      0.12718196,
      -0.18946555,
      0.30213812,
      0.51637584,
      -0.35558626,
      -0.008240441,
      0.09239432,
      1.0432327,
      -0.15105672,
      0.95271313,
      -0.785645,
      0.04890148,
      0.5096174,
      0.36162245,
      -0.4960094,
      0.22487035,
      -0.117723085,
      0.30906948,
      -0.20502685,
      0.89184815,
      0.288312,
      -0.13569924,
      -0.079897374,
      -0.11484046,
      0.5120941,
      -0.07920145,
      0.5697492,
      0.26528642,
      -0.55746645,
      -0.6402046,
      0.0019362271,
      0.035770394,
      -0.3851756,
      -0.2060667,
      -0.49425977,
      0.068864614,
      -0.24977735,
      0.10722712,
      -0.06992974,
      0.09772256,
      -0.31753525,
      0.2665911,
      0.5158154,
      -0.10908699,
      -0.009192735,
      0.1652685,
      -0.00562236,
      0.94251263,
      0.2937995,
      0.06633271,
      0.14465377,
      0.034101363,
      -0.4574393,
      0.184642,
      0.0867514,
      -0.03641687,
      -0.53781986,
      -0.4638945,
      -0.027913187,
      0.09105576,
      -0.9283584,
      -0.15534115,
      -0.38967794,
      -0.51544994,
      -0.036513004,
      -0.31102502,
      -0.10805502,
      -0.65789735,
      -0.513963,
      -0.3762017,
      0.20888065,
      0.5267917,
      0.13962787,
      -0.118177235,
      0.2725307,
      -0.9639679,
      -0.46308434,
      -0.42625654,
      0.1829555,
      -0.29849443,
      0.26861867,
      -0.021357762,
      0.055491712,
      -0.5470497,
      0.02548436,
      -0.57824343,
      0.76887006,
      0.017099923,
      0.042298235,
      0.74577236,
      0.1476795,
      -0.6447748,
      0.38090777,
      -0.16100416,
      0.3140567,
      1.2305633,
      0.31020904,
      -0.09195708,
      0.059230674,
      -0.17310432,
      -0.35361043,
      -0.052503843,
      -0.09872664,
      -0.32465515,
      -0.06415873,
      -0.11978144,
      0.72814536,
      -0.60635895,
      0.0018885453,
      0.046161294,
      0.12013214,
      0.08041614,
      0.27412525,
      -0.20438911,
      -0.62915045,
      -0.39894906,
      -0.09578555,
      0.28940317,
      -0.20011659,
      -0.04544466,
      -0.1636588,
      -0.1351981,
      0.5542767,
      0.777514,
      0.6446032,
      -0.56400293,
      -0.014522201,
      0.7784906,
      0.22366558,
      0.86843866,
      0.03321697,
      0.4762372,
      1.0820339,
      -0.09994156,
      0.097490065,
      -0.39000398,
      -0.012706542,
      -0.075071864,
      0.7985443,
      -0.7976317,
      0.16734983,
      -0.18755764,
      0.0017346995,
      -0.0946244,
      0.026946,
      0.009170147,
      -0.12576866,
      -0.09859565,
      -0.34175056,
      0.022700632,
      0.34605747,
      0.16132736,
      -0.2242537,
      -0.61515987,
      0.017696157,
      0.34456894,
      0.6486703,
      0.15338296,
      -0.1315685,
      0.1087453,
      -0.0718051,
      -1.0251719,
      0.09009165,
      -0.03763986,
      -0.19197132,
      0.04200249,
      0.40071958,
      -0.14356849,
      0.040187646,
      -0.44763112,
      0.010983597,
      -1.0380851,
      -0.042167146,
      -0.37111956,
      0.047040068,
      0.11574564,
      -0.10953101,
      -0.6406874,
      0.85928506,
      0.15956073,
      -0.026149094,
      0.85838914,
      -0.14507984,
      -1.0494455,
      0.042677987,
      0.7408562,
      -0.37167656,
      0.15741728,
      -0.5855638,
      0.06748425,
      0.11182012,
      0.004070207,
      -0.6703454,
      0.6502643,
      -0.5264489,
      0.54516655,
      0.45673898,
      -0.078679994,
      0.16109657,
      0.4106016,
      0.051199794,
      0.4517497,
      0.58772254,
      -0.35202155,
      0.11610688,
      0.36274147,
      -0.14493284,
      -0.033580977,
      0.85103095,
      0.08240399,
      1.3323615,
      -0.14821039,
      -0.05451676,
      -0.027436,
      -0.5886445,
      0.12619954,
      -0.4947492,
      -0.08250731,
      -0.18623446,
      0.37219644,
      0.014103889,
      0.1826199
    ],
    [
      0.10339955,
      0.010630671,
      -0.09129576,
      0.22706604,
      0.339773,
      -0.2140759,
      -0.20913875,
      -0.058182426,
      0.009942121,
      -0.6164724,
      -0.49554116,
      -0.100006215,
      -0.71917415,
      0.41913077,
      0.32480663,
      0.21032159,
      0.03416777,
      0.8159701,
      -0.15178527,
      -0.3734954,
      0.69402647,
      0.61470705,
      0.5705324,
      -0.09347753,
      0.015751887,
      -0.1683096,
      0.10693996,
      -0.17327495,
      -0.39705992,
      0.66020477,
      -0.17662852,
      -0.039066035,
      -0.1909666,
      0.02145386,
      -0.12050574,
      -0.1036443,
      0.012927863,
      -0.13229784,
      0.14287156,
      0.13777679,
      -0.5306841,
      -0.15071285,
      0.65474814,
      -0.23336053,
      -0.015690472,
      -0.19066629,
      0.042846296,
      -0.24793966,
      0.007769281,
      -0.91023546,
      0.80205745,
      -0.0062857014,
      0.98434836,
      0.037792336,
      -0.014225079,
      -0.2343748,
      -0.14702107,
      0.4086068,
      -0.048150074,
      0.6735915,
      0.07360742,
      -0.26952732,
      0.028012838,
      0.030729078,
      0.40080315,
      -0.66982454,
      0.12056371,
      0.106641635,
      0.21366125,
      0.24584283,
      0.14001362,
      -1.0080279,
      0.50891745,
      -0.6593492,
      0.30168593,
      0.12436885,
      -0.031768594,
      0.2412764,
      -0.68108237,
      -0.65846545,
      -0.25931078,
      -0.030389842,
      0.16241002,
      -1.1838057,
      -0.024833247,
      -0.19210415,
      -0.0135822585,
      -0.055623285,
      -0.06876823,
      0.25741178,
      0.27763367,
      0.09633658,
      0.49829593,
      0.046366382,
      -0.07653524,
      0.45862725,
      0.26077124,
      0.1967448,
      -0.2786499,
      0.035899043,
      0.2759375,
      0.2521286,
      -0.22309563,
      -0.07976977,
      -0.80506146,
      -0.1830138,
      -1.0372944,
      0.026645804,
      -0.40410155,
      -0.021314021,
      0.1854813,
      0.37498605,
      -0.525888,
      0.3523558,
      -0.16742274,
      -0.35206935,
      -0.08291241,
      0.2516757,
      -0.16729474,
      0.06310241,
      -0.06577421,
      0.14230487,
      -0.8055924,
      -0.012474997,
      -0.14709632,
      0.12802288,
      -0.3992686,
      0.21322785,
      -0.07285086,
      -0.091606334,
      0.0098552,
      -0.20165487,
      0.21155539,
      0.11425325,
      0.109798476,
      0.27169794,
      0.5274771,
      0.08981782,
      0.14882024,
      0.46978724,
      0.05762524,
      0.08642455,
      0.15076832,
      -0.5490892,
      -0.044004742,
      -0.5915498,
      -0.62244684,
      0.18414415,
      0.4223202,
      0.42429346,
      0.90513545,
      -0.12736328,
      0.22546825,
      -0.48000085,
      0.21610886,
      -0.024621964,
      0.13994525,
      -0.062498167,
      -0.1631319,
      0.0102086235,
      -0.7287764,
      -0.11536807,
      -0.12150082,
      -0.10959134,
      -0.6837265,
      -0.19174738,
      -0.10939415,
      0.93759704,
      -0.9404797,
      0.08764816,
      0.019651288,
      0.16797115,
      -0.001571309,
      0.34318367,
      0.012907028,
      -0.074534096,
      0.062770724,
      -0.06309772,
      -0.5144609,
      0.6757849,
      -0.01103682,
      0.74910665,
      -0.017094892,
      0.8075936,
      -0.037198845,
      -0.20462255,
      0.7544907,
      0.0048182607,
      0.0076532597,
      -0.38999316,
      -0.09261519,
      0.60121423,
      -0.680845,
      -0.39752892,
      0.9672125,
      0.035374857,
      0.8024136,
      0.83725595,
      0.07046947,
      -0.609831,
      -0.11994067,
      0.65111995,
      -0.65658,
      0.12436734,
      0.030484073,
      0.025510335,
      0.037470408,
      0.22977579,
      -0.35858834,
      -0.7102698,
      0.10322508,
      0.12555745,
      -0.110044,
      0.1998179,
      0.17997143,
      -0.17258345,
      -0.088868916,
      -0.07790214,
      0.15294681,
      -0.03325867,
      0.18237981,
      -0.04300914,
      0.14197823,
      -0.24654166,
      -0.7556521,
      -0.34082228,
      0.019368922,
      -0.04776848,
      0.13860574,
      -0.03383154,
      -0.1849349,
      0.4391036,
      -0.066273704,
      -0.1364317,
      0.36904,
      -0.063370384,
      -0.055822525,
      0.1378638,
      -0.75422823,
      -0.29067123,
      0.93359905,
      0.23291872,
      -0.2172434,
      0.4160227,
      -0.008139319,
      0.83918846,
      0.3013107,
      -0.7543748,
      0.07004531,
      -0.67983544,
      0.06490901,
      0.017684264,
      -0.48649696,
      -0.13642056,
      -0.38151753,
      0.064057626
    ],
    [
      -0.7477518,
      0.13791695,
      -0.36097366,
      0.058341682,
      0.3086742,
      -0.061210338,
      0.45265222,
      0.3109712,
      0.2358282,
      0.55048335,
      -0.06807284,
      0.3880006,
      -0.062111344,
      -0.0022251308,
      0.2527064,
      -0.5131178,
      -0.14752616,
      -0.14060715,
      1.3897274,
      0.5284533,
      -0.20580512,
      -0.08435913,
      0.10084042,
      -0.19112192,
      0.096651904,
      -0.21299963,
      -0.23853828,
      -0.6409025,
      1.2229004,
      0.079429746,
      0.3752955,
      -0.617084,
      0.15246423,
      0.87255913,
      -0.18830357,
      0.55249447,
      0.17193541,
      0.14203455,
      -0.06831769,
      -0.52102494,
      1.1002661,
      -0.30944896,
      -0.33109975,
      0.1391653,
      0.49215966,
      -0.2512643,
      -0.6054876,
      0.3909572,
      0.08987244,
      0.5969232,
      -0.16924804,
      0.32032925,
      -0.2474656,
      -0.13234228,
      0.28447068,
      0.16151641,
      0.46383423,
      0.10144676,
      -0.75480735,
      0.17530142,
      -0.14040641,
      0.20187412,
      0.53960186,
      0.08731137,
      -0.8112134,
      0.015439995,
      0.8851621,
      -0.14219402,
      -0.7823479,
      -0.29182637,
      -0.114304185,
      0.17284706,
      -0.682892,
      0.66728145,
      -0.4310107,
      0.60062003,
      -0.2939031,
      0.097320355,
      0.38834426,
      -0.0989212,
      -0.09819041,
      0.02837525,
      0.31437668,
      0.058793977,
      0.16239965,
      0.22021455,
      0.10078162,
      -0.6146314,
      0.23164934,
      -0.1291185,
      -0.5614046,
      -0.1296549,
      0.1462802,
      -0.3911019,
      0.058520876,
      -0.27574933,
      -0.000033400727,
      -0.24627416,
      0.42993942,
      -0.2030738,
      -0.035967022,
      -0.20723914,
      0.25659877,
      0.4623007,
      0.21528545,
      0.16664988,
      0.13525985,
      -0.00159236,
      0.43471184,
      -0.17735724,
      -0.3719031,
      -0.36554337,
      0.07483385,
      -0.4327736,
      -0.43136972,
      -0.36678964,
      -0.03629018,
      -0.16320455,
      -0.14477849,
      -0.41676164,
      0.0708278,
      -0.07253946,
      0.24530269,
      -0.117249206,
      1.1853193,
      0.2445561,
      0.9769012,
      -0.059823316,
      -0.7097281,
      0.02712431,
      -0.6339159,
      0.1485137,
      0.16231698,
      0.12662755,
      0.69362795,
      -0.3403219,
      0.17966822,
      0.36170626,
      0.39542598,
      -0.757991,
      0.2554046,
      0.33117884,
      0.24018186,
      0.1587989,
      -0.41940445,
      0.0616499,
      1.0647883,
      -0.3100407,
      -0.39461148,
      -0.5990275,
      -0.17293224,
      0.4090773,
      -0.12199606,
      0.104383096,
      0.75650406,
      0.42277664,
      -0.12938748,
      -0.36232367,
      -0.039291713,
      -0.023216758,
      0.1972582,
      0.14082673,
      0.15307797,
      -0.073150985,
      0.89713836,
      -0.28149775,
      0.007907328,
      0.108924866,
      0.033413514,
      0.63815284,
      0.06399954,
      -0.22480562,
      0.10294313,
      -0.2941776,
      0.38175812,
      0.0007173648,
      -0.27294856,
      0.1881432,
      -0.15009688,
      -0.15356675,
      0.16669953,
      0.16115537,
      0.6449979,
      -0.4751993,
      0.075994805,
      0.12466224,
      -0.8425659,
      -0.26112077,
      0.2805126,
      0.83706415,
      0.3673512,
      0.028688585,
      0.47327343,
      1.1671534,
      -0.23228756,
      0.60203904,
      -0.18451475,
      -0.22747546,
      -0.8411475,
      0.11412872,
      -0.2692775,
      -0.5686603,
      0.013794881,
      -0.075928286,
      0.26841527,
      0.013449219,
      0.088864766,
      0.55822164,
      0.06451673,
      0.017079597,
      0.67742985,
      -0.38328373,
      -0.045567412,
      0.28348204,
      -0.28269348,
      0.32775477,
      -0.23432957,
      0.41339195,
      -0.059274804,
      -0.4368805,
      0.11378292,
      -0.09130338,
      0.11685252,
      -0.19997199,
      0.38019535,
      -0.12593049,
      0.14597473,
      0.1978026,
      -0.43447295,
      -0.41592455,
      -0.120677434,
      -0.24276148,
      -0.40410766,
      -0.16346884,
      -0.19907396,
      -0.122623175,
      0.1703964,
      -0.45368707,
      -0.0042147813,
      0.07074481,
      -0.091813274,
      -0.4451166,
      -0.06435851,
      0.26847643,
      -0.18421951,
      -0.33755797,
      -0.41305864,
      0.2968664,
      -0.11168954,
      0.77063423,
      0.069045685,
      -0.26072448,
      -0.23802714,
      0.3284312,
      1.0889808,
      -0.30968258
    ],
    [
      -0.113890246,
      -0.07033037,
      -0.08466796,
      -0.20066482,
      0.008136308,
      0.12335752,
      0.033439867,
      0.014591905,
      -0.39163715,
      0.44981864,
      0.52023786,
      0.11081512,
      0.86913335,
      -0.54390454,
      -0.3585867,
      0.0078121657,
      -0.17762887,
      -0.7967483,
      -0.06504369,
      0.43705896,
      -0.42927378,
      -1.1463839,
      -0.4003052,
      0.26377848,
      -0.18016127,
      0.042479392,
      0.25447893,
      -0.11733024,
      0.05420431,
      -0.43692255,
      0.19801486,
      0.007071735,
      -0.098717175,
      0.0038656741,
      0.27861422,
      0.27229285,
      -0.079974696,
      0.048266094,
      -0.07285294,
      -0.236441,
      0.23762421,
      -0.22415201,
      -0.6089361,
      0.018571638,
      -0.08945863,
      0.6029944,
      0.17451356,
      0.23516434,
      0.0049174735,
      0.61749387,
      -0.518912,
      -0.04722143,
      -0.97002137,
      0.06461279,
      -0.24202913,
      -0.04960842,
      0.04227464,
      -0.6044752,
      -0.035649754,
      -0.38008636,
      -0.12134749,
      0.10017809,
      -0.082690045,
      0.112759255,
      -0.15188678,
      0.6438881,
      -0.18641466,
      0.09118354,
      -0.10626249,
      -0.31174505,
      0.1803031,
      0.68075943,
      -0.3034278,
      0.35417283,
      0.28037253,
      -0.12841338,
      0.029968144,
      -0.19575298,
      0.4546638,
      0.56738234,
      0.23842601,
      -0.008658003,
      -0.119840585,
      0.9647419,
      -0.22731905,
      0.4500124,
      0.010264535,
      0.10880483,
      -0.18174864,
      -0.39884666,
      0.013136029,
      0.17708266,
      -0.44445446,
      -0.17826006,
      0.20154934,
      -0.69975156,
      0.0041838344,
      -0.077054694,
      0.30792496,
      -0.04686054,
      -0.33955917,
      0.14092042,
      -0.15055168,
      -0.00888333,
      0.51169235,
      0.07987243,
      0.83389825,
      0.029387217,
      0.6122893,
      0.035380643,
      0.06421569,
      0.01374218,
      0.5779434,
      0.10038405,
      0.12646995,
      0.56979674,
      0.17863068,
      0.097988404,
      0.119230144,
      0.010256173,
      0.0894443,
      -0.037125424,
      0.79645586,
      -0.0063810926,
      0.039092395,
      0.045485243,
      -0.07970789,
      0.0071368488,
      0.18427019,
      -0.19440493,
      0.0618998,
      0.108169906,
      -0.21466945,
      -0.33487293,
      -0.06749746,
      -0.5154111,
      -0.6500861,
      0.044472776,
      -0.3565667,
      -0.3471834,
      -0.11260046,
      -0.077252775,
      0.19694476,
      0.5399795,
      -0.100559,
      0.6071604,
      0.13245875,
      -0.04757263,
      -0.054380026,
      -0.29890743,
      -0.52491397,
      0.09645909,
      0.12709393,
      0.54540205,
      -0.098766394,
      0.08673687,
      -0.04048056,
      -0.045225363,
      -0.010130003,
      0.22397813,
      0.84536827,
      -0.11029275,
      -0.08842999,
      -0.15095203,
      0.53691393,
      0.08287822,
      -0.048512686,
      -0.9118375,
      1.0183189,
      -0.006583684,
      0.10210149,
      0.1398083,
      -0.22233553,
      -0.1886738,
      -0.08113724,
      -0.011717146,
      -0.12989222,
      0.08496844,
      0.839759,
      -0.7741828,
      -0.13655409,
      -0.8040663,
      -0.0057277526,
      -0.5252507,
      -0.04866621,
      0.006151881,
      -0.26919833,
      -0.13986188,
      0.012778688,
      0.14316137,
      -0.03797077,
      -0.84532756,
      0.6279644,
      -0.022587167,
      -1.0365149,
      -0.024184998,
      -0.9686299,
      -0.93948615,
      -0.16330966,
      0.9689553,
      -0.17043553,
      -0.15399548,
      0.8836278,
      -0.045849435,
      -0.23891456,
      0.029805375,
      -0.20259222,
      -0.17816663,
      0.5083914,
      0.694111,
      0.010839987,
      -0.106149025,
      -0.08481615,
      -0.14760241,
      0.062453,
      -0.08758019,
      0.2720257,
      0.029447813,
      -0.22045216,
      0.001397202,
      -0.011539193,
      -0.018349946,
      -0.07346273,
      0.40218356,
      0.64847636,
      0.42363933,
      0.12240431,
      -0.19949344,
      -0.1472466,
      0.06785647,
      0.032254327,
      -0.42916092,
      0.23773056,
      -0.054039065,
      -0.19802599,
      0.014083588,
      -0.07718919,
      0.03477343,
      1.1270734,
      0.11665579,
      -0.71933585,
      -0.23860358,
      0.106866494,
      -0.41681564,
      -0.30391684,
      -0.71840507,
      -0.020799749,
      0.5107782,
      -0.011306066,
      0.53843457,
      -0.112495236,
      0.24004106,
      0.9046049,
      -0.114501216,
      0.20491555,
      0.07151026
    ],
    [
      -0.10268148,
      0.37346607,
      0.2551918,
      0.15751433,
      -0.14417866,
      -0.043750733,
      0.6716356,
      0.23621207,
      0.106700055,
      0.550413,
      0.16403653,
      0.14901794,
      0.8075342,
      -0.33850175,
      -0.24467435,
      -0.20590734,
      -0.023497107,
      -0.7376359,
      0.451903,
      0.47245702,
      -0.6048849,
      -0.4350356,
      -0.59370446,
      -0.108553335,
      0.30302495,
      -0.07288515,
      -0.07439785,
      -0.241382,
      0.7248989,
      -0.09453393,
      0.19785891,
      -0.24494042,
      0.12776937,
      0.3520829,
      0.034952663,
      0.3704896,
      0.08284651,
      0.2672943,
      -0.07633258,
      -0.25087062,
      0.3150651,
      -0.09582812,
      -0.60883796,
      0.22650947,
      0.17085983,
      0.24175957,
      -0.19886881,
      0.15311497,
      -0.017267132,
      0.7288794,
      -0.4956354,
      0.19359085,
      -0.782712,
      -0.031132132,
      0.30871755,
      0.046853837,
      0.16888666,
      -0.57052284,
      -0.09665926,
      -0.17972142,
      -0.004535571,
      0.27819443,
      0.12823771,
      -0.06891783,
      -0.72083545,
      0.5404569,
      0.18480375,
      -0.0025033564,
      -0.46694085,
      -0.36873093,
      -0.06132393,
      0.62578106,
      -0.29671577,
      0.71170187,
      -0.10493163,
      -0.028488262,
      -0.27988362,
      -0.23918301,
      0.30771092,
      0.54515105,
      0.042238515,
      0.14413156,
      0.36796033,
      1.0202998,
      0.09024689,
      0.057256304,
      0.107589714,
      -0.22646995,
      0.2679928,
      -0.108542904,
      -0.120452896,
      -0.10152586,
      -0.29143104,
      -0.06775692,
      -0.05060151,
      -0.58488774,
      -0.034746576,
      -0.31837738,
      0.29311493,
      -0.23809186,
      -0.027609935,
      -0.2634353,
      0.11303465,
      0.09440972,
      0.8921303,
      0.05121609,
      0.34462082,
      -0.13985021,
      0.1363278,
      -0.17556925,
      -0.25236392,
      -0.15131512,
      0.15003434,
      -0.28235957,
      -0.14271073,
      0.14622812,
      -0.03173255,
      -0.19643767,
      -0.082226545,
      -0.47089452,
      0.0018410166,
      0.15267926,
      0.57044655,
      0.16468145,
      0.49218494,
      0.24132052,
      0.45887834,
      -0.013479276,
      -0.109618805,
      0.27453852,
      -0.23451175,
      -0.1200099,
      0.24393104,
      -0.21496926,
      0.21392147,
      -0.71181047,
      -0.45155457,
      -0.1444096,
      -0.013799773,
      -0.4891921,
      0.16097437,
      -0.05576561,
      0.12988494,
      0.2728437,
      -0.1750526,
      0.2564894,
      0.8340619,
      0.063164055,
      -0.23086488,
      -0.45383295,
      -0.61731505,
      0.045159154,
      -0.1344859,
      0.33645996,
      0.22365718,
      -0.057724245,
      -0.082520016,
      -0.148828,
      -0.003824653,
      -0.13999131,
      0.6922524,
      0.023974532,
      0.07751248,
      0.05022429,
      0.8319314,
      0.07685641,
      0.08030272,
      -0.37005427,
      0.61896807,
      0.026570313,
      -0.10346671,
      -0.14149366,
      0.19630408,
      -0.29107013,
      0.15767597,
      -0.11706818,
      -0.074983336,
      -0.095442705,
      0.5797543,
      -0.7416569,
      -0.06689235,
      -0.76041794,
      0.33722806,
      -0.8534445,
      0.009776768,
      -0.03603971,
      -0.52009565,
      -0.2662305,
      0.00007270875,
      0.2686545,
      0.23367423,
      -0.62089443,
      0.8345008,
      0.63188577,
      -0.6541909,
      0.29194564,
      -0.87897414,
      -0.5008159,
      -0.6113906,
      0.5662953,
      0.03748153,
      -0.65834934,
      0.7259222,
      -0.3409797,
      0.13888644,
      0.0896382,
      -0.09667121,
      0.15960884,
      0.43353346,
      0.34611213,
      0.083437905,
      -0.20250429,
      0.032496154,
      0.1417819,
      -0.0028056363,
      0.2947792,
      -0.20827849,
      0.09857436,
      0.23576054,
      -0.23830588,
      -0.16470465,
      -0.1761696,
      0.06362005,
      0.43390456,
      0.51913065,
      0.18711236,
      -0.058897376,
      0.2716423,
      -0.11647954,
      0.1203261,
      0.025478829,
      -0.42287442,
      0.055242557,
      -0.083678655,
      -0.20365524,
      0.18152921,
      0.23907347,
      -0.32914427,
      0.79664403,
      0.25278836,
      -0.54137886,
      -0.107491724,
      0.15229015,
      -0.31800908,
      -0.055475246,
      -0.6298966,
      0.14038472,
      0.5019546,
      -0.037397012,
      0.9204069,
      -0.02583094,
      -0.15211733,
      0.7218547,
      0.3456822,
      0.5147898,
      0.16370878
    ],
    [
      0.5955947,
      0.4829672,
      0.85781115,
      0.14709769,
      -0.20149729,
      0.06421313,
      0.3327122,
      0.99667865,
      -0.08472524,
      0.11443361,
      -0.14648421,
      -0.5995999,
      0.006860785,
      0.015654655,
      -0.017054787,
      -0.40548012,
      0.06122698,
      0.1673928,
      0.09830398,
      0.13505481,
      0.056572575,
      -0.12150651,
      -0.107515745,
      -0.939254,
      0.7156339,
      0.33295503,
      0.015014111,
      0.3035856,
      0.42180976,
      -0.049623556,
      -0.051867902,
      0.7593238,
      0.59968245,
      -0.3330074,
      -0.08957286,
      -0.10173395,
      0.13649333,
      0.8235415,
      -0.7188587,
      -0.027797747,
      0.11365811,
      0.860766,
      0.05151605,
      0.98057616,
      -0.80929816,
      -0.003947921,
      0.6761485,
      0.105772726,
      -0.4934627,
      0.033709347,
      -0.08970863,
      0.18960917,
      -0.19413395,
      1.2032391,
      0.054961044,
      0.079949155,
      0.1929207,
      0.103341915,
      0.5500894,
      0.032175973,
      1.1399311,
      0.42776605,
      -0.7661117,
      -0.6573091,
      -0.05801349,
      0.07859263,
      -0.37224537,
      -0.4892404,
      -0.43300658,
      -0.20770356,
      -0.21793981,
      -0.047050595,
      -0.04682676,
      0.12979548,
      -0.09243906,
      -0.40674797,
      0.38113612,
      0.09978377,
      0.093362086,
      0.024314376,
      -0.16851471,
      1.4455097,
      0.6619784,
      -0.010275413,
      -0.049294762,
      -0.08803485,
      -0.5959897,
      0.30340213,
      0.023827303,
      -0.053308915,
      -0.3258383,
      -0.4672958,
      0.0778339,
      -0.29968747,
      -1.2670326,
      -0.014496335,
      -0.2595519,
      -0.9216526,
      -0.07646214,
      -0.20394313,
      -0.022164244,
      -0.84434885,
      -0.8622424,
      -0.7502384,
      -0.0035292723,
      0.23276217,
      -0.123959966,
      -0.22494759,
      -0.036358953,
      -1.2707835,
      -0.4401143,
      0.06026148,
      -0.006032021,
      -0.25479797,
      0.36617324,
      0.049994037,
      0.21841614,
      -0.33766672,
      -0.00015869863,
      -0.71756333,
      0.8480488,
      0.037532467,
      -0.02027565,
      0.7855431,
      0.11100076,
      -0.52538085,
      0.14888267,
      0.0064838384,
      0.57432735,
      1.7739353,
      0.44814423,
      -0.071704194,
      0.039414585,
      -0.42558157,
      -0.57945645,
      -0.118215434,
      0.0508578,
      -0.6396886,
      0.009053983,
      -0.1692723,
      0.70512223,
      -0.7929011,
      0.0007810054,
      -0.089564,
      -0.009103249,
      -0.0074676727,
      0.11467405,
      0.013420979,
      -0.1616642,
      0.023606902,
      -0.05306255,
      0.23507163,
      -0.17270505,
      0.11190984,
      -0.24472526,
      -0.5443954,
      0.71586186,
      0.7822877,
      0.7841209,
      -0.86884904,
      -0.026655989,
      0.9549073,
      -0.0021643701,
      0.9304792,
      0.0034459084,
      0.22902356,
      1.5345105,
      -0.000107999884,
      -0.038462706,
      -0.49398118,
      0.07410555,
      -0.21780336,
      0.5431387,
      -1.2230977,
      0.28187892,
      -0.049976867,
      -0.115981594,
      -0.39334637,
      0.066245325,
      -0.18592437,
      -0.026455883,
      -0.099173136,
      -0.5424518,
      -0.040548295,
      0.23200575,
      -0.11051992,
      -0.006939702,
      -0.97826487,
      -0.094868585,
      0.0019412197,
      0.5105911,
      -0.08898058,
      0.113654435,
      0.14226434,
      -0.10807974,
      -0.9748697,
      0.015122651,
      -0.044500187,
      -0.26124567,
      0.014418274,
      0.058739614,
      -0.058754604,
      0.15676133,
      -0.4875561,
      0.0015451324,
      -0.7950217,
      -0.05227793,
      -0.48188642,
      0.14916468,
      -0.07845,
      -0.12988433,
      -0.40059507,
      1.1448189,
      0.15114003,
      -0.029414246,
      0.84817606,
      -0.12764065,
      -0.7701263,
      0.17919691,
      0.87021583,
      -0.063829795,
      0.21818346,
      -0.5026137,
      0.066354886,
      0.15013595,
      -0.06807164,
      -0.33631262,
      0.9264102,
      -0.3056563,
      0.2151305,
      0.644109,
      -0.07331879,
      0.49466577,
      0.5636473,
      -0.00850137,
      0.7002825,
      0.61525214,
      -0.6416043,
      0.037080504,
      0.42811114,
      0.042133532,
      -0.12420666,
      1.3498193,
      -0.19378,
      1.4744794,
      0.017831717,
      0.34389728,
      0.2105072,
      -0.3931621,
      0.10673897,
      -0.669663,
      0.03544714,
      0.17168286,
      0.74040574,
      0.23703267,
      0.4463659
    ],
    [
      0.6875798,
      -0.5130099,
      0.09553922,
      -0.18870601,
      -0.16219728,
      0.2371994,
      -0.44796595,
      -0.3248508,
      -0.3303026,
      -0.47161308,
      -0.09595885,
      -0.6639525,
      0.15450454,
      0.028809322,
      -0.17824931,
      0.087591596,
      0.06369627,
      0.19464804,
      -1.7103184,
      -0.26460892,
      0.3515413,
      0.08238744,
      -0.025201067,
      0.19601642,
      -0.14295882,
      0.5449381,
      0.14745492,
      0.7203325,
      -0.89253443,
      0.11082739,
      -0.38773248,
      0.52954626,
      -0.2887958,
      -0.79439825,
      -0.013900703,
      -0.59368205,
      -0.106700435,
      -0.111078024,
      -0.16811183,
      0.3404495,
      -1.1912096,
      0.25409794,
      0.1863998,
      -0.07384326,
      -0.46136695,
      0.22562364,
      0.5977736,
      -0.30353555,
      -0.10686692,
      -0.6351978,
      0.19605038,
      -0.32458872,
      0.30931908,
      0.122116864,
      -0.43951494,
      -0.20747164,
      -0.4600456,
      -0.06576263,
      0.8318344,
      0.053168193,
      0.13957876,
      -0.28108788,
      -0.5243375,
      -0.14860131,
      0.8446226,
      0.19409314,
      -0.77677804,
      0.11999593,
      0.9381023,
      0.39408645,
      0.17826931,
      -0.14425494,
      0.7307846,
      -0.52269363,
      0.3488071,
      -0.60149735,
      0.5141475,
      -0.037717097,
      -0.59020853,
      0.1291445,
      0.270902,
      -0.15609254,
      -0.043050885,
      -0.104669236,
      -0.240796,
      -0.05300838,
      -0.011022062,
      0.68992114,
      -0.31991565,
      0.33240005,
      0.34596562,
      0.23201603,
      -0.07939617,
      0.44802704,
      -0.27459905,
      0.26934054,
      -0.10327601,
      0.21298267,
      -0.48909503,
      0.10373588,
      0.008380873,
      0.35527533,
      -0.12038275,
      -0.51110876,
      -0.07209587,
      -0.1691108,
      -0.14818823,
      0.17157374,
      -0.5262703,
      0.18150282,
      0.28517416,
      0.34762773,
      -0.11032702,
      0.4738348,
      0.21088539,
      0.3266589,
      -0.0038942518,
      0.07918193,
      0.32197967,
      0.5443382,
      0.042514596,
      -0.14410499,
      -0.22092828,
      0.054323997,
      -1.1085758,
      -0.19569705,
      -0.8862522,
      0.13783436,
      0.6673391,
      -0.01815678,
      0.7103556,
      -0.08292075,
      -0.21407759,
      -0.11308155,
      -0.47806114,
      0.38886616,
      -0.16546062,
      -0.42773715,
      -0.24953233,
      0.994135,
      -0.24025096,
      -0.22982219,
      -0.06496433,
      0.025704259,
      0.60666054,
      -0.10315578,
      -0.9626839,
      0.20669654,
      0.37191886,
      0.7018159,
      0.28638652,
      -0.16948071,
      0.19528675,
      -0.013459015,
      -0.68236256,
      -0.54551125,
      0.29720348,
      0.30340078,
      0.16450003,
      -0.12355439,
      0.0057634516,
      -0.09346734,
      -0.08970775,
      0.01265766,
      -0.89857996,
      0.14736645,
      -0.18375465,
      -0.09885986,
      0.004550776,
      -0.60794896,
      -0.11563425,
      0.35202602,
      0.0053538596,
      0.39489755,
      -0.24160154,
      0.21041799,
      0.18796855,
      -0.43496063,
      0.19458693,
      0.21639757,
      -0.19859554,
      0.07770407,
      -0.6623152,
      0.5436136,
      -0.11627801,
      -0.072133385,
      0.81008875,
      0.18459897,
      -0.24609251,
      -0.7629115,
      -0.30144984,
      0.12773487,
      -0.49216437,
      -1.2625942,
      0.31994125,
      -0.627702,
      0.13054392,
      -0.06483938,
      0.86024404,
      -0.08772522,
      0.15442093,
      0.36049494,
      -0.05973925,
      0.029367972,
      -0.29484606,
      -0.10440714,
      -0.044534583,
      -0.44773895,
      0.09594826,
      -0.1737294,
      -0.66289115,
      0.46948466,
      -0.036875453,
      -0.040891718,
      0.18165214,
      -0.21568547,
      0.25509748,
      -0.37209806,
      -0.0004936819,
      0.4568692,
      -0.0006564447,
      0.3978386,
      -0.25585827,
      0.32354847,
      -0.4181152,
      0.20193125,
      -0.13502724,
      -0.19623975,
      0.3866813,
      0.33501974,
      0.01801689,
      0.2494927,
      0.50747395,
      0.13684684,
      0.31155556,
      0.08453354,
      -0.31276247,
      0.49453923,
      -0.11488018,
      -0.1888928,
      0.042378977,
      0.6744529,
      -0.052747507,
      0.02089281,
      0.04387829,
      0.16737849,
      0.384547,
      -0.64510095,
      0.16261344,
      -0.6712935,
      0.07462296,
      0.18639457,
      0.3256087,
      -0.32459274,
      -1.2346915,
      0.45434
    ],
    [
      0.50034004,
      0.48582676,
      0.9300907,
      -0.0062254937,
      -0.41645494,
      -0.04886109,
      0.14960873,
      0.96924466,
      0.028619697,
      0.033124592,
      -0.0726583,
      -0.41776687,
      0.15579394,
      0.0015930695,
      -0.03849339,
      -0.44895628,
      -0.0011847306,
      -0.1337378,
      0.074572526,
      -0.085131355,
      -0.097474776,
      -0.07972604,
      -0.1404086,
      -0.69897556,
      0.71304005,
      0.2870913,
      0.005634614,
      0.31581914,
      0.2122859,
      0.028204542,
      0.0678652,
      0.5311144,
      0.66356045,
      -0.48779267,
      0.14301746,
      0.025099045,
      0.46400052,
      0.6642438,
      -0.54119706,
      0.11858435,
      0.09765306,
      0.8291293,
      -0.16424192,
      0.89537793,
      -0.62994003,
      0.25605327,
      0.7203786,
      0.44996104,
      -0.6618228,
      0.05809721,
      -0.16279416,
      0.17372337,
      0.032221716,
      1.36909,
      0.064965196,
      -0.055002216,
      -0.11605398,
      -0.06722692,
      0.456404,
      -0.07227535,
      1.1067692,
      0.47737265,
      -0.5823025,
      -0.6576823,
      -0.052426353,
      0.2046702,
      -0.45143774,
      -0.31420103,
      -0.4075526,
      0.09353583,
      -0.38849846,
      0.13344468,
      0.096231066,
      0.062771894,
      0.10853064,
      -0.14035453,
      0.28384992,
      -0.07356586,
      0.20666565,
      -0.019591883,
      0.026796602,
      1.2247772,
      0.58214754,
      -0.14111678,
      -0.039803497,
      -0.10134536,
      -0.47473267,
      0.4596459,
      0.11710535,
      0.011977238,
      -0.35444355,
      -0.4420603,
      -0.01061272,
      -0.24856295,
      -1.1480907,
      0.017028803,
      -0.55406374,
      -0.7918241,
      -0.06598252,
      -0.35299864,
      -0.04440327,
      -0.71314675,
      -0.67676026,
      -0.7068562,
      0.06220876,
      0.20157683,
      0.13844764,
      -0.11105656,
      -0.04995364,
      -1.2357918,
      -0.40480107,
      -0.16987468,
      0.15685277,
      -0.19372118,
      0.56837857,
      0.18053246,
      0.09886694,
      -0.45199528,
      0.0034263912,
      -0.71435684,
      0.6609182,
      0.053876862,
      0.023720946,
      0.58558744,
      -0.09046681,
      -0.4764704,
      0.2523835,
      -0.15649687,
      0.34513134,
      1.7217697,
      0.5967282,
      0.047375303,
      0.008609585,
      -0.39495242,
      -0.64157295,
      -0.20163812,
      0.0626629,
      -0.61014074,
      -0.023789285,
      -0.24815536,
      0.9820023,
      -0.58028233,
      -0.00608117,
      -0.0066810627,
      0.06847124,
      0.032899402,
      0.04461462,
      0.051320735,
      -0.29259297,
      -0.16657057,
      -0.001925608,
      0.19037569,
      -0.29781923,
      0.0069253934,
      -0.31769797,
      -0.32234722,
      0.7170633,
      1.0466317,
      0.8394135,
      -0.6373441,
      0.16252345,
      1.0162114,
      0.000494774,
      0.9830612,
      0.16427743,
      0.37437356,
      1.351675,
      -0.12221413,
      0.0028674596,
      -0.35853615,
      -0.21224757,
      -0.24063288,
      0.641251,
      -1.2126375,
      0.2415985,
      -0.04083482,
      0.056423463,
      -0.32858038,
      0.018465068,
      0.018847227,
      -0.26265416,
      0.09610776,
      -0.45667666,
      -0.021437883,
      0.03667519,
      -0.17684653,
      -0.07928771,
      -0.7993246,
      0.013785541,
      -0.014079338,
      0.6191766,
      0.006022478,
      -0.06789887,
      0.2314973,
      -0.16994311,
      -0.8188552,
      0.047774836,
      0.044285826,
      -0.1612414,
      0.15399015,
      0.3022351,
      -0.09354112,
      -0.14391287,
      -0.55362993,
      -0.06283384,
      -0.8265976,
      -0.123723716,
      -0.6061209,
      0.09167958,
      0.03063063,
      -0.15110676,
      -0.48042688,
      1.0731858,
      0.13171582,
      -0.2285474,
      0.92931765,
      -0.05719731,
      -0.8022883,
      0.24466123,
      0.60188824,
      -0.20079966,
      0.041370083,
      -0.40425998,
      0.13084449,
      -0.059682198,
      0.0616255,
      -0.40156573,
      0.95865744,
      -0.24050665,
      0.12368237,
      0.46161875,
      0.0038011922,
      0.36157462,
      0.40585774,
      -0.081849344,
      0.60175204,
      0.613075,
      -0.52690154,
      -0.018369835,
      0.6231585,
      0.034577537,
      0.05047645,
      0.9961099,
      -0.1346053,
      1.5047284,
      -0.17488784,
      0.2850831,
      0.09114417,
      -0.20498745,
      0.01568728,
      -0.8059628,
      0.04244908,
      0.18293229,
      0.5901722,
      -0.076733015,
      0.33451653
    ],
    [
      -0.16948763,
      0.48476768,
      0.013508434,
      0.38395935,
      0.32341185,
      -0.2723185,
      -0.004920768,
      0.25363714,
      0.45963883,
      -0.0029304682,
      -0.25043038,
      0.47748566,
      -0.21386863,
      0.32859996,
      0.49347734,
      -0.33480585,
      0.04939605,
      0.20746335,
      0.14722343,
      0.09532972,
      -0.094215654,
      -0.0677919,
      0.13098645,
      -0.14663823,
      0.10124226,
      -0.14942934,
      -0.24479437,
      -0.18739003,
      0.33731753,
      0.15261528,
      0.14577976,
      -0.32017273,
      0.33593234,
      0.30762315,
      -0.3936778,
      0.20822152,
      0.24581107,
      0.22484025,
      0.2501707,
      -0.13237718,
      0.5598852,
      0.08124465,
      0.07558078,
      0.22241244,
      0.2799262,
      -0.33809,
      -0.4949082,
      0.3251231,
      0.50260407,
      0.10730806,
      0.023865402,
      0.30537447,
      0.037569813,
      -0.13912657,
      0.5480462,
      -0.30489463,
      -0.024862157,
      0.42782474,
      -0.21875776,
      0.24131234,
      -0.009861909,
      0.27337393,
      0.33355075,
      -0.25175747,
      -0.21717472,
      -0.5380443,
      0.34142938,
      -0.26660043,
      -0.37007785,
      0.044853434,
      -0.110648856,
      0.114944495,
      -0.20704359,
      -0.021346921,
      -0.5100001,
      0.317051,
      -0.17322357,
      0.5013217,
      0.17890795,
      -0.21846929,
      -0.39610985,
      -0.0006637972,
      0.13376111,
      -0.1272377,
      0.24259688,
      0.0049826168,
      0.1647073,
      -0.2021847,
      0.22779799,
      0.12465083,
      -0.23314548,
      -0.10870772,
      0.35219005,
      0.061270114,
      -0.040493995,
      0.026518669,
      0.083590955,
      -0.15703525,
      0.067826435,
      -0.28536528,
      0.03488962,
      0.05654441,
      0.020778775,
      0.12470163,
      -0.09317893,
      0.357157,
      -0.3444003,
      -0.19715863,
      -0.039437957,
      -0.15127158,
      -0.28380403,
      -0.6933052,
      -0.22366747,
      -0.64578813,
      -0.023605917,
      -0.4286888,
      0.016058313,
      -0.03349216,
      -0.07033992,
      -0.4253497,
      0.061938245,
      0.21925296,
      -0.13748515,
      0.14178583,
      0.19125538,
      -0.02431807,
      0.35901248,
      -0.28080827,
      -0.1657679,
      0.068365596,
      -0.3185415,
      -0.10279494,
      0.2621875,
      -0.18265793,
      0.3969211,
      -0.0043556327,
      0.29526758,
      0.38627586,
      0.31235713,
      -0.43683794,
      0.17222145,
      0.33709094,
      -0.19488026,
      -0.17853482,
      -0.06319137,
      -0.21465386,
      0.31868958,
      0.16738635,
      -0.40396777,
      -0.08886296,
      0.07580694,
      0.3409066,
      -0.29621804,
      -0.2815465,
      0.44336677,
      0.20522267,
      -0.109808244,
      -0.10087826,
      0.110308625,
      0.14607231,
      -0.12926528,
      0.05140009,
      0.1801513,
      0.2624719,
      0.33688125,
      -0.20501564,
      0.19671917,
      0.033597104,
      -0.12834126,
      0.21655539,
      0.017405232,
      -0.48623085,
      0.1511914,
      -0.09984635,
      0.2740266,
      -0.30453143,
      0.11171101,
      0.14086172,
      -0.4406542,
      0.17897657,
      -0.26253033,
      0.30483297,
      0.37173116,
      -0.23189984,
      0.19727285,
      0.09072964,
      -0.1649114,
      -0.11546803,
      -0.23114036,
      0.27486497,
      0.36729,
      0.48126465,
      -0.042879906,
      0.17492683,
      -0.027028108,
      0.075715125,
      0.30926234,
      0.27893448,
      -0.65718895,
      -0.04617604,
      -0.215602,
      -0.33949158,
      -0.37545785,
      0.1099021,
      0.18840067,
      -0.101283714,
      0.15714887,
      0.42088738,
      -0.24153055,
      -0.18666361,
      0.12799112,
      -0.17778318,
      -0.012735565,
      0.34144893,
      -0.25262958,
      0.2411175,
      -0.32139066,
      0.17025852,
      0.11892631,
      -0.18406002,
      -0.019573146,
      -0.024564004,
      -0.16975556,
      -0.20001605,
      0.26517838,
      -0.60486954,
      -0.0115622515,
      0.12754014,
      -0.3759516,
      0.006047992,
      -0.29092464,
      0.019912617,
      -0.2621677,
      -0.11135172,
      0.027940556,
      -0.095430695,
      0.3899948,
      -0.40092638,
      -0.2958761,
      0.20679377,
      0.043951493,
      -0.18846573,
      0.18174392,
      0.352396,
      0.047684945,
      -0.054225724,
      -0.048553746,
      0.11876233,
      -0.12927753,
      0.23446944,
      0.112463586,
      -0.09589058,
      -0.34726003,
      0.5662102,
      0.18170696,
      -0.026980437
    ],
    [
      0.19128212,
      0.046681326,
      -0.15718678,
      0.16110265,
      0.047511537,
      -0.14515314,
      0.10298895,
      -0.33498397,
      0.057883497,
      -0.28918895,
      -0.095102906,
      -0.35429657,
      -0.08479157,
      0.21232523,
      0.10801137,
      0.37421578,
      0.130613,
      0.11665754,
      -0.44337127,
      -0.25280532,
      0.06858542,
      0.20397007,
      0.12602583,
      -0.12171763,
      -0.03725057,
      0.15813914,
      -0.11011419,
      -0.06898046,
      -0.3462172,
      0.07310305,
      -0.120587,
      0.29704815,
      -0.27727935,
      -0.4672853,
      -0.028008476,
      -0.15696582,
      -0.08125525,
      -0.01283174,
      -0.20396449,
      0.26742005,
      -0.17886871,
      0.2269514,
      0.21004081,
      -0.26136297,
      -0.30169287,
      -0.027378587,
      0.3604025,
      -0.2803599,
      -0.12336356,
      -0.16484462,
      0.24874002,
      -0.25467387,
      0.1951743,
      0.19430655,
      -0.034446623,
      0.03157824,
      -0.19284552,
      0.3037512,
      0.35569012,
      0.09829201,
      0.30636105,
      -0.3475785,
      -0.3920767,
      0.02354573,
      0.16458775,
      -0.042914335,
      -0.379174,
      -0.14026266,
      0.13623446,
      0.36714616,
      -0.13507472,
      -0.2701972,
      0.2509944,
      -0.25552657,
      0.40221897,
      -0.59764206,
      -0.1645183,
      0.268202,
      -0.32706696,
      -0.1622539,
      0.05487423,
      0.43925166,
      0.051904246,
      -0.15437894,
      0.2333245,
      -0.17856698,
      -0.10984532,
      0.40719938,
      0.044430554,
      0.25297254,
      0.57806003,
      0.06823241,
      0.1967741,
      0.06673702,
      -0.2765682,
      0.18573834,
      -0.21560009,
      0.033728715,
      -0.24262735,
      0.2112222,
      0.27578852,
      -0.06619057,
      -0.36326233,
      -0.48807478,
      -0.17921807,
      -0.54286975,
      -0.18283916,
      0.0008415538,
      -0.275992,
      0.284554,
      0.2627756,
      0.5666962,
      -0.15725991,
      0.3367826,
      0.08274697,
      -0.021331856,
      0.0925211,
      0.031141821,
      -0.06375595,
      0.26396996,
      0.32530957,
      0.2617925,
      -0.18717997,
      -0.056322765,
      -0.09897644,
      0.057257365,
      -0.20583707,
      -0.029900815,
      0.6060626,
      -0.16587056,
      0.2736945,
      -0.09590612,
      0.057582255,
      0.045760963,
      -0.2562649,
      0.16360301,
      0.008047547,
      -0.24382032,
      -0.012395998,
      0.2850188,
      -0.28401715,
      -0.3869565,
      0.04501498,
      -0.14704639,
      0.1811141,
      -0.07936145,
      -0.0902033,
      0.13488442,
      0.6070151,
      0.28441915,
      0.1953047,
      -0.27824172,
      0.09345704,
      -0.054439306,
      -0.22778727,
      -0.32563663,
      0.39862928,
      0.37116662,
      0.22208454,
      -0.2274538,
      -0.08844576,
      -0.088825405,
      0.16488193,
      0.10285852,
      -0.17752439,
      0.19788219,
      -0.026487652,
      -0.030380059,
      -0.05535217,
      -0.3727896,
      0.036507282,
      -0.06470095,
      -0.4780971,
      0.2632034,
      -0.04497662,
      0.005605253,
      0.30623993,
      -0.31805584,
      -0.08420159,
      0.20663132,
      -0.23045516,
      0.104015216,
      -0.34679684,
      0.3091594,
      0.03531188,
      -0.18129623,
      0.14769799,
      -0.04255965,
      -0.021284679,
      -0.2876976,
      -0.16130419,
      0.098392256,
      -0.14045964,
      -0.15842436,
      0.28000817,
      -0.08860742,
      0.15397646,
      0.12125945,
      0.27509624,
      -0.15869588,
      0.1396341,
      0.4147976,
      -0.09762192,
      0.065128595,
      0.049546678,
      0.05098804,
      0.073915325,
      -0.5162448,
      0.16278754,
      -0.057453588,
      0.04670316,
      0.44054544,
      0.42116207,
      0.08910519,
      0.13322999,
      -0.36125797,
      0.15209447,
      0.030877702,
      0.32742885,
      0.44752517,
      0.08439921,
      -0.036474526,
      0.21264064,
      -0.009973681,
      -0.17713514,
      -0.07669004,
      0.30554476,
      0.14365329,
      0.33607817,
      0.22915636,
      0.33747455,
      0.30112538,
      0.20028475,
      0.2165337,
      0.14787976,
      0.3018612,
      0.01693037,
      0.11361057,
      -0.026526298,
      0.046179812,
      0.00015361489,
      0.2721177,
      0.2841114,
      0.19232483,
      -0.14610136,
      0.09641052,
      0.4872172,
      -0.20812455,
      0.33709732,
      -0.2792294,
      0.1148905,
      -0.17646398,
      -0.19438238,
      0.108176276,
      -0.39441326,
      0.16273063
    ],
    [
      0.16664805,
      -0.084886506,
      -0.43546504,
      -0.34179142,
      0.055950496,
      0.28045794,
      -0.54241234,
      -0.22452262,
      -0.060111545,
      0.23031354,
      0.10490876,
      0.06669416,
      0.31567773,
      -0.06129746,
      -0.17738128,
      0.0647967,
      -0.26510134,
      -0.13570957,
      -0.2736663,
      -0.016618565,
      -0.19965978,
      -0.25280693,
      -0.11127147,
      0.27837947,
      -0.24953952,
      0.2463136,
      0.21719833,
      0.33107102,
      -0.22336578,
      -0.30987608,
      0.21843132,
      0.21117212,
      -0.18317243,
      -0.24674235,
      0.10630261,
      -0.0055131316,
      -0.2883493,
      -0.0854298,
      0.3130963,
      -0.20971733,
      0.19263487,
      0.016817879,
      -0.3391057,
      -0.15676855,
      -0.11620511,
      0.35922876,
      -0.15748404,
      -0.061536342,
      0.037981406,
      0.08495375,
      -0.3356237,
      -0.26809382,
      -0.21481559,
      -0.22524151,
      -0.18340302,
      0.18535852,
      0.023557091,
      -0.21961084,
      0.1614057,
      -0.18627213,
      -0.041524075,
      -0.3573271,
      -0.15101752,
      -0.033458747,
      0.02392128,
      0.21507247,
      -0.16811468,
      0.20618372,
      0.28205603,
      0.05344774,
      0.017168779,
      0.15020767,
      -0.07387779,
      -0.13659431,
      -0.05516503,
      0.37074846,
      0.042811055,
      -0.029372618,
      0.07371509,
      0.12659809,
      0.115118,
      -0.33037347,
      -0.45340884,
      0.2888588,
      -0.08330331,
      0.24718912,
      0.072350554,
      0.21080585,
      -0.35362384,
      -0.3567946,
      0.06669306,
      0.2332461,
      -0.08757254,
      0.121050015,
      0.07654466,
      -0.19182493,
      0.019528871,
      0.16217443,
      0.1276463,
      0.15810935,
      -0.43358365,
      0.2596985,
      0.19068901,
      0.24894103,
      0.06592729,
      0.18632393,
      0.31436503,
      0.28908083,
      0.08829374,
      0.24181207,
      0.19138971,
      -0.24238712,
      0.19218165,
      0.014596627,
      0.16688834,
      0.23924312,
      0.32390225,
      0.22864972,
      0.3210766,
      0.46754903,
      -0.18311511,
      -0.24096665,
      0.09386734,
      -0.14559986,
      -0.6016161,
      -0.32915503,
      -0.25852048,
      0.23156211,
      0.09317002,
      -0.34621197,
      0.15641394,
      0.16559316,
      -0.06600443,
      -0.04822721,
      -0.1558641,
      0.24427308,
      -0.38217115,
      -0.27484134,
      -0.17804016,
      -0.17064083,
      -0.22002412,
      -0.06846386,
      0.10421808,
      0.3813849,
      0.109933466,
      0.11247813,
      -0.061264493,
      -0.33022043,
      0.066305876,
      -0.12873209,
      -0.2012354,
      -0.010381892,
      0.20324916,
      0.31414753,
      -0.16717735,
      0.23752075,
      -0.22143026,
      0.18136464,
      -0.36605066,
      0.36839417,
      0.2021122,
      -0.31679735,
      -0.12857583,
      -0.36080486,
      -0.2642008,
      0.10517015,
      -0.25282773,
      -0.145368,
      0.19874334,
      0.31509355,
      0.36130494,
      0.22584736,
      -0.14641693,
      0.1685736,
      -0.319717,
      0.32143322,
      -0.054225855,
      0.372771,
      0.20341976,
      -0.10465095,
      -0.25552395,
      -0.20614505,
      -0.11952948,
      -0.110994436,
      -0.3022789,
      0.26343262,
      -0.0877871,
      0.28503987,
      0.10313506,
      0.026761858,
      -0.17151006,
      -0.207921,
      -0.29720017,
      0.004155403,
      -0.21739362,
      -0.19647637,
      -0.1047437,
      -0.45032537,
      -0.08412647,
      0.36043137,
      -0.26162788,
      -0.075702414,
      0.28246993,
      0.37252262,
      -0.25952443,
      -0.079683356,
      -0.32218763,
      -0.11490552,
      0.077996105,
      0.22188829,
      0.104651175,
      0.061035026,
      0.034771502,
      -0.14188498,
      0.23780727,
      -0.04671997,
      0.04449483,
      0.01921906,
      -0.113584206,
      0.3184033,
      -0.02898277,
      -0.13588743,
      0.052128617,
      0.048116345,
      -0.024554016,
      0.20217712,
      0.076635756,
      -0.29749012,
      0.18855688,
      -0.17111742,
      -0.1630131,
      -0.25682473,
      -0.20534927,
      0.11714151,
      -0.20902792,
      -0.35206676,
      -0.32703856,
      0.005564348,
      0.056402702,
      0.14139141,
      -0.19986232,
      -0.20069091,
      -0.3042539,
      -0.35244292,
      -0.2072377,
      -0.20306827,
      -0.27488303,
      0.2042688,
      -0.111612536,
      -0.1680986,
      -0.20031007,
      0.28874856,
      0.243585,
      -0.1246211,
      -0.035396468,
      0.13728823
    ],
    [
      -0.241934,
      0.06024621,
      -0.12386714,
      -0.12211963,
      -0.10722433,
      0.30375218,
      -0.09911571,
      0.53392756,
      -0.1362542,
      0.6048019,
      0.35282254,
      0.18988822,
      0.20268086,
      -0.4083461,
      -0.22239311,
      -0.7248511,
      -0.39858744,
      -0.64776295,
      0.21568468,
      0.031858,
      -0.40296042,
      -0.34644923,
      -0.27355778,
      -0.03391419,
      0.17400584,
      -0.040689673,
      0.15463758,
      0.10413966,
      0.37577528,
      -0.40901345,
      0.49149385,
      -0.12749699,
      0.3875181,
      0.03189238,
      -0.08503412,
      0.22002585,
      -0.0258072,
      0.25807643,
      -0.08392758,
      -0.31098372,
      0.44742867,
      0.16045561,
      -0.5031295,
      0.19591212,
      -0.056769587,
      0.017503742,
      -0.47313967,
      0.29971543,
      0.039199814,
      0.3767622,
      -0.21444547,
      0.31246442,
      -0.48308316,
      -0.15305592,
      -0.13700576,
      0.4580076,
      0.25536203,
      0.022538152,
      0.09547219,
      -0.40224802,
      0.12313039,
      -0.12462396,
      -0.1474747,
      -0.5317601,
      -0.24856913,
      0.31828895,
      -0.20957202,
      0.13899983,
      -0.25935304,
      -0.2340972,
      0.11005268,
      0.55547696,
      -0.5768855,
      0.27463374,
      -0.3739172,
      0.07642819,
      0.0651985,
      -0.07124495,
      0.41070074,
      0.33279085,
      0.21996525,
      -0.14262393,
      -0.3016987,
      0.37606522,
      -0.19684862,
      0.29740095,
      0.24038914,
      -0.04328169,
      0.11423152,
      -0.37060633,
      -0.42716932,
      0.08647643,
      -0.3037908,
      0.109291784,
      0.2034806,
      -0.44023272,
      -0.09805043,
      -0.06890683,
      0.24719717,
      -0.34848768,
      -0.45421433,
      -0.074178025,
      0.20069258,
      0.38172954,
      0.27094734,
      0.25044686,
      0.25672236,
      0.21461026,
      0.6792526,
      -0.42954808,
      -0.15414211,
      -0.24195641,
      0.5106921,
      -0.41600713,
      0.054892212,
      0.21030077,
      0.18590292,
      -0.18222526,
      0.17990968,
      0.049634807,
      0.14241111,
      -0.28471985,
      0.25919554,
      0.07007135,
      0.089492515,
      -0.11175548,
      0.5698706,
      0.11002799,
      -0.33319154,
      -0.030420246,
      0.14782333,
      0.18383886,
      -0.308094,
      -0.09940798,
      -0.089826584,
      -0.14245434,
      -0.34958643,
      0.059580345,
      -0.21586564,
      -0.3607802,
      0.39349067,
      0.058384314,
      0.18911986,
      0.4792009,
      -0.008887625,
      0.39590442,
      0.3850693,
