{
  "obs_dim": 4,
  "action_dim": 2,
  "hidden_dim": 64,
  "activation": "Tanh",
  "metadata": {
    "total_steps": 5056181,
    "total_episodes": 36229,
    "final_performance": 139.56170471169506,
    "training_time_secs": 169.259031667,
    "device": "Cpu",
    "environment": "CartPole-v1",
    "algorithm": "PPO (Proximal Policy Optimization)",
    "timestamp": "2025-11-06T23:46:29.288141+00:00",
    "notes": "Modern RL training with orthogonal init and Tanh activation (no obs normalization for inference compatibility). Achieved 139.6 steps/episode in 169.3s (29872 steps/sec)."
  },
  "shared_fc1_weight": [
    [
      0.39487037,
      0.0214634,
      0.8272758,
      0.35306156
    ],
    [
      -0.40851903,
      -0.14304017,
      -0.21931905,
      -0.25410497
    ],
    [
      0.26453805,
      0.030442258,
      -1.0123098,
      0.07027117
    ],
    [
      0.012838797,
      0.5731672,
      0.36262947,
      0.23408926
    ],
    [
      0.32168326,
      0.09410953,
      -0.7376518,
      0.06497925
    ],
    [
      -0.2551975,
      -0.35359374,
      0.97099054,
      0.08859108
    ],
    [
      -0.661665,
      -0.26690122,
      0.7108109,
      0.056098655
    ],
    [
      0.091137595,
      0.21175851,
      -0.5499003,
      -0.12504551
    ],
    [
      -0.4618998,
      -0.2057245,
      0.39550588,
      0.08507042
    ],
    [
      -0.3588309,
      0.12217762,
      -0.14365764,
      -0.20706388
    ],
    [
      0.3378459,
      0.04817344,
      0.5199056,
      -0.21824667
    ],
    [
      -0.21686958,
      -0.387114,
      -0.69243234,
      0.0024431816
    ],
    [
      0.64642656,
      0.079455346,
      -0.55536133,
      -0.052688345
    ],
    [
      0.28319505,
      0.30936274,
      0.6823705,
      0.47967803
    ],
    [
      0.44955662,
      0.5325407,
      -0.7403648,
      -0.12732013
    ],
    [
      -0.35734355,
      -0.26633084,
      -0.24060169,
      -0.37705886
    ],
    [
      0.4872277,
      0.17496927,
      -0.9701146,
      -0.051122777
    ],
    [
      -0.20577621,
      0.31867403,
      -0.50816774,
      -0.19565688
    ],
    [
      0.5369111,
      -0.009345421,
      -1.0867404,
      -0.24031745
    ],
    [
      -0.27069366,
      0.31243017,
      -0.66398615,
      -0.20529893
    ],
    [
      0.091381975,
      0.38098612,
      1.326204,
      0.19847244
    ],
    [
      -0.55811846,
      0.02263855,
      0.71075803,
      -0.22003508
    ],
    [
      -0.047281813,
      -0.44503307,
      0.8357448,
      0.044158626
    ],
    [
      -0.32287812,
      -0.41922882,
      0.4665087,
      -0.08321637
    ],
    [
      -0.18858476,
      -0.33097148,
      -0.5325661,
      -0.28780955
    ],
    [
      0.37837932,
      0.029917512,
      1.4829922,
      0.41444033
    ],
    [
      0.053922467,
      -0.13417289,
      1.2910057,
      -0.14674962
    ],
    [
      -0.6151201,
      -0.28415757,
      0.50190055,
      -0.071039684
    ],
    [
      0.21630315,
      0.12055533,
      -1.1958923,
      -0.2057124
    ],
    [
      0.516852,
      0.1719984,
      -0.6693256,
      -0.17120978
    ],
    [
      -0.21889119,
      -0.20554897,
      -0.8567783,
      -0.060619183
    ],
    [
      0.102761835,
      0.3799324,
      -1.0721838,
      0.09557799
    ],
    [
      -0.40769905,
      0.053967945,
      -0.8495135,
      0.08491573
    ],
    [
      -0.29856762,
      -0.36020893,
      0.1286033,
      -0.5281499
    ],
    [
      -0.29344162,
      -0.30357483,
      -0.46122804,
      -0.46705547
    ],
    [
      -0.53122723,
      -0.12067323,
      0.66440594,
      0.20342694
    ],
    [
      -0.31324613,
      -0.06966951,
      -0.08536612,
      -0.15445746
    ],
    [
      -0.23020455,
      -0.3895946,
      -0.4206193,
      -0.19248572
    ],
    [
      0.24759786,
      0.41828918,
      -0.58215344,
      -0.06218695
    ],
    [
      -0.20309837,
      -0.18915555,
      -1.8452972,
      -0.275082
    ],
    [
      0.021382404,
      -0.12562826,
      0.3495144,
      0.052574508
    ],
    [
      -0.44894004,
      -0.2618975,
      0.3044115,
      0.2239929
    ],
    [
      -0.2320363,
      0.07631199,
      0.5223573,
      -0.07944242
    ],
    [
      -0.3540483,
      -0.164307,
      -0.8458652,
      -0.17033896
    ],
    [
      -0.38707432,
      -0.17607169,
      0.17081515,
      -0.25508338
    ],
    [
      0.2778208,
      -0.1791618,
      -0.7315898,
      0.014695403
    ],
    [
      0.109374456,
      -0.025460962,
      1.5437608,
      0.4938813
    ],
    [
      -0.3448268,
      -0.42636037,
      0.60778016,
      0.008259828
    ],
    [
      0.08717376,
      -0.37033668,
      -1.1528541,
      0.3972543
    ],
    [
      0.14667885,
      0.016464828,
      0.75285244,
      0.1290138
    ],
    [
      -0.25788924,
      -0.21176505,
      -1.0130428,
      -0.2976586
    ],
    [
      0.44120684,
      -0.06851531,
      -0.9396685,
      -0.0059019225
    ],
    [
      0.4629125,
      -0.06924503,
      0.63909674,
      0.0067330427
    ],
    [
      0.008879075,
      0.42233297,
      0.7675225,
      0.35220727
    ],
    [
      0.27376363,
      0.49525985,
      -0.002015646,
      0.20825869
    ],
    [
      0.24483162,
      -0.097053796,
      -1.1572758,
      0.043194108
    ],
    [
      0.32448286,
      0.124673285,
      -0.7701664,
      -0.082512535
    ],
    [
      -0.022935716,
      0.12408207,
      -1.230438,
      0.112719774
    ],
    [
      0.065856725,
      0.31157926,
      1.2173756,
      0.05558293
    ],
    [
      -0.2524215,
      -0.043551803,
      -1.2140466,
      -0.005173148
    ],
    [
      -0.19643179,
      -0.00883833,
      0.5772201,
      0.036565106
    ],
    [
      0.06805395,
      -0.23572928,
      -0.8013002,
      -0.36282456
    ],
    [
      -0.47368696,
      -0.27129102,
      0.6107697,
      0.01486063
    ],
    [
      -0.31678486,
      -0.22345379,
      -0.8488775,
      -0.3539443
    ]
  ],
  "shared_fc1_bias": [
    0.2772501,
    -0.66566086,
    -0.7683305,
    0.19883473,
    -0.5660864,
    0.5743008,
    0.6300219,
    -0.29660493,
    -0.59356076,
    -0.63876075,
    0.5054747,
    -0.19850247,
    -0.85655034,
    0.34281585,
    -0.8292256,
    -0.6265079,
    -0.62486243,
    -0.48565343,
    0.5429871,
    -0.20213622,
    0.2804541,
    0.34688655,
    0.76982695,
    -0.65267444,
    -0.54974824,
    -0.3939424,
    0.4331997,
    0.26723465,
    0.58937985,
    0.6412965,
    -0.19078705,
    -0.5498562,
    -0.5188864,
    -0.64423853,
    -0.44029143,
    -0.5927847,
    -0.27111515,
    -0.24507861,
    -0.44896358,
    0.32381794,
    -0.74609613,
    0.43822682,
    0.59585994,
    -0.44938555,
    0.6314742,
    -0.29495648,
    -0.6872732,
    -0.7624754,
    0.44607708,
    0.50753015,
    -0.4412487,
    -0.30280468,
    0.29048753,
    0.491037,
    0.5480598,
    -0.31289452,
    0.3152596,
    -0.5582215,
    0.16992354,
    -0.34963876,
    0.16823132,
    -0.7099766,
    0.3455123,
    -0.2392163
  ],
  "shared_fc2_weight": [
    [
      -0.44974387,
      0.67664117,
      0.16525362,
      -0.68051666,
      0.04778942,
      -0.012498724,
      -0.18951629,
      -0.056495734,
      0.70252025,
      0.42816985,
      -0.8496899,
      0.4658735,
      0.24080507,
      -0.275159,
      0.6519068,
      0.6292577,
      0.03266772,
      0.121769294,
      -0.75452435,
      0.6387346,
      -0.15460192,
      -0.30429336,
      -0.15646616,
      0.713001,
      0.027282776,
      -0.120906726,
      -0.18360099,
      -0.19867,
      -0.39505485,
      -0.5556034,
      0.4383683,
      0.22339575,
      0.6843038,
      0.99205583,
      1.0826259,
      0.86440796,
      0.7787928,
      0.5775191,
      0.17183909,
      -0.24266931,
      0.05069077,
      -0.0297246,
      -0.13891141,
      0.61512434,
      -0.21380797,
      -0.0807866,
      0.58087736,
      0.63370883,
      -0.07722644,
      -0.24313806,
      0.7184592,
      -0.012554518,
      -0.5693402,
      -0.029296279,
      -0.30259013,
      0.16513924,
      -0.55114836,
      0.26459754,
      0.26347578,
      0.00031366403,
      -0.04105869,
      0.07376588,
      0.019787481,
      0.32380632
    ],
    [
      0.5109963,
      -0.49644428,
      -0.40256447,
      0.19301416,
      -0.11494535,
      -0.10866959,
      0.20397921,
      0.07708646,
      -0.55812466,
      -0.36299476,
      0.7949261,
      -0.8929635,
      -0.08141336,
      0.6353428,
      -0.19156846,
      -1.0358825,
      -0.17377084,
      -0.726054,
      0.38865188,
      -0.30441406,
      0.16501951,
      -0.093504176,
      0.38292065,
      -0.75657886,
      0.0561777,
      0.08122013,
      0.13707441,
      0.19487078,
      0.57093567,
      0.8734062,
      -0.294886,
      -0.29563773,
      -0.75621194,
      -0.9963249,
      -0.58690035,
      -0.5963788,
      -0.7291285,
      -0.5433783,
      -0.20572782,
      -0.11527607,
      -0.27948835,
      0.0070180967,
      0.29965618,
      -0.47778496,
      0.2359702,
      -0.12359771,
      -0.2610715,
      -0.85289866,
      0.072416894,
      0.31400296,
      -0.6582608,
      -0.29553428,
      0.3379524,
      0.36855194,
      0.844534,
      -0.080809414,
      0.5728073,
      -0.30408275,
      0.05969649,
      -0.097555846,
      -0.08987978,
      0.013144473,
      0.075951196,
      -0.6581855
    ],
    [
      0.19684581,
      -0.26033992,
      -0.14290586,
      0.5672418,
      -0.4812485,
      0.804018,
      0.32491785,
      -0.4508656,
      -0.36536357,
      -0.3229959,
      0.45578367,
      -0.9622619,
      -0.13761322,
      0.81600755,
      -0.435536,
      -0.14751601,
      -0.5735478,
      -0.62923634,
      -0.065687224,
      -0.10051988,
      0.39471844,
      0.4141309,
      0.94070256,
      0.077675596,
      -0.15862547,
      0.23921736,
      0.39893445,
      0.9177124,
      0.26008618,
      -0.15574951,
      -0.7539423,
      -0.8682943,
      -0.31337044,
      -0.11681252,
      0.10479739,
      -0.032025468,
      0.05450638,
      -0.669012,
      -0.5787275,
      -0.11791406,
      -0.22024128,
      0.760488,
      -0.023646714,
      0.017736116,
      0.08570464,
      -0.31200337,
      -0.15563254,
      -0.45709425,
      -0.03654715,
      0.3900136,
      -0.34724155,
      -1.0822041,
      0.51800853,
      0.017321812,
      -0.16463919,
      -0.5312327,
      0.0059437035,
      -0.6863301,
      0.45938793,
      -0.16922255,
      0.7357917,
      -0.36482728,
      0.3832043,
      -0.7322837
    ],
    [
      -0.68583107,
      0.22630587,
      0.5022175,
      -0.41954714,
      0.41602564,
      -0.19313289,
      -0.46533066,
      -0.11032101,
      0.036199037,
      0.26733166,
      -0.16041474,
      0.7653815,
      0.24584113,
      -0.38917723,
      0.390321,
      0.6507081,
      0.5002894,
      0.78906626,
      -0.45000452,
      0.35057,
      -0.42392847,
      -0.25524077,
      -0.76954603,
      0.30509004,
      0.28905922,
      0.04118379,
      -0.7218555,
      -0.23698525,
      -0.39291686,
      -0.07145431,
      0.8835886,
      0.4794872,
      0.32949778,
      0.5173104,
      0.50564253,
      0.048101556,
      0.09423285,
      0.42393458,
      0.4951397,
      -0.6688079,
      0.5039523,
      -0.31562158,
      -0.3320413,
      0.4732075,
      -0.09631369,
      0.17269602,
      0.31676543,
      0.28749675,
      -0.69292086,
      -0.21417986,
      0.42221695,
      0.7072864,
      -0.3755991,
      -0.14556435,
      -0.0077724056,
      0.6098015,
      -0.09755421,
      0.40054545,
      -0.30787405,
      0.30725923,
      -0.4539413,
      0.5766404,
      -0.18962558,
      0.5317136
    ],
    [
      -0.5730467,
      0.36966428,
      -0.019257722,
      -0.7515035,
      0.42796293,
      -0.6728482,
      -0.7379562,
      0.16035587,
      0.23691615,
      0.5047132,
      -0.24673986,
      0.8306252,
      0.64439267,
      -0.2631673,
      0.28944296,
      0.25179142,
      0.68745995,
      0.4867145,
      0.098636284,
      0.1297025,
      -0.12721632,
      -0.41161996,
      -0.87158686,
      -0.05823569,
      0.057499498,
      0.19845453,
      -0.31366643,
      -0.51048625,
      -0.025850369,
      -0.26965007,
      0.75984395,
      0.87436354,
      0.17509142,
      0.13983464,
      0.2797696,
      0.08784825,
      0.19617186,
      0.8229337,
      0.72816974,
      -0.069448754,
      0.274643,
      -0.6814971,
      -0.695094,
      0.009537673,
      -0.38868204,
      -0.3242287,
      0.17761569,
      0.17852752,
      -0.26885882,
      -0.36221233,
      0.3924664,
      1.292464,
      -0.2866758,
      -0.12208049,
      -0.43647167,
      0.5226439,
      -0.27790195,
      0.46821177,
      -0.38624215,
      0.21506624,
      -0.32312968,
      0.08782958,
      -0.78447026,
      0.34306663
    ],
    [
      0.6949597,
      -0.39879918,
      -0.2489123,
      0.72724867,
      -0.035554,
      0.80644083,
      0.4113753,
      -0.4716779,
      0.24133033,
      -0.09222239,
      0.15659127,
      -0.9807992,
      0.054081537,
      0.9740061,
      -0.2755893,
      -0.37767115,
      -0.3795607,
      -0.4684731,
      0.0983542,
      -0.017189963,
      0.6275592,
      0.024177207,
      0.6902077,
      -0.13411734,
      -0.44283846,
      0.24742135,
      0.208977,
      0.6763451,
      0.11401631,
      0.12010442,
      -0.70218194,
      -0.5471532,
      -0.020823872,
      -0.2019762,
      -0.4317685,
      0.13502644,
      -0.033297762,
      -0.9545279,
      -0.4252899,
      -0.38757,
      0.03483516,
      0.33214495,
      0.035489712,
      -0.34441236,
      0.1301493,
      0.19698998,
      0.19389223,
      0.12239441,
      -0.09809078,
      0.55997634,
      -0.20304921,
      -1.166004,
      0.69010526,
      0.22709598,
      -0.12087019,
      -0.25795522,
      -0.14774089,
      -0.3186412,
      -0.034847714,
      -0.6181971,
      0.15828499,
      -0.19521095,
      0.8324588,
      -0.74072576
    ],
    [
      0.15720275,
      -0.56663656,
      -0.5042838,
      0.68314296,
      -0.36291412,
      0.8112284,
      0.5011758,
      -0.6239287,
      0.15671505,
      -0.2917086,
      0.24290365,
      -0.7340372,
      -0.18958117,
      0.6781787,
      -0.18014115,
      -0.20823601,
      -0.39064375,
      -0.78818333,
      -0.046652902,
      -0.7325326,
      0.7025083,
      0.32087755,
      0.40562257,
      -0.06276187,
      -0.050551116,
      -0.09284285,
      0.62618786,
      0.64279103,
      -0.1323931,
      0.001564051,
      -0.4753282,
      -0.8878291,
      -0.40591946,
      -0.15679906,
      -0.22677042,
      0.07493485,
      0.021763714,
      -0.8594826,
      -0.97850287,
      -0.2662205,
      -0.20232144,
      0.62588793,
      0.23613717,
      -0.40728423,
      0.051882707,
      -0.41287243,
      -0.014118917,
      0.11804254,
      0.26225576,
      -0.07849476,
      -0.5044257,
      -1.3868141,
      0.6852856,
      0.07529014,
      0.39198855,
      -0.48896304,
      0.021114713,
      -0.45122612,
      0.30495474,
      -0.2264713,
      0.3443362,
      -0.2943978,
      0.4934905,
      -0.69947666
    ],
    [
      0.23639593,
      -0.7997044,
      -0.11697761,
      0.20217423,
      -0.28332677,
      0.23860432,
      0.48968694,
      -0.10739449,
      -0.5469265,
      -0.4642337,
      0.85140485,
      -0.43861535,
      -0.29417697,
      0.3890493,
      -0.17303088,
      -0.8454196,
      -0.22811137,
      -0.17652601,
      0.5354432,
      -0.30687615,
      0.23402244,
      0.18553497,
      0.11930148,
      -0.68747747,
      -0.3776877,
      -0.041120972,
      0.09430215,
      0.19890653,
      0.50498873,
      0.6939233,
      -0.79754966,
      -0.26837677,
      -0.9969167,
      -0.56811833,
      -0.5132201,
      -0.66989815,
      -0.55901676,
      -0.5305816,
      0.32846108,
      0.31888992,
      -0.11750553,
      -0.15911876,
      -0.28732327,
      -0.57722676,
      -0.05109432,
      0.13385645,
      -0.49790433,
      -0.74407464,
      0.479035,
      0.2736973,
      -0.4410163,
      -0.2710794,
      0.76395726,
      0.03788757,
      0.9621761,
      -0.4616099,
      0.59226936,
      -0.057031173,
      -0.2614286,
      -0.30057532,
      0.028606096,
      -0.12710343,
      -0.04690062,
      -0.5405636
    ],
    [
      0.5429608,
      -0.09571359,
      -0.2802498,
      0.3630288,
      -0.33117488,
      1.0939506,
      0.38576224,
      -0.523156,
      0.06761258,
      -0.3431873,
      0.49687722,
      -0.68671626,
      0.034943566,
      0.48701218,
      -0.27901575,
      -0.23203634,
      -0.6837114,
      -0.55149555,
      0.19205773,
      -0.21893172,
      0.42140514,
      0.22396418,
      0.4861661,
      -0.39838532,
      -0.21750596,
      0.21051385,
      0.59578246,
      0.41309175,
      0.066448614,
      0.14908092,
      -0.6438021,
      -0.70065814,
      -0.30117506,
      -0.25207776,
      -0.53088945,
      -0.4426564,
      -0.28037775,
      -0.38529253,
      -0.09780201,
      -0.018852176,
      -0.02074939,
      0.38756135,
      0.74328166,
      -0.43077162,
      0.37962785,
      -0.1970058,
      -0.18237709,
      -0.60812545,
      0.26762614,
      0.33631894,
      -0.5138151,
      -0.70054555,
      0.5990803,
      0.079657435,
      0.2020541,
      -0.42945266,
      0.21061942,
      -0.23589398,
      0.57448035,
      -0.32657412,
      0.34570646,
      -0.49239078,
      0.50619245,
      -0.58918667
    ],
    [
      -0.24088953,
      0.089443564,
      0.9029758,
      0.011841913,
      0.8771604,
      0.043978117,
      -0.32054365,
      0.4498419,
      0.27227473,
      0.5956134,
      -0.36157343,
      0.41367933,
      0.61977744,
      -0.021857724,
      0.4634147,
      0.19890834,
      0.4857557,
      0.07072494,
      -0.5441322,
      0.030085081,
      -0.37158749,
      -0.20469281,
      -0.5510647,
      0.07370128,
      0.30298534,
      0.49999818,
      -0.42122734,
      -0.5484322,
      -0.18798855,
      -0.19255196,
      0.42684674,
      0.825519,
      0.11718571,
      0.07889008,
      0.45608187,
      0.28422955,
      0.38244733,
      0.08199588,
      0.3950868,
      -0.80688816,
      0.6506608,
      -0.44224727,
      -0.5138446,
      0.32341722,
      -0.4758596,
      0.25564715,
      0.5899557,
      0.28365424,
      -0.23611142,
      -0.33320677,
      0.4531955,
      0.3994754,
      -0.27131394,
      -0.207687,
      -0.41070727,
      0.14545675,
      -0.124706484,
      0.045514334,
      -0.26834014,
      0.42837778,
      -0.16557483,
      0.26587245,
      -0.28496164,
      -0.17569198
    ],
    [
      0.6218731,
      0.14879169,
      0.038065434,
      1.1265556,
      0.23364727,
      0.7615799,
      -0.030857138,
      -0.16395621,
      -0.10033707,
      0.07055125,
      0.27628443,
      -0.89011264,
      0.11689757,
      0.81051487,
      -0.24283224,
      -0.786696,
      -0.016672371,
      -0.09469291,
      -0.26044598,
      -0.21319935,
      1.2038147,
      -0.09328419,
      -0.08776424,
      -0.4191273,
      -0.53859025,
      0.26825085,
      -0.37293288,
      0.6817748,
      -0.08300233,
      -0.030750444,
      -0.8443127,
      -0.087380864,
      -0.05305165,
      -0.3089893,
      -0.28813598,
      0.112205416,
      -0.109966785,
      -1.0788362,
      -0.37895587,
      -0.17936271,
      -0.20065121,
      0.47132516,
      0.123526804,
      -0.17111006,
      -0.021399278,
      0.14928994,
      0.18168177,
      -0.15309083,
      -0.46813446,
      -0.028973434,
      -0.50472414,
      -0.89281887,
      0.6453946,
      0.30110282,
      0.45339468,
      -0.21929146,
      -0.28505638,
      0.15766348,
      1.0137781,
      -0.3450879,
      0.38415897,
      0.14293419,
      0.75647795,
      -0.6967167
    ],
    [
      -0.71920455,
      0.37926567,
      -0.13127942,
      -0.99863946,
      0.12792799,
      -0.6509943,
      -0.14276232,
      0.27365702,
      0.2154004,
      0.072151005,
      -0.06929587,
      1.0322386,
      -0.025322735,
      -0.37838992,
      -0.062781654,
      0.23189466,
      0.23743753,
      0.7321848,
      0.0321735,
      -0.07555986,
      -0.60258293,
      -0.34061715,
      -0.053256746,
      0.31672806,
      0.5549842,
      -0.037155,
      -0.36415717,
      -0.61520773,
      -0.36892346,
      0.025982574,
      0.4180348,
      0.5222986,
      0.41812065,
      0.44360602,
      0.25639984,
      0.4002021,
      0.59471816,
      0.8149705,
      0.7229386,
      0.15326868,
      0.20615563,
      -0.4236168,
      0.18629041,
      0.39311635,
      -0.14105022,
      -0.03999272,
      -0.2140319,
      0.37287834,
      -0.1092177,
      -0.31602794,
      0.65274096,
      0.7905079,
      -0.75048035,
      -0.23567337,
      -0.32006416,
      0.55177855,
      0.099736385,
      0.0120124165,
      -0.73012334,
      0.8017056,
      -0.19828022,
      0.2675273,
      -0.53476316,
      0.5621359
    ],
    [
      -0.52647156,
      0.3893204,
      0.12493867,
      -1.0297354,
      -0.00011583544,
      -0.03336068,
      -0.051945105,
      0.14897406,
      0.11562791,
      0.28364518,
      -0.12035468,
      0.7224323,
      0.118966796,
      -0.6630736,
      0.016575202,
      0.6652569,
      0.21872748,
      0.18170682,
      -0.04075642,
      -0.014372674,
      -0.7771107,
      -0.5522177,
      -0.551713,
      0.50754976,
      0.29529494,
      0.19147913,
      -0.109912686,
      -0.39588687,
      0.39792782,
      -0.17221442,
      1.0083259,
      -0.13096252,
      0.0877473,
      1.5064592,
      0.94376975,
      0.1387019,
      0.6287714,
      0.55863446,
      -0.05493799,
      -0.007808481,
      0.2845517,
      -0.18866846,
      -0.09770183,
      0.8110948,
      -0.34790394,
      0.24247779,
      0.07294077,
      0.24905433,
      0.2318761,
      -0.0753027,
      0.6775796,
      0.022479419,
      -0.4695205,
      -0.44939047,
      -0.86114585,
      0.2873538,
      -0.668228,
      0.16355726,
      -0.77565145,
      0.14040013,
      -0.12396457,
      0.58637893,
      -0.27104115,
      0.7939697
    ],
    [
      -0.4364299,
      0.28319412,
      0.083891846,
      -0.66106635,
      0.17661469,
      -0.70293075,
      -0.25448638,
      0.21679515,
      0.6255912,
      0.47495443,
      -0.36907986,
      0.6590256,
      0.06922633,
      -0.3722441,
      0.041364364,
      0.62038183,
      0.5881267,
      0.4279453,
      -0.6523054,
      0.35000175,
      -0.8055364,
      -0.2250282,
      -0.49183372,
      0.07749484,
      0.6659036,
      0.048591238,
      -0.3546161,
      -0.23005797,
      -0.17328297,
      -0.19836524,
      0.420762,
      0.4495447,
      0.6936196,
      0.4656002,
      0.49329343,
      -0.032247044,
      0.43461427,
      0.42208123,
      0.43691996,
      0.19750485,
      0.36702225,
      -0.29009348,
      -0.27403545,
      0.51380587,
      -0.072734706,
      0.5747891,
      0.018923957,
      0.37081483,
      -0.23508778,
      -0.4096862,
      0.148477,
      0.87353617,
      -0.32203168,
      -0.14987265,
      -0.22422831,
      0.47653005,
      -0.55505806,
      -0.010861068,
      -0.49629852,
      0.57188666,
      -0.30631128,
      0.119344674,
      -0.42122623,
      0.38412166
    ],
    [
      -0.6688263,
      0.6778136,
      -0.17844564,
      -0.9138295,
      -0.09214618,
      -0.31716582,
      -0.046136778,
      0.29823843,
      0.20720908,
      -0.19340083,
      0.040984806,
      0.9062897,
      0.342853,
      -0.95836717,
      0.23358643,
      0.84637225,
      0.14697663,
      0.38295034,
      -0.30342954,
      -0.19821563,
      -1.0973115,
      0.099496216,
      0.019165091,
      0.3285926,
      0.0349547,
      -0.14052084,
      -0.114600085,
      -0.5136364,
      -0.18799724,
      -0.08641769,
      0.8113413,
      0.16721897,
      0.12727652,
      1.0570748,
      1.0506221,
      0.44756705,
      -0.0823208,
      0.9356877,
      0.41209546,
      0.3276397,
      -0.15283561,
      -0.28332356,
      -0.19068852,
      0.76338273,
      0.139521,
      0.12786455,
      -0.0261818,
      0.5476665,
      0.44546434,
      -0.2944675,
      0.8475592,
      0.8262591,
      -0.7514948,
      -0.16281854,
      -0.5774707,
      0.51483023,
      -0.56178683,
      -0.04323581,
      -0.7196779,
      0.2756464,
      -0.3330647,
      0.2610984,
      -0.53979206,
      0.43354395
    ],
    [
      0.33244693,
      0.058223315,
      -0.0880035,
      0.5735562,
      -0.37852043,
      0.63403827,
      0.09256974,
      -0.36912233,
      -0.22598094,
      -0.37268475,
      0.2719335,
      -0.6657294,
      -0.3617888,
      0.77108294,
      -0.37664765,
      -0.50111157,
      -0.6942795,
      -0.54718727,
      0.3025941,
      -0.3678994,
      0.53880644,
      0.010564236,
      0.5628684,
      -0.03788572,
      -0.5702857,
      0.071619384,
      0.48950768,
      0.315221,
      -0.22197275,
      0.3428849,
      -0.4996712,
      -0.70269334,
      -0.08468346,
      -0.39669424,
      -0.10110504,
      -0.46082196,
      -0.007940442,
      -0.5372728,
      -0.71249133,
      0.06234124,
      -0.27929074,
      0.57305753,
      -0.00077656546,
      -0.21583638,
      0.2313808,
      -0.30672583,
      -0.048914153,
      -0.1443627,
      0.20711985,
      0.57767427,
      -0.7703158,
      -0.7427256,
      0.49168837,
      0.1864651,
      0.15414235,
      -0.9827063,
      0.24514516,
      -0.3407208,
      0.1872106,
      -0.35087177,
      0.04833377,
      -0.6696691,
      0.6992186,
      -0.7022517
    ],
    [
      0.4016438,
      -0.089723036,
      -0.067055695,
      -0.4532878,
      -0.124349505,
      0.06203665,
      -0.25166693,
      0.0233573,
      0.39156923,
      -0.17001575,
      0.32944345,
      -0.13418427,
      -0.2270447,
      -0.22383621,
      0.05884574,
      0.08085125,
      -0.02865421,
      0.20100078,
      -1.0244901,
      -0.36922362,
      0.06630473,
      -0.22740455,
      0.07033984,
      0.4977021,
      0.3415837,
      0.4913815,
      0.0726018,
      -0.100109205,
      -0.59844923,
      -0.5085316,
      -0.066340476,
      0.1139601,
      -0.34156096,
      0.7492978,
      0.041064378,
      0.81763417,
      0.2545747,
      0.24478967,
      -0.3205476,
      -0.7110572,
      0.17432548,
      -0.41755646,
      -0.04545065,
      -0.35871097,
      -0.034491215,
      -0.06581425,
      1.188284,
      0.76143324,
      -0.04962387,
      -0.03779085,
      -0.071036935,
      0.3538489,
      0.21048199,
      -0.20521073,
      -0.68573207,
      -0.3096413,
      -0.7330897,
      -0.08549285,
      0.3694499,
      -0.20549,
      0.053073317,
      -0.19163994,
      -0.012397296,
      -0.33802113
    ],
    [
      -0.22779298,
      -0.17625025,
      -0.14292161,
      -0.6245903,
      0.044097777,
      -0.052687358,
      -0.056370895,
      0.09305266,
      -0.05356452,
      -0.22735913,
      0.020751877,
      1.1462934,
      -0.27119488,
      -0.7870665,
      -0.02835224,
      0.4533278,
      -0.014083696,
      -0.1195214,
      0.2351039,
      -0.29761574,
      -0.20476228,
      -0.2726743,
      0.06901066,
      -0.049632393,
      -0.15715829,
      -0.6913933,
      0.036684666,
      -0.6730834,
      0.22286268,
      -0.024708778,
      0.14061628,
      0.19401169,
      -0.12129142,
      -0.10047147,
      -0.08610236,
      -0.07289322,
      -0.04919449,
      0.9923568,
      0.06765394,
      0.52198035,
      -0.45548767,
      -0.47612396,
      0.15402949,
      0.19575253,
      0.25283116,
      -0.13478199,
      -0.8311264,
      -0.1655985,
      0.04065482,
      0.028525895,
      -0.050119795,
      0.37587836,
      -1.0512899,
      0.20881248,
      0.15895031,
      0.07042252,
      -0.37342325,
      -0.20455937,
      -0.250692,
      -0.21303128,
      -0.174897,
      -0.17895341,
      -0.6375003,
      0.5429218
    ],
    [
      0.785076,
      -0.9017645,
      -0.06531514,
      0.66539085,
      -0.32481086,
      0.20667982,
      0.14246976,
      -0.2352493,
      -0.63112587,
      -0.46644527,
      0.2695404,
      -0.8288678,
      -0.05090932,
      0.69598097,
      0.21121854,
      -0.8379937,
      -0.26528808,
      0.035957582,
      0.398146,
      -0.6087199,
      0.50682384,
      -0.16412447,
      0.32168078,
      -0.9727713,
      -0.11237771,
      -0.24882276,
      -0.030124465,
      0.26863933,
      0.6004295,
      0.43724635,
      -0.7908253,
      -0.6327064,
      -0.63643557,
      -1.2463186,
      -0.897177,
      -0.62723106,
      -0.4493919,
      -0.43100742,
      -0.001661838,
      0.037882544,
      0.033002626,
      0.3877749,
      -0.001942476,
      -0.44424206,
      0.103333324,
      -0.05607299,
      -0.21127146,
      -0.7507554,
      0.09244851,
      0.31071168,
      -0.6742859,
      -0.31636012,
      0.75557536,
      0.16409291,
      0.59848243,
      -0.30314156,
      0.31933236,
      -0.23639135,
      0.21895897,
      0.061572615,
      0.009956145,
      -0.1443431,
      0.2925709,
      -0.60233235
    ],
    [
      -0.38266248,
      0.34283617,
      0.13050982,
      -1.0672491,
      0.2130199,
      -0.39189312,
      -0.07923021,
      0.3016289,
      0.2492036,
      0.48150706,
      -0.22723556,
      1.0908312,
      -0.07537683,
      -0.7065012,
      0.084273115,
      0.56979144,
      0.38919958,
      0.23818938,
      -0.51556456,
      0.38126376,
      -0.6549509,
      -0.106063284,
      -0.016380457,
      0.46352518,
      0.5770104,
      -0.17496717,
      0.12656929,
      -0.5760798,
      -0.59202737,
      -0.3806933,
      0.5185152,
      -0.09551809,
      0.6296903,
      0.062119935,
      0.6164156,
      0.4016377,
      0.19635564,
      0.74986094,
      0.3195194,
      0.20581736,
      0.09251108,
      -0.7152369,
      -0.07100476,
      0.7449249,
      -0.03127923,
      -0.33679172,
      -0.007478225,
      0.4195506,
      0.050673287,
      -0.06784679,
      0.6319001,
      0.93118954,
      -0.2829818,
      -0.13581711,
      -0.3402006,
      0.5145276,
      -0.38551763,
      0.46009213,
      -0.85131407,
      0.80859745,
      -0.120025836,
      0.19098191,
      -0.28754818,
      0.7421438
    ],
    [
      -0.48778328,
      0.76069957,
      0.30068696,
      -0.40655065,
      0.15219314,
      -0.24768953,
      0.09806523,
      0.0265495,
      0.4923098,
      0.78383213,
      -0.34986562,
      0.52814114,
      0.40194526,
      -0.41939524,
      0.28069153,
      0.7017781,
      0.2735203,
      0.3412702,
      -0.5600144,
      0.3935557,
      0.061603002,
      -0.10818228,
      -0.12687548,
      0.7326915,
      0.54715747,
      -0.029586053,
      -0.04893989,
      -0.3152228,
      -0.5715147,
      -0.81751096,
      0.66358864,
      0.23603144,
      0.34010273,
      1.0207533,
      0.6971163,
      0.57247764,
      0.38237387,
      0.70484614,
      0.08205162,
      -0.030718286,
      0.35062033,
      0.2803828,
      -0.12438368,
      0.70234126,
      0.24020612,
      0.1424943,
      0.34880954,
      0.9765088,
      -0.31299686,
      -0.37245104,
      0.7163373,
      0.30692926,
      -0.7314992,
      0.19320297,
      -0.7928503,
      -0.20952663,
      -0.6641034,
      0.38009888,
      -0.16974312,
      0.2071984,
      -0.2858792,
      0.24089165,
      -0.2687013,
      0.662017
    ],
    [
      0.42423218,
      -0.23364262,
      -0.47528547,
      0.43557566,
      -0.59411,
      0.26702523,
      0.5646849,
      -0.6177767,
      -0.2863805,
      -0.484122,
      0.15465595,
      -0.29116094,
      -0.45505416,
      0.448944,
      -0.35320428,
      -0.41410017,
      -0.3147917,
      -1.001315,
      0.11748805,
      -0.6497562,
      0.25150606,
      0.4439249,
      1.0244503,
      -0.24350777,
      -0.22885552,
      -0.28547904,
      0.37487838,
      0.18505768,
      -0.059867274,
      0.1424613,
      -0.18471973,
      -0.9154934,
      -0.24406196,
      -0.11481451,
      -0.34555015,
      -0.10963765,
      -0.054291785,
      -0.24207221,
      -0.36566398,
      0.3933437,
      -0.07988037,
      0.12694609,
      0.4417405,
      0.015316295,
      0.5834913,
      -0.21841985,
      0.12917827,
      -0.20791519,
      0.19768044,
      0.30074954,
      -0.418519,
      -0.7198859,
      0.27523303,
      -0.34263635,
      0.17703745,
      -0.64768124,
      0.19668137,
      -0.54420567,
      0.2666133,
      -0.6685265,
      0.71736836,
      -0.5770729,
      0.04944005,
      -0.1217376
    ],
    [
      -0.27146196,
      0.08211008,
      0.458816,
      -0.622834,
      0.5582055,
      -0.75562924,
      -0.562592,
      0.66140026,
      -0.19967102,
      0.21002752,
      0.08281002,
      0.626438,
      0.14221452,
      -0.3213339,
      0.38202843,
      0.37860796,
      0.69027567,
      0.5578495,
      -0.10122333,
      0.16434915,
      -0.5655304,
      -0.32667375,
      -0.673633,
      0.2753612,
      0.19326071,
      0.26654336,
      -0.31939864,
      -0.58763963,
      -0.07079573,
      -0.73334897,
      0.7315827,
      0.62538534,
      0.2876293,
      0.22696692,
      0.098534256,
      0.040706616,
      0.44554594,
      0.6920914,
      1.0136245,
      -0.07239046,
      0.040677432,
      -0.6911307,
      -0.108815745,
      0.37846133,
      -0.40449047,
      0.17459519,
      0.036083132,
      0.54383063,
      0.0705606,
      -0.48695922,
      0.3257315,
      1.0081075,
      -0.5583796,
      -0.11843642,
      -0.027022276,
      0.67120695,
      -0.1194707,
      0.5173214,
      -0.255163,
      0.07530886,
      -0.89358956,
      0.03292054,
      -0.6372168,
      0.15368575
    ],
    [
      0.28102958,
      -0.0032577983,
      -0.03758672,
      -0.18284154,
      0.49845195,
      -0.050582334,
      -0.16360924,
      0.26307282,
      0.091883235,
      0.35136947,
      -0.09817463,
      0.16786003,
      0.8341598,
      -0.089162886,
      0.6157763,
      0.22984058,
      0.56084794,
      0.008752127,
      0.025195586,
      -0.14218299,
      -0.035228033,
      -0.77102435,
      -0.22767209,
      0.11822296,
      0.2961978,
      0.83043635,
      -0.3940511,
      -0.1859548,
      -0.34009543,
      -0.25305602,
      0.079387166,
      0.62147427,
      0.4089137,
      0.1584198,
      0.18565331,
      0.113791324,
      -0.123663254,
      -0.32111514,
      0.49081457,
      -1.0466372,
      0.2979415,
      -0.13074484,
      -0.39933038,
      0.20178579,
      -0.9322272,
      0.13681059,
      0.8325585,
      0.30237818,
      -0.23735617,
      0.068808354,
      -0.28365898,
      0.503135,
      -0.32138395,
      0.13320734,
      -0.13349436,
      -0.012504737,
      0.015474182,
      0.31283954,
      0.045350336,
      -0.14092238,
      -0.23813745,
      -0.17969318,
      -0.5366561,
      -0.030651337
    ],
    [
      -0.5997992,
      0.72770864,
      -0.0089633865,
      -0.7113963,
      0.35544512,
      -0.015400544,
      -0.2994396,
      -0.17172933,
      0.3124773,
      0.690904,
      -0.33161023,
      0.41252464,
      0.3692401,
      -0.87728095,
      0.19308658,
      0.719968,
      0.4222905,
      0.010341357,
      -0.43351254,
      0.26217037,
      -0.6154228,
      -0.07825423,
      -0.05678329,
      1.0053501,
      0.10590369,
      0.09959562,
      -0.39529508,
      -0.20027497,
      -0.06918773,
      -0.3889264,
      0.58704376,
      0.32548457,
      0.2957933,
      1.4421653,
      0.61737585,
      0.48966235,
      0.39296708,
      0.7261067,
      -0.020684877,
      -0.29148662,
      0.19505349,
      0.22086212,
      -0.24774696,
      1.0377488,
      -0.0890846,
      0.15198253,
      0.098772496,
      0.72878,
      0.02252096,
      -0.34848428,
      0.61091274,
      -0.09560647,
      -0.17891043,
      -0.5778606,
      -0.6534965,
      0.4404316,
      -0.46521592,
      0.16505207,
      -0.6645951,
      0.34607837,
      -0.08086378,
      -0.19773859,
      0.16800076,
      0.42254588
    ],
    [
      -0.24953045,
      0.23009022,
      0.51231873,
      -0.67253315,
      0.92018646,
      -0.6524152,
      -0.34514666,
      0.49025065,
      0.4360627,
      0.1661026,
      0.08435252,
      0.56751025,
      0.6469323,
      -0.030559983,
      0.6244622,
      0.5394306,
      0.43025744,
      0.16587596,
      -0.15186748,
      -0.25244966,
      -0.24588163,
      -0.21197255,
      -0.69332826,
      0.44544443,
      -0.05529955,
      0.7018832,
      -0.29260004,
      -0.7357344,
      -0.2168069,
      -0.028554948,
      0.06871027,
      0.13610461,
      0.070526995,
      0.35920587,
      -0.22159815,
      0.2514336,
      0.21456648,
      0.5432892,
      0.35737795,
      -0.8781798,
      0.27453908,
      -0.37607524,
      -0.5526691,
      0.17168891,
      -0.57968366,
      0.054781705,
      0.6785951,
      0.37059104,
      -0.23200665,
      -0.12532356,
      0.07817229,
      1.1573814,
      -0.520471,
      0.10359164,
      -0.30066797,
      0.37293145,
      -0.40570328,
      0.22949016,
      0.062241368,
      0.14706387,
      -0.11458142,
      0.09549866,
      -0.3689544,
      0.3511201
    ],
    [
      0.36686057,
      -0.1992664,
      -0.37405476,
      0.76709026,
      -0.5893441,
      0.16279462,
      0.32278326,
      -0.4438792,
      -0.20330098,
      -0.084337436,
      0.37036434,
      -0.42107457,
      -0.50904447,
      0.21610607,
      -0.7555819,
      -0.26345488,
      -0.7883065,
      -0.3691242,
      0.4116365,
      -0.15327072,
      0.399704,
      0.40817964,
      0.6707049,
      -0.1788559,
      -0.19524874,
      -0.71309763,
      0.38937628,
      0.54948187,
      0.6371278,
      0.3043006,
      -0.5910077,
      -0.7467247,
      -0.3515813,
      -0.37409735,
      -0.3353056,
      -0.20698917,
      -0.27305815,
      -0.590577,
      -0.4180472,
      0.63213116,
      -0.08898247,
      0.31258678,
      0.66341674,
      -0.36347446,
      0.6299425,
      -0.544764,
      -0.33570048,
      -0.16500166,
      0.22665942,
      0.6463514,
      -0.320794,
      -0.5997788,
      0.24603294,
      0.099273734,
      0.48192924,
      -0.35935,
      0.091976136,
      -0.16270326,
      0.48721495,
      -0.5430104,
      0.3239223,
      -0.16949089,
      0.4440719,
      -0.91573024
    ],
    [
      0.9387765,
      -0.36652586,
      0.20266385,
      0.9383235,
      -0.11775908,
      0.5947366,
      0.11102392,
      -0.66383034,
      -0.25038013,
      -0.12120845,
      0.44410992,
      -1.4563414,
      -0.14945343,
      1.2521167,
      -0.033490364,
      -0.8742292,
      -0.34116158,
      -0.051844016,
      0.086460076,
      0.06779784,
      0.52167916,
      -0.04905946,
      0.09688702,
      -0.21796086,
      -0.38581517,
      0.35045505,
      0.26265582,
      0.529513,
      0.28224552,
      0.45526686,
      -0.5811899,
      0.034744043,
      -0.15427367,
      -1.0405811,
      -0.53308487,
      -0.2440387,
      -0.6218915,
      -1.3288515,
      -0.37684256,
      -0.40965238,
      -0.08570035,
      0.52724564,
      0.08196576,
      -0.8348887,
      0.10793839,
      0.10977271,
      -0.18537815,
      -0.011314603,
      -0.32149565,
      0.1334622,
      -0.74801755,
      -0.7906222,
      0.8215346,
      -0.1537891,
      0.5678517,
      -0.36014292,
      -0.10878629,
      0.010888925,
      0.6231382,
      -0.16627312,
      0.52400416,
      -0.17382002,
      0.26818314,
      -0.746024
    ],
    [
      0.70192224,
      -0.124942936,
      -0.1050031,
      0.9377592,
      0.049054082,
      0.9329326,
      0.16158372,
      -0.86624295,
      -0.16331919,
      -0.34318134,
      0.21641777,
      -0.803957,
      0.0078308955,
      0.9639485,
      -0.37768218,
      -0.23930226,
      -0.3667413,
      -0.8655527,
      0.0786996,
      -0.049702983,
      0.7216728,
      0.28084484,
      0.74981296,
      0.012352982,
      0.09722829,
      0.23641743,
      0.17762534,
      0.5393771,
      -0.32152608,
      0.06340927,
      -0.5365172,
      -0.7341603,
      0.014776984,
      -0.04907306,
      -0.32020998,
      -0.18117101,
      0.09999403,
      -0.8237548,
      -0.6326434,
      -0.4239843,
      -0.020414704,
      0.7061212,
      -0.025912838,
      -0.5717819,
      -0.40287855,
      -0.066351846,
      0.37537894,
      -0.037659664,
      0.3417361,
      0.40638041,
      -0.17815112,
      -1.1098412,
      0.8884563,
      0.24633798,
      0.21473818,
      -0.7357329,
      -0.5772186,
      -0.3622957,
      0.8316865,
      -0.07154333,
      0.37101114,
      -0.26242295,
      0.58537626,
      -0.70179975
    ],
    [
      0.6479476,
      -0.043400533,
      -0.04441992,
      0.7617647,
      -0.11982692,
      0.71526533,
      0.259663,
      -0.5772282,
      0.13554263,
      0.07046485,
      -0.041768596,
      -0.57487327,
      -0.33355507,
      0.7451635,
      -0.37395433,
      -0.5281976,
      -0.8479585,
      -0.6963458,
      0.26452264,
      -0.51272964,
      0.13955724,
      0.16609879,
      0.7823764,
      -0.3098304,
      -0.08820496,
      0.14880387,
      0.53062856,
      0.7216539,
      0.06059003,
      -0.15064372,
      -0.3944779,
      -0.9624123,
      -0.3192568,
      0.11436293,
      -0.23101194,
      -0.027508473,
      -0.14018022,
      -0.7398827,
      -0.42710325,
      -0.3542529,
      -0.63367677,
      0.706615,
      0.100687586,
      -0.24901515,
      0.22709842,
      -0.17215182,
      0.055440553,
      -0.08537102,
      0.26591465,
      0.42487508,
      -0.24072045,
      -0.9525919,
      0.7760354,
      0.29915583,
      0.41012856,
      -0.5314326,
      0.2075299,
      -0.536682,
      0.25209665,
      -0.1704927,
      0.756646,
      -0.43021536,
      0.40575936,
      -0.31651723
    ],
    [
      0.64247155,
      -0.20621149,
      -0.21151114,
      0.645229,
      -0.34587762,
      0.40016973,
      0.33508095,
      -0.27712384,
      -0.15985927,
      -0.24376743,
      0.62149596,
      -0.34940085,
      -0.37455255,
      0.6291003,
      -0.11927076,
      -0.62079346,
      -0.32402995,
      -0.27580422,
      0.23611808,
      -0.08178355,
      0.97058845,
      0.29102197,
      -0.016433017,
      -0.56679314,
      -0.47419342,
      -0.11783805,
      0.41348675,
      0.19382384,
      0.32569727,
      0.240567,
      -0.4537908,
      -0.22934505,
      -0.34800133,
      -0.6193704,
      -0.4909118,
      -0.25536364,
      -0.4045834,
      -0.60947436,
      -0.44025,
      -0.2986063,
      -0.08884493,
      0.57368475,
      0.2749392,
      -0.3011631,
      -0.4133051,
      0.19087943,
      -0.2337815,
      -0.2992835,
      -0.051130887,
      0.5330897,
      -0.33865598,
      -0.2581379,
      0.53736055,
      0.032307714,
      0.27852243,
      -0.16815524,
      0.45403603,
      -0.30258393,
      0.66335,
      -0.5450946,
      0.18799673,
      -0.40163356,
      0.17213936,
      -0.738226
    ],
    [
      0.45646527,
      -0.35251492,
      -0.17636502,
      0.40020102,
      -0.30704993,
      0.5186027,
      0.3743003,
      -0.77039397,
      -0.31297973,
      0.020714158,
      0.34839645,
      -0.97988516,
      -0.41077626,
      0.39869773,
      -0.39206576,
      -0.10335868,
      -0.4852233,
      -0.5843526,
      0.29534072,
      -0.49742115,
      0.60325474,
      0.5538583,
      0.6806002,
      -0.5399937,
      -0.5370186,
      0.016224924,
      0.61933494,
      0.52130574,
      0.18615946,
      0.120442055,
      -0.312027,
      -0.61192405,
      -0.38446727,
      -0.42403147,
      -0.2570309,
      0.15898523,
      -0.22292317,
      -1.0211364,
      -0.26626107,
      0.16922055,
      -0.35153913,
      0.49727282,
      0.17260015,
      -0.29907015,
      -0.034236077,
      -0.18118635,
      -0.02274718,
      -0.44042695,
      -0.12234262,
      0.15181264,
      -0.47969544,
      -1.1895733,
      0.31456292,
      0.2557448,
      0.26347646,
      -0.69181687,
      0.057333685,
      -0.71062034,
      0.6106615,
      -0.12564081,
      0.35565278,
      -0.3171072,
      1.0058596,
      -0.3317169
    ],
    [
      -0.50061136,
      0.89175904,
      0.04692343,
      -0.23007876,
      0.12981026,
      0.10660024,
      -0.32769638,
      -0.088509664,
      0.703019,
      0.28663343,
      -0.5768727,
      0.42453915,
      0.20920487,
      -0.583148,
      0.31610876,
      1.0012717,
      0.4205792,
      -0.08423939,
      -0.6288183,
      0.5883263,
      -0.29247358,
      -0.1983145,
      -0.377745,
      0.5472377,
      0.24172245,
      0.21863802,
      -0.39831033,
      -0.2893744,
      -0.4984469,
      -0.6883068,
      0.71788746,
      0.065050505,
      0.6472171,
      0.9700121,
      0.26120254,
      0.82630885,
      0.62657446,
      0.4472898,
      0.08631858,
      0.0043605547,
      -0.015875902,
      0.008212825,
      -0.30685827,
      0.84469,
      -0.23829019,
      0.01947505,
      0.090532646,
      1.1516398,
      -0.3099458,
      -0.0052028447,
      0.6659951,
      0.15273628,
      -0.5236332,
      -0.005565788,
      -0.6538079,
      -0.32191017,
      -0.31323615,
      0.33091286,
      -0.021681007,
      0.3272079,
      0.18077303,
      0.44994825,
      0.004007549,
      0.25891984
    ],
    [
      0.53532267,
      -0.6588847,
      -0.32040775,
      0.75321597,
      0.08768534,
      0.44200283,
      0.4031818,
      -0.20067164,
      -0.80355924,
      -0.11478484,
      0.20994322,
      -0.6725974,
      -0.3342606,
      1.2776461,
      -0.07560789,
      -0.79569393,
      -0.39034182,
      -0.30455938,
      0.8916968,
      0.22139014,
      0.22149181,
      0.118815385,
      0.13633789,
      -0.7343421,
      -0.083690025,
      0.2260359,
      0.22622913,
      0.64773864,
      0.038625013,
      0.8041868,
      -0.21293879,
      -0.34950432,
      -0.39323804,
      -0.6965077,
      -0.4544129,
      -0.20331635,
      -0.61505115,
      -0.6983034,
      -0.26308075,
      -0.14148533,
      -0.16086258,
      0.22595981,
      -0.1098717,
      -0.55300933,
      0.09556971,
      0.32422125,
      -0.13464625,
      -0.7142232,
      -0.13612773,
      0.0202913,
      -0.8020597,
      -0.22473182,
      0.8190732,
      0.0056525767,
      0.4582382,
      -0.08624897,
      0.495961,
      -0.06102071,
      0.3023363,
      -0.17234802,
      -0.082522675,
      0.05815961,
      0.437096,
      -1.1374477
    ],
    [
      0.47626948,
      -0.69184184,
      -0.1937647,
      0.593167,
      -0.09022046,
      0.25360808,
      0.24417345,
      -0.3376488,
      -0.06594706,
      -0.5019498,
      0.60923123,
      -0.53900564,
      0.11165993,
      0.31236792,
      -0.33792332,
      -0.6685627,
      -0.18874182,
      0.06442236,
      0.5565991,
      -0.39523092,
      0.48115528,
      0.24031186,
      0.17544384,
      -0.14664598,
      -0.37509307,
      0.046601035,
      0.48984796,
      0.10927068,
      0.5348716,
      0.08599308,
      -0.6282335,
      -0.26870528,
      -0.03915204,
      -0.48474023,
      -0.36579525,
      -0.35768336,
      -0.5252446,
      -0.4441779,
      -0.48884028,
      0.13246919,
      -0.31466487,
      0.10060652,
      0.056822132,
      -0.20745927,
      0.28651035,
      -0.1298899,
      0.0074031,
      -0.50412637,
      -0.06239597,
      0.33405495,
      -0.35977808,
      -0.62150246,
      0.6680231,
      0.23760633,
      0.6125125,
      -0.5805365,
      0.6479289,
      -0.5385573,
      0.91611016,
      -0.42772225,
      0.08980721,
      -0.069436416,
      0.206693,
      -0.50539225
    ],
    [
      0.4027771,
      -0.80242276,
      -0.12859805,
      0.5258575,
      -0.4669561,
      0.24359299,
      0.110088125,
      0.018787961,
      -0.58395773,
      -0.51923865,
      0.59077543,
      -0.47487548,
      -0.3876291,
      0.84547734,
      -0.43486062,
      -1.1369013,
      -0.3381046,
      -0.3118047,
      0.3423761,
      -0.1716034,
      -0.017700892,
      0.2099584,
      0.1926967,
      -0.7910891,
      -0.109103724,
      -0.19358167,
      0.19698924,
      0.11862342,
      0.6988655,
      0.5875314,
      -0.97353804,
      -0.2568731,
      -0.4022192,
      -0.9327312,
      -0.91152287,
      -0.5177531,
      -0.9235761,
      -0.54836977,
      0.09330587,
      -0.012097517,
      -0.047847856,
      0.028595015,
      0.007170001,
      -0.5209842,
      -0.09241051,
      -0.48165435,
      -0.14782034,
      -0.40108958,
      0.112944916,
      -0.22814335,
      -0.75396425,
      -0.104768485,
      0.45149255,
      -0.089512505,
      0.4499741,
      -0.16939613,
      0.52600175,
      -0.33691946,
      0.29485264,
      -0.27274543,
      -0.25074422,
      -0.0020475977,
      0.1357041,
      -0.0750176
    ],
    [
      0.21890494,
      -0.13786386,
      -0.6038708,
      0.60837877,
      -0.39059308,
      0.56596607,
      0.15274054,
      -0.47305337,
      -0.131548,
      -0.35677147,
      0.25193733,
      -0.18833107,
      -0.39999843,
      0.6046815,
      -0.1680197,
      -0.18556856,
      -0.38609514,
      -0.8430527,
      0.13240531,
      -0.61986065,
      0.45751294,
      0.19636911,
      1.22628,
      -0.10432708,
      -0.3888814,
      -0.052049715,
      0.9030077,
      0.6482619,
      0.3050064,
      0.019011304,
      -0.44033495,
      -0.54523176,
      -0.29934832,
      0.045153398,
      -0.11341543,
      0.13577281,
      -0.14830913,
      -0.65832365,
      -0.5761625,
      0.329055,
      0.18853602,
      0.36348465,
      0.38217825,
      -0.17540531,
      0.5431367,
      -0.16320078,
      -0.37144682,
      -0.1803829,
      0.73499507,
      0.45556608,
      -0.39153048,
      -0.40974838,
      0.22737578,
      0.122505896,
      0.34627578,
      -0.6163175,
      0.21318509,
      -0.3201724,
      0.5076999,
      -0.089536384,
      0.41139925,
      -0.30310154,
      0.64236146,
      0.010279552
    ],
    [
      -0.28297344,
      0.5721887,
      0.09449054,
      -0.5227801,
      0.24660736,
      0.06630158,
      0.18334429,
      -0.041861545,
      0.3285971,
      0.17080216,
      -0.6360476,
      0.72915673,
      0.41568935,
      -0.7971455,
      -0.05488521,
      0.80562884,
      0.3162454,
      0.12699042,
      -0.6944831,
      0.38138187,
      -0.22180474,
      -0.34497297,
      -0.037800577,
      1.0819756,
      0.18246536,
      0.41610423,
      0.014926188,
      -0.20186785,
      0.047830153,
      -0.3151876,
      0.7485732,
      0.008369393,
      0.20022017,
      1.2644875,
      0.86245346,
      0.36967346,
      0.6552137,
      0.5853799,
      0.14891438,
      0.06826716,
      -0.08394679,
      0.033917096,
      -0.030726552,
      0.47312814,
      -0.32448438,
      0.05369993,
      0.30858278,
      0.7325248,
      -0.30125466,
      -0.46403098,
      0.6245501,
      0.7614735,
      -0.51605934,
      -0.3447905,
      -0.39657086,
      0.1454356,
      -0.42121577,
      -0.002995865,
      -0.68482935,
      0.34197417,
      -0.08282702,
      0.24245021,
      -0.05687992,
      0.43857658
    ],
    [
      0.697308,
      -0.024389789,
      -0.19124527,
      0.5620209,
      -0.29359463,
      1.0232587,
      0.58569795,
      -0.72513616,
      -0.33030707,
      -0.066278525,
      0.06341891,
      -1.094995,
      -0.25869018,
      0.5124703,
      -0.29854655,
      -0.3587233,
      -0.50118214,
      -0.8504853,
      -0.0232273,
      -0.33182752,
      0.3174294,
      0.48314968,
      0.53696996,
      -0.13358763,
      -0.48414552,
      -0.059914965,
      0.6823578,
      0.8613467,
      0.053840376,
      0.09361466,
      -0.591401,
      -0.9432995,
      0.17380928,
      0.030498141,
      -0.016953258,
      0.04702972,
      0.135214,
      -0.25291517,
      -0.7430719,
      -0.06820137,
      0.3585122,
      0.7212538,
      0.30099145,
      -0.46689624,
      0.266616,
      -0.17765883,
      -0.07716189,
      0.17810854,
      -0.20972814,
      0.33925885,
      -0.38371763,
      -1.1161871,
      0.83325243,
      0.56954837,
      0.28738037,
      -0.54032236,
      0.1782652,
      -0.50268817,
      0.41278344,
      -0.2522549,
      0.6261063,
      -0.07915633,
      0.66690576,
      -0.65281844
    ],
    [
      -0.3543239,
      0.312299,
      0.40166456,
      -0.77573043,
      0.28957057,
      -0.21654099,
      -0.2372208,
      -0.1963699,
      0.5832359,
      -0.20845555,
      -0.4617165,
      0.65400356,
      0.3815713,
      -0.5661534,
      -0.10217486,
      0.37299433,
      0.45334578,
      -0.11260177,
      -0.45434305,
      -0.07782888,
      -0.4647832,
      -0.3615167,
      -0.33423167,
      0.77205956,
      0.17364636,
      0.54240906,
      0.21786073,
      0.2107498,
      -0.93454146,
      -0.47289604,
      0.3353857,
      0.14357096,
      -0.37441516,
      0.88634527,
      0.92285633,
      0.5387519,
      0.3651784,
      0.65716815,
      0.05706092,
      -0.3324426,
      0.29272032,
      -0.07574287,
      0.02959478,
      0.5408188,
      -0.39202568,
      0.16516696,
      0.5330557,
      1.0204768,
      -0.14507796,
      -0.020680362,
      0.38191903,
      -0.055135407,
      -0.25648943,
      -0.1139818,
      -0.9689075,
      0.16201423,
      -0.62358457,
      0.178818,
      -0.36209074,
      0.010580069,
      -0.18340263,
      0.059608318,
      -0.12696597,
      0.2295843
    ],
    [
      0.528686,
      -0.29796404,
      -0.09317534,
      1.172312,
      0.24164218,
      0.34721458,
      0.50307465,
      -0.75038344,
      -0.41414163,
      -0.46663222,
      0.3782144,
      -1.248943,
      0.212757,
      0.51912767,
      -0.12834892,
      -0.46764204,
      -0.8040116,
      -0.39390492,
      0.06306427,
      -0.0050099078,
      0.90953606,
      -0.030356769,
      -0.19020167,
      -0.38298216,
      -0.36516917,
      -0.14437322,
      0.2264988,
      0.5212148,
      0.38527897,
      0.1771443,
      -0.6372449,
      -0.23114143,
      -0.29166254,
      -0.2150351,
      -0.09963849,
      -0.04417375,
      -0.22942612,
      -0.90264225,
      -0.30277815,
      -0.10268185,
      -0.34192368,
      0.17585693,
      0.17069098,
      -0.2216682,
      0.0038510626,
      0.05912253,
      -0.02455582,
      -0.06837873,
      0.17978975,
      0.442943,
      -0.70935595,
      -0.9586869,
      0.62416685,
      0.11684166,
      -0.025398763,
      -0.25819796,
      0.3582765,
      -0.27076858,
      0.64703554,
      -0.27180272,
      0.31045368,
      -0.32507342,
      0.65609413,
      -0.4203894
    ],
    [
      0.09471309,
      -0.2158235,
      -0.2487461,
      0.25979576,
      -0.1712036,
      0.087001905,
      0.44331208,
      -0.5040214,
      -0.3210884,
      -0.3553466,
      0.21431622,
      -0.5256875,
      -0.39134187,
      0.38717255,
      -0.1748558,
      -0.34467578,
      -0.1659275,
      -0.03668537,
      0.32515916,
      -0.32536575,
      0.5105434,
      0.5591773,
      0.5672749,
      -0.5982704,
      -0.2637295,
      -0.007917013,
      0.48675126,
      0.06308765,
      0.41460198,
      0.36195898,
      -0.6551349,
      -0.11926105,
      -0.299414,
      -0.32475263,
      -0.3905459,
      -0.50138557,
      -0.23644207,
      -0.17392376,
      -0.283606,
      -0.05425508,
      -0.73325187,
      0.08439792,
      0.47127745,
      -0.26833752,
      0.30984616,
      -0.50234246,
      -0.65085804,
      -0.4002787,
      0.55875725,
      0.4209777,
      -0.654187,
      -0.113623686,
      0.39489082,
      0.13656221,
      0.28751892,
      -0.5639338,
      0.2611477,
      -0.32932946,
      0.3593379,
      -1.0160118,
      0.1696159,
      0.023326341,
      0.25956905,
      -0.27299392
    ],
    [
      0.6251836,
      -0.19635825,
      -0.137932,
      0.6883572,
      -0.61327285,
      0.9452218,
      0.39248523,
      -0.436304,
      -0.30031425,
      0.025398836,
      0.18445043,
      -1.1079688,
      0.13810211,
      0.83194655,
      -0.75007105,
      -0.10823121,
      -0.5753645,
      -0.38750458,
      -0.11381904,
      -0.12180265,
      0.6610654,
      0.33002037,
      0.5537484,
      -0.14696863,
      -0.19203492,
      -0.20312634,
      0.45008588,
      1.0600591,
      -0.23327525,
      0.03782123,
      -0.4506481,
      -0.833898,
      -0.20366196,
      -0.34507743,
      -0.34985068,
      0.10627133,
      -0.14968842,
      -0.44124347,
      -0.8915142,
      -0.14742754,
      -0.20013449,
      0.25984508,
      0.1410371,
      -0.2854274,
      0.3025311,
      0.034361713,
      -0.13789819,
      0.014569558,
      0.313874,
      0.4342078,
      -0.2641265,
      -1.1505014,
      0.21443206,
      0.08843108,
      0.4969057,
      -0.63675255,
      0.13134654,
      -0.73455274,
      0.47344196,
      -0.3094012,
      0.8391868,
      -0.22164884,
      0.8215215,
      -0.30985135
    ],
    [
      0.092029124,
      -0.46195263,
      -0.32401502,
      0.4723047,
      -0.29173675,
      0.30122808,
      0.39497638,
      -0.28421167,
      -0.14454839,
      -0.16047727,
      0.5075093,
      -0.3309297,
      -0.18081763,
      0.40551007,
      -0.08620555,
      -0.58506197,
      -0.4091918,
      -0.33106488,
      0.31608722,
      -0.0897044,
      0.241569,
      0.22075571,
      0.6123084,
      -0.3577063,
      -0.19987771,
      -0.62606364,
      0.48696753,
      0.50951713,
      0.4098031,
      0.67252016,
      -0.16731408,
      -0.5525379,
      -0.12346879,
      -0.2196767,
      -0.3339393,
      -0.5403225,
      -0.27580562,
      -0.32536376,
      -0.2693879,
      0.84348285,
      -0.4925103,
      0.19789214,
      0.47520056,
      -0.24942568,
      0.28051805,
      -0.17879696,
      -0.69263625,
      -0.24973565,
      0.35295716,
      0.07081293,
      -0.25917676,
      -0.7756549,
      0.116898276,
      0.3459907,
      0.28031307,
      -0.44099736,
      0.23905663,
      -0.34467041,
      0.31840837,
      -0.379357,
      0.59615505,
      -0.6670605,
      0.76529884,
      -0.39473942
    ],
    [
      0.097419284,
      -0.42074332,
      -0.45406014,
      0.362549,
      0.26316604,
      0.14311446,
      0.34447873,
      -0.2812063,
      -0.5067268,
      -0.40601447,
      0.33771282,
      -0.4875168,
      -0.615828,
      0.501595,
      -0.36673895,
      -0.48647478,
      -0.0218197,
      -0.029017339,
      0.17034471,
      0.08276299,
      0.3778301,
      -0.099517636,
      0.116112895,
      -0.51677555,
      -0.66287124,
      -0.31822455,
      0.08068692,
      0.26616633,
      0.49372488,
      0.08464063,
      -0.5868719,
      -0.2978944,
      -0.35559443,
      -0.5529639,
      -0.48759514,
      -0.487144,
      -0.6314198,
      -0.42438215,
      -0.13310324,
      0.26181638,
      -0.32273564,
      0.28671333,
      0.320116,
      -0.6894415,
      0.410857,
      -0.17134276,
      0.015012839,
      -0.52886975,
      0.3639555,
      0.3176772,
      -0.50649685,
      -0.39102808,
      0.10799047,
      0.102567665,
      0.39669472,
      -0.44597578,
      0.39834175,
      -0.27235025,
      0.3656835,
      -0.22171234,
      0.38058913,
      -0.15609294,
      0.09281457,
      -0.47481415
    ],
    [
      -0.032835785,
      0.18889984,
      0.51796377,
      -0.24193162,
      0.49265137,
      -0.42326304,
      -0.41510296,
      0.35461473,
      0.5926314,
      0.15704556,
      -0.2025242,
      0.38284504,
      0.44970202,
      -0.14502233,
      0.27573204,
      0.37210652,
      0.224632,
      0.436259,
      0.029128578,
      0.7260163,
      -0.3395045,
      -0.53206396,
      -0.46344948,
      0.31822905,
      0.2685702,
      0.5029461,
      -0.5935943,
      -0.3161772,
      -0.46585277,
      -0.47563565,
      0.6513146,
      0.6649654,
      0.04147143,
      0.16088082,
      0.42763406,
      0.40700662,
      0.3036433,
      0.5829254,
      0.29042843,
      -0.6744891,
      0.90673584,
      -0.002112293,
      -0.37199253,
      0.49432558,
      -0.6885612,
      0.15659632,
      0.6790105,
      0.46877065,
      -0.4166926,
      -0.54950494,
      -0.081744194,
      0.41951925,
      0.023547834,
      -0.25867966,
      -0.022364045,
      0.23270741,
      -0.5330775,
      0.21455815,
      -0.49293348,
      0.23027256,
      0.0071237744,
      0.5282879,
      -0.0053025833,
      0.22918883
    ],
    [
      -0.55885535,
      0.3302322,
      0.44269952,
      -0.6158161,
      0.07692259,
      -0.58084625,
      -0.52491844,
      0.49619475,
      0.18956958,
      0.34446898,
      -0.10317126,
      0.77459806,
      -0.026683297,
      -0.72408056,
      0.3253796,
      0.38265073,
      1.2269058,
      0.7424258,
      0.3768472,
      0.45800945,
      -0.44868752,
      -0.38292694,
      -0.6938816,
      0.066653386,
      0.52604455,
      -0.0160062,
      -0.48026973,
      -0.9449121,
      0.11587719,
      0.21530445,
      0.30833128,
      0.5213655,
      0.063054,
      0.09329515,
      0.6174634,
      0.26056913,
      0.14370681,
      0.8900908,
      0.76047933,
      0.24231309,
      0.030029124,
      -0.5160091,
      -0.09861193,
      0.13163242,
      0.050424855,
      0.15426527,
      0.23489055,
      0.40334517,
      0.0007284897,
      -0.28635174,
      0.17666133,
      1.2365867,
      -0.64998597,
      -0.18927194,
      -0.20456652,
      0.92145675,
      0.066631585,
      0.3655729,
      -0.3512563,
      0.3285437,
      -0.50026125,
      0.13707314,
      -0.63203245,
      0.5377692
    ],
    [
      -0.5087789,
      0.32691708,
      0.17148621,
      -0.2104822,
      -0.025696129,
      -0.19138867,
      -0.2992384,
      -0.0024043461,
      0.9181727,
      0.65097064,
      -0.51289344,
      0.6651423,
      -0.14837404,
      -0.8727161,
      0.3120285,
      0.75906235,
      0.1810179,
      -0.054986995,
      -0.6342676,
      0.34664562,
      0.12402991,
      -0.19051401,
      -0.3784947,
      1.0547786,
      0.11220401,
      0.42808747,
      -0.381889,
      -0.14261708,
      -0.52681255,
      -0.5449929,
      0.7918841,
      0.37774608,
      0.76911366,
      0.7177382,
      0.5500535,
      0.7509485,
      0.5931939,
      0.8632016,
      0.50046957,
      -0.032637786,
      0.076814264,
      -0.09490236,
      -0.18976818,
      0.80534446,
      0.21562481,
      -0.21086073,
      0.2270314,
      0.6504552,
      0.08144852,
      -0.09414202,
      0.5237078,
      0.41694465,
      -0.8111719,
      0.12724608,
      -0.6906791,
      0.23509988,
      -0.6256995,
      0.15951395,
      -0.002260304,
      0.2758294,
      -0.022110892,
      0.1456921,
      -0.32273757,
      0.60195154
    ],
    [
      -0.31284136,
      -0.011809103,
      -0.03727971,
      -0.8551649,
      -0.09160039,
      -0.6068595,
      -0.669172,
      0.33577415,
      0.16557935,
      0.57886267,
      -0.19367829,
      1.0201367,
      0.40597212,
      -0.8164173,
      0.47257003,
      0.33555385,
      0.3823774,
      0.24925673,
      -0.17375341,
      0.27152035,
      -0.7461407,
      0.035525355,
      -0.28878096,
      0.18522035,
      0.23662543,
      -0.022378348,
      -0.2300356,
      -0.285799,
      -0.3418109,
      -0.3215967,
      0.3580576,
      0.28263655,
      0.34738538,
      0.49284044,
      0.54650676,
      -0.07801327,
      0.5203925,
      0.6818515,
      0.38745037,
      -0.20244841,
      0.054650564,
      -0.34955648,
      0.1439694,
      0.29182222,
      -0.07089696,
      0.109633885,
      0.24868852,
      0.6093731,
      -0.19813722,
      -0.22677763,
      0.35588166,
      0.80070764,
      -0.7437682,
      -0.52773625,
      -0.37026787,
      0.23781408,
      -0.33186623,
      0.211441,
      -0.73117465,
      0.8853343,
      -0.16324951,
      0.5685661,
      -0.30375054,
      0.5385761
    ],
    [
      -0.65404713,
      0.63112426,
      0.11632289,
      -0.8292646,
      0.22030473,
      -0.25779134,
      0.02413357,
      0.20579912,
      0.6089314,
      0.23148946,
      -0.16172321,
      0.7298703,
      0.25510395,
      -1.0479157,
      -0.0018054665,
      0.79823625,
      0.46369073,
      0.14914516,
      -0.2925335,
      0.17567025,
      -1.0305184,
      -0.47305736,
      0.19942234,
      0.732179,
      0.08670847,
      -0.49643868,
      -0.079472564,
      -0.045565423,
      -0.28363964,
      -0.1776735,
      0.89128196,
      -0.13390909,
      0.17461465,
      0.8920425,
      0.752823,
      0.51417017,
      0.795231,
      0.6678206,
      0.36036408,
      -0.24426834,
      0.03965783,
      -0.19337575,
      -0.20270057,
      0.4947522,
      -0.11997651,
      0.15777212,
      -0.2758217,
      0.44345015,
      0.13268736,
      -0.33212328,
      0.6767101,
      0.62766045,
      -0.54440624,
      -0.28578046,
      -0.9151332,
      0.084247656,
      -0.30295777,
      0.2018047,
      -0.33253995,
      0.22056524,
      -0.29909816,
      0.26066697,
      -0.42979953,
      0.64956933
    ],
    [
      1.0472167,
      -0.062785454,
      0.12560412,
      0.56746703,
      -0.45051318,
      0.5870119,
      0.84355134,
      -0.5821733,
      -0.02669667,
      -0.41497236,
      -0.10254395,
      -0.64495516,
      -0.022059396,
      0.77686673,
      -0.34310967,
      -0.5470174,
      -0.29808193,
      -0.7064528,
      0.09490806,
      -0.1521406,
      0.52004707,
      0.19411866,
      0.53809255,
      -0.05797172,
      -0.3806336,
      0.34783942,
      0.16692185,
      0.58559924,
      -0.16971672,
      -0.16747114,
      -0.41328445,
      -0.83018917,
      -0.30999014,
      0.24350908,
      -0.18570702,
      -0.14440313,
      -0.19953799,
      -0.9063027,
      -0.75411284,
      -0.43679392,
      0.07763948,
      0.4053368,
      -0.149112,
      -0.44921765,
      0.21384285,
      -0.3715356,
      -0.29053167,
      -0.07208843,
      0.21022087,
      0.38691318,
      -0.39264315,
      -1.1406819,
      0.68282485,
      0.035224263,
      0.038352527,
      -0.42343816,
      -0.08028689,
      -0.48210868,
      0.69196826,
      -0.029437298,
      0.447928,
      -0.3101633,
      0.96209013,
      -0.89086884
    ],
    [
      -0.011198594,
      0.60929954,
      0.5902208,
      -0.5522266,
      0.3450982,
      -0.47716764,
      -0.51784563,
      0.040264957,
      0.21923767,
      0.11440535,
      -0.24776536,
      0.60035866,
      0.39515463,
      -0.34564728,
      0.3877584,
      0.18234935,
      0.602583,
      0.32664388,
      -0.12635458,
      0.22206293,
      -0.348367,
      -0.11969563,
      -1.0204072,
      0.65865517,
      0.5830276,
      0.18105249,
      -0.41075715,
      -0.12947999,
      -0.2854425,
      -0.35687637,
      0.2550887,
      0.4653289,
      0.51436365,
      0.29371938,
      0.2601598,
      0.5666244,
      0.28070706,
      0.2080175,
      0.4644819,
      -0.88362557,
      0.5405524,
      -0.29737428,
      -0.5012924,
      0.39501268,
      -0.26183352,
      0.39249766,
      0.5098312,
      -0.043512452,
      -0.24906005,
      -0.64454174,
      0.36474258,
      0.7005978,
      -0.46396092,
      -0.05696468,
      -0.26487997,
      0.12804642,
      -0.38147607,
      0.43587732,
      -0.76227474,
      0.26644206,
      -0.20161748,
      0.31915405,
      -0.20044291,
      0.16794191
    ],
    [
      -0.27167246,
      0.23835778,
      0.40960592,
      0.18965726,
      0.38702312,
      -0.58822864,
      -0.43618283,
      0.17466995,
      0.18385665,
      0.59239376,
      0.056694645,
      0.04374013,
      0.53712374,
      -0.07324981,
      0.78611445,
      0.15648983,
      0.58847433,
      0.04424054,
      -0.4115269,
      0.06908123,
      -0.2257868,
      -0.8542906,
      -0.5376183,
      0.3963546,
      0.23010911,
      0.56136554,
      -0.11937997,
      -0.52386725,
      -0.6448733,
      -0.49930644,
      0.13232663,
      0.61723006,
      0.26376542,
      0.3127316,
      0.11763862,
      0.15355858,
      0.036509044,
      0.19635606,
      0.5045665,
      -0.55084896,
      0.23018214,
      -0.1672894,
      -0.52883774,
      -0.16177471,
      -0.82378036,
      0.306543,
      0.6354758,
      0.0014479939,
      -0.41578773,
      -0.09216621,
      0.4744778,
      0.52534765,
      -0.09403255,
      -0.1917846,
      -0.25388336,
      0.23000106,
      -0.2047968,
      -0.021324892,
      -0.10553709,
      -0.06521255,
      -0.1798373,
      0.4750478,
      -0.0147403935,
      0.059398357
    ],
    [
      0.9444511,
      -0.25766286,
      -0.12557796,
      1.0315647,
      0.052255552,
      0.34425333,
      0.036522232,
      -0.51526546,
      -0.15661274,
      -0.000984865,
      0.23235688,
      -1.2033795,
      -0.23317137,
      0.70581234,
      -0.18451557,
      -0.0239673,
      -0.37735718,
      -0.22328594,
      -0.085458994,
      -0.21412371,
      1.0002201,
      -0.154629,
      0.18743025,
      -0.32353777,
      -0.50518537,
      0.33030722,
      0.16903007,
      0.51669455,
      -0.11291052,
      0.22578202,
      -0.82302314,
      -0.34197608,
      -0.2039451,
      -0.19399042,
      -0.073113106,
      -0.41589436,
      -0.27783367,
      -1.1463826,
      -0.56272805,
      -0.64000475,
      0.110481784,
      0.5173405,
      -0.104856156,
      -0.044505775,
      -0.024746764,
      -0.065648794,
      0.12228995,
      -0.06210736,
      -0.004042607,
      -0.33824837,
      -0.025301112,
      -1.039892,
      0.55993325,
      0.34660205,
      0.11305203,
      -0.43832695,
      0.26715928,
      -0.10134604,
      0.7792605,
      -0.4193677,
      0.7340453,
      -0.14561616,
      0.56878597,
      -0.8087887
    ],
    [
      0.50458235,
      -0.27031624,
      -0.8707053,
      0.63300896,
      -0.52282876,
      0.67502,
      0.4420609,
      -0.57080114,
      -0.046301153,
      -0.08910971,
      0.0089470465,
      -1.1952633,
      -0.50512147,
      0.77430177,
      -0.40323842,
      -0.5403066,
      -0.53022385,
      -0.4446804,
      0.28185657,
      -0.31047332,
      0.19198741,
      0.52149814,
      0.5142863,
      0.15263891,
      -0.21954168,
      -0.30096763,
      0.25758064,
      0.6326565,
      0.1782225,
      0.22611016,
      -0.6143377,
      -0.6830775,
      -0.6832108,
      -0.379419,
      -0.063182816,
      -0.4544005,
      -0.2717929,
      -0.6891483,
      -0.49186286,
      0.27610126,
      -0.20493148,
      0.09376588,
      0.6288948,
      -0.081405155,
      0.18788989,
      -0.066844694,
      -0.23853445,
      -0.13030025,
      0.14959678,
      0.4331233,
      -0.07341352,
      -0.72954047,
      0.5051664,
      0.2092104,
      0.22373779,
      -0.6764568,
      0.1930271,
      -0.4046244,
      0.73659796,
      -0.21549453,
      0.2084558,
      -0.3899574,
      0.66903985,
      -0.39255813
    ],
    [
      0.7197168,
      -0.23332073,
      -0.12357052,
      0.88590527,
      -0.37901363,
      0.35995156,
      0.47129852,
      -0.3659178,
      -0.08254558,
      -0.19281621,
      0.2601857,
      -0.66053253,
      0.14703426,
      1.0566827,
      -0.5363656,
      0.08821127,
      -0.4076644,
      -0.7361475,
      -0.05816222,
      -0.46961382,
      0.6487015,
      0.034299094,
      0.12967418,
      -0.22698551,
      -0.36034572,
      0.14574952,
      0.15272583,
      0.3747553,
      0.360853,
      0.18466432,
      -0.6979251,
      -0.12256208,
      -0.18379757,
      -0.36023986,
      -0.19858803,
      -0.08670373,
      -0.265432,
      -0.4840702,
      -0.3026122,
      -0.5128908,
      -0.3100336,
      0.58953816,
      0.03788649,
      -0.4764999,
      0.14482413,
      0.03792486,
      0.10633306,
      -0.26534298,
      -0.015730932,
      0.3195404,
      -0.4179171,
      -1.2245872,
      0.75190014,
      0.090086974,
      0.30435532,
      -0.65751165,
      0.29613203,
      0.21689545,
      0.68032205,
      -0.34995896,
      0.27851766,
      -0.2857506,
      0.7784727,
      -0.5627582
    ],
    [
      0.13846602,
      -0.89848065,
      -0.15441127,
      0.33174077,
      -0.44147405,
      0.117072135,
      0.13101608,
      0.27404436,
      -0.78581256,
      -0.30570203,
      0.08044393,
      -0.5391002,
      -0.17783713,
      0.57523566,
      -0.28532162,
      -0.73414177,
      -0.1765391,
      -0.050168715,
      0.6794105,
      -0.28406313,
      0.4422884,
      0.018739598,
      0.12588558,
      -0.43237793,
      -0.22030684,
      -0.3282858,
      0.3802616,
      -0.09800591,
      0.26817542,
      0.6506357,
      -0.5874747,
      0.032781195,
      -0.33407375,
      -0.95801497,
      -0.8900028,
      -0.33984226,
      -0.75312537,
      -0.74174887,
      0.19383608,
      0.08893567,
      -0.29004872,
      0.051651485,
      0.52418995,
      -0.38062605,
      0.30798608,
      -0.015204443,
      -0.23938328,
      -0.52040327,
      0.12845232,
      0.22313525,
      -0.6752777,
      0.043977138,
      0.8607282,
      0.3567511,
      0.4953348,
      -0.3062046,
      0.21942653,
      -0.1513039,
      0.56621337,
      -0.24450281,
      0.28892267,
      -0.23452856,
      0.09929541,
      -0.7155014
    ],
    [
      -0.48451325,
      0.20951988,
      0.04814606,
      -0.6237907,
      0.28397933,
      -1.0099072,
      -0.004433555,
      0.90754825,
      -0.1689001,
      0.11621572,
      0.051994752,
      0.89693666,
      -0.078925766,
      -0.9965829,
      0.43906438,
      0.48823613,
      0.5945607,
      0.70136076,
      0.19660805,
      0.2463764,
      -0.7617906,
      -0.22348131,
      -0.711737,
      -0.120249346,
      0.13862498,
      -0.23153508,
      -0.29760695,
      -0.32607275,
      0.16680004,
      0.41664645,
      0.6256324,
      0.99939626,
      0.2788812,
      0.06709185,
      0.14558834,
      0.109265834,
      0.21623205,
      0.89422584,
      0.70039576,
      0.3947088,
      -0.050141435,
      -0.43789226,
      0.101902336,
      0.5228849,
      0.15045628,
      -0.38905692,
      -0.07158119,
      -0.04156335,
      -0.0056824866,
      -0.106489524,
      0.7973448,
      1.0598665,
      -0.61696583,
      -0.3483871,
      0.020021057,
      0.34648994,
      -0.16183823,
      0.0631461,
      -0.68113935,
      0.46203825,
      -0.7307186,
      -0.03734563,
      -0.8750101,
      1.0385076
    ],
    [
      0.14716038,
      0.36456576,
      0.5350258,
      -0.0913642,
      0.43038914,
      -0.090757966,
      -0.29635006,
      0.25214607,
      0.3794275,
      0.13492596,
      -0.18876871,
      0.34552836,
      0.30820605,
      -0.12361502,
      0.41002306,
      0.29070184,
      0.77555424,
      0.35046083,
      -0.28665468,
      0.13281094,
      -0.30563664,
      -0.39903444,
      -0.45688584,
      0.4248302,
      0.2979677,
      0.23698588,
      0.05634062,
      -0.20049544,
      -0.33973414,
      -0.20325197,
      0.50399673,
      1.0100403,
      0.08691347,
      0.44454798,
      0.04277771,
      -0.025609294,
      0.39774138,
      0.4397879,
      0.47327572,
      -0.8041851,
      0.26563993,
      -0.27803913,
      -0.8452716,
      0.61590403,
      -0.6004081,
      0.24849048,
      1.0155888,
      0.20463775,
      -0.41275284,
      -0.2864574,
      0.0758452,
      0.43345684,
      -0.3362629,
      -0.07400379,
      -0.42294052,
      0.64898545,
      -0.31658024,
      0.54870236,
      -0.4101526,
      0.45128018,
      -0.10632835,
      0.5604838,
      -0.2660388,
      0.0617716
    ],
    [
      0.36600745,
      0.26362815,
      -0.021025587,
      0.34477833,
      0.20273916,
      -0.17778385,
      -0.33170006,
      0.1858893,
      0.30952278,
      0.18695883,
      -0.022746528,
      -0.324035,
      0.24917991,
      0.42108688,
      0.6941971,
      0.24773987,
      0.18830572,
      0.063809656,
      -0.92416006,
      -0.088271536,
      0.7470444,
      -0.009647878,
      -0.22877555,
      0.7228579,
      -0.07585347,
      1.0920688,
      0.24909048,
      -0.05501513,
      -0.8748608,
      -0.595383,
      -0.9026454,
      -0.044390067,
      -0.08444371,
      -0.0015546168,
      -0.1752989,
      0.5196246,
      -0.20098174,
      -0.20137647,
      0.55390394,
      -1.20937,
      0.17592864,
      -0.22547425,
      -0.11276014,
      -0.2950141,
      -0.4874683,
      0.08943726,
      1.2387774,
      0.73868334,
      -0.4660682,
      0.06527311,
      -0.36217585,
      -0.4868418,
      0.2676867,
      0.057626054,
      -0.2507536,
      -0.32190922,
      -0.5629807,
      -0.29264328,
      0.83384836,
      -0.26462188,
      0.16580582,
      0.1482457,
      -0.09016633,
      -0.5245108
    ],
    [
      -0.32998398,
      0.51377326,
      0.56963205,
      -0.9024943,
      0.13723569,
      -0.16675982,
      -0.2529197,
      0.025424235,
      0.6856217,
      0.22352305,
      -0.24800497,
      0.53357166,
      0.1213321,
      -0.4596243,
      0.16953664,
      0.9555001,
      0.35256836,
      0.057965316,
      -0.30488434,
      0.11157935,
      -0.27084416,
      0.003956966,
      0.012244761,
      0.8017251,
      0.061357457,
      -0.1332856,
      -0.46183434,
      0.21065287,
      -0.09754986,
      -0.27584586,
      0.83803904,
      0.11231245,
      0.2853665,
      1.6964171,
      1.0253931,
      0.42248553,
      0.08870394,
      0.78905565,
      -0.010423533,
      0.20249233,
      -0.004829462,
      -0.18905641,
      0.32523462,
      0.6180727,
      -0.40646884,
      0.09287806,
      0.13391493,
      0.52815485,
      -0.0020228135,
      -0.30403334,
      0.58047533,
      0.23268685,
      -0.1788572,
      -0.27264354,
      -0.91771114,
      0.08379542,
      -0.25665057,
      0.23588747,
      -0.7074643,
      0.47324783,
      -0.21813425,
      0.25960448,
      -0.2892886,
      0.46773055
    ],
    [
      -0.58359873,
      0.5305897,
      0.42746437,
      -0.64680815,
      0.021891465,
      -0.7709776,
      -0.2546873,
      0.282284,
      -0.057380963,
      0.4207276,
      -0.0070480215,
      1.1758367,
      0.27790603,
      -0.60369974,
      0.7163808,
      0.48450205,
      0.512905,
      0.6924387,
      0.0033660878,
      0.47054082,
      -0.6106949,
      -0.5677492,
      -0.7001768,
      0.19296867,
      0.11105736,
      0.16211006,
      -0.75165457,
      -0.43764472,
      0.09984135,
      -0.113662876,
      0.39695275,
      0.96015006,
      0.036451656,
      -0.24974455,
      -0.054356,
      0.044229485,
      0.28969753,
      0.58261204,
      0.33772728,
      0.16313982,
      0.021376798,
      -0.8469091,
      0.04689002,
      0.33521238,
      -0.111740515,
      0.19471416,
      0.3210987,
      0.23020266,
      -0.2406101,
      -0.55016327,
      0.25181648,
      1.1347401,
      -0.28639966,
      0.21048169,
      -0.25708756,
      0.674133,
      0.004922302,
      0.29258463,
      -0.38938922,
      0.22910814,
      -0.54144263,
      0.26720902,
      -0.76894605,
      0.50054944
    ],
    [
      0.9132488,
      -0.7117949,
      -0.37917343,
      0.7737173,
      -0.083157174,
      0.08202653,
      -0.14971924,
      -0.088128634,
      -0.6530522,
      -0.02711054,
      0.41860822,
      -0.31569484,
      -0.07759073,
      0.6942941,
      -0.17653657,
      -0.6729316,
      -0.14315607,
      0.25284752,
      0.11965431,
      -0.18175502,
      0.08379413,
      0.2360423,
      0.029324228,
      -0.44507074,
      -0.2315052,
      -0.09224516,
      0.14307514,
      -0.19225693,
      0.19512576,
      0.6986173,
      -0.6474844,
      -0.18493308,
      -0.58682203,
      -1.1216545,
      -0.80225414,
      -0.258803,
      -0.5119984,
      -0.55260295,
      -0.021771444,
      0.29449525,
      -0.112444766,
      0.13349494,
      0.25747007,
      -0.6736452,
      -0.03489904,
      -0.28172603,
      -0.4195097,
      -0.9029824,
      0.1725208,
      0.33956867,
      -0.89365107,
      -0.42990205,
      0.43604547,
      0.44240153,
      0.5209763,
      -0.2555828,
      0.5795982,
      -0.27163276,
      0.29754537,
      -0.4158004,
      -0.035452086,
      -0.25549468,
      0.019806886,
      -0.37539408
    ],
    [
      -0.08012902,
      0.14056328,
      0.0077751647,
      -1.4634373,
      -0.016343951,
      -0.10274814,
      -0.37620443,
      0.055280212,
      -0.048967294,
      -0.26565593,
      0.23186934,
      0.6702248,
      -0.033018764,
      -0.65727645,
      -0.070498,
      0.34935996,
      -0.07774873,
      -0.21658462,
      0.0052831303,
      -0.053561486,
      -0.21653828,
      -0.16070287,
      0.114931636,
      0.3083942,
      0.27063945,
      -0.16186649,
      0.41322303,
      -0.26515377,
      0.22108942,
      0.38227,
      0.34430182,
      -0.0012855071,
      -0.6435888,
      1.1169617,
      0.49745083,
      -0.1634328,
      0.24469689,
      0.43657362,
      0.20615457,
      0.43829355,
      -0.12519401,
      -0.1498969,
      -0.035335094,
      0.27949893,
      0.33085087,
      -0.007001371,
      0.036890604,
      0.37174147,
      0.28368762,
      0.11479918,
      0.12915255,
      0.31360412,
      0.080226846,
      -0.47530788,
      -0.53710115,
      0.08121705,
      0.10053516,
      -0.4272665,
      -0.18132213,
      -0.23589468,
      -0.5222714,
      0.23492718,
      -0.5026059,
      0.31244528
    ]
  ],
  "shared_fc2_bias": [
    -0.32848018,
    0.17776573,
    0.19747116,
    -0.3918852,
    -0.058159728,
    0.080734365,
    -0.0032434037,
    0.30219182,
    0.28406176,
    -0.33579683,
    -0.19758195,
    -0.18479687,
    0.03836097,
    -0.17011185,
    -0.14978199,
    0.27509403,
    -0.2161391,
    0.20116767,
    0.15262397,
    0.0040677385,
    -0.12254057,
    0.18326293,
    -0.18011406,
    -0.1753135,
    -0.04632457,
    -0.28210095,
    0.2999064,
    0.026445579,
    0.09692737,
    0.106900774,
    0.06851814,
    0.26283082,
    -0.22483143,
    0.13457428,
    0.20341404,
    0.10013112,
    0.16034487,
    -0.200638,
    0.20231013,
    -0.16603571,
    0.08148868,
    0.41718304,
    0.18398687,
    0.440208,
    0.3074478,
    -0.32083875,
    -0.13728428,
    -0.28878778,
    -0.2888942,
    -0.1584738,
    0.14693213,
    -0.42690778,
    -0.14827791,
    -0.11212311,
    0.34930465,
    0.11079077,
    0.109856404,
    -0.024035642,
    -0.29218978,
    -0.19244386,
    -0.12013964,
    -0.07179094,
    0.212533,
    0.09665114
  ],
  "policy_weight": [
    [
      -0.06902788,
      0.055473734,
      -0.08932514,
      -0.054860946,
      0.08009841,
      -0.035958245,
      -0.030929204,
      0.08383035,
      0.05569668,
      -0.053807344,
      -0.22135,
      -0.006586858,
      0.0031364637,
      -0.04147179,
      0.047629822,
      0.031970147,
      -0.42566964,
      1.7792637,
      0.02426244,
      0.0041610454,
      -0.049506348,
      0.05169432,
      0.11094111,
      -0.043025453,
      -0.049725246,
      -0.00026037407,
      0.026106413,
      -0.3493236,
      -0.11807773,
      -0.03500048,
      0.03588822,
      -0.07002194,
      -0.07203276,
      -0.34502593,
      0.057803515,
      0.06852884,
      0.040039353,
      -0.06050438,
      -0.3667052,
      -0.12907001,
      -0.030612467,
      0.06740346,
      -0.20681763,
      0.0142155085,
      0.05393539,
      -0.051943358,
      0.17052077,
      -0.06261903,
      -0.033777904,
      0.0034840202,
      -0.08797547,
      -0.04152148,
      -0.04737132,
      -0.21537635,
      -0.042770073,
      -0.03198536,
      0.06331539,
      0.2847633,
      -0.039045624,
      -0.90345734,
      -0.038718473,
      0.06534143,
      0.05916656,
      -0.0062818727
    ],
    [
      0.06995116,
      -0.05894282,
      0.08834358,
      0.054802503,
      -0.07842324,
      0.035449978,
      0.031102812,
      -0.08580066,
      -0.05629378,
      0.051256273,
      0.22173615,
      0.008888684,
      -0.0025883568,
      0.040715236,
      -0.048027534,
      -0.03184457,
      0.42688683,
      -1.7804939,
      -0.025087347,
      -0.003363842,
      0.049669843,
      -0.0497465,
      -0.10971786,
      0.043116305,
      0.049513314,
      0.000623262,
      -0.024008974,
      0.35065424,
      0.1168454,
      0.034478907,
      -0.0345863,
      0.06731126,
      0.07297762,
      0.34656307,
      -0.054997254,
      -0.07195091,
      -0.040463597,
      0.05784535,
      0.36611748,
      0.12970166,
      0.030270351,
      -0.068847716,
      0.20325474,
      -0.013856471,
      -0.056337487,
      0.0555283,
      -0.17254034,
      0.06441991,
      0.032446347,
      -0.0068846527,
      0.090567745,
      0.040189814,
      0.0482312,
      0.21087185,
      0.04520145,
      0.03389098,
      -0.06225674,
      -0.2842603,
      0.0388065,
      0.90258646,
      0.036178995,
      -0.064927064,
      -0.057131257,
      0.0049253404
    ]
  ],
  "policy_bias": [
    0.107808106,
    0.044507023
  ],
  "value_weight": [
    [
      -1.5851821,
      1.5511366,
      1.510055,
      -1.5261527,
      -1.5514013,
      1.4831321,
      1.5245898,
      1.6220511,
      1.4852967,
      -1.4914404,
      1.5600555,
      -1.5015663,
      -1.5641409,
      -1.5398544,
      -1.5832201,
      1.5412443,
      -1.6344668,
      0.010191755,
      1.6015314,
      -1.504334,
      -1.5820013,
      1.5345675,
      -1.5715016,
      -1.5115471,
      -1.5001823,
      -1.5089394,
      1.5638852,
      1.6215348,
      1.5059962,
      1.5621448,
      1.5491678,
      1.5455201,
      -1.6110421,
      1.7289659,
      1.5456184,
      1.5491728,
      1.5345846,
      -1.5616742,
      1.5769349,
      -1.5264238,
      1.5602263,
      1.5204986,
      1.5436944,
      1.4977223,
      1.5183822,
      -1.5007126,
      -1.5530492,
      -1.6091462,
      -1.5186938,
      -1.5526665,
      1.5326271,
      -1.5315561,
      -1.5198008,
      1.5383885,
      1.5337232,
      1.5490946,
      1.5278331,
      -1.5812347,
      -1.5228621,
      -2.2747188,
      -1.5279349,
      -1.5182519,
      1.5076481,
      -1.5573195
    ]
  ],
  "value_bias": [
    1.5581023
  ]
}