{
  "obs_dim": 4,
  "action_dim": 2,
  "hidden_dim": 64,
  "activation": "Tanh",
  "shared_fc1_weight": [
    [
      -0.41981435,
      -0.22815669,
      -2.1099782,
      -0.314131
    ],
    [
      0.37766826,
      -0.3482305,
      0.3151917,
      -0.20508698
    ],
    [
      -0.15406393,
      0.10408459,
      1.2181559,
      0.3062271
    ],
    [
      -0.116089575,
      0.05549624,
      -0.50817484,
      -0.20666513
    ],
    [
      0.21963903,
      0.5621901,
      -1.1248013,
      0.036829602
    ],
    [
      0.54057103,
      0.14707288,
      1.3645899,
      0.24350867
    ],
    [
      -0.7479099,
      -0.48982513,
      0.05151027,
      0.059012897
    ],
    [
      0.27767634,
      0.06680687,
      1.3232955,
      0.2352584
    ],
    [
      0.59178805,
      0.50565803,
      0.10293715,
      0.28054625
    ],
    [
      -0.11264731,
      -0.045645345,
      1.7535002,
      0.19551381
    ],
    [
      -0.5210195,
      -0.56021905,
      0.89456546,
      0.14126451
    ],
    [
      -0.12930855,
      -0.03419321,
      1.3354702,
      0.7594015
    ],
    [
      0.117804304,
      0.28062466,
      1.3086519,
      -0.17657562
    ],
    [
      0.154835,
      -0.005044943,
      1.8128399,
      -0.28853607
    ],
    [
      -0.05100937,
      0.35488495,
      0.06402908,
      -0.04679374
    ],
    [
      0.15487337,
      0.010462175,
      0.8581213,
      -0.2529523
    ],
    [
      0.1276633,
      0.639258,
      -1.7359979,
      0.5064181
    ],
    [
      0.08502315,
      0.02978881,
      0.65430254,
      0.21952547
    ],
    [
      0.8312297,
      0.3892853,
      0.40375084,
      0.22938284
    ],
    [
      0.10674679,
      0.14994735,
      2.024836,
      0.31613463
    ],
    [
      -0.15250738,
      -0.30144617,
      1.0475731,
      0.06925526
    ],
    [
      0.1724222,
      0.30240002,
      2.0851643,
      0.4588214
    ],
    [
      0.6986234,
      0.38178733,
      -0.8399452,
      -0.3809404
    ],
    [
      0.6112524,
      -0.17803854,
      0.31634513,
      -0.103766836
    ],
    [
      -0.113913506,
      0.0063741407,
      1.9593242,
      -0.18944071
    ],
    [
      0.39269194,
      0.08286903,
      -1.0954351,
      0.31124097
    ],
    [
      0.22888637,
      0.10457305,
      1.0501099,
      -0.028075801
    ],
    [
      0.46762955,
      0.09016198,
      1.0709876,
      -0.23635134
    ],
    [
      -0.3639353,
      -0.23430204,
      -0.5720415,
      0.10571881
    ],
    [
      0.33011708,
      0.28242373,
      -0.55724585,
      -0.14015059
    ],
    [
      -0.053501744,
      -0.11660844,
      1.0795417,
      0.2647556
    ],
    [
      0.41398716,
      0.36494115,
      2.0396192,
      0.42067936
    ],
    [
      -0.21915296,
      -0.02249851,
      1.0976458,
      -0.016255327
    ],
    [
      -0.18374406,
      0.14622168,
      1.7022575,
      0.2809433
    ],
    [
      0.072181866,
      0.031627122,
      1.6852052,
      0.30369428
    ],
    [
      -0.26838276,
      -0.03336086,
      0.5485753,
      0.23917751
    ],
    [
      -0.12687683,
      -0.18533859,
      -1.3904234,
      -0.13866691
    ],
    [
      0.3893948,
      0.19985455,
      0.95349777,
      0.036856893
    ],
    [
      -0.19901331,
      -0.40263963,
      0.32955915,
      0.14273705
    ],
    [
      0.3546341,
      0.20603454,
      1.7321061,
      0.66661954
    ],
    [
      0.48993734,
      -0.048859864,
      -0.7883944,
      -0.09333716
    ],
    [
      -0.3101732,
      -0.2415482,
      -0.6666285,
      0.19390395
    ],
    [
      0.0827229,
      -0.36651286,
      -0.9743517,
      -0.19089112
    ],
    [
      -0.018909182,
      -0.008217168,
      0.971792,
      0.14189675
    ],
    [
      -0.15062536,
      0.23524761,
      1.3246802,
      0.43992326
    ],
    [
      0.12551758,
      0.10953451,
      1.7564163,
      0.7482745
    ],
    [
      0.13303766,
      -0.15889896,
      -1.4561071,
      -0.3804837
    ],
    [
      -0.30661705,
      -0.11360262,
      -0.49270192,
      0.095226474
    ],
    [
      -0.23034641,
      -0.4028849,
      -0.7483296,
      0.10508777
    ],
    [
      -0.012295309,
      0.3219449,
      1.0175788,
      -0.39260256
    ],
    [
      0.50005674,
      0.4379104,
      -0.9929338,
      0.12087373
    ],
    [
      -0.05187946,
      -0.32228193,
      1.6217791,
      -0.18112017
    ],
    [
      -0.14915456,
      -0.21850379,
      -0.35269102,
      0.11723188
    ],
    [
      0.2838944,
      0.16473079,
      1.8307527,
      0.4868944
    ],
    [
      0.206823,
      0.085196614,
      1.6254052,
      -0.07400113
    ],
    [
      0.18395406,
      -0.17819741,
      0.63133264,
      0.48739263
    ],
    [
      -0.46164396,
      -0.034329537,
      -1.4612143,
      0.009096742
    ],
    [
      -0.40134457,
      0.18851127,
      -1.5665634,
      0.11456642
    ],
    [
      -0.1528893,
      -0.042142175,
      0.020479534,
      0.09960994
    ],
    [
      -0.16028379,
      0.4192751,
      0.040953822,
      0.12438775
    ],
    [
      0.54665744,
      0.27507168,
      -0.398977,
      -0.22049476
    ],
    [
      0.25855395,
      0.16165857,
      1.0712231,
      -0.26366508
    ],
    [
      0.16245593,
      -0.09673095,
      -1.0653669,
      0.13553543
    ],
    [
      0.043585353,
      -0.18868989,
      -0.23562552,
      0.28774568
    ]
  ],
  "shared_fc1_bias": [
    -0.78775555,
    0.89922726,
    0.43513933,
    -0.8272209,
    -0.7134695,
    -0.20175767,
    0.6427397,
    -0.09442068,
    -1.0056182,
    -0.374487,
    1.393335,
    -0.819507,
    -0.21279836,
    -0.06857726,
    -0.82876766,
    -0.23357134,
    -0.082960986,
    0.84791493,
    -1.0578494,
    0.5773577,
    -0.7180698,
    0.56295854,
    -1.1987936,
    -0.31403074,
    -0.3885449,
    0.3804326,
    -0.28020334,
    -0.3687222,
    0.09258584,
    -1.0779198,
    -0.8605494,
    0.5541374,
    0.7876841,
    0.24469446,
    -0.281507,
    0.5527577,
    0.3636281,
    -0.06232088,
    -0.9325021,
    -0.3600901,
    -0.3105571,
    -0.05476321,
    0.042318378,
    -0.6228371,
    -0.25734535,
    -0.72913945,
    0.3725281,
    0.41584095,
    -0.070721485,
    -0.090319686,
    -0.8218849,
    0.03939557,
    0.44831258,
    -0.23410125,
    -0.21533479,
    -0.89154357,
    -0.08537268,
    -0.063448235,
    -0.11421577,
    -0.72288376,
    -1.2075056,
    0.051774144,
    0.06585428,
    0.7095846
  ],
  "shared_fc2_weight": [
    [
      -0.16504559,
      -0.6829992,
      -0.083461136,
      -0.17944908,
      0.42658997,
      0.78608304,
      -0.8593863,
      0.39565855,
      1.8125501,
      0.5266753,
      -0.6564786,
      -0.26953837,
      0.50848067,
      -0.059261546,
      -0.30096593,
      0.11230752,
      -0.09063034,
      0.37492326,
      1.8791399,
      0.17257436,
      0.7313111,
      0.5605889,
      0.3963973,
      0.33612677,
      0.39595324,
      -0.07671302,
      -0.11444982,
      -0.1922318,
      0.03211134,
      0.66182476,
      -0.26247513,
      0.1909135,
      0.06415164,
      0.13535969,
      0.6807194,
      0.11587468,
      0.62256765,
      0.55475,
      0.614042,
      0.4256593,
      0.44177717,
      -0.049831264,
      -0.29650205,
      0.86609113,
      -0.30686966,
      0.5691031,
      -0.5384706,
      -1.0698653,
      -0.041813646,
      0.37432966,
      0.43170205,
      0.38475642,
      0.28988767,
      0.26163998,
      0.21197586,
      1.3007909,
      -0.28204998,
      -0.40638524,
      0.76227176,
      -0.14772978,
      1.5798918,
      0.14048046,
      -0.43291327,
      0.22811602
    ],
    [
      0.18463297,
      -0.28120503,
      -0.2559743,
      -0.14102218,
      0.35564828,
      0.8564714,
      -1.0665631,
      0.480895,
      1.3496572,
      0.685098,
      -1.3028678,
      -0.032187354,
      0.9348583,
      0.303196,
      0.10211879,
      -0.028869074,
      -0.43791932,
      0.1504823,
      1.2116585,
      -0.37123337,
      0.8359531,
      -0.39702976,
      0.9123494,
      0.8728632,
      0.9544424,
      -0.6233101,
      0.0027628117,
      -0.13342543,
      -0.27836606,
      0.77333176,
      0.1850439,
      -0.29975358,
      -0.43108752,
      0.11541361,
      0.5289617,
      -0.8189264,
      -0.33737564,
      0.011956254,
      1.1900886,
      0.69739753,
      0.556161,
      -0.43963948,
      -0.6990993,
      0.91026413,
      -0.093353406,
      1.0101701,
      -0.32840678,
      -0.6223364,
      -0.31377864,
      0.45046726,
      0.717257,
      0.26600373,
      0.015453568,
      0.3382546,
      0.8511822,
      1.0209514,
      -0.00965611,
      -0.9326261,
      0.61147183,
      -0.2960037,
      1.0877758,
      -0.28504187,
      -0.3031105,
      0.07221546
    ],
    [
      -0.08383708,
      -0.34624442,
      0.4355861,
      -0.11525095,
      0.23776078,
      1.0552669,
      -0.16933216,
      1.2940207,
      0.1061173,
      1.6864691,
      -0.1712667,
      1.5192661,
      0.48692334,
      0.7574418,
      0.62538093,
      0.39975244,
      -0.6598042,
      -0.09896037,
      0.34883624,
      0.13577949,
      0.6448351,
      0.21982668,
      0.4102801,
      -0.007245802,
      0.9014555,
      -0.7013539,
      0.14351416,
      0.5285839,
      -1.4446597,
      -0.15992562,
      1.2429119,
      0.16009802,
      0.14871627,
      0.08920522,
      1.2840602,
      -0.09979495,
      -0.7535623,
      1.7237477,
      0.6808834,
      1.233774,
      0.23782481,
      0.12886916,
      0.01314848,
      0.4340642,
      1.0858057,
      1.1838819,
      -1.1124609,
      -0.58511287,
      -0.57890725,
      0.5000996,
      -0.20065533,
      0.54490906,
      -0.32624504,
      1.4342488,
      0.30147862,
      0.395089,
      -0.72490156,
      -0.38151193,
      0.42211333,
      0.9147915,
      0.54425794,
      0.55993956,
      -0.9996928,
      -0.3011438
    ],
    [
      -1.7883829,
      0.32168168,
      1.3734559,
      -0.8599733,
      -0.4288994,
      0.14785825,
      0.07759015,
      0.5320982,
      0.054837663,
      0.71893346,
      0.047775086,
      -0.24449223,
      0.1707962,
      0.29164976,
      -0.83438647,
      -0.38848808,
      -0.44599372,
      1.270616,
      0.12171615,
      2.2931898,
      0.2506227,
      1.9832399,
      -0.48503205,
      -0.7783392,
      -0.051498037,
      0.090648115,
      -0.47475407,
      -0.69697165,
      -0.0068492093,
      -0.2255309,
      -0.5003771,
      1.7586398,
      0.1235199,
      1.2803046,
      0.39793316,
      0.2891121,
      0.4783828,
      -0.26289952,
      -0.37406078,
      -0.035781436,
      -0.18561372,
      0.5643925,
      0.18426701,
      -0.1761523,
      0.16949664,
      0.1713422,
      -0.117693365,
      0.11942282,
      0.35169673,
      -0.43655166,
      -0.30458194,
      0.3762668,
      0.5133176,
      0.17965364,
      0.22791317,
      -0.111805946,
      -0.040705647,
      -0.26489818,
      0.0642923,
      -0.45592618,
      -0.09990934,
      -0.28985095,
      -0.19311336,
      0.89014703
    ],
    [
      -0.33633465,
      -0.56554204,
      0.053963203,
      -0.47502533,
      0.15978454,
      0.62412125,
      -0.97422755,
      0.7726951,
      1.8697261,
      0.7335875,
      -0.60700434,
      -0.07227207,
      0.5704852,
      0.38488126,
      -0.2527635,
      -0.39168286,
      -0.2959893,
      0.05266236,
      1.3667194,
      0.065923475,
      1.1784575,
      0.43655297,
      0.33967063,
      -0.19491842,
      1.3036467,
      -0.8234233,
      -0.2275121,
      -0.1676392,
      0.045141697,
      0.15996279,
      0.046301078,
      0.7677947,
      0.41814023,
      0.7232003,
      1.0447445,
      -0.06327098,
      0.09563962,
      -0.010168997,
      0.38523066,
      0.40841883,
      -0.19274333,
      0.2798657,
      -0.07098315,
      1.2694333,
      0.050234422,
      0.9759701,
      -0.77638656,
      -0.89767706,
      0.40327266,
      0.22545317,
      -0.29757935,
      0.87331986,
      0.10078665,
      0.7143831,
      0.13451251,
      1.5256776,
      -0.055865407,
      0.11437585,
      0.57967216,
      -0.56571054,
      0.90083545,
      0.2664099,
      -0.8563725,
      0.011896817
    ],
    [
      -0.86694175,
      -0.072258346,
      1.7402388,
      -0.45215183,
      0.023286134,
      0.06141813,
      -0.29490396,
      0.043997087,
      -0.069149904,
      0.1280247,
      -0.100552455,
      -0.32056823,
      0.27799967,
      -0.36270177,
      -0.26605344,
      -1.0137744,
      -0.31304651,
      1.1099544,
      0.027282545,
      1.7195995,
      -0.1170873,
      1.6183647,
      -0.3763877,
      -0.60310864,
      0.29926014,
      -0.12578467,
      0.036059625,
      -0.022306018,
      0.2335003,
      -0.11359499,
      -0.6004605,
      0.90418655,
      0.496656,
      1.1372397,
      0.18039523,
      -0.056920785,
      0.9161686,
      -0.066017576,
      0.008036321,
      -0.27126044,
      -0.6017684,
      -0.3654143,
      0.26832125,
      0.050575595,
      0.09288434,
      0.08821788,
      -0.11251287,
      -0.23363112,
      0.05094624,
      0.41529256,
      -0.42818785,
      0.09273757,
      -0.02788911,
      -0.2903291,
      -0.10611609,
      -0.14502776,
      -0.3579824,
      0.9358252,
      0.24989082,
      -0.07542541,
      0.0033986222,
      0.5491096,
      -0.5655053,
      0.24757363
    ],
    [
      -0.2394127,
      -0.066142865,
      0.3538176,
      -0.36823067,
      0.12337976,
      0.0867286,
      -0.29706237,
      0.13052793,
      0.10008358,
      0.7410927,
      -0.20728028,
      0.9747661,
      -0.02546649,
      -0.10024291,
      -0.18108524,
      -0.16975653,
      0.339465,
      0.23141298,
      0.42635643,
      0.7415855,
      0.18286817,
      0.8208379,
      0.11314651,
      -0.17812087,
      -0.37225905,
      0.34339777,
      0.086324,
      -0.038277335,
      0.045334212,
      -0.2530459,
      0.25029,
      0.6919809,
      0.29533884,
      0.5568412,
      0.6964793,
      0.31409857,
      -0.259183,
      0.026586019,
      -0.051651873,
      0.5062971,
      -0.26468545,
      -0.0976455,
      -0.14480957,
      0.25467363,
      0.6823813,
      0.5919919,
      -0.81893325,
      -0.034560073,
      -0.08474081,
      -0.11522982,
      -0.067461304,
      0.24512236,
      -0.077150375,
      0.7909809,
      -0.33212042,
      0.2649853,
      -0.08637352,
      -0.0741492,
      -0.014979015,
      -0.0071767704,
      0.1443503,
      -0.06496316,
      -0.09830227,
      0.20755093
    ],
    [
      1.5593563,
      -0.13924646,
      -1.6701446,
      1.0200267,
      0.47211108,
      -0.40072018,
      -0.23334889,
      -0.3109414,
      0.2566736,
      -0.4543076,
      -0.1726758,
      0.48690262,
      0.0756403,
      0.0029975413,
      0.8589741,
      -0.09127184,
      0.32243192,
      -1.6554722,
      0.22106737,
      -2.2115417,
      -0.11227073,
      -1.9303902,
      0.15107594,
      0.28916097,
      0.00048144342,
      0.2829892,
      0.7334033,
      0.27231094,
      -0.2966385,
      0.4527299,
      0.31389236,
      -1.5180229,
      -0.108939484,
      -1.2311615,
      -0.5280863,
      -0.17916732,
      -0.33784133,
      0.031399265,
      0.4363394,
      -0.19872561,
      0.36650434,
      -0.34544972,
      0.051604312,
      -0.22016467,
      -0.17107905,
      -0.29226613,
      0.09507172,
      0.32243887,
      0.08165636,
      0.6468816,
      0.15112746,
      -0.27128425,
      -0.3408421,
      -0.33353776,
      0.18359935,
      0.10477901,
      -0.023287728,
      0.1906527,
      0.1654889,
      0.8674324,
      0.16865626,
      0.25942987,
      0.4629306,
      -0.4559766
    ],
    [
      -0.2416316,
      -0.45926973,
      0.04987091,
      0.07477197,
      0.38352478,
      0.44310296,
      -0.03248104,
      0.099553175,
      0.51724494,
      0.45426238,
      0.07579021,
      0.80839103,
      0.4633174,
      -0.005286681,
      0.4486349,
      0.37929082,
      0.75697327,
      -0.46355775,
      -0.023513297,
      -0.13011552,
      -0.056704972,
      0.3342988,
      -0.22901016,
      0.47034827,
      0.14876458,
      0.45217362,
      -0.069198266,
      -0.039167043,
      -0.9337201,
      0.16243023,
      0.4115463,
      0.47740233,
      0.06935525,
      0.48092613,
      0.23397219,
      0.11845897,
      -1.1386334,
      0.9798767,
      -0.036663283,
      0.3543735,
      -0.30428037,
      -0.09431222,
      -0.5088276,
      0.25688973,
      0.32371315,
      0.36695468,
      -0.3569858,
      -0.15953581,
      -0.40324792,
      0.5959965,
      0.044264715,
      -0.2673415,
      -0.31035525,
      0.9331462,
      0.29935563,
      -0.12400015,
      0.1412937,
      0.43333238,
      -0.0010039436,
      0.29433948,
      -0.39224547,
      0.67957777,
      -0.8155145,
      -0.21256295
    ],
    [
      2.0779023,
      -0.5625163,
      -0.14824022,
      0.15289699,
      1.2193784,
      -0.35898283,
      -0.27178636,
      -0.75943273,
      0.06071262,
      -0.11224568,
      -0.8572794,
      -0.21145196,
      -0.33536014,
      -0.060875714,
      -0.021595202,
      -0.5075173,
      1.0210131,
      -0.15421051,
      0.24574071,
      -1.3261188,
      0.35061955,
      -1.3055884,
      0.23116003,
      -0.5500457,
      -0.65402687,
      0.38816875,
      -0.2492166,
      0.15721996,
      0.4533269,
      0.7084707,
      0.06477565,
      -2.5280776,
      -1.2304826,
      0.07166128,
      -0.38615134,
      -0.11857274,
      0.47007465,
      -0.6336717,
      0.2608206,
      -0.054040253,
      -0.072517484,
      0.353706,
      0.10546021,
      -0.025009077,
      -0.8491474,
      0.036039263,
      0.17703104,
      0.08494837,
      0.53487575,
      -0.6332071,
      0.6037345,
      -1.1398766,
      0.22773771,
      -0.79143625,
      -0.37239558,
      0.3374072,
      0.90738934,
      0.27142823,
      -0.203761,
      0.072801664,
      0.36862475,
      -0.35582146,
      0.5806239,
      0.10367552
    ],
    [
      -1.61329,
      0.17615362,
      1.5487525,
      -0.77623314,
      -0.61161166,
      0.095342696,
      0.33240226,
      -0.072928354,
      -0.09565326,
      0.22969553,
      0.478374,
      -0.27059418,
      0.19788216,
      0.40278327,
      -0.57357985,
      -0.7484073,
      -0.067008,
      1.5572577,
      -0.23943567,
      2.1588173,
      -0.23007728,
      2.4560087,
      -0.24664064,
      -0.60842425,
      0.30618596,
      -0.17022501,
      -0.30151454,
      -0.3145611,
      0.0401883,
      -0.45743272,
      -0.92578274,
      1.2110469,
      0.20157306,
      1.4789085,
      0.51932454,
      0.3473018,
      0.27399477,
      -0.41689444,
      -0.17729858,
      0.24320266,
      -0.47302523,
      0.086557604,
      0.13421038,
      0.08134861,
      0.19338158,
      0.15473667,
      -0.5270354,
      -0.252918,
      0.3378478,
      -0.25902,
      -0.532413,
      -0.14885451,
      0.6517593,
      0.05760455,
      -0.042054623,
      -0.038615376,
      0.26703444,
      0.32994106,
      -0.16430329,
      -0.26176292,
      0.024537887,
      -0.25840682,
      -0.27480975,
      0.79237044
    ],
    [
      -0.2110773,
      0.13053504,
      0.14193495,
      -0.19492662,
      -0.022977542,
      -1.1795143,
      -0.18928039,
      -1.5520816,
      -0.47922245,
      -1.5703187,
      -0.01890742,
      -1.8190192,
      -0.08478198,
      -0.5861524,
      -0.41858974,
      -0.47312537,
      0.34646085,
      -0.32078424,
      -0.6051269,
      -0.34131214,
      -0.5527194,
      0.025319345,
      -0.22701778,
      0.24640225,
      -1.5612277,
      1.0347638,
      -0.39855108,
      -0.43710962,
      1.3553662,
      -0.23223718,
      -1.1296045,
      -0.0017369726,
      -0.11959931,
      -0.21910712,
      -1.3431438,
      0.20188357,
      1.0909426,
      -1.8534089,
      -0.3775837,
      -1.1118968,
      -0.020814596,
      0.27993855,
      0.14378029,
      -0.18880047,
      -1.1331761,
      -1.3666571,
      0.84074765,
      0.53512114,
      0.9466427,
      -0.79892147,
      -0.3438588,
      -0.63545287,
      0.45709336,
      -1.5628866,
      -0.46376246,
      -0.33011895,
      0.8986405,
      0.16591917,
      -0.53621393,
      -0.9356024,
      -0.37614173,
      -0.52834606,
      0.8124867,
      0.18430838
    ],
    [
      2.3138218,
      -0.38997364,
      -0.19401641,
      0.14079832,
      1.0606192,
      -0.81798184,
      -0.3866186,
      -1.0579464,
      -0.27682725,
      -0.61778224,
      -1.0264504,
      0.18020841,
      -0.16950552,
      -0.51268035,
      0.08767507,
      -0.42459956,
      0.82510436,
      0.0019995626,
      0.29626265,
      -1.5674304,
      0.26748765,
      -1.3728054,
      0.7568526,
      -0.6071836,
      -0.80587804,
      0.10421748,
      -0.37219942,
      -0.1633828,
      0.82507306,
      1.1469676,
      0.29971144,
      -2.5370924,
      -1.2289728,
      -0.4241749,
      -0.30916482,
      -0.01899518,
      0.061147105,
      -0.43760654,
      0.6513651,
      -0.5966908,
      -0.32452506,
      0.29691944,
      -0.11578819,
      0.015298352,
      -0.49173838,
      0.06884812,
      -0.071297616,
      0.71773195,
      0.67421204,
      -0.13072136,
      0.84691,
      -0.91383386,
      0.31449795,
      -0.67231226,
      -0.42453447,
      0.10310839,
      0.8512393,
      0.21265905,
      -0.40537232,
      -0.22596243,
      0.45152348,
      -0.4229827,
      0.28315064,
      0.26323006
    ],
    [
      1.5781775,
      -0.32073253,
      -1.8404745,
      0.6944188,
      0.5891244,
      0.035289697,
      -0.000558821,
      -0.60091335,
      -0.12396827,
      -0.5695318,
      -0.5316528,
      0.39986283,
      -0.42769343,
      -0.28962973,
      0.8244444,
      0.2081944,
      -0.25184014,
      -1.5913706,
      0.24666983,
      -2.2845876,
      -0.107270755,
      -1.9686108,
      0.44811946,
      0.4755905,
      -0.5299546,
      0.10406423,
      0.4481829,
      0.20249772,
      -0.11162366,
      0.50774974,
      0.49271613,
      -1.2061944,
      -0.647444,
      -1.5385735,
      -0.46052346,
      -0.093346275,
      -0.6865787,
      -0.03917398,
      -0.31432006,
      -0.11702876,
      0.33892113,
      -0.5000767,
      -0.18673377,
      -0.06800966,
      -0.23388337,
      -0.3145837,
      0.28119668,
      0.09290315,
      -0.1741464,
      0.45634592,
      0.2718325,
      -0.43659046,
      -0.8119257,
      -0.23402306,
      -0.05477002,
      0.35961002,
      0.046977174,
      0.05710857,
      0.019615866,
      0.6218337,
      0.31047168,
      0.3005051,
      0.21006364,
      -0.7562235
    ],
    [
      -1.2579943,
      0.6203951,
      1.8574853,
      -0.9612773,
      -0.50058675,
      0.044574313,
      0.18734589,
      0.26283816,
      -0.068691604,
      0.28494492,
      0.3781047,
      -0.40886772,
      0.08808185,
      0.3226807,
      -0.87249386,
      -0.3732635,
      -0.22142345,
      1.6333739,
      -0.118537344,
      2.3042197,
      0.07033228,
      2.2671096,
      -0.639586,
      -0.5830345,
      0.2673948,
      -0.46821463,
      -0.89738476,
      -0.40237552,
      0.014867104,
      -0.32142,
      -0.6133964,
      1.6968379,
      0.4291605,
      1.0725931,
      0.35351422,
      0.2364662,
      0.67873615,
      -0.4380119,
      0.18495357,
      0.3251139,
      -0.32733104,
      0.44259095,
      -0.027006874,
      0.09699778,
      0.2906813,
      0.05426497,
      -0.25035664,
      -0.32738727,
      0.29092485,
      -0.100742966,
      -0.27610615,
      0.27945107,
      0.45540226,
      0.013439716,
      0.18388832,
      0.14053555,
      -0.38102937,
      0.25742787,
      0.28353235,
      -0.45783943,
      -0.4339286,
      -0.68135244,
      -0.5875341,
      0.565007
    ],
    [
      0.34602526,
      -0.50977606,
      0.23672172,
      -0.35212696,
      0.30429733,
      0.67234015,
      -0.4165144,
      0.6984689,
      0.9788346,
      -0.013804253,
      -1.0409012,
      0.08759205,
      1.5316643,
      0.5663612,
      0.2122825,
      -0.051315147,
      -0.5237178,
      -0.32089323,
      1.2707167,
      -0.2790296,
      0.5187198,
      -0.46717933,
      0.93899393,
      0.655213,
      0.98235583,
      -0.49179503,
      0.04874273,
      0.10332977,
      -0.06526515,
      1.3633597,
      -0.00322713,
      -0.38949892,
      -0.6405197,
      -0.3393245,
      0.63162005,
      -0.6925179,
      0.13950545,
      0.11850327,
      0.91572356,
      0.32691696,
      0.89396733,
      -0.03645655,
      -0.536172,
      0.5673649,
      0.14336665,
      0.89828587,
      0.039542403,
      -0.70170724,
      -0.62012327,
      0.24871275,
      0.79242194,
      0.5827933,
      -0.015559724,
      0.3243283,
      0.95173943,
      0.81286544,
      -0.586041,
      -0.44026026,
      0.5513916,
      -0.14160565,
      1.2705464,
      0.33283842,
      -0.14189349,
      -0.21226141
    ],
    [
      1.7079723,
      -0.14572091,
      -0.45883238,
      1.3608121,
      0.3528979,
      -0.19725534,
      -0.37224418,
      -0.26912412,
      0.042850655,
      -0.049570013,
      -0.1041492,
      0.5838173,
      0.33327383,
      0.13883792,
      0.99072087,
      -0.347785,
      0.4918975,
      -1.0721825,
      0.2605608,
      -1.9221848,
      0.070420325,
      -2.0609946,
      0.32250112,
      -0.29202098,
      -0.05214915,
      -0.28277665,
      0.8632338,
      0.79916006,
      -0.68197304,
      0.525344,
      0.36629835,
      -1.3148235,
      -0.28984925,
      -0.47929677,
      -0.31656092,
      0.123058945,
      -0.12120179,
      0.8759852,
      0.055695917,
      -0.06470773,
      0.505137,
      -0.56458753,
      -0.20572464,
      -0.036079668,
      0.58572733,
      0.013645608,
      -0.37435257,
      -0.28100315,
      -0.4000786,
      1.2131923,
      0.31000704,
      0.21340813,
      -0.92381716,
      -0.41733143,
      -0.3132006,
      0.06533586,
      0.0194155,
      0.076792926,
      0.21175478,
      0.40676332,
      0.13789417,
      0.36889848,
      -0.28422803,
      -0.9763629
    ],
    [
      1.8386079,
      0.2926844,
      -1.0573955,
      1.0674695,
      0.65316117,
      -0.15802167,
      -0.3475992,
      -0.79920465,
      0.0994929,
      -0.57976943,
      -0.5582333,
      0.93056554,
      -0.15191779,
      -0.10555063,
      0.8529124,
      -0.04306063,
      0.5081773,
      -1.3225204,
      -0.087533034,
      -2.0745258,
      -0.019829977,
      -1.5632834,
      0.29502198,
      -0.052771717,
      -0.09013132,
      0.20032705,
      0.73366773,
      0.37487507,
      0.0061597624,
      0.35277072,
      0.7886157,
      -1.4059762,
      -0.5670611,
      -0.58810264,
      -0.6892326,
      -0.17424712,
      -0.06404704,
      0.17620093,
      -0.049957864,
      -0.39621556,
      0.399668,
      -0.54031676,
      0.022411909,
      -0.20653038,
      0.15041758,
      -0.06887256,
      -0.015678704,
      -0.12656035,
      -0.2510194,
      0.5025919,
      0.45718145,
      -0.21513687,
      -0.6282614,
      -0.61179703,
      -0.45930785,
      -0.045640673,
      0.80065453,
      0.44045803,
      0.025250984,
      0.7610011,
      0.11269533,
      0.44061652,
      0.4218632,
      -1.122605
    ],
    [
      -1.6951166,
      -0.12324478,
      1.840189,
      -0.7215062,
      -0.5628658,
      -0.08753384,
      0.051460784,
      0.48417538,
      -0.105417944,
      0.30736968,
      0.20077065,
      -0.26277035,
      -0.22072944,
      0.08630526,
      -0.6815712,
      -0.83036643,
      -0.08381747,
      1.7040683,
      -0.64029855,
      2.1353843,
      0.04550496,
      2.244763,
      -0.23090345,
      -0.52076674,
      0.38915977,
      -0.39228168,
      -0.19108877,
      -0.17949657,
      0.1532594,
      -0.5374898,
      -0.56003237,
      1.402446,
      0.373796,
      1.0839949,
      0.2558875,
      0.5859194,
      0.6366621,
      -0.5013587,
      -0.052305926,
      0.18788278,
      -0.35296252,
      0.36693728,
      -0.2578922,
      -0.07433712,
      0.22623155,
      -0.033556975,
      -0.4671537,
      -0.110646725,
      0.35766146,
      -0.40770197,
      -0.04724649,
      0.44077918,
      0.2334784,
      -0.3447476,
      -0.016994791,
      -0.3290778,
      -0.15130304,
      -0.017250977,
      0.38041186,
      -0.5808285,
      -0.1441036,
      -0.2176213,
      -0.122049436,
      0.7650204
    ],
    [
      -2.198247,
      0.64687556,
      0.2090431,
      -0.06624387,
      -1.2915454,
      0.58517253,
      -0.07260567,
      1.0200833,
      0.4999259,
      -0.048181355,
      0.8715734,
      0.11585737,
      0.3246221,
      0.094152845,
      0.4624129,
      0.55237836,
      -0.99830335,
      0.25248083,
      -0.19542113,
      1.2326962,
      -0.61077935,
      1.4940379,
      -0.67813677,
      0.2884397,
      0.34163994,
      0.17871122,
      0.4981353,
      0.5598191,
      -0.5357346,
      -0.54925424,
      -0.21859714,
      2.7107954,
      1.628903,
      0.68773144,
      0.37098798,
      -0.1120122,
      -0.55575264,
      0.55126965,
      -0.839885,
      0.4442034,
      0.2318882,
      -0.07415501,
      -0.45747378,
      0.017137375,
      0.20228608,
      0.13469663,
      -0.03474173,
      -0.3665707,
      -0.8521255,
      0.36329007,
      -0.7243174,
      0.74307966,
      -0.07292353,
      0.49129075,
      0.29970914,
      -0.06626157,
      -1.138549,
      -0.31880277,
      -0.027110793,
      0.18382145,
      -0.4889461,
      0.57622224,
      -0.6692338,
      0.017381834
    ],
    [
      -0.49020457,
      0.10931017,
      -0.08743453,
      0.06097897,
      0.21529669,
      0.883068,
      -0.61014783,
      1.7438235,
      0.31561956,
      1.5648997,
      -0.22149704,
      1.4902653,
      0.25609577,
      0.57031906,
      0.44693258,
      0.5675023,
      -0.10132467,
      -0.0806045,
      0.4575229,
      0.3934018,
      0.6159845,
      0.1451727,
      0.32096267,
      0.17328754,
      1.2027459,
      -0.4833479,
      0.45942816,
      0.29188308,
      -0.97435015,
      0.22619522,
      1.0596906,
      0.47747573,
      -0.35663313,
      0.44161427,
      1.5939672,
      -0.5692886,
      -0.91424793,
      1.5149604,
      0.53690076,
      1.2357751,
      -0.091194816,
      -0.20758577,
      -0.17368099,
      0.6574623,
      1.0290462,
      1.1760359,
      -1.0234594,
      -0.7545174,
      -0.83201694,
      0.35232008,
      0.18922807,
      0.59761965,
      -0.42439005,
      1.3734154,
      0.7065162,
      0.37676308,
      -1.0909892,
      -0.4416469,
      0.3646102,
      0.7748531,
      0.79172,
      0.504094,
      -1.2409161,
      -0.52522004
    ],
    [
      1.6042237,
      -0.029081939,
      -1.9432055,
      1.0874094,
      0.458267,
      0.055755526,
      0.018384602,
      -0.59327,
      0.057064265,
      -0.4327049,
      -0.3072818,
      0.43509993,
      -0.1216366,
      -0.3749563,
      0.7852596,
      0.17499177,
      0.4678297,
      -1.2295545,
      -0.08214008,
      -2.4851744,
      -0.16794857,
      -2.1826575,
      0.49500415,
      0.2854603,
      -0.15411983,
      0.531716,
      0.16763897,
      0.29576752,
      -0.12901972,
      0.43476197,
      0.70792925,
      -1.3142174,
      -0.30512393,
      -0.99845207,
      -0.5689157,
      -0.09356408,
      -0.12007619,
      0.080994695,
      0.07508242,
      -0.33466533,
      0.6242883,
      -0.42356348,
      0.12390712,
      0.29233235,
      0.104605615,
      0.071116626,
      0.26696736,
      0.4688175,
      -0.16089465,
      0.075982295,
      -0.02540461,
      -0.6636491,
      -0.5358907,
      -0.26837733,
      0.013815809,
      0.1017732,
      -0.20883062,
      -0.19522524,
      0.09912107,
      0.693343,
      0.21113001,
      0.5177328,
      0.26411697,
      -0.71853775
    ],
    [
      0.17096713,
      -0.40489686,
      0.23153017,
      0.26677555,
      0.4720938,
      1.466772,
      -0.9435619,
      1.234114,
      0.36276945,
      0.3464289,
      -1.1246531,
      0.6741722,
      1.1092173,
      -0.21308781,
      0.14988376,
      0.110505246,
      -0.21329209,
      -0.12620278,
      1.4395812,
      -0.071963504,
      0.5638223,
      -0.20161311,
      0.9875891,
      0.48200175,
      0.8196057,
      -0.2584709,
      0.0047950684,
      0.17753579,
      -0.21942522,
      1.1635349,
      0.13956414,
      0.21331134,
      -0.7669218,
      0.07371878,
      0.9047165,
      -0.7784494,
      -0.09856277,
      0.46132532,
      0.8631422,
      1.1370174,
      0.2903232,
      -0.15867744,
      -0.61931825,
      0.8476408,
      0.5555177,
      1.3816179,
      -0.95883244,
      -0.7055628,
      -0.11209029,
      -0.1654553,
      0.9867529,
      -0.16421902,
      0.0827067,
      0.846929,
      0.6195066,
      0.81900907,
      0.044093933,
      -0.35314244,
      0.7492855,
      0.22523062,
      0.7299085,
      -0.000667635,
      -0.18496896,
      -0.04297325
    ],
    [
      -1.2978823,
      -0.048347685,
      0.42285293,
      -0.6703907,
      0.0012057987,
      -0.70279497,
      0.48028505,
      -0.650863,
      -0.4433482,
      -0.38897616,
      -0.2937776,
      -0.51605123,
      -0.26824954,
      -0.23161423,
      -0.7280976,
      -0.11220056,
      -0.21646498,
      1.0295441,
      -0.370967,
      1.0985954,
      -0.5174434,
      1.1068829,
      0.2868955,
      -0.35947597,
      -0.57598054,
      0.41497427,
      -0.5824765,
      -0.6178562,
      0.8592015,
      -0.12715642,
      -0.53661394,
      1.0731431,
      0.19495583,
      0.76784706,
      -0.39183265,
      0.15509734,
      0.5219003,
      -1.5325958,
      0.053655468,
      -0.26152483,
      -0.53225327,
      0.48504978,
      0.39002302,
      0.11409835,
      -1.294192,
      -0.6741288,
      0.64118314,
      0.5515361,
      0.70432645,
      -0.45588735,
      -0.039713062,
      0.23328435,
      0.855648,
      -0.44745842,
      -0.03067238,
      -0.082906075,
      0.45914397,
      -0.28227675,
      -0.48296785,
      -0.58740026,
      -0.20603642,
      -0.63259894,
      0.83348817,
      0.052408405
    ],
    [
      -1.9732798,
      0.59847796,
      0.029181765,
      -0.41021138,
      -1.567068,
      0.42013445,
      0.20251036,
      0.94717145,
      -0.3684098,
      0.39548725,
      1.1845137,
      -0.110486455,
      0.5239832,
      0.7890019,
      0.06450181,
      0.2708295,
      -0.8036352,
      0.50536096,
      -0.33997858,
      1.5166345,
      -0.22425053,
      1.75088,
      -0.62434983,
      0.44465443,
      0.33317623,
      -0.75138515,
      0.08879102,
      0.31562778,
      -0.55718297,
      -0.72730505,
      0.25561,
      2.2982457,
      1.3820487,
      0.80381346,
      0.47190282,
      0.3853712,
      -0.13830177,
      0.32830295,
      -0.6012014,
      -0.06335538,
      -0.22493255,
      -0.022796238,
      -0.060606502,
      -0.101399235,
      0.3795582,
      -0.100623935,
      0.1605463,
      -0.21024682,
      -0.5389797,
      0.34174633,
      -1.0657245,
      1.2145673,
      -0.027737716,
      0.09752596,
      0.39490137,
      -0.2630301,
      -0.7179175,
      -0.25375512,
      0.20780511,
      0.120398864,
      -0.7299656,
      0.44023624,
      -0.37490246,
      0.0837952
    ],
    [
      0.8919452,
      -0.11770616,
      -1.6807165,
      0.6389467,
      0.7091561,
      -0.074444294,
      -0.06338435,
      0.036412317,
      0.29876503,
      -0.070586845,
      -0.26907703,
      0.4692603,
      0.080844656,
      -0.39691243,
      0.34985778,
      1.1158787,
      -0.1733807,
      -1.3039551,
      0.30624512,
      -1.8212912,
      0.19599268,
      -1.9713837,
      0.32453305,
      0.7430973,
      0.085861,
      0.25686255,
      0.003541159,
      0.34757313,
      -0.46966228,
      0.17342846,
      0.48174065,
      -1.2632318,
      -0.61756337,
      -0.9292846,
      -0.25033578,
      0.13199276,
      -1.2365409,
      0.425717,
      0.31713012,
      0.014514956,
      -0.02953993,
      0.2495203,
      -0.4245416,
      0.34426656,
      0.020317053,
      0.11420276,
      0.54770106,
      -0.38822582,
      -0.18490766,
      0.1898788,
      0.13014893,
      0.16949323,
      -0.27908266,
      0.35358083,
      0.71800894,
      0.1458796,
      -0.1871196,
      -0.452614,
      0.15320286,
      0.38102418,
      0.30106503,
      0.32358113,
      0.32563397,
      -0.5142708
    ],
    [
      0.26934475,
      0.5265838,
      -0.28813028,
      0.28290263,
      -0.2872818,
      -1.150999,
      0.7795621,
      -1.1743504,
      -0.9745506,
      -0.8395903,
      1.0636103,
      -0.7127578,
      -0.52981794,
      -0.04481391,
      0.02271339,
      -0.22499879,
      0.35457358,
      -0.4200946,
      -1.1975645,
      -0.09687643,
      -0.7135157,
      0.3476113,
      -0.58866656,
      -0.33096072,
      -0.6346659,
      0.5394953,
      0.041075554,
      0.26032075,
      -0.42528632,
      -0.99511665,
      -0.08046952,
      0.018869763,
      0.48836014,
      -0.28837076,
      -0.74229485,
      0.38423,
      0.20836148,
      -0.2801299,
      -0.80261695,
      -1.2196227,
      -0.3797417,
      -0.033323586,
      0.52558964,
      -0.94330335,
      -0.5268275,
      -1.441933,
      0.8996288,
      0.39580342,
      -0.37149376,
      0.30664825,
      -0.18015023,
      -0.37683934,
      -0.070351526,
      -0.6492557,
      -0.109674,
      -0.8150112,
      0.14796077,
      0.10713552,
      -0.19047704,
      -0.5096825,
      -0.95239955,
      0.10507245,
      0.66711026,
      0.01783897
    ],
    [
      1.3331107,
      -0.15070876,
      -0.76478595,
      1.0681069,
      0.6987379,
      0.27261165,
      -0.03820748,
      0.080365576,
      0.5793257,
      -0.2920745,
      -0.3290461,
      0.43017164,
      0.24446708,
      0.14517996,
      1.1200086,
      -0.16356495,
      0.27432156,
      -0.91350937,
      0.24019893,
      -1.3286307,
      0.17252183,
      -1.640409,
      0.48607814,
      0.24104846,
      -0.058942102,
      0.10314422,
      0.8130429,
      0.76241726,
      -0.13372669,
      0.68306315,
      0.7810639,
      -1.375822,
      -0.081472926,
      -0.6036421,
      -0.39525667,
      -0.4256924,
      -0.10768312,
      0.39430296,
      0.078857556,
      0.20227675,
      0.37319705,
      -0.7986356,
      -0.004522783,
      0.24134038,
      0.49282548,
      0.42854622,
      -0.53423953,
      -0.25061855,
      -0.4043492,
      0.6290166,
      0.4597332,
      -0.14145842,
      -0.98306745,
      -0.34853917,
      0.04712626,
      0.042323392,
      0.1793377,
      0.7158433,
      0.3585326,
      0.43407494,
      -0.05769356,
      -0.12876411,
      0.21528158,
      -0.6778942
    ],
    [
      0.5296362,
      -0.21607147,
      -0.21712548,
      0.12688832,
      0.16305435,
      -0.47496614,
      0.17135724,
      -0.08662031,
      -0.0821884,
      0.39869568,
      -0.69786716,
      -0.2849208,
      -0.18134366,
      -0.7583296,
      -0.108912185,
      0.06159083,
      -0.5286455,
      -0.49070472,
      -0.011256654,
      -0.3975525,
      0.2357479,
      -0.34496862,
      0.3379928,
      -0.015235464,
      -0.30592605,
      -0.38226295,
      -0.08766646,
      -0.092861205,
      0.26340923,
      0.3768611,
      -0.24254468,
      -0.93949664,
      -0.3036105,
      0.23071346,
      0.05325871,
      -0.13121817,
      0.14499897,
      -0.3040944,
      0.1639729,
      -0.40637863,
      0.08647727,
      0.2236948,
      0.09584559,
      0.15876496,
      -0.20827772,
      0.040210947,
      0.14725028,
      -0.095732495,
      0.11213302,
      -0.24640413,
      0.16193093,
      0.4678747,
      0.27142364,
      -0.23074335,
      -0.19982831,
      0.16029386,
      0.5262321,
      -0.112298384,
      0.04960194,
      0.08682141,
      0.22161494,
      -0.60783285,
      0.0377186,
      0.07168257
    ],
    [
      0.16597298,
      -0.30412954,
      0.41273144,
      0.41682723,
      0.18250959,
      0.7465984,
      -0.21777233,
      1.7633761,
      0.38241702,
      1.3271974,
      -0.012468019,
      1.2494104,
      -0.11398798,
      0.76777065,
      0.34032077,
      1.0862195,
      -0.5448214,
      0.09360552,
      0.23155159,
      0.25560406,
      0.5777708,
      0.34856996,
      0.5407965,
      0.015649892,
      1.1923795,
      -0.9703458,
      0.22373167,
      0.016797582,
      -0.84459484,
      0.18442784,
      1.1242964,
      0.18675037,
      -0.085308716,
      0.6511561,
      1.6030939,
      -0.022860479,
      -0.9268712,
      1.0724282,
      0.52371705,
      1.1159623,
      -0.046946567,
      0.14352123,
      0.23932032,
      0.28434727,
      1.449168,
      1.6584275,
      -0.6260788,
      -0.50016475,
      -0.46958554,
      0.5552251,
      -0.110343345,
      0.8100283,
      -0.28995737,
      1.1640549,
      0.5838262,
      0.6749789,
      -0.63931257,
      -0.6231978,
      0.52187634,
      0.77469206,
      0.2452856,
      0.3627458,
      -0.6918113,
      -0.035201497
    ],
    [
      0.2798268,
      0.15831143,
      -0.045254357,
      -0.12874971,
      -0.19468959,
      -1.3019836,
      0.40318313,
      -1.1458557,
      -0.15773197,
      -1.5538822,
      0.48631996,
      -1.4694755,
      -0.26192063,
      -0.63241595,
      -0.75480855,
      -0.8007696,
      0.3006586,
      0.0019834798,
      -0.4700341,
      -0.32988644,
      -0.5276909,
      -0.14330086,
      -0.12641974,
      0.0002184014,
      -1.3535417,
      0.9521639,
      -1.0022357,
      -0.483044,
      1.5671742,
      -0.17348933,
      -1.1536213,
      -0.06108977,
      0.062383994,
      -0.13565518,
      -1.6775755,
      0.12904084,
      0.91096854,
      -1.9446985,
      -0.47486466,
      -1.0849993,
      -0.38853168,
      0.07580251,
      0.1742822,
      -0.3370461,
      -1.4825904,
      -1.4425386,
      0.66453564,
      0.5325376,
      0.48333737,
      -0.48267758,
      0.1448207,
      -0.55804616,
      0.31927067,
      -1.2054691,
      -0.5631061,
      -0.49847272,
      1.2973595,
      0.050486416,
      -0.52295786,
      -0.52663344,
      -0.07153522,
      -0.27566966,
      0.8403611,
      0.2586737
    ],
    [
      -0.024341706,
      0.24291857,
      0.063590765,
      0.05216363,
      -0.91335964,
      -1.1678903,
      0.71309924,
      -0.6646397,
      -0.9022948,
      0.06624273,
      1.0130588,
      0.23496047,
      -1.3316191,
      -0.6658305,
      0.070657045,
      -0.59434026,
      0.6580984,
      -0.04221381,
      -1.1924316,
      0.27422503,
      -0.13440739,
      0.25630298,
      -0.9665177,
      -0.32553682,
      -0.5060039,
      0.6336928,
      0.044953413,
      -0.37879556,
      0.24362421,
      -1.0005342,
      0.27366245,
      0.25345108,
      0.66424656,
      0.14314908,
      -0.19535139,
      1.2212038,
      -0.06084759,
      -0.3801326,
      -0.9461232,
      0.028799606,
      -0.7021931,
      -0.2445313,
      0.7823538,
      -0.5937454,
      -0.16843246,
      -0.8584147,
      -0.031899,
      0.23143762,
      0.16324009,
      -0.428902,
      -1.0594121,
      -0.6408866,
      0.12442511,
      -0.4123323,
      -0.8049649,
      -0.63280517,
      0.33196262,
      0.64574194,
      -0.4753638,
      0.08093598,
      -1.4660453,
      0.11186569,
      0.24098496,
      -0.23185362
    ],
    [
      1.50612,
      0.029041614,
      -1.6283033,
      0.9701944,
      0.4896358,
      -0.21493343,
      0.16223967,
      -0.40570718,
      -0.02716233,
      -0.38663778,
      -0.20036706,
      0.41793385,
      0.073457174,
      -0.55258685,
      1.2562337,
      -0.092839465,
      0.42477554,
      -1.2973238,
      0.022206668,
      -1.672701,
      -0.15312846,
      -2.0333583,
      0.14799869,
      0.37211576,
      -0.27434525,
      0.6502127,
      0.5648156,
      0.52252245,
      0.033482894,
      -0.29024777,
      0.7528363,
      -1.5223047,
      -0.67864925,
      -0.7865159,
      -0.22618896,
      -0.044675622,
      -0.3285679,
      -0.17341565,
      0.28565904,
      -0.18393439,
      0.11586111,
      -0.49968278,
      0.31987488,
      -0.26908875,
      0.08253281,
      -0.19508745,
      0.18708506,
      0.41914043,
      0.2621843,
      0.37104508,
      0.60216683,
      -0.62274307,
      -0.60229874,
      -0.19042422,
      -0.6222163,
      0.5846763,
      0.3091727,
      0.07246175,
      -0.23633301,
      0.5805909,
      0.005929346,
      0.34023258,
      0.10996046,
      -0.7328629
    ],
    [
      0.19332272,
      -0.36818135,
      -0.063794665,
      0.30046302,
      0.39746353,
      0.5267194,
      -0.7654837,
      0.5074436,
      0.980937,
      0.47879878,
      -1.2264483,
      -0.27407742,
      1.1554875,
      0.13347276,
      0.37534386,
      0.31684667,
      -0.32730883,
      -0.13728933,
      1.7099513,
      -0.6148633,
      0.49379578,
      -0.021560306,
      0.9436971,
      0.2691685,
      0.24915051,
      -0.36694953,
      0.034842245,
      -0.07677888,
      0.16179627,
      1.058952,
      0.29081953,
      -0.33548495,
      -0.83824456,
      -0.12524666,
      0.31843948,
      -0.6513563,
      -0.39070752,
      0.040500127,
      0.9880009,
      0.7497285,
      0.2696727,
      -0.20355815,
      -0.47561276,
      0.47003862,
      -0.07010616,
      1.2995986,
      -0.05799889,
      -0.37394965,
      0.1534319,
      -0.12094426,
      1.0646179,
      0.33992824,
      0.34273338,
      0.7339671,
      0.5230484,
      0.72260165,
      -0.5148267,
      -0.13929038,
      0.7712462,
      0.3836945,
      1.6609566,
      0.15882412,
      0.104955226,
      -0.4582152
    ],
    [
      -1.9771543,
      0.15997303,
      0.42715254,
      -0.8101459,
      0.06005045,
      -0.6928801,
      0.34394988,
      -0.034005176,
      -0.5256985,
      -0.059491795,
      0.056256924,
      -0.44034868,
      -0.17380618,
      -0.0044064885,
      -0.9691206,
      -0.050363135,
      -0.24324557,
      1.0169516,
      -0.37063175,
      1.5967062,
      -0.16104424,
      1.7357996,
      -0.2055043,
      -0.17076485,
      -0.16405313,
      0.34128782,
      -0.9488252,
      -0.6080946,
      0.32036746,
      -0.2611147,
      -0.7230631,
      1.3403126,
      0.34732023,
      0.6078826,
      0.24046452,
      0.013846544,
      0.14766335,
      -0.47725987,
      -0.010414822,
      0.12508884,
      -0.2844265,
      0.74307173,
      -0.14750019,
      -0.08429247,
      -0.3488424,
      -0.3213867,
      0.7266558,
      0.39217126,
      0.30862942,
      -0.3556837,
      -0.6003392,
      0.005860644,
      0.35676116,
      0.26695284,
      -0.64772904,
      0.23437822,
      0.10182862,
      -0.40287143,
      -0.105391964,
      -0.59371084,
      -0.02026543,
      -0.31362247,
      0.41431415,
      0.57269603
    ],
    [
      1.8867596,
      0.24059863,
      -0.7366811,
      0.7861924,
      0.84112626,
      -0.078449085,
      -0.44905335,
      0.15198717,
      0.18563661,
      -0.15847142,
      -0.46493012,
      0.5354084,
      -0.23425557,
      0.054172102,
      0.6868062,
      -0.31142047,
      0.38784564,
      -1.2146028,
      -0.0014917412,
      -1.9847444,
      -0.061289866,
      -1.7984704,
      0.45546323,
      -0.12723039,
      -0.23677537,
      -0.19326633,
      0.72610295,
      0.847366,
      -0.34029177,
      0.40382394,
      0.5541736,
      -1.9379065,
      -0.31996125,
      -0.5578833,
      0.0052845133,
      0.18413556,
      0.08937649,
      0.859894,
      0.11157572,
      -0.043052804,
      0.5085246,
      -0.863608,
      0.179824,
      -0.27821106,
      0.35772455,
      -0.00025284747,
      -0.57741576,
      0.15951556,
      -0.3626018,
      0.6397533,
      0.29293516,
      -0.31786487,
      -0.5572154,
      -0.2501634,
      0.054011747,
      0.15009132,
      0.029747827,
      0.52714294,
      0.24551162,
      0.5776816,
      0.34347358,
      0.24714534,
      -0.18270129,
      -1.0192196
    ],
    [
      0.09205158,
      -0.10377438,
      -0.08317023,
      -0.027375665,
      0.7971223,
      0.8123228,
      -1.020957,
      0.42363888,
      1.11081,
      0.046731148,
      -1.4016044,
      -0.30862924,
      1.120927,
      0.42827523,
      0.3746339,
      0.2754393,
      0.08786313,
      -0.014527026,
      1.3451444,
      0.14100675,
      0.25891545,
      -0.2062769,
      1.042958,
      0.4548364,
      0.4650839,
      -0.36955038,
      -0.33979034,
      0.2189168,
      -0.15468128,
      1.2423695,
      -0.24404182,
      0.066040255,
      -0.42895827,
      -0.12851045,
      -0.04128038,
      -0.5501026,
      -0.1016099,
      0.088941135,
      0.6447521,
      0.5237171,
      0.62812656,
      0.06807844,
      -0.368819,
      0.7260359,
      -0.02966143,
      0.31229377,
      -0.06571981,
      -0.41351965,
      -0.21473776,
      0.4890435,
      1.1284174,
      0.0866944,
      0.031261858,
      0.2618567,
      0.7101659,
      0.573854,
      0.084036246,
      -0.2217948,
      0.33900607,
      -0.13368578,
      1.1874111,
      0.6683176,
      -0.06746224,
      0.10440899
    ],
    [
      1.0568316,
      0.53514594,
      -0.0031391568,
      0.21262886,
      -0.25465602,
      0.85724354,
      -0.08965786,
      0.6654521,
      0.066134,
      0.38926747,
      0.14033902,
      0.27875376,
      0.4059783,
      0.11472922,
      0.40208173,
      -0.24757399,
      0.42219776,
      -0.4972729,
      -0.6581764,
      -0.5219382,
      0.015209218,
      -0.7837352,
      -0.35238898,
      -0.1361539,
      0.1505357,
      0.31405896,
      0.6583967,
      0.023528386,
      -0.8812166,
      0.08204813,
      0.27362823,
      -0.67311996,
      0.6019864,
      -0.5077199,
      0.45089138,
      0.54328406,
      -0.44615036,
      1.387579,
      -0.5909306,
      0.16205421,
      -0.39521974,
      0.09397105,
      -0.16475202,
      0.11511812,
      1.0406218,
      0.7013793,
      -0.83274084,
      -0.20136581,
      -0.39539704,
      0.62090296,
      -0.08209182,
      0.072792485,
      -0.57845366,
      0.56196535,
      -0.03691763,
      -0.19122407,
      -0.34703726,
      0.6260829,
      0.18435167,
      0.60923594,
      -0.20064071,
      0.3531964,
      -0.9827947,
      -0.100634016
    ],
    [
      0.26528367,
      -0.77239203,
      -0.26589763,
      -0.20977072,
      0.36812598,
      0.52625936,
      -1.3317631,
      0.2666596,
      1.2491418,
      0.39351672,
      -1.306672,
      -0.06004597,
      0.89168006,
      0.061200462,
      -0.17315698,
      0.24811609,
      -0.28803033,
      -0.118536115,
      1.5598294,
      0.12397495,
      0.7178512,
      -0.10600971,
      1.1708083,
      -0.14636807,
      0.78069717,
      -0.14032745,
      -0.23092966,
      0.21390986,
      -0.099190235,
      0.663307,
      0.07880977,
      -0.047689464,
      -0.7598327,
      0.07072169,
      0.5367742,
      -0.6708359,
      -0.1675819,
      0.3207186,
      0.9445775,
      0.720283,
      0.40696737,
      0.10592629,
      -0.276335,
      0.65625393,
      -0.069179125,
      1.0490863,
      -0.44048032,
      -0.53346264,
      -0.2785025,
      0.20448995,
      0.6022491,
      0.59847504,
      -0.11636612,
      0.3210763,
      0.6653632,
      1.0002463,
      -0.24312022,
      -0.003998694,
      0.6329603,
      0.21035258,
      1.4872124,
      -0.03429305,
      -0.46744815,
      0.24155878
    ],
    [
      -0.040932003,
      -0.30110386,
      -0.037390303,
      0.027093213,
      -0.17202151,
      1.5687782,
      -0.49079314,
      1.3807821,
      0.36962724,
      1.4516451,
      -0.06403675,
      1.1321163,
      0.33361253,
      0.27236232,
      0.057422563,
      0.6610209,
      -0.5967978,
      -0.19028324,
      0.21695873,
      0.22968175,
      1.0489455,
      0.23025867,
      0.080904186,
      0.7030014,
      1.3093601,
      -0.09547645,
      0.7307071,
      0.7717535,
      -1.386992,
      0.37918198,
      0.86629117,
      0.6420168,
      -0.10079447,
      0.41899094,
      0.82400167,
      -0.17557628,
      -1.0886374,
      1.8592147,
      0.30007353,
      1.0281714,
      -0.0832884,
      -0.37028456,
      -0.48032668,
      0.4297863,
      0.79775923,
      1.0823417,
      -0.795633,
      -0.42852715,
      -0.79234356,
      1.1045303,
      -0.028643642,
      0.21901202,
      -0.21510321,
      1.354254,
      0.06308889,
      0.4345356,
      -1.0780435,
      0.3747466,
      0.4345826,
      0.3486327,
      0.5882095,
      0.6828582,
      -1.3870374,
      -0.39821315
    ],
    [
      -1.6687253,
      0.69063157,
      0.3340905,
      -0.10932138,
      -1.4739089,
      0.8313619,
      0.34883592,
      0.6979673,
      -0.016182,
      0.47272277,
      1.1462907,
      -0.3077614,
      0.095413655,
      0.48637155,
      -0.26812395,
      -0.0119366,
      -0.8761977,
      -0.0972972,
      -0.4130582,
      1.8015568,
      -0.31378156,
      1.7292312,
      -0.6900545,
      0.3070748,
      0.5662136,
      -0.22412217,
      0.20930073,
      0.24963322,
      -0.20636857,
      -0.6408251,
      -0.16077149,
      2.211956,
      1.4602964,
      0.6420861,
      0.541979,
      0.260923,
      -0.4926189,
      0.5351144,
      -0.5404076,
      0.33271453,
      -0.20634724,
      -0.024157342,
      -0.43852216,
      0.009049359,
      0.83465165,
      -0.4778465,
      0.040895224,
      0.17584354,
      -0.4328183,
      0.011927787,
      -1.142643,
      1.326937,
      -0.099879764,
      0.40234822,
      0.26294857,
      -0.4001827,
      -0.59940225,
      -0.57800317,
      0.25422376,
      0.0899049,
      -0.8861681,
      0.22192606,
      -0.6171445,
      -0.2012447
    ],
    [
      -0.35337177,
      0.3959247,
      -0.33487424,
      0.37391067,
      -0.7198784,
      -1.0887908,
      0.7124395,
      -0.9064741,
      -0.94374055,
      0.03677532,
      1.2852858,
      0.17424491,
      -1.5875995,
      -0.25855732,
      0.22308245,
      -0.063317284,
      -0.10265646,
      -0.5436716,
      -1.2095027,
      0.24354008,
      -0.37271163,
      0.04762444,
      -0.89737767,
      -0.28185418,
      -0.24894176,
      0.077935874,
      -0.079880826,
      0.266784,
      0.4327178,
      -0.83606744,
      0.2864945,
      -0.06887868,
      0.6017901,
      -0.0014283527,
      -0.34036127,
      0.92570746,
      -0.020484475,
      -0.2671942,
      -0.66887736,
      -0.38104567,
      -0.80698097,
      -0.07501178,
      0.71035814,
      -0.5282222,
      -0.07251798,
      -0.036656253,
      0.005208143,
      0.5755762,
      0.45963156,
      -0.5426223,
      -0.7679808,
      -0.010055819,
      -0.07253803,
      -0.5260047,
      -0.5426523,
      -0.17099108,
      0.2984311,
      0.22464488,
      -0.679111,
      -0.07143882,
      -0.8019992,
      -0.32505953,
      0.14922361,
      -0.19611034
    ],
    [
      -0.36007336,
      -0.44313088,
      0.63493216,
      -0.22634883,
      0.3407991,
      0.47714493,
      -1.1755952,
      0.33857676,
      1.6728423,
      1.0808573,
      -0.6418516,
      -0.35829604,
      0.4479928,
      0.63001126,
      -0.2036632,
      -0.44929773,
      -0.33919758,
      0.6184736,
      1.4032121,
      0.22068164,
      1.3120542,
      0.5497031,
      0.34659842,
      -0.12067513,
      1.2893405,
      -0.78729075,
      -0.18112032,
      -0.15414108,
      -0.115659215,
      0.41088417,
      -0.5887479,
      0.865501,
      0.2999329,
      0.5021426,
      0.9830584,
      0.07665967,
      0.43145,
      -0.046808857,
      0.39642787,
      0.1322618,
      -0.5616231,
      0.1436385,
      -0.18220197,
      0.74178326,
      0.014369796,
      0.62299037,
      -0.59217,
      -1.018028,
      -0.15186273,
      0.015570373,
      -0.1192705,
      0.8388701,
      -0.18014257,
      0.07362737,
      0.054965414,
      1.2656078,
      -0.1590232,
      -0.24298267,
      0.5252703,
      -0.04494663,
      1.092757,
      -0.09330828,
      -0.9115548,
      0.38384
    ],
    [
      0.008285026,
      0.5531056,
      0.106949516,
      0.03939786,
      -0.31548572,
      -1.0648481,
      0.83298934,
      -0.54299223,
      -1.1528435,
      -0.5138629,
      1.7114348,
      -0.35756868,
      -1.2712746,
      -0.2807522,
      -0.1607827,
      -0.47836173,
      0.1308014,
      0.1334436,
      -1.7969915,
      0.02015194,
      -0.5770053,
      -0.110122845,
      -0.89114237,
      -0.18848898,
      -0.48130697,
      0.3712124,
      0.26674902,
      0.09482839,
      -0.4591856,
      -0.847331,
      0.105369076,
      0.2695457,
      0.26237622,
      -0.15312213,
      -0.39302632,
      0.5823194,
      0.14462222,
      -0.13554883,
      -0.80402696,
      -0.7124711,
      -0.107452385,
      -0.31331852,
      0.3065735,
      -0.18442175,
      -0.17129092,
      -0.9899844,
      0.4322566,
      0.8339771,
      0.1590927,
      -0.14246203,
      -0.6411193,
      0.036427222,
      0.09365407,
      -0.18368505,
      -0.66152346,
      -0.57426685,
      0.49005246,
      0.28051984,
      -0.5330716,
      0.007535983,
      -1.7649176,
      0.005049558,
      0.21272434,
      0.008880074
    ],
    [
      -0.4925246,
      -0.43643013,
      0.13230011,
      0.40434542,
      -0.007569416,
      1.3605872,
      -0.7498727,
      1.2963032,
      0.34673482,
      1.4485716,
      -0.4535022,
      1.5020394,
      0.52999884,
      0.122400515,
      0.048731185,
      0.65165997,
      -0.37612665,
      0.120820045,
      0.6296509,
      0.4251778,
      0.9049339,
      0.6464325,
      -0.17782387,
      0.146103,
      0.8600287,
      -0.7822814,
      0.27317107,
      0.5385512,
      -0.9940052,
      0.36773488,
      1.2261766,
      -0.04860404,
      -0.118332215,
      0.38163772,
      1.521726,
      -0.20297323,
      -0.9789684,
      0.96365327,
      0.58757275,
      1.2986038,
      0.18618523,
      -0.14316325,
      0.26660645,
      0.58705467,
      0.98367935,
      1.7006477,
      -0.97314,
      -0.654135,
      -0.8048203,
      0.15002218,
      0.27449673,
      0.45487338,
      -0.45778975,
      1.7455795,
      0.704838,
      0.49399212,
      -0.63347334,
      -0.40136307,
      0.14561157,
      0.754235,
      0.27655703,
      0.3082671,
      -0.82355815,
      -0.32120782
    ],
    [
      0.06583433,
      -0.028863158,
      -0.054750934,
      -0.3349026,
      0.3846332,
      0.63834727,
      -0.77154315,
      0.76542157,
      1.2405534,
      -0.1702011,
      -1.4227422,
      -0.46486878,
      1.1998141,
      0.30397302,
      0.1247712,
      0.15193135,
      -0.15399617,
      0.047197983,
      1.7392777,
      -0.38109356,
      0.15901983,
      0.10683102,
      1.3709861,
      0.31393024,
      0.5080928,
      0.071097985,
      0.12832542,
      -0.040879752,
      -0.23002246,
      1.1398718,
      -0.057801057,
      -0.053899154,
      -0.65784156,
      -0.29524088,
      -0.23719929,
      -0.63080484,
      0.09214963,
      0.3326442,
      0.9680277,
      0.23206432,
      0.5939121,
      0.12423343,
      -0.6910939,
      0.31949478,
      0.017318849,
      0.7220556,
      -0.23313974,
      -0.74956596,
      -0.3831048,
      0.34159642,
      0.84892124,
      0.07628233,
      -0.12987642,
      0.1614666,
      0.45280483,
      0.46036926,
      0.17126745,
      -0.27457199,
      0.7009444,
      -0.10908985,
      0.7956135,
      0.13789809,
      -0.5112363,
      0.18922399
    ],
    [
      0.5656324,
      -0.31516442,
      -0.2206476,
      0.09707202,
      0.504017,
      0.6409327,
      -1.0153856,
      0.89138436,
      0.87864214,
      0.6216158,
      -0.89223397,
      0.105305575,
      1.3891056,
      0.46139506,
      0.3377914,
      0.20244971,
      -0.6580213,
      0.094328195,
      1.0543091,
      -0.057557315,
      0.3576272,
      -0.05637332,
      1.1728837,
      0.4846211,
      0.7085876,
      -0.53157187,
      -0.17003915,
      0.08406698,
      -0.33647057,
      1.2259344,
      -0.18759719,
      -0.35190353,
      -0.5751423,
      -0.29110456,
      0.41228196,
      -1.3020118,
      0.10197652,
      0.14538826,
      0.9799286,
      0.28841344,
      0.7829269,
      -0.076178536,
      -0.70749116,
      0.28193435,
      0.26038063,
      0.74166393,
      -0.28480974,
      -0.8022696,
      0.10447283,
      0.10796529,
      0.684564,
      0.2717694,
      -0.029902458,
      0.484634,
      0.88003725,
      0.3672425,
      -0.20547657,
      -0.29227683,
      0.59039176,
      -0.25407636,
      1.0627578,
      0.2888873,
      -0.33941135,
      -0.17967111
    ],
    [
      -0.98830193,
      -0.16811198,
      0.28436986,
      -0.3454672,
      0.16469277,
      -1.3417022,
      0.31827164,
      -0.66555876,
      -0.22390828,
      -0.30567965,
      -0.7349167,
      -0.6629149,
      -0.27397358,
      0.05068592,
      -0.5321882,
      -0.0052479045,
      -0.39619586,
      0.89978343,
      0.3121717,
      0.76285124,
      -0.48058343,
      1.1110647,
      0.31313282,
      0.44766644,
      -0.17312504,
      -0.062320072,
      -0.63296616,
      -0.36037636,
      0.3916057,
      0.011491616,
      -0.13656384,
      0.80036503,
      -0.26195246,
      0.4655748,
      -0.4405848,
      -0.5848731,
      0.62894714,
      -0.57293403,
      -0.22788362,
      -0.08861481,
      0.013231095,
      0.5251654,
      0.21131,
      0.04946843,
      -0.85157746,
      -0.75596625,
      0.8279633,
      0.34827217,
      0.36023557,
      -0.5473934,
      0.18934177,
      -0.033008322,
      0.2708218,
      -0.4593314,
      0.24797769,
      0.22098267,
      0.398522,
      -0.59992296,
      -0.35416844,
      -0.40661368,
      0.46172497,
      -0.32099637,
      0.6156378,
      0.5025357
    ],
    [
      -0.015624006,
      -0.4653012,
      0.3124096,
      -0.36156058,
      -0.62484336,
      -0.27019906,
      -0.26937717,
      0.15137924,
      1.4409499,
      0.6321581,
      -0.026152555,
      -0.41973573,
      0.37884718,
      0.59559715,
      -0.3334128,
      0.20475182,
      -0.7618214,
      0.33860484,
      0.8581254,
      0.2000602,
      0.803445,
      0.08355218,
      -0.13042542,
      -0.010132034,
      0.8358798,
      -0.8897661,
      -0.08400013,
      -0.12622514,
      -0.033244055,
      0.1142725,
      0.018880976,
      -0.1396302,
      0.5603391,
      0.29986453,
      0.37589097,
      0.33851516,
      0.25251418,
      -0.5003403,
      0.47733417,
      -0.39319032,
      -0.14498693,
      0.24640787,
      0.41114607,
      0.978637,
      -0.40500724,
      0.05504217,
      -0.32832584,
      -0.75125116,
      0.3926826,
      -0.020556547,
      -0.052891675,
      0.09797242,
      -0.07477893,
      -0.37203366,
      0.006882468,
      1.0046475,
      0.32656264,
      0.187161,
      0.71833503,
      -0.25704062,
      0.59134257,
      0.3498029,
      -0.62747306,
      -0.11407761
    ],
    [
      -0.103075735,
      0.23876543,
      -0.2629725,
      -0.18232828,
      0.12632394,
      -1.0280819,
      0.35432148,
      -1.7286183,
      -0.42028466,
      -1.4085921,
      0.5603605,
      -1.5579455,
      -0.5078603,
      -0.82773244,
      -0.16791463,
      -0.5328561,
      0.37913045,
      -0.087276086,
      -0.37581182,
      -0.43226042,
      -0.13485517,
      -0.21951437,
      -0.43895835,
      -0.17279166,
      -0.96491,
      0.83827543,
      -0.61391264,
      -0.9312917,
      1.0779015,
      -0.36666512,
      -0.928498,
      -0.40649068,
      0.094662026,
      -0.30870387,
      -1.0437787,
      0.2180703,
      1.0047534,
      -1.83319,
      -0.66248834,
      -1.0884202,
      -0.51030236,
      0.47456288,
      -0.21503349,
      -0.263761,
      -1.2591496,
      -1.371231,
      0.29690877,
      0.8710119,
      0.44777843,
      -0.3487929,
      -0.14699039,
      -0.696343,
      0.44811222,
      -1.4466786,
      -0.6294202,
      -0.50877184,
      1.2450467,
      0.32812852,
      -0.522218,
      -0.77174133,
      -0.47318655,
      -0.37378237,
      0.9869294,
      0.08794488
    ],
    [
      -1.5106425,
      0.063057974,
      0.60523057,
      -0.80135334,
      -0.2646658,
      0.14509504,
      0.26552472,
      0.23632549,
      -0.2358324,
      0.42145047,
      0.058982726,
      -0.7914285,
      0.17260338,
      0.06950786,
      -1.1555473,
      0.12838311,
      -0.821425,
      1.5174206,
      -0.14295386,
      1.6589105,
      -0.21777844,
      1.453332,
      -0.46027967,
      0.05162908,
      0.09245438,
      0.10123428,
      -0.7038673,
      -0.7154285,
      0.05309554,
      -0.38939378,
      -0.74094856,
      1.4609971,
      -0.07121604,
      0.32852045,
      0.23232909,
      0.23099013,
      -0.2979232,
      0.22051197,
      0.14239246,
      0.2679613,
      -0.38033262,
      1.0737673,
      -0.0721377,
      -0.121091045,
      -0.505463,
      0.023371287,
      -0.06501395,
      -0.07348289,
      -0.3353688,
      -0.6431401,
      -0.64436835,
      0.54910296,
      0.8724004,
      0.6485011,
      0.22098505,
      -0.050668314,
      -0.5881772,
      -0.2810231,
      0.015908314,
      -0.78573614,
      -0.21712995,
      0.45961264,
      -0.16371304,
      0.7235142
    ],
    [
      -1.9889691,
      0.4500814,
      0.27995974,
      0.049767464,
      -1.4707774,
      0.19242892,
      0.05650393,
      0.71953267,
      -0.53217334,
      0.29840067,
      0.8685028,
      0.1629244,
      -0.11873524,
      1.1198905,
      -0.079265825,
      0.24090983,
      -1.2392697,
      0.40543804,
      -0.27028963,
      1.5509392,
      -0.12021286,
      1.575332,
      -0.5853743,
      0.2634511,
      1.0085404,
      -0.11296185,
      0.09034329,
      0.2752965,
      -0.15942699,
      -0.8983042,
      0.11272071,
      2.2193413,
      1.5516973,
      0.6332865,
      0.4093682,
      0.3947007,
      -0.44268048,
      0.65123194,
      -0.49380627,
      -0.12018951,
      0.046983637,
      -0.055647112,
      -0.047916718,
      -0.029195549,
      0.3877138,
      -0.13946187,
      0.12268338,
      -0.090956666,
      -0.38953927,
      0.3322143,
      -0.9908783,
      0.8386745,
      -0.015992042,
      0.69247055,
      0.49730974,
      -0.31755343,
      -0.7617064,
      -0.62678033,
      -0.01043978,
      0.10883858,
      -0.8700881,
      0.17167084,
      -0.7073672,
      -0.32738343
    ],
    [
      -0.43683606,
      -0.076750115,
      0.56066024,
      -0.019502169,
      0.6797626,
      1.6019115,
      -1.2109154,
      1.1326553,
      1.2462293,
      0.14061485,
      -0.77774245,
      0.23067549,
      1.0238302,
      -0.35196105,
      -0.25280732,
      -0.36679274,
      0.2812348,
      0.30286497,
      0.9217548,
      0.6190529,
      0.18306012,
      0.5126643,
      1.1278615,
      0.1837222,
      0.5902688,
      -0.3926373,
      -0.17380571,
      -0.37273818,
      -0.64304894,
      0.5271588,
      0.046644617,
      0.16940144,
      -0.53381526,
      0.369839,
      0.098363176,
      -0.45290008,
      0.1642435,
      0.51605654,
      0.35000977,
      0.6365338,
      0.25943747,
      0.24434759,
      -0.67090845,
      0.4845153,
      -0.24223985,
      0.94145226,
      -0.445949,
      -0.5914103,
      -0.5358715,
      0.26076537,
      0.5070401,
      -0.44469276,
      0.14078325,
      0.38073486,
      0.17120385,
      0.42871314,
      -0.40178356,
      0.07300241,
      0.5080351,
      0.13175178,
      0.45392215,
      0.2906198,
      -0.8415756,
      0.018238503
    ],
    [
      -0.11340913,
      -0.29649168,
      0.24847084,
      -0.29848066,
      0.15441832,
      0.61899483,
      -0.95572764,
      0.44731414,
      1.6172258,
      0.5875813,
      -1.0569905,
      0.027384484,
      0.6776059,
      0.3210797,
      0.15254624,
      0.09439077,
      -0.44439712,
      0.33363748,
      1.5330808,
      0.12859899,
      1.2691792,
      0.14479898,
      0.5084116,
      0.26246297,
      0.6916115,
      -0.7336445,
      0.11183832,
      0.21442537,
      0.25073224,
      0.8102923,
      -0.26981422,
      0.26301426,
      -0.3500015,
      0.29757202,
      0.69854385,
      -0.11166402,
      0.40743276,
      -0.080328695,
      0.63951063,
      0.56546885,
      -0.11303481,
      0.41456798,
      -0.24277122,
      0.72585493,
      -0.04263056,
      0.7909963,
      -0.5249547,
      -0.5724003,
      -0.010639945,
      -0.16552868,
      -0.083342366,
      0.523682,
      0.22449812,
      1.0207956,
      0.35560665,
      0.8359682,
      0.039498847,
      -0.41922846,
      1.0030191,
      -0.17705336,
      1.536069,
      -0.20052429,
      -0.5910114,
      0.42010316
    ],
    [
      0.5634791,
      0.33483264,
      -0.3112449,
      0.3478321,
      -0.43810123,
      -1.134172,
      0.9179773,
      -0.7967166,
      -0.535938,
      -1.2477765,
      0.28670746,
      -0.92537165,
      -0.4084638,
      0.03992445,
      0.12716785,
      0.41411173,
      0.24895166,
      -0.2160406,
      -0.81778276,
      -0.44634637,
      -0.7102043,
      -0.33630422,
      -0.769913,
      0.23747844,
      -0.65934104,
      0.39143968,
      -0.36117047,
      0.23979643,
      0.07225359,
      -0.72487175,
      -0.6550323,
      -0.533241,
      0.22392595,
      -0.49841076,
      -0.7784042,
      0.43160245,
      -0.21861292,
      -0.31411287,
      -0.8816339,
      -1.501359,
      0.076164685,
      -0.22930822,
      0.09171241,
      -0.7540876,
      -0.9587453,
      -1.3098285,
      0.39233634,
      0.6651011,
      0.15558599,
      0.15829773,
      -0.6469556,
      0.14933622,
      -0.097496495,
      -1.2778517,
      -0.35539243,
      -1.09492,
      -0.28318805,
      0.19787887,
      -0.14128837,
      -0.1136544,
      -0.5056357,
      -0.028910076,
      1.0917133,
      -0.21046624
    ],
    [
      -0.58202344,
      -0.5515579,
      0.57264435,
      0.027760869,
      -0.106788345,
      1.1254898,
      -0.90124923,
      0.693873,
      1.5837808,
      1.2583492,
      -1.0143224,
      0.5057948,
      0.37132412,
      0.1809787,
      -0.22167696,
      -0.16209766,
      0.15918955,
      0.4245492,
      0.90385395,
      0.33119074,
      1.1737064,
      0.36598444,
      0.44310436,
      0.046054333,
      0.51938367,
      -0.38450733,
      -0.19159344,
      -0.2038188,
      0.02449144,
      0.25477752,
      0.1572051,
      0.691047,
      -0.13044555,
      0.2549032,
      1.46507,
      -0.41055682,
      0.28967643,
      0.21124558,
      0.59637636,
      0.93297404,
      -0.09799925,
      0.1706893,
      -0.27686203,
      0.7730327,
      0.5828685,
      1.555183,
      -0.9107355,
      -0.62687796,
      -0.02831738,
      0.05953827,
      0.29835844,
      0.08161035,
      0.30422828,
      1.115216,
      0.2992807,
      1.3944466,
      0.3386223,
      0.10239681,
      0.51105034,
      0.07578688,
      0.7129865,
      0.20323806,
      -1.0114914,
      0.051217176
    ],
    [
      -0.21997756,
      -0.8852938,
      0.42724064,
      -0.4360439,
      -0.39101073,
      0.7949716,
      -0.98128223,
      0.94104064,
      1.7347866,
      1.2386012,
      -0.6634696,
      0.24966028,
      -0.09928961,
      0.57893085,
      0.26514968,
      -0.18383661,
      -0.3285835,
      0.12990616,
      0.653339,
      0.3230915,
      1.3417723,
      0.4773333,
      -0.061927367,
      -0.43746504,
      1.0405023,
      -0.827106,
      -0.19238782,
      -0.19581164,
      0.067134455,
      0.58506167,
      0.0076366984,
      0.3633935,
      -0.2676724,
      0.53342,
      0.9497274,
      -0.0867229,
      0.23390405,
      0.2839951,
      0.6356101,
      0.5905807,
      -0.50929886,
      0.25630048,
      0.009713329,
      1.469505,
      0.08616721,
      1.2100042,
      -1.1078446,
      -1.3848084,
      0.29943,
      0.09546142,
      -0.21981458,
      0.5079424,
      -0.10747386,
      0.96130973,
      -0.060635407,
      1.5190406,
      -0.34055746,
      -0.37228963,
      0.84792936,
      -0.096407466,
      0.75430447,
      0.091109514,
      -0.42530736,
      -0.0009862662
    ],
    [
      0.29443017,
      0.2999787,
      -0.21468987,
      0.26980928,
      -0.50149083,
      -0.57677704,
      0.67715627,
      -0.4938424,
      -1.2166424,
      -0.29128096,
      1.1158998,
      0.23340671,
      -0.9789904,
      -0.60104764,
      0.1350346,
      -0.36488,
      0.004072771,
      -0.25003842,
      -1.1014063,
      -0.12657972,
      -0.91907626,
      -0.30404106,
      -0.9436847,
      0.17099255,
      -1.1241347,
      0.46405807,
      0.3083248,
      0.09386146,
      0.41898534,
      -0.9545279,
      0.24453281,
      -0.17823936,
      0.27401966,
      -0.32837152,
      -0.5870466,
      0.254478,
      -0.22988273,
      -0.35972235,
      -0.7609635,
      -0.57336533,
      -0.040224865,
      0.099694714,
      0.6659137,
      -0.5976275,
      0.33367294,
      -0.679777,
      0.5144061,
      0.48225394,
      0.017676836,
      -0.09425206,
      -0.47091436,
      -0.37024266,
      0.36949888,
      -0.6620879,
      -0.66237545,
      -0.7820684,
      0.21603364,
      0.64669746,
      -0.47088727,
      0.282681,
      -0.5523482,
      -0.4937579,
      0.84847397,
      -0.28879598
    ],
    [
      1.8981433,
      -0.1608298,
      -1.6173052,
      1.2138284,
      0.54743445,
      -0.31842166,
      -0.062222164,
      -0.21691194,
      0.31715113,
      -0.65597117,
      -0.42720407,
      0.5297195,
      -0.010176036,
      -0.2535569,
      0.83018905,
      -0.08951346,
      0.020800967,
      -1.5560149,
      -0.085293725,
      -2.189576,
      0.08718775,
      -1.9440217,
      0.23185062,
      -0.22287753,
      -0.43084747,
      0.07947589,
      0.4545326,
      0.14955723,
      -0.109280676,
      0.13296357,
      0.8258195,
      -1.3588055,
      -0.25983778,
      -1.2645562,
      -0.23048139,
      -0.011921984,
      -0.15309703,
      0.5815837,
      0.14646393,
      -0.18427679,
      0.23803483,
      -0.5872165,
      0.14369228,
      0.42869356,
      -0.12381795,
      -0.44163334,
      0.56493235,
      -0.13520649,
      -0.14252123,
      0.2482343,
      0.27875698,
      -0.37792853,
      -0.3886035,
      -0.63688016,
      -0.36391082,
      -0.055498686,
      0.032706495,
      0.2027455,
      -0.13166013,
      0.32010835,
      0.23789456,
      0.22031453,
      0.49044475,
      -0.620545
    ],
    [
      -1.7813641,
      0.090894766,
      0.7937296,
      -0.98358095,
      -0.5526945,
      0.120820664,
      0.43789196,
      0.2505708,
      -0.106829755,
      0.5293049,
      0.70441324,
      -0.37873748,
      0.029725382,
      0.18829209,
      -1.104023,
      0.34075773,
      -0.22727604,
      1.197949,
      -0.09852343,
      1.8448164,
      -0.066004425,
      1.7882103,
      -0.75087816,
      -0.06184105,
      0.19504109,
      0.063341014,
      -0.6811339,
      -0.33684093,
      0.34193382,
      -0.37203607,
      -0.7003751,
      1.4381014,
      0.08112103,
      0.05397441,
      0.6654446,
      -0.11841729,
      -0.37478843,
      -0.4741953,
      -0.13946456,
      0.4348144,
      -0.49793342,
      0.9010892,
      0.3702341,
      0.076193154,
      -0.53984356,
      0.3849596,
      0.22929025,
      0.21312104,
      0.4809968,
      -0.5399734,
      -0.48986727,
      -0.4461817,
      0.9017307,
      0.10263539,
      0.11217754,
      -0.25772414,
      -0.28378224,
      -0.6298722,
      0.17555313,
      -0.7550113,
      -0.20636712,
      0.20673563,
      -0.39800856,
      0.46021673
    ],
    [
      -1.8474622,
      0.040068284,
      1.2948318,
      -0.8489051,
      -0.42052603,
      0.30784014,
      0.2222925,
      0.5079485,
      -0.10751267,
      0.86723256,
      0.5049239,
      -0.66546434,
      0.47606587,
      0.14229846,
      -1.237366,
      0.5182955,
      -0.45015034,
      1.4733999,
      -0.17568894,
      1.8139714,
      -0.22112805,
      1.9882377,
      -0.54314256,
      -0.22994356,
      0.6123072,
      -0.058895897,
      -0.87124294,
      -0.6426345,
      0.6144021,
      -0.113568656,
      -0.30231208,
      1.5013199,
      -0.036675647,
      0.29686245,
      0.4520139,
      0.24417819,
      0.05280892,
      -0.560245,
      -0.14152001,
      0.2514315,
      -0.27664372,
      0.5803352,
      -0.16475038,
      0.12070736,
      -0.20896739,
      -0.030148212,
      -0.078277886,
      0.11977781,
      0.10890745,
      -0.46914446,
      -0.63131,
      0.23299229,
      0.59007615,
      0.61142117,
      0.40034336,
      -0.066237286,
      -0.458907,
      -0.28758398,
      -0.30070543,
      -1.0077653,
      0.040472902,
      -0.38198465,
      -0.23519352,
      1.2384926
    ],
    [
      1.2746994,
      0.32672158,
      -1.5943632,
      1.0311797,
      0.11183619,
      -0.061018206,
      -0.09523875,
      -0.58966506,
      0.08145715,
      -0.21512823,
      -0.20306525,
      0.49420038,
      -0.1549131,
      -0.3021386,
      0.73757505,
      0.15987717,
      0.040756773,
      -1.701355,
      0.092413336,
      -2.468188,
      0.021170978,
      -2.1939821,
      0.7868063,
      0.46097258,
      -0.40775496,
      0.2615739,
      0.3815652,
      0.49505016,
      0.1599208,
      0.25910747,
      0.5773277,
      -1.7025676,
      -0.4584219,
      -0.9810582,
      -0.13343902,
      -0.25011754,
      -0.26808518,
      0.3368092,
      0.11686919,
      -0.19860162,
      0.51860094,
      -0.2153512,
      0.10900976,
      0.23296426,
      -0.12797198,
      -0.314918,
      0.2950484,
      -0.056749098,
      -0.0125317015,
      0.6395883,
      0.5544184,
      -0.41940525,
      -0.6305621,
      -0.1410314,
      -0.14742482,
      0.0030488586,
      -0.06748778,
      0.26111278,
      0.0059781168,
      0.6773271,
      -0.08478631,
      0.48019692,
      0.48743248,
      -0.49961665
    ],
    [
      -0.08601408,
      -0.4433354,
      0.13893154,
      -0.16265298,
      0.88126594,
      1.1276338,
      -0.91712815,
      0.73578626,
      1.1676185,
      0.3872006,
      -1.2702328,
      0.16335334,
      0.9006324,
      0.042155024,
      -0.22278672,
      0.052466158,
      0.050998453,
      0.030432861,
      1.3372737,
      0.24632727,
      0.13031958,
      -0.31966707,
      0.9419977,
      0.26434913,
      0.5306766,
      -0.26935914,
      0.019864138,
      0.15130353,
      -0.28651065,
      1.1114237,
      0.5197245,
      0.26994544,
      -0.5483904,
      0.102789834,
      0.9164669,
      -0.5575893,
      -0.07641607,
      0.082465015,
      0.70263743,
      0.78237784,
      0.34259763,
      0.19462328,
      -0.8272603,
      0.43299282,
      0.44937712,
      1.1401141,
      -0.7256521,
      -1.0733291,
      -0.038356367,
      0.13840073,
      0.6619762,
      -0.16166064,
      0.010186634,
      0.9418978,
      0.3139059,
      0.23105279,
      -0.4722593,
      -0.47962123,
      0.33606952,
      0.3746975,
      1.0664047,
      0.023915216,
      -0.3411953,
      0.051058017
    ],
    [
      0.13588354,
      0.71039104,
      -0.33667383,
      0.18794139,
      0.08945512,
      -0.28013194,
      0.4429427,
      -0.68051463,
      -1.6735822,
      -0.9907056,
      0.30843124,
      -0.12672316,
      0.020552056,
      -0.6029086,
      0.22193933,
      0.27525175,
      0.3433148,
      -0.32050914,
      -0.76763046,
      -0.074170806,
      -1.9478226,
      0.022864323,
      -0.30816337,
      0.046661817,
      -1.4785131,
      0.9548026,
      0.1869939,
      -0.028155226,
      -0.084724024,
      -0.4521383,
      -0.07674221,
      0.122649014,
      -0.47357175,
      -0.16364102,
      -0.6522155,
      -0.014753747,
      -0.032835655,
      -0.034261312,
      -0.25127816,
      -0.2058424,
      0.32954043,
      -0.023428885,
      -0.4124977,
      -1.0208818,
      -0.41419062,
      -0.33734196,
      1.2067492,
      1.3918772,
      -0.6811145,
      -0.03734752,
      0.28887933,
      -0.93612576,
      -0.50078946,
      -0.2906627,
      0.059361193,
      -1.8274316,
      0.0664787,
      0.47836885,
      -0.87412614,
      0.25828323,
      -0.43552682,
      0.15016055,
      0.75016713,
      -0.105575636
    ]
  ],
  "shared_fc2_bias": [
    -0.03523306,
    -0.18549484,
    -0.2901033,
    0.26044774,
    0.12668099,
    0.08349684,
    0.32500768,
    -0.26576447,
    0.040909044,
    -0.24282868,
    0.1861425,
    0.33112144,
    -0.40749827,
    -0.23290649,
    0.15095039,
    -0.21273237,
    -0.2446419,
    -0.0116817085,
    0.16949315,
    0.38445446,
    -0.07080083,
    -0.2594415,
    -0.0016175715,
    0.089567184,
    0.2945305,
    -0.19425267,
    -0.06801662,
    -0.15291263,
    -0.12440463,
    -0.22499956,
    0.3639591,
    -0.0025187114,
    -0.10375514,
    -0.24990143,
    0.17107992,
    -0.27206364,
    -0.17714126,
    0.20346528,
    -0.090345904,
    -0.41181493,
    0.38873577,
    -0.070386484,
    0.08607604,
    0.15358204,
    -0.12857503,
    -0.050001178,
    -0.25656083,
    -0.12030696,
    0.034730956,
    0.16696328,
    0.03859685,
    0.25436717,
    0.14113298,
    -0.03696447,
    -0.22129585,
    0.20552613,
    -0.0040377905,
    -0.12992708,
    -0.19233711,
    0.33421707,
    0.09063386,
    -0.11874279,
    0.11673962,
    0.06611949
  ],
  "policy_weight": [
    [
      0.054577574,
      -0.051746182,
      -0.51692116,
      -0.07737028,
      -0.02396212,
      -0.2950869,
      -2.4974823,
      -0.014249352,
      -1.3525279,
      0.7301835,
      -0.11649676,
      0.27833644,
      0.43724358,
      0.06628615,
      -0.04698794,
      0.122597516,
      0.07555248,
      -0.041493062,
      -0.056138024,
      -0.39476565,
      -0.23998041,
      0.042628616,
      -0.05047925,
      0.148638,
      -0.28138834,
      0.32700202,
      0.05507045,
      -0.06080069,
      1.466217,
      -0.17928262,
      0.241106,
      -0.12518765,
      -0.016781844,
      0.051830206,
      0.037115827,
      0.06933856,
      0.2152758,
      -0.034619678,
      0.06046881,
      -0.9158832,
      -0.45658773,
      -0.199134,
      -0.00020263916,
      -0.03402055,
      -0.44887412,
      0.20901783,
      0.13435324,
      0.09244477,
      -0.22018497,
      0.14418796,
      0.04216932,
      -0.40689534,
      0.024904128,
      -0.010736619,
      0.16639851,
      -0.25880426,
      -0.16141073,
      0.04689293,
      0.10498667,
      -0.1543746,
      0.0020749117,
      0.029355956,
      0.045499776,
      0.08330206
    ],
    [
      -0.05364455,
      0.05147714,
      0.5193179,
      0.077854194,
      0.026611041,
      0.29528332,
      2.4961107,
      0.013410674,
      1.3516649,
      -0.7293051,
      0.117456615,
      -0.27800798,
      -0.43564045,
      -0.06360333,
      0.050665155,
      -0.124528974,
      -0.07822005,
      0.04161301,
      0.05980012,
      0.3955513,
      0.24459882,
      -0.043920223,
      0.052606847,
      -0.14746426,
      0.28176054,
      -0.3283609,
      -0.053993113,
      0.061904524,
      -1.4651573,
      0.1794894,
      -0.24173042,
      0.12484103,
      0.016142067,
      -0.052966908,
      -0.037685387,
      -0.07059427,
      -0.21336003,
      0.03324498,
      -0.061293595,
      0.91437,
      0.4574719,
      0.2005888,
      -0.00028736115,
      0.035238694,
      0.45050943,
      -0.20576747,
      -0.13685802,
      -0.09393917,
      0.2214431,
      -0.1407374,
      -0.041818846,
      0.40312555,
      -0.02750547,
      0.009441724,
      -0.16800088,
      0.26041842,
      0.16173722,
      -0.04656029,
      -0.10503378,
      0.15463386,
      -0.004919138,
      -0.027038572,
      -0.047306303,
      -0.082402304
    ]
  ],
  "policy_bias": [
    -0.00000627205,
    -0.03623617
  ],
  "value_weight": [
    [
      -1.7649354,
      -1.7519236,
      -1.8010882,
      1.7500671,
      -1.7028322,
      1.8553431,
      -0.0018473841,
      -1.7647628,
      -1.4977192,
      -1.8731513,
      1.7493964,
      1.7787654,
      -2.014922,
      -1.7595924,
      1.7640837,
      -1.7961954,
      -1.7353282,
      -1.7368163,
      1.7766714,
      1.9127009,
      -1.7748145,
      -1.7369597,
      -1.7517209,
      1.7430589,
      1.8566228,
      -1.7858858,
      1.7889826,
      -1.7775705,
      -1.2839285,
      -1.6585325,
      1.7486738,
      1.7609354,
      -1.7261152,
      -1.7694751,
      1.756962,
      -1.7387166,
      -1.7486677,
      -1.705122,
      -1.7638099,
      -1.8576529,
      1.910769,
      1.7567971,
      -1.7109778,
      1.7673366,
      -1.7981817,
      -1.7326874,
      -1.7928624,
      1.73961,
      -1.4399046,
      1.7269408,
      1.7682003,
      1.8723375,
      -1.7708123,
      -1.7559487,
      1.7533168,
      -1.7854966,
      -1.7890618,
      1.7155304,
      -1.7452635,
      1.7418445,
      1.7400736,
      -1.7526609,
      -1.7823681,
      1.683689
    ]
  ],
  "value_bias": [
    1.5424808
  ]
}