{
  "obs_dim": 4,
  "action_dim": 2,
  "hidden_dim": 256,
  "activation": "Tanh",
  "metadata": {
    "total_steps": 5241070,
    "total_episodes": 11187,
    "final_performance": 468.49646911593817,
    "training_time_secs": 0.0,
    "device": "Cuda(0)",
    "environment": "CartPole-v1",
    "algorithm": "PPO (GPU-optimized)",
    "timestamp": "2025-11-07T21:50:17.577651030+00:00",
    "hyperparameters": {
      "ent_coef": 0.0151,
      "hidden_dim": 256,
      "learning_rate": 0.000247,
      "clip_range": 0.2,
      "num_envs": 8,
      "gae_lambda": 0.95,
      "n_steps": 128,
      "gamma": 0.9717,
      "batch_size": 256,
      "n_epochs": 20
    },
    "notes": "Trained with hyperparameters validated through 3.5M-step stability testing (445.3 steps/ep)"
  },
  "shared_fc1_weight": [
    [
      -0.18526626,
      -0.01005191,
      0.73693496,
      0.06990284
    ],
    [
      -0.09932277,
      0.038662583,
      -1.0456191,
      -0.07996765
    ],
    [
      -0.22876084,
      -0.18625069,
      0.15625346,
      0.059728548
    ],
    [
      0.0901313,
      0.021116713,
      -0.72159296,
      -0.01873293
    ],
    [
      0.06642813,
      0.35504937,
      -0.0003046501,
      0.05390793
    ],
    [
      -0.17458884,
      -0.22634386,
      0.29107273,
      0.073768966
    ],
    [
      -0.35357523,
      0.3368727,
      -1.0545969,
      0.4325047
    ],
    [
      -0.22181764,
      -0.04914287,
      -1.1601214,
      -0.20625022
    ],
    [
      0.05788571,
      0.08302116,
      -0.8604133,
      -0.12542538
    ],
    [
      -0.03678421,
      -0.08761348,
      -0.8265499,
      -0.17410317
    ],
    [
      -0.107055664,
      -0.32519302,
      1.0016294,
      -0.03896609
    ],
    [
      0.2959608,
      0.0472741,
      -0.59008265,
      -0.2007918
    ],
    [
      -0.2349555,
      -0.0783293,
      0.46682277,
      0.11987268
    ],
    [
      0.3685646,
      0.18742654,
      -0.4985734,
      -0.055314526
    ],
    [
      0.11222096,
      0.06678351,
      -0.9738788,
      -0.038797233
    ],
    [
      0.06454289,
      0.20691459,
      1.165839,
      0.24023469
    ],
    [
      0.054838378,
      0.049016245,
      1.0421683,
      -0.17299442
    ],
    [
      0.07638084,
      0.1674258,
      0.4863898,
      0.18061177
    ],
    [
      -0.12112451,
      -0.042143077,
      -1.0437007,
      0.031030284
    ],
    [
      -0.21222039,
      0.20987825,
      -0.7838762,
      0.035018757
    ],
    [
      -0.007226507,
      0.060014363,
      0.67829466,
      0.16413477
    ],
    [
      0.07829613,
      -0.0034810249,
      -0.614907,
      0.46786046
    ],
    [
      0.13163842,
      0.09668036,
      -0.17649682,
      -0.0041453727
    ],
    [
      0.29170322,
      -0.13332684,
      0.7199943,
      0.18853047
    ],
    [
      -0.27913797,
      -0.14581907,
      -1.0063457,
      -0.20101997
    ],
    [
      -0.13097203,
      -0.13939723,
      0.5312015,
      -0.014276547
    ],
    [
      -0.1643371,
      -0.025383895,
      0.956285,
      0.061913684
    ],
    [
      -0.0077065127,
      -0.22101943,
      0.8423835,
      -0.1788238
    ],
    [
      -0.08427436,
      -0.019285684,
      -0.9350635,
      -0.027578073
    ],
    [
      0.019685196,
      0.11097543,
      0.29171428,
      -0.060138542
    ],
    [
      -0.0058021173,
      -0.2079492,
      -0.9625016,
      -0.003894999
    ],
    [
      -0.21184517,
      -0.16464236,
      0.6704455,
      -0.10682014
    ],
    [
      -0.11220572,
      -0.101291396,
      -1.0654817,
      -0.19265707
    ],
    [
      0.16216132,
      0.09692787,
      -0.8524044,
      0.06541664
    ],
    [
      -0.2178398,
      0.049707968,
      0.42300314,
      0.25610527
    ],
    [
      -0.22528064,
      0.22870429,
      -0.75931096,
      -0.1594574
    ],
    [
      -0.108623736,
      -0.16276427,
      -1.0568231,
      -0.2080268
    ],
    [
      -0.19888242,
      -0.008028453,
      -1.1573718,
      -0.038716745
    ],
    [
      0.5244499,
      -0.24035203,
      -0.20954816,
      0.052092604
    ],
    [
      0.04007921,
      0.055884175,
      0.9222604,
      0.04132082
    ],
    [
      -0.025781563,
      -0.10374674,
      -0.6271097,
      -0.20066716
    ],
    [
      -0.21149269,
      -0.21360819,
      0.39233822,
      0.059419908
    ],
    [
      0.047916044,
      0.03742167,
      0.17101136,
      0.2459432
    ],
    [
      -0.17069833,
      0.0250204,
      -0.77692485,
      -0.13241005
    ],
    [
      0.25484836,
      0.21674378,
      -0.7918297,
      0.05703087
    ],
    [
      -0.21926647,
      0.04814272,
      0.72345996,
      0.20408215
    ],
    [
      -0.1874874,
      0.006230308,
      0.88162327,
      0.04198281
    ],
    [
      -0.061830204,
      -0.13860522,
      -1.1118861,
      -0.09752356
    ],
    [
      0.34092858,
      0.23436074,
      0.3954158,
      0.090757534
    ],
    [
      -0.09078556,
      -0.108757496,
      -0.79128337,
      -0.13684063
    ],
    [
      0.093381286,
      0.16967632,
      0.6453887,
      0.15232584
    ],
    [
      -0.08383446,
      -0.17013544,
      -0.9864001,
      -0.13790612
    ],
    [
      0.119005635,
      0.08673756,
      0.289652,
      0.23378241
    ],
    [
      -0.1780342,
      -0.073538266,
      0.34940854,
      -0.0027882128
    ],
    [
      -0.041507896,
      0.07546765,
      -1.2231498,
      0.032543734
    ],
    [
      -0.13150944,
      -0.3054927,
      -0.9975798,
      0.069694854
    ],
    [
      -0.11266687,
      -0.09551131,
      -1.006195,
      0.0737487
    ],
    [
      0.30370137,
      0.18764274,
      -0.7912589,
      -0.17781153
    ],
    [
      -0.118559614,
      -0.05745673,
      0.68823326,
      0.015148018
    ],
    [
      0.28861204,
      0.2373991,
      -0.25333795,
      -0.11564404
    ],
    [
      -0.33146095,
      -0.09490461,
      0.21277969,
      -0.16515833
    ],
    [
      -0.075678214,
      -0.05220349,
      -0.961447,
      -0.16711558
    ],
    [
      0.2980359,
      0.1826602,
      -0.6048938,
      0.020893706
    ],
    [
      0.2216769,
      0.28950882,
      -0.19157007,
      0.084131315
    ],
    [
      0.100520164,
      0.06537793,
      0.7707776,
      0.011172447
    ],
    [
      -0.28444734,
      -0.33358806,
      1.1868768,
      0.04294306
    ],
    [
      0.15805635,
      0.16019295,
      -0.7923952,
      0.01995492
    ],
    [
      0.15021586,
      -0.115523316,
      0.4449235,
      0.088230915
    ],
    [
      0.16583702,
      0.044640206,
      1.5423136,
      -0.16059805
    ],
    [
      0.16708459,
      0.12548943,
      0.8813138,
      -0.147713
    ],
    [
      0.20285673,
      0.22214635,
      0.5077341,
      0.26424617
    ],
    [
      -0.0839639,
      -0.08424293,
      -0.47367615,
      -0.12970524
    ],
    [
      -0.02172372,
      0.2131393,
      0.6022513,
      0.31883323
    ],
    [
      -0.19858287,
      0.0011593504,
      -1.0937892,
      0.2172544
    ],
    [
      -0.031769622,
      0.12328897,
      1.0316122,
      0.16005255
    ],
    [
      0.14200534,
      -0.012679326,
      -0.6639591,
      -0.17528883
    ],
    [
      -0.09416601,
      -0.1841427,
      0.7233609,
      -0.21706554
    ],
    [
      0.21615036,
      0.0280123,
      -0.4055457,
      -0.15212879
    ],
    [
      -0.017001757,
      -0.1439048,
      -0.45245916,
      -0.30127499
    ],
    [
      -0.16139087,
      -0.1909178,
      0.8325989,
      -0.062489193
    ],
    [
      -0.179495,
      -0.16296251,
      0.85173,
      -0.034116447
    ],
    [
      -0.3802097,
      -0.07734909,
      -0.08044766,
      0.04765199
    ],
    [
      -0.21845868,
      0.2015122,
      -0.32683417,
      0.025728235
    ],
    [
      -0.19337407,
      -0.11074113,
      -0.1039383,
      -0.24669617
    ],
    [
      0.06561268,
      0.09565532,
      -0.9125972,
      -0.1387052
    ],
    [
      0.055110306,
      -0.1748313,
      -0.8350974,
      -0.104457214
    ],
    [
      0.25133017,
      -0.11863714,
      -0.82984155,
      0.2015017
    ],
    [
      -0.23034291,
      -0.055028826,
      0.8975044,
      0.0020463308
    ],
    [
      0.098210484,
      -0.065477826,
      -0.7844343,
      -0.21689789
    ],
    [
      0.032699395,
      0.11378962,
      0.8532374,
      0.12811218
    ],
    [
      0.007708005,
      0.1673123,
      1.327156,
      0.07891617
    ],
    [
      0.20882298,
      0.026243431,
      0.6681943,
      0.14214978
    ],
    [
      0.32398236,
      0.23073706,
      -0.94581413,
      -0.03981096
    ],
    [
      0.1610053,
      -0.31045663,
      0.8579506,
      -0.19588651
    ],
    [
      0.36653516,
      -0.026513407,
      -0.62240285,
      -0.012433674
    ],
    [
      0.13363749,
      0.04030258,
      0.55395645,
      -0.010623252
    ],
    [
      0.056060407,
      0.34999475,
      0.2766312,
      0.10982724
    ],
    [
      0.17442605,
      -0.012025647,
      0.91866636,
      0.009100917
    ],
    [
      -0.11636172,
      -0.039245628,
      -0.8290672,
      -0.21120872
    ],
    [
      0.106019445,
      0.13670279,
      0.953785,
      0.32357964
    ],
    [
      -0.16335505,
      -0.037472293,
      -0.8869198,
      0.6530251
    ],
    [
      0.21956944,
      0.080049954,
      1.1065981,
      -0.07627902
    ],
    [
      0.25740623,
      -0.23181514,
      -0.65103424,
      0.10133492
    ],
    [
      0.24075261,
      -0.06519642,
      -0.8840349,
      -0.12409564
    ],
    [
      -0.16137278,
      -0.15060616,
      -0.77848554,
      -0.02667948
    ],
    [
      -0.03273561,
      -0.29096073,
      -1.0715936,
      -0.2792446
    ],
    [
      -0.27486157,
      -0.2548005,
      0.3633136,
      0.086201556
    ],
    [
      0.05080588,
      0.06705357,
      0.79158336,
      0.088717975
    ],
    [
      0.10702828,
      -0.24578506,
      -0.4660444,
      -0.42975628
    ],
    [
      0.2868766,
      -0.04131866,
      0.9622312,
      0.25603315
    ],
    [
      0.09215375,
      0.034952447,
      1.2738639,
      0.03868434
    ],
    [
      -0.056450557,
      0.13375458,
      0.82489187,
      0.2889928
    ],
    [
      0.013961892,
      -0.06680255,
      0.29920065,
      -0.29724866
    ],
    [
      -0.011196443,
      0.11486169,
      0.7194663,
      0.30840188
    ],
    [
      -0.12106206,
      -0.055514175,
      0.98821706,
      -0.3373353
    ],
    [
      -0.058066532,
      -0.16700068,
      1.2212818,
      -0.12923294
    ],
    [
      0.04333919,
      0.2839233,
      0.7016229,
      -0.11120735
    ],
    [
      0.043260995,
      0.2581009,
      1.2813538,
      -0.10914294
    ],
    [
      -0.06349025,
      -0.02913679,
      0.9994157,
      0.013900389
    ],
    [
      0.17111574,
      -0.05779293,
      1.5660735,
      -0.12370248
    ],
    [
      -0.121174484,
      -0.12852678,
      -0.31204262,
      -0.07684372
    ],
    [
      -0.1368117,
      0.29358137,
      0.88104385,
      -0.078989565
    ],
    [
      -0.124452464,
      -0.047551557,
      -0.3945429,
      -0.069627464
    ],
    [
      -0.2180806,
      -0.18755598,
      -0.74399734,
      0.149072
    ],
    [
      -0.13303337,
      0.032995813,
      -1.0114523,
      0.027047116
    ],
    [
      0.051048364,
      0.334305,
      -0.33452225,
      0.31754965
    ],
    [
      -0.006601982,
      -0.12182434,
      -0.888548,
      -0.08223975
    ],
    [
      -0.016073972,
      0.04423264,
      0.54327947,
      0.20116214
    ],
    [
      -0.09114621,
      0.11656662,
      1.0700618,
      -0.057217658
    ],
    [
      -0.32096156,
      0.09084769,
      -0.4373719,
      -0.058624025
    ],
    [
      -0.19213009,
      -0.19894391,
      0.56900513,
      0.011847947
    ],
    [
      -0.12173661,
      -0.24797171,
      -0.43647844,
      0.26275212
    ],
    [
      -0.021419834,
      0.19160219,
      -0.97528917,
      0.025836037
    ],
    [
      0.19547148,
      -0.21888283,
      -0.56099176,
      0.2174797
    ],
    [
      0.20644014,
      0.306429,
      -0.5879772,
      0.048404183
    ],
    [
      0.24465741,
      -0.14615078,
      0.66905004,
      -0.23112626
    ],
    [
      0.17953376,
      0.08783066,
      -0.61584646,
      0.0034614203
    ],
    [
      0.2030959,
      0.17896074,
      -0.5642618,
      0.003259192
    ],
    [
      -0.0060057,
      0.18896212,
      -0.9719039,
      -0.011584949
    ],
    [
      0.023531303,
      0.044223003,
      0.6224347,
      0.19128032
    ],
    [
      -0.23482993,
      -0.13523519,
      -0.8847165,
      -0.36079192
    ],
    [
      0.22255059,
      0.22719638,
      -0.4687839,
      0.07163876
    ],
    [
      0.00074608094,
      -0.1118637,
      -1.5456648,
      0.37765026
    ],
    [
      -0.12983565,
      -0.12092197,
      -0.20452024,
      -0.16470554
    ],
    [
      -0.10716144,
      -0.33597735,
      0.6116697,
      0.059706774
    ],
    [
      -0.12509514,
      -0.12248815,
      -0.5169106,
      -0.013879641
    ],
    [
      -0.07914043,
      -0.034821715,
      -0.8565584,
      -0.02730694
    ],
    [
      0.18296489,
      0.39828625,
      0.7486382,
      -0.0808047
    ],
    [
      0.018876567,
      0.15479362,
      1.0875771,
      0.12024577
    ],
    [
      0.056832746,
      0.18863174,
      0.91331714,
      0.05199807
    ],
    [
      0.0663354,
      0.091373466,
      0.2931975,
      0.2857253
    ],
    [
      -0.08045552,
      -0.27064848,
      -0.9682146,
      -0.21010773
    ],
    [
      -0.031929903,
      0.0889711,
      0.7746003,
      0.21650186
    ],
    [
      -0.14282821,
      -0.21932966,
      0.4936258,
      -0.29822913
    ],
    [
      0.17326656,
      0.1280306,
      -0.965579,
      0.0073606092
    ],
    [
      0.26002625,
      -0.17409685,
      -0.8385213,
      -0.20714179
    ],
    [
      -0.35752305,
      -0.20027156,
      0.21140471,
      0.27571908
    ],
    [
      -0.33224437,
      -0.12786677,
      0.3497806,
      0.03971468
    ],
    [
      -0.2081211,
      -0.26483446,
      -0.13549706,
      0.10980826
    ],
    [
      0.19148713,
      0.06030898,
      -0.19264016,
      -0.012393219
    ],
    [
      -0.17330249,
      0.03557537,
      -0.013501717,
      -0.08782873
    ],
    [
      -0.25700885,
      -0.04260774,
      -0.25380352,
      -0.2599583
    ],
    [
      0.033308398,
      -0.14697778,
      -0.6658059,
      -0.18400945
    ],
    [
      -0.26040003,
      -0.08107902,
      -0.45169538,
      0.06767899
    ],
    [
      -0.15336533,
      0.007935088,
      -0.7557898,
      -0.09771463
    ],
    [
      -0.077893406,
      -0.3118294,
      0.08120759,
      -0.019584877
    ],
    [
      -0.2924773,
      0.016695045,
      -0.66330034,
      -0.2303727
    ],
    [
      0.10923914,
      0.12190458,
      -0.43882486,
      0.25241616
    ],
    [
      -0.28046924,
      -0.14121106,
      0.7566071,
      0.044443134
    ],
    [
      0.1805411,
      0.13173869,
      -0.77783173,
      -0.11495361
    ],
    [
      0.041538127,
      0.08459554,
      -1.236042,
      0.07716498
    ],
    [
      0.017101165,
      0.015447498,
      0.960881,
      0.13534194
    ],
    [
      -0.17433387,
      -0.28646138,
      -0.447659,
      -0.32767728
    ],
    [
      0.17937517,
      0.067781635,
      1.2284541,
      0.042308707
    ],
    [
      -0.09665457,
      -0.07173694,
      -1.0957154,
      -0.10411751
    ],
    [
      -0.010829297,
      0.18133616,
      1.1265969,
      0.16380353
    ],
    [
      0.011950157,
      0.08496826,
      1.0316378,
      -0.01949357
    ],
    [
      0.21184602,
      -0.13407855,
      -1.0829939,
      -0.15488257
    ],
    [
      -0.2580529,
      -0.18889262,
      0.79904675,
      0.149606
    ],
    [
      0.17210391,
      0.10949036,
      0.41587996,
      -0.31591582
    ],
    [
      0.09478681,
      -0.36250827,
      -0.83311117,
      0.8796325
    ],
    [
      0.2705418,
      0.18020296,
      -0.8650013,
      -0.1816612
    ],
    [
      0.15245366,
      0.13141671,
      -0.78150076,
      0.033043846
    ],
    [
      0.12347792,
      0.1118275,
      0.551855,
      0.19759351
    ],
    [
      -0.07503894,
      -0.3206366,
      -1.0319453,
      -0.1794157
    ],
    [
      0.14116618,
      -0.12161346,
      -0.5765602,
      -0.41743395
    ],
    [
      0.0748214,
      0.14375576,
      0.947393,
      0.1857789
    ],
    [
      0.2451796,
      -0.058856595,
      0.86832035,
      0.20801814
    ],
    [
      -0.03303002,
      -0.31891125,
      -1.3253537,
      0.14517345
    ],
    [
      0.029128203,
      -0.17660631,
      -0.6439658,
      -0.19813664
    ],
    [
      -0.08699698,
      -0.056752346,
      -1.1801858,
      -0.08289792
    ],
    [
      0.26732728,
      0.1916065,
      -0.7465546,
      -0.13780622
    ],
    [
      -0.20910406,
      -0.06294956,
      -0.8239716,
      0.028343985
    ],
    [
      -0.08338357,
      -0.075800955,
      -0.9828797,
      0.009764571
    ],
    [
      0.19041005,
      0.15832444,
      0.6300626,
      0.18683638
    ],
    [
      0.32654092,
      0.24811558,
      -0.6896001,
      -0.15881264
    ],
    [
      0.30969226,
      0.08326099,
      0.28731066,
      -0.36153153
    ],
    [
      0.17540897,
      0.017373946,
      -0.35147336,
      0.09821643
    ],
    [
      0.06968261,
      -0.03262004,
      0.73861194,
      0.09758821
    ],
    [
      -0.10092263,
      -0.03167062,
      -0.05411163,
      -0.22225975
    ],
    [
      -0.2518474,
      -0.19773287,
      1.0578392,
      -0.01700181
    ],
    [
      0.0798218,
      0.11955536,
      0.50822264,
      0.21518789
    ],
    [
      -0.3257282,
      -0.12355766,
      0.8758282,
      0.20552403
    ],
    [
      0.12272936,
      0.40345588,
      0.83686393,
      -0.57915187
    ],
    [
      0.0069220145,
      -0.02723154,
      -0.78347594,
      -0.13677253
    ],
    [
      0.10328755,
      -0.00632942,
      0.6241086,
      0.21834719
    ],
    [
      0.15965195,
      -0.018241638,
      0.13665242,
      -0.10984184
    ],
    [
      0.19703014,
      0.08343663,
      -0.58399063,
      0.016235542
    ],
    [
      -0.21417408,
      -0.06887023,
      0.43879688,
      -0.023557391
    ],
    [
      -0.23208821,
      -0.24240837,
      0.5272029,
      0.09233435
    ],
    [
      0.09551231,
      0.15532357,
      -0.7041001,
      -0.04278015
    ],
    [
      0.06735113,
      0.18073389,
      1.1920053,
      0.12924315
    ],
    [
      -0.39343643,
      -0.076297894,
      0.15999044,
      -0.14319976
    ],
    [
      -0.02373169,
      0.15018769,
      -1.0693654,
      -0.06346055
    ],
    [
      0.06713857,
      0.067376204,
      1.0805334,
      0.11688374
    ],
    [
      -0.14588054,
      -0.08184674,
      -1.283698,
      -0.14832175
    ],
    [
      -0.059348196,
      -0.14831924,
      1.3491714,
      0.014721699
    ],
    [
      0.24061155,
      0.32117167,
      -0.75216216,
      0.010701222
    ],
    [
      -0.070744894,
      0.37229976,
      -0.10958117,
      -0.084871486
    ],
    [
      -0.30333304,
      -0.17210712,
      0.46471265,
      0.10232331
    ],
    [
      0.050108813,
      0.19800228,
      0.4602989,
      0.40209794
    ],
    [
      0.030252663,
      -0.34338322,
      0.43093905,
      -0.26333433
    ],
    [
      0.060837362,
      0.25179434,
      0.2912485,
      0.18727916
    ],
    [
      -0.18544921,
      -0.1342468,
      0.7260946,
      0.14025621
    ],
    [
      -0.09927522,
      -0.093981996,
      -0.5404989,
      -0.19070722
    ],
    [
      -0.08844519,
      -0.19039816,
      1.0140964,
      -0.054683153
    ],
    [
      0.1331395,
      0.3132872,
      0.21627256,
      0.3566175
    ],
    [
      -0.3284542,
      0.10711517,
      -0.9065224,
      0.20731218
    ],
    [
      0.06618383,
      0.13161197,
      1.4647844,
      0.019437807
    ],
    [
      -0.1974843,
      -0.10359464,
      0.2733923,
      0.21042933
    ],
    [
      -0.30037642,
      -0.08941151,
      0.39532703,
      0.0027096341
    ],
    [
      0.02161503,
      0.033516098,
      0.7580354,
      0.09527995
    ],
    [
      -0.21409233,
      -0.08489157,
      0.80072314,
      -0.03366037
    ],
    [
      -0.15045543,
      -0.27248707,
      0.41010687,
      -0.17693023
    ],
    [
      -0.010665862,
      0.1495352,
      1.0897295,
      0.13593653
    ],
    [
      -0.36968544,
      0.18460587,
      -0.19360653,
      0.32048732
    ],
    [
      -0.20123656,
      0.07707378,
      -0.9362381,
      -0.15775679
    ],
    [
      0.13551192,
      -0.077757664,
      0.8914198,
      -0.07460189
    ],
    [
      -0.31845742,
      -0.095409766,
      0.37906986,
      0.15676318
    ],
    [
      -0.15174167,
      -0.14317328,
      0.101873145,
      -0.36856332
    ],
    [
      -0.025002645,
      0.027415607,
      -0.5266097,
      0.3911584
    ],
    [
      -0.066229805,
      0.21024257,
      0.92874795,
      0.25044203
    ],
    [
      -0.32203633,
      -0.019267518,
      -0.5410327,
      0.29031342
    ],
    [
      0.14150953,
      0.16242534,
      -0.39625525,
      0.016618747
    ],
    [
      -0.31437626,
      -0.15441258,
      0.25072998,
      -0.06272258
    ],
    [
      0.117423005,
      0.033291187,
      0.5740608,
      0.20581073
    ],
    [
      -0.11715278,
      0.13026871,
      1.138344,
      0.015428786
    ],
    [
      -0.15392348,
      -0.082280315,
      -0.8150761,
      -0.035806913
    ],
    [
      0.02526759,
      0.24212703,
      0.7927559,
      0.42230478
    ],
    [
      -0.1479207,
      0.02828833,
      -0.64725775,
      -0.15747246
    ],
    [
      0.16540551,
      -0.09069894,
      -0.06436852,
      0.4620076
    ],
    [
      0.042190425,
      0.18008131,
      0.99473214,
      0.024938405
    ],
    [
      -0.23346533,
      -0.04419683,
      0.91142577,
      0.06972526
    ],
    [
      -0.16314587,
      0.09145184,
      -0.99443996,
      -0.06285278
    ],
    [
      -0.06360468,
      -0.14987181,
      -0.97643685,
      -0.13160978
    ],
    [
      -0.1918269,
      0.05319795,
      1.0925756,
      -0.05326709
    ]
  ],
  "shared_fc1_bias": [
    0.64328533,
    0.3189612,
    0.67650396,
    0.6252203,
    -0.25211453,
    -0.73265314,
    -0.14910331,
    0.48924303,
    0.5665928,
    -0.3274443,
    -0.7424289,
    -0.39659405,
    -0.66608423,
    0.9144088,
    0.49463722,
    -0.36509237,
    1.0540277,
    0.43360102,
    -0.23660012,
    -0.5385606,
    0.31830963,
    0.6223662,
    0.4451388,
    -0.68006223,
    0.78951615,
    0.55637866,
    -0.60014427,
    0.44095665,
    -0.18124865,
    0.49473605,
    -0.49026728,
    0.58179194,
    0.4926601,
    -0.39871642,
    -0.7036936,
    -0.87234014,
    0.58604896,
    0.51560193,
    -0.82440317,
    0.4485883,
    -0.20245567,
    0.6670629,
    0.44603255,
    0.42360863,
    -0.78343123,
    -0.64418745,
    0.5083441,
    0.28617102,
    -0.62000394,
    -0.39926073,
    0.50758874,
    0.41597816,
    0.51204646,
    0.6391291,
    0.26723796,
    -0.5049317,
    -0.622023,
    0.87226766,
    0.43452528,
    0.90980685,
    0.70738703,
    0.49066076,
    -0.8158326,
    -0.9439161,
    0.19034657,
    -0.6858473,
    -0.3882821,
    -0.6807163,
    -0.092170246,
    0.6718112,
    -0.65251267,
    -0.423169,
    0.3609074,
    -0.37586284,
    -0.24811767,
    -0.18608926,
    0.4623787,
    0.6601541,
    -0.35190344,
    -0.6140947,
    -0.49934888,
    0.8571073,
    0.67274934,
    -0.6341181,
    0.6939523,
    -0.55212843,
    -0.7675474,
    0.45655578,
    0.7797655,
    0.41399986,
    -0.20844938,
    -0.73184067,
    0.7740687,
    0.3334373,
    -0.82983714,
    0.49497026,
    -0.35800514,
    -0.34550652,
    -0.57176584,
    -0.523865,
    0.49496305,
    -0.3607425,
    -0.58597505,
    -0.71819305,
    -0.46940282,
    0.29927304,
    -0.7152294,
    -0.504524,
    -0.4676402,
    -0.57905895,
    -0.39069545,
    -0.24895152,
    -0.4244,
    -0.18569176,
    0.2863057,
    -0.29353446,
    -0.4133681,
    -0.20766006,
    -0.56212884,
    -0.20144258,
    0.3115782,
    0.3897978,
    -0.5503653,
    0.8182426,
    -0.39890066,
    -0.5977107,
    -0.19561508,
    -0.51850945,
    0.3544894,
    0.83660644,
    0.48488364,
    -0.8882444,
    0.58375597,
    -0.19829677,
    -0.41697502,
    0.6501937,
    0.7438731,
    -0.5084166,
    0.44358134,
    0.3393458,
    0.626521,
    -0.63365805,
    -0.5073532,
    -0.6916701,
    0.90736365,
    -0.69179755,
    -0.23811473,
    0.99894536,
    -0.21543734,
    0.31050566,
    0.44416454,
    0.49488336,
    -0.49962097,
    -0.74118334,
    -0.24386425,
    -0.59874374,
    0.7702296,
    1.0022388,
    0.54406047,
    -0.6421124,
    -0.6495407,
    0.6334526,
    0.5772373,
    0.77521425,
    -0.41707963,
    0.42204666,
    0.68034965,
    0.6614329,
    -0.7734759,
    -0.6035945,
    -0.5579093,
    -0.50358325,
    0.75782245,
    -0.35598165,
    0.4725424,
    -0.52985626,
    0.38095045,
    -0.7892551,
    -0.6845232,
    0.7447916,
    -0.101564184,
    0.7075213,
    -0.49967018,
    0.41893083,
    0.5884373,
    -0.58782685,
    0.3381089,
    -0.63501453,
    -0.64634085,
    -0.22151244,
    0.38119125,
    0.87260365,
    -0.56338656,
    -0.2425755,
    0.69576544,
    -0.8555984,
    0.7437968,
    0.84100866,
    0.31181797,
    -0.6785263,
    0.6736263,
    0.2601654,
    -0.90162385,
    -0.32919973,
    0.49169773,
    -0.45176297,
    1.0314854,
    -0.4278941,
    -0.6965327,
    -0.8824539,
    -0.47268373,
    -0.28022715,
    0.9679677,
    0.728488,
    -0.5304662,
    0.4098498,
    -0.67006165,
    -0.86524206,
    0.88022554,
    0.79875565,
    -0.34746414,
    0.44334736,
    -0.6602865,
    -0.41519225,
    -0.4512684,
    -0.39586142,
    -0.50389624,
    0.52371293,
    -0.1389815,
    0.5953803,
    0.56266516,
    0.6471975,
    0.3216168,
    0.326184,
    0.497002,
    0.5651344,
    0.6150405,
    -0.14410934,
    -1.0226839,
    0.23945853,
    0.60020155,
    0.53477263,
    0.6880802,
    0.61118615,
    0.8056723,
    0.6112162,
    0.49609447,
    -0.35203218,
    -0.48619762,
    -0.44703826,
    -0.52026904,
    -0.44610912,
    -0.6526454,
    0.30573717,
    -0.4024109,
    0.3709316
  ],
  "shared_fc2_weight": [
    [
      0.6245194,
      0.6204865,
      0.75159633,
      -0.001229125,
      -0.31123555,
      0.14601792,
      0.45773986,
      1.0106217,
      -0.058796093,
      0.04340653,
      0.078190885,
      -0.5820904,
      0.10267322,
      0.039842032,
      -0.05130685,
      -0.13813603,
      -0.06998071,
      -0.18005998,
      0.1014667,
      0.05313979,
      -0.17176226,
      -0.022763964,
      -0.12328788,
      -0.79618937,
      0.87344503,
      0.32775974,
      -0.017656235,
      -0.01625303,
      0.35927692,
      -0.054175004,
      -0.042343553,
      0.47281727,
      0.739863,
      -0.60246646,
      -0.0069641755,
      0.16994527,
      0.27720633,
      1.0243798,
      -0.8894151,
      -0.09577112,
      -0.0029900915,
      0.795582,
      0.05837986,
      0.91905844,
      -0.6525654,
      0.1780759,
      0.873372,
      0.12847334,
      -0.63164705,
      0.13486026,
      0.20463276,
      0.23278174,
      0.01215535,
      1.1382895,
      0.3950664,
      0.052346986,
      -0.09777551,
      0.07039049,
      0.48080146,
      -0.06829107,
      1.2929538,
      0.22982965,
      -0.68508834,
      -0.5620023,
      -0.2791001,
      -0.02400425,
      -0.28487414,
      -0.38894328,
      -0.6469586,
      -0.08844011,
      -0.18040514,
      0.106804594,
      -0.009168346,
      0.17142491,
      0.08592694,
      -0.2661547,
      0.11335065,
      -0.076344356,
      0.058695782,
      -0.015904538,
      -0.07558667,
      1.5732656,
      0.94259787,
      -0.06368604,
      0.078808725,
      -0.046701416,
      -0.72362465,
      0.45702773,
      0.08063679,
      -0.17690343,
      -0.092417434,
      -0.58729273,
      0.0691665,
      -0.2538759,
      -1.3964038,
      -0.17484547,
      -0.17140648,
      -1.0415742,
      -0.010518273,
      -0.24858111,
      -0.07559376,
      -1.0239027,
      -0.91851884,
      -0.84827256,
      -0.008244532,
      0.020333858,
      0.09638197,
      -0.12128622,
      -0.18429717,
      -1.4114329,
      -0.51220745,
      0.04328636,
      0.027708288,
      0.14922808,
      0.37189102,
      0.060937706,
      0.102434896,
      -0.39599183,
      0.08516775,
      -0.9188087,
      0.5576184,
      0.1449379,
      0.09895417,
      0.5382431,
      0.07737412,
      -0.14962487,
      -0.121926285,
      -0.12845935,
      0.50144196,
      1.7708936,
      0.45734742,
      0.008452554,
      -0.053226396,
      -0.5118053,
      -0.4136828,
      -0.09642427,
      0.020447275,
      -0.6413074,
      0.031838596,
      -0.23221382,
      0.81000274,
      -0.57414603,
      0.21047927,
      -0.1169761,
      -0.052703954,
      -0.02026758,
      0.37932605,
      -0.3182982,
      -0.17913099,
      -0.09422027,
      0.081167005,
      -0.05579689,
      -0.19511998,
      0.058380492,
      -0.3167335,
      -0.89753884,
      0.9645375,
      0.84164375,
      1.065352,
      -0.7142878,
      0.06041697,
      1.0145581,
      0.050316427,
      1.1284727,
      0.20835942,
      0.2502228,
      1.5050093,
      -0.038025122,
      0.011803787,
      -0.55439204,
      0.09375059,
      -0.18261147,
      0.41650885,
      -1.1558853,
      0.28315836,
      0.04539951,
      -0.24707712,
      -0.46684772,
      -0.11113421,
      0.06761418,
      0.06464264,
      -0.075787924,
      -0.5542077,
      -0.12094002,
      0.181157,
      -0.14589405,
      -0.05334838,
      -0.9124632,
      -0.11194348,
      -0.034546014,
      0.627207,
      0.12539636,
      0.16531475,
      0.21284898,
      0.015715526,
      -1.0001681,
      -0.16275355,
      -0.012907933,
      -0.21156806,
      -0.03621781,
      0.10091655,
      -0.032272182,
      -0.08172713,
      -0.6179216,
      0.16417554,
      -0.7988439,
      0.01689608,
      -0.61662346,
      0.026002346,
      -0.02296249,
      -0.058079835,
      -0.3767934,
      1.2401408,
      0.23120815,
      -0.045197994,
      0.75191903,
      -0.057654485,
      -0.6165433,
      0.11263099,
      0.75619173,
      -0.18657993,
      -0.11940751,
      -0.21318956,
      0.14398956,
      0.23814422,
      -0.116132125,
      -0.11372647,
      1.044702,
      -0.31925082,
      0.30265507,
      0.69556946,
      -0.02822905,
      0.7351086,
      0.61178845,
      0.0071231863,
      0.8677823,
      0.6999027,
      -0.784492,
      -0.0844251,
      0.33721572,
      0.009733346,
      0.17626393,
      1.2624247,
      -0.24526264,
      1.2658573,
      0.092249624,
      0.28919837,
      0.16622236,
      -0.23972142,
      0.11808734,
      -0.5711734,
      0.05964809,
      0.042562366,
      0.62992716,
      0.10434811,
      0.57028466
    ],
    [
      -0.18241298,
      0.22243473,
      0.14633396,
      0.41165563,
      0.12839355,
      -0.35598886,
      0.07983546,
      0.23325603,
      0.32446122,
      -0.05323151,
      -0.6611969,
      0.32127506,
      -0.3386115,
      0.47805208,
      0.89102954,
      -0.23190586,
      0.14745335,
      -0.21481258,
      0.04196116,
      -0.055214018,
      0.08356777,
      0.2166979,
      0.1769745,
      -0.12234354,
      0.28762197,
      -0.09268945,
      -0.18524788,
      0.03707474,
      0.10525882,
      0.15736309,
      -0.0054007634,
      -0.094403915,
      0.3125128,
      -0.022797912,
      -0.33977732,
      -0.13273402,
      0.37196755,
      0.2325815,
      -0.20709969,
      0.1724377,
      0.1491343,
      0.089021035,
      -0.008852868,
      -0.021783315,
      0.007447679,
      -0.34775412,
      -0.027346192,
      0.091612816,
      0.13373543,
      -0.089122586,
      0.12504366,
      0.24565354,
      0.21186604,
      0.14108434,
      0.09985993,
      -0.14629169,
      -0.12093078,
      0.48459303,
      0.06152626,
      0.27647173,
      0.047793835,
      0.067378536,
      0.04409579,
      -0.028370364,
      0.044013526,
      -0.5028706,
      0.1822251,
      -0.14303719,
      -0.3134813,
      -0.023150751,
      -0.24290678,
      -0.1568056,
      0.06521213,
      0.104361385,
      -0.24664788,
      0.16358623,
      -0.011870088,
      0.30891123,
      0.094935246,
      -0.4722166,
      -0.40095007,
      0.32205898,
      0.3375142,
      -0.067371905,
      0.3585644,
      -0.27195227,
      -0.21085791,
      -0.23637335,
      0.28712028,
      -0.0040557534,
      -0.12030509,
      -0.24757335,
      0.36437455,
      -0.23222,
      -0.2861076,
      0.1026041,
      -0.038625058,
      0.00035456734,
      0.038184687,
      -0.21319553,
      0.28025696,
      0.018487914,
      -0.06368366,
      -0.1632474,
      0.18650979,
      0.12406708,
      -0.22632553,
      -0.07860428,
      -0.1571708,
      -0.0759499,
      -0.19553123,
      -0.09229834,
      -0.3679029,
      -0.13900192,
      -0.11362088,
      -0.40729916,
      -0.25196934,
      0.009609959,
      -0.25614324,
      -0.084066525,
      0.0991317,
      0.18708499,
      0.009362454,
      0.09073693,
      0.09711255,
      0.12359271,
      0.02038619,
      -0.32546505,
      0.12182922,
      0.16277693,
      -0.23889384,
      -0.14274897,
      0.16753918,
      0.05851215,
      0.08067252,
      0.15910302,
      0.20624459,
      0.12558894,
      0.2982582,
      -0.059530575,
      0.23403631,
      0.0037812036,
      -0.25500825,
      -0.46210802,
      0.011969635,
      -0.12713785,
      -0.08602806,
      0.10829149,
      -0.21238935,
      0.30623075,
      0.14191268,
      0.4030574,
      -0.14334449,
      -0.20366943,
      0.27129087,
      -0.20295936,
      0.13646193,
      0.011764806,
      0.20598295,
      -0.16746317,
      -0.06381341,
      0.09010662,
      0.3864127,
      -0.06643214,
      -0.10144588,
      -0.13719827,
      0.31671882,
      0.70964324,
      -0.27835175,
      -0.022649331,
      -0.2762483,
      -0.4146058,
      0.009296783,
      -0.21743986,
      0.28735077,
      -0.27072126,
      0.11009219,
      -0.18083265,
      -0.5582761,
      0.13019124,
      -0.18483979,
      0.36639866,
      0.01183313,
      -0.07655708,
      0.0847423,
      -0.25337124,
      0.045703232,
      -0.18362819,
      -0.119071074,
      0.046393212,
      0.18402644,
      0.37004086,
      -0.00852066,
      0.0038821567,
      0.09099944,
      -0.22278696,
      0.142937,
      0.33555418,
      -0.3028081,
      -0.2900157,
      0.20387755,
      0.07393192,
      -0.6206607,
      0.02176682,
      0.3582423,
      -0.13125572,
      0.25937617,
      0.13376158,
      -0.6384671,
      -0.20514606,
      0.13406281,
      -0.19889148,
      0.15630531,
      0.19567056,
      -0.18184194,
      0.24905106,
      -0.31878293,
      -0.1156129,
      0.2581654,
      0.05401483,
      0.07743683,
      -0.0010700685,
      0.05468301,
      -0.06061916,
      0.0032579822,
      -0.7541656,
      0.008417788,
      0.27849537,
      -0.20701718,
      0.100106895,
      0.18454234,
      0.063442744,
      -0.0398073,
      -0.1156433,
      0.17030881,
      0.105126694,
      0.36399284,
      -0.06336766,
      -0.6264627,
      -0.08638584,
      0.27837643,
      0.06591333,
      0.2878505,
      0.3455873,
      0.11501537,
      0.10533431,
      0.114776246,
      0.0025353795,
      0.12100989,
      0.23783626,
      -0.0670616,
      -0.20466831,
      -0.5690733,
      0.1783456,
      0.040986408,
      -0.2433146
    ],
    [
      -0.020364909,
      -0.047508348,
      -0.10318344,
      0.22239313,
      0.26268908,
      0.14468054,
      -0.27625114,
      0.04379444,
      0.2602612,
      -0.026355093,
      -0.19108963,
      0.18231435,
      -0.6214913,
      0.3511382,
      0.18492925,
      0.019683592,
      -0.14210841,
      0.4675271,
      -0.15355048,
      -0.29753873,
      0.16066024,
      0.46354413,
      0.21348211,
      0.19610697,
      0.07843925,
      -0.26900047,
      -0.19528233,
      -0.2794025,
      -0.19869843,
      0.6458134,
      -0.098322906,
      -0.20879573,
      -0.18421355,
      0.39888266,
      -0.4325037,
      -0.004690864,
      -0.059853543,
      -0.11934679,
      0.11598602,
      0.029310454,
      0.21039604,
      -0.057126746,
      0.20423162,
      -0.10137572,
      0.34275183,
      -0.40294632,
      -0.20147617,
      -0.22990695,
      0.071689695,
      -0.17974466,
      0.3744836,
      -0.06775458,
      0.17971088,
      -0.30043477,
      -0.42887834,
      -0.106371455,
      0.024206733,
      0.8146538,
      0.0007512151,
      0.51061,
      -0.09236144,
      -0.16237555,
      0.077036485,
      0.24819404,
      0.38391444,
      -0.6144513,
      0.2483522,
      0.08759963,
      0.119384035,
      0.43468812,
      0.14571378,
      -0.4814502,
      -0.29742777,
      -0.9654961,
      -0.04938026,
      0.3165228,
      -0.09865731,
      0.2725879,
      -0.054168202,
      -0.12937692,
      0.26517275,
      -0.044616643,
      -0.3274976,
      -0.5487981,
      -0.1531852,
      -0.038695645,
      0.09784247,
      -0.29083562,
      0.06868014,
      0.496067,
      0.102093466,
      0.19352794,
      0.43377814,
      0.14881702,
      0.13622111,
      0.28976306,
      0.26470423,
      0.18239309,
      -0.10550569,
      0.0022760038,
      -0.34671584,
      0.11648419,
      -0.09267571,
      0.13523851,
      -0.74207026,
      -0.13986075,
      -1.0221001,
      0.045153137,
      0.2131766,
      -0.049273442,
      0.1340019,
      -0.2560377,
      -0.16546683,
      0.015321376,
      -0.22035803,
      0.0019364575,
      -0.07497288,
      0.38015583,
      0.1701385,
      0.27593917,
      -0.32439652,
      0.27228096,
      -0.43010828,
      -0.09824119,
      0.13984527,
      0.17079641,
      0.022867562,
      0.110271834,
      -0.088800386,
      -0.16060974,
      -0.34129855,
      -0.33374676,
      -0.11467785,
      -0.14117892,
      0.39394316,
      0.2995258,
      0.7007587,
      0.20965384,
      0.062193718,
      -0.028041283,
      -0.09403525,
      0.12248058,
      -0.46378055,
      -0.19987802,
      -0.09024384,
      -0.39543012,
      -0.25457317,
      0.15784274,
      0.085397035,
      0.28125677,
      0.15671326,
      0.07132798,
      0.07461563,
      -0.1378524,
      0.37165782,
      0.25545043,
      -0.18977538,
      -0.10159442,
      -0.317288,
      0.14122869,
      -0.3476679,
      -0.1747118,
      -0.06705954,
      -0.18264224,
      -0.025673883,
      -0.30396178,
      -0.16397706,
      0.5016475,
      -0.5294314,
      0.20382221,
      0.048367575,
      -0.05207937,
      -0.22392146,
      -0.037358947,
      0.0047356975,
      0.026411572,
      0.21907625,
      0.21523227,
      -1.0784547,
      0.77820677,
      -0.2718709,
      0.800215,
      0.17481242,
      0.06869484,
      -0.11670268,
      0.115347154,
      -0.0652816,
      0.0048808586,
      -0.43713954,
      0.14814167,
      -0.12927794,
      0.83023393,
      -0.35942814,
      -0.24885295,
      0.72193766,
      0.18887734,
      0.98678106,
      0.6256293,
      0.043923736,
      -0.26032355,
      -0.0013744364,
      -0.12335293,
      -1.0050567,
      0.31186837,
      0.07152929,
      0.1395047,
      0.0694953,
      0.3290104,
      -0.41268635,
      -0.56186247,
      0.090224855,
      -0.08012844,
      -0.07334229,
      0.18923119,
      0.013874067,
      0.022484092,
      0.08205011,
      0.17173019,
      -0.11407223,
      -0.2606083,
      0.19359909,
      -0.23953709,
      0.049723595,
      -0.4136317,
      -0.25855383,
      0.09152703,
      0.0920871,
      -0.07103331,
      0.26010147,
      -0.45991823,
      -0.17062859,
      0.41083786,
      -0.37147993,
      -0.17674944,
      0.22776183,
      -0.17701633,
      -0.1993393,
      0.18950458,
      -0.91838956,
      -0.09000881,
      0.33162925,
      0.006255384,
      -0.056816623,
      0.18978524,
      -0.14321208,
      0.42848468,
      -0.20876412,
      -0.4089274,
      0.05921997,
      -0.07086917,
      0.24515145,
      -0.12353327,
      -0.4908023,
      -0.12972444,
      -0.10475944,
      -0.25166768
    ],
    [
      -0.5770376,
      -0.6702055,
      -0.6183436,
      0.138262,
      0.268717,
      0.06336408,
      -0.37263864,
      -1.1460348,
      -0.08319588,
      -0.14852789,
      0.09370233,
      0.39883363,
      0.079740345,
      -0.14261338,
      -0.13799664,
      0.2682919,
      0.014851695,
      0.13045609,
      -0.27768624,
      -0.16792765,
      0.038924504,
      0.19655026,
      0.071004994,
      0.8686525,
      -0.73034936,
      -0.3782491,
      0.2220209,
      0.22784413,
      -0.35036498,
      0.013370105,
      0.07102804,
      -0.6084745,
      -0.5781512,
      0.7301182,
      -0.020989945,
      -0.03854225,
      -0.27794296,
      -1.03466,
      0.76964694,
      -0.006632447,
      -0.030685412,
      -0.8245916,
      0.16115989,
      -0.9123531,
      0.55397135,
      0.07118507,
      -0.7587898,
      -0.29795772,
      0.44871795,
      -0.060980357,
      0.044035167,
      -0.24835569,
      0.23723015,
      -1.223599,
      -0.32380682,
      -0.119753115,
      0.09511918,
      0.131841,
      -0.3736303,
      0.007865451,
      -1.1710858,
      -0.4684604,
      0.75306547,
      0.59663343,
      0.2033756,
      -0.033980146,
      0.5251907,
      0.34338886,
      0.8016359,
      0.09138233,
      0.109423906,
      -0.03097372,
      0.12603219,
      -0.118846126,
      0.229762,
      0.35623908,
      -0.01820992,
      0.047844335,
      0.020813089,
      0.018746143,
      -0.003943342,
      -1.6297643,
      -0.6682769,
      0.0219849,
      0.017169384,
      -0.041066702,
      0.4544351,
      -0.34141988,
      0.08795066,
      -0.040926337,
      -0.007621891,
      0.51727074,
      0.038202807,
      0.38054496,
      1.4358029,
      0.075035386,
      0.20086922,
      0.96878505,
      -0.024438644,
      0.34345794,
      -0.0065664537,
      0.89154965,
      0.7133167,
      0.9038238,
      -0.11899233,
      0.0019107851,
      0.049859498,
      0.015277794,
      0.27489963,
      1.3496985,
      0.5791713,
      -0.012065843,
      -0.018389689,
      -0.091783404,
      -0.33912745,
      0.032230027,
      -0.1301711,
      0.34766272,
      -0.032275032,
      0.8268733,
      -0.7325141,
      -0.05047192,
      -0.069652274,
      -0.69576305,
      -0.20368792,
      0.31368035,
      0.01466449,
      0.17240736,
      -0.3745612,
      -1.7774888,
      -0.5054282,
      0.097072594,
      -0.2662949,
      0.33153152,
      0.58117914,
      0.029059814,
      0.18835966,
      0.34838447,
      -0.07466562,
      0.177458,
      -0.8172078,
      0.5863754,
      -0.12732957,
      -0.08796692,
      0.017719276,
      -0.15363842,
      -0.10648759,
      0.045008685,
      0.097312115,
      0.016653629,
      0.004183528,
      -0.22713192,
      0.20105031,
      0.05524239,
      0.30003005,
      0.54540604,
      -0.86018616,
      -0.87058395,
      -0.80063415,
      0.88606155,
      -0.05410623,
      -0.9348881,
      0.06424305,
      -1.0964289,
      -0.12624271,
      -0.29272386,
      -1.7629713,
      0.12444174,
      -0.051596846,
      0.42830932,
      -0.030635804,
      0.24364404,
      -0.59319353,
      1.4108325,
      -0.22976917,
      0.12990367,
      -0.023253333,
      0.35607323,
      0.072320595,
      0.11148994,
      -0.12339841,
      -0.07455125,
      0.7177419,
      0.10704364,
      -0.091966316,
      0.031571936,
      0.06364424,
      0.8293118,
      -0.065427236,
      0.08075899,
      -0.7736695,
      0.056984082,
      0.030965438,
      -0.31816348,
      0.025057843,
      0.8712626,
      0.028064804,
      0.04253938,
      0.33939186,
      0.06665987,
      -0.22154506,
      0.19222906,
      -0.011361291,
      0.65339845,
      0.0316166,
      0.8978165,
      -0.18131065,
      0.45072898,
      -0.05066515,
      -0.040083207,
      -0.056800846,
      0.5126362,
      -1.0084538,
      -0.053986248,
      0.25793228,
      -0.6785473,
      -0.004580488,
      0.55181426,
      0.025180759,
      -0.7509048,
      0.21704319,
      0.12783991,
      0.3290057,
      -0.08630287,
      -0.1192279,
      -0.023781624,
      0.26199552,
      -1.109597,
      0.2626497,
      -0.29671478,
      -0.81108075,
      0.11375499,
      -0.5741095,
      -0.4815814,
      0.13927889,
      -0.8836507,
      -0.7657397,
      0.8028283,
      -0.11373875,
      -0.42488137,
      0.023519346,
      -0.18341586,
      -1.3560389,
      0.18744908,
      -1.3009481,
      0.16682515,
      -0.39732307,
      -0.10981242,
      0.30958343,
      -0.20162264,
      0.61783,
      0.06344143,
      -0.15979801,
      -0.77485985,
      -0.17352976,
      -0.55643415
    ],
    [
      0.31882802,
      0.50392985,
      0.7302764,
      0.07533231,
      -0.31152865,
      0.0068013454,
      0.03807434,
      0.956761,
      -0.24927692,
      0.2962304,
      0.18484303,
      -0.25665927,
      -0.062965274,
      -0.1756359,
      -0.00145997,
      -0.6159332,
      -0.046619985,
      -0.19728313,
      0.1489788,
      0.015033543,
      -0.05356881,
      -0.17126006,
      0.04097274,
      -0.5391272,
      0.68847567,
      0.34649834,
      0.045228224,
      0.16793957,
      0.16503915,
      -0.10786545,
      0.13005011,
      0.49355555,
      0.5417016,
      -0.46896118,
      0.15141234,
      -0.16334838,
      0.28850326,
      0.5276991,
      -0.36878183,
      -0.03994175,
      0.12778199,
      0.97901744,
      -0.17684555,
      0.98579645,
      -0.7392457,
      0.072717026,
      0.3809001,
      0.3673553,
      -0.5214137,
      0.2528368,
      -0.14316161,
      0.3053159,
      -0.23036455,
      0.8460054,
      0.2749264,
      -0.11166608,
      -0.05317614,
      -0.13943091,
      0.34153214,
      -0.10387236,
      0.5929756,
      0.2476726,
      -0.53375953,
      -0.62439144,
      -0.028957764,
      0.060014226,
      -0.37164572,
      -0.1870503,
      -0.54250884,
      0.04323799,
      -0.31932235,
      0.13337909,
      -0.0951448,
      0.1265418,
      -0.3027832,
      0.2582222,
      0.44170082,
      -0.13359343,
      0.018261991,
      0.18902472,
      0.018169198,
      0.9640306,
      0.28191057,
      0.091294825,
      0.12168778,
      0.057933178,
      -0.44538188,
      0.19580157,
      0.06298686,
      -0.06337853,
      -0.5428248,
      -0.44743735,
      -0.052493945,
      -0.01302536,
      -0.9125183,
      -0.1819071,
      -0.34880376,
      -0.5954654,
      -0.007736701,
      -0.29729047,
      -0.11333022,
      -0.7026638,
      -0.5195597,
      -0.2572009,
      0.23459563,
      0.5934893,
      0.1641072,
      -0.098274805,
      0.29381362,
      -1.0544955,
      -0.4526208,
      -0.40916657,
      0.20300113,
      -0.28980264,
      0.2639475,
      -0.0015872569,
      0.18399303,
      -0.4914637,
      0.047712684,
      -0.6685792,
      0.7838616,
      0.011789623,
      0.06809562,
      0.73007244,
      0.18047956,
      -0.6097513,
      0.41932675,
      -0.13828303,
      0.18598197,
      1.2303214,
      0.3022568,
      -0.068380974,
      0.038361367,
      -0.16409592,
      -0.36418402,
      -0.07885153,
      -0.123147875,
      -0.31984726,
      -0.08391491,
      -0.15725337,
      0.81242526,
      -0.5842795,
      0.025646292,
      0.07090443,
      0.075808346,
      0.1054944,
      0.30972877,
      -0.22871263,
      -0.63415104,
      -0.42491633,
      -0.12123404,
      0.28762004,
      -0.17800547,
      -0.02126682,
      -0.17803079,
      -0.1178165,
      0.5612803,
      0.665476,
      0.6216171,
      -0.516843,
      0.010178787,
      0.86723983,
      0.20216142,
      0.84813285,
      0.06210634,
      0.42309615,
      1.1545335,
      -0.12369862,
      0.12198764,
      -0.29978088,
      0.03304067,
      -0.05457561,
      0.82758677,
      -0.9759802,
      0.15248199,
      -0.16956723,
      -0.026666854,
      -0.06071582,
      0.051210575,
      -0.015653754,
      -0.14771335,
      -0.122861624,
      -0.26571342,
      -0.00435079,
      0.3369953,
      0.18639758,
      -0.25316244,
      -0.63115215,
      0.04020979,
      0.3742153,
      0.6377738,
      0.1288663,
      -0.10504551,
      0.14121403,
      -0.09735855,
      -0.99679875,
      0.06511875,
      -0.062284645,
      -0.23916812,
      0.06656184,
      0.35697052,
      -0.1716386,
      0.06479709,
      -0.4147916,
      -0.010849904,
      -1.0213202,
      -0.06747296,
      -0.3872392,
      0.071535766,
      0.14013733,
      -0.020317648,
      -0.65668476,
      0.8530316,
      0.13762242,
      -0.007848492,
      0.87751114,
      -0.1224405,
      -0.9881809,
      0.021071246,
      0.70962745,
      -0.4181267,
      0.075240694,
      -0.564865,
      0.0906726,
      0.13824213,
      0.02617698,
      -0.6725167,
      0.73080665,
      -0.62672913,
      0.42546713,
      0.47198087,
      -0.107117325,
      0.17390284,
      0.4188209,
      0.024217231,
      0.45875356,
      0.58162403,
      -0.435175,
      0.14091206,
      0.38886026,
      -0.16477713,
      -0.059942335,
      0.822492,
      0.058704946,
      1.3527675,
      -0.17448136,
      -0.08754827,
      -0.000025417052,
      -0.5752257,
      0.15460561,
      -0.5048021,
      -0.070047066,
      -0.1622061,
      0.43969703,
      0.043035597,
      0.18387629
    ],
    [
      0.08358751,
      -0.0144095905,
      -0.11067865,
      0.21240647,
      0.35706916,
      -0.28760356,
      -0.19199304,
      -0.08274821,
      0.019292817,
      -0.6035967,
      -0.50480026,
      -0.07923659,
      -0.764442,
      0.46129328,
      0.37568492,
      0.23436184,
      0.0166517,
      0.79757637,
      -0.19566835,
      -0.38148203,
      0.67264307,
      0.59037155,
      0.61456263,
      -0.07001538,
      -0.005062374,
      -0.18743862,
      0.07031825,
      -0.1894838,
      -0.4275275,
      0.63224703,
      -0.15749344,
      -0.059437156,
      -0.21480176,
      0.042122394,
      -0.13274187,
      -0.098483875,
      -0.008997636,
      -0.15570228,
      0.16347392,
      0.1226208,
      -0.5162378,
      -0.16973372,
      0.6337809,
      -0.25894445,
      0.0034833292,
      -0.21435039,
      0.022066344,
      -0.27168924,
      0.028033506,
      -0.8986009,
      0.7879251,
      -0.02851553,
      0.9685818,
      0.01780729,
      -0.024744602,
      -0.25184622,
      -0.14221561,
      0.44604865,
      -0.06811365,
      0.7280817,
      0.053003423,
      -0.29375753,
      0.047209516,
      0.049640335,
      0.47138837,
      -0.68729097,
      0.14023253,
      0.12998497,
      0.24578957,
      0.24427538,
      0.16112979,
      -0.9911448,
      0.487689,
      -0.69663876,
      0.3213751,
      0.1456706,
      -0.052120157,
      0.28984886,
      -0.65802294,
      -0.6613379,
      -0.2976141,
      -0.049993794,
      0.13978165,
      -1.1742661,
      -0.04178242,
      -0.17367429,
      0.008925088,
      -0.07666952,
      -0.08731524,
      0.23964271,
      0.29904038,
      0.11767405,
      0.52418256,
      0.05694012,
      -0.05684424,
      0.44979516,
      0.27908638,
      0.22113645,
      -0.2699634,
      0.060134754,
      0.24967735,
      0.2757694,
      -0.19780946,
      -0.059484918,
      -0.8428317,
      -0.20559806,
      -1.0615377,
      0.047465328,
      -0.37974188,
      0.0027526957,
      0.2103703,
      0.39201298,
      -0.49887732,
      0.38097033,
      -0.19502974,
      -0.3478442,
      -0.062968045,
      0.271822,
      -0.15383029,
      0.08783141,
      -0.08779927,
      0.13290691,
      -0.79642063,
      -0.031970017,
      -0.157642,
      0.14706863,
      -0.38499156,
      0.23130214,
      -0.09633627,
      -0.11232609,
      -0.009738453,
      -0.20724168,
      0.20767467,
      0.13987859,
      0.12906589,
      0.28136063,
      0.51998705,
      0.10981176,
      0.16368072,
      0.45459515,
      0.03456376,
      0.10609429,
      0.16092204,
      -0.5313308,
      -0.061530907,
      -0.5698763,
      -0.6284691,
      0.20531073,
      0.44631064,
      0.43573275,
      0.8836112,
      -0.14856459,
      0.24775465,
      -0.45534965,
      0.23697945,
      -0.0035721993,
      0.12075397,
      -0.081464864,
      -0.1824102,
      0.03028754,
      -0.7189037,
      -0.13791701,
      -0.13830635,
      -0.12976138,
      -0.69434464,
      -0.20971748,
      -0.13173816,
      0.91379046,
      -0.97861993,
      0.10634452,
      0.037656482,
      0.19185305,
      -0.022247065,
      0.36745304,
      -0.010351203,
      -0.054900102,
      0.06024104,
      -0.043261178,
      -0.5383914,
      0.6612368,
      -0.020364191,
      0.77079713,
      0.0026301295,
      0.8018289,
      -0.05707015,
      -0.1845687,
      0.7498089,
      0.028574599,
      0.0023459867,
      -0.36749443,
      -0.11780726,
      0.6469562,
      -0.71129346,
      -0.41450116,
      0.96021897,
      0.05394257,
      0.86298203,
      0.81964004,
      0.06261148,
      -0.5922837,
      -0.13913465,
      0.63576406,
      -0.69616455,
      0.14311284,
      0.008793327,
      0.051318087,
      0.025078116,
      0.25089785,
      -0.36745873,
      -0.7298305,
      0.121118076,
      0.14964068,
      -0.12965168,
      0.17788729,
      0.20290466,
      -0.1975316,
      -0.08432996,
      -0.05940343,
      0.13060188,
      -0.05226817,
      0.20671512,
      -0.059219114,
      0.16162989,
      -0.2641761,
      -0.74191624,
      -0.34789553,
      0.040751033,
      -0.070620276,
      0.16752818,
      -0.053593587,
      -0.20573272,
      0.420822,
      -0.08801411,
      -0.15824467,
      0.35023987,
      -0.08588784,
      -0.079992406,
      0.14749779,
      -0.7705252,
      -0.3190028,
      0.9091946,
      0.21274005,
      -0.23794968,
      0.47257254,
      -0.027486032,
      0.82833284,
      0.2801665,
      -0.8328779,
      0.094283864,
      -0.6808106,
      0.09656396,
      0.037057437,
      -0.53251547,
      -0.16181105,
      -0.37386665,
      0.040124606
    ],
    [
      -0.7360351,
      0.15390432,
      -0.33938122,
      0.079131514,
      0.27666834,
      -0.08024895,
      0.41225326,
      0.32243684,
      0.2554967,
      0.5613761,
      -0.08866224,
      0.4570063,
      -0.08449943,
      0.017816989,
      0.27605134,
      -0.53263944,
      -0.13750108,
      -0.13339223,
      1.3454567,
      0.5221142,
      -0.20415033,
      -0.06612497,
      0.12074024,
      -0.19873019,
      0.10802664,
      -0.1867417,
      -0.26139036,
      -0.6138898,
      1.1940587,
      0.09065578,
      0.371201,
      -0.5937069,
      0.16738729,
      0.87449986,
      -0.20837346,
      0.541675,
      0.18445502,
      0.15722775,
      -0.06732945,
      -0.5083075,
      1.0980717,
      -0.28738555,
      -0.31593987,
      0.1478798,
      0.4665079,
      -0.27257395,
      -0.60146797,
      0.41665983,
      0.058272056,
      0.5890291,
      -0.1635001,
      0.34072578,
      -0.2397867,
      -0.12246922,
      0.3106123,
      0.14990391,
      0.45005438,
      0.122349195,
      -0.7258191,
      0.19436558,
      -0.13024499,
      0.21593367,
      0.5087853,
      0.067512885,
      -0.76679057,
      -0.008539838,
      0.9174177,
      -0.15231699,
      -0.84808964,
      -0.27356336,
      -0.12371013,
      0.16107659,
      -0.6839592,
      0.63462776,
      -0.45628053,
      0.6630284,
      -0.28596744,
      0.11862361,
      0.3697224,
      -0.12119718,
      -0.12226955,
      0.04342498,
      0.32196432,
      0.051124364,
      0.1798794,
      0.21582086,
      0.10126302,
      -0.6421237,
      0.24956094,
      -0.1251996,
      -0.59634185,
      -0.13857916,
      0.16874029,
      -0.35964233,
      0.051469322,
      -0.2591927,
      -0.058670156,
      -0.26019844,
      0.41850936,
      -0.21447796,
      0.022038035,
      -0.23617327,
      0.26173496,
      0.45102373,
      0.1975585,
      0.19308802,
      0.11353462,
      -0.017238824,
      0.44302103,
      -0.18412633,
      -0.3924522,
      -0.38663572,
      0.05728379,
      -0.44897708,
      -0.45323732,
      -0.3984666,
      -0.10695597,
      -0.2469797,
      -0.16498682,
      -0.4451432,
      0.08366651,
      -0.08771073,
      0.2301188,
      -0.09357738,
      1.1708758,
      0.21971789,
      1.0393836,
      -0.07631184,
      -0.7321986,
      0.035326235,
      -0.60793567,
      0.13431917,
      0.1813461,
      0.16947517,
      0.71007127,
      -0.32027757,
      0.20090254,
      0.33674,
      0.41648498,
      -0.72654605,
      0.26300547,
      0.29705665,
      0.2547238,
      0.14500102,
      -0.38572073,
      0.046891294,
      1.0248364,
      -0.29403156,
      -0.42372128,
      -0.59275925,
      -0.16241384,
      0.42980272,
      -0.1388686,
      0.08684311,
      0.84464675,
      0.4309002,
      -0.09389288,
      -0.33360243,
      -0.002948868,
      -0.034180097,
      0.18512928,
      0.14480563,
      0.16958839,
      -0.056481265,
      0.8858018,
      -0.21458304,
      0.015472969,
      0.12340805,
      0.013255246,
      0.59577304,
      0.06341841,
      -0.24391635,
      0.117574535,
      -0.31310838,
      0.39811882,
      -0.018434638,
      -0.27900448,
      0.18530999,
      -0.17319979,
      -0.13705778,
      0.19640496,
      0.18346553,
      0.6188628,
      -0.46410805,
      0.10040643,
      0.11594654,
      -0.83729094,
      -0.26874077,
      0.277421,
      0.87159735,
      0.38661683,
      0.048855897,
      0.45729572,
      1.1314099,
      -0.22518907,
      0.5590545,
      -0.16343178,
      -0.21050854,
      -0.794467,
      0.1018214,
      -0.25805786,
      -0.53838927,
      -0.007107713,
      -0.082610264,
      0.28756535,
      0.0028907657,
      0.106069736,
      0.54890794,
      0.045269404,
      -0.002336597,
      0.6260426,
      -0.41133195,
      -0.03582024,
      0.30106458,
      -0.29949313,
      0.343309,
      -0.25472462,
      0.3846016,
      -0.047732692,
      -0.40321073,
      0.10610442,
      -0.04200366,
      0.09587929,
      -0.2242097,
      0.37139204,
      -0.15217508,
      0.12827267,
      0.21148789,
      -0.4771197,
      -0.3639534,
      -0.11162154,
      -0.22481555,
      -0.47867966,
      -0.15864345,
      -0.1963718,
      -0.12134249,
      0.18049482,
      -0.46469346,
      -0.022753254,
      0.057593387,
      -0.0724281,
      -0.445972,
      -0.02669248,
      0.2867279,
      -0.17548598,
      -0.32815936,
      -0.42482838,
      0.27718458,
      -0.12550592,
      0.7573002,
      0.06887134,
      -0.2852754,
      -0.26056778,
      0.33949682,
      1.0726204,
      -0.37049145
    ],
    [
      -0.11249298,
      -0.0698172,
      -0.08323601,
      -0.20028466,
      0.0069764326,
      0.123800844,
      0.03474504,
      0.015543914,
      -0.39177325,
      0.44907126,
      0.5201873,
      0.10932738,
      0.86990017,
      -0.5447331,
      -0.3586835,
      0.0072124745,
      -0.1766173,
      -0.7961317,
      -0.06470583,
      0.43647197,
      -0.42819694,
      -1.1448818,
      -0.4005202,
      0.2626604,
      -0.1788538,
      0.043790966,
      0.2546869,
      -0.11635475,
      0.054173753,
      -0.43634987,
      0.19745235,
      0.008436218,
      -0.097928315,
      0.0026236204,
      0.27912197,
      0.27096215,
      -0.07908002,
      0.04936332,
      -0.07429726,
      -0.23562695,
      0.23689653,
      -0.2226953,
      -0.6077291,
      0.019385708,
      -0.090916395,
      0.6034738,
      0.1758702,
      0.23577374,
      0.0034774668,
      0.61682713,
      -0.5181783,
      -0.046365242,
      -0.968985,
      0.06597259,
      -0.24157454,
      -0.049007516,
      0.041991796,
      -0.6055043,
      -0.034458704,
      -0.38077852,
      -0.11996015,
      0.10080436,
      -0.08416139,
      0.111315124,
      -0.15209238,
      0.64500254,
      -0.1877231,
      0.09024646,
      -0.10730433,
      -0.312147,
      0.17914595,
      0.6801995,
      -0.3021715,
      0.35494083,
      0.28037727,
      -0.1297534,
      0.031015877,
      -0.19639027,
      0.45345947,
      0.5673774,
      0.23874654,
      -0.00718633,
      -0.118681185,
      0.96402806,
      -0.22702335,
      0.4490376,
      0.009049625,
      0.11016719,
      -0.181373,
      -0.3981864,
      0.012720481,
      0.17586885,
      -0.4454515,
      -0.1780892,
      0.20008421,
      -0.6994121,
      0.003072613,
      -0.07801673,
      0.30678368,
      -0.047510084,
      -0.33786485,
      0.13968498,
      -0.15162353,
      -0.010336608,
      0.5119895,
      0.08032205,
      0.83478624,
      0.028643195,
      0.61076015,
      0.03434895,
      0.06343103,
      0.01413902,
      0.57656723,
      0.10072374,
      0.12697816,
      0.5697712,
      0.17746596,
      0.09694265,
      0.1187526,
      0.009374715,
      0.09039166,
      -0.0372998,
      0.79569185,
      -0.004936348,
      0.03874315,
      0.044331767,
      -0.08015509,
      0.0067562084,
      0.18500908,
      -0.19302954,
      0.063299656,
      0.10889761,
      -0.21420047,
      -0.33491078,
      -0.06891061,
      -0.5154764,
      -0.65018076,
      0.04307548,
      -0.35643637,
      -0.34610453,
      -0.1115904,
      -0.0786716,
      0.19778496,
      0.53906494,
      -0.09908347,
      0.60657567,
      0.13228153,
      -0.047897436,
      -0.054732163,
      -0.29887682,
      -0.5236192,
      0.09735416,
      0.12694591,
      0.54452324,
      -0.100050196,
      0.08526391,
      -0.038970754,
      -0.043735072,
      -0.008699579,
      0.222647,
      0.844508,
      -0.10915511,
      -0.08786277,
      -0.1495449,
      0.53641224,
      0.084157795,
      -0.047314048,
      -0.9106538,
      1.0188477,
      -0.008035277,
      0.10104675,
      0.13931878,
      -0.2211235,
      -0.18971084,
      -0.08040228,
      -0.012327186,
      -0.1297889,
      0.08352296,
      0.8408059,
      -0.7750603,
      -0.13468234,
      -0.80521965,
      -0.0070350724,
      -0.52460295,
      -0.04760902,
      0.004568772,
      -0.2686556,
      -0.14087471,
      0.01314673,
      0.14225596,
      -0.037248712,
      -0.8461118,
      0.6280424,
      -0.022464521,
      -1.0356879,
      -0.02569689,
      -0.9697923,
      -0.9387766,
      -0.16240232,
      0.9677157,
      -0.16899061,
      -0.15355963,
      0.88471025,
      -0.047362544,
      -0.23851039,
      0.029257778,
      -0.2019314,
      -0.17950298,
      0.5083068,
      0.6947363,
      0.009522721,
      -0.10678967,
      -0.08336413,
      -0.14697465,
      0.061705556,
      -0.08676546,
      0.271693,
      0.027962767,
      -0.21967874,
      0.002889151,
      -0.011858134,
      -0.017546585,
      -0.07454542,
      0.40318012,
      0.6476339,
      0.42386177,
      0.12142704,
      -0.19810319,
      -0.14781144,
      0.06933059,
      0.03367751,
      -0.42816788,
      0.2390012,
      -0.05291874,
      -0.1969864,
      0.015557441,
      -0.07623632,
      0.034118704,
      1.1275079,
      0.11711735,
      -0.71774054,
      -0.23727138,
      0.108344294,
      -0.4167905,
      -0.3024647,
      -0.7172431,
      -0.019686375,
      0.51088566,
      -0.011734583,
      0.53751767,
      -0.1128897,
      0.23910278,
      0.9051388,
      -0.11387332,
      0.20413667,
      0.072638385
    ],
    [
      -0.086395755,
      0.3890397,
      0.26881224,
      0.15931135,
      -0.15249166,
      -0.01660716,
      0.7055608,
      0.2534384,
      0.11316791,
      0.534611,
      0.15190338,
      0.13416381,
      0.8282258,
      -0.4077236,
      -0.2662864,
      -0.21982785,
      -0.003722677,
      -0.7256868,
      0.48291242,
      0.4930636,
      -0.5825789,
      -0.43541035,
      -0.57477474,
      -0.12669869,
      0.318004,
      -0.057963107,
      -0.025685435,
      -0.22381635,
      0.7445085,
      -0.06670268,
      0.15875404,
      -0.22740407,
      0.14379384,
      0.33144927,
      0.057903174,
      0.3776823,
      0.09688551,
      0.2825534,
      -0.0927934,
      -0.22579727,
      0.3075136,
      -0.08213502,
      -0.60277873,
      0.24611603,
      0.156,
      0.28986135,
      -0.17998344,
      0.16186108,
      -0.032101426,
      0.71166444,
      -0.48251507,
      0.20606464,
      -0.78219223,
      -0.015572935,
      0.3125397,
      -0.0026672396,
      0.14222589,
      -0.5918949,
      -0.0789894,
      -0.20237473,
      0.012026332,
      0.29424915,
      0.11386127,
      -0.082716435,
      -0.70847684,
      0.5757193,
      0.16781293,
      -0.021063501,
      -0.47546345,
      -0.32192522,
      -0.07765871,
      0.60600805,
      -0.28344074,
      0.7381677,
      -0.099973164,
      -0.0440431,
      -0.25807223,
      -0.29487798,
      0.29612413,
      0.54370344,
      0.111201525,
      0.15830284,
      0.38582578,
      1.035806,
      0.09678243,
      0.03157615,
      0.08595783,
      -0.20723204,
      0.27850598,
      -0.08060837,
      -0.11504674,
      -0.11727001,
      -0.34485152,
      -0.079496324,
      -0.06586352,
      -0.5662129,
      -0.04498379,
      -0.334566,
      0.29040292,
      -0.25516775,
      -0.021483663,
      -0.27728194,
      0.08641322,
      0.07773677,
      0.83606,
      0.06347831,
      0.37787437,
      -0.151573,
      0.12248889,
      -0.19365561,
      -0.2636793,
      -0.15958934,
      0.14259017,
      -0.31498224,
      -0.09507204,
      0.15713246,
      -0.03810804,
      -0.19462669,
      -0.07902978,
      -0.4840167,
      0.018529652,
      0.21398365,
      0.5634939,
      0.17693332,
      0.49891722,
      0.2251659,
      0.41573143,
      -0.025520697,
      -0.07294278,
      0.289781,
      -0.21951294,
      -0.14356133,
      0.25564697,
      -0.27462012,
      0.19893488,
      -0.7066639,
      -0.4589722,
      -0.16011105,
      -0.00016061921,
      -0.48078808,
      0.17841631,
      -0.07099883,
      0.07227428,
      0.26626316,
      -0.16349164,
      0.23002355,
      0.8015621,
      0.079576656,
      -0.23466213,
      -0.41152996,
      -0.61155874,
      0.05839343,
      -0.14788039,
      0.33566925,
      0.2026212,
      -0.076058574,
      -0.06947893,
      -0.135202,
      0.008092341,
      -0.15509978,
      0.69565046,
      0.042603485,
      0.08656082,
      0.06390281,
      0.8498442,
      0.08723311,
      0.09729304,
      -0.36983302,
      0.6717949,
      0.013184482,
      -0.12766062,
      -0.1530554,
      0.21219544,
      -0.30569464,
      0.1710373,
      -0.12440026,
      -0.018006125,
      -0.11216445,
      0.6073177,
      -0.6925043,
      -0.12062614,
      -0.7777123,
      0.32035902,
      -0.8594154,
      0.021683995,
      -0.046959404,
      -0.5045915,
      -0.28453237,
      -0.050038204,
      0.24480605,
      0.2461922,
      -0.6457485,
      0.8596479,
      0.6078628,
      -0.65491784,
      0.279024,
      -0.91239244,
      -0.4960463,
      -0.60766435,
      0.5605375,
      0.05385912,
      -0.654852,
      0.749556,
      -0.34023523,
      0.15041216,
      0.070732936,
      -0.08732613,
      0.14156434,
      0.46368238,
      0.33075294,
      0.06989655,
      -0.21271676,
      0.047318973,
      0.15417595,
      -0.015954439,
      0.31001475,
      -0.20904396,
      0.08518816,
      0.2562961,
      -0.224935,
      -0.18798271,
      -0.16023166,
      0.04961066,
      0.4483693,
      0.5127742,
      0.20426668,
      -0.07735956,
      0.28654853,
      -0.117037065,
      0.13350098,
      0.042071946,
      -0.40341908,
      0.07690672,
      -0.062494107,
      -0.17938018,
      0.19680375,
      0.25678605,
      -0.3490932,
      0.81056935,
      0.2865161,
      -0.5348546,
      -0.088243246,
      0.16521946,
      -0.3233067,
      -0.041152403,
      -0.62723833,
      0.16598642,
      0.5230485,
      -0.056369983,
      0.9329229,
      -0.0594915,
      -0.15828413,
      0.77973986,
      0.36600184,
      0.49358717,
      0.192905
    ],
    [
      0.58593094,
      0.47445285,
      0.889428,
      0.12475379,
      -0.1910123,
      0.08693598,
      0.33972317,
      1.0477122,
      -0.10674655,
      0.1439903,
      -0.12428054,
      -0.63100594,
      0.029647073,
      -0.0068214424,
      -0.039850418,
      -0.3980216,
      0.038804565,
      0.14191206,
      0.12588619,
      0.15382355,
      0.025845554,
      -0.14467387,
      -0.13163947,
      -0.961349,
      0.726605,
      0.35914317,
      0.03745232,
      0.2993525,
      0.44916937,
      -0.0724941,
      -0.024997333,
      0.765767,
      0.59176654,
      -0.33152932,
      -0.06791612,
      -0.0810766,
      0.123019524,
      0.84184813,
      -0.7432746,
      -0.05412497,
      0.14662386,
      0.8893006,
      0.026347045,
      0.9952532,
      -0.85278577,
      0.017702734,
      0.69463545,
      0.09888137,
      -0.5325801,
      0.061116047,
      -0.114629865,
      0.18211408,
      -0.21912552,
      1.1966454,
      0.039522193,
      0.10467477,
      0.2172624,
      0.08094702,
      0.57265806,
      0.009625073,
      1.2084864,
      0.41210243,
      -0.8020096,
      -0.67008305,
      -0.0880384,
      0.10105706,
      -0.36904576,
      -0.4711115,
      -0.4708493,
      -0.23171811,
      -0.23552608,
      -0.020386675,
      -0.07386672,
      0.15362263,
      -0.07656666,
      -0.43737993,
      0.37474298,
      0.07711931,
      0.12091682,
      0.04710315,
      -0.14506568,
      1.5492606,
      0.64945614,
      0.013862069,
      -0.07107767,
      -0.06342841,
      -0.5836837,
      0.34444255,
      0.0033555208,
      -0.0813936,
      -0.3098869,
      -0.4562059,
      0.055322096,
      -0.3012257,
      -1.3402779,
      -0.03857783,
      -0.2688112,
      -0.962365,
      -0.051443644,
      -0.19496652,
      -0.028209085,
      -0.8873546,
      -0.86896163,
      -0.730118,
      0.022748342,
      0.24898839,
      -0.10101046,
      -0.2090652,
      -0.014398323,
      -1.3103516,
      -0.42883903,
      0.07411212,
      0.015290257,
      -0.2471424,
      0.3879474,
      0.07121801,
      0.22440821,
      -0.36016595,
      0.021962717,
      -0.71435153,
      0.8985902,
      0.013162325,
      0.0034858948,
      0.7777653,
      0.13292389,
      -0.5600775,
      0.19588658,
      0.025433535,
      0.52724975,
      1.7840623,
      0.46101052,
      -0.048504565,
      0.018015916,
      -0.4233317,
      -0.6024678,
      -0.13663818,
      0.027835457,
      -0.64825946,
      -0.011673318,
      -0.19608708,
      0.72199816,
      -0.8030306,
      0.026306493,
      -0.06569485,
      -0.0065104202,
      0.017057585,
      0.14222468,
      -0.009186653,
      -0.15137774,
      -0.0050460105,
      -0.07873175,
      0.23285098,
      -0.15290648,
      0.13548735,
      -0.27067092,
      -0.55885315,
      0.7491462,
      0.8716594,
      0.8206665,
      -0.8599292,
      -0.003371635,
      0.9759952,
      -0.019877704,
      0.92943966,
      0.028404051,
      0.24841633,
      1.5755757,
      -0.023138255,
      -0.01578505,
      -0.5490615,
      0.08906351,
      -0.19922431,
      0.56095356,
      -1.2225614,
      0.2687234,
      -0.03386212,
      -0.14554447,
      -0.3708567,
      0.08887354,
      -0.20928183,
      -0.014696903,
      -0.12185254,
      -0.5856471,
      -0.067298256,
      0.23234807,
      -0.088757284,
      -0.036481887,
      -0.9863929,
      -0.06934141,
      0.03654757,
      0.49915951,
      -0.11145712,
      0.1379314,
      0.17256701,
      -0.1323903,
      -1.0134287,
      -0.0072687557,
      -0.0676082,
      -0.27900913,
      0.03799787,
      0.06664777,
      -0.088788815,
      0.1790794,
      -0.50633466,
      -0.016331859,
      -0.78048193,
      -0.07407867,
      -0.5164804,
      0.172342,
      -0.055741623,
      -0.186488,
      -0.38996476,
      1.249099,
      0.13043745,
      -0.013573038,
      0.85585797,
      -0.10557801,
      -0.8074044,
      0.15627642,
      0.9233683,
      -0.06712212,
      0.22516228,
      -0.50330645,
      0.09023005,
      0.17638983,
      -0.045349922,
      -0.35754505,
      0.9350172,
      -0.3365273,
      0.25557363,
      0.67882323,
      -0.09839715,
      0.52330065,
      0.5790997,
      -0.036116965,
      0.7156634,
      0.60924214,
      -0.6497528,
      0.05942716,
      0.467614,
      0.02119185,
      -0.15166555,
      1.3745123,
      -0.2169746,
      1.5218604,
      -0.0068689473,
      0.3144281,
      0.23739249,
      -0.38789365,
      0.13078107,
      -0.6612849,
      0.048769277,
      0.19427021,
      0.7859833,
      0.26613963,
      0.50452775
    ],
    [
      0.6764566,
      -0.52336234,
      0.06973398,
      -0.20379682,
      -0.15894692,
      0.25469235,
      -0.44346353,
      -0.33606595,
      -0.3464212,
      -0.4842894,
      -0.07920422,
      -0.69547343,
      0.17539047,
      0.009487443,
      -0.19657363,
      0.10779728,
      0.054347232,
      0.18481556,
      -1.6976136,
      -0.3073894,
      0.34380573,
      0.08015401,
      -0.044620823,
      0.20181485,
      -0.15506996,
      0.5001298,
      0.16544744,
      0.6656393,
      -0.87852407,
      0.10039094,
      -0.37737095,
      0.4883832,
      -0.30254543,
      -0.78165144,
      0.0032186562,
      -0.6247905,
      -0.118387304,
      -0.12147817,
      -0.1690048,
      0.3238438,
      -1.1816534,
      0.22322327,
      0.18148954,
      -0.08122258,
      -0.41891512,
      0.2428936,
      0.5846508,
      -0.3259498,
      -0.06607813,
      -0.6234415,
      0.18682964,
      -0.34148917,
      0.31141073,
      0.1138728,
      -0.45597047,
      -0.18644321,
      -0.44340834,
      -0.08458543,
      0.7865798,
      0.034615733,
      0.11616266,
      -0.29274932,
      -0.47960886,
      -0.12138086,
      0.82238114,
      0.21697408,
      -0.8058692,
      0.12670536,
      0.9957252,
      0.37311983,
      0.19611008,
      -0.13008223,
      0.7114495,
      -0.50030094,
      0.36939844,
      -0.63444245,
      0.48336488,
      -0.05696171,
      -0.56592804,
      0.14775203,
      0.29169375,
      -0.17166057,
      -0.04603259,
      -0.106129654,
      -0.25407192,
      -0.046578757,
      -0.009700136,
      0.6919204,
      -0.3336003,
      0.32071018,
      0.37481377,
      0.23883414,
      -0.100935675,
      0.40512916,
      -0.26719642,
      0.2518917,
      -0.04834806,
      0.2207603,
      -0.5016737,
      0.11648321,
      -0.0021565938,
      0.3878425,
      -0.12474086,
      -0.50603724,
      -0.047034856,
      -0.20828566,
      -0.12559897,
      0.18450107,
      -0.51686263,
      0.18860808,
      0.29831943,
      0.36855915,
      -0.103869066,
      0.49463144,
      0.19120158,
      0.34988943,
      0.078064784,
      0.15427765,
      0.33644792,
      0.5568658,
      0.020657016,
      -0.1427654,
      -0.20914859,
      0.035994,
      -1.1165466,
      -0.14813685,
      -0.91574365,
      0.15089427,
      0.67228955,
      -0.022877509,
      0.69209236,
      -0.06834683,
      -0.2279696,
      -0.13054752,
      -0.50278664,
      0.37057325,
      -0.18259896,
      -0.40375355,
      -0.26562774,
      0.99010736,
      -0.2521199,
      -0.18444894,
      -0.058097865,
      0.037422005,
      0.5646825,
      -0.08825398,
      -0.95506024,
      0.18993025,
      0.39926654,
      0.6816853,
      0.2843451,
      -0.19400561,
      0.20971712,
      0.00068679237,
      -0.74887073,
      -0.5597021,
      0.25810418,
      0.26749754,
      0.12164173,
      -0.11332182,
      0.010226963,
      -0.100749604,
      -0.10247613,
      0.0011707257,
      -0.91166764,
      0.09700952,
      -0.19171631,
      -0.10706065,
      0.022846386,
      -0.56146634,
      -0.103783526,
      0.36543146,
      -0.020449236,
      0.4109662,
      -0.25404838,
      0.22540116,
      0.183415,
      -0.43547422,
      0.21631064,
      0.1988294,
      -0.19751713,
      0.056707554,
      -0.62470734,
      0.54767,
      -0.14429438,
      -0.069817,
      0.80211014,
      0.1912083,
      -0.23460601,
      -0.76585156,
      -0.3151102,
      0.10986757,
      -0.47225595,
      -1.2531302,
      0.31345063,
      -0.5806318,
      0.107817926,
      -0.07736584,
      0.8833254,
      -0.081477545,
      0.12549104,
      0.34156263,
      -0.04127009,
      0.034095846,
      -0.30968666,
      -0.094909094,
      -0.057628747,
      -0.42757675,
      0.11121566,
      -0.15631759,
      -0.614338,
      0.50018716,
      -0.052798368,
      -0.053243525,
      0.1940154,
      -0.2290327,
      0.26997936,
      -0.3276977,
      -0.00910881,
      0.41528535,
      0.02021859,
      0.32462028,
      -0.23000987,
      0.34737766,
      -0.41545296,
      0.22315218,
      -0.093617365,
      -0.1976838,
      0.42803654,
      0.27572313,
      -0.0056131184,
      0.23496912,
      0.53995717,
      0.12084425,
      0.30400363,
      0.089800775,
      -0.31971103,
      0.49289367,
      -0.09872103,
      -0.2060907,
      0.038494963,
      0.6699218,
      -0.08102923,
      0.0048930794,
      0.031404443,
      0.1664633,
      0.38941622,
      -0.63447034,
      0.18137853,
      -0.6953137,
      0.08072349,
      0.2035764,
      0.34409195,
      -0.33109564,
      -1.2097547,
      0.46658555
    ],
    [
      0.45622802,
      0.4687691,
      0.9612498,
      -0.03326336,
      -0.4674103,
      -0.017455818,
      0.11582425,
      0.9875128,
      0.00006722025,
      0.0851237,
      -0.040353473,
      -0.43001807,
      0.18514585,
      -0.029318804,
      -0.066167794,
      -0.5129637,
      -0.03534412,
      -0.17509127,
      0.11136688,
      -0.07247396,
      -0.16033332,
      -0.110818975,
      -0.1728723,
      -0.6629521,
      0.7264193,
      0.35305667,
      0.03151827,
      0.38826308,
      0.25182936,
      -0.008190625,
      0.117222905,
      0.5893911,
      0.66898,
      -0.49793172,
      0.16839811,
      0.045629494,
      0.47343454,
      0.65982574,
      -0.4731193,
      0.074209064,
      0.16015987,
      0.90320826,
      -0.20463088,
      0.87045133,
      -0.71364886,
      0.28006583,
      0.67685324,
      0.5075264,
      -0.7139164,
      0.10195421,
      -0.20204014,
      0.21943024,
      -0.004840421,
      1.3386159,
      0.04803701,
      -0.016600668,
      -0.080842726,
      -0.09779519,
      0.47124282,
      -0.1036814,
      1.1539246,
      0.46399745,
      -0.63292223,
      -0.6924505,
      -0.09849436,
      0.23585853,
      -0.47425202,
      -0.27705294,
      -0.44870272,
      0.059000984,
      -0.44561738,
      0.17556512,
      0.037530687,
      0.091796026,
      0.09156692,
      -0.13554667,
      0.3565283,
      -0.10202267,
      0.26138768,
      0.011382267,
      0.057210766,
      1.2285687,
      0.53311795,
      -0.10711299,
      -0.0683298,
      -0.053338636,
      -0.41927612,
      0.45975533,
      0.09364398,
      -0.035959534,
      -0.41450983,
      -0.4179317,
      -0.041250303,
      -0.16887523,
      -1.1059595,
      -0.016310085,
      -0.63891923,
      -0.79243845,
      -0.029049365,
      -0.36271283,
      -0.06921713,
      -0.7661573,
      -0.6121211,
      -0.6448296,
      0.10123543,
      0.34509125,
      0.17040527,
      -0.10058623,
      0.013970267,
      -1.2233149,
      -0.40484354,
      -0.18520398,
      0.19416052,
      -0.2250687,
      0.6100111,
      0.20906563,
      0.020587616,
      -0.5375889,
      0.02882999,
      -0.6597527,
      0.789652,
      -0.015771661,
      0.055964023,
      0.5952058,
      -0.064271465,
      -0.6404434,
      0.34054917,
      -0.1392753,
      0.24259856,
      1.6891344,
      0.63729614,
      0.081535794,
      -0.0249768,
      -0.34721872,
      -0.68974227,
      -0.21865124,
      0.032225758,
      -0.6422769,
      -0.056281626,
      -0.29661703,
      1.0023913,
      -0.62922347,
      0.03319398,
      0.02797364,
      0.1027716,
      0.06912619,
      0.087083474,
      0.018388484,
      -0.35773018,
      -0.2160165,
      -0.044259317,
      0.26759318,
      -0.2815428,
      0.04103893,
      -0.3384053,
      -0.25036907,
      0.73655164,
      1.0973482,
      0.93167955,
      -0.6064118,
      0.19142005,
      1.0017258,
      -0.007374145,
      0.9644863,
      0.19689333,
      0.4627276,
      1.3389702,
      -0.15430818,
      0.033283196,
      -0.41556996,
      -0.18180048,
      -0.22283573,
      0.7216388,
      -1.228624,
      0.23661901,
      -0.045354623,
      0.0049057384,
      -0.26891714,
      0.048811562,
      -0.013796874,
      -0.22299014,
      0.06562076,
      -0.5366017,
      -0.062514775,
      0.11007177,
      -0.112204544,
      -0.12941124,
      -0.77219576,
      0.057182085,
      0.06636476,
      0.62252545,
      -0.024723124,
      -0.034895927,
      0.27763534,
      -0.20545137,
      -0.87453675,
      0.01785548,
      0.013354352,
      -0.18401253,
      0.18718423,
      0.30719337,
      -0.14542915,
      -0.11379594,
      -0.6037896,
      -0.079424374,
      -0.8092423,
      -0.1527883,
      -0.61769724,
      0.12182689,
      0.062462308,
      -0.24869193,
      -0.5683441,
      1.0976835,
      0.10174844,
      -0.2169213,
      0.9528537,
      -0.027786255,
      -0.9055711,
      0.20485663,
      0.6586701,
      -0.280554,
      0.17738295,
      -0.45848757,
      0.16229843,
      -0.018926332,
      0.09261361,
      -0.57372034,
      0.86774,
      -0.3299584,
      0.10716901,
      0.4580458,
      -0.034138422,
      0.36691988,
      0.4494693,
      -0.13144386,
      0.47630858,
      0.585431,
      -0.439981,
      0.0121904155,
      0.69895655,
      0.0031082781,
      -0.008164125,
      0.93766505,
      -0.1655937,
      1.5348413,
      -0.21026257,
      0.21558006,
      0.12992898,
      -0.24368276,
      0.046531077,
      -0.77245903,
      0.017056538,
      0.21053922,
      0.56607103,
      -0.02804618,
      0.33608386
    ],
    [
      -0.15119149,
      0.5157688,
      0.031325243,
      0.3978255,
      0.3057237,
      -0.30412474,
      -0.03184963,
      0.2845933,
      0.5096473,
      -0.006058463,
      -0.26850548,
      0.46237993,
      -0.24701487,
      0.30565643,
      0.5106699,
      -0.37156767,
      0.07437217,
      0.2000839,
      0.12823512,
      0.0898086,
      -0.08647778,
      -0.07726133,
      0.15674372,
      -0.17578992,
      0.123954445,
      -0.13122016,
      -0.25279528,
      -0.16427007,
      0.32742012,
      0.17366455,
      0.108971156,
      -0.29984388,
      0.3671527,
      0.28553706,
      -0.42109007,
      0.19657731,
      0.27235714,
      0.24744612,
      0.22523856,
      -0.10875432,
      0.5730187,
      0.09925782,
      0.07046312,
      0.25436014,
      0.2614596,
      -0.36169046,
      -0.47600186,
      0.35085127,
      0.48294026,
      0.09904525,
      0.025270311,
      0.32980606,
      0.030445404,
      -0.12038433,
      0.55058587,
      -0.35294762,
      -0.058472667,
      0.48254284,
      -0.20015602,
      0.2944122,
      0.0114974165,
      0.30583677,
      0.3152655,
      -0.27046642,
      -0.18282567,
      -0.5162633,
      0.32281923,
      -0.29385433,
      -0.36684415,
      0.10215706,
      -0.13573995,
      0.10814464,
      -0.21255131,
      -0.06297187,
      -0.5527033,
      0.30904776,
      -0.1464832,
      0.5481461,
      0.18762943,
      -0.20283297,
      -0.3588709,
      0.017931422,
      0.15575588,
      -0.10774872,
      0.26923728,
      -0.017666182,
      0.13642068,
      -0.18261687,
      0.25675026,
      0.13451731,
      -0.25045267,
      -0.13136245,
      0.3146567,
      0.060543627,
      -0.059541762,
      0.044901084,
      0.062454157,
      -0.18001969,
      0.06329345,
      -0.32181984,
      0.03350857,
      0.03933865,
      -0.014486803,
      0.106750704,
      -0.14001389,
      0.39812338,
      -0.33511376,
      -0.21969928,
      -0.038090423,
      -0.18280822,
      -0.30386657,
      -0.82394075,
      -0.21704057,
      -0.7939423,
      0.03707598,
      -0.39116612,
      0.005898803,
      -0.041303817,
      -0.07980791,
      -0.43311566,
      0.08740851,
      0.2987554,
      -0.14674607,
      0.15895481,
      0.17390086,
      -0.047221895,
      0.33756712,
      -0.31247598,
      -0.13137601,
      0.08890182,
      -0.30059502,
      -0.17994133,
      0.28237563,
      -0.26447365,
      0.3783708,
      0.0126805045,
      0.29988748,
      0.36830792,
      0.34000844,
      -0.43610665,
      0.20381646,
      0.31829038,
      -0.26596543,
      -0.17997599,
      -0.04589947,
      -0.23631631,
      0.2946185,
      0.20694785,
      -0.43316898,
      -0.052366965,
      0.0668018,
      0.36695406,
      -0.33755437,
      -0.25804335,
      0.42418104,
      0.1872304,
      -0.09277942,
      -0.08282816,
      0.12743828,
      0.12769109,
      -0.1317139,
      0.079358645,
      0.20491368,
      0.28035888,
      0.3352344,
      -0.18792996,
      0.22269052,
      0.023930939,
      -0.13529427,
      0.20049165,
      -0.008145587,
      -0.51345026,
      0.17530902,
      -0.12222894,
      0.30034053,
      -0.3282353,
      0.16776453,
      0.12302454,
      -0.44034716,
      0.26395005,
      -0.3030436,
      0.31975254,
      0.35280126,
      -0.24191815,
      0.22004575,
      0.0840127,
      -0.16252604,
      -0.14655483,
      -0.29841202,
      0.27789474,
      0.3918689,
      0.55742246,
      -0.0645202,
      0.13662474,
      -0.028149115,
      0.05822657,
      0.37083286,
      0.28385815,
      -0.6532842,
      -0.049193285,
      -0.19668938,
      -0.36935076,
      -0.43215105,
      0.101061605,
      0.21830839,
      -0.13727336,
      0.17703393,
      0.40137056,
      -0.23257408,
      -0.25211135,
      0.11186664,
      -0.2074063,
      0.0073298053,
      0.36556777,
      -0.27802974,
      0.27126715,
      -0.33684218,
      0.15223092,
      0.14857657,
      -0.16647087,
      -0.07645509,
      0.0018062958,
      -0.19219215,
      -0.20281036,
      0.269538,
      -0.58634746,
      -0.040581252,
      0.14276633,
      -0.3885269,
      0.021061584,
      -0.27154383,
      0.0344245,
      -0.23924099,
      -0.0850366,
      0.040955126,
      -0.08042713,
      0.419426,
      -0.41477075,
      -0.32830617,
      0.26717535,
      0.043310836,
      -0.17653452,
      0.19687478,
      0.3434853,
      0.06643118,
      -0.05329998,
      -0.024880297,
      0.09812837,
      -0.17488079,
      0.23692596,
      0.05075098,
      -0.10947302,
      -0.34287143,
      0.5983544,
      0.16511339,
      0.0016299584
    ],
    [
      0.1961764,
      -0.005674814,
      -0.18415819,
      0.1213494,
      0.034063276,
      -0.1045488,
      0.07984793,
      -0.38696727,
      0.014137116,
      -0.32101053,
      -0.048917923,
      -0.37845415,
      -0.04601309,
      0.17399716,
      0.06490983,
      0.4209085,
      0.09561401,
      0.09100201,
      -0.45889366,
      -0.25606236,
      0.08528276,
      0.17854477,
      0.08883505,
      -0.07022254,
      -0.08470081,
      0.13045645,
      -0.070915036,
      -0.08612043,
      -0.4507291,
      0.03867036,
      -0.08295497,
      0.23963866,
      -0.32479718,
      -0.4534576,
      0.007958883,
      -0.14939314,
      -0.1243379,
      -0.06605236,
      -0.15621842,
      0.25021774,
      -0.25555223,
      0.1965799,
      0.19623196,
      -0.31257352,
      -0.24044576,
      0.008973521,
      0.32535255,
      -0.3298405,
      -0.06451714,
      -0.15594481,
      0.22397083,
      -0.30048355,
      0.17678861,
      0.15964532,
      -0.08669494,
      0.07835897,
      -0.16593812,
      0.2627625,
      0.31413445,
      0.058822606,
      0.2380554,
      -0.39399195,
      -0.32965806,
      0.06526292,
      0.17079695,
      0.0033583883,
      -0.4087797,
      -0.093930125,
      0.2284624,
      0.32996437,
      -0.0909472,
      -0.2455052,
      0.23712246,
      -0.23733294,
      0.44528332,
      -0.693963,
      -0.1976317,
      0.23008123,
      -0.314973,
      -0.12015021,
      0.0970918,
      0.3811006,
      0.003254424,
      -0.12981664,
      0.1920277,
      -0.14012183,
      -0.07221061,
      0.40730515,
      0.005535455,
      0.23174734,
      0.6246235,
      0.112419926,
      0.15523054,
      0.080000415,
      -0.21651633,
      0.16248514,
      -0.16297449,
      0.09014671,
      -0.23810647,
      0.25571305,
      0.22719175,
      0.016346533,
      -0.3434981,
      -0.43721855,
      -0.14274146,
      -0.587983,
      -0.13997418,
      0.043853104,
      -0.2565461,
      0.3353435,
      0.3129755,
      0.6088728,
      -0.12642848,
      0.3829664,
      0.059271645,
      0.030030023,
      0.13974442,
      0.10258825,
      -0.02311122,
      0.34892422,
      0.28123942,
      0.21259634,
      -0.16405892,
      -0.1013531,
      -0.10536157,
      0.09461835,
      -0.29445738,
      0.009533944,
      0.60867184,
      -0.21223308,
      0.25411016,
      -0.050915573,
      0.009805509,
      0.096746385,
      -0.27417573,
      0.14319883,
      -0.031598274,
      -0.21756393,
      -0.06271023,
      0.30828944,
      -0.33108172,
      -0.32861298,
      0.08516455,
      -0.11529486,
      0.15478356,
      -0.04311912,
      -0.12417001,
      0.0909758,
      0.65421015,
      0.24968085,
      0.18014647,
      -0.32188663,
      0.13471177,
      -0.015568897,
      -0.3002456,
      -0.2919749,
      0.35900056,
      0.30065918,
      0.1691986,
      -0.19461806,
      -0.0659649,
      -0.13441923,
      0.12787883,
      0.056762017,
      -0.18327883,
      0.15499544,
      -0.07594149,
      -0.06259519,
      -0.017050471,
      -0.33055094,
      0.05360952,
      -0.020887759,
      -0.52447194,
      0.31940597,
      -0.091674544,
      0.045398675,
      0.277866,
      -0.29089257,
      -0.041253146,
      0.16469727,
      -0.18822828,
      0.061197095,
      -0.30681643,
      0.29978174,
      -0.0077381385,
      -0.16329257,
      0.15693301,
      0.0068025775,
      0.025926305,
      -0.30224225,
      -0.21087019,
      0.057584688,
      -0.1200121,
      -0.1735944,
      0.25537708,
      -0.034082685,
      0.11711578,
      0.08687201,
      0.30769384,
      -0.1319903,
      0.09805587,
      0.4171516,
      -0.057618696,
      0.04825025,
      0.0069000856,
      0.09679269,
      0.037965674,
      -0.49685016,
      0.19789153,
      -0.01467891,
      0.08067256,
      0.4923183,
      0.36861748,
      0.04498798,
      0.17790835,
      -0.41262665,
      0.19583371,
      0.07572273,
      0.28193137,
      0.3838945,
      0.12655264,
      -0.07184208,
      0.2514135,
      0.037513,
      -0.16229583,
      -0.028117962,
      0.3500572,
      0.0890331,
      0.3996209,
      0.17044836,
      0.30444938,
      0.2738255,
      0.22271825,
      0.18515109,
      0.12215815,
      0.25700116,
      -0.031733926,
      0.1897674,
      0.010633976,
      -0.001651119,
      -0.02940965,
      0.24917744,
      0.21109448,
      0.15464748,
      -0.16517872,
      0.08059249,
      0.4775624,
      -0.19956282,
      0.38000968,
      -0.28789106,
      0.16207601,
      -0.13729885,
      -0.15641578,
      0.049870476,
      -0.37985724,
      0.16314964
    ],
    [
      0.16664805,
      -0.084886506,
      -0.43546504,
      -0.34179142,
      0.055950496,
      0.28045794,
      -0.54241234,
      -0.22452262,
      -0.060111545,
      0.23031354,
      0.10490876,
      0.06669416,
      0.31567773,
      -0.06129746,
      -0.17738128,
      0.0647967,
      -0.26510134,
      -0.13570957,
      -0.2736663,
      -0.016618565,
      -0.19965978,
      -0.25280693,
      -0.11127147,
      0.27837947,
      -0.24953952,
      0.2463136,
      0.21719833,
      0.33107102,
      -0.22336578,
      -0.30987608,
      0.21843132,
      0.21117212,
      -0.18317243,
      -0.24674235,
      0.10630261,
      -0.0055131316,
      -0.2883493,
      -0.0854298,
      0.3130963,
      -0.20971733,
      0.19263487,
      0.016817879,
      -0.3391057,
      -0.15676855,
      -0.11620511,
      0.35922876,
      -0.15748404,
      -0.061536342,
      0.037981406,
      0.08495375,
      -0.3356237,
      -0.26809382,
      -0.21481559,
      -0.22524151,
      -0.18340302,
      0.18535852,
      0.023557091,
      -0.21961084,
      0.1614057,
      -0.18627213,
      -0.041524075,
      -0.3573271,
      -0.15101752,
      -0.033458747,
      0.02392128,
      0.21507247,
      -0.16811468,
      0.20618372,
      0.28205603,
      0.05344774,
      0.017168779,
      0.15020767,
      -0.07387779,
      -0.13659431,
      -0.05516503,
      0.37074846,
      0.042811055,
      -0.029372618,
      0.07371509,
      0.12659809,
      0.115118,
      -0.33037347,
      -0.45340884,
      0.2888588,
      -0.08330331,
      0.24718912,
      0.072350554,
      0.21080585,
      -0.35362384,
      -0.3567946,
      0.06669306,
      0.2332461,
      -0.08757254,
      0.121050015,
      0.07654466,
      -0.19182493,
      0.019528871,
      0.16217443,
      0.1276463,
      0.15810935,
      -0.43358365,
      0.2596985,
      0.19068901,
      0.24894103,
      0.06592729,
      0.18632393,
      0.31436503,
      0.28908083,
      0.08829374,
      0.24181207,
      0.19138971,
      -0.24238712,
      0.19218165,
      0.014596627,
      0.16688834,
      0.23924312,
      0.32390225,
      0.22864972,
      0.3210766,
      0.46754903,
      -0.18311511,
      -0.24096665,
      0.09386734,
      -0.14559986,
      -0.6016161,
      -0.32915503,
      -0.25852048,
      0.23156211,
      0.09317002,
      -0.34621197,
      0.15641394,
      0.16559316,
      -0.06600443,
      -0.04822721,
      -0.1558641,
      0.24427308,
      -0.38217115,
      -0.27484134,
      -0.17804016,
      -0.17064083,
      -0.22002412,
      -0.06846386,
      0.10421808,
      0.3813849,
      0.109933466,
      0.11247813,
      -0.061264493,
      -0.33022043,
      0.066305876,
      -0.12873209,
      -0.2012354,
      -0.010381892,
      0.20324916,
      0.31414753,
      -0.16717735,
      0.23752075,
      -0.22143026,
      0.18136464,
      -0.36605066,
      0.36839417,
      0.2021122,
      -0.31679735,
      -0.12857583,
      -0.36080486,
      -0.2642008,
      0.10517015,
      -0.25282773,
      -0.145368,
      0.19874334,
      0.31509355,
      0.36130494,
      0.22584736,
      -0.14641693,
      0.1685736,
      -0.319717,
      0.32143322,
      -0.054225855,
      0.372771,
      0.20341976,
      -0.10465095,
      -0.25552395,
      -0.20614505,
      -0.11952948,
      -0.110994436,
      -0.3022789,
      0.26343262,
      -0.0877871,
      0.28503987,
      0.10313506,
      0.026761858,
      -0.17151006,
      -0.207921,
      -0.29720017,
      0.004155403,
      -0.21739362,
      -0.19647637,
      -0.1047437,
      -0.45032537,
      -0.08412647,
      0.36043137,
      -0.26162788,
      -0.075702414,
      0.28246993,
      0.37252262,
      -0.25952443,
      -0.079683356,
      -0.32218763,
      -0.11490552,
      0.077996105,
      0.22188829,
      0.104651175,
      0.061035026,
      0.034771502,
      -0.14188498,
      0.23780727,
      -0.04671997,
      0.04449483,
      0.01921906,
      -0.113584206,
      0.3184033,
      -0.02898277,
      -0.13588743,
      0.052128617,
      0.048116345,
      -0.024554016,
      0.20217712,
      0.076635756,
      -0.29749012,
      0.18855688,
      -0.17111742,
      -0.1630131,
      -0.25682473,
      -0.20534927,
      0.11714151,
      -0.20902792,
      -0.35206676,
      -0.32703856,
      0.005564348,
      0.056402702,
      0.14139141,
      -0.19986232,
      -0.20069091,
      -0.3042539,
      -0.35244292,
      -0.2072377,
      -0.20306827,
      -0.27488303,
      0.2042688,
      -0.111612536,
      -0.1680986,
      -0.20031007,
      0.28874856,
      0.243585,
      -0.1246211,
      -0.035396468,
      0.13728823
    ],
    [
      -0.21116097,
      0.11731195,
      -0.090264834,
      -0.06947847,
      -0.1410566,
      0.2111299,
      -0.22191125,
      0.58230937,
      -0.04657488,
      0.6060461,
      0.3456573,
      0.17015405,
      0.13290115,
      -0.40375933,
      -0.15826882,
      -0.77680737,
      -0.35035408,
      -0.6480397,
      0.07646904,
      -0.023015898,
      -0.39889842,
      -0.34130505,
      -0.22079703,
      -0.083979666,
      0.21500503,
      -0.009585025,
      0.066940255,
      0.14193432,
      0.30532116,
      -0.36576328,
      0.43405896,
      -0.09324806,
      0.43864462,
      0.0015465934,
      -0.18833423,
      0.17895655,
      0.021336231,
      0.3001566,
      -0.13050427,
      -0.27296993,
      0.4909436,
      0.19417281,
      -0.49752736,
      0.25018793,
      -0.09128064,
      -0.07740758,
      -0.44381833,
      0.3470111,
      0.0031079552,
      0.35364655,
      -0.19737613,
      0.3557283,
      -0.47142,
      -0.11781179,
      -0.11749155,
      0.4474348,
      0.18703184,
      0.05884456,
      0.12381238,
      -0.34088212,
      0.1610837,
      -0.06865959,
      -0.18238641,
      -0.56906533,
      -0.17622772,
      0.30716318,
      -0.23518553,
      0.08936871,
      -0.26507902,
      -0.11917282,
      0.06740735,
      0.5352425,
      -0.59020174,
      0.09534964,
      -0.44869363,
      0.077411585,
      0.106335804,
      0.043682605,
      0.4267784,
      0.3535408,
      0.27192208,
      -0.10700218,
      -0.2590088,
      0.36699757,
      -0.12882207,
      0.26296407,
      0.19377717,
      -0.016536722,
      0.17553462,
      -0.35490152,
      -0.47696435,
      0.04388016,
      -0.31375945,
      0.1927881,
      0.16776952,
      -0.38991445,
      -0.13818344,
      -0.11076145,
      0.22340825,
      -0.4037145,
      -0.44443506,
      -0.10714691,
      0.14529203,
      0.3514183,
      0.17588925,
      0.30565643,
      0.25264183,
      0.16652416,
      0.68286866,
      -0.47973981,
      -0.19790912,
      -0.35622212,
      0.5112675,
      -0.53064084,
      0.122652665,
      0.30455768,
